{"learning_rate":0.01,"input_layer":{"activations":[0.0,0.0,0.0,0.0,0.0,0.0,0.0,0.0,0.0,0.0,0.0,0.0,0.0,0.0,0.0,0.0,0.0,0.0,0.0,0.0,0.0,0.0,0.0,0.0,0.0,0.0,0.0,0.0,0.0,0.0,0.0,0.0,0.0,0.0,0.0,0.0,0.0,0.0,0.0,0.0,0.0,0.0,0.0,0.0,0.0,0.0,0.0,0.0,0.0,0.0,0.0,0.0,0.0,0.0,0.0,0.0,0.0,0.0,0.0,0.0,0.0,0.0,0.0,0.0,0.0,0.0,0.0,0.0,0.0,0.0,0.0,0.0,0.0,0.0,0.0,0.0,0.0,0.0,0.0,0.0,0.0,0.0,0.0,0.0,0.0,0.0,0.0,0.0,0.0,0.0,0.0,0.0,0.0,0.0,0.0,0.0,0.0,0.0,0.0,0.0,0.0,0.0,0.0,0.0,0.0,0.0,0.0,0.0,0.0,0.0,0.0,0.0,0.0,0.0,0.0,0.0,0.0,0.0,0.0,0.0,0.0,0.0,0.0,0.0,0.0,0.0,0.0,0.0,0.0,0.0,0.0,0.0,0.0,0.0,0.0,0.0,0.0,0.0,0.0,0.0,0.0,0.0,0.0,0.0,0.0,0.0,0.0,0.0,0.0,0.0,0.0,0.40234375,0.7890625,0.9921875,0.87109375,0.109375,0.0,0.0,0.36328125,0.1953125,0.0,0.0,0.0,0.0,0.0,0.0,0.0,0.0,0.0,0.0,0.0,0.0,0.0,0.0,0.0,0.0,0.0,0.14453125,0.83984375,0.98046875,0.98828125,0.98828125,0.98828125,0.671875,0.0,0.15234375,0.9375,0.4765625,0.0,0.0,0.0,0.0,0.0,0.0,0.0,0.0,0.0,0.0,0.0,0.0,0.0,0.0,0.0,0.0,0.05078125,0.74609375,0.98828125,0.87890625,0.46875,0.21875,0.98828125,0.68359375,0.0,0.2421875,0.98828125,0.359375,0.0,0.0,0.0,0.0,0.0,0.0,0.0,0.0,0.0,0.0,0.0,0.0,0.0,0.0,0.0,0.0,0.51171875,0.98828125,0.67578125,0.0546875,0.0,0.03515625,0.98828125,0.68359375,0.0,0.359375,0.98828125,0.16796875,0.0,0.0,0.0,0.0,0.0,0.0,0.0,0.0,0.0,0.0,0.0,0.0,0.0,0.0,0.0,0.0,0.546875,0.98828125,0.21484375,0.0,0.0,0.09375,0.98828125,0.68359375,0.05078125,0.72265625,0.953125,0.11328125,0.0,0.0,0.0,0.0,0.0,0.0,0.0,0.0,0.0,0.0,0.0,0.0,0.0,0.0,0.0,0.0,0.546875,0.98828125,0.3359375,0.0,0.0,0.37890625,0.94140625,0.23828125,0.32421875,0.98828125,0.78125,0.0,0.0,0.0,0.0,0.0,0.0,0.0,0.0,0.0,0.0,0.0,0.0,0.0,0.0,0.0,0.0,0.0,0.51171875,0.98828125,0.890625,0.6328125,0.1796875,0.37890625,0.609375,0.140625,0.90234375,0.98828125,0.4765625,0.0,0.0,0.0,0.0,0.0,0.0,0.0,0.0,0.0,0.0,0.0,0.0,0.0,0.0,0.0,0.0,0.0,0.05078125,0.70703125,0.9765625,0.98828125,0.97265625,0.81640625,0.14453125,0.4765625,0.98828125,0.6640625,0.02734375,0.0,0.0,0.0,0.0,0.0,0.0,0.0,0.0,0.0,0.0,0.0,0.0,0.0,0.0,0.0,0.0,0.0,0.0,0.0,0.390625,0.76953125,0.98828125,0.98828125,0.98828125,0.9921875,0.8828125,0.13671875,0.0,0.0,0.0,0.0,0.0,0.0,0.0,0.0,0.0,0.0,0.0,0.0,0.0,0.0,0.0,0.0,0.0,0.0,0.0,0.0,0.0,0.03515625,0.5625,0.89453125,0.98828125,0.9921875,0.71484375,0.0,0.0,0.0,0.0,0.0,0.0,0.0,0.0,0.0,0.0,0.0,0.0,0.0,0.0,0.0,0.0,0.0,0.0,0.0,0.0,0.0,0.0,0.0,0.0,0.6015625,0.9921875,0.99609375,0.9921875,0.6328125,0.0,0.0,0.0,0.0,0.0,0.0,0.0,0.0,0.0,0.0,0.0,0.0,0.0,0.0,0.0,0.0,0.0,0.0,0.0,0.0,0.0,0.0,0.2578125,0.88671875,0.98828125,0.703125,0.77734375,0.98046875,0.51953125,0.0,0.0,0.0,0.0,0.0,0.0,0.0,0.0,0.0,0.0,0.0,0.0,0.0,0.0,0.0,0.0,0.0,0.0,0.0,0.0,0.0,0.4140625,0.98828125,0.66796875,0.0234375,0.01953125,0.3515625,0.8671875,0.64453125,0.0,0.0,0.0,0.0,0.0,0.0,0.0,0.0,0.0,0.0,0.0,0.0,0.0,0.0,0.0,0.0,0.0,0.0,0.0,0.0,0.71484375,0.98046875,0.27734375,0.0,0.0,0.0,0.48046875,0.96875,0.22265625,0.0,0.0,0.0,0.0,0.0,0.0,0.0,0.0,0.0,0.0,0.0,0.0,0.0,0.0,0.0,0.0,0.0,0.0,0.08984375,0.95703125,0.65625,0.0,0.0,0.0,0.0,0.1015625,0.859375,0.8046875,0.0,0.0,0.0,0.0,0.0,0.0,0.0,0.0,0.0,0.0,0.0,0.0,0.0,0.0,0.0,0.0,0.0,0.0,0.10546875,0.98828125,0.77734375,0.0,0.0,0.0,0.0,0.0,0.46875,0.96484375,0.2890625,0.0,0.0,0.0,0.0,0.0,0.0,0.0,0.0,0.0,0.0,0.0,0.0,0.0,0.0,0.0,0.0,0.0,0.05859375,0.8828125,0.96875,0.2109375,0.0,0.0,0.0,0.0,0.36328125,0.98828125,0.203125,0.0,0.0,0.0,0.0,0.0,0.0,0.0,0.0,0.0,0.0,0.0,0.0,0.0,0.0,0.0,0.0,0.0,0.0,0.609375,0.98828125,0.98828125,0.52734375,0.29296875,0.4140625,0.484375,0.95703125,0.8828125,0.05078125,0.0,0.0,0.0,0.0,0.0,0.0,0.0,0.0,0.0,0.0,0.0,0.0,0.0,0.0,0.0,0.0,0.0,0.0,0.28125,0.96484375,0.98828125,0.9921875,0.98828125,0.98828125,0.98828125,0.98828125,0.70703125,0.0,0.0,0.0,0.0,0.0,0.0,0.0,0.0,0.0,0.0,0.0,0.0,0.0,0.0,0.0,0.0,0.0,0.0,0.0,0.0,0.25,0.76171875,0.9921875,0.98828125,0.98828125,0.91796875,0.47265625,0.0546875,0.0,0.0,0.0,0.0,0.0,0.0,0.0,0.0,0.0,0.0,0.0,0.0,0.0,0.0,0.0,0.0,0.0,0.0,0.0,0.0,0.0,0.0,0.0,0.0,0.0,0.0,0.0,0.0,0.0,0.0,0.0,0.0,0.0,0.0,0.0,0.0,0.0,0.0,0.0,0.0,0.0,0.0,0.0,0.0,0.0,0.0,0.0,0.0,0.0,0.0,0.0,0.0,0.0,0.0,0.0,0.0,0.0,0.0,0.0,0.0,0.0,0.0,0.0,0.0,0.0,0.0,0.0,0.0,0.0,0.0,0.0,0.0,0.0,0.0,0.0,0.0,0.0,0.0,0.0,0.0,0.0,0.0,0.0,0.0,0.0,0.0,0.0,0.0,0.0,0.0,0.0]},"activation_layers":[{"neurons":[{"activation":0.00021495124,"weights":[-0.12925279,-0.83822274,0.04367113,0.8145648,-0.35458374,-0.04007387,0.57894015,0.35571074,0.5206816,0.43486953,-0.58482563,-0.13684654,0.46020737,0.69685173,-0.9535896,-0.6195831,0.4117278,0.047083735,-0.74000525,-0.16238904,-0.7611892,0.16812742,0.36758208,-0.022236228,0.22333133,-0.9413681,-0.33845234,-0.37769282,0.53522193,0.87129223,0.74518764,-0.05230999,0.8393907,0.8237909,-0.48169518,0.9549781,-0.4970095,0.22681916,-0.90848696,-0.58766097,0.013214419,0.6163896,-0.054548778,0.7928607,-0.55001086,-0.8721521,-0.3530444,0.6378977,-0.97620505,0.8304895,-0.9092489,0.9890153,-0.88071847,0.8041904,-0.30927467,0.06701875,0.747578,-0.8899356,0.66674733,-0.4715799,0.6394356,0.8845247,-0.45920938,0.72964185,0.34934834,0.9128515,-0.26085153,0.43206906,0.29676926,0.20093691,0.09907373,0.10915667,0.45921767,0.6635477,-0.4348065,-0.024290496,-0.40119064,0.37878376,0.07755598,0.22159946,0.034508456,-0.9840295,0.9162493,-0.84409213,-0.20562398,-0.26679385,-0.2590955,-0.41886857,0.76059866,0.046543308,-0.47157556,-0.6679883,0.83858633,-0.10973104,0.3391646,-0.613817,0.5270975,0.24894921,0.5809126,-0.13672923,0.73038435,1.0755892,1.1186793,1.064272,0.5749967,0.52133614,0.24818817,-0.42007348,-0.47283256,-0.9539547,0.6886982,-0.60023797,0.7881707,0.8533885,-0.11240265,0.67638826,-0.5029139,-0.065477856,0.5687572,-1.050365,0.75480455,-0.93261635,0.5167688,0.36020696,-0.4119851,0.37133244,-0.51131797,-0.16847768,0.20379335,0.24251977,-0.19926433,-0.6881019,-0.48784158,-0.34811163,0.3577231,0.48522535,-0.43217438,-0.3834241,-0.04197401,-0.7779907,0.13179302,-0.4670726,0.7850754,0.15085605,-0.1032969,-0.2699011,-0.6613537,0.7668129,-0.9978901,0.34749967,-0.9161351,-0.6221567,0.20965628,-1.2561333,-0.44407117,-0.6581868,0.31259423,-0.33721176,0.6165464,0.12492376,0.38691145,-0.41081533,-0.04224734,0.36506662,0.8253738,0.5134882,0.91368836,0.71596295,0.4955417,0.11100078,0.29195356,-0.5324851,0.4598014,-0.48743945,0.492002,0.06588944,-0.07807749,-0.6235626,-0.46840018,-0.08485757,-0.20221889,0.1305498,-0.31167418,-0.21227622,-0.5960961,0.3139676,0.560517,-0.2182243,0.07535123,0.077887185,-0.6639009,0.6564726,-0.6130403,-0.9631414,-0.10337638,0.5803412,0.7768469,0.10564428,-0.12053008,0.39713475,-0.05441067,0.9877076,-0.37568495,0.49937066,-0.80984336,-0.5372657,-0.3707611,-0.89554,-0.74371415,-0.3879948,-1.0469956,-1.5772402,0.1342203,-0.61038697,-1.1137619,-0.6932838,-0.9771658,-0.17542194,0.79486793,-0.38221866,0.8000652,-0.52776426,-0.8576484,-0.7240016,-0.44244272,0.60958195,-0.42514178,0.5570192,-0.7449093,-0.19592232,0.21123448,-0.7974238,1.24166,-0.6035383,-0.078746825,-0.683206,-0.6546622,-1.1551929,-0.32447287,0.0219588,-0.5084723,-1.1997745,-0.21494661,-0.58790916,-0.29039606,-0.20064814,-0.6098676,0.38979962,-0.73598,-0.5997874,-0.46636924,-0.674834,0.025303744,-0.8219525,0.69077283,0.804572,-0.24992928,0.1780588,-0.36112702,-0.53166974,-0.5703435,0.6949023,-0.30274013,-0.3521246,-0.27260152,0.09122453,-1.058925,-0.9206537,-0.46034107,-1.1206979,0.30978203,-0.20405777,-0.01933876,0.035722382,0.2125031,0.02154287,-0.92111987,0.47209263,-0.13898931,0.7339661,-0.9870234,0.3036633,0.13429354,0.5242692,0.72943497,-0.15673043,1.0450526,0.37155685,0.23733507,0.486054,0.8261769,-0.122755796,0.9602374,0.52712315,-0.60549366,-0.5037381,-0.3067555,-0.7120494,-1.003284,-0.7505623,-0.42089677,0.0066001727,-0.47467858,0.38479754,-0.99453336,0.93111014,0.37184158,0.8702213,0.086234175,-0.38853216,0.18029705,0.8670583,-0.6171437,0.7775293,0.7818202,-0.19221434,1.0209204,1.0197879,1.3483711,0.12057228,0.75614655,0.780215,0.3948212,-0.68476444,-0.51647884,0.09170721,-0.2358414,-1.0240896,0.04189801,-0.8435641,0.6438757,0.42941895,0.28821054,0.062297385,0.09212137,-0.8318764,0.014183127,0.88121545,0.1771174,-0.023104353,0.10001148,0.32904407,-0.3093137,0.6065486,0.36882222,-0.51218665,-0.14930631,1.0787371,-0.23031761,0.87501734,-0.11551027,0.029691085,-0.039831556,0.42975658,0.74180305,0.60172415,-0.16596444,-0.31200743,0.6152666,1.1137613,-0.31423384,-0.658246,-0.72585267,0.51357555,-0.5177857,0.19084142,0.07593683,-0.49462992,-0.9099173,-0.0061668186,0.31627676,-0.2699923,0.62447774,0.122958355,0.67858726,0.35366818,0.39884964,-0.5781561,-0.15233687,0.010072321,0.15611553,0.023497934,0.77345747,-0.9106526,0.52919626,-0.38063344,-0.43060514,-0.27657625,-0.7672385,0.32352084,-0.81648475,0.6262418,0.956796,0.5725243,0.5282136,-0.395735,0.333062,0.07936334,-0.5885476,0.18894088,0.33361965,0.12693435,0.6512309,0.8655245,1.1371181,-0.2540669,-0.86438423,0.62021273,0.70517606,-0.010071018,-0.7353316,0.063523404,0.3823957,-0.37864769,0.88240194,-0.103782125,0.46121192,-0.7685627,-0.8615646,0.5795556,-0.8958947,-0.6588532,-0.22958718,0.9728362,0.9178331,1.0297021,0.19189095,0.08359779,0.25303736,0.080798864,1.1216061,0.0476374,-0.5892614,-0.9590775,0.5029926,0.9871035,0.44148785,0.24233724,1.0388868,0.5538626,0.38266942,0.80116796,0.1596293,0.13168462,-0.1631849,-0.38066047,-0.6928973,0.02908734,0.5189088,0.49199194,0.9338587,-0.37402627,-0.64403725,-0.21648076,-0.55479634,-0.42032233,0.6569379,0.60369545,-0.123951465,0.48324388,0.46699578,0.006538929,-0.44543076,-0.2551758,0.64092016,-0.46998093,-0.35319057,0.50132793,0.5680938,0.79560167,0.76960766,-0.11978436,0.9190578,-0.49080887,-0.38389695,0.7746663,-0.6655034,0.20024623,0.64790434,0.06753493,-0.25786576,-0.9885888,0.94312173,-0.52602327,0.75200707,0.34826836,0.47715908,0.530725,0.07356707,0.5160101,0.5419963,0.28744438,-0.3694244,-0.73395467,0.72513306,-0.73586357,-0.33271322,0.3775468,0.92788434,0.24634616,-0.5051434,0.93197066,-0.043795183,-0.22662869,0.66526794,-0.67387044,0.7354261,0.4306408,-1.1323395,-0.17205395,0.6043997,-0.061207477,-0.42334858,-0.6850965,0.4650804,-0.46326926,-0.44028187,0.2928946,-0.16898641,0.11197961,-0.13138874,1.1824913,0.2571191,0.086879015,0.8364611,0.8376086,-0.95645684,-0.7494544,0.35160354,-0.65837413,0.7115434,-0.10538157,0.833463,0.53421015,-0.77967703,0.66653866,0.7959698,-0.32614136,0.29413113,-0.72649944,0.106204204,0.7914852,0.9964865,1.0029101,-0.26080588,0.10250441,-0.63282037,-0.37065154,0.44555,-0.12931146,-0.18607965,-0.77923596,0.15733194,0.052681383,-0.53002906,0.48445472,0.20941897,0.7610735,-0.54772294,-0.95918876,-0.8833163,-0.69854647,0.8483933,0.6747055,0.058585357,-0.90078986,-1.1720533,-0.8332759,-0.9020966,-0.6548821,-0.6508582,0.6188082,0.37359774,0.092841886,0.75968695,-0.35307774,0.57841635,0.11323227,0.5179581,-0.40154648,-0.874832,-0.07917658,0.5652769,-0.50625086,0.21314727,0.93005633,-0.41058838,0.083229624,-0.8613707,-0.37695298,-0.33797756,0.4887282,-0.23820063,0.25215003,0.007037811,-0.4938791,0.05693995,0.30130625,-0.94863963,0.30616328,0.89360845,0.40154088,0.039472893,0.43858784,-0.34647083,-0.6374801,0.29865077,0.7074791,-1.0244277,0.29476872,-0.60209316,-0.53309846,0.2254626,0.79018295,0.29630932,0.7207927,-0.18542232,0.21108565,-0.11873672,0.5636747,0.5576276,-0.54169,-1.2846738,-0.28190362,-1.4214889,-0.20569086,-0.16198206,-0.9789061,-0.86530375,-0.29138795,-0.33024082,-0.89521104,0.66382533,-0.9477383,-0.14538708,-0.2628576,0.45927656,0.71563405,0.74051565,-0.07845728,-0.82586795,0.54270005,0.5798183,-0.5669121,0.23478568,-0.9416958,0.5236344,-0.50341845,0.06964609,0.16186805,0.27022064,0.15015647,0.5318482,0.16111414,-0.07391584,-0.006165276,0.5605183,-0.33710113,-0.55988127,-0.07543397,0.17655763,-0.5924244,-0.41661882,-0.1234784,0.026149519,0.45384198,-0.6252334,0.46508923,0.87507576,0.43049064,-0.8878988,0.5063369,0.96751404,0.6725718,0.16952129,-0.38656625,0.51756334,0.49774045,0.9409302,0.23828779,-0.65453726,-0.24856083,-0.9284537,-0.571062,0.23322771,-0.8102718,0.5884204,0.2258332,-1.0008407,0.23001665,0.90982884,-0.424281,-0.34544832,-0.61581606,0.82178265,-0.33138704,0.9860181,-0.3542573,-0.9165395,0.4249196,0.5762949,0.64758027,0.9816499,-0.17273681,-0.55506355,0.23084904,0.37818125,0.81724036,-0.011343712,0.15760125,-0.4183302,-0.5212883,-0.29635593,-0.33745274,-0.719328,-0.85354155,0.671911,0.2227906,-0.8836448,0.034996424,0.20383748,0.19202137,0.85799867,0.35285679,-0.10648517,0.6036534,-0.44741842,0.81618714,0.59403014,0.5771023,-0.5429168,-0.9465553,-0.9903844,0.97900414,0.26382142,-0.19938816,-0.6182351,0.24834462,-0.015259053,0.8707288,-0.2825051,0.43743235,0.36562443,0.35002738,-0.29385662,-0.4661964,-0.41163325,0.28529066,0.06395617,0.478908,-0.94740653,0.93529403,0.59516853,-0.36939645,-0.21226346,-0.16806805,0.7682376,-0.3520769,-0.72933424,-0.56947124,-0.28928295,0.5612312,-0.53621334,0.47865185,0.76427555,-0.20408876,-0.34205455,0.9504824,-0.9088396,0.5554904,0.52473676,0.7071437,-0.02853636,0.31488064,0.740209,-0.519224,-0.9283198,0.09179949,-0.68561596,-0.66794837,-0.2657832,-0.94444,-0.15673852,0.44164836],"bias":0.11781552},{"activation":0.0005793712,"weights":[0.85147583,0.15705824,-0.8891989,-0.45640373,-0.908633,-0.23535156,0.784004,0.8847312,-0.69018066,-0.35686052,0.23174155,0.5708934,-0.1876785,0.5305128,-0.26138178,0.39061093,0.6231464,-0.28441942,-0.64795876,0.51468086,0.677441,0.7455642,-0.6210002,-0.9093075,0.06437492,-0.78306496,0.55281603,-0.45383954,-0.31573904,-0.8300991,-0.910573,-0.10104883,0.43458676,0.5156856,0.8811271,-0.27826068,-0.9601194,-0.36652026,0.9498547,-0.13533401,-0.5434299,-0.7060222,-0.1578603,-0.8015629,0.74886805,-0.58987385,0.8776649,-0.8867515,0.54118043,0.35816824,0.4237699,0.51879144,0.08262992,0.88048494,0.76890695,-0.2152276,-0.8862752,0.9863379,0.02472203,-0.5408279,-0.24151199,0.71334916,0.8604636,-0.4948802,-0.3896442,0.9951457,-0.92998564,0.56360096,-0.24301046,0.1843513,0.26377934,-0.7428515,-0.40090698,0.05633053,0.06758508,-0.48059195,-0.3638767,0.57218313,-0.76070714,0.33190548,0.08797535,-0.32791194,-0.20847797,0.6518414,-0.5200052,0.66985345,-0.9068531,0.6679166,-0.7978888,0.27442536,0.2799427,0.19188218,-0.5017231,-0.0005803471,0.69352573,-0.40318274,-0.30772305,0.06268366,-0.49089926,0.9683237,0.96019936,-0.46688586,0.2971986,1.2512372,-0.7218709,-0.84712046,0.26775876,-0.6701958,-0.5625959,-0.10095502,0.7783913,0.2624539,-0.2392354,-0.8701322,0.01777714,0.71782553,-0.6411395,0.6742535,-0.60933053,0.83958983,-0.028824124,-0.5352218,0.84938574,-0.39870036,0.14666407,-0.089006454,0.44056392,0.29090196,-0.23127142,1.1287321,0.5721264,-0.6132497,0.9962319,1.1208184,-0.69751245,0.49207214,-0.83987457,0.89350605,0.5396786,-0.2698857,0.00041604042,0.88089824,-0.5478613,-0.40038478,0.9923218,0.23645934,-0.3078109,0.049236584,0.90207833,1.0413771,-0.7079652,0.4766151,-0.49595338,0.56499565,-0.37880224,1.145312,-0.29073045,0.5188424,0.9236612,-0.4279981,0.4431907,0.36147383,1.0456327,-0.31141594,-0.7583526,-0.12823726,0.5604556,0.3685832,0.59344137,-0.83530086,0.2194398,-0.45728976,-0.7677124,-0.74290454,-0.599227,0.49388888,0.087993614,-0.6912297,-0.75842875,0.15420865,-0.2848287,-0.8600523,-0.17680728,-0.4233793,-1.0870965,0.42863,-0.62160456,-0.3217657,0.12570903,-0.3591448,-0.8626435,-0.5486066,0.084799044,0.020367187,-0.17591229,0.79468054,-0.6208882,-0.43281353,-0.6947351,-0.28256252,-0.8673898,-0.02527663,0.028217377,-0.1176133,-0.8036992,-0.5544595,0.16161603,-1.0515558,-1.4599079,-0.457284,-1.044504,-0.87425524,-1.4907202,-0.76816976,-1.154482,0.3452565,0.015626403,-0.09768474,0.30401182,-0.3535587,0.28494155,-0.118098125,-0.8338797,-0.20301884,0.40937674,0.80027544,-0.7243301,-0.21361557,0.19665806,-0.17551515,0.5887947,-0.60453546,-0.750255,0.08253384,-0.12037335,-0.60895735,-0.5028704,-1.6789414,-0.20994335,-1.7141075,-0.88638455,-0.51040715,-1.1793768,0.03144115,-0.6067067,-1.2930995,0.4860088,0.29535976,0.00063780387,-0.032966506,-0.19197811,0.217794,0.22764905,-0.9951164,0.4218771,0.43757784,0.75672364,-0.47346494,0.2695124,-0.6433815,-0.24957427,-1.4090819,-0.66619986,-0.823001,0.0038922734,-0.10109329,-0.82492536,-1.3194352,-0.3723503,-0.24698327,-0.5298728,-1.0519532,-0.5808521,-0.28016523,-1.1962397,-0.18805449,-0.5962669,-0.6166732,-0.26011938,-0.0069728773,0.3740181,0.45349032,-0.050924435,-0.72309965,0.43571624,0.21510075,-0.6082915,-0.7184205,-0.86980504,0.1529473,0.3822358,-0.9441817,-0.9582233,-0.6909526,-0.6333422,0.5576002,-0.6084455,-1.0002018,0.49512032,-0.5892435,-1.0754988,0.27124333,-0.45746416,-0.20964591,0.7440415,-0.114307195,0.6002885,0.5538566,-0.3587243,0.95171404,-0.08692886,-0.78299063,0.22107077,-0.31656575,-0.42964008,0.8038064,0.01829312,-0.5701416,0.07523349,0.041104343,-0.15950501,-0.04988629,-0.06819792,-0.4296346,0.40381518,-0.902867,0.5610399,-0.4952621,0.43883315,-0.46996856,-1.2553191,-0.46159434,-0.96366733,-0.5309526,0.24307409,-0.7178572,0.035723656,0.7530407,-0.52642953,0.6827159,0.5323178,-0.5901245,-0.27415797,0.050680783,0.04303873,0.26972735,-0.95977926,-0.066791706,-0.87216336,0.68912446,1.0894277,-0.580494,-0.7748114,0.10896712,-0.87298864,-0.3359409,0.33095828,-0.6910584,0.23137598,-1.037031,0.044567283,0.9183308,-0.4436902,-0.34194788,0.5250271,0.1570826,-0.46021724,-0.87476534,-0.4571852,0.2886571,-0.6592927,-0.54773504,-0.0043612155,-0.22426127,0.17884804,-0.2693349,-0.19395487,0.18180919,0.43185183,0.80084145,-0.24145173,-0.45424637,0.5550805,0.15308267,-0.1794633,0.44788516,0.1388352,0.4069721,0.003136998,0.7472421,-0.23059306,-0.05041659,-0.8021509,-0.9660517,-0.6539422,-0.15808064,-0.5463998,0.9028794,0.7580124,0.22545515,0.8750661,0.4457075,0.88029045,0.70106643,0.03409672,1.1253097,1.4737011,0.21571198,-0.02369846,0.70822954,-0.2567056,-0.027665025,-0.18826044,0.54642445,-0.63261807,0.5655645,-0.066826425,-0.20711774,0.70332205,-0.2694963,0.77319443,-0.225011,0.006696966,-0.48188755,0.031425044,0.28319618,0.69108623,0.6150097,1.0907474,0.36138067,1.1140137,0.56220454,0.09068552,0.88835365,1.297692,0.98419046,-0.85789585,0.4596662,-0.141095,-0.0124118235,0.21555541,-0.4980959,-0.110741,-0.60928583,-0.5284019,0.51026046,-0.63408154,-0.45858923,-0.5707762,-0.8031211,0.4716772,-0.4999357,0.533515,-0.5123796,0.6930346,0.33209842,-0.20546646,0.6500462,0.06199732,-0.047129314,0.27055523,1.6202248,1.3555167,0.072036564,-0.23956515,-0.02330251,0.5903501,-0.2464349,-0.44384184,-0.05591418,0.97470284,-0.2826577,0.72923183,-0.23622525,-0.853612,0.36702868,-0.583289,0.3165335,0.88432926,-0.48028833,0.8864233,-0.7528132,0.45901772,0.08379526,0.19354306,-0.2903077,-0.21770008,1.0661674,0.8257173,0.8563852,1.2376919,0.91157377,0.4333198,-0.7633464,-0.37795562,-0.23303613,0.011520389,0.12685941,-0.4499152,-0.5258678,-0.4519892,-0.43192717,-0.20286752,0.24996537,0.6433387,-0.32343394,-0.5050445,-0.2398224,-0.098019145,0.32607457,-0.1412416,0.031390563,0.30155048,-0.15603359,0.45474216,1.0033827,0.26776898,1.0448083,0.3157716,0.8702592,0.72519034,0.36612767,0.25932932,0.2624658,-0.12960064,-0.42863676,-0.3563853,-0.3824205,1.1638895,0.77394027,0.012955869,-0.6042286,0.0749636,0.09066674,0.96030957,0.5635354,-0.35372734,-0.20359032,0.015685413,-0.38831648,0.69304496,0.6645469,1.1219441,0.32382587,0.9239743,1.18247,0.35685092,-0.20074469,-0.47873667,0.39565513,0.048467055,0.20351142,0.47163063,0.41134483,-0.28919923,-0.24317633,1.234095,0.6899206,0.97470224,0.13373636,0.68513644,0.79224735,0.6250329,-0.21901004,-0.16744134,-0.08640949,-0.4455192,-0.60475975,-0.35715255,0.25433576,-0.120075084,0.55907077,0.011719656,0.19365057,0.26625624,0.43157262,1.3302443,0.9215888,0.40287024,0.28929326,-0.6958813,1.2257576,-0.122761145,-0.3803805,-0.09687452,0.87618864,-0.87780714,-0.6805893,0.13530138,0.7943041,0.8993301,-0.21412534,-0.86428803,0.22641298,-0.7758574,-0.67710775,-0.21947604,-0.74511164,-0.58653283,0.22293968,0.54089224,0.7517201,0.49484435,-0.3572676,-0.059648324,-0.63045126,-0.66558427,0.58798116,-0.19046742,0.47634035,1.1002765,-0.6477634,0.33814606,0.008215551,-0.6091053,-0.9554451,-0.69276327,-0.5745469,-0.11486524,-0.2880011,-0.61466396,0.6351346,0.41939616,-1.1417167,-0.5862466,-0.99613494,0.11471929,-1.1834913,-0.9709378,-0.74220073,-0.0061256588,0.35810792,-0.022384143,0.3174821,0.1703072,0.6450737,-0.15875731,-0.108782604,0.24565658,-0.2706556,0.5719049,0.60143197,-0.15517065,0.16350077,0.8084825,0.65993726,0.6351204,-0.67644536,-0.38208866,0.7038764,-0.048626326,0.118047334,-0.42841235,-0.7258246,-1.0565586,-0.8840567,-1.4129964,-0.32457876,-0.12800768,-0.6490009,-0.449735,-0.09660143,-0.041638777,-0.3148193,0.269146,-0.29458985,0.96088064,0.47063655,-0.7724621,0.7708137,0.8166155,0.21904683,0.431633,0.39287996,-0.7853441,0.8824929,-0.494544,0.043260958,-0.2097598,-0.52099496,0.6272708,-0.88852996,-0.033677332,0.33840966,-0.7915761,-0.51197505,-0.53909814,-0.40729606,-0.26199457,0.26995283,-0.2578202,-0.14439337,-0.90705323,0.0688483,0.43496346,-0.10693361,-0.6010829,0.66126126,0.9965942,0.24738598,0.43586957,-0.45142627,0.056104273,0.51761776,-0.8927538,0.25256345,0.37339178,-0.5235868,0.5839443,-0.1471185,-1.2077731,-0.4302218,-0.46899724,-0.733083,-0.4440881,-0.1955117,-0.26957476,-0.5176167,0.1323676,0.41379234,0.76785016,-0.2620736,0.4759872,-0.6604403,0.26970235,-0.7974594,-0.23940347,0.032394648,0.8912269,0.23329568,-0.7771387,0.717125,0.40454784,0.057723314,0.5897784,0.42815202,-0.4629536,-0.21233866,-1.0197132,0.4041478,-0.9010189,-0.050793957,-0.31894585,-0.23032673,0.5443492,0.06575128,-0.053882055,-0.18012583,-0.4522395,-0.2530266,-0.31620944,0.24265297,0.08898944,-0.38032097,0.09590745,0.6466001,-0.80429304,-0.95834386,0.17365181,0.14772868,0.204212,0.01153754,-0.68026346,-0.759727,-0.925302,0.50365037,-0.091142364,0.30780885,-0.5519365,-0.945568,0.48945776,0.7458611,-1.0052634,-0.53022057,0.8506107,0.843681,-0.08707679,-0.74548113,0.33652842,-0.8428065,-0.59634674,0.18004262,0.38830245,-0.09811294],"bias":0.27783856},{"activation":0.99998665,"weights":[-0.87359154,0.042176962,-0.46167302,-0.73404,-0.33735514,-0.83539784,0.03224635,0.9008968,0.3469776,0.5932598,0.029105425,-0.08147359,-0.40668005,0.2597517,-0.6867738,-0.92986923,-0.2039522,0.54497206,-0.3644625,-0.16201055,0.50212765,0.28044558,-0.87328374,-0.9944042,-0.38984644,0.83314836,-0.21253753,0.54659367,-0.43351257,0.534515,-0.84069586,0.17843616,-0.9269641,0.7372409,-0.116622135,0.314527,-0.40373284,-0.37553674,0.42871028,0.3585086,0.7653249,-0.12252733,-0.72098017,0.25976595,0.58244497,-0.8659934,-0.62318885,-0.9842977,0.53883797,0.9565418,0.7485525,-0.9360845,-0.7448845,0.50536597,-0.9526255,-0.7275319,0.35475898,-0.228423,-0.32868564,0.3593057,-0.050957642,0.34209874,-0.73647124,-0.64651084,-0.95614517,-0.3707084,0.7122513,-0.6944299,-0.82995975,0.7032256,0.09221941,0.815084,0.6995067,0.7967935,-0.22300652,-0.49148515,-0.375697,0.79451907,-0.5401594,-0.6499997,0.39733732,0.8170759,0.36458516,0.17454827,0.8863567,-0.93295133,0.14982498,-0.5626246,0.7009129,-0.45807025,-0.40268335,0.12216818,0.42514983,-0.0057799583,0.34902856,-0.7363408,0.02182159,-0.46021497,0.56365955,0.053035036,0.86881196,-0.27831352,-0.94763184,0.5435579,-0.4695302,0.8077969,0.5324352,-0.9590032,-0.34633818,0.9041676,0.767849,-0.8565922,-0.7577164,0.27603778,-0.40506756,0.98104954,0.06777128,0.6180709,-0.5866515,0.8265296,-0.95151716,-0.4467312,0.75120556,-0.82257676,0.85910785,0.2029498,-0.060210794,-0.43370336,0.6458889,0.2031272,-0.6713305,-0.40996665,0.21245396,-0.20442931,-0.6115912,-0.2715419,0.7533739,-0.014367029,-0.11935129,-0.61716133,-0.0017219782,-0.6608758,0.97846353,0.35134667,0.90744394,-0.8049944,-0.54605687,-0.42448255,-0.24022162,-0.81342584,-0.057320822,0.6126841,0.078867465,0.67638624,0.9866138,0.19444536,1.0614841,0.1268824,0.4392043,0.119317606,-0.42577013,0.020243092,0.69479585,-0.2886116,0.39101657,-0.9584224,-0.43223253,0.2716101,-0.67169714,-0.6729338,0.928864,-0.22218232,0.3273149,0.9439309,-0.8857994,0.021140581,-0.35842857,0.58432734,1.1815445,-0.34581482,-0.46834728,1.0565088,-0.7813535,0.60408944,-0.9107446,0.17799506,0.38454753,-0.5784032,-0.20741731,0.35906366,-0.6011889,0.83438665,0.60240096,-0.86011165,0.44341955,-0.79020363,-0.13745673,0.6777854,-0.140484,0.81878144,-0.44875768,-0.78927374,0.31834048,-0.034167934,0.98523986,-0.36386046,0.13935922,-0.18487132,-0.23916061,0.026128821,-0.14131546,-0.71672523,0.14089988,0.012896784,0.80903196,-0.5441363,0.06809468,-0.737604,-0.82462484,0.5409865,-0.5380063,-0.8221739,-0.42827493,-0.8859056,0.21074559,-0.49073765,-0.25704753,0.12237599,-0.2891847,-0.017599136,0.352139,0.3224841,-0.24132231,-0.2659183,-0.22972628,-0.20739189,0.32630143,0.019403474,0.12608492,-0.11664068,-0.038488656,-0.15093423,-0.5890362,0.20889851,-0.67652184,0.9001201,0.79427624,-0.2923846,-0.4919658,-0.46303594,-0.7329382,-0.8332279,0.8797244,0.34174553,-0.43349287,0.41254985,-0.109170154,0.97303176,0.5523223,-0.354886,0.46732125,1.1768976,0.4119211,0.7876358,-0.8784348,-0.23514351,0.72800136,1.2272074,0.70271754,0.04973809,1.270211,0.23685074,-0.44964567,0.9160489,-0.5743248,0.5329063,-0.89490426,0.72104484,-0.79799086,0.14202337,0.51311684,0.020272695,0.1375142,0.31750628,0.7355766,0.7537118,-0.39190653,-0.041073706,0.032606263,-0.92396355,-0.1651506,-1.2050296,0.43685097,0.00516352,0.87688845,0.3003438,0.75046825,-0.25631848,0.24374957,0.4822424,0.61588454,-0.06882426,-0.49991998,0.022367526,1.0000883,-0.9837013,-0.1257885,0.6201895,-0.17165495,-0.915362,0.39359576,0.6067556,-0.75353265,-0.008534408,-0.8884164,0.718777,-0.23424809,-0.25645408,-0.3461105,0.30527353,0.22866105,-0.7031259,0.702605,0.9943306,-0.49991116,-0.3788494,0.779352,-0.13378488,0.16978389,0.41784647,-0.48236638,0.7089163,0.5286668,-0.48767897,-0.055817105,0.7181172,0.12878758,0.21652435,0.70351034,-0.12862688,0.13353007,0.7390167,-0.7290364,0.1643822,-0.69939375,-1.2408718,0.09824818,0.3455127,-0.8147246,0.8346196,1.1320832,0.19299917,0.22414748,-0.2452026,-0.52375734,-0.33482268,0.9108684,0.13364299,-0.38247576,0.9979635,-0.852547,-0.6970592,-0.11911879,-0.42289105,-0.9060034,-0.2471748,-0.34604046,0.29727915,0.55280775,0.56721616,0.37776554,0.3827763,-0.8804525,0.1780615,-1.4054124,0.6081821,-0.385186,0.7151597,0.5939403,-0.8279052,0.4518651,0.11513097,-1.0297836,0.84691584,0.9446624,-0.4919084,-0.17202385,-0.12913166,-0.30017984,0.070898294,-0.01930284,-0.99812406,-0.9327571,0.14934938,0.6638956,-0.992625,0.55399114,-0.35148236,0.3376361,-1.0035008,-1.3430779,-1.4527287,-0.31345525,-0.7199345,-1.0154326,-0.11815598,-0.6267705,0.41508725,-0.009688985,0.44319493,-0.77603734,-0.8159319,0.08916673,-0.552326,-0.65082663,0.7323483,-0.9563844,-0.86329496,0.39712784,-0.19313353,0.7533218,-0.15625432,0.22666357,0.031730425,-0.007198727,-0.7440571,-0.28227335,-0.36471084,-0.13500229,0.23120783,-0.96377206,-0.7031137,-0.76441616,-0.81539655,-0.018926138,0.17719385,-0.34466553,-0.08469453,-0.14908722,0.7662727,0.24331143,0.68228865,0.056745607,0.96869725,-0.8105605,0.45577785,-0.70917755,-0.1902164,0.7012951,0.5985679,0.73055375,-0.2785675,0.3356125,0.20066364,-0.3080011,0.2470752,-0.83170354,-1.0087261,0.18136103,0.54703486,-0.3862312,0.5105606,-0.046938412,0.060732223,-0.11690543,-1.0787427,0.6818804,0.7389715,-0.7441455,0.48251885,0.020825362,0.8339505,-0.19701861,0.5081936,-0.46111283,-0.04930211,-0.39029515,0.102938354,0.7514473,0.9664813,-0.13715698,0.09932787,0.39138982,0.7080888,0.27806813,0.051015865,-0.16674702,-0.9600621,-0.79465914,0.4544996,-0.4185566,0.084017806,-0.28657687,-0.64223987,0.06491837,-0.74512136,0.15417683,-0.6137014,0.85401607,0.60968053,-0.8294502,-0.11712369,-0.110581495,-0.18898408,-0.3364632,0.9590212,0.009734626,0.8278448,0.22197127,0.061201576,0.54609627,0.5691703,0.8378669,0.2094744,-0.46475208,1.0745537,0.5226806,0.34918657,-0.3826877,0.52197915,0.13816066,0.5135927,0.26792902,-0.09406445,0.39608395,0.22234537,-0.14008285,0.43347743,1.0098761,0.23794842,0.035847295,0.41039342,-0.54117054,0.6858284,-0.9002412,0.72684616,0.0039737625,0.7765993,-0.3588125,0.29957348,-0.41466382,0.9676266,0.35634488,0.3781686,0.19728431,0.7798856,-0.9430854,0.9925649,-0.4239971,0.82035506,0.2647076,0.036274962,-0.034641396,1.1210998,0.8967667,-0.5486214,0.8740865,0.8573335,0.5560696,0.23137322,0.35745513,-0.9492574,0.54875326,-0.81677026,-0.54043424,-0.26973116,0.5751441,-0.23406038,0.95576334,0.33725673,0.18123394,0.58636606,0.6923861,0.8028735,0.08996203,-0.08106356,-0.3519587,0.3950288,0.8897762,0.92399395,1.0558873,0.014280224,0.18071088,0.09833829,1.0012157,0.9234993,-0.5183444,0.2822253,-0.9852358,0.7654213,-0.21558066,-0.8510865,0.16142692,0.38856274,0.63515145,0.15396571,0.24617828,1.0518594,0.62295794,0.36795014,-0.40419656,0.4895878,-0.4025462,0.24649616,0.87196195,0.46074304,-0.11926017,-0.10755516,-0.18908483,0.42311904,0.20400697,-0.8858091,0.70338017,0.8469159,-0.7807773,0.9376274,-0.7487279,-0.5416467,0.90270954,0.13381095,0.572779,0.09576638,-0.10761272,0.78539395,0.86965585,-0.22611119,-0.23889521,0.6144175,0.84406245,0.18483901,1.0036641,-0.5342383,0.02813484,-0.16360943,-0.7410322,-0.74457586,0.0858915,-0.9402857,0.8303146,0.87809736,-0.48386076,0.3697679,-0.5469176,-0.72500396,0.87133753,0.619308,-0.90668046,0.8824812,-0.44222876,-0.7169596,0.21631968,0.9334916,-0.06646435,0.29304406,1.1022146,-0.28616962,1.0695924,0.94238794,0.96306896,-0.11055478,0.3480028,0.663208,0.48221153,0.390291,-0.5505412,-0.020818388,-0.8374165,-0.6911692,0.8139484,0.061100267,-0.94446814,0.36122143,-0.19652796,0.08407664,-0.4331366,0.5991195,0.44572344,-0.029302917,-0.10658994,-0.104477815,-0.4232751,0.65429205,-0.4364045,0.98088205,-0.5870763,0.86443037,0.24212748,0.37556043,-0.13659115,-0.36745113,-0.5734861,0.8009013,-0.7968314,-0.74314946,-0.64986145,0.42935097,0.55240554,0.5018866,-0.41483063,-0.07373977,-0.6160958,0.10069144,-0.066179186,0.45083153,-0.04260119,0.43068692,0.042808264,0.028078685,1.013835,0.83293366,-1.0057977,0.19165379,-0.7887045,-0.94146353,0.32214567,-0.31488603,-0.7486427,-0.47329944,-0.6938772,0.10800785,0.5800673,0.12547931,-0.62730736,0.61553174,0.7015922,0.08830351,0.467879,-0.075974464,-0.5752566,0.33377433,-0.36716795,0.14976592,0.6630974,0.6656117,-0.32858613,-0.9413738,-0.086919695,-0.33207417,-0.4747045,-0.48398218,0.071179405,-0.03822018,0.30650604,0.5254935,-0.5612735,-0.28613663,-0.15907831,0.17518707,-0.35141724,0.04978938,0.095896,0.2701204,-0.439622,0.3990218,0.06555855,0.5467595,-0.005102515,-0.93206835,-0.04575634,-0.18673885,-0.74789786,0.8599365,0.8345328,0.74261063,0.055252213,-0.80329615,-0.18836851,-0.3260994,-0.51639104,-0.7985184,0.07445786,-0.5477177,0.8847991,-0.16175298,-0.24815711,-0.9617683,0.29391393,-0.16988555,0.92196393,-0.720806,0.008716106,0.55685055,0.017224073,0.46568322],"bias":0.3305576},{"activation":0.9979545,"weights":[0.22625601,-0.9405837,-0.5156417,-0.31121778,-0.98626053,0.85283303,0.6670605,0.62717664,-0.59295714,-0.7379751,0.72191286,-0.28224576,0.09011056,-0.6070135,0.44859397,0.043067053,0.2926911,-0.2000351,0.47616994,0.52142465,0.90258276,-0.010132432,0.28803515,0.5289422,0.10744107,-0.8430184,-0.12535381,-0.94493794,0.6598439,0.52512467,-0.35467613,-0.57972383,-0.5883804,-0.55359954,0.04167991,0.8460922,-0.5397224,0.7831161,0.12640464,-0.4993089,0.84590346,-0.44656366,0.7251516,-0.9108591,0.057288926,0.9629049,0.6567778,0.25910285,-0.64978755,-0.48676026,0.072201535,-0.6981554,0.23128009,-0.23230362,-0.60171926,0.2678318,-0.18642616,-0.56305444,0.32430542,0.16582343,0.7489514,-0.7980678,-0.8402973,0.8555707,-0.97926736,0.91543025,0.7482587,0.9278121,-0.57324046,-0.79718333,-0.94059,-0.4603463,0.36910158,-0.5041071,-1.0417156,-0.026824176,0.2984198,0.523794,-0.4239141,0.11674049,0.35462415,-0.63479155,-0.9665518,-0.16542196,-0.21605957,-0.9182732,-0.34094396,-0.17756987,-0.30816197,0.928483,-0.37010667,-0.9043898,-0.06569395,0.94699514,-0.60555303,0.58069724,-0.750061,0.07668204,-0.60129607,-1.1219712,-0.943229,-0.18907695,0.07917054,0.03932292,-0.86727065,0.12870409,-0.7275203,-0.29810154,-0.32541734,0.45606074,0.4604269,-0.97089434,-0.9247296,0.091846496,0.45832887,0.91676116,0.08712401,0.21537532,-0.7171562,0.48960668,-0.8636063,0.87953883,0.31077892,-0.061867513,-0.081913605,0.2267849,0.03084125,-0.49684724,-0.5056309,-0.93506944,-0.3252663,-0.031877574,0.43734208,0.56337845,0.28984478,-0.9762026,-0.18187988,-0.34285384,-0.9380105,-0.004916592,0.69587004,-0.29471874,-0.12073682,-0.26638496,-0.16899917,0.52792066,-0.611602,-0.060682386,0.9056051,-0.28731325,-0.56355214,0.6585405,0.5614474,0.42226475,-0.8531075,-0.43288296,0.3406191,-0.6934435,-0.505378,0.808158,-0.817539,-0.13938405,0.12394054,0.4387399,-0.38266373,-0.48414192,0.8260986,0.40209904,-0.827641,0.59829104,-0.28935516,-0.06567843,0.474019,0.6775748,-0.49852553,0.7976551,-0.8320819,0.84559894,-0.14690028,0.39551565,0.7997812,-0.41838884,0.2333154,0.7347264,-0.46234146,0.58552885,0.6220386,0.648676,-0.23685767,-0.5323607,-0.3100335,-0.3946967,0.13727148,0.806468,-0.9333388,0.13493106,0.6325922,0.99443233,0.5958732,-0.21226624,0.52463293,0.1166306,-0.018603794,0.09630938,-0.3174888,-0.8088284,-0.6794683,-0.8631088,0.6177765,0.65849656,0.80214286,-0.079843655,0.75494283,0.7938484,-0.6636864,0.26239273,0.18829384,-0.5569604,-0.44135612,0.92806506,0.5899071,0.69930106,0.9577807,0.42260408,0.3566836,0.7691134,0.4969003,-0.5659944,-0.8839099,0.65417343,0.40278703,0.35017073,-0.95932055,0.8673883,0.1258235,-0.6790906,0.08989235,0.05656889,-0.92349005,-0.6760875,-0.21310171,-1.1622813,-0.28316095,-0.06956003,-0.116134726,0.14205633,0.62997514,0.693457,1.3115169,-0.07731379,-0.64371145,-0.34105143,0.77517897,-0.13865969,0.46345574,-0.26190007,-0.88721025,-0.11251565,-0.24371919,-0.58465356,0.20610262,0.24136369,0.107518576,0.28097323,-0.8358426,0.38559696,-0.7743318,-0.52506506,-0.7338809,-0.59169143,-0.5778487,0.26737472,0.3210399,0.80508935,0.18687443,1.1765074,-0.67712903,-0.15383229,-0.8891806,0.033055827,0.11960319,-0.21363644,0.7823238,-0.8215181,-0.5411886,-0.46003038,0.75355107,-0.8858998,-0.28351784,-0.6489033,-0.20097756,-0.013791072,-0.55976933,0.1954348,-0.6893762,-1.0924625,-0.6875146,-0.41641062,-0.13440426,-1.0010884,-0.6375878,0.030027054,-0.25697187,0.17662014,-0.16282077,0.6997654,0.36394617,0.44983444,-0.72837144,0.014801607,0.17818516,0.5571559,-0.36284098,-0.21288928,0.9427794,0.45795184,1.0094349,0.7936869,0.8897591,0.62821394,-0.40637833,-0.55361485,0.6071711,-0.7577667,0.4899062,-0.50368,0.08436319,0.6873242,-0.7257077,0.16032632,0.32106245,-0.7078834,-0.15258448,0.09649059,-0.5437014,0.78024846,-0.1909795,-0.5444292,-0.37349334,-0.656326,0.5314551,-0.23073947,0.59211296,-0.2705583,0.6312604,0.17882305,-0.19196536,0.19114602,1.3471438,1.0440598,-0.02932815,0.12497713,-0.68603116,0.12522718,0.10825116,0.11595516,0.86591303,-0.65123075,0.2015873,-1.078298,0.391964,0.10673743,-0.37737778,-0.80310065,-0.8756223,-0.44921282,-0.64252234,0.0012749267,0.91582507,0.30450085,-0.5413913,-0.18690725,0.060634788,0.09777235,0.87029964,0.8973204,0.34493116,0.6643733,1.6174645,0.85322404,0.53292173,-0.16084027,0.95932466,-0.59018016,-0.114514686,-0.13167304,-0.9876161,0.08633193,0.48756778,0.5899108,-0.38434795,0.8714488,0.25919127,-0.47745964,0.1463899,0.8026769,0.7063403,-0.20850568,0.22234976,0.34129155,0.7458614,1.0488137,-0.2708968,0.97136253,0.63586324,1.3622198,0.89692944,0.98079425,0.18970582,0.47011036,0.076316915,-0.15693967,-0.035019234,-0.7481989,0.17177677,-0.62321085,0.7392107,-0.003014389,-0.72597224,-0.21188878,0.60218805,-0.46170017,-0.34880838,-0.77805704,0.7088702,0.060941957,-0.60234773,-0.41959715,0.048619382,-0.32321024,0.41002816,0.69843674,1.0648898,-0.1368565,1.0217639,0.0022285017,-0.08278328,0.43188643,-0.0889684,-0.036323614,-0.41843668,0.39341962,-0.9328969,0.27733207,-0.9317068,0.8904816,-0.5083486,-0.21353762,-0.43899208,-0.63848215,-0.27667448,0.44107118,0.098209135,-0.19533844,0.81754994,0.25719416,0.5837026,-0.55962753,0.019316807,-0.18470798,-0.055177916,0.83378404,-0.023073044,1.0041621,0.9963028,-0.17301427,-0.9772797,-0.11324403,-0.88308686,-0.36846414,-1.0278003,-1.0714974,0.20978436,-1.0212132,-0.818247,0.16642933,-0.15385866,0.15095499,-0.42650473,0.99468213,0.21746309,-0.10443288,-0.7880408,0.16269247,-0.8550301,0.78608847,0.40673214,0.7951487,0.9522352,1.193655,0.05102302,0.3107012,-0.17949007,-0.042530086,0.45857102,0.33853555,-0.21049137,-0.08870013,-0.024500035,0.5299567,-0.4276392,-0.1428037,-0.83834857,-0.7712906,-0.27634984,-0.10146592,0.037671532,-0.33171865,-0.53222394,0.15034296,0.375572,-0.08297533,0.4362884,-1.0508147,-1.0021806,-0.9074968,-1.0926794,-0.6525412,-1.1191719,0.20793596,-0.5939458,-0.4873391,-0.85799146,-0.7638637,0.45525497,-0.24107924,0.5678268,-0.028539134,0.007472413,-0.23464657,0.5023937,-0.37868664,0.6636963,0.6480284,-0.3738879,0.5343249,0.000223459,0.28117302,0.30946043,-1.0439584,0.08664372,-0.30147007,-0.19275285,-0.6853966,-1.1966175,-0.11786369,-0.6197162,-0.23732024,-0.19928409,0.19150022,-0.37526798,-0.44856498,0.5529679,-0.9839883,0.063396,-0.8660458,-0.7224768,-0.22629364,-0.5916351,-0.15673015,-0.40983677,0.7416771,-0.622957,0.16625348,0.08632353,-0.8931193,0.18302535,0.35290426,0.31302556,-0.33330873,-0.35747743,-1.1299735,-1.0550212,-1.0092511,-1.2043161,0.24565715,0.0502675,0.39985758,-0.09526297,-0.42160267,-0.28961527,-0.78320694,0.1861575,0.3695573,-0.1244708,-0.9359086,-0.85145116,-0.42482632,0.53459793,0.47343186,-0.55592954,0.44487065,-0.1902658,-0.81305236,-0.0010617737,0.24351427,-0.85555845,-1.0121155,-0.15795171,-0.5193923,0.11932712,-0.50734395,-0.93619454,-0.2012776,-0.31215063,0.17993535,0.45149034,0.6764319,0.21322185,0.77352124,-0.6919211,-0.5910988,-0.767374,-0.30379108,-0.9956878,0.60541266,0.5336966,-0.754835,0.5369247,0.8110481,0.68279344,-0.5662164,-0.4190796,-1.0037355,-0.4779468,-0.2697572,0.10001628,0.03042512,0.25014448,-0.6436306,0.15904234,-0.26781216,0.3049616,-0.592163,1.0895637,0.31046548,-0.6536626,0.0422898,0.3295207,0.291804,0.49671486,-0.059712607,-0.51679075,-0.40113056,0.6214144,-0.08165324,0.9815842,0.76554143,0.20689638,-0.4225193,0.66513485,0.16281553,-0.38427237,-0.3289344,0.13116409,0.84436476,-0.12124497,0.5922369,0.5324106,-0.38026413,0.6228658,0.31064123,0.71758,-0.36060572,0.87552357,0.47662038,0.1385764,0.37249914,-0.27134055,-0.14638877,0.298134,-0.57392204,0.7523987,-0.92202365,-0.48774013,-0.69440395,-0.4625909,0.4362669,-0.15735897,0.51357234,-0.6840904,0.04463229,0.35150677,-0.0064454186,-0.05014986,0.058679722,-0.92939776,-0.76550967,-0.43084717,-0.36363953,0.16532774,0.6448851,-0.2665991,0.40939578,0.99749696,0.12615381,-0.85135025,-0.6564712,-0.17980364,-0.7794765,-0.44488215,0.68742216,-0.85979277,-0.7822597,0.93903327,-0.2928037,0.22553581,-0.14077596,-1.067186,0.03152881,-0.8645632,-0.9091361,0.493033,0.10152044,0.34214792,-0.47726265,0.52739125,-0.08330047,-0.47079888,0.9691595,0.097984426,0.73295355,-0.5275683,0.8593062,-0.9415637,-0.5416037,-0.63505983,-0.7356194,0.7760774,-0.5550569,-0.9588171,0.101294145,0.012259745,-0.46616498,0.18103161,0.18098141,-0.7972702,-0.10204926,-0.6120045,0.53722465,-0.49151042,0.23339862,0.6138444,-0.45459595,-0.18049264,-0.87433714,0.58241165,-0.69395995,0.40181127,-0.35503763,-0.8838145,-0.85093325,0.36761224,-0.56444645,0.97421277,-0.02999723,0.53588784,-0.12609184,-0.8640653,0.6582985,0.5351863,-0.09823635,-0.8533173,-0.68972164,-0.803595,-0.86425734,0.70283085,0.97059315,-0.5394863,-0.7908901,-0.39128992,0.33867526,-0.040768206,0.74097127,-0.5919557,-0.83002436,0.9627245,0.09367823,0.37847638,0.04977526,0.5887611,-0.16018653,-0.8113705,-0.7181766],"bias":-0.8651042},{"activation":0.000062285675,"weights":[0.9480556,-0.28360212,-0.9546329,-0.9203067,0.9951068,-0.13099456,0.5934262,0.9970639,-0.3531171,0.63706553,-0.8977026,0.5140954,0.73385817,-0.66389745,0.13782445,-0.54673946,0.5872476,0.6595341,0.4568025,0.019059539,-0.50630105,0.37711477,-0.39407933,0.89329267,-0.71349967,0.27644563,-0.23000634,-0.7450236,0.91847587,0.65182245,-0.55286777,-0.8184639,0.030676631,0.5082805,0.73656607,0.58149505,-0.4276722,0.6797852,0.33334595,-0.6172929,0.4043847,-0.90355355,0.9595411,0.7501992,0.009620021,0.21267642,-0.87930584,0.09640836,0.15110232,0.38920224,-0.572851,-0.80022544,0.027898908,-0.31280434,0.7380934,-0.69553304,-0.69559133,0.39961517,-0.30136874,-0.7816328,0.64911026,-0.3794987,0.9856511,-0.6112087,0.18455414,0.5839057,-0.3951218,-0.6680541,0.6840411,0.32735568,0.44521356,0.48495722,-0.42289594,-0.25491893,-0.24782507,0.022034423,-0.14283058,0.81061125,-0.18303011,0.32556227,-0.23851016,-0.22664326,0.5051178,0.5591699,0.54104793,0.5060456,0.9333777,0.64873666,-0.8721318,-0.29259902,0.24552369,0.5672613,-0.6616194,-0.73752624,0.10138133,0.6768317,0.32856938,-0.45391622,-0.23169677,0.022049725,0.52863157,-0.6762144,-0.66912055,-0.44349623,-0.178071,0.50623393,0.36038393,0.96387756,-0.7580378,0.5226019,0.77100307,-0.30434287,-0.39043438,-0.31733444,-0.1170632,0.30342108,0.48827565,0.2465749,0.9252199,-0.23944561,0.7767526,0.69511265,-0.3645939,-0.5163967,0.7843715,0.14226155,0.42445862,-0.3678377,0.08816371,0.62030685,-0.34421432,0.672306,-0.82382154,0.9066643,0.21211518,0.44792393,-0.8300776,0.14598958,0.15013728,0.38994214,-0.32851195,0.05012977,-0.042612147,-0.36726403,0.9766835,-0.97327447,-0.98260313,0.6722443,-0.015240165,-0.9325352,-0.3666349,0.47739318,0.6943124,-0.42591605,0.14021258,-0.50303143,-0.9200349,-1.0548333,0.38916638,0.89226913,-0.48855633,-0.20974554,0.84691936,1.1352923,1.0329407,0.41075423,-0.4487734,0.02493295,0.4420054,-0.22380054,0.46061024,-0.6637146,0.35059288,0.22498891,0.65983003,-0.9144368,-0.578244,-0.06612519,-0.77665347,-0.31819052,0.2539375,-0.92536163,-0.30320272,-0.7964006,-0.41834474,0.053872224,0.6949949,0.22686821,-0.056378905,0.8450507,0.721748,-0.3962158,0.94000375,1.0334381,-0.90882075,0.36272472,0.8944624,0.8043232,-0.3587858,-0.04155947,-0.994398,0.14212984,0.52885854,0.41706613,-0.6557156,0.44927776,-0.04554219,-0.6392898,-0.6020533,-0.41624293,-0.6567333,-0.5298269,-0.11486279,-0.11614516,0.8402194,-0.5276107,-0.088749856,0.5124475,0.02154255,-0.4134055,0.9186841,-0.6890334,-0.49910492,0.86912084,0.095456645,0.6665827,-0.6773917,0.66084415,0.5269546,-1.0671391,0.19835484,-1.1000096,-0.51102644,-0.39370742,0.23273583,-0.76422745,0.019648112,0.70068264,-0.2713346,-0.11746558,-0.09883472,-0.17174646,-0.8177702,0.5092934,-0.5624578,0.7825916,-0.51559097,0.41230586,0.5469437,-0.5060516,-0.2892951,-0.39800796,-0.8723363,-0.03137671,0.16459413,-0.4858419,0.14026067,-0.047958672,-1.0132146,0.2549136,-0.529723,-0.9327433,0.5399767,0.11494104,0.074362725,-0.19075349,-0.84969246,-1.0542092,-0.38676763,0.46741027,0.14459145,0.46851972,-1.0787765,-0.5183928,-0.6940836,0.068565406,-0.08942231,0.84908867,-0.07958159,-0.4132313,-0.7451824,-0.76827997,-0.5116125,-0.3985421,0.67642736,0.6236754,0.66873896,-0.5400557,0.32396156,-0.5530147,0.47571552,-0.42424884,-0.25025,0.32793668,-0.9255374,-0.7778344,-0.6277357,-0.620473,-0.92051196,-0.7993487,-0.73873323,0.0049841814,0.51667225,0.48623496,-0.46431738,-0.568666,0.3471494,-0.73021793,-0.41846675,0.35242158,0.30578837,-0.5016852,-0.7341075,0.2118663,0.17532873,-0.6125949,0.865251,-0.64881706,0.33683702,-0.393589,-1.15811,-0.48298553,-0.7457205,-0.69378114,0.06608742,0.12356861,-0.15213561,0.7382744,-0.7664218,-1.0042572,0.6168825,-0.93664306,-0.58430475,0.38224924,-0.033630114,-0.26883417,0.02810536,-0.90647626,0.34336022,0.6735269,-0.7594123,-0.43836302,-0.5778402,0.8754196,0.8129712,0.7703411,0.18193665,0.67053354,-0.9886802,0.29769382,0.5223693,0.15574417,-0.25783378,-0.24821934,-0.9430435,0.35977823,-0.1350027,-0.2792054,-0.97311026,0.82297707,-0.7639946,0.56256336,-0.7928296,-0.7475452,0.7593572,0.20745496,-0.47690523,0.78277534,-0.53132325,-0.7789864,0.9984081,-0.026490284,0.02935622,-0.031104337,0.4618122,0.4031446,-0.4278159,0.093654625,-0.024218297,0.78781253,0.8259255,0.71703917,0.8987023,0.52387017,-0.17262068,0.8212398,-0.50769395,-0.9213739,-0.8618562,0.00040934584,-0.6320348,-0.63562405,-0.25806525,0.6489981,-0.4202906,0.30606765,0.8880351,0.0993512,0.025133412,1.2681499,0.46720362,1.8202715,0.04137089,-0.044419333,1.2385194,0.34961006,0.021200305,0.18772978,-0.6139721,0.66222364,-0.040415056,-0.1464616,-0.5527127,-0.067776546,0.085410625,-0.43476743,0.76283777,0.7644904,0.79532135,-0.7598465,0.38665006,-0.99362844,-0.75879854,0.1040889,0.98715603,0.33730143,-0.12868391,0.23560071,0.4820133,0.81337905,0.15700364,0.87742126,0.0129970545,0.016125992,0.8503301,-0.13738817,-0.25899374,0.21609633,-0.5015103,-0.21813142,-0.687907,-0.7934596,0.008418714,-0.58560634,-0.79447114,-0.9888479,0.4136776,-0.11440766,0.8752217,0.11295126,-0.25761446,0.10320921,-0.44703126,-0.75426686,0.386775,0.27690598,0.84230185,0.35625273,-0.013795021,1.0534414,1.2417145,1.0626862,-0.06258841,0.44418946,0.4201269,0.25557718,0.9791602,-0.47360533,-0.23641257,-0.25916374,0.58833534,0.40803003,-0.938141,-0.82517016,-0.12846158,-0.2385463,-0.3306594,-0.4327833,0.5622404,0.72765195,0.092232645,0.72346526,-0.29486126,0.23082797,-0.2646968,-0.13439436,-0.11290088,1.0410306,-0.6377536,0.7551228,-0.5224682,0.69933146,0.46596003,0.25039336,-0.620387,-0.24990214,0.091642655,0.04269341,-0.0843078,0.44098958,-0.052300837,0.1814625,0.47115457,-0.28721783,0.11470279,0.007844622,-0.49380803,0.84227633,-0.12475361,-0.412137,0.48510006,-0.4124171,0.35460362,0.10371006,-0.0892619,0.4574644,-0.19004738,0.04811505,0.8493189,-0.19696887,-0.77578896,0.7387106,0.07754783,0.026330024,-0.546376,0.54773414,-0.25822335,-0.07211544,-0.5758381,0.20607652,0.46362102,0.29146302,-0.83139664,-0.4846983,0.41181523,-0.3254114,0.03405577,-0.20196415,0.85035676,0.6764541,-0.8922079,-0.91571784,-0.7745862,0.71833163,-0.8363701,-0.2366042,-0.9676313,-0.01731507,-0.73849106,0.98914546,-0.061190944,0.5691567,0.9435011,-0.07818885,0.7869447,-0.67693233,-0.9261781,-0.25749695,0.07097725,-0.25246134,-0.6256268,0.8612159,-0.82655627,0.015864428,0.67390907,-1.0078877,-0.5628697,0.0747962,-0.95101374,-0.37063575,-0.5852066,0.28122002,-0.7800186,-0.048047557,0.36502853,0.82049346,0.46483222,-0.3831833,0.61360663,-0.86549014,-0.8878314,0.8803266,0.60387796,0.18831646,-0.49856347,0.23729505,0.27542454,0.018560342,0.9379536,0.94201356,0.03863355,0.0142792985,-0.5739599,0.4582193,-0.40225312,-0.39301547,-0.75123304,-0.6977367,-0.37797603,-0.63259506,-0.02556699,-0.1454008,0.6112131,-0.17679003,-0.24933437,-0.73503983,-0.09904618,0.885806,-0.6299958,-0.706961,0.6507493,-0.30683324,-0.47091615,0.0777482,-0.9861044,0.93948793,-0.64083284,0.34945214,0.44805408,-0.1283248,-0.6146124,-0.07266014,-0.23377717,0.35501564,-0.9211553,0.545929,-0.37876326,-0.10231706,-0.90693283,-1.0686493,-0.48434883,-0.86328435,-0.64913845,-0.06547579,0.10152622,-0.06353427,-0.6513613,0.79384184,0.09225857,0.91287667,0.580201,0.0499196,-0.20996508,0.3179295,-0.7815833,-0.8247427,0.09186121,-0.555061,0.62108916,0.7292153,0.13346429,-1.0644975,-0.68050313,-0.8835116,0.7334113,0.6915429,-0.7764866,0.12686874,-0.6096855,-0.48641953,0.20778579,-0.90664697,0.1472021,-0.16058458,-0.79070383,-0.24804366,-0.865506,-0.18305406,0.9483436,0.92900175,0.99085957,-0.42475235,0.3243041,0.23101151,-0.7517148,0.08233482,-0.98574555,0.02185713,0.3923536,-0.15323578,0.64511025,-0.9177781,0.062825724,0.112593256,-0.5270791,0.39173576,0.37377718,-0.28077024,0.89312994,0.8198443,-0.5941501,0.4171428,-0.049759258,-0.1126856,-0.37285852,0.6279659,-0.20423278,-0.13681881,-0.12960933,-0.59458697,0.36469388,-0.35344112,0.395667,0.043705225,0.506942,0.6851011,0.7975716,0.55058473,-0.5325502,-0.7898661,0.23814091,0.17580532,-0.063796006,0.20081879,-0.3257554,-0.20024887,-0.95174503,0.80164224,-0.61799353,-0.9362862,-0.24099764,-0.18103008,0.9324478,0.3628174,0.26584873,0.71543217,0.41095114,-0.9681592,0.4351071,-0.26368093,0.40364718,-0.21021321,-0.87773293,0.52069354,0.32804328,-0.4433089,-0.41163126,-0.49208358,-0.20154738,-0.75768137,0.39863285,-0.653744,0.4967633,0.33740914,0.5285215,0.11284363,-0.16046149,-0.6617355,-0.54306203,-0.0058194348,-0.40095443,0.5973541,-0.32431585,-0.5759575,0.94167805,-0.06315899,0.42917776,0.21651733,-0.07964921,0.63321257,0.16900426,-0.88036317,0.5492957,-0.080820456,-0.84219754,0.914946,0.027392978,0.7781476,-0.37707683,-0.74048734,-0.7553639,0.19563824,0.7747258,0.81500673,-0.09113513,0.2758442,-0.09673118,0.05749039,-0.039665308,0.948568,-0.83407474,-0.3157593,-0.6593447,0.75824153],"bias":0.3561256},{"activation":0.1701653,"weights":[0.39146912,-0.58504725,0.92423224,-0.028603554,-0.9962634,0.555774,0.20352685,0.22571313,-0.011024475,0.09062779,-0.54183316,0.65561235,-0.2928664,0.47961578,-0.77224165,0.68241364,-0.6073513,-0.9929248,-0.8746133,-0.79277444,-0.7980231,-0.4910816,-0.19936085,0.90052295,0.13815439,-0.5598141,-0.09410536,0.6758828,-0.11815226,0.57928884,0.23166358,-0.80764604,-0.33490703,0.0015219667,0.39927047,-0.2912286,-0.8855743,-0.15036722,-0.985409,-0.59049755,0.17995109,0.63768864,-0.51113844,0.97318244,0.44649434,0.95127916,0.7212255,0.6729413,0.49066353,0.37762803,0.63136923,-0.29299024,-0.10247433,0.54692614,-0.22863519,0.48230577,-0.8545352,0.7739614,0.021550655,0.96285176,-0.6875247,-0.013462107,0.12191699,0.9098489,0.18905722,0.828528,-0.9585557,0.21730858,0.48520067,-0.5894568,-0.9641296,-0.21410611,0.39167643,0.493332,-0.48550487,0.66730356,-0.62621313,0.71940315,0.59576166,0.14054522,-0.81593865,0.19053988,0.587559,-0.48793507,0.5560187,-0.5364543,-0.18676865,-0.41243404,0.13784315,0.109238066,0.82412606,0.5112441,-0.9048083,0.34329066,-0.8713225,-0.58931684,0.24768114,-0.3544795,-0.6122602,-0.35920385,-1.1683104,0.5540981,0.1170696,0.6301705,0.44068906,-0.07317845,0.22497353,-0.2906192,-0.52434486,0.104038075,0.16282567,0.20675826,0.10076547,0.3177973,-0.95452416,-0.32822415,-0.022136878,0.4326401,0.95864606,-0.12445258,0.11862226,0.63579905,0.041055467,0.8280015,-0.9150728,0.60744226,-0.2940595,-0.60177845,0.097189896,-0.63047683,-0.92075115,-0.4380716,0.7798839,0.7403969,-0.08489537,-0.5569198,-0.33237255,-0.9315713,-0.009793015,0.3055724,-0.537925,-0.9853177,0.95569116,-0.6481923,-0.33267748,-0.680295,-0.047962848,-1.1105084,-0.4444101,-1.2275177,0.18562827,-0.35836393,-0.7877387,-0.61477613,-0.92491573,-1.1694311,-1.1360271,-0.93313104,-0.8094321,-0.8495277,-0.12629089,-0.8476018,-0.16797231,0.049357213,0.862462,-0.032777313,0.73263824,0.102866665,0.22930181,0.11945918,-0.48334128,0.29999927,0.93583244,-0.28480184,-0.30326173,-0.48316863,-1.017839,-0.033683024,0.00033843282,-0.53372526,-0.575091,0.43699265,-0.19621466,0.03756862,-0.010639224,-0.19286132,0.14145756,-0.11463684,-0.24125639,-1.0293374,-0.012432042,-0.21057644,-0.63995874,-0.2547237,-0.24467456,-0.76053494,-0.241394,0.7057879,-0.82718545,-0.7477096,-0.64758825,-0.9127203,0.7870925,-0.9446959,-0.29766992,0.2718109,0.19278944,-0.4774792,-0.03446834,1.190484,1.3282944,0.4404547,0.44206426,1.0820142,-0.07842907,-0.34850448,0.21574743,0.48299232,0.11178722,0.19567989,-0.108041495,-0.40109852,0.064440496,-0.055925235,-0.0773437,0.9317774,-0.4802665,0.9330499,0.5842687,0.45492557,-0.08379838,-0.93651766,-0.19253938,0.13588391,0.47883862,0.9654169,1.2933149,0.85080945,1.2062733,0.8921319,0.8786671,0.8079505,0.5646551,-0.18223701,0.018765459,-0.61785156,0.5412919,-0.6200726,-0.9580498,0.1353194,-0.7045019,0.44218203,-0.94289386,0.12882127,-0.109082274,0.71445256,0.326571,0.36960036,0.2006107,0.12820505,0.011326806,-0.52782065,0.44769558,-0.39936733,0.5424408,0.4563104,0.88845295,0.2900799,0.9582744,-0.64485604,0.21430817,-0.33749497,-0.310092,-0.5330888,-0.9113403,0.75834084,-0.20228237,-0.941808,0.60676944,-0.91388535,-0.80632615,0.021827167,-0.09900914,-0.12439798,-0.58499813,0.8668629,0.68108696,-0.077932425,-0.7032899,0.47447965,0.9032674,0.12263222,0.47622177,0.73522604,0.5762313,-0.14004049,0.45932364,0.6432203,0.73529994,-0.12913024,0.28630966,0.44859952,-0.4856412,0.29968384,-0.53846306,0.6673641,-0.9915462,0.017962178,-0.98817503,0.78156585,-0.37841856,0.76540834,-0.37320226,0.6010876,0.55480635,0.9335879,0.94167465,-0.5485894,-0.7179121,-0.24538866,-0.18122172,-0.29723796,1.0994718,0.73344046,-0.42649868,-0.5927819,1.09608,-0.17821284,1.4852824,-0.593027,-0.15151148,0.597171,-0.38282046,-1.0001177,0.6411761,-0.9575015,0.41618228,-0.515808,0.28495157,0.042459037,-0.8872239,0.56667346,-0.07198282,0.23394457,-0.7114792,-0.015919974,0.56799287,-0.4757131,-0.14620067,0.13754344,-0.299294,-0.47421926,-0.3689039,-0.18509845,-0.24462251,0.82439595,-0.28805378,0.24780521,0.6884561,0.017195756,-1.1069778,-0.032734185,-0.43836537,0.68121463,-0.12990794,0.6794638,0.67986715,-0.7495798,-0.27720225,-0.12912194,-1.0896282,0.38699532,0.6834668,-0.99497575,-0.7204928,-1.4140595,-0.19155599,-0.9043489,0.9950268,0.25551447,1.0349178,0.6323207,0.9478136,-0.18173747,-0.04227202,-0.21226822,-0.6535855,-0.30440035,-0.3991818,-0.93938226,0.94038147,0.06671137,0.8849036,-0.87880623,-0.72291493,0.57325864,-0.3320432,0.1530897,-0.025027405,0.2259094,0.019183578,0.15964009,-0.93820435,-1.2850634,-0.63374466,-0.78026223,0.68786085,0.6557127,-0.7296106,-0.5366592,1.076362,-0.29856405,0.879784,0.2753748,-0.09339094,-0.23129463,0.43157,-0.66277754,0.22823668,-0.7003736,-0.49553403,0.08548132,-0.8362332,0.7213343,-0.38610992,-0.58557683,-0.4177086,-0.5109662,-0.022009728,-0.6065198,-1.0274038,-0.20729342,-0.42337993,0.5406017,-0.8150048,-0.028118374,0.8438906,1.0216897,0.63417995,-0.39062026,-0.62627083,-0.7452291,-0.7047293,-0.15962693,-0.041740146,-0.94975156,-0.6893047,-0.86936384,0.34924948,-0.22356479,0.89248645,-0.037818264,-0.5429505,0.07316378,-0.69087243,-0.6748594,0.14484328,-0.6958325,-0.08445791,-0.40641528,-0.834355,0.43872333,0.70104355,-0.67815703,-0.20779984,-0.522495,-0.66184044,0.08019886,0.21300256,-0.3804439,0.03676625,0.47718942,-0.21919301,0.73791856,-0.2585194,0.7100626,-0.22722602,0.19550365,0.5127005,-0.9343334,0.08000141,-1.1584973,-0.58897364,0.34035063,-0.4093429,-0.6686196,-0.20716898,0.011769536,0.430576,0.95766395,0.06977723,0.93702805,0.07563348,-0.2650432,-0.88825804,-0.6834778,-0.4231593,-1.2948037,-0.2608501,-0.5005092,-0.523478,0.68395936,-0.3973396,0.8425958,-0.3017922,-0.21342243,0.16597596,-0.33833754,0.7387387,-0.09908166,-0.59317154,-1.1734617,-0.8367014,-0.18006924,-0.3384188,-0.07325676,-0.75123394,-0.41163188,0.812389,-0.18408522,-0.28709978,0.4626026,0.33044893,-0.3005769,-0.42581955,-0.8621603,0.09530903,-0.6467605,-0.023179641,0.9307209,0.08398553,0.60953474,-0.020337611,0.1698669,0.241185,0.8615236,-1.1665953,0.020685261,-0.045070074,-0.94207686,-0.6829307,-0.4461471,-0.5862171,-0.48807248,-0.6678648,0.28572127,-0.69786465,-0.5459497,-0.10498306,-0.8085167,-0.7418119,0.089896,-0.31345665,-1.5558165,-0.097656436,-0.18106061,0.37928236,-0.6058818,0.8468853,-0.8715737,-0.5536473,-0.046468712,0.8385305,0.88615704,-0.18231282,0.031335544,-1.1857421,0.29508847,-0.55106294,-1.3810394,-0.8091061,-0.41222003,-0.5704326,0.15926035,-0.1666999,0.1232919,-0.9714383,-1.0216794,-1.4046651,-0.15938896,0.04879164,0.14225535,0.42674056,-0.27282462,-0.13567418,-0.85953987,0.3194871,0.9586342,-0.28414625,0.29974174,-0.9238816,0.6051711,0.2698146,-0.68790966,-0.53260124,-0.5654205,-1.3902743,-0.7817451,-0.86913645,-1.4236759,0.060439378,-0.3836689,-0.49284646,0.27861395,-0.04503356,-1.0248674,-0.08976933,-1.3914057,0.2986257,0.5870524,-0.3959513,-0.80561894,-0.22529049,0.7352468,0.9904981,-0.26851213,-0.38051504,-0.94507223,-0.7581672,-0.6002016,-0.37248865,-1.0658162,-0.254237,-0.94290125,-0.7674503,-0.09381653,-0.87617904,0.42609817,-1.2263234,-0.13595492,-0.75571454,-0.8985339,-0.4991323,0.95376843,-0.38055652,-1.14674,-0.12338509,-0.28479505,-0.9170203,-0.18816218,0.7931742,0.47994742,-0.26134083,-0.7567444,-0.5344291,0.48044157,-0.60901785,-0.9003406,-0.6571582,-0.57897156,-0.6553449,-0.9035406,-0.5133151,-0.3814231,0.062036693,-0.37551787,0.17503418,-0.1557849,0.40921208,-0.42962584,-0.40223917,-0.45902932,0.23836482,-0.019274395,-0.52093416,-0.43474698,0.72117704,-0.23941405,-0.051971138,-0.3072789,0.19293351,-0.81178176,0.4103042,-0.8196449,0.13296504,-0.8736171,0.48534283,0.6034597,-0.11138396,0.1404588,-0.35868037,-0.2819653,0.61240906,0.4343619,-0.72435576,-0.743968,-0.45803174,0.53991926,0.30662012,0.720676,1.1275014,0.80449915,-0.4416823,0.9045566,0.67754215,-0.22704643,-0.40752253,-0.7268918,0.8524997,-0.11810517,0.82669914,-0.35508466,0.86460334,-0.94790196,0.59326,0.25887415,-0.55582136,0.6650447,-0.18464948,0.034617823,0.26343626,0.17017457,-0.16960974,0.23618506,1.3186891,0.18347284,0.792466,0.050118394,0.17950852,0.73295,0.2337315,-0.57050616,0.23808913,0.20699126,0.30546904,0.80314696,0.5660263,0.15360165,0.07247901,0.20265019,0.46329916,0.68151903,-0.52414185,-0.27109557,0.81074095,-0.29963705,0.5520964,0.92962706,0.72723866,-0.006748575,0.39546147,1.0514092,0.08858317,-0.6617622,-0.32340682,-0.092283696,-0.1687687,0.08518396,-0.7982362,-0.9537013,0.35357627,0.83869183,0.29798037,0.8663558,-0.26199353,0.9938694,0.48548055,0.09328747,-0.023005247,-0.861501,-0.60204464,-0.79737717,0.20794435,0.019712277,0.9466829,0.68099093,0.2029897,-0.57611185,0.6389918,-0.08926755,0.3771871,0.88281965,0.47981516,0.58944297,-0.6510493,0.7107389,0.33353573,0.278024,0.16612867,-0.40409195,0.99480057,-0.5870619,-0.13785255,-0.5053332],"bias":0.4552896},{"activation":0.9999995,"weights":[0.80703914,0.42225885,-0.34886885,-0.24473774,-0.16143858,-0.8020915,-0.42737424,-0.76238906,0.077079535,-0.16376877,-0.9543779,-0.6191913,-0.2094693,0.2004369,0.7361318,-0.15856409,0.0764575,-0.49252725,-0.07212198,-0.91666174,0.2551216,-0.53343546,-0.37717855,-0.7103294,0.7467803,0.7252767,0.15711403,0.1322192,0.07306242,-0.6695603,0.07613063,-0.32976472,0.81558,-0.5930153,-0.53623575,0.84539354,-0.041068826,0.68148714,-0.56052125,-0.9337237,0.769088,-0.72014695,0.11275732,0.761525,-0.19886625,-0.48926127,-0.32291555,0.22583516,-0.0025826865,0.42242128,-0.47098073,0.61403674,0.2980318,0.9551699,-0.5139669,0.5958618,0.6998857,-0.92668855,0.30142903,0.72160405,0.6487619,-0.5484453,0.42764428,-0.35132435,0.37748894,0.8182968,0.6285035,0.23578556,-0.9016816,-0.5710926,0.7771182,-0.3642405,0.14694732,-0.7065146,0.82555646,0.015119736,0.4214596,-0.6680328,-0.87511647,-0.80861795,0.28828132,-0.8710482,-0.6894778,0.2950766,-0.14536989,-0.7785096,0.43917024,-0.08322821,-0.47118655,0.84109384,-0.32380438,-0.14409666,-0.96899337,0.6336673,0.7532,-0.49201962,-0.20654808,0.70837194,0.30603504,0.94973594,0.43966362,0.07875879,0.3036203,-0.874919,0.71364486,-0.3034109,-0.48049647,-0.7046672,0.6650223,-0.95935756,0.99198014,-0.63071704,0.10104644,0.60219455,0.30780637,-0.08305316,-0.63474643,-0.6830241,-0.5561827,-0.94159716,0.43460563,-0.18750657,-0.3954707,0.9196458,0.94633186,-0.1442578,-0.64894164,1.0128115,0.6720112,0.11354364,0.12624936,-0.5570335,0.6985509,0.3217122,-0.53195715,-0.7102426,0.27400795,0.556538,-0.12271534,0.8596862,-0.19470596,-0.788985,0.28164968,-0.46810916,0.5713656,0.5671404,0.12201398,0.868312,0.2174817,-0.43811825,-0.7547063,0.5740105,0.4866048,-0.3526133,1.1199433,0.63979834,0.28256002,-0.5565292,0.3789678,-0.800358,-0.59438443,0.14691707,-0.36283904,-0.1270813,0.053181086,0.8097595,0.15232597,0.07083233,-0.005926132,-0.8796749,-0.3719762,0.0847824,0.45077258,0.6597806,0.45745414,0.44742566,0.3599062,-0.3655066,0.81955516,-0.46260422,0.62619036,-0.64413196,-0.0629523,-0.5273293,0.38398966,0.026326641,0.16493696,0.68531066,0.90295684,0.63695467,-0.29513764,-0.5724116,0.8492036,-0.7937221,-0.79743123,-0.8252639,-0.2693646,-0.62293094,-0.3050455,-0.23174617,-0.071133934,-0.5754273,0.7407739,-0.089276485,0.5765708,0.5079018,0.7253272,0.15086174,-0.3238496,-0.16419092,-0.57527363,0.12481903,-0.32180727,-0.74107677,1.0528476,-0.22125055,-0.86350274,-0.61336637,0.53266835,0.17382039,-0.8140816,0.7049502,0.9227785,-0.7477932,0.7423241,-0.5170936,0.55033374,0.13020894,0.749194,0.32653284,0.7044293,0.09493736,-0.02058751,-0.7110051,0.057690084,-0.44897598,0.64828473,-0.5842842,-0.12455183,1.146746,0.94010746,0.9913382,0.070886634,1.072446,0.24461327,0.35859025,-0.6714874,0.925474,-0.2470903,0.5422399,-0.65839237,0.1642075,0.42066526,0.9711233,0.6957489,0.9262963,0.96067244,0.6518412,0.20938167,0.8875669,0.22072648,0.72452,0.5781725,0.86274916,-0.4050865,0.01999012,0.3671948,-0.6355953,-0.642265,0.9023611,-0.18372658,-0.28039145,0.7799869,-0.2968254,-0.17505477,0.55283123,0.6980919,0.17243241,0.29449505,-0.4063592,-0.4278339,0.6636769,0.38215837,0.9529802,-0.28946435,0.99869233,0.2047458,0.24519068,0.6094469,-0.29705414,0.5078616,0.90573215,-0.023826629,0.0476007,0.487306,-0.053051084,0.026738688,-0.53366154,-0.8310994,0.28716424,0.6707906,-0.7801757,-0.5960904,0.5292342,-0.9343519,0.73299855,-0.63039213,0.72491413,-0.7068029,-0.98819184,0.69071937,0.05808774,0.5303079,0.4539631,-0.8479345,0.95697546,1.011865,0.3797503,-0.35910046,0.23285878,0.83550507,-0.24227999,0.16415331,0.6943474,-0.4589601,1.1543051,0.74282384,-0.86424744,0.05046341,-0.35546345,-0.3529103,-0.10978733,0.6517335,-0.7902233,-0.883589,0.6247765,0.57742655,0.08402013,0.96339506,-0.48188856,0.6354513,0.46997514,0.25385,-0.31098062,-0.42257452,-0.5178728,-0.35577244,-0.1499838,-0.30589944,0.8079237,0.8796746,0.022214018,-0.64457184,0.08731383,0.41772974,0.6807407,-0.42158777,0.6275287,0.20062621,-0.0119800735,-0.73239434,-0.30497393,0.88428134,0.5509733,0.28085607,0.6083349,-0.9395024,-0.0529823,0.7105541,0.5030078,0.08318341,0.24504218,0.40697828,-0.113530114,1.1024839,-0.14015147,0.6000932,0.81899655,-0.17595012,0.2595997,0.07424508,-0.4166909,0.4619696,0.09155482,0.44836482,-0.20998766,-0.26563367,0.48771197,0.1609226,0.7841625,0.2233062,0.2795596,-0.21836333,-0.12316448,0.83983487,0.46159533,0.8208848,-0.92141074,0.2795756,0.16778694,0.46685982,0.33488712,0.9291721,1.0756956,-0.6569796,0.13417341,-0.12244597,0.20141812,0.68649113,0.0030020273,0.010271736,0.53414667,-0.5775844,-0.44016182,0.6079128,-0.10474556,-0.30484837,-0.21615514,0.24110682,-0.61774975,-0.35291418,-0.5037561,0.7111712,-0.0017457075,0.22100936,0.86226565,0.3084874,0.15460493,0.053102512,-0.83718455,-0.567308,0.9122639,0.7258419,-0.6562582,1.0486008,1.0352364,-0.102719195,0.43927628,0.6476012,0.50292426,-0.78644156,0.62945443,0.6727266,-0.8018891,0.9348038,0.49960655,-0.75771177,-0.95826334,-0.25094008,-0.1366315,0.55845183,-0.13316074,-0.3229558,-0.68797517,0.27193365,0.20838149,1.0809278,-0.44739702,-0.083566725,0.26398724,1.0185903,0.596536,0.2575849,-0.64049923,0.28248394,0.59813416,-0.007426775,0.10871994,1.0101585,-0.6543645,0.24849549,-0.10385598,-0.35641015,-0.7620601,-0.17128667,0.66473883,0.89350975,0.2515895,-0.14492391,-0.40453818,0.31994683,-0.40297824,-0.29848632,1.0364779,-0.23278043,0.18444957,-0.7213035,-0.2108349,0.77114064,-0.4537937,-0.12791118,0.28657544,-0.4992629,0.03304869,0.18315504,-0.37344062,0.03236296,0.7916833,-0.1731396,0.8699527,0.42703786,-0.5617708,-0.10291067,-0.93913156,0.90218747,0.82846713,-0.058233738,0.5880703,-0.51690894,0.67331797,0.80560184,0.8186062,-0.6550952,0.030410582,0.19988342,-0.6121664,-0.7420835,0.6084709,0.11271356,0.011904049,-0.14526789,0.012655213,1.1565952,0.95757586,-0.6207417,-0.5354627,0.7006574,-0.25471425,0.2725407,0.26078925,0.415093,0.23310448,-0.2546989,0.54779834,0.8606503,0.88488495,0.11004354,-0.80964476,0.0092282705,-0.25257558,0.06085272,0.11516125,1.0786903,1.2195219,0.08986408,0.8886155,-0.6226607,0.76547045,1.1140277,-0.5705954,-0.47833136,-0.3971649,0.6509654,0.57324284,-0.06699021,0.32140368,0.36224222,0.2909739,0.35012674,0.6618366,0.8904804,-0.4639209,-0.5037291,-0.30642647,-0.5371376,0.77015877,-0.08393909,0.45440665,0.088597864,0.29044607,-0.6131106,1.1105444,-0.065208964,0.64674145,-0.37709284,0.86869866,1.1520321,-0.588879,-0.11938533,-0.07178771,-0.29047263,-0.75969297,0.41068575,0.4809839,-0.1477927,-0.7418035,0.071520075,0.95924294,0.45165804,0.23289089,-0.17033416,0.43019417,0.66113526,-0.6376091,-0.6723379,1.0758817,-0.6592694,0.7922618,0.45717815,-0.6587342,-0.80192053,0.5935331,-0.80415416,-0.052425224,0.35898846,-0.6768738,1.1270789,-0.7180947,-0.3438397,-0.31636548,-0.63847107,0.9775894,-0.77514476,-0.24053629,0.6733958,0.46927243,-0.82680243,-0.694386,-0.78174025,-0.13954125,-0.2907579,-0.5678048,-0.5427432,0.8359264,-0.33309826,1.0770057,0.1424602,-0.36163205,0.18810388,0.388206,0.27176675,0.18009691,-0.13909909,0.038806837,0.10066859,-0.11468051,-0.7961676,-0.26363972,-0.30042225,0.80964947,-0.3351036,0.30016947,0.4595237,-0.78666925,-0.574244,0.14413571,-0.57831717,-0.2494027,0.35087627,-0.102175064,0.8967005,1.0622246,0.23902315,0.43685415,0.051849425,0.55349153,-0.60628307,0.62452894,0.7391687,-0.44969732,0.7869961,0.23181999,-0.48203027,-0.10306577,-0.14736977,0.61432874,0.22004235,-0.5967682,-0.89469147,-0.7350499,0.099972025,-0.37092805,0.7411133,-0.99230886,0.48195076,-0.3393408,0.53687173,-0.4142111,0.43466595,0.43622142,-0.5016533,-0.08595948,0.0399005,0.38420033,0.68233234,-0.728825,-0.048259687,-0.6745002,0.51649344,0.5614097,0.5453297,-0.5747635,0.9972356,0.054146755,-0.3029557,-0.4505434,0.98300004,0.132796,-0.7893505,-0.6425712,-0.4333787,-0.3714217,-0.045995284,-0.769113,-0.34969217,-0.13026601,0.7110493,-0.85432976,-0.2398607,-0.8919775,0.8835898,-0.68132097,-0.97634786,0.7865758,0.21160784,0.2772482,0.8158491,-0.15782963,-0.6828259,0.8863647,0.119589075,-0.70793337,0.36808464,0.5792066,0.22817475,-0.89583594,-0.28726235,-0.6796578,-0.46201622,-0.024800658,0.4410236,-0.14334361,0.63457346,-0.894559,-0.34877634,-0.007652166,-0.2871479,0.06778599,0.19973123,0.89415175,0.091626,0.30341926,-0.21723217,0.68629867,0.9415512,0.14242142,-0.09690108,-0.574667,-0.57504064,-0.27093616,-0.82759094,-0.36953926,0.85790867,0.30063537,-0.62968373,0.032372713,-0.6591017,0.9152719,-0.9178984,0.5974499,-0.0949129,-0.6825409,0.42118233,-0.74318177,0.2149296,0.24187858,-0.5998567,-0.50046736,0.8317726,-0.8063295,-0.38894275,-0.6109048,-0.77301013,0.312527,-0.32735586,0.055746026,-0.8709595,0.477835,-0.5273502,-0.8597045,0.6996505,-0.8908813,-0.6474271,0.6540071],"bias":1.1320783},{"activation":0.99850047,"weights":[0.83839154,-0.949891,0.6498369,-0.3606069,0.3302449,-0.41300452,-0.73838913,-0.6505852,0.25147033,-0.942642,-0.6922494,0.8919208,0.13209695,0.6234256,0.45394292,0.57974255,0.73714614,0.16490376,0.4298203,-0.45425677,-0.2480197,0.07209647,0.9138367,-0.3878051,0.28098547,0.9717618,0.8371731,0.19627082,0.8353679,-0.8119657,-0.39250946,-0.85682166,-0.5216249,0.35131696,-0.52440554,0.079343095,0.35075766,-0.72704387,0.6896648,-0.671841,0.11137715,-0.8976105,0.5736014,0.8206646,0.4110451,-0.9521624,-0.13614574,-0.8139345,-0.5185304,0.45722222,-0.38239625,0.6739258,-0.2828939,-0.7771107,-0.10308075,-0.98366976,0.36661935,0.46084988,0.57981354,-0.85424685,0.86066395,0.4737727,0.17925684,0.64893365,-0.3597684,-0.72294235,0.85848445,-0.21017918,0.025631852,-0.3707234,-0.14428866,-0.7932419,-0.23004836,0.40797892,-0.38571545,0.16052231,-0.28084368,-0.08154408,-0.67323047,0.60006106,0.20521,0.8509826,-0.60913384,0.8833411,0.68707347,-0.185696,-0.9959634,-0.88012856,-0.12495302,0.21379209,-0.890478,-0.74761146,0.4462165,0.69221264,-0.86518466,0.16502722,1.0980812,0.40304568,0.7033885,-0.6450233,1.0085068,0.49850374,1.2910528,0.007515378,1.1306348,-0.29026866,0.5051758,-0.49283648,0.37340197,-0.27367908,0.66925675,-0.7632786,0.913885,-0.38465092,-0.40066582,-0.8605141,-0.6436129,0.4970987,0.43287826,0.64999974,0.0649213,0.57756,0.39004079,1.0104401,0.39157045,0.47573778,0.1729133,0.84016407,-0.007259364,0.38870144,-0.17273584,0.1385496,-0.72239864,-0.0844359,-0.48702908,-0.6793153,0.022453504,0.5644228,-0.08180388,0.33771706,-0.47561347,-0.54625463,-0.63538855,-0.41879773,0.25428444,-0.34658605,0.6881626,0.3085002,0.75701827,-0.106312,0.14521664,0.8384728,0.7954594,0.28050005,-0.07571856,0.4952177,0.16012809,-1.124177,-0.5824533,0.46185252,-0.54482096,-0.4823733,-1.0597986,-0.63193375,0.44430965,-0.0054762727,-0.15140243,-0.9818235,0.34065163,0.5008638,-0.7562145,-0.18727678,1.0277194,-0.67984134,1.1471531,-0.48267603,1.3316262,-0.16282937,0.88926387,0.14223097,0.18466248,-0.39996248,0.5211118,-0.09166719,0.046744354,-0.18261005,-0.25042823,-0.06181888,-1.0132034,0.5540669,-0.16755466,-0.81976223,-0.40277973,-0.5770991,0.07529621,-0.5928815,0.7156786,0.6547744,-0.81746024,0.7328744,0.30526966,0.5721939,1.2173768,0.7333583,-0.54908407,0.6783416,-0.46897453,0.88164246,-0.87920696,0.0056830635,-0.06988571,0.16810933,-0.3562408,-0.62963754,-0.5228671,-0.59717643,-0.1785761,0.9626476,-0.50107944,-0.67608696,0.68412524,0.31146297,0.8548029,0.1083199,-0.73287493,0.63251555,0.22902788,-0.45368287,0.5978947,-0.3914225,-0.5283229,-0.3015347,0.075169995,-0.21719307,-0.20509249,0.0664964,-0.63647664,0.89053005,-0.3068743,0.67995197,0.11188065,0.56745636,0.3444844,-0.6886257,-0.5973663,-0.3919268,-0.85325676,-0.6018172,-0.9438953,0.13449873,0.53354985,-0.26873294,0.7830802,0.37995988,0.8471191,0.3495527,-0.33296975,0.84289765,0.01711416,0.26276582,0.3163261,0.048140645,-0.6702869,0.09205919,-0.23579235,-0.24279466,-0.20539685,-0.34643504,0.37166485,-0.36694893,-0.29451117,0.7382117,-0.21922605,0.28352815,0.09208012,-0.1251508,-0.06330128,-0.8590278,-0.11615851,0.86990654,0.16478823,-0.55307984,0.8193867,0.45280516,0.015079616,0.44601694,-0.80133617,-0.41006565,-0.9225271,-1.044299,0.31189314,-0.7723412,-0.58881617,0.14714754,0.19722687,1.1333745,0.6266565,1.2914362,0.1599298,-0.12253315,-0.15723519,-0.071736716,0.23946647,-0.24110451,-1.0357912,0.28677872,-0.6803718,0.84266925,0.20957097,-0.095485225,0.19453037,1.0242274,0.7091048,-0.6307427,0.31217122,0.35481325,0.19420306,-1.1789504,-0.18167734,-0.6879789,-0.052165274,-0.2151125,0.3825172,-0.30433163,1.4550164,1.0333426,0.6232878,0.36486074,-0.5629128,-0.26888555,0.14380139,-0.5573723,-0.50278854,-0.47097325,0.31537658,-0.6821552,0.5140341,0.24440987,-0.70660293,0.15535392,0.13682932,0.26773018,-0.95825845,-0.8608908,-0.9361359,0.18926688,-0.84358686,-1.397234,0.39009473,-0.7076768,0.49633855,0.031750396,0.82028836,0.6420256,0.923011,0.67861915,-0.24824534,0.7751827,-0.45510983,-0.109421,-0.49900568,-0.6453949,-0.021470273,0.0044117374,0.23703517,0.68763906,0.31348753,-0.34577376,0.13279125,-0.004415328,0.3895499,-0.40957776,0.47019917,-0.2371221,-0.012080099,-0.9822806,0.22305937,0.308155,-0.28843564,-0.2540722,1.4462942,1.637199,-0.03778179,0.97192997,1.1434494,-0.36003345,-0.94119155,0.05251667,-0.75085044,0.56912917,0.41934606,-0.3670876,-0.31613833,-0.5503326,-0.6368015,0.7450578,-0.47926104,0.80569875,-0.07372773,0.6405981,-0.15881562,0.21630524,0.29413438,-0.78994495,0.8692419,-0.82349116,-0.55888605,-0.037202746,0.7153903,1.2587078,0.41712207,0.6899565,-0.2596267,0.40720227,0.11836188,0.31547266,0.7644126,-0.9489669,0.27553317,-0.103913195,-0.66005206,-0.23522036,-0.3427145,-0.20059758,0.19133979,0.89872926,-0.6154545,-0.38991755,0.8068751,-0.9529079,-0.1274676,-0.1872506,0.9124308,-0.58776397,-0.2108468,1.2265056,1.4844272,0.84759307,0.9504356,0.97237563,-0.37946397,-0.0060282373,0.5398641,-0.8784258,-0.60040236,0.42641777,-0.327965,-0.30316603,-0.35010618,-0.6619178,0.85134894,0.80662537,0.9367498,-0.8258486,-0.52136314,0.74393135,-0.36302865,0.45382315,0.71627957,-0.44109622,-0.1542935,0.04040757,1.1722858,-0.057335306,1.4851234,0.922586,0.31884536,0.39225549,0.119212575,0.7944127,0.30927682,0.46116108,-0.80430984,-0.26530966,-0.04576646,0.0180575,0.09755981,-0.5911239,-0.60927516,0.6737991,-0.37545148,0.72712195,0.7455998,-0.9325055,-0.7700824,-0.61667377,0.69806653,-0.6966124,0.13741115,-0.72612166,-0.013507606,0.96980053,0.13570192,0.60864437,0.21587093,0.25976902,-0.1412382,-0.14238383,0.766431,-0.71381694,0.90192014,0.46217132,-0.7484126,0.9348687,-0.5969801,0.13533078,-0.72718567,-0.6875438,-0.4673939,0.32819945,-0.034993455,-0.9742762,0.462225,-0.027728278,-0.30252358,-0.42951956,0.28787512,0.07389273,0.7820693,0.28122696,-0.148523,0.29566297,0.40287346,0.9234532,-0.62900865,-0.10110769,0.40068665,-0.73887694,0.7439959,0.5373062,0.3285756,0.05839212,-0.94498056,-0.97756547,-0.35534918,-0.40516934,0.2777144,-0.89402723,-0.99937844,0.15186311,-0.56692946,-0.7619352,-0.728186,-0.32436493,-0.24184346,0.060892526,0.055755235,0.43889996,0.88734937,0.7920828,-0.7759779,0.22673461,0.9327575,0.8043036,-0.7089224,0.50466895,-0.6488306,0.59102905,0.26987606,-0.20173661,0.26833367,0.8866639,-0.11972252,0.7122052,0.8134297,0.4867164,0.6023524,-0.7662565,-0.34538198,-0.27039075,-0.55933946,-0.78289497,0.44221488,-0.28202763,-0.023142666,-0.48861828,-0.064321995,0.5541128,1.061848,-0.4793362,1.1036433,-0.09680608,0.47535545,0.9355822,-0.8538213,0.05642735,-0.94758165,0.9803027,-0.044035822,-0.15491435,-0.8120512,-0.71698153,0.6161738,0.76852626,-0.393767,0.16535255,-0.5182174,-1.0877653,-0.8636224,-0.69501257,0.96974427,-0.5132705,0.6344363,-0.058824033,-0.36024964,0.37052235,-0.12651461,1.1353562,-0.18605526,-0.91146743,-0.9761596,0.8966236,0.9432232,0.23091203,0.58424073,-0.24450248,0.580002,-0.53418577,0.7965166,-0.11625859,0.97469085,-0.38557497,-0.56569105,-0.6965795,0.41194615,0.37508535,-0.34600866,-1.004248,-0.69325584,-0.07637724,-0.47806945,0.048286337,-0.6151025,-0.39751908,-0.6447465,-0.35930225,-0.4982244,0.62382114,0.22605078,0.50258404,-0.7471811,-0.4355937,0.10764577,-0.37570122,-0.44480896,-0.5528965,0.18934001,0.092785366,0.18038405,-0.55734336,-0.44429964,-0.21210304,0.6595818,-0.8154792,-0.006107892,-0.6865064,-0.6230606,-0.4735342,-0.80754,-0.79096216,-0.7411939,-0.89266306,0.23463774,0.7334112,0.12414388,-0.9585954,0.5955798,0.09814197,-0.569969,0.4674172,0.9301637,0.24024975,0.10409558,0.69135416,0.33703533,-0.20237274,-0.30400583,0.8741959,1.2217622,0.29550117,0.06066973,0.46521962,0.3595512,0.01310975,0.28645942,0.5434225,-0.09603563,-0.35201865,-0.5616501,0.8044053,-0.7110247,0.36121657,0.8169369,0.7565373,0.27912983,-0.91796035,0.73663527,-0.03085635,-0.9117925,-0.96561384,0.41369987,-0.5582187,-0.35470384,-0.64485216,0.4706356,0.47200918,0.06265702,-0.13448972,0.97092474,0.1815852,0.6126338,-0.20382482,0.18052417,0.18848003,1.1978493,0.7428484,0.9284908,-0.29043877,0.2295751,0.63041,0.84012526,0.48752245,0.36308125,-0.30532515,0.16479851,-0.5456198,0.8855534,0.24659073,-0.20895362,0.87698007,-0.5987694,-0.86336565,-0.2793164,0.97622186,0.2955207,-0.84853286,-0.24711314,0.1309154,-0.5399721,-0.009915817,0.5117911,0.8100579,-0.48726583,-0.46051666,0.8849509,-0.7173588,0.79948634,0.48061937,-0.6269409,-0.34735847,0.0036898078,-0.09902833,-0.2767953,-0.634632,-0.035719275,-0.14990783,0.13454783,0.12779951,-0.6243297,-0.2788409,0.6991811,-0.37556216,0.4725207,-0.9759528,-0.07610684,0.56014395,-0.3051834,-0.44341746,-0.5847327,-0.5358606,0.2837001,-0.26514843,-0.1211476,-0.06958542,-0.4426763,0.9024135,-0.18159114,-0.5082099,0.36079732,-0.7929825,0.36789227,0.39954245,0.18447495,-0.62355196],"bias":0.5597053},{"activation":0.9475242,"weights":[-0.35044622,0.25565398,-0.6798092,-0.2856629,0.6976354,-0.35124445,-0.7109697,-0.38047683,-0.5906873,0.85077035,-0.17902815,-0.83598566,-0.66158265,-0.19273931,0.9089589,-0.10504444,0.7909101,-0.013992071,-0.7172456,0.43732953,0.8935245,0.19365644,-0.31138265,0.24063468,0.97592735,0.21081829,0.09515202,0.9623573,-0.6408906,0.78538,0.89587665,-0.9833529,0.20243156,-0.6921999,0.37239012,-0.55498105,-0.0021762366,-0.5298417,0.49523935,0.20825137,0.54138654,-0.7648914,-0.15408497,-0.23069721,0.761758,0.761072,0.6844674,0.568245,-0.062745646,0.39225143,0.9085037,0.6372526,0.02743578,0.8366592,-0.41656053,0.32426775,-0.8212341,0.13906384,-0.1601206,-0.2687446,-0.005092527,-0.985584,0.100773215,-0.5703544,-0.10997803,-0.2947385,0.47951692,-0.624064,0.9094586,0.4596364,0.7052011,0.091338165,-0.71375495,0.54891086,-0.5867088,0.44673213,-0.91801035,-0.5909606,-0.5296785,0.14746723,-0.4572364,-0.8041681,0.7744807,-0.7415813,0.38781738,-0.5578226,-0.75406384,-0.114324905,-0.5015276,-0.8049825,-0.6361627,0.6830783,0.055942096,0.08216841,-0.4529932,-0.14662735,0.5870333,0.87368864,-0.2179401,-0.8418079,0.31531152,0.704549,-0.37225428,-0.3287029,-0.42974427,-0.06547967,0.85089076,0.6883745,0.9019891,0.30464342,0.87834257,0.3693031,0.10711515,0.59760606,-0.054466445,0.26793498,0.8656659,-0.15733898,-0.65673995,-0.38710463,-0.6744598,-0.4836063,-0.73860294,-0.512374,-0.020889232,0.17546865,-0.2528314,-0.46103385,-0.7461021,0.3264608,-0.059403945,0.0057461723,0.90771025,0.30555335,-0.25929308,-0.041719876,0.22128059,-0.34199223,0.27494583,-0.15080297,-0.9368491,0.52713346,0.075852215,-0.9072512,-0.9633456,-1.0176957,0.17616904,-0.48130554,-0.2626608,-0.12560576,0.39998585,-0.9784928,0.6463942,-0.64445925,-0.059311263,-0.22506273,0.5074073,0.6443279,0.78434366,-0.3407685,-0.3355237,-0.67057353,1.095174,-0.088129014,0.5344247,-0.70984256,0.9701071,0.15783341,0.058035612,0.85896873,-0.92948055,-0.36056,-0.8273686,0.00066427805,0.24871792,-0.19712575,-0.5010466,0.4817896,-1.0936255,0.25785083,-0.1326702,-0.20772076,-0.5531341,-0.2773471,-0.4393841,-0.7045064,0.3152146,-0.40632346,1.0362258,0.17018397,0.06754703,0.19918127,0.82688516,-0.6626014,-0.024692466,-0.36342087,0.7664137,-0.6610609,0.58885133,-0.57438594,-0.98347425,0.649659,-0.3601739,-0.13775136,0.013082882,-0.46655723,-0.009604737,-1.1450417,-1.1963737,-0.24732687,-0.28307799,-0.44592053,0.17258465,0.014990116,0.009261845,-0.28248262,-0.8269912,-0.44962907,0.41503975,0.9018903,-0.3753995,0.4917246,-0.061407436,-0.015850041,-0.32973376,-0.22499415,0.041966036,0.2777388,0.7984886,-0.6352006,-0.6196277,0.32576302,-0.031100754,-0.38222212,0.56680083,0.6021097,0.66221833,0.5215086,0.15578547,0.088197276,-0.08105901,0.19844994,0.52581906,-0.11174034,0.102051884,0.85215294,-0.60772467,-0.23421222,-0.85010093,-0.535392,-0.11914836,0.21606287,0.50071,-0.2617767,0.17311902,-0.3782736,-0.19069827,0.36810073,0.99552524,0.41378093,-0.08677475,0.85563415,0.45190382,0.80314106,-0.5250796,0.047844674,0.23077792,0.50325584,-0.5087203,-0.50909185,0.31012595,0.6180988,-0.39683917,1.0481168,0.5963167,0.4251213,0.90424025,0.83680606,-0.3164358,0.46967196,0.39554214,-0.1334015,-0.0770911,-0.4391129,0.09856711,0.4458057,0.52840257,-0.3088729,0.28754988,0.85594416,0.025939394,0.543173,0.40606678,0.114991784,-0.5287059,0.29412496,-0.39839652,0.449282,-1.0351737,0.65207464,-0.025431968,-0.41957343,-0.004237985,0.8030692,-0.7712823,0.32939008,0.24581629,0.6475293,-0.8111578,-0.53242135,-0.8853535,0.46276626,-0.629775,0.11853205,-0.5781473,0.99949604,0.1863425,1.2933278,0.7909833,0.7616286,0.5895056,-0.43955144,-0.5530271,-0.48937973,-0.4031858,0.5287869,-0.120984256,-0.5074382,0.0824776,0.6684906,0.46857765,0.7357972,0.11257042,-0.7299203,-0.07400759,0.8226958,0.47882134,-0.5749081,-0.12001951,0.35045803,-0.69042146,0.30392468,1.0487663,-0.23612006,0.2904023,0.56891096,-0.87323385,-0.4839495,-0.086051606,-0.2628139,0.14861482,-0.6938376,-0.5603618,0.32362622,0.76414555,0.5236889,0.93150795,-0.5413094,0.37836424,0.4602919,-0.07589064,0.46334916,-0.57530105,0.5793445,0.40801162,0.466958,-0.7789007,0.29754364,0.059712153,0.98963183,-0.1860399,0.8787274,0.09896982,0.4341818,0.5323333,-1.1176637,-0.73584694,-0.53964543,-0.83392507,-0.062864274,-0.6537276,-0.48809907,-0.4756829,0.4801087,0.19241679,0.5927339,0.46124548,0.60309803,0.71660835,0.9291821,0.32205993,-0.8711453,0.17929494,-0.3179984,-0.6526756,0.35888124,0.78858423,0.076155394,0.9561672,0.5523021,-0.22143906,0.38763306,-0.17623962,0.15943554,-1.1177412,0.43837708,0.76903856,-0.5163932,-0.38287893,0.10508052,-0.46696392,-0.68179846,0.4347794,0.968195,0.97276306,-0.37078533,-0.25490046,0.05078199,-0.9934296,0.19928159,-0.12319691,-0.17926078,-0.8007599,-0.6495557,0.7767111,0.825885,-0.25278583,0.13735259,0.53464437,0.01650298,0.32304263,0.32819378,-0.5504229,-0.1873964,-0.15932243,0.37754685,-0.47872293,0.32216272,-0.040416755,0.85388994,-0.14417711,-0.8582867,-0.27778706,0.31657013,0.71269906,0.035116468,0.067811735,0.40322593,0.056071706,-0.36799252,0.72565925,-0.7409634,-0.5602704,-0.4480703,0.1845632,1.0802433,0.742347,0.86669946,0.52964747,0.6314494,0.33797503,1.0801781,0.53583896,-0.2683189,0.33301646,-0.35046527,-0.31586924,0.570594,-0.824769,0.14603919,0.27421466,-0.6332747,-0.36356512,-0.084365055,-0.8864377,0.2785713,-0.7325326,-0.59000266,0.6699595,0.04225337,0.24448614,-0.35868162,-0.19912544,1.1140152,0.0028455514,0.9945715,1.8088763,0.44256866,1.019983,0.3652851,0.981314,0.4487976,0.5128391,-0.1735298,-0.12255384,-0.41456708,-0.67162806,0.37843308,0.11248281,0.44689313,0.33968946,0.12759931,0.77344906,0.9809944,-0.30413583,-0.5935595,0.323035,0.56123406,-0.1591723,-0.3607565,-0.3723793,-0.2859865,0.49739152,1.4001622,-0.07346686,1.4405218,1.5368487,1.4437424,1.0705854,-0.3144083,-0.12478695,0.28955108,-0.6653835,0.29366195,-0.457436,-1.0511351,-0.112111755,0.008983774,0.88409513,-0.43350297,0.36694813,0.8203243,0.83576196,-0.8609175,-0.14860962,-1.0650947,-0.34907433,0.3111619,0.04403379,0.84634274,0.07906028,0.91251796,1.2994914,0.54522395,0.98398715,0.5312524,0.027290115,0.9739163,-1.0837203,-0.566425,-0.51362467,0.18411176,0.28661397,-0.14142324,-0.7752299,-0.42504862,0.8549695,-0.86149365,-0.50751626,-0.23968378,0.022747755,0.7330341,-0.42820343,-0.356826,-0.31255037,0.2863918,-0.47935307,-0.98001313,0.5397711,0.6218368,0.40951747,-0.17604613,0.003724606,0.16863692,0.6236939,-0.49752364,0.85552186,-0.3601817,-0.6037646,-0.34668663,0.26885456,0.50526476,-0.1366179,-0.19637308,-0.46639526,-0.6974132,-0.22023448,-0.64427376,-0.4901775,-0.7415406,0.3815179,-0.4183837,-0.67338645,-0.7279535,-0.060474534,-0.37914625,-0.16567786,-0.9127084,-0.7425583,0.8151236,0.45661357,-0.17653123,0.37625915,-0.43172142,0.2937258,0.18857078,0.07653677,-0.55477315,-0.7238123,0.08120261,-0.6986698,0.7456881,0.78039414,0.95611995,-0.65328157,0.021399744,0.42528117,0.4106098,-0.12420558,0.84421575,0.6111934,-0.7446491,-0.5675368,-0.48750672,0.16919442,-0.58969545,-0.8053675,0.28592062,-0.73919284,-0.63441217,1.0228654,-0.13604435,0.10065656,0.16027646,-0.7126976,-0.12611948,0.5729905,0.15842657,-0.72121143,-0.22475481,-0.27547404,0.11504037,-0.6500327,0.34817472,-0.55818975,-0.26643884,0.9845134,-0.020380808,-0.76070946,0.37882456,-0.12468848,-0.23229225,-0.8280248,-0.8888771,0.81066823,-0.7300633,-0.0736968,0.5245923,-0.83694726,-0.46205786,0.4415957,-0.3004719,0.37380016,0.042244073,0.38485542,-0.18879761,0.9387459,0.8572779,-0.40114355,0.75585824,0.7887305,-0.4641825,-0.327479,0.90390503,-0.85905576,-0.736057,0.5749989,-1.1193612,-0.8390943,0.25612193,-0.97437435,-0.10066961,0.0698027,-0.3016608,0.58665025,-0.7604722,0.5919973,-0.41070235,0.71982217,0.03352849,0.6574074,-0.48343912,-0.20120917,0.4650416,0.49531767,-0.70444614,0.7026287,-0.90347266,0.5223159,-0.770756,0.26663494,0.9773402,-0.39350858,0.16668802,0.6950601,0.89880604,0.48324108,-0.39651638,0.68444395,-0.40105838,-1.0631553,0.1190802,-0.6194676,0.82781315,-0.031101504,0.8876757,-0.3246795,0.44911122,0.39855218,-0.2665121,0.812494,0.7485619,0.9788032,-0.06467721,-0.8559543,-0.10230915,-0.6391643,0.9906752,0.86659646,0.51780164,0.95132697,-0.17546254,-0.1322513,0.6589322,-0.8512547,-0.051358607,0.3131012,-0.22542243,-0.60015005,-0.45989516,0.26748484,-0.23703149,-0.25509468,0.5449951,-0.85029584,-0.055223938,-0.9240853,0.5102643,0.07801035,0.86557084,0.80768234,-0.046098903,-0.93358004,-0.9603906,0.21234453,-0.19293332,-0.7604507,-0.56431484,0.6460475,0.6824385,-0.16911855,-0.14208356,-0.43396717,0.94059324,0.26508224,-0.6710855,0.57246137,0.79662144,-0.14199315,0.8229851,-0.37705088,-0.16161601,-0.08482892,0.99228615,0.06937251,0.4850764,0.94992787,-0.09278724,-0.8733901,-0.58646214,0.0010174513,0.7192607,-0.8235836,-0.54386806],"bias":1.4206667},{"activation":0.00034685028,"weights":[0.8269515,0.985106,-0.67639565,0.9986701,-0.30622208,-0.5277059,-0.42662096,-0.46865118,-0.5974332,-0.5929719,0.45141733,-0.7289572,-0.11534321,0.23322438,0.09471089,-0.22205776,-0.45560813,-0.5599904,-0.8335186,-0.07651162,-0.45442104,-0.91889143,-0.9523165,0.67418087,0.14374399,0.33284283,-0.78885376,-0.05065179,-0.7648529,0.7747711,0.15023196,-0.9767475,-0.80504376,-0.85091925,0.81035393,0.65773404,0.76202244,0.45608476,-0.6549833,-0.9381283,-0.7622319,0.8004482,-0.18815689,-0.5180725,-0.8278186,-0.16568398,0.69757104,0.08143843,0.35405356,0.92547864,0.27612296,-0.47791523,-0.9482815,-0.9887607,-0.118059635,0.9311968,0.073471904,0.5530168,-0.19140513,-0.18621086,-0.28255272,0.19729051,0.6337372,0.8781849,0.9004104,-0.6400778,0.4637276,0.75101155,0.079631336,0.7416627,-0.7925713,0.7729019,0.41502306,-0.6964231,-0.47694758,-0.34922844,0.34399268,0.44827747,-0.22100377,-0.35738257,-0.5279669,-0.2544456,0.20941842,0.25939488,-0.8968594,-0.8278123,-0.077842176,0.9232668,0.0629477,-0.12890193,-0.33544832,0.06259881,-0.8332435,-0.45462143,0.1541971,0.47776538,-0.015728537,0.2425804,0.028388103,-0.3485118,0.9892192,-0.9256773,0.9679242,0.23847872,0.10727504,-0.6718535,0.80854434,-0.5007481,-0.917068,0.46406233,-0.2857627,0.69136846,-0.20630908,0.4227027,0.5275219,-0.1761351,-0.34407425,0.5025429,0.5138539,-0.057236254,0.5180679,-0.7684507,-0.8075242,-0.16765699,-0.73579156,0.51024765,0.42176795,-0.31233484,0.111049145,-0.9142629,0.9006066,-0.42740312,-0.04655622,0.19861376,-0.78214383,-0.43079123,0.7397752,0.38480222,0.5699631,0.37784192,0.40193975,-0.43653643,0.53884476,-0.547611,-0.86826843,-0.3959046,-0.4229166,0.6082032,0.26065564,0.32129917,-0.39537525,-0.10348944,-0.99497384,0.46582812,-0.29801902,0.46992335,-0.6167082,0.51179993,0.5296441,0.36977103,0.54703164,0.73958725,0.49604514,-0.38054615,-0.13920392,0.9332838,-0.42111146,-0.56777155,0.8478639,0.95903486,-0.12941982,-0.10012698,0.50793207,-0.64044726,-1.0215745,0.27000841,-0.9586311,0.40199688,-0.979359,0.07362474,-0.37387437,0.29112303,-0.97028196,-0.49483836,-0.35559487,0.025260398,-0.75215,0.17655274,0.69933844,0.17542547,0.5476307,-0.52459276,-0.7385438,0.58195156,0.326199,-0.04531418,-0.39467993,0.041505724,-0.98364824,-0.6456645,-0.06238183,0.46353865,-0.873378,0.4631723,-0.73819804,-0.9218571,0.6863457,-0.08377675,0.32209668,-0.44753578,0.1633942,-0.20879477,0.75273246,0.71674424,0.45602986,0.10199895,0.56153786,-0.97966874,0.39385045,0.90401655,-0.48483837,0.066994295,0.4482492,0.7820063,-0.83954084,1.0011895,-0.1706236,-0.12153878,-0.5674509,0.83553433,0.8148982,-0.330788,0.823351,-0.0787012,-0.6139879,0.15601946,0.87628067,0.021005625,-0.15910639,0.23872092,-0.46093494,-0.386713,-0.5342709,0.43695736,-0.5761933,0.106169194,0.6958845,0.46250746,0.6230182,-0.63971007,-0.26471934,-0.7462405,0.6931152,-0.9348673,-0.99456865,0.9218199,-0.61154014,0.38745525,-0.65223026,0.6948656,0.281891,0.79050124,-0.5816226,0.56871355,-0.3927258,-0.5323871,0.9299738,0.5687889,0.5059731,-0.8339757,-0.25117895,-0.054489583,0.16041055,0.30306423,-0.6651023,-0.26392996,-0.5006709,-0.73223233,0.0037648405,-0.6585105,-0.79410034,-0.4002888,-0.35192734,-0.9556582,-0.8225663,-0.38327715,-0.3787605,-0.26499563,0.14469726,0.6145531,0.41797927,0.883382,0.25453317,0.028541572,-0.07056644,-1.0158657,-0.5434644,-0.89158124,0.18556254,0.36142778,-0.742334,0.082812116,0.82678676,0.32500213,0.2138598,-0.9550572,0.914228,-0.7394062,-0.5865973,-0.8588243,-0.18373057,0.317668,-0.7140666,0.9015936,-0.08921403,-0.16766271,0.09130209,0.47964132,1.0585175,0.30906317,0.37971428,0.5185344,-1.121746,-1.4184113,0.0067979577,-0.972811,-0.34860072,-0.76688135,-0.2794661,-0.5387275,-0.29967663,-0.7537589,0.7132481,0.75701064,0.16611157,-0.7928226,-0.14409328,0.7872995,-0.13296534,0.43418348,0.23687826,0.26333126,-0.35593802,0.7143857,-0.3088317,0.3172231,0.79158294,0.37413776,1.3335875,0.7983118,-1.5621951,-0.17696214,-0.23843916,-0.034779206,0.21646434,0.3974859,0.11981836,-0.6007845,0.15699247,0.028675178,0.32275024,-0.6347134,0.22182758,0.51411396,-0.81416404,0.9994179,0.33992645,-0.69996566,0.55345553,0.91965777,1.297841,1.0248816,0.47777054,0.7835214,1.046175,-0.06765225,0.54683715,-0.81879157,-0.8981451,-1.1181253,-0.7418989,-0.8386978,0.31940776,-0.78542244,-0.19688015,1.1618835,-0.015981752,1.134281,0.83673483,0.5259358,0.41340274,0.7134671,0.1538755,-0.32359582,0.16260111,-0.8346581,0.33597147,0.95465,-0.40395144,0.7095491,-0.5387963,1.0576419,0.060361106,0.12960622,0.16893396,-0.85779226,-0.27220368,0.13957654,-0.5454554,-0.3069255,-0.66273797,0.37347904,-0.087301895,0.07481563,0.8556181,0.013993767,0.51465183,0.3583459,0.008935877,-0.086381815,0.8443727,-0.3325102,-0.5722969,-0.3132135,-0.87281454,0.11850226,0.56564456,0.89479625,0.31738433,0.8014945,0.96607685,0.19941269,0.35304254,-0.95502967,-0.79021955,-0.9525126,-0.147037,0.81946063,-0.42477596,-0.26713303,0.78307515,1.0390807,0.4318673,0.6825467,-0.53207713,-0.3565562,0.80694467,0.22559404,-0.087556675,0.2770538,-0.4721563,0.7655871,-0.015469229,-0.05231835,-0.005092793,-0.29563448,1.0362719,0.10453753,-0.5952141,0.84161574,-0.52904063,-0.792509,-0.0972198,0.035144735,0.33509463,0.14156188,-0.28193703,0.9014362,-0.4031445,-0.64994854,0.69071865,-0.4036317,-0.2806023,0.48028037,-0.21305496,-0.2651682,0.47173572,0.41152763,0.5836643,0.6713361,0.53050953,0.07597263,0.6641084,-0.0751844,0.11499071,-0.48409477,0.93162984,-0.61226577,-1.010066,-0.8071736,-0.8951443,-0.5496819,-0.6115509,0.06899134,-0.111516155,-0.2700104,-0.6143635,0.64205813,-0.093025625,0.812896,-0.011668958,-0.9424512,0.24445897,0.53095114,-0.57363313,0.5857163,0.31450447,-0.57003915,0.058946922,0.746675,0.43152356,1.0280995,-0.2179617,0.2537575,-0.7074768,0.645401,-0.60084057,0.34536794,-1.038793,-0.12619542,0.2848459,0.0737904,0.3019266,0.012635309,-0.036165196,-0.0077068736,0.016936999,-0.36841506,0.973664,-0.87406677,0.017375413,-0.42162016,0.49127686,0.3444704,0.14832173,-0.23139125,-0.89474523,0.2767593,0.124849334,0.40015468,0.90255934,0.7398949,-0.35217035,0.106508814,0.24900417,-0.61943907,-0.52672476,0.33842105,-0.30525768,0.561616,-0.9107537,0.8397918,-0.9475989,0.62217945,-0.38626626,-0.10334356,-0.22153546,0.028125374,-0.928521,-0.38410705,-0.6368518,0.007159578,-0.17144187,-0.50906277,0.55793405,-0.08448972,0.26926792,-0.93966216,0.39125615,0.33964264,-0.34369826,0.45514512,-0.42036837,-0.48140663,0.8996891,0.21242309,-0.85046685,0.1086316,-0.57703435,0.07842985,-0.05279716,-0.23498537,-0.49477124,0.7302188,0.16503328,-0.90653545,-0.6354299,0.32305047,-0.92494357,-0.46044537,-0.68032485,0.8474741,-0.83328706,-0.17109253,-0.45305225,-0.7915201,-0.13586254,-0.23915248,-0.27158347,0.95502377,-0.28614372,-0.34576443,0.51449716,-0.30029988,-0.3177483,0.67283875,-0.45856267,0.018122619,0.20577414,-0.8413031,-0.67891514,0.39165384,-0.9928167,-0.94514674,-0.52992445,0.25927937,-0.78996766,0.09989851,-0.86642534,0.024208829,0.77873826,-0.9083415,0.022306709,0.04551684,-0.049338397,-0.31557167,0.19549987,-0.48606637,0.9447758,0.69139564,-0.41498882,0.53753966,-0.22170626,0.3541031,-0.4426136,-0.14215696,0.4321018,0.73270273,0.79413116,-0.55892706,-0.47285667,-0.23651522,0.3622089,-0.38851035,0.51143813,0.8151128,0.20505626,-0.3666106,-0.79199034,-0.66262406,0.090638064,-0.78590447,0.056821696,-0.16380148,-0.1770632,0.09805579,0.07061721,0.65575397,0.39131424,-0.50358695,0.46163568,-0.06673949,0.008855017,-0.79586565,-0.33826238,-0.2911532,0.43612885,-0.30585337,-0.6276875,-0.48112085,-0.19757752,0.8114557,0.22779322,0.08639181,0.6479993,-0.2260717,-0.7491869,0.5556225,0.7810555,0.18558718,-0.91081405,-0.099930756,-0.08286047,-0.46126992,0.73670936,-0.3148352,-0.30504686,-0.012023405,0.30937016,0.10106789,-0.0006446338,-0.502458,-0.5208011,0.4919532,-0.09819437,0.5080873,0.28912744,-0.3984436,0.49196464,-0.64043224,0.7354704,0.76875234,-0.032342773,-0.76982033,-0.047233853,-0.16816749,0.55025065,-0.48064378,0.28128353,0.48226,0.84136045,0.5394214,0.055350486,-0.13840608,0.87879956,-0.8934721,-0.15287618,0.83824795,-0.6721709,-0.7092983,0.55688757,-0.57444745,0.9104889,0.21395327,-0.6552462,-0.69109786,-0.9175449,-0.31336212,-0.23675442,0.91329885,0.835623,0.6315517,-0.90535855,0.4608378,-0.93889713,-0.41369858,-0.65920776,-0.60874784,-0.39265013,0.7706312,-0.5048754,-0.8166148,0.5137224,-0.73378557,0.24513039,0.20702565,-0.13383713,-0.9722363,-0.40287256,0.82857263,-0.021447469,-0.02504367,0.9522952,-0.34034902,-0.2355597,0.08046162,-0.6643077,-0.17482972,-0.2383647,-0.19726467,-0.8229234,0.08780309,-0.62138736,0.8597291,-0.4155029,0.93542725,0.72503275,-0.61850506,-0.5304998,0.9396786,0.8763521,-0.5108925,-0.15880543,-0.80669373,-0.44301566,0.7215736,-0.83055705,0.053052444,0.9943883,0.051717214,-0.5869523,0.7457429,-0.99724853,-0.5723835],"bias":0.8052277},{"activation":0.0092211645,"weights":[0.6377139,0.46540725,0.4900812,0.046215296,0.28820407,0.8818481,0.7336645,-0.8498856,-0.5065844,0.9771956,0.6961249,0.26837575,0.43650684,-0.37888303,-0.055398818,-0.6866844,-0.6852881,-0.5214969,0.2637806,-0.745203,0.51790166,-0.1303091,-0.101409435,0.15719032,-0.95906806,0.43982267,0.6918565,0.50039184,-0.88466215,0.99772704,-0.015449166,-0.53507054,0.7423099,0.633643,-0.85282624,0.38433138,0.8712465,-0.93540245,-0.20021015,0.31171492,0.8459873,-0.0069227777,-0.13344795,0.014251248,-0.53234726,-0.5543967,-0.9425418,0.74761945,-0.4539079,-0.6471064,-0.45240065,-0.651599,-0.7758404,0.009812593,0.66058147,0.73592055,-0.75602853,-0.050335884,-0.7133094,0.34590888,-0.9076946,0.5487263,0.5844933,-0.19028006,0.5262195,-0.06527692,-0.15409486,0.8538274,-0.037427984,0.28429767,-0.12817897,0.0057408083,0.4913468,-0.6536928,0.19369628,-0.43366197,-1.0231988,-0.308104,0.58327425,0.8562867,-0.5264789,-0.51512015,0.20608652,0.40154183,-0.41364253,0.71393955,-0.0757644,0.337561,0.2641622,0.5645971,-0.3966569,0.8788376,0.74334836,0.5939188,0.64890033,-0.78631735,-0.5242268,-0.19291413,-0.7593463,-0.5077646,-0.39159328,-1.056263,-1.0504901,0.3262262,-0.8573342,0.030306183,0.13848925,0.76992506,0.8337435,-0.34852648,0.7224009,0.99404144,-0.13039887,-0.18309866,-0.2677298,0.9984722,0.59409916,-0.7967525,-0.25979182,-0.06791466,-0.44763878,-0.49463084,-0.82681686,0.597747,-0.28330913,-0.30745193,-0.20154382,-0.69147223,-0.13546248,0.56775695,-0.36959273,-0.91032064,0.3715743,0.87143445,-0.27304098,0.95474076,-0.091232166,0.5861252,0.50517356,-0.29426828,-0.09043908,0.6251074,0.6776902,0.7473859,-0.75794536,-0.3915493,0.6710695,-0.5133753,0.28852484,-1.0383409,0.10497026,0.4987357,-0.00075511367,-0.16540445,0.23014304,0.6749153,0.4386389,-0.33916432,0.32392555,0.35575286,0.9416197,0.105627485,0.9108133,-0.08671829,0.6349688,0.04618841,-0.65730995,-0.49430877,0.8295816,-0.9446299,-0.0586132,-0.7957826,-0.25101274,-0.66391295,0.45288432,0.2938996,-1.1625948,0.29935917,-1.0049449,-0.37784237,0.59481865,-0.06514316,0.32756996,-0.92157173,-0.41953105,0.040457685,-1.2260499,0.03682905,0.61404306,0.031289257,-0.48689875,0.03455083,0.074375376,0.7959769,-0.62730914,0.44921324,-0.19791085,-0.89536035,-0.59758645,0.4614653,0.4568686,-0.7768807,0.3932713,0.213967,-0.46442878,-1.057094,-0.92981905,-0.40787408,-0.024609955,-0.6306174,0.30849415,-0.08057459,-0.640839,0.17976438,-0.48539418,0.21442634,-0.57448286,-0.0656635,0.8776556,0.7404456,-0.53669626,0.13875046,-0.10586965,-0.18387853,0.3989928,0.88507414,0.9567711,-0.8527601,-0.40743425,0.03328686,-0.43851528,-1.1925627,-0.4478366,0.25303003,0.0741251,-0.7273422,-0.14521791,-0.45938385,0.64769703,-0.38250408,-0.7638295,-0.29421505,0.16940123,-0.2932972,0.0753201,0.30075115,-0.14952885,0.28176403,-0.5620441,0.65140915,0.03836491,-0.05738507,-0.5805456,0.3565006,0.58936954,-0.8396718,0.17040996,-0.61746067,0.5866354,-0.033672046,-0.46699223,-1.2545041,-1.1057678,-0.76107997,0.7182486,0.3704347,1.0266291,0.2899579,0.43794417,-0.059956107,-0.5292733,-0.7492586,0.6922813,-0.8782703,0.0018856848,-1.0098362,0.51763207,-0.6914844,-0.97943723,-0.79117167,0.80478585,0.3142979,-0.44258955,0.4154239,-0.1712597,0.3800332,-0.49932113,0.53379124,0.20302352,0.13387659,0.3839009,0.15482052,-0.69248617,-0.013846184,-0.13788934,1.3286481,0.6331086,-1.1507126,0.28753683,-0.7340187,-0.50418055,-0.7243649,-0.59106684,0.42837524,0.75577587,0.6135448,-0.32492754,0.13744996,0.006214332,-0.1642937,-0.9278464,-0.946724,-0.14129804,-0.7459791,0.5048902,-0.014856079,-0.32272917,0.57163304,-0.67340934,-0.9615721,-0.76377875,0.9624431,0.4699346,1.1562538,0.8263203,-0.028081981,-0.86750436,-1.065376,-0.96941483,-0.33140585,-0.93124294,-0.358145,0.07082453,-0.87429374,-0.80436087,0.56422323,-0.21934533,0.4460813,-0.37808025,0.39000726,-0.44248897,-0.5955384,-0.81884325,-0.6149315,-0.24574457,-1.130101,0.26521796,-0.9869059,0.75578076,0.20313321,0.87966585,-0.13073553,0.08107761,-0.77207965,-0.11641092,0.18405472,-0.18884592,0.07522589,-0.2275494,-0.23476402,0.86775047,0.49148342,-0.61434776,0.58430976,-0.49635944,0.14204745,0.97217464,-0.9605402,0.07505861,-0.80972683,0.082613245,-0.40091813,-0.9328683,0.06658755,0.1561488,-0.16056219,0.101446316,-0.03403032,0.95968723,-0.31607163,-0.81180567,0.37060243,-0.76301265,-0.5997546,-0.55546093,0.5102909,0.62227654,0.5188871,0.41000804,0.06662767,-0.81512874,-0.77008045,-0.6978658,-0.8053761,-0.18206221,-0.26186818,-0.041694026,-0.47127214,-0.33015546,0.29053563,0.4562828,-0.8703879,-0.059121944,-0.878693,-0.11536848,0.32533708,1.2527722,0.837763,0.04170204,0.27505496,-1.0088938,-0.5061148,0.37963486,0.6459074,-0.5441084,-0.9253317,-0.2298475,0.007620327,-0.4496199,-0.83783454,-0.82653475,0.17430955,0.23876376,0.25928608,-0.9748956,-0.6017959,0.030046044,0.20499891,-0.73490703,0.4702222,-0.74435663,-0.1566527,0.615327,0.13169211,1.2748423,0.11179171,-0.45317122,0.031883255,-0.07592688,-0.6260626,-0.23116292,0.27025437,0.39046177,0.3981941,-0.49936372,-0.42048696,0.3052069,0.574103,0.93560827,-0.27425718,0.31459665,-0.5324951,0.042933587,0.7904824,-0.7701573,0.23293404,-0.40739185,-1.0526099,0.14171161,-0.4762125,-0.031983458,0.7875445,1.0805473,-0.25798875,-0.12215254,-1.3250616,0.13032317,-1.1045438,0.58358467,-1.0529432,0.06932207,-0.7998238,0.60825396,-1.0156369,0.032569733,-0.8805321,0.1274159,0.98055226,0.3918199,-0.2203603,-0.6236635,0.56186694,-0.9364121,0.512506,0.33571345,0.62969,-1.0017391,0.27167603,0.689287,0.9020788,0.25434107,0.28927964,-0.8396842,-0.67239976,-0.8934881,0.44337773,-1.0895385,-0.8044973,-0.5349743,-0.021098217,0.130436,-0.37183154,-0.8991594,-0.593702,0.6507117,-0.82416373,0.3342035,0.8723546,0.45437354,0.16638128,-1.1154771,-0.4095744,-0.7639508,-0.015368554,0.15018573,-0.24384585,-0.8866059,1.0377227,-0.11456468,-0.5348891,-1.0086926,-0.6396609,0.046523437,-0.16382167,0.062756315,0.29754612,-0.72360414,-0.39075473,0.30039015,-0.0701871,-0.3039159,-0.29720074,0.47503474,0.37665188,-0.71545523,0.30453682,-0.9640365,0.6297245,-0.16238888,0.11159515,-1.0767866,0.5089846,-0.82887816,-0.06695354,0.2898097,-0.0007003868,1.0664035,0.25026554,0.49327308,-0.6853778,-1.1352735,-0.6167189,-0.61394507,0.058102436,-0.53480375,-0.00036228666,-0.7216331,-0.81640494,0.8578474,-0.6814249,-0.05598533,0.75494534,0.0023275798,-0.73606795,-0.18868388,0.64873415,-0.10304768,0.9409563,0.09294328,0.78374064,-0.26795384,-0.11521218,-0.48426282,-0.42522284,0.2203813,-0.40304095,-0.3910801,0.36361715,-1.1895331,0.3591872,0.3097529,-0.41869384,-0.5609649,0.6755446,-0.94513357,-0.8277633,-0.80822045,0.24481812,0.23341979,0.2608334,-0.46548367,-0.41144705,0.44844258,0.23349135,0.24777499,0.09651871,-0.71210575,0.2679542,-0.6436928,0.3132544,-0.72026366,-0.07821966,-0.13016705,-0.14422327,0.26960358,0.6762709,0.6807721,-0.82424366,0.0643647,-0.9531734,0.14595418,-0.10694321,0.9255429,-0.9337034,0.60936064,-0.60120606,-0.64780533,0.90203446,-0.3438483,-0.888452,0.79507184,0.33944768,0.0023937195,-0.70911425,-0.44412315,0.6721226,0.12351639,-0.9924056,0.14865723,-0.53420657,-0.91137785,-0.37638292,-0.36729407,-0.66952777,-0.6550642,-0.1789484,0.66899055,-0.14006452,-0.35912696,-0.8790912,0.466451,0.21580465,-0.6110565,0.29875064,-0.101323485,0.52927446,-0.12700629,-0.10108205,-0.5931755,-0.36716202,0.34192085,0.8303463,-0.011961304,0.088964164,0.20736985,-0.01660765,-0.45604193,0.36781746,-0.9725783,0.7292735,-0.32319015,0.7489484,0.6671697,0.12721244,-0.09519591,0.27541602,0.22314861,0.5121668,0.564421,0.7242154,-0.9727096,0.70531857,-0.33290088,-0.4440447,-0.6340189,0.5945237,-0.9141558,-0.11199448,0.5558276,-0.29377127,-1.0248452,0.12333794,-0.6428643,-0.43976521,0.16882068,0.3210334,-1.328089,0.61710554,0.04382535,0.08616899,-0.39071953,-0.20495479,0.8641334,-0.010307992,0.12049163,0.49325398,0.82636404,-0.81580925,0.1726645,0.4706216,0.6602044,0.1789583,0.6998584,0.5902045,0.31882542,-0.92541015,-0.9671879,-0.961704,0.5764885,