{"learning_rate":0.1,"input_layer":{"activations":[0.0,0.0,0.0,0.0,0.0,0.0,0.0,0.0,0.0,0.0,0.0,0.0,0.0,0.0,0.0,0.0,0.0,0.0,0.0,0.0,0.0,0.0,0.0,0.0,0.0,0.0,0.0,0.0,0.0,0.0,0.0,0.0,0.0,0.0,0.0,0.0,0.0,0.0,0.0,0.0,0.0,0.0,0.0,0.0,0.0,0.0,0.0,0.0,0.0,0.0,0.0,0.0,0.0,0.0,0.0,0.0,0.0,0.0,0.0,0.0,0.0,0.0,0.0,0.0,0.0,0.0,0.0,0.0,0.0,0.0,0.0,0.0,0.0,0.0,0.0,0.0,0.0,0.0,0.0,0.0,0.0,0.0,0.0,0.0,0.0,0.0,0.0,0.0,0.0,0.0,0.0,0.0,0.0,0.0,0.0,0.0,0.0,0.0,0.0,0.0,0.0,0.0,0.0,0.0,0.0,0.0,0.0,0.0,0.0,0.0,0.0,0.0,0.0,0.0,0.0,0.0,0.0,0.0,0.0,0.0,0.0,0.0,0.0,0.0,0.0,0.0,0.0,0.0,0.0,0.0,0.0,0.0,0.0,0.0,0.0,0.0,0.0,0.0,0.0,0.0,0.0,0.0,0.0,0.0,0.0,0.0,0.0,0.0,0.0,0.0,0.0,0.40234375,0.7890625,0.9921875,0.87109375,0.109375,0.0,0.0,0.36328125,0.1953125,0.0,0.0,0.0,0.0,0.0,0.0,0.0,0.0,0.0,0.0,0.0,0.0,0.0,0.0,0.0,0.0,0.0,0.14453125,0.83984375,0.98046875,0.98828125,0.98828125,0.98828125,0.671875,0.0,0.15234375,0.9375,0.4765625,0.0,0.0,0.0,0.0,0.0,0.0,0.0,0.0,0.0,0.0,0.0,0.0,0.0,0.0,0.0,0.0,0.05078125,0.74609375,0.98828125,0.87890625,0.46875,0.21875,0.98828125,0.68359375,0.0,0.2421875,0.98828125,0.359375,0.0,0.0,0.0,0.0,0.0,0.0,0.0,0.0,0.0,0.0,0.0,0.0,0.0,0.0,0.0,0.0,0.51171875,0.98828125,0.67578125,0.0546875,0.0,0.03515625,0.98828125,0.68359375,0.0,0.359375,0.98828125,0.16796875,0.0,0.0,0.0,0.0,0.0,0.0,0.0,0.0,0.0,0.0,0.0,0.0,0.0,0.0,0.0,0.0,0.546875,0.98828125,0.21484375,0.0,0.0,0.09375,0.98828125,0.68359375,0.05078125,0.72265625,0.953125,0.11328125,0.0,0.0,0.0,0.0,0.0,0.0,0.0,0.0,0.0,0.0,0.0,0.0,0.0,0.0,0.0,0.0,0.546875,0.98828125,0.3359375,0.0,0.0,0.37890625,0.94140625,0.23828125,0.32421875,0.98828125,0.78125,0.0,0.0,0.0,0.0,0.0,0.0,0.0,0.0,0.0,0.0,0.0,0.0,0.0,0.0,0.0,0.0,0.0,0.51171875,0.98828125,0.890625,0.6328125,0.1796875,0.37890625,0.609375,0.140625,0.90234375,0.98828125,0.4765625,0.0,0.0,0.0,0.0,0.0,0.0,0.0,0.0,0.0,0.0,0.0,0.0,0.0,0.0,0.0,0.0,0.0,0.05078125,0.70703125,0.9765625,0.98828125,0.97265625,0.81640625,0.14453125,0.4765625,0.98828125,0.6640625,0.02734375,0.0,0.0,0.0,0.0,0.0,0.0,0.0,0.0,0.0,0.0,0.0,0.0,0.0,0.0,0.0,0.0,0.0,0.0,0.0,0.390625,0.76953125,0.98828125,0.98828125,0.98828125,0.9921875,0.8828125,0.13671875,0.0,0.0,0.0,0.0,0.0,0.0,0.0,0.0,0.0,0.0,0.0,0.0,0.0,0.0,0.0,0.0,0.0,0.0,0.0,0.0,0.0,0.03515625,0.5625,0.89453125,0.98828125,0.9921875,0.71484375,0.0,0.0,0.0,0.0,0.0,0.0,0.0,0.0,0.0,0.0,0.0,0.0,0.0,0.0,0.0,0.0,0.0,0.0,0.0,0.0,0.0,0.0,0.0,0.0,0.6015625,0.9921875,0.99609375,0.9921875,0.6328125,0.0,0.0,0.0,0.0,0.0,0.0,0.0,0.0,0.0,0.0,0.0,0.0,0.0,0.0,0.0,0.0,0.0,0.0,0.0,0.0,0.0,0.0,0.2578125,0.88671875,0.98828125,0.703125,0.77734375,0.98046875,0.51953125,0.0,0.0,0.0,0.0,0.0,0.0,0.0,0.0,0.0,0.0,0.0,0.0,0.0,0.0,0.0,0.0,0.0,0.0,0.0,0.0,0.0,0.4140625,0.98828125,0.66796875,0.0234375,0.01953125,0.3515625,0.8671875,0.64453125,0.0,0.0,0.0,0.0,0.0,0.0,0.0,0.0,0.0,0.0,0.0,0.0,0.0,0.0,0.0,0.0,0.0,0.0,0.0,0.0,0.71484375,0.98046875,0.27734375,0.0,0.0,0.0,0.48046875,0.96875,0.22265625,0.0,0.0,0.0,0.0,0.0,0.0,0.0,0.0,0.0,0.0,0.0,0.0,0.0,0.0,0.0,0.0,0.0,0.0,0.08984375,0.95703125,0.65625,0.0,0.0,0.0,0.0,0.1015625,0.859375,0.8046875,0.0,0.0,0.0,0.0,0.0,0.0,0.0,0.0,0.0,0.0,0.0,0.0,0.0,0.0,0.0,0.0,0.0,0.0,0.10546875,0.98828125,0.77734375,0.0,0.0,0.0,0.0,0.0,0.46875,0.96484375,0.2890625,0.0,0.0,0.0,0.0,0.0,0.0,0.0,0.0,0.0,0.0,0.0,0.0,0.0,0.0,0.0,0.0,0.0,0.05859375,0.8828125,0.96875,0.2109375,0.0,0.0,0.0,0.0,0.36328125,0.98828125,0.203125,0.0,0.0,0.0,0.0,0.0,0.0,0.0,0.0,0.0,0.0,0.0,0.0,0.0,0.0,0.0,0.0,0.0,0.0,0.609375,0.98828125,0.98828125,0.52734375,0.29296875,0.4140625,0.484375,0.95703125,0.8828125,0.05078125,0.0,0.0,0.0,0.0,0.0,0.0,0.0,0.0,0.0,0.0,0.0,0.0,0.0,0.0,0.0,0.0,0.0,0.0,0.28125,0.96484375,0.98828125,0.9921875,0.98828125,0.98828125,0.98828125,0.98828125,0.70703125,0.0,0.0,0.0,0.0,0.0,0.0,0.0,0.0,0.0,0.0,0.0,0.0,0.0,0.0,0.0,0.0,0.0,0.0,0.0,0.0,0.25,0.76171875,0.9921875,0.98828125,0.98828125,0.91796875,0.47265625,0.0546875,0.0,0.0,0.0,0.0,0.0,0.0,0.0,0.0,0.0,0.0,0.0,0.0,0.0,0.0,0.0,0.0,0.0,0.0,0.0,0.0,0.0,0.0,0.0,0.0,0.0,0.0,0.0,0.0,0.0,0.0,0.0,0.0,0.0,0.0,0.0,0.0,0.0,0.0,0.0,0.0,0.0,0.0,0.0,0.0,0.0,0.0,0.0,0.0,0.0,0.0,0.0,0.0,0.0,0.0,0.0,0.0,0.0,0.0,0.0,0.0,0.0,0.0,0.0,0.0,0.0,0.0,0.0,0.0,0.0,0.0,0.0,0.0,0.0,0.0,0.0,0.0,0.0,0.0,0.0,0.0,0.0,0.0,0.0,0.0,0.0,0.0,0.0,0.0,0.0,0.0,0.0]},"activation_layers":[{"neurons":[{"activation":1.0,"weights":[-0.65360165,-0.92213047,-0.40504313,0.5158491,-0.033201456,0.26231492,0.43422806,0.7393007,-0.13170493,0.49203658,0.47069132,0.17708325,-0.5973264,-0.76152587,0.0521127,-0.19209433,-0.55528736,0.4318658,0.51693463,-0.77189827,0.28025436,-0.5346277,0.4708388,0.1714549,-0.93482184,0.84278536,-0.2587322,0.53172743,0.7058567,-0.24779594,0.5704533,-0.53261924,-0.4138546,0.49936676,-0.38395247,-0.28014007,0.8478748,-0.17545861,-0.00940846,-0.15996319,-0.35442656,0.36858094,0.13674077,-1.0526406,-0.56818837,0.06383942,0.8158599,-0.0062121092,0.9557357,-0.6294697,-0.599482,-0.35505617,-0.7916137,-0.48367667,0.9252026,-0.6276834,-0.44590616,-0.47445822,-0.095808744,0.16255736,0.46508121,0.6155078,0.8966059,-0.8202736,0.48538494,0.868998,-0.70764,0.3690491,0.2293291,-0.15600027,-1.1396145,-0.64948314,-1.1222724,0.21110347,-0.07515587,1.0309677,-0.17435107,-0.70712566,-0.9668621,-0.98733824,-0.91606873,0.7881074,-0.8788469,0.9457108,0.09474969,0.94773793,0.36542118,0.4147683,-0.6811569,0.60801876,0.41375402,0.16462296,0.5484385,-0.877495,0.0074671996,0.42146146,-1.0326514,-0.7461834,0.12474553,-0.093184,-1.3790159,-1.4585989,-1.2951169,-1.1159272,0.45836607,0.0062864725,-0.65806645,0.8321673,0.974664,0.60086685,-0.32502306,-0.51409805,0.13252234,0.769648,-0.65293914,0.5614182,-0.59297866,0.040298413,0.833745,-0.6136857,-0.15510912,0.27825338,-0.23656738,-1.1023015,-0.18047652,-1.5859959,-0.70489377,-1.225017,-1.4121422,-0.5526393,0.4739275,-0.99982804,-0.38294467,-0.1321387,-0.5795452,-0.67306226,0.41192707,-0.6500636,-0.8277271,-0.24331415,0.18700755,0.2600546,0.43321535,-0.1968931,-0.6422379,-0.03150609,-0.2953566,-0.105563775,-0.24231255,-0.7446406,1.0545233,0.32308134,0.8942317,0.03701823,0.6650987,0.19173478,-0.19646837,1.1008818,0.43469012,1.3774754,-0.65028733,0.49052796,-0.9538608,-0.043668285,-0.59324527,0.74775225,-0.39110154,-0.63800794,-0.7719734,0.5465114,-0.70599717,0.87683344,-0.51387256,-0.78517574,-0.7653257,0.2698673,0.11338171,0.23990439,0.7435438,0.7366761,-0.18794937,0.5048585,-0.024307422,0.6637293,0.71853304,0.7043428,0.8176376,0.21396816,1.006731,0.33702108,0.76639724,1.1054087,0.5736676,-0.79973066,0.6183157,0.35527515,0.80113524,0.7028295,0.86001134,0.7107482,0.86963975,0.76551396,-0.14640817,0.94362116,0.25711578,0.019373031,1.0964355,1.2655009,1.3790252,0.84488434,1.273349,1.9842972,1.3727148,2.2698112,1.993897,0.6243819,1.5890313,-0.19916739,0.26616934,0.019337732,-0.58185804,-0.31716928,0.2586449,-0.49380714,-0.5763812,-0.2377185,-0.4314154,0.9411848,0.003127421,-0.028091736,0.13369465,0.8278545,0.7682201,-0.09980215,0.07283316,1.4419625,1.014891,0.6265397,0.38904986,2.857705,2.2963438,2.658589,1.5241562,0.93026155,0.9518831,1.00621,1.0159882,0.77204216,0.3338289,-0.33326256,0.085394025,0.12002986,-0.2422828,0.61837494,0.9287459,0.93395513,-0.40023908,0.6911719,-0.47753492,0.50308233,-0.6567898,0.9379445,0.22105293,0.6095986,0.55945134,0.95690733,1.7076321,1.124493,2.1793616,1.9108945,1.4360018,1.0931181,0.9192012,1.1374528,0.31799465,0.51517713,-0.66685724,-0.6371962,-0.0012535898,-0.6475321,-0.31523967,0.9415194,-0.30768964,0.80499774,0.38204992,-0.22951558,0.0011289419,0.31842223,-0.27022344,0.28892687,1.3885733,-0.5345791,0.6254522,-0.25344226,1.9603952,1.5897825,1.7794123,2.3336878,1.397688,1.83437,-0.186957,0.09790986,1.271141,0.10796477,1.1122721,0.7876072,-0.41504845,0.72342896,0.45251557,-0.36744258,-0.27814272,-0.54810786,0.7627621,-0.66373116,0.57685983,-0.5790108,0.085998766,1.2116673,0.11396421,-0.9596963,0.41066885,0.526217,0.7936793,1.8354934,1.5281947,-0.40626824,-0.19062243,-0.2160872,0.96428734,-0.42721257,0.7101431,-0.34496167,0.3365243,0.3390769,-0.6110592,-0.07751317,-0.98864055,0.59163743,-0.24057774,0.7225694,-0.08176233,-0.093223095,0.31633025,-0.6431774,0.020365732,-0.71091664,0.2263615,-0.75340134,0.31604043,1.0970776,1.4763137,0.8751072,-0.10906331,-1.7493826,0.28337848,-0.99112207,-0.60242975,-0.45530385,0.68815595,-1.0007054,0.7486953,0.7615102,-0.51948047,0.19156562,0.5123788,0.5400606,-0.024187472,0.8076462,-0.6944861,0.7661944,0.40283552,-0.45182863,-0.24646619,-0.80480516,-0.9137006,1.0076772,0.9754651,0.65211314,0.31555477,-1.219569,-1.5639123,-0.86664325,0.11887533,-1.1379037,-1.1597954,-0.4361194,-1.1247053,-0.04502297,-0.76524633,-0.4416285,0.7212773,0.3796509,-0.91653997,0.7818818,-0.1534025,0.7166827,-0.10506465,0.24952005,-0.64402825,-1.03368,-0.07030607,0.14968939,-0.952064,-0.26290682,-1.3318957,-0.87945235,-0.07655289,-0.3361833,-1.1102091,-0.37226695,-0.62431824,-1.0590886,-0.3089687,-0.675267,-0.8627224,-1.1680268,0.6193585,-0.16047621,-0.49062252,-0.042764783,-0.21843943,0.060953274,-0.123443075,1.0482017,-0.53957987,-0.4653563,-0.5236553,-0.9360554,-1.0082747,-1.6112199,-1.4027088,-1.6551542,-0.11775094,-0.17932065,-1.1286327,-0.5915656,-0.32836318,-0.694569,-0.88041824,-0.23654509,-0.006512592,0.052912373,-0.3266012,0.24653086,0.55864847,0.42916325,-0.4717758,0.29483512,-0.3427359,0.8605689,0.55466294,0.12417324,-1.0090971,-0.18939126,-1.1375668,-0.4202854,-0.76852304,-1.7548404,-1.8190897,-1.2197953,-1.0895023,-0.74259573,-1.7771493,0.3597156,-0.07462074,0.37736326,-0.46999595,-0.65136,-0.90650374,-0.9544452,0.311144,-0.53953326,-0.14232035,0.5931377,0.6685374,-0.8513523,0.7176392,0.08957832,0.5284222,0.57318884,-0.5505478,-0.8104919,0.12552497,0.1949633,-0.59332895,-1.9152714,-0.09702662,-1.3287649,-0.78258806,0.96796227,-1.275192,-1.0565813,0.6017809,-0.6772692,-0.5499703,-0.14684923,-0.9732248,0.28245863,-1.3397441,-0.8590355,-0.55621725,0.36462036,-0.99328834,-0.45006758,-0.39752156,-0.8753873,-0.21329114,0.07834276,0.10837634,-0.21163702,0.6861091,0.58063143,-0.8018638,-0.8660444,-0.57632864,-1.2150644,-0.01700912,0.9101113,0.11272933,-0.18331534,0.46000072,-0.45698565,-0.53594905,-0.92955697,-0.6725624,-1.7610778,0.45977262,-0.8370309,-0.096751235,0.62984014,0.552365,-0.34350187,-0.13578796,0.9171428,-0.8442831,-0.47032484,-0.22841491,1.0037895,0.034921736,0.88828325,-0.81555885,-0.47345206,-0.6623003,-0.9411707,0.41343096,-0.42879418,-0.99816275,0.4219491,-0.3647063,0.082129575,-0.96437484,-1.2027622,-0.76068676,-0.2601743,0.8843423,-0.96774477,0.75201374,-0.46396324,-0.12693001,-0.50324374,-0.70707655,0.0085491575,-0.6997972,-0.36790878,0.81078136,-0.07641628,-0.45731467,1.1290263,-0.75955015,-0.83762956,-0.023330748,-0.2962533,-0.18703762,0.19012547,-0.54306245,0.1797855,-0.32465792,0.096502535,-0.25002372,0.48354167,0.07923273,-0.45602793,1.254032,-0.6068174,0.9991597,-0.68116164,0.23149648,0.7178006,-0.9000852,-0.6073216,-0.5648892,0.6942674,0.40172622,0.9672535,-0.420085,0.105310924,1.4095525,1.4529688,0.14120556,0.84993917,0.03441283,-0.55259645,0.08585234,-0.1909108,0.56636876,-0.14392018,1.122372,1.2194015,-0.1420289,-0.43072918,0.32086003,-0.34601006,-0.75583434,0.89284354,0.8636824,-0.5135142,-0.46740294,0.7457589,-0.33317536,0.02749432,-0.7566577,0.29242742,0.39109096,0.6640211,0.52392423,0.4061974,0.6359223,1.3336971,0.8444841,1.1694595,0.21506888,-0.16543297,0.8360962,1.1549503,1.0157958,0.046591505,-0.53559464,0.7645571,-0.13501492,0.20852931,-0.9252787,-0.93328404,-0.22057974,-0.12817094,-0.8487263,-0.6347109,0.39922625,-0.90919757,-0.43543002,0.963777,0.9541324,0.323064,1.1360981,0.63312227,1.550087,1.2095524,2.101498,1.6828839,0.46901935,1.0676829,1.7429506,0.73284364,0.5121531,-0.11406816,1.1504033,0.64452004,-0.6883662,-0.014325851,-0.8326005,0.7416652,-0.7422925,-0.5107639,0.6310066,-0.91392565,-0.8318246,-0.14979176,0.33531195,-0.8522919,-0.0850054,0.5755354,1.2122889,0.98399013,0.8851192,-0.06689536,0.20939687,2.0185225,0.50521183,-0.0036645576,1.0985984,0.3016041,0.32750127,1.0640656,0.99952364,0.23645978,-0.08759023,0.02050323,-0.82758594,-0.60077775,-0.66871744,-0.3341627,-0.035170794,0.2980498,-0.8986522,-0.9253054,0.23040198,-0.7140277,-0.9329169,0.474403,0.83451915,0.77248955,-0.16741486,-0.54565597,1.0872401,0.21502812,0.009526361,0.046197504,0.33922794,-0.31175402,0.35973388,0.572107,-0.1532036,-0.2206932,0.43179294,0.6147222,-0.10540057,-0.099954516,-0.93145293,-0.60469353,-0.6340083,0.7477759,-0.9810518,0.45331943,-0.5473727,-0.78883505,-0.2689174,0.3506199,-0.5809292,-0.10211556,0.22528815,-0.80311096,-0.17531711,-0.06366711,-0.38150686,-0.5209287,0.7154383,0.32211357,0.98665917,0.27379015,-0.004766397,-0.8044516,0.84941185,0.44345552,-0.9315103,-0.80994296,-0.61929953,0.6090032,-0.3467915,-0.22817326,-0.8961606,-0.6348674,0.54566455,0.8233123,0.24123965,-0.80314267,-0.27712336,-0.83180946,-0.3416056,-0.28115574,-0.28078923,-0.59230065,-0.4719682,-0.1807782,-0.7282668,0.71062905,-0.026264539,0.80371714,-0.1239796,-0.85342234,0.08616954,-0.7145209,-0.552107,-0.22882378,-0.56200933,-0.8504211],"bias":2.0458684},{"activation":1.0,"weights":[0.30412126,0.44791615,-0.32387662,0.2063433,0.79168975,-0.70335555,-0.84656394,0.23477864,0.29673946,-0.45889616,-0.73194396,0.7352997,-0.87768435,0.21914184,0.7125075,0.74435866,-0.68193936,-0.86206794,-0.30123854,0.25513947,0.8910272,-0.48137438,-0.2677989,0.6711172,0.41947615,-0.5873091,0.7516695,0.114162445,0.6028471,0.74115074,0.5006881,-0.77373624,0.6610156,0.30795622,-0.802196,0.7153319,-0.099660434,0.75191724,-0.011182132,-0.80500865,0.086206846,0.20816387,0.53469884,-0.8151851,0.18618692,-0.6361209,-0.3438887,0.7183607,-0.079207204,-0.123869546,0.16604745,-0.52147734,0.26846707,-0.50960064,-0.4595697,-0.21079814,-0.29626322,0.9324759,0.10175145,-0.91007316,0.31776726,0.78796196,0.648309,0.74498683,0.39152747,-0.39415696,-0.351745,-0.8562422,0.45456707,0.16480152,-0.20536864,-0.29296267,-0.51315564,0.48159644,0.624802,0.73022425,-0.85313666,0.98056084,-0.7449628,0.9207315,0.32271686,-0.870016,0.8717463,-0.7756866,-0.26923501,-0.8157337,-0.24871361,-0.8705635,0.44327655,0.96255755,-0.69304514,-0.72058636,-0.8648209,-0.78831285,0.11545342,-0.83518946,0.84427696,0.53310144,-0.9020217,-0.27378267,0.38147172,0.809795,-0.4728015,-0.24668674,-0.52997094,-0.16219224,0.6324736,0.8323495,-0.4464075,0.78064585,-0.26383066,-0.2568078,-0.850453,0.9195359,0.8277874,-0.43391478,0.81988126,-0.54321134,0.7081906,0.47363737,0.33845058,-0.13263209,0.9491192,-0.30337912,0.10317348,-0.50421107,0.3725326,-0.5401264,0.9573585,0.5435575,0.26307282,-0.8900484,0.016778357,-0.16330662,0.9832799,0.5910883,0.6533936,0.6484746,0.6136515,0.7092408,-0.6946467,0.9167328,0.06069641,-0.4843202,-0.29179174,0.50912887,-0.49691984,-0.4305351,0.40713486,0.84090364,0.30402014,0.34425724,-0.12625363,-0.23022246,-0.91029596,0.2508819,0.3734579,0.8649509,0.61119646,0.6862341,0.7643665,-0.21567337,0.8813906,-0.021425625,0.20242108,-0.25983614,-0.70074415,-0.33787984,0.0765115,0.34963,0.96008146,-0.8230883,-0.7649376,0.26170292,-0.6352936,0.031316593,-0.47300446,-0.3978119,0.86306447,-0.19258405,-0.09156196,0.626071,0.39052603,0.29382473,0.672323,0.5927639,0.38668904,0.08454078,0.22699137,0.22403166,-0.94340414,0.7482294,-0.16883692,-0.85946935,-0.37468264,0.4776366,-0.95007735,-0.30752662,0.033779856,-0.28413108,-0.71754545,-0.1355322,-0.22587173,-0.14881814,-0.4058476,0.1952344,0.7766648,-0.17515638,-0.18112305,-0.48004955,0.7698395,0.92182195,-0.55174357,0.1592504,-0.07693081,-0.58059865,-0.62328166,-0.39997378,0.053445317,-0.22649497,0.2353475,-0.89086473,-0.046055976,0.11555098,0.43779415,-0.36861017,-0.5306455,-0.7713114,-0.3739648,0.9559529,0.13850984,-0.35759303,0.3868078,0.76871616,0.6651497,-0.74941665,-0.5242581,-0.34961173,-0.3191156,0.81259793,0.77227193,0.14323016,0.98541486,0.7794857,-0.7690029,0.21588577,0.17852825,0.4690138,0.56066793,-0.9667294,0.49495506,-0.4307185,-0.76157266,0.12705329,0.18436843,-0.8822882,-0.0012009678,0.7333707,-0.53309333,0.5235658,-0.8934525,-0.011650962,0.5288996,0.9878825,-0.020457381,0.4382304,0.4235189,0.6844676,-0.31741226,-0.331741,1.1184442,-0.62958944,0.8339723,-0.6234457,-0.6171508,-0.8785622,-0.94320023,-0.8849441,0.09796431,0.34774104,0.6631133,-0.45865816,-0.84272754,-0.83229786,0.8121566,-0.40808052,0.83577275,-0.83514,0.3069778,0.6579349,-0.2530424,-0.065133624,0.31743756,0.22904958,0.63629276,0.32488853,0.22477911,-0.11777637,-0.5780756,-0.45098385,1.0243163,-0.012953287,-0.7683213,0.6457972,-0.39190695,-0.8578623,0.823563,0.68712527,-0.30401683,0.61219674,0.7637437,-0.25967738,-0.65092045,0.7309081,0.9578357,-0.59992236,0.44590837,0.38387135,0.7733119,-0.882468,0.8010318,-0.56652075,0.348473,0.19034407,-0.8976056,1.1404837,1.0026339,0.10382597,0.24859674,1.085089,0.24715215,0.49911913,0.5697006,-0.36104438,0.18298885,0.64616656,0.54502356,-0.6981719,0.8786642,0.27295986,-0.24429838,0.118410096,-0.41372484,0.15267989,0.32324275,-0.2919134,0.4827886,-0.13707054,0.4405911,-0.18152362,0.20572603,-0.18399431,-0.39944607,-0.023208832,1.0700264,0.7801253,0.16019697,-0.7585757,-0.18186554,0.83967406,-0.39681688,0.9578255,0.51254267,0.46092275,0.45304096,0.3826776,0.3808347,0.85317767,0.3340262,0.9751532,1.0652531,0.0871698,0.22618553,0.8417616,-0.5093994,0.95964795,0.086230844,0.9537031,-0.08378173,0.93307525,0.521065,0.8156193,-0.41232944,0.047103707,-0.26857105,1.0938971,0.49269265,-0.17471643,0.32315576,0.82898265,-0.5857558,0.13780701,-0.8767031,-0.10629587,0.07538283,0.5751881,0.49025053,0.1805889,-0.16124474,0.22018145,-0.7111377,0.88722754,-0.33337054,0.538682,-0.017719874,0.45594245,0.47985777,0.9031654,-1.0262709,0.014010665,0.3668761,0.674844,0.009842892,-0.56060576,0.6588712,1.0870697,-0.29323274,0.9948513,-0.44357586,0.27618906,-0.48693463,-0.94576573,0.7076336,-0.42944896,-0.7500175,0.7746376,1.1720011,0.33621097,0.14988406,0.96066535,-0.18290213,1.0130616,0.15718956,0.37354708,0.050063606,0.0062171277,0.6287089,1.083709,0.62060577,-0.7435078,0.92512596,-0.9005713,-0.74075234,-0.44209206,0.46459466,0.95141244,0.19249989,-0.36552757,-0.51392823,-0.8738229,-0.1056633,0.40369838,0.67450166,0.6707253,0.0287302,-0.21598119,-0.37805837,-0.05317753,0.110935524,-0.6407659,-0.03346896,-0.13112256,0.8702502,0.8994483,-0.66641456,0.5626972,0.19833513,0.7034113,0.76091325,0.21850769,0.25735363,0.06806059,0.0069007357,0.83447754,-0.7429552,0.3232402,-0.90957046,-0.13623226,0.017855486,0.51385653,0.6293624,0.15819675,0.30433905,0.043740008,-0.54966146,-0.6982684,0.23114681,0.6100216,0.9800425,0.6517696,-0.41304377,0.4833498,-0.60813516,-0.46963072,-0.4655586,0.6005108,-0.4154193,0.008598808,0.16429815,-0.73819244,-0.38364112,0.23038033,0.10311868,0.31159705,0.8725194,0.32864964,0.9235581,-0.06717208,-0.10977887,-0.7522354,-0.5415537,-0.11372037,0.27394548,1.1271412,0.42973387,0.17490825,0.019810768,0.5437538,0.36524907,0.25473982,0.27598113,-0.27824682,1.0651314,0.62049127,0.83653855,-0.5424321,-0.091206565,0.70405704,-0.34537956,0.60021967,0.58538246,-0.44495043,0.18930411,-0.23125736,0.82723576,0.4837182,-0.52300555,-0.540479,0.68319225,0.7151711,0.33026606,0.16034192,1.0297997,-0.33913407,-0.5508189,0.86343503,1.0565935,0.6448711,1.137166,0.11075108,0.103840254,-0.08675336,1.005341,0.44324797,0.38715416,-0.48792553,1.0885916,-0.34542033,0.26699868,-0.80405796,0.42191923,-0.29052097,-0.43894303,0.25045916,1.0387763,-0.67882276,0.47763294,-0.08305968,-0.17263551,0.42594802,0.9210788,0.8986667,0.36123523,0.3789845,-0.6082571,-0.47735918,0.034389324,0.23400024,-0.21219759,-0.7022133,-0.33075354,0.22875421,0.53365636,0.7453492,-0.1354997,-0.93961805,0.2582251,0.18161313,0.8723595,-0.70993066,-0.59286916,-0.45409122,-0.018871827,0.22504841,-0.68412507,0.93760407,0.81271213,-0.0013577027,-0.45325932,0.95742655,-0.27718118,0.57208884,0.226297,-0.3572545,-0.35658967,0.12474906,-0.7454153,0.60030967,0.6357303,0.69429255,0.8735499,0.7124366,-0.76180923,-0.3023054,-0.5025412,0.6163248,-0.44895828,-0.5202951,-0.6601479,0.9006692,-0.21990006,0.85181093,0.7589505,0.22325096,0.5790295,0.4870004,0.09808928,0.7464803,-0.7868768,0.6810732,0.7195564,0.49260795,0.32821757,-0.4703022,0.9941139,0.99497235,-0.4638211,-0.5886708,-0.17777066,0.34511203,-0.22979937,0.6434837,0.3813846,0.79606974,0.2574582,-0.22417367,0.62976736,0.38951436,0.7267745,0.7291523,-0.6145287,-0.8502312,0.082688875,-0.6006863,-0.09119636,0.5648073,0.26169458,-0.26590323,-0.517079,0.050261732,0.77302516,0.15272267,-0.45967376,0.230194,-0.6921588,-0.6833582,0.24680136,-0.048527215,0.15818867,-0.9623627,0.67849827,-0.5624654,0.5708494,-0.3734082,-0.9902603,-0.5118182,-0.6816828,-0.76688504,0.99175936,-0.86300087,-0.15063936,0.2627159,-0.20121811,-0.84393096,0.070283845,0.35332975,0.0055071013,-0.71243465,-0.11999039,0.92882115,0.11000298,0.83838207,-0.4618029,0.63075775,-0.42069313,0.5900559,0.72409713,-0.4138726,-0.46664357,0.5746678,-0.12722242,0.31323123,-0.91984034,-0.73972154,0.9351858,0.5365093,-0.8701166,0.19084755,-0.12293778,0.24293616,0.008202088,0.6687856,-0.18736008,0.6229768,0.2512189,0.8626365,0.24785827,0.5373938,-0.648435,-0.5721528,0.3580445,-0.45525616,-0.5395048,0.8179615,0.9832105,0.9956564,-0.8452947,0.8256588,0.89813864,-0.4646896,-0.42349494,0.9370254,-0.066465795,-0.42555133,0.5722272,0.48720038,0.8490428,0.55828226,0.87619203,0.39104635,-0.91578025,0.43792993,0.30812436,0.48088667,0.22106905,0.9485511,0.5211881,-0.96023864,0.35669535,-0.7143389,0.02107116,0.1731241,-0.99482274,0.5146395,0.8377228,0.021581888,0.36982763,-0.3550881,0.18477571,-0.7116374,-0.5223925,-0.078759104,0.01840449,0.40740278,0.6745436,0.69800526,0.88724536,-0.45038402,-0.17640118,-0.030493245,-0.69139594,0.42105225,0.48041654,0.9795522,0.0399588,0.8150063,0.35953534,-0.7612104,-0.7567227,0.15962419,-0.6374264,-0.24964917,-0.44951952,-0.5472951],"bias":1.1858239},{"activation":9.107978e-18,"weights":[-0.42836547,0.33817494,0.9509089,-0.47433674,0.7747015,0.41647744,-0.990034,-0.98481286,0.2619325,0.041104555,-0.003087759,-0.90487385,-0.24089898,0.8106515,-0.13307238,-0.3187213,0.104044795,0.45549846,0.9836035,0.24444687,0.15525985,0.65109694,0.29613507,-0.6812295,0.3644923,0.984923,-0.6274103,0.5860497,0.28701794,-0.40224218,0.56640697,0.58083594,-0.4128729,0.4936833,0.4454382,-1.01695,0.89403915,-0.24584456,-0.70368487,0.063204184,-0.77860177,-0.7577185,0.097419545,-0.43417418,0.23124892,0.7629025,-0.92023253,0.81577694,0.87625825,-0.7961307,-0.05144457,-0.5478838,-0.7147136,-0.15365994,0.8885813,0.42387664,0.720332,-0.41921806,0.8155931,-0.7556566,-0.7670814,0.12770279,0.028084015,-0.20290026,-0.69807625,-1.0607101,-0.3205391,0.092379026,-0.21547535,-0.44486168,-0.87738323,0.15044981,0.5022179,0.77494246,-0.7031957,0.25676146,-0.67106754,0.83495575,0.30836016,0.15199842,-0.6678702,-0.6359377,0.94246995,0.022680044,-0.9012512,0.7546762,0.7631868,-0.21027422,-0.18009593,0.5868338,0.56945556,0.44577575,0.02277857,0.79406947,-0.3391313,0.49591777,-1.1628228,-1.3366793,-1.1235994,-1.2977153,0.16671255,-1.2868307,0.024197245,0.8254242,-0.16042134,-1.2433896,0.8551847,-0.48305902,0.7862001,0.8488718,0.6111162,-0.16616619,-0.13604152,0.021118402,0.9556196,-0.7693939,0.50958,-0.67181116,0.524901,-0.40127704,-0.8266986,0.44823363,-0.05239889,-0.18483466,0.20131736,0.27767056,-0.6223979,-0.39787698,0.31905922,-0.0239206,-1.150701,-0.17621583,-1.242248,-0.038952522,-0.9773599,-0.6708539,-0.3051459,0.30825156,0.44822183,-0.92224574,-0.0036484003,0.95853436,-0.78228945,0.575191,1.0496999,0.56551945,0.3191594,0.7400847,0.4302606,0.48948967,-1.7190167,-0.339853,-0.53171676,-1.7726836,-1.0947683,-1.6221201,-1.6101421,0.11995988,0.4013935,-0.22421971,-1.5891502,-1.3660595,-0.06217071,-0.25578618,1.1385767,0.5451382,0.9032979,-0.0066923047,0.786273,0.29820764,0.8270941,-0.35609356,-0.32863212,-0.9478664,-0.49269256,-0.08667195,-0.9794198,-1.1748935,-0.5799361,-0.4869895,-1.2354513,-0.33712953,-0.96930736,-1.1603141,-0.3720485,-0.71519625,-1.2360365,-1.6051589,-0.61385155,-0.37778017,-0.8423083,-0.2977425,0.6347426,-0.0215939,0.78101075,-0.093152486,0.18346056,-0.71700066,0.14441727,-0.73730433,-0.77313733,0.17230366,0.19893849,-1.037547,-0.9073593,0.46519133,-0.1113373,-0.95257276,-1.1483613,-0.54266304,-1.7483021,-1.3339207,-1.068245,-0.8077559,-0.56349313,-0.99596906,-2.0671318,-0.042603374,-1.1820487,-0.23456258,-0.89599305,0.75496477,-0.043681234,-0.97117364,-0.05683981,-0.82089007,-0.019991098,0.27880597,-0.05995084,-0.7141622,-0.65274817,-1.205132,0.91421926,0.18203384,-0.12944968,0.2740082,-1.6624095,-0.3925832,0.17769046,0.078229494,-0.41478458,-0.54583234,0.47178334,-0.7165495,-0.3670592,-0.11231346,-0.57115257,0.6191565,-0.9194023,0.316979,-0.7362457,0.9681077,-0.9677605,0.66808075,0.1470386,0.509524,0.9800941,0.7447771,1.0572423,0.5919491,0.45900527,0.6950564,0.40029016,-0.18903627,0.6467429,0.49841958,-0.33133933,-0.29458627,-0.3748977,-0.063688934,-0.53512746,-1.0874059,-0.060893632,-1.5127037,-0.5822694,-0.5786455,-0.15728332,-0.14585023,-0.39727747,-0.5195822,0.29802677,-0.74783254,0.3506071,-0.10754343,-0.5944317,0.6851176,0.753655,0.616205,0.33041218,-1.2671385,-1.1287674,-0.10064343,-0.68625015,-0.90367764,-1.4657212,-0.67771345,0.3687096,0.64206535,0.19281633,1.1445266,-0.751369,-1.2492977,0.8058162,0.44544467,-0.15494424,0.08786528,0.30300486,-0.5026556,0.44115767,0.15187696,0.95008963,-0.60358906,0.19291571,0.4945305,-0.04086669,-0.41852576,-0.78652567,0.09839258,-0.8737282,-0.14320979,0.06704182,-1.0057212,-0.54512334,0.23761865,0.42606002,0.6719567,-0.5092557,-0.340424,0.39646977,-0.6723483,0.87829065,0.93503165,0.052148655,-0.09226121,0.47395864,-0.6199281,-0.23505306,0.20962267,-0.7771209,0.90710634,0.6908224,1.0040605,1.01626,0.0077518853,-0.8203858,0.14686576,-0.13598268,-0.1630395,0.48724845,-1.2849919,-1.1133208,-0.7006598,1.0105358,0.6406337,0.35406986,-0.4861871,-0.6642948,-0.6973409,-0.8109803,-0.02125495,-0.20661901,-0.35616812,0.6572656,0.45488596,-0.59580874,-0.74516064,0.10360738,-0.38309786,-0.07094249,0.9995322,-0.70362824,0.120464906,-0.13791664,-1.3679583,-1.4049941,0.6564578,0.08445132,0.111004375,-1.5467598,-0.008372976,0.4742614,1.4310888,-1.2059773,-0.42365733,0.9098571,-1.2714032,0.3365737,-0.27863985,-0.2764325,0.19980761,-0.93972945,0.36319384,0.949137,0.15214413,-0.03341728,0.80346316,-0.30417168,0.1368626,-0.11407734,-0.5059286,0.4939892,-0.7817104,-0.63696635,1.2752482,-0.15284784,-0.41490588,-1.0486071,-0.44100884,0.49215856,-0.3122626,-0.30725238,0.2944162,-0.7454361,-0.6273218,-0.062585674,-0.05387645,0.42442858,-0.8499329,-0.10772846,0.11620187,-0.64669394,0.32988882,-0.7209898,-0.33772123,-0.62957346,0.7461769,0.89567417,1.0163347,0.018096691,-0.23415619,-1.6895311,-0.31102204,-0.15000181,-0.03392242,-0.09955971,0.45505598,0.886158,0.43255654,0.02647201,0.5237079,-0.9930538,-0.7001464,-1.6740994,-1.769821,0.48215476,0.49415526,-0.47487125,-0.7051197,-0.19543065,-0.4361783,-0.87927246,0.7263454,-1.3746169,-0.67266446,-0.26467693,0.5468219,0.81039214,-1.2198663,0.34095332,0.5289255,0.32877514,-0.9435835,-0.6512924,0.5556422,-0.3494618,0.45069292,0.9157496,-0.16266608,-2.1649156,-0.10827811,-0.8920664,-0.9387398,0.28919256,0.6923903,-0.44125494,0.50192463,-0.30088294,-0.86019593,-0.5291315,0.14750174,-0.06199287,-0.41549423,0.14678636,-0.97366077,-0.09786453,-1.6772217,-0.62726843,-0.4704274,0.56288326,-0.8017215,-1.4573127,-0.08054322,0.6292427,-0.5706355,-0.85997325,-1.2475432,-1.9838547,-1.159601,-0.31962094,-0.25509655,-0.5528725,0.4807634,-0.73625654,-0.9405097,-0.1246981,0.72147536,-0.19321503,-0.46867573,-1.5645236,-0.18499377,-1.3376373,-1.706109,-1.5852684,-1.0492122,-1.9222869,-2.4653854,-0.36820403,-0.07064255,-1.4658166,-0.7285099,-2.0252137,-0.55401963,-1.4690198,-1.7074963,-1.1942827,-1.8593844,-0.17983969,-0.06905513,-0.54399633,0.57009834,0.55721027,-0.7725725,-0.06873047,-0.28533673,-0.4123498,-0.28619966,-0.43613762,-1.0496951,-1.4739807,-0.8707256,-0.91240954,-2.4746382,-2.9430168,-1.4263759,-2.2250311,-0.8742664,-0.9852746,-1.74628,-2.3562934,-1.9525076,-1.8265392,-0.8858052,-1.0380746,-0.95978993,-0.7744488,-1.0675968,0.014190059,-0.34431678,0.2972408,0.97022307,-0.7337884,0.92945105,0.5669211,0.8638254,-1.4531727,-0.43780378,-1.4304676,-1.2946793,-1.342727,-2.0520866,-1.1677008,-1.8790995,-1.4729673,-0.1981252,-1.9725089,-0.7268444,-0.87320536,-1.1755084,-1.0432262,-0.80307305,-0.14061882,-1.2368373,0.2194675,-0.13312763,0.6326988,-0.33697453,-0.9949455,0.28287694,0.66997814,-0.7486267,-0.56920826,0.78561896,-0.8240646,0.19084087,-0.65738404,-0.81733996,-1.1824454,-1.6089108,-1.2368493,-1.520359,-1.218358,0.003589239,-0.44704422,-2.0333085,-1.3291428,0.023789821,-0.3665309,-0.72107655,-1.3976705,-0.3960932,-1.2457868,0.7524873,0.37859967,-0.36087275,0.9646174,0.72121227,-0.41609204,-0.38636923,0.40794724,0.57018703,-0.060305864,0.5751836,-1.2417679,-1.1699771,-0.33253187,-0.6054933,0.024657391,-0.25850785,-1.505274,-0.44101158,-0.60083544,-1.2070749,-0.6937665,-0.97436506,-0.14923064,0.25281677,0.10557283,-0.91222596,0.44559044,0.59972984,0.055617955,0.285778,0.3948107,-0.70032465,-0.50076604,0.80540955,0.86405826,0.39292717,-0.3119878,-0.96589106,-0.8746038,0.48718506,0.13784425,-0.8412958,-0.7754135,-0.7856393,-0.76436335,-1.763466,-0.5494375,-0.13213252,0.10021711,0.16898675,-0.06480633,-0.17582548,1.2181455,0.07295923,-0.6061356,0.61720026,0.13816783,0.25099078,0.443568,0.58483934,-0.431643,-0.8751278,0.7818314,-0.09764496,0.9326972,0.99427503,-0.6211267,-0.77514875,0.7627529,-0.09068069,-0.36661145,-0.9399839,-0.78732014,-0.17250691,0.14093752,0.013453194,-0.28235167,0.91137916,1.1861264,-0.07684193,0.1498589,-0.10005758,-0.7142849,0.67675084,0.7253925,-0.5318517,-0.86947465,0.62935925,-0.4586432,0.69347286,0.6260962,0.6304781,-0.6574992,-0.26923823,1.0470277,0.66781574,0.34090555,1.2197971,0.6774583,0.24774794,0.34240583,0.5182551,0.4278387,0.77475965,0.8702726,0.3965471,0.75217605,1.2378845,-0.75865906,1.004609,0.5430133,0.43251792,-0.44664913,-0.44784102,0.6744144,-0.47113895,-0.6807171,0.21456254,-0.017488718,-0.21341746,0.35381597,-0.29517853,-0.93884355,0.91129094,0.88693964,0.9373868,0.19219333,-0.62514186,-0.25165266,-0.22213374,-0.48085132,-0.4803491,0.3218213,-0.95320266,-0.18115427,-0.788679,0.8993364,-0.72740525,-0.90553737,0.8828576,0.5028579,0.8159131,-0.609771,0.8830391,-0.91787386,0.8455441,-0.49910676,0.54689956,0.05479324,0.894441,-0.5163223,0.8024101,-0.075456314,0.59610766,-0.5922141,-0.6924103,-0.7391641,0.49069354,-0.18736197,-0.8442572,0.7523758,-0.39870265,-0.5272714,0.17932042,0.9150186,-0.948459,-0.61075884,-0.47198316,-0.66067815,0.3546629,0.71010625,-0.95420194],"bias":-0.829415},{"activation":2.642416e-25,"weights":[-0.11261618,-0.46254575,-0.29592335,-0.74514186,0.031900525,0.5249716,-0.6374612,0.88455594,0.2153213,-0.76511776,0.19915187,0.7193812,-0.2042979,-0.7538053,-0.7418121,0.23622763,0.20490777,0.2496965,0.66636,-0.79300094,-0.5694885,-0.51382744,-0.8532299,0.5012646,0.006512761,0.1544044,0.71236336,0.36816525,0.08939004,-0.012885451,-0.05386579,0.345245,-0.45442724,-0.030506492,0.3339944,0.72972655,-0.67328435,-0.8302129,-0.15634611,-0.10830338,-0.97472036,0.28918347,0.9711136,0.073432386,0.735416,0.26725507,-0.8006397,0.17063555,0.028102413,-0.86683893,-0.168583,0.9866121,-0.32267034,-0.040711403,-0.6481708,0.6523613,-0.35688365,-0.44257855,0.7824155,-0.3202262,0.27979532,0.76566386,0.32704905,-0.45388034,0.109569356,0.69719493,0.9335896,-0.18804996,-0.4751892,-0.73725885,-0.42470884,0.8899295,0.39471683,-0.43772087,-0.97979975,0.8282771,-0.96368206,0.86688024,-0.45485735,-0.6560614,-0.66413367,-0.006446605,0.63963675,-0.6741018,-0.102522016,-0.35815656,0.09292687,0.6493719,-0.6492845,0.61227983,-0.5864289,-0.92953926,0.6455586,0.9326368,-0.028492536,0.36731178,0.33589715,0.42425868,-0.1921336,-0.15419853,-0.6402015,0.33525467,-0.3223336,0.18868506,0.5197073,-0.31541562,-0.900527,-0.08775945,0.043972462,0.44188598,-0.15481865,0.88414085,0.1856575,-0.9258044,0.9584779,-0.5474785,0.39268714,-0.6829488,-0.16561244,-0.029007286,-0.81425226,-0.2976061,0.1063003,-1.0345354,-0.054473456,-0.49736723,-0.6323396,0.13069645,-1.6856825,-1.1356086,-0.24522294,-0.24142537,0.8048187,-0.054635663,0.46214658,-0.37157142,0.559172,-0.5964649,-0.03431131,-0.9807415,0.48850107,-0.4109168,-0.7786785,-0.59107655,0.03527685,-0.6219796,-1.0506144,-0.8922222,0.15386218,-1.2207181,-0.11800202,-1.3589935,-0.74355596,-0.6198088,0.6237626,-0.55540574,0.1591349,0.6387741,0.61948425,0.5044496,1.6084338,-0.17884615,0.6986993,-0.039429262,0.14381386,0.91986084,-0.060686596,-0.8333797,0.74134076,-0.09749852,0.37635896,0.22642429,0.16349699,0.35857624,-0.4106937,-0.1720197,-1.4902112,-1.3687458,-1.0784452,-0.3192563,-0.851584,-0.36559382,-0.65187424,0.8973132,1.2250745,0.6599429,0.98663384,1.1803677,1.9010017,0.64727914,0.6863482,-0.09111294,-0.7386396,0.86403185,0.6611092,-0.12755778,-0.67224383,0.15157388,-0.96736115,-0.86423796,0.73945296,-0.42877033,-0.64535457,-0.5829065,-1.456058,0.23973209,-0.760558,-0.23520392,-0.16925019,-0.16557942,-0.25717133,0.864164,0.63837546,1.5680519,1.3439659,1.6335725,1.8065358,1.890729,-0.13994658,-0.42808217,0.5342863,-0.52451223,0.97372216,-0.8251313,0.26770335,0.47015673,0.014181188,0.24610947,-0.30081692,0.7071994,-1.023742,-0.85184115,-0.5966549,-0.7482748,0.08007381,-0.23005691,-1.0948063,0.32463893,0.3562017,0.9532319,1.1043552,1.6252662,1.7775806,2.3667345,1.9765927,1.1171124,1.4722334,0.34796277,0.77739817,0.30984715,-0.8576819,0.09082868,0.22512008,0.4464868,-0.24346991,-0.0813663,0.27537465,-0.72225636,0.57698184,-0.4289745,-1.4714736,-0.43927354,-0.07856419,-0.6309338,-0.1443943,0.083641045,1.0144904,2.3771853,1.5979904,1.5549408,0.4490383,0.71136177,1.2760015,1.591747,1.4673306,1.1552458,-0.5241498,0.11216034,0.91026205,0.009789048,0.45133317,-0.8166692,0.20741424,-0.9765613,0.6122522,0.5737534,0.49721804,-0.6646299,-1.0911167,1.2586039,-0.13770294,-0.66866255,0.83352697,0.5836701,0.123412706,-0.63560736,-0.25274432,-0.8475768,-0.35505897,-0.2858628,-0.22559159,0.47035095,0.29198453,0.29455957,0.39195383,-0.41979462,-0.307456,-0.6805575,-0.24356052,-0.29566902,-0.5713014,0.26016206,-0.86019844,-0.8698204,0.507767,0.8197158,0.9613851,0.27231094,0.02926872,0.3890054,0.5705588,-1.5409704,-2.2283158,-0.99758875,-2.151577,-1.5708759,-1.4582976,-1.0666511,-0.376952,-0.26308465,0.4052302,0.9913507,-0.43331853,0.730693,0.82330006,-0.8460122,0.4951924,0.7631184,-0.5239606,-0.20931233,0.49651414,-0.6388993,-1.0971674,-0.45915022,0.5117532,0.8748819,0.2170053,-0.047997657,-1.2544092,-1.1005701,-1.5729662,-2.7552066,-1.8441101,-2.8491502,-1.735552,-0.6422323,-0.19962294,-0.34859088,1.6719325,1.1573552,0.84172356,-0.13599038,0.6372746,-0.90085125,-0.7569766,0.9588497,0.07488792,-0.68836,0.65045583,-0.13387945,0.40665764,0.9913638,-0.8479725,1.5411228,0.0950485,-1.7941436,-1.4138142,-1.784511,-2.3735766,-2.1162765,-3.3617492,-2.9185374,-2.9027262,-2.6732504,-1.966569,0.9797412,1.4230491,0.9365594,1.4387379,-0.5398558,0.052896492,0.08694733,-0.9747795,-0.26451942,-0.807078,0.53167814,-0.38118762,-0.20165278,-0.6474577,0.26510468,0.036564738,1.4570721,-0.9057327,-1.7379454,-1.2967803,-1.6852984,-1.9738969,-1.8515694,-2.448624,-3.1417408,-1.9059665,-1.5090183,-0.8386394,0.043129068,1.9000754,0.7737585,0.12476674,0.4627551,0.17616144,0.09585762,0.15479457,0.4517701,-0.33450598,0.8732912,-0.40705055,-0.3523151,0.14304334,2.1556327,2.1942718,2.4671888,0.1816929,-1.8357244,-1.5053915,-1.303874,-1.5564703,-2.1968694,-2.2935457,-1.5121121,-1.1715955,-1.1895498,-0.79365367,-0.44226623,0.43804553,1.4150225,0.24207388,-0.51311177,0.7371845,0.13653563,0.25894117,-0.70563704,0.08115699,-0.1280692,-1.1729597,0.43820915,1.4171286,0.7611209,3.0446532,0.74613416,0.5626425,-0.47388262,-2.2923043,-3.4031122,-1.2067373,-2.4446237,-2.5591655,-1.2847096,-0.56789255,0.63101745,-0.27709538,0.25034603,1.4705476,0.6261741,0.7911247,0.6709584,-0.2778965,0.68148774,-0.82802045,-0.7532769,-0.87005365,-0.31254846,-1.1580473,1.0035853,1.8140264,0.017250063,1.5206369,1.1526394,-0.7078567,-0.51082146,-2.8917475,-2.642199,-1.9351302,-1.284612,-0.563728,-0.76160455,1.1074512,1.008057,0.091579944,0.19034374,0.3605868,0.4084403,0.34678227,0.45054254,-0.50760216,0.033769384,-0.433491,0.05805003,0.49401036,0.5777612,0.025550844,0.08093221,1.0757841,1.0253632,1.3080194,0.3745622,-0.9432591,-1.4223787,-1.9948422,-3.1767647,-1.5154206,0.012861635,-0.62088823,-0.2987398,1.2520508,1.4328847,1.0739841,-0.08080501,-1.2154754,-0.0012971037,0.77825236,-0.8614028,-0.35191932,-0.60355043,0.04125905,0.9271428,0.26467592,-0.94596654,0.9350169,1.1926787,1.3297375,0.92010164,0.4798054,0.7544399,-0.10882008,-0.18355787,-0.5600808,-0.6736814,-0.6327714,0.12422248,0.62991476,-0.55043226,0.13582416,0.25843716,-0.099737585,-1.0287192,-1.3337545,-0.7971118,0.36903396,0.4305821,0.70962584,-0.38012922,-0.0045884848,-0.25217685,0.07266803,-0.19465643,0.27369264,1.628392,1.4338243,1.5922589,1.3203439,1.5746214,1.6318642,1.1359699,0.91756237,-0.093415275,-0.7578966,-0.8616973,-0.1839059,-1.3450384,-1.2024122,-0.18309107,-0.82393515,-0.11379393,0.038787805,-1.179596,-0.7011987,0.19165567,0.5888077,-0.06455014,0.5820359,0.96152574,0.41715717,-0.5965626,0.72024494,-0.5381169,0.794046,0.070566684,1.5808723,0.652515,3.057821,0.8195627,1.0894771,0.2581847,-0.46910566,-0.012796714,-0.28782988,0.1426548,-1.3786123,0.25499812,-0.49917865,0.10592177,-0.3207389,0.63117707,-0.73784894,0.6808479,-0.7430039,-0.36813653,0.7496916,0.68151003,0.6183803,-0.62018347,0.13874991,0.5545238,1.1650829,1.4714463,0.7134115,1.1057352,0.96758926,1.1561103,-0.1086018,-0.7612769,-1.0954275,0.5939583,-0.34530294,-0.23592377,0.14878598,-0.16410574,-0.7153286,-0.07656425,0.25568807,-0.4506047,0.74354726,-0.47927326,-0.08172184,-0.41922522,-0.42295063,-0.756508,-0.4602344,-0.46805888,-0.2913459,0.37329638,-0.68875706,1.6228645,0.49432752,-0.096983306,1.5182326,1.8304381,-0.23114438,0.23307581,1.3675417,0.97995186,0.6898844,0.3629476,-0.7865873,-1.2298275,0.3052784,0.51076245,0.37099504,0.14641856,-0.08853442,0.36672297,0.030015796,-0.3678341,0.87901056,0.56061244,0.19484447,-1.0285603,0.29749954,0.3221867,-0.97176963,-0.31004083,-0.6219089,0.764814,0.38159522,-1.2472681,0.44897425,0.17407256,-0.7124595,-0.16701554,-0.2627025,-1.1932839,-1.1820631,0.588334,-0.6035137,-0.34942615,1.1198354,0.35647017,0.89887387,-0.8364734,-0.23636174,-0.9085089,0.48759592,0.80295193,0.15886925,-0.5795122,-0.7576554,-0.33125108,-0.46196163,-0.5530479,0.55772513,0.08497592,-0.62547326,-1.1475459,-0.45312968,-0.3064279,-0.099482514,-1.1762443,-0.62195677,-0.06502837,0.2156448,0.08212791,-0.5302985,-0.030833958,0.50998,0.063693315,-0.6246309,-0.25604475,-0.16827309,-0.17301011,0.44533122,0.7920877,0.7337928,-0.40894836,0.5165669,0.33007398,0.42113522,-0.6953103,0.5708702,-0.5350737,-0.27949834,0.91220546,0.23676893,-0.64040893,0.21512103,0.1671413,0.4423525,0.66213673,-0.7023146,-0.47563088,-0.22526492,0.5910888,-0.6721741,-0.23268278,0.29647446,-0.74293345,-0.38006628,0.40565574,-0.4917463,-0.7940408,0.76243484,-0.6819153,-0.47006342,0.520331,-0.4227143,-0.8027153,-0.8602201,0.13929443,-0.23278902,0.29804155,-1.031759,-0.6501145,-0.83660895,-1.188787,0.08171941,-1.0146133,0.6657788,-0.64890426,0.42741004,-0.031991553,-0.5539291,-0.8470467,0.4451332,0.89239216,-0.6378436,-0.76566863],"bias":-1.7072014},{"activation":0.9999982,"weights":[-0.6374235,0.674822,-0.7755084,0.60759676,0.2508633,-0.8808259,0.33673263,0.74914134,0.70091355,-0.30841994,0.7831644,-0.32842255,0.43141803,0.0011303324,0.42826355,0.4663929,-0.67976344,0.91369414,0.5533109,0.989743,-0.72552073,0.68502235,-0.24846923,0.64993525,0.2794515,0.05833149,-0.9749348,0.33116722,-0.32902777,-0.502985,-0.6549977,0.27113438,-0.29526448,0.83725,0.2566986,-0.048657235,-0.6702507,0.017293608,0.53413343,-0.9398303,-0.88592803,0.9609579,-0.8280499,0.69545555,-0.9966602,0.79858565,0.7101525,0.5815245,0.7528897,0.45859584,-0.86496204,-0.02451587,-0.95718706,0.5679356,0.7331065,0.94912326,0.40731514,-0.97175527,0.12313354,-0.00660336,0.37007284,0.83639735,0.95180553,0.7437777,-0.12940621,0.023741215,0.5235314,-0.6428186,0.39734584,0.22507364,0.01942638,0.11330533,0.40172002,0.09025212,-1.2067089,0.67339253,-1.0764956,-0.5112724,0.7041155,-0.38736427,0.66868216,0.3433413,0.13315618,0.77180815,-0.6488974,-0.61081004,-0.69105226,-0.17681263,-0.8938638,0.49719748,-0.4206215,0.43645853,-0.6491269,1.227889,0.27127966,0.63714206,1.278785,0.89696765,-0.54874086,-0.94554865,-0.6881999,-1.3182911,-0.17081502,-1.155113,-0.50269467,-1.2455026,-0.17687228,-0.26120302,1.0238919,0.2864281,-0.66374743,-0.71998346,-0.30449903,0.41701412,-0.89590394,0.9299575,-0.20732942,-0.57577837,-0.3251917,1.1376309,0.52949077,1.3390214,0.53968406,-0.26604733,1.0560924,0.022615733,1.1364242,0.014998099,0.016273644,-1.2677015,-1.5900837,-0.49873766,-0.94980663,0.33317295,0.18518446,-0.25673553,0.88321704,0.1451729,0.5829887,-0.32794937,0.40938473,-0.79493284,0.8670635,0.26611823,-0.26242736,0.5271138,-0.57344043,-0.46294728,0.38981944,1.5569644,0.9738264,1.4670463,0.5207485,1.414779,1.2799013,2.0010142,0.49535006,0.8038343,-0.6211929,0.35177314,-0.7196331,0.6678623,-0.5067117,1.0356963,0.37991327,-0.44234365,-0.9534621,-0.36734682,0.6622578,-0.17111227,-0.3249081,-0.95241106,0.9605727,0.8700943,-0.14894614,1.6762617,-0.055271864,0.9340511,1.4663566,1.5187129,2.6559749,1.7947333,1.805335,0.75166535,1.0398147,0.8733638,0.08616225,-0.1398193,0.8669128,1.4052975,1.4650561,0.23537144,1.0614989,0.36923456,-0.3686924,-0.6897494,-0.27480105,0.5595625,0.63570195,-0.4660896,-0.17355436,1.4050984,1.3057392,0.83898723,1.0074275,1.6160021,2.60172,1.3897656,1.3428836,0.5790249,0.49838066,-0.88667095,-0.26161534,1.5732259,-0.56715375,-0.06896995,-0.4047162,1.472835,1.712162,1.3572686,0.61141974,0.097809196,0.2486454,-0.8977227,-0.13689816,0.91143316,-0.80928755,-0.5009417,0.49408215,0.6574022,0.20332439,1.2713217,0.5207458,2.3669007,0.9059943,1.7616574,-0.8401836,-0.3966639,0.31859344,1.1576058,0.8431696,2.1612022,1.2592847,1.5993512,0.57372457,1.4978569,1.502541,1.0432221,1.2879522,0.7096339,-0.34849784,-0.5834123,-0.61469877,0.98251224,0.9535966,1.1471207,0.34876722,0.08377056,0.99213076,0.45108232,0.8041771,0.56392485,-1.021482,-0.047954965,0.33997962,-0.15377885,0.29230443,2.3360589,1.6835645,1.663019,0.94763565,2.169193,1.1584072,0.56406087,0.0376574,1.5296185,0.5762084,0.17041807,0.4669687,-0.65024763,0.123581916,-0.1273818,0.2368907,-0.48285064,0.89014196,1.2864588,1.2204239,0.7438268,-0.13280061,-0.86597794,0.15437353,0.47378287,-0.2515525,0.0996584,1.7423445,2.4478707,2.0989952,2.03867,1.7391531,0.7558286,1.4860966,0.09016053,-0.5060365,1.0649208,1.5054816,-0.30892098,0.009649985,0.13426548,-0.822189,0.457112,0.017341023,0.9807031,-0.34624073,0.09515168,-0.47679466,-0.22665839,-1.9623402,-0.93304193,-0.48147094,0.9916657,0.66347253,0.19179386,1.7856845,0.16529292,1.6894724,0.43182212,1.3658031,-0.7132822,-0.9651978,-0.31287655,0.264207,0.11402435,-0.00293123,0.07140513,0.8764605,-0.3777671,-0.24971904,-0.040410876,0.89189327,0.71097505,0.5852979,0.83659536,-0.45843956,-1.3890141,-1.4370323,-1.5045134,0.34233296,-0.10158865,0.4030057,0.35851616,-1.4835255,-1.0048236,-1.9355481,-1.371879,-1.0172589,-0.034691025,-0.9910644,-1.365293,-0.5883806,1.5949999,-0.25942478,-0.27883163,-0.36586094,-0.7910178,-0.09964037,-0.935988,0.8643806,-0.04806317,0.8472726,-0.06447408,-0.114868626,-0.4777322,-1.3807136,-0.44574788,-1.474562,0.11755706,0.21486905,-0.49066046,-1.9534241,-2.9574656,-2.5234907,-1.6909964,-0.8194764,-0.9474609,-1.406998,0.12985145,-1.3511671,-0.32325295,0.38586542,-0.5787193,-0.11618915,-0.59817916,0.24959727,0.86029536,-0.09926631,-0.9872105,0.62560076,-0.8951123,-1.5953361,-1.7985108,-1.4474305,-1.1106709,-1.1996855,0.039497126,0.046309102,-1.1655406,-2.6197937,-0.64667976,-1.730741,-0.25566694,-1.0526757,-1.2221863,-0.0037644452,-0.061546665,-0.02425733,-0.0117644165,-0.14394677,-0.69247043,-0.7585973,-0.25786203,0.771366,0.44438407,-0.19770803,-0.77365845,-0.82577544,-0.59893674,-0.14818178,-0.10011869,-0.8324132,-0.91450435,-0.8731728,-1.8323398,-1.4354472,-2.4301338,-2.2514737,-0.69936657,-1.0143112,-0.88974684,-1.3021673,-0.7287278,-0.25042593,-0.34730428,-1.0053542,0.42055112,-0.2928472,-0.7402633,0.41336387,-0.54683006,0.3048272,-0.08034878,-0.36737117,-0.838554,-0.030261606,-1.256214,-0.33555982,1.1496477,-0.79170376,0.3710806,-0.5530018,-0.9713287,-1.0640675,-2.7280853,-1.9852798,-1.2522188,-1.8118054,0.07006867,1.6111466,-0.044458658,-0.04278716,-0.018325614,-1.3165298,0.78117055,-0.18532968,0.43356904,-0.7098552,0.6767754,-0.73363435,-0.23611431,-0.31620044,-0.26378164,-0.8855543,0.3315743,0.8476169,0.4911705,0.78671277,-0.20000069,-0.7686834,-1.8934407,-2.4437475,-2.6516361,-1.8849345,-1.9577163,-0.57084644,0.15935932,0.67419916,0.6302801,-0.345158,0.8587762,-0.70291555,1.0786003,-0.33407104,-0.29960787,-0.17000715,-0.5292869,0.5632322,0.15584645,-0.5535003,-0.51452553,-0.24712737,1.1079804,0.78452957,1.1184313,1.406082,0.7702685,0.80299056,-0.49282205,-2.8310564,-2.4592881,-2.0526109,-0.5533435,-0.38950446,0.46442887,0.3661349,0.35695863,0.4526333,1.3824973,0.36863133,-0.50112617,0.41205496,-0.2334066,0.7638814,-0.91361064,-0.46463132,-0.7471336,-0.31242377,-0.33463115,-0.21992017,1.9238782,0.85706764,3.3479028,2.4986413,1.3396555,0.41153845,-1.0557953,-1.6771611,-2.4275286,-1.1554028,-0.94626874,0.139693,0.4783838,0.8815996,2.2924786,-0.026680857,0.62752444,0.39738452,0.7301633,0.95292234,-0.20689161,0.6666165,0.05412395,0.81215405,-0.39823288,0.78006876,0.06663575,-0.09411634,-0.20523395,1.5048654,2.4147716,1.9249816,1.8515724,0.111731745,0.3152724,-1.798046,-0.9740107,-0.37184617,0.96049726,0.9397559,2.1569629,1.3215923,0.86899054,1.0927078,1.5123402,1.2737106,1.4877312,0.026773825,0.0936307,0.22381073,0.6457624,0.3156135,0.13528125,0.67602146,0.14968842,-0.31682745,0.6418723,2.4096541,3.6241467,3.2515428,3.514162,2.4870315,1.7478676,-0.32927424,0.5574077,-0.2671511,0.16245814,1.2692726,0.33715272,-0.31150067,1.2725273,0.62019044,0.20105354,0.46706328,1.2035655,-0.6422299,-0.85361934,0.72646403,-0.19372404,-0.6672087,0.25920427,-0.18435878,-0.8670267,1.1269041,0.6004964,1.6254219,2.1809115,1.6690891,1.2977523,1.7105753,4.040322,1.0292866,1.0071039,1.5086521,1.6619568,-0.7940528,0.0054646255,0.74058145,1.1101568,-0.0055464217,0.04642913,1.1526846,0.69600606,0.53955275,-0.78227055,-0.57626814,-0.73766553,-0.3567711,0.8383721,0.6521936,-0.9644278,0.7873394,1.2676858,1.3769387,0.39695695,1.4237524,-0.06722798,1.7355891,2.1237898,2.4302285,1.6471155,2.5423348,1.427512,0.5023066,-0.09377972,-1.1607997,-0.43468288,0.016867997,-0.4515693,0.1487364,0.4050338,0.0050670817,-0.5028593,-0.70465785,0.75616753,-0.97876394,0.75570536,-0.5330059,-0.2828607,-0.7698227,0.60363793,0.3594689,-0.36097422,0.90943325,0.07896665,-0.5113359,1.039166,2.3110602,0.8166543,1.8124429,0.6059175,-0.4709798,-0.91808814,0.38391596,0.5750733,-0.9163502,-0.47590536,-0.45812783,-0.50545347,-0.9193101,0.1726211,0.028911343,0.27483928,-0.44529366,-0.72530425,-0.9463587,-0.7033448,-0.36861026,-0.5222005,0.6976219,0.5053683,-0.5814205,-0.43918836,-0.67428446,-0.79441404,-0.34901386,0.7558313,-0.31550002,-0.28064245,-0.17045316,-0.8701331,0.3689864,0.43792856,-0.7016603,-1.0229002,0.6769055,-0.7546048,0.24058875,0.08994711,0.31182328,-0.9274081,0.83954096,-0.4123752,-0.4940498,0.85225266,0.47049937,-0.76731414,-0.44715184,-0.14812881,-0.46362314,0.5804231,-0.030096294,0.020499121,-0.521713,-0.0937579,1.1557845,-0.36866435,0.44366607,0.90537083,0.35448796,-0.02094235,-0.4558285,1.0013255,0.57734495,0.1134534,-0.23157442,0.9916783,0.21178007,0.5368297,-0.7035072,-0.9919269,0.6394744,-0.11987507,0.5801529,-0.27699828,-0.38398987,-0.48527157,-0.1582217,-0.21374273,1.0184518,0.8114093,0.2709097,0.787285,0.85744464,-0.2998056,0.33491468,-0.3311283,0.73481685,1.0303857,-0.8594534,-0.7377225,0.22213289,0.82744986,0.9978038,0.6718265,0.7064544,-0.5023155],"bias":1.5008271},{"activation":2.7690194e-12,"weights":[-0.9482063,-0.5292039,0.25822294,-0.6087631,0.24622512,-0.26316547,-0.2822857,-0.5674238,0.40481424,-0.053322673,-0.506358,0.1310457,-0.21286702,-0.60638094,-0.71289706,-0.32131016,-0.76892436,-0.5276351,-0.19018412,0.32513535,-0.65509796,-0.9029275,0.8341541,0.27016723,-0.07062423,-0.96754086,-0.42899406,0.13935983,0.2919761,-0.6856252,-0.28799152,0.9900284,0.12635279,0.99962413,0.37162015,0.4439776,-0.15664427,0.98028964,0.47750393,0.7600875,0.19714037,0.010755728,-0.8376622,0.62271875,-0.44760907,-0.33258104,-0.6227938,-0.7580047,-0.07593188,-0.31607035,0.8825127,-0.9712658,0.5264858,0.33247685,0.022824168,0.82418656,-0.46727467,-0.81132805,-0.20123911,-0.06798661,0.5318726,-0.33512527,0.94024104,-0.89387506,0.25547227,0.4308415,-0.12688662,-0.59384394,0.011658702,-0.6236649,0.42063606,0.880267,0.6689013,-0.6348392,-0.004876591,1.0115336,0.6351999,-0.3256679,-0.10454759,0.38934687,0.29772538,0.5204004,-0.98022366,0.9814334,0.61226535,-0.15070128,-0.40017974,0.80909747,-0.4209741,0.4451728,-0.5450517,-0.6546144,-0.73618007,-0.37366566,0.33216465,0.79085124,0.03344699,0.9150899,-0.40723273,1.196224,0.7982049,0.17706038,0.52950823,0.21388409,-0.26998514,-0.2829769,0.61584324,-0.2614553,-0.7107384,-0.7007112,0.39605367,0.37069786,0.86821365,-0.76821256,0.7581986,0.975088,-0.55574995,0.014922748,0.68942493,-0.73265916,0.8447234,-0.7901152,0.31609148,-0.5887304,-1.074486,-2.294541,-0.4156617,-0.73741966,-0.69029015,-0.19783236,1.7188876,0.37393138,1.3036238,-0.22552001,-0.4754688,0.7086353,0.9616556,-0.010246439,0.13520014,0.282572,0.059682727,-0.85106385,0.49043056,-0.18341157,-0.11221098,-0.79427874,0.5376595,0.56987983,-0.448229,0.12081695,-0.51625633,-2.5396864,-2.3943167,-2.6808426,-4.0617056,-3.8528192,-1.6936328,-0.01950921,-1.2490948,1.2540066,0.44976866,-0.3195559,-1.1399189,-0.36207175,-0.5771793,0.098992206,0.61637646,-0.8113294,-0.5656593,0.91752493,-0.23534532,0.8347561,0.5445327,-0.34219787,0.62307197,-0.37451956,-0.75846803,-0.072700225,-0.3890604,-1.0354332,-1.6693803,-1.130442,-1.3736825,-2.2251904,-2.460775,-1.0350853,0.43579772,1.1297925,-0.25283405,0.5099568,-0.4009947,0.041094452,0.56018883,0.20402566,0.18335952,0.7597767,0.46832353,0.25885627,0.44501647,-0.26330602,-0.9893175,-1.5019554,-1.529368,-1.2120446,-0.95336187,-1.471281,-2.1986003,-2.044298,-0.655132,-0.96481216,-1.0447745,-1.472164,-0.5538025,0.2240833,0.3439921,0.35253787,-0.5727137,-0.968317,0.33701867,-1.1366361,-0.60095465,-0.8740879,-0.53939384,-0.18146172,-0.7848206,-0.73398584,0.1402815,-0.61668307,0.15982036,-0.22258197,0.24551743,-1.1264882,-1.2486073,-2.0697117,-1.8996656,-0.94620925,1.3623271,1.2068576,-0.7026514,-0.90599376,0.26036572,0.11167053,0.5024039,0.12671183,0.5185644,0.4716022,0.67090565,0.28193983,-0.17410532,0.19549009,-1.0374317,-0.748555,-0.49923313,0.83468264,-0.7193927,-0.48301628,-0.19179569,-0.70587605,-0.9396875,-0.2153912,-1.5137774,-0.66585684,-0.7884751,0.084151335,1.2070163,-0.40127096,-2.6201718,-3.0734184,-1.915527,0.18183123,1.485338,0.6652451,-0.8843697,-0.93735814,0.6014879,-0.47946498,-0.92517924,-0.9175302,0.14460713,-0.8423768,0.4359737,0.12158321,-0.2069142,-0.049766913,-0.29176208,-0.6842512,-0.85810226,-1.2104936,-1.4247439,-0.9486491,1.5098605,2.0015357,-0.93938947,-3.0631657,-4.362413,-3.2887216,-0.99306643,-1.0752282,-1.4834257,0.059413325,1.6484542,1.6564193,0.48253962,-0.71567804,-0.74024785,-0.7574347,0.90002424,-0.3348034,0.6414959,-0.40548894,-0.15248096,-0.3230265,0.18847077,-0.87643194,-0.29088673,0.5048276,0.20667835,1.579757,1.4019122,1.7484487,-1.3156451,-3.0767913,-1.4283177,0.16584611,0.9053829,1.3792135,-1.698094,0.04073809,1.1430471,0.03624871,-0.08079217,0.5256902,0.57016504,0.7445097,0.69908047,0.6560279,-0.8293307,-1.0564315,-0.4195832,-0.8889935,0.46832216,0.71403605,1.0481286,0.37612814,1.2170198,1.5584499,2.68155,1.9900814,0.054552324,-2.1286762,-0.10469698,1.5170568,2.8539681,1.1176862,0.022868523,1.9232671,1.3609178,1.2428887,0.15732232,-0.55726147,0.76148766,-0.35471287,-0.55325824,0.17258528,-0.59329176,-0.91154575,-0.7315225,0.08606415,-0.7190895,0.54375094,0.7489079,0.7383971,3.0559614,2.8724744,2.8220909,2.919525,-0.23308228,-0.11600228,2.7075093,2.1538205,2.7053857,2.2550604,0.15881403,1.0163724,1.5102539,2.149147,1.3336354,1.1620334,1.1391237,-1.0896667,-0.16538078,0.18678343,-0.07054842,-0.91189176,-0.7175022,-0.2684541,0.98408055,0.28089345,1.38561,3.004925,4.065875,4.5466113,2.6548574,3.2308514,2.5574753,1.9973335,2.5777617,1.9679313,2.678429,1.6156918,0.2903032,-0.19509065,0.035584,1.6592535,0.38547137,0.011650852,1.2111065,-0.50821114,0.9592987,-0.35635793,0.6342513,-0.14494716,-0.5338765,-0.05268248,0.58245814,1.3631887,2.137031,3.8240013,3.577602,3.0393932,2.2713768,2.4270809,3.9980495,4.708688,2.4754257,1.8675945,0.11873124,0.74160564,-0.7878899,0.12836869,1.1033734,0.15230797,0.43649578,-0.2144976,0.91912335,-0.9493268,0.6037528,0.9052295,-0.0984937,-0.8282307,-0.3227553,0.28128782,1.0432491,0.9747346,0.8124805,2.0179682,2.8822694,3.6636043,1.1283405,1.5898868,4.767303,4.196721,1.6191084,0.14748904,0.7587136,0.14335169,-1.7669531,-0.24884301,0.40711695,0.029986568,1.2677466,1.3391311,0.8571437,0.15905368,-0.6041398,0.6323725,0.22360897,-0.8828818,0.75444067,0.32389718,-0.64442456,1.2752862,0.45620692,1.3697104,1.685741,2.3145695,1.8892053,2.519061,3.5518959,1.3205087,-1.0675033,-0.884815,0.43541065,-0.45318145,-0.76857287,-0.28599182,-0.13900107,1.4337368,-0.5019805,0.3275444,-0.11810637,0.27157408,0.20229647,-0.4112783,-0.7612579,0.23286197,0.008572248,0.5462752,0.42313126,0.29729363,0.40007004,1.5494058,0.4998031,0.34639856,1.2789516,2.3182364,1.5847243,-1.2562294,-1.0772115,0.40359354,-0.58797365,-0.5244601,0.533622,1.2961969,-0.37892395,0.08572447,1.1365314,0.7085586,0.46151367,0.46812254,0.5789066,-0.44711563,0.24909987,-0.2853753,0.9296482,0.701368,-0.026381403,-0.72451,-1.0392374,-0.38527694,-0.91813487,-0.22786553,1.6585118,2.4264417,1.2692573,-1.0926733,-0.80946594,-1.4633747,-1.0478061,0.38271767,0.5074971,0.53634846,1.419151,0.03074915,-1.0821912,-0.28020048,-0.60198253,-0.8959203,-0.55526745,0.14316319,-0.8629352,0.82294697,-0.57212347,0.7385218,0.019512441,-1.0899613,-1.8693308,-1.0708402,-1.1102281,-0.13211651,0.35953736,2.0408518,-1.095104,-1.6246095,0.37377924,-0.98515046,0.28848612,-0.5522414,-0.88466674,-0.54446805,0.12079457,-0.21039902,-0.08179222,0.05974066,0.7602346,-0.84240437,0.711172,0.16594768,0.15708292,0.37587532,0.33425853,0.25319886,-0.14587651,-0.8524878,-0.8211353,-1.2076068,-3.4174626,-2.2472663,-1.320771,0.011296272,-1.7919768,-1.3319117,-2.1374428,-2.3353214,-1.2789397,-2.2530174,-1.0073644,-0.5390008,0.06984489,-1.1129152,0.08956874,-0.02673738,-0.19177707,0.7932564,-0.02481483,0.3357426,0.3321997,-0.537341,-0.74106294,0.09509045,-0.85529613,-0.16987005,-0.96056706,-1.9645164,-0.5207917,-1.1026173,-2.320193,-2.7816966,-2.1121337,-3.1908712,-4.4940257,-2.7531092,-1.3614638,-2.0450795,-0.050560676,-1.242921,-0.6260212,-0.07104544,0.23163135,0.15277706,0.72258127,0.1377761,0.967062,0.85900176,0.5884007,-0.081888914,0.46862078,-0.138903,0.22191611,0.1336537,-0.54959303,-0.2301311,0.034290858,-0.24419425,-1.9681034,-0.9499527,-1.9242327,-3.0660198,-4.737945,-3.0632513,-0.7243234,-0.32977316,0.7076536,0.48462638,0.047315143,0.23483212,0.5122443,0.052403547,0.55976194,-0.8125162,-0.2686078,-0.32840776,0.599509,0.9569591,-0.15374821,-0.37517,-0.1689386,0.30835924,-0.94564974,0.9865126,1.3199276,-0.33486903,-0.4253334,1.3965275,-1.4978529,-1.7022679,-2.516049,-1.4188374,-0.113610104,0.4307444,0.121328436,0.94157314,0.06663373,0.6896152,-0.008850039,0.2729068,0.37665242,-0.32027563,0.63699067,-0.2418834,-0.037941694,-0.6372374,-0.26348954,-0.5859224,-0.3802201,-0.71899784,-0.37083188,1.1430612,0.68787223,0.727954,1.0174491,0.8177489,0.10145427,-0.1634613,-0.6995741,0.44151735,0.52767664,-0.06997725,0.77777874,1.3506718,0.16404438,-0.34059763,0.66798025,-0.8382127,-0.32495752,0.25201952,0.8504834,0.3513651,-0.53743124,-0.06651831,-0.3598534,-0.37155017,0.5439379,0.08426857,0.6021482,0.34719023,0.38039064,-0.042165,-0.15354306,-0.50564885,-0.41511056,-0.36217725,-0.69085693,-0.66933125,-0.13203374,0.43705714,0.94225633,0.025833298,-0.54167956,0.21619366,0.59841925,-0.748912,0.74467695,-0.513977,-0.72772455,0.25620735,0.37998354,0.9901763,-0.4751978,0.59588873,0.27357838,0.010220352,0.7187789,0.47723174,-0.67969686,-0.26600942,-0.7418869,0.08003092,-0.59633523,0.38652045,-0.19494426,-0.14904593,-0.07608277,0.050986294,0.5623767,-0.106126234,0.53563577,-0.34507,0.8148526,-0.8245578,0.48759556,-0.11968768,0.098569155,-0.34071624],"bias":-1.2503196},{"activation":1.0,"weights":[0.16743481,-0.87620044,-0.21268773,-0.12944698,-0.6188332,-0.2505573,-0.063016176,-0.01628077,0.35611737,-0.23235095,0.7215564,0.73275363,-0.6781987,-0.83196855,-0.5946112,-0.14329576,-0.7286869,0.14394617,-0.5919101,-0.7613332,0.98152065,0.5460119,0.4091494,-0.825892,0.3775246,-0.5914005,-0.2819147,0.199512,0.3885733,-0.008259058,0.5018009,-0.8509232,0.705842,-0.25759643,0.8652158,0.40492237,-0.097111806,-0.16846727,-0.92267215,0.50867784,0.86281765,0.16838297,-0.014328978,0.21563394,0.8113666,0.97047406,0.45330507,-0.8727234,-0.6286544,0.14883842,-0.9796828,0.99749637,0.79770625,-0.21545076,0.23696268,0.39442492,0.16226733,-0.16011429,0.15932178,-0.6233994,0.9922898,0.5736116,0.39365226,-0.54978734,-0.11011891,-0.6408234,0.69442403,-0.3770546,0.47190443,0.3472404,-0.30427405,0.85758466,0.62165546,0.8058117,0.9431152,1.2428019,0.11616712,0.598535,-0.21686493,-0.32611296,0.9765619,0.43127406,0.13299608,-0.14497411,-0.44920325,-0.13037932,0.25243378,0.48057848,-0.100280255,-0.25478813,0.21171434,-0.35410762,1.0642606,1.0948694,1.2032226,0.07253512,0.043312922,-0.2066865,1.7089269,1.6185228,-0.1534653,2.2182143,1.8914212,1.6835518,-0.29688346,0.90396094,-0.7252953,0.7300187,0.98581594,-0.9477667,0.12966025,-0.9092494,0.12659526,-0.004817725,0.9120873,-0.89324206,0.43598717,-0.16452183,0.117203675,0.9912321,0.86062944,1.0774753,1.8343966,1.0311445,1.7640502,0.2564362,1.3309461,0.09204914,0.46989036,2.3606339,1.191845,0.4752241,1.6056075,0.7547261,0.0259306,1.2250595,-0.3018464,-0.60192966,-0.8107143,-0.57434106,0.35320306,0.39503157,-0.13186912,0.32425272,-0.6949631,0.5494046,0.36479262,0.8282296,-0.09872451,0.6683,1.4874862,1.1040236,2.7336574,2.5313675,2.3198018,2.4385936,2.751097,2.149035,1.2573413,1.7840477,2.438508,1.8435218,-0.16400005,0.5152286,0.46578386,-0.7061361,0.023425937,-0.69957834,-0.30691254,0.2913121,0.4117611,-0.49700588,-0.58189493,0.66334206,1.0853976,0.34347552,0.3736683,1.3587486,2.720434,2.0828624,2.3736863,1.7401586,1.9000496,1.1666738,1.2486699,0.72651976,0.048824966,0.073595114,0.36599553,0.80941355,0.50275964,0.23168533,-0.26265743,-0.6698191,-0.10573064,0.761044,0.79393953,-0.46598625,-0.37845698,0.90577674,-0.17904632,0.6180168,0.019467132,0.7452553,-0.05995914,1.4014635,-0.4649773,-0.07230865,0.26613304,1.5346584,0.14456399,0.20179781,0.38505644,-0.6597158,-1.7551888,-1.8386282,0.18822809,0.33316216,0.9992075,0.54516834,0.034731053,0.17095299,-0.45253685,0.6835686,0.12322621,0.6044179,-0.15531726,-0.80852145,-0.1884092,1.1814401,0.9029838,0.87485343,0.23271678,0.46261227,-1.2045693,-1.0885127,0.58329374,1.1988448,1.0477912,-1.0198113,-0.45521113,-1.4917696,-0.83992267,-0.4147315,-0.574533,-0.0545107,1.1805159,0.9831853,0.20772313,1.0443512,0.7559143,-0.29653037,0.011374579,0.29481974,0.32860842,0.96733326,0.85233414,1.1805258,1.3060336,1.4148502,0.63373166,-0.66128963,0.11560309,-0.39663473,1.4322491,0.22454286,-0.42837995,-0.24652277,-0.54063195,0.18082576,0.16412276,0.089467436,-1.4293959,-1.0735848,0.15889935,1.1576144,-0.43696785,0.71036863,1.0212046,0.3811607,-0.8171989,-0.8782491,-0.8730753,0.13401735,-0.3815768,0.50356406,-0.38540396,0.6305769,-0.61230165,0.5488973,0.054142006,-0.024720082,-0.29351234,0.83342165,0.43637884,0.61979735,-1.0012558,-0.6230053,1.7374016,1.1421912,-1.0601707,-2.1120074,0.5349456,0.834309,0.33905685,0.40141112,-0.2728382,-0.52447295,-0.77914655,-0.35860166,-0.75161093,-0.9645689,0.62172204,-0.62283385,0.9455874,-0.47040904,-0.720779,-0.4581754,0.3647767,0.4749533,2.2124634,3.0062199,2.9779878,1.4907672,0.6054507,0.59221673,1.8122795,0.10422741,-0.4070873,-2.026388,-1.368086,-0.5054535,0.62970966,-0.82672495,-0.71386147,0.47458154,0.13126314,0.8946216,0.2571748,0.16586518,-0.023711469,0.19202717,-0.70187354,-1.9727154,0.5921624,0.1259569,-0.551015,1.8261237,2.8854246,2.1378646,3.5592308,2.3377438,1.0050607,0.41646898,0.9983494,0.79914594,-0.72940224,-0.5123921,0.031132817,-0.7108044,0.49831498,-0.64994204,0.27651966,-0.32072696,0.55743635,0.64069396,-0.54156685,-0.16667297,-0.50581974,0.61716807,-0.8331894,-1.2829003,-0.77964985,0.15941365,1.226799,1.1452112,1.8603617,3.9227743,3.6200712,2.7662086,1.2696472,0.7717167,2.154517,1.993975,-0.36236584,-0.6739371,-0.63803583,-0.72657716,0.491033,0.8661295,0.5951635,0.6027561,0.7544247,-0.96387523,-0.7589406,-0.039839774,-0.7476956,-1.6234704,-1.2155415,-2.0193036,-0.9236325,-0.16076799,1.4088697,0.46065414,2.701476,5.086461,4.3436112,2.5983975,1.10116,1.0333592,1.8686622,0.6783782,0.5225107,-0.12599595,-1.0220358,-0.13725415,0.15244693,0.91168576,-0.09773861,0.140234,-0.6967752,-0.660249,-0.52183604,0.26962385,0.34600416,-1.6823729,-0.46949664,-1.2359412,-1.5422132,-0.253683,-0.48954082,1.272119,3.8962677,4.875912,3.8928034,1.0493183,0.18951026,1.654426,1.2900236,1.2038587,0.90109724,-1.784809,-0.6837322,0.3736878,0.014004408,0.97609407,-0.28161874,-0.21330556,-0.15719545,-0.98014545,-0.6753972,0.4753799,0.031969216,-0.66109616,-0.83562696,-1.3627936,-1.8437887,-1.2043327,0.8629849,1.030132,2.5152133,4.3951354,2.339071,0.9161106,-1.0353985,-0.41171548,1.0785493,1.1843991,0.11930485,-0.08398218,0.16860339,-0.1661688,0.7199054,0.42702243,-0.5670692,0.35047263,-0.0058264732,-0.23685798,-0.29605845,0.7725168,-0.055639233,-0.07584379,-0.25009984,-1.7106388,-1.324222,0.7051584,0.6558568,1.3704408,2.92596,2.5145419,0.6971439,0.088580415,-0.6043851,0.312308,1.1770521,0.76126647,1.0253384,-0.09326605,1.6763661,1.0332171,-0.193035,-0.33710903,0.462493,-0.5632651,-0.13664848,0.6762444,0.23509188,0.8999155,-0.12238838,-0.05759143,0.47328505,0.22687523,0.14733736,1.9649177,3.2212157,3.6266103,3.7069068,2.3453488,1.5164999,-0.0964099,0.9501986,1.1179125,1.4249895,1.5541414,1.4283748,0.6852132,0.5848881,0.9205387,0.67345697,1.0363187,-0.08305717,-0.5760501,-0.83925843,0.7928201,0.5300483,0.13678083,0.41786754,0.5076821,-0.33451256,-0.24328089,1.2724928,1.1182653,1.5918425,3.2636585,3.6520343,2.0520418,1.5987719,0.7528025,3.07898,2.527643,2.6415021,1.3019823,1.7909698,0.33726308,1.503209,0.23099895,-0.26141524,0.14491852,0.7435028,0.2716521,0.38806462,0.027796688,0.67419696,-0.7312947,0.20945804,0.44833583,0.23102741,0.58310103,0.91983134,0.77894115,0.93278545,2.2225056,2.8660336,1.6013267,1.4331081,1.6734458,2.738843,2.2170858,1.7757795,2.5930872,0.9767441,1.6733311,-0.019413399,1.2182235,0.37584227,-0.072747126,0.36824948,0.09128857,-0.9911331,0.11367764,-0.73510766,0.14248852,-0.21296231,-0.25769132,-0.59360266,-0.42850265,2.109979,2.0461078,1.0323772,1.3259478,1.4283743,0.28101325,0.936774,2.95474,1.5040909,0.9641324,0.63503826,1.1593587,0.013943311,1.070407,-0.12718706,-0.49473166,-0.07706902,-0.86845344,-0.19648015,-0.41222975,0.75670695,-0.58913195,0.98967147,0.5198916,-0.16109577,0.81500506,0.3265524,1.281406,0.9862538,1.0478545,1.5791712,0.6259953,1.0783813,-0.25895226,-0.05736313,1.7828354,-0.04562254,0.56731904,1.5665925,0.39684466,0.42859003,1.1912509,-0.014525591,-0.65753675,0.55429447,0.08812663,0.32806116,0.8480168,0.360752,-0.069764614,-0.8278964,0.055050034,-0.36360255,-0.3921918,-0.08607464,0.96096426,0.5396826,0.6117965,0.4722773,1.5666227,1.6973857,1.1405104,1.8097788,1.2966923,1.3815109,-0.6413279,-0.23823681,-0.735722,-0.9674794,-0.6158914,0.053119734,0.08272259,-0.08197422,0.6701166,0.64762384,0.9797926,-0.8712026,0.10315406,-0.83008355,0.9193476,0.01361043,0.80805534,-0.9718574,-0.8604175,1.2369416,1.6363119,-0.16281478,1.9580867,1.2780234,0.6710886,1.008865,0.010297784,0.89529866,-0.6847096,0.029812448,-1.0759258,-0.9771316,-0.9518153,-0.5956804,0.5162977,-0.6197666,0.41643977,0.25470755,0.028940916,-0.50641537,-0.7015792,-0.24783476,-0.9783713,-0.11372913,0.39659968,0.27283266,-0.7850021,0.56822944,0.07073174,-0.7102851,-0.5655963,-0.17813106,-1.1395774,-0.31972897,-0.23847814,-0.108610354,-0.8288769,-0.49696144,-0.6480042,-0.46338758,-0.67762035,-1.108693,-0.3296891,0.91845673,-0.041625485,-0.97682637,-0.3516389,-0.23398459,0.7823652,0.5056906,-0.6300192,0.08692509,0.17119648,0.015855627,-1.0313663,0.61791974,-0.27967787,-0.5814996,0.18817534,-0.0647884,0.39226475,0.68237936,0.038736206,1.079563,-0.92269874,-0.36840436,0.5607959,-0.1593858,-0.084416814,-0.1659098,0.40300298,0.35090876,-0.88248503,-0.35310698,-0.7160841,-0.17429161,-0.057020545,0.08377409,-0.083024025,-0.33481988,0.021134092,0.46932465,-0.39103332,0.3485547,0.7938501,0.19895726,-0.21642256,-0.5210392,0.6521705,-0.96310025,0.67093015,-0.37453508,0.96134055,0.7698462,-0.20541929,-0.26236254,-0.24448693,-0.58429235,-0.37607506,-0.3147589,-0.9217566,-0.17014802,-0.48084617],"bias":0.43030468},{"activation":1.0,"weights":[-0.64425457,-0.57359767,-0.62202144,0.32560635,-0.1342963,0.6929494,-0.91214895,-0.14400268,0.5170027,-0.54050314,0.8436825,0.42303848,-0.23390366,-0.9027429,0.23893484,-0.56653184,-0.80979455,-0.45308363,0.5723249,0.5361786,0.47210538,-0.24917042,0.37277794,-0.26492774,-0.77195585,0.6561605,0.5289655,0.89251757,-0.6585771,0.51722455,0.9594785,0.96147275,-0.9186418,0.95830584,-0.38014793,0.21543203,-0.13156645,-0.031628136,-0.7933431,-0.97935843,-0.14608096,-0.6188433,-0.17315382,-0.9133402,-0.2833384,-0.097446434,-0.07816665,-0.7972344,0.9400826,0.0048971623,0.5433873,0.048074603,-0.6335064,-0.8676071,0.25867975,0.017414689,0.78920054,-0.6968951,-0.20579934,0.7602048,-0.030102758,-0.32449245,-0.52198625,-0.24056718,-0.53277177,-0.9364066,-0.49550065,0.13198595,0.44774574,-0.12691352,-0.725087,0.19272321,0.42923102,-0.46086386,0.9036302,0.8509748,-0.87620836,-0.17431574,0.4685681,-0.6759277,-0.21711664,0.5876574,0.6971183,0.1255846,0.005735278,-0.046853185,0.78429484,0.39182362,-0.06269288,-0.68776476,-0.35850018,1.036737,-0.016752642,-0.22924507,0.33232188,-0.1616142,0.40512517,0.77752864,-0.37039244,0.8777235,1.0407963,0.98973066,0.93496484,1.8919216,0.22107625,-0.17872432,-0.053219218,0.7890649,0.37555197,0.28339493,0.5863373,-0.6186733,-0.1913439,-0.5233465,-0.57723033,0.37476537,-0.6861588,-0.432478,-0.08037584,0.5969476,-0.09814737,-0.20541078,0.25521302,-0.44634405,0.26159433,0.41017857,0.93760747,-0.22658682,0.7187569,2.2351813,0.10078775,-0.2867961,0.5016798,0.026235698,-0.20815656,-0.07275028,-0.26126438,0.9280002,-0.8072408,0.045745373,-0.76735866,0.7902856,-0.3361981,0.052923184,0.7737308,-0.97706,-0.059200168,0.74556935,-0.15083748,0.8975823,1.0280217,-0.48321402,-0.52532184,0.7291252,-0.1680637,-0.18042026,0.8699186,1.7702329,0.60339177,-0.2425983,-0.026754756,0.19552144,0.38379422,-0.5885442,-0.45428678,-0.058800083,-0.4485688,0.12501982,0.19639707,-0.5189732,0.36964396,0.86751634,-0.41438565,0.9032385,0.97114086,-0.11537628,0.8666069,0.43495387,0.5402812,0.8568763,-0.014019769,-1.5987645,-0.2818363,-0.024422117,-0.7293991,-0.9135608,-0.8247052,-0.22724433,-0.73885924,0.5559778,-0.17237139,0.90794,-0.7703901,-0.70984715,0.5276927,-0.49248335,-0.3674924,0.9895819,0.2293769,0.9588202,-0.8285081,-0.2505728,-0.3529959,0.4255999,0.45001248,0.1922396,0.35542622,0.42370355,-0.079621814,-0.054852813,0.93169755,-1.2187959,-0.2994714,-1.5008591,-0.14537792,-0.21747535,-0.2926846,0.8587789,-0.46582785,0.7126219,0.48566297,-0.09544628,0.9418606,0.7606096,0.7303784,0.5940134,0.14146896,0.92360187,-0.420836,0.146119,0.6330416,1.068387,0.20474255,1.3816159,-0.033381242,1.2192492,0.746715,-0.08616733,-0.2894349,0.12987043,-0.08460933,0.654097,-0.21390149,-0.028606463,-0.024556547,-0.11144663,0.22129408,1.1113313,1.2818917,0.022185858,1.0918643,-0.7423186,-0.78180295,0.9696932,0.90090567,0.4386151,0.38929784,0.11961244,0.48442593,0.7707981,0.40948763,1.081453,-0.106403284,-0.2627533,1.578439,0.5046585,-0.839215,0.47744504,0.23601183,0.21968043,-0.9232156,-0.345043,0.119596474,0.27713445,0.38282698,0.39623392,0.71665823,0.59671235,-0.41760314,0.10699393,-0.43733418,0.5549426,-0.82916236,-0.4397763,-0.20301577,0.03229407,-0.08701309,1.1671859,0.9734897,1.5796479,1.1306154,1.4051797,0.024273144,0.8600695,0.88891447,-0.6610132,1.413065,1.3689793,0.20946743,-0.5336511,-0.8202982,0.27081683,0.03789614,0.699927,0.11792072,0.5436805,-0.3265937,-0.004837122,0.10042137,-0.49644083,0.3648326,0.81105113,-0.109250255,-0.010940426,1.7557551,-0.51960474,-0.095970385,0.90130615,1.4051384,1.5731002,-0.32052305,0.8372753,-0.98706067,0.8728229,1.3584156,-0.091516376,1.3350092,0.2642558,0.41114908,-0.2812559,0.00436341,-1.329114,0.21744813,0.22420052,0.11908808,0.7639854,-0.7346332,0.43332815,0.9347522,0.1903785,-0.3344416,0.35910556,-0.012311403,1.071653,0.57866895,0.8041119,-0.17912069,-0.107178755,1.0837582,-0.12513967,-0.036248114,-0.056158766,0.1322985,1.5318475,0.33785757,-0.21298021,0.5556616,-1.2038822,-1.7738764,-0.9941307,-0.47153544,0.12953204,-0.26305208,0.91221094,0.74935377,-0.81804967,-0.77634066,0.7688397,0.4348784,-0.76121694,-0.09862337,-0.5250986,0.02980377,0.54152423,-0.5464023,-0.16299304,0.60485345,0.8161467,-0.36033332,0.73587084,1.386536,0.59593594,0.9928327,-0.21512812,0.6776003,-1.4088218,-0.92757255,-0.8309017,0.6226032,0.47022995,0.11367456,-0.8267764,0.08919079,-0.8462953,0.48722053,-0.785333,0.23427127,0.3948414,0.8616768,0.62530744,0.94975156,0.7770658,-0.30491942,-0.4555297,1.0708393,1.6663128,3.1773167,1.4142061,2.076584,0.88831925,1.8773383,1.1634108,-0.26522648,-0.13923597,-1.3159256,-0.95055586,0.65712637,-0.25499162,-0.07183471,0.704106,0.29486609,0.78924054,-0.07123543,0.8417328,-0.6471785,0.16615647,0.7752617,-0.0076818774,-0.49835005,-0.70846325,-0.23433268,1.8407643,2.0904267,1.8501463,3.1014535,1.5549754,1.0950823,2.026381,1.3926293,0.99725276,0.27917242,-0.86216336,-0.5825709,0.8915029,-0.7994145,-0.23132347,0.089217454,0.26339373,0.8643393,-0.18114264,-0.16214496,-0.1794769,0.008136585,0.2208449,0.505749,0.27639985,-0.3236026,0.9337984,0.80155754,2.410607,2.36018,3.2507052,2.745795,2.2808497,0.05524351,1.4513886,-0.11170967,0.13303305,-0.021354815,-0.13193434,-0.639,0.23590718,0.118003756,1.1222554,-0.76967776,0.4863244,-0.14427328,0.3270261,-0.83638763,-0.12746476,-0.0024406924,-0.77788186,0.5307941,-0.652075,-0.7775086,1.6743727,2.1505337,1.3134499,1.60059,2.0170016,1.7837181,2.5478768,1.2069443,-0.13928612,-0.23551586,0.37467012,-0.056310758,-0.9754752,0.9092225,-0.42537537,0.39532772,-0.5945792,0.18553478,0.71773916,-0.55646265,-0.30129248,0.476654,0.02330825,-0.0139089795,-1.427384,-0.3557914,-0.98216796,-0.34933326,1.0169284,0.4829591,1.6967777,0.82171214,1.9196287,0.14182371,1.7310531,1.1653289,0.30242968,-0.2865336,-0.8801112,-0.7207239,0.018007817,-0.11437979,-0.24372292,0.999473,0.041726295,-0.0842764,-0.67388594,-0.23551214,0.46959448,-0.12255702,0.6066178,-0.42408198,-0.9397975,-0.1375191,0.05206148,0.017371062,1.7805046,2.0958807,0.20932989,1.0012866,1.1184268,0.48496988,0.64532477,0.15901205,0.3650605,0.82067657,0.53206664,0.17193471,0.20336208,1.2051641,-0.68036413,0.3784944,-0.4526069,-0.37574694,-0.072362475,-0.364483,0.5974244,-0.036994874,-0.012102983,-0.3747477,0.2285775,-0.5535885,0.5971071,0.15976103,1.1455364,1.8858062,0.67358714,0.8297469,0.78178674,1.1869805,1.380378,0.55789536,1.82005,1.4439652,-0.32700256,0.9485757,-0.06267115,-0.19616173,0.1250563,-0.72412974,-0.7404932,-0.63816345,-0.48148143,0.14310968,0.79138863,0.0437407,-0.40183756,-1.2383968,-0.2756777,-0.069750994,0.6279968,0.051212616,-0.37664935,0.4107964,1.6237174,0.5781768,0.43983495,1.1070484,1.0865822,0.9036455,1.0611166,0.68863404,0.51782036,0.8467778,0.6194466,0.9349785,-0.77423716,0.5835204,-0.93695223,0.28666976,-0.09499395,0.5244378,-0.8943063,0.009396256,0.60406995,-1.0916997,-0.8841546,-0.2676343,-1.4308052,0.25137603,-1.0822558,0.12736985,-0.52215594,1.7317863,1.5646921,0.6339335,0.7899215,1.3214265,1.4595528,0.7551376,0.2515643,0.20972387,0.61335516,0.63906616,0.12002537,0.7997895,-0.305082,0.96060926,-0.22724152,0.73779964,0.13243961,0.49727598,-0.5034464,-0.9394656,0.79746026,-0.16373353,-0.35600653,-0.27982083,-0.89187896,0.15149263,-0.92412657,-0.2055136,-0.38675204,0.13596626,-1.1015396,-0.3778102,-0.19858542,-0.69650626,0.9420409,-0.17935029,0.27650174,0.24149938,0.66387206,-0.08276449,0.3868856,0.51083064,-0.52591383,-0.23647404,0.8133918,0.7597577,-0.3022306,-0.8378462,0.9541825,-0.9000953,0.65279555,0.7870909,0.1968729,-0.92756695,0.72025496,0.5225346,0.061852768,0.12646152,-0.010517935,0.23250096,0.6113825,0.4116717,-0.38604504,-0.3964367,0.33665588,0.76452935,-0.78073525,0.28058514,-0.69010794,0.56829095,0.54992986,-0.87462795,0.970546,-0.3303943,-0.6766516,0.57956475,-0.26663426,0.9685059,-0.17604493,-0.9051862,0.1750352,1.1899936,-0.1750153,1.0142406,0.1778858,-0.24271558,0.2920029,0.5034702,0.1797266,-0.5074608,0.45473716,-0.2242823,0.07461845,-0.63192964,-0.9417576,0.024873847,-0.81950104,0.26430762,-0.44009686,0.089068174,0.053909898,-0.19395196,-0.0046175723,-0.36786756,-0.7504813,-0.4523934,0.40582314,0.41053075,-0.2268292,0.61651045,-0.4240583,0.4882414,1.2313248,1.1215745,0.6390313,0.32158262,0.10454028,-0.4683238,0.93911904,0.81690824,0.992674,-0.16811852,-0.4517194,0.38861454,-0.13498712,-0.40722227,-0.5264634,0.16402483,0.77524936,-0.14462388,-0.816164,-0.59990615,-0.20080268,-0.44740158,0.1469693,0.044986814,0.58706445,-0.8268015,0.988362,0.59990925,-0.8141071,-0.38204724,-0.87236875,0.085506134,0.58783174,-0.72424275,0.8609772,-0.59422696,-0.7768828,-0.2852308,0.028849145,0.9020628,-0.29833746,0.39556444,0.620409],"bias":3.485394},{"activation":7.390184e-15,"weights":[-0.04528463,-0.40038824,0.72029376,-0.76727164,-0.5931783,0.41755545,-0.8169706,0.0027147532,-0.2858771,-0.2776338,-0.7774335,0.48730266,-0.12722671,-0.2383431,-0.63919914,0.50100946,0.7759191,0.9104185,0.8734729,0.79995584,-0.54930043,0.58008623,-0.2500099,0.14376223,-0.37689328,0.6293434,-0.5330937,0.021718621,-0.83471906,0.6723702,-0.34837127,-0.21659303,-0.9419776,-0.3735125,-0.5073283,0.09903823,0.75885093,0.7499778,0.7339462,0.6009024,-0.9033233,-0.012683539,0.36736268,0.55857503,-0.5986228,0.5554395,-0.05898569,0.29012886,-0.5392845,-0.9988615,0.002281156,0.83278906,-0.040486097,-0.11804104,-0.4390998,-0.73845196,0.6192609,0.03985536,0.64557314,0.8545686,0.70121163,0.5533819,-0.4811542,0.21098697,0.49506438,-0.017602876,1.089477,-0.7226257,-0.7856678,0.9802271,1.1595327,0.9249699,0.8158798,1.014833,-0.86570185,0.058525793,0.84988654,-0.43615577,-0.9622492,-0.3159006,0.43514848,-0.24937809,0.05750537,-0.11808944,0.5785551,-0.094605446,-0.017013073,0.12155604,-0.8064948,0.9304402,-0.4454909,0.80243075,0.2903849,0.16101553,0.7878373,0.6998863,-0.5852304,-0.1452229,1.0636536,0.5643088,1.0862434,0.8949872,-0.4883387,-0.62746394,-0.37533632,0.1536656,0.86031437,-0.1266118,-0.9224666,-0.60498095,0.7978768,0.19679749,0.83419144,-0.2975841,-0.5842661,-0.1847121,-0.3374452,0.05105193,-0.7509602,0.18098433,0.20081969,0.9302013,0.033726837,0.44216427,0.50208116,0.14891757,0.5975477,0.30725554,0.4972706,0.24815501,-0.21494481,-0.8914996,0.62800324,0.7489376,0.35935244,0.8190197,-0.7738958,0.72421,-0.8149876,0.62670946,0.012868524,-0.529904,-0.8244853,0.4627551,0.84023184,-0.46910882,0.0028889019,0.14523485,0.60414106,0.19096044,-0.40405712,0.76809305,0.58037734,1.3389472,1.347454,1.630202,0.69445324,0.43448702,1.8793207,-0.5668337,-0.5151937,0.9366828,-0.3164269,0.9736986,0.41520154,0.3703845,0.2185729,0.16898897,0.28465223,-0.973122,0.20913686,0.27414903,-0.7643555,0.21261701,0.63824314,-0.7162902,0.8561814,1.1548357,0.016342154,0.06727959,0.8566677,1.2308424,-0.18780537,0.8765722,0.5978597,0.5994186,1.0312752,-0.54868907,-0.19348246,1.5323625,0.15598768,0.24065039,-0.44599757,-0.5769854,0.103356235,-0.13019462,0.6697995,-0.9452895,0.079638064,0.56939536,0.32566828,0.3352395,-0.85160595,-0.67511433,-0.7365922,0.07051599,-0.19344175,-0.58649325,-0.38863158,-0.94120765,-0.16426347,-1.1200253,0.0043262555,-0.6567311,-0.7312217,-0.05619337,-0.4939998,0.5155417,0.9338916,-0.61397076,0.11395653,0.35226354,-0.7936267,-0.87063557,-0.15832776,-0.13069975,-0.5930517,-0.9878024,-0.8045258,0.33564115,0.514344,-0.003672059,-0.6835917,0.071043134,0.6208925,0.108831264,-0.91106224,-1.8190876,-1.3536712,-0.54191643,-0.24072582,-0.4402302,0.27303416,0.55038947,0.67161894,-0.33407187,-0.2719269,1.0757561,0.5271308,0.058688696,-0.22350542,0.32529286,0.19061153,-0.7338102,0.8234866,-0.20198111,-1.4368337,-1.0735711,-0.54724133,0.19355814,-0.054987036,0.20215407,-0.2477638,-0.9378575,0.088321194,0.14902595,-0.21301985,-1.8112329,-1.0499924,-1.9151171,-1.1923112,-1.4826418,-0.6736661,-0.79611826,-1.1049143,0.3178971,-0.3729134,-1.3399256,-1.0815357,0.9577308,-0.24881087,-0.55541563,-0.9425619,-1.1532999,-0.061898,-0.3839256,0.021655597,-0.38671163,0.406693,0.0038308983,-0.08448496,0.7796712,0.30458453,-0.47888967,-0.3724023,-2.2060149,-2.1841075,-1.61752,-2.651366,-1.3107044,-0.87955743,0.61047685,-0.5681469,1.3227886,1.0904087,-0.8572157,-0.37583175,0.15300833,0.5107982,0.37404573,0.82993734,0.4906893,-0.9238611,0.1877444,-0.59494776,-0.2774114,-0.8096317,-0.95574355,-0.7641217,-0.98296064,-0.9062559,-1.8187,-1.5020052,-2.149157,-2.2272873,-1.4592863,-1.8207067,-1.4817666,-0.68189055,0.6732894,0.06336747,1.2126288,1.2865005,-0.66322064,0.24636222,-0.7419775,-0.43612194,0.49196506,0.6800646,-0.14576167,0.42158696,-1.0991343,-0.29879814,-1.3423928,-1.0530347,-0.6093412,-0.16795473,-0.39310184,-0.8533985,-0.42215607,-2.0611808,-0.17887256,-1.9306425,-1.9411703,-1.03734,-0.44555634,-0.60303944,0.7716853,0.61849445,0.10530652,-0.17951341,-0.9404548,-0.52666396,0.8723392,0.1573726,0.3322303,0.038004752,-0.9531225,-0.7360252,0.09133313,-0.08433009,-0.60359836,-0.04522215,0.28985596,0.51711494,0.1685933,-1.3333114,-2.0681574,-1.9963602,-0.38290817,-0.16346794,-0.57055473,-0.16367602,-0.4626301,0.82926476,-0.34899214,0.45853803,0.42586803,0.56418234,0.71006835,0.67890763,-0.7792742,0.74817675,-0.8496898,-0.8047838,-0.07002015,-0.06305523,-0.31425363,0.54904956,0.3646702,0.29608193,1.5860637,1.7894349,1.639493,-0.6693076,-1.4453421,-0.28533784,-1.4057282,-0.34702742,-0.4894882,-1.1283582,0.060455386,-0.96651256,0.48615423,-0.058200836,-0.016473494,-0.14376144,0.24583583,0.40395045,-0.5225035,0.5695745,0.3818639,0.43003088,-0.51224905,0.8434371,0.58388245,-0.09263059,-0.40684217,0.5504151,0.7301989,0.8553058,0.8171993,0.5747953,0.5311733,-0.73079354,-0.81144637,-0.54528296,-0.70680594,-1.1365291,0.6456495,0.6649807,-1.0403672,0.08928233,0.859973,0.9608455,-0.8181697,-0.8881713,-0.045175772,0.39593315,0.6495396,0.93743795,-0.93265253,-0.14305137,0.46253958,0.76428986,1.9798021,1.8681487,1.421901,0.6258959,0.095292315,0.5489707,-0.23186511,0.2312625,0.18327884,-1.3329315,-0.69385725,-0.5538544,0.22944866,-0.3677912,0.3524011,0.6967302,-0.8577213,0.40764868,-0.38317165,-0.7570765,0.5917536,0.57295585,0.8308876,-0.8003994,0.3355764,-0.17606728,-0.28358215,1.8240415,1.1841096,1.3114934,2.142382,1.4171829,-0.38852978,-0.70643944,-0.87033623,-0.122015946,-0.25450024,0.20655845,-0.3733879,-0.13936053,0.50708866,1.1304787,0.8375215,-0.7022229,0.9189739,-0.12672055,0.43569803,0.6030472,0.2583234,-0.62808836,-0.6548598,0.8577213,0.37844968,0.500698,1.2027334,2.0642927,2.397961,2.8106444,1.9731507,1.8724536,1.2826926,1.4013388,-0.49996588,-0.086031824,-0.009865602,0.7150829,1.574336,0.88491243,0.015528914,1.2402834,-0.40905887,-0.344079,0.6264572,0.0022468634,0.8888954,-0.99569964,-0.08417708,0.5201825,-0.7701154,0.8734853,-0.6787821,0.10260803,0.0072240364,0.8198,2.0183365,2.1506314,1.1179361,1.6831089,1.8947009,0.9824661,0.9368362,-0.3516904,-0.05554773,1.274965,1.346289,0.6968532,1.0141281,0.36845872,-0.3201382,0.7538244,0.9535732,0.6014246,-0.31635487,-0.2925552,0.365135,0.07693136,0.09354579,0.5543287,-0.64746624,-0.6874887,0.3479801,-0.13601695,0.9817816,0.41711724,1.1748437,0.62916994,0.72596645,1.9912035,-0.27415988,-1.00229,0.5072735,0.9917294,1.3213402,0.9219638,0.95365936,0.5898283,0.6689907,0.73648643,0.23474339,0.27057624,-0.62689245,0.6106299,0.80806553,-0.44962335,0.47141474,-0.67878497,0.72047085,-0.3418602,0.2030183,-0.46365237,-0.18178944,0.19750386,0.1560814,0.4219622,1.0813663,-0.14328767,0.16241732,-0.58601433,1.5399151,1.9665064,-0.21694382,-0.5509826,0.9691659,0.036114763,0.9692302,0.507891,0.2972534,-0.027224036,-0.20772216,0.07093148,0.2912936,0.004184248,0.71765685,-0.79666495,0.36873844,-0.1663206,-0.24662064,-0.31892914,0.2421609,-0.99855906,-1.0437552,-0.41057333,0.24169081,-0.57235736,-0.78641444,0.6410499,-0.26462674,-1.0003301,0.42988154,0.24250071,0.28094465,-0.03742201,0.9406742,-0.5898665,0.8735895,0.79315364,0.88864994,-0.6220066,0.08174315,0.092959166,0.23079896,0.08831975,-0.7848395,-0.38576362,-0.23035428,0.27495432,0.29143134,-0.62935627,0.2842128,-0.26411974,0.9378018,-0.26516122,-0.47659492,-0.658714,0.8907768,-1.1104461,-0.7868911,-0.24343538,-0.2466243,0.7206609,0.42986584,0.7570924,-0.61410266,-0.20348474,-0.9069048,0.7455134,-0.48386562,-0.45661592,-0.8717507,-0.57292235,0.81887907,-0.29269335,-0.48368213,0.69285417,-0.6489333,-0.21036774,0.55096185,0.12406408,0.100717135,-0.11128298,-0.055075,0.66042185,-0.6197155,-0.7160062,-1.1590974,0.4271324,0.61896944,-0.27453488,0.8214382,-0.38588533,0.33695206,-0.3603648,0.8264465,-0.48210648,0.64844394,-0.22197747,-0.054750204,-0.4845535,0.42627692,0.0761451,0.15530273,-0.57401514,0.38535553,0.18041845,-0.9042718,-0.9427548,-1.2583092,0.074061155,-1.8940282,-1.8017884,-0.4438494,-0.112787805,-0.7308442,-0.34839597,0.13665855,-0.50941104,-0.9199503,-0.73315173,0.3814102,-0.85824114,0.61915725,0.8232658,-0.25032854,-0.7298231,0.12837481,0.10295284,0.0060055833,0.85885423,0.12929024,-0.92030257,0.5038521,-0.05422072,0.4269197,-0.42285284,-0.43959203,-1.0071851,0.28823286,-0.40283877,0.084877886,-0.9791689,0.014551716,-1.1019647,-0.60079753,-0.6311145,-0.98697996,-0.6541393,-0.22835523,0.6014947,0.6649959,-0.2696401,0.3410946,-0.43961155,0.29471147,-0.17788863,0.94941604,-0.016572287,0.50753117,0.74738795,-0.878503,-0.010763999,0.22008578,-0.040420823,-0.11028226,-0.10094201,0.4655853,-0.029447999,-0.3131512,0.7902578,0.6106404,0.78073275,-0.5257776,-0.26119685,-0.08880881,0.25786924,0.36232767,0.904832,0.7554884,-0.77744925,0.38784444],"bias":-1.3094233},{"activation":2.4388307e-13,"weights":[0.8634733,0.6759014,0.54516006,-0.15125716,0.83550346,0.4690069,0.77575386,0.7893958,-0.9771713,-0.7150973,-0.80958724,0.5316998,0.7698539,0.5097503,-0.85584366,0.12068867,0.9794868,-0.6956905,-0.26447284,0.39225078,-0.70867324,0.29631555,-0.8899251,-0.028108835,0.8680334,-0.039358616,-0.9073608,-0.9035866,-0.106775165,0.7920195,0.13506675,-0.81944644,-0.24616766,-0.85169625,-0.18986228,0.877133,0.1467969,0.46704197,0.3032305,0.7283711,1.0328279,0.6501677,-0.2130803,-0.06647208,-0.64195746,0.0098071955,-0.055293348,0.48517647,0.9753735,0.19236036,0.24761085,0.71656936,-0.4140991,0.70600593,0.39502776,-0.41225886,0.8073684,0.37040496,-0.35520145,0.343112,0.15262116,-0.93447804,0.10067857,-0.86451536,0.5289082,-0.08342003,0.05944839,0.089321375,0.37752402,0.92418617,0.018615011,-0.06946287,0.7283191,0.85449356,-0.18555255,-0.06552293,0.4662898,0.66178566,-0.11493209,-0.35940632,-0.55619043,0.16926444,0.069154024,-0.87097836,0.020804644,-0.7357819,-0.79179436,-0.671972,-0.71670485,0.21321075,-0.26727456,0.7213765,-0.44240564,-0.08192456,0.10246858,0.14706177,1.0997417,0.35827854,1.3556231,1.6934959,0.99580127,0.5317174,0.58839744,0.550204,0.029008761,-0.020649303,0.934489,-0.2692816,0.7174333,-0.61196214,0.40497994,0.36271155,0.26157844,-0.03510785,0.44703162,0.9015758,0.9626902,-0.35568827,0.08385188,-0.477284,-0.6277972,0.50789636,0.26540613,-0.8072361,-0.17709953,1.8718375,0.9833425,1.40863,0.4362314,0.43859726,1.4973516,0.94023186,-0.7986727,0.62735134,-0.7098503,0.6676375,0.4094857,-0.14203596,0.7367649,-0.7709627,0.8980993,0.49902356,0.7082843,0.9642552,0.56624836,0.45757106,-0.35249826,-1.1820343,-0.4074923,-0.48077145,0.0037496965,0.119150236,0.48445147,0.948896,-0.66512704,0.15503612,-0.37776613,0.05295501,0.4813955,-0.2059279,-0.7831445,-0.39302677,-0.43208978,0.0882808,-0.42311236,-0.27373305,-0.39019954,0.6488092,-0.90825987,0.28688133,-0.8423392,-0.36489373,0.5046286,-0.0066289986,-0.31977096,-1.4310634,-0.6968096,-0.6598806,-0.4359106,0.72869575,0.36625427,0.26088086,-0.87966,0.23874044,-0.074608155,-2.0007517,-0.6105637,-1.3275257,-0.5755129,-0.9667706,-0.8042965,-1.9646755,-1.7306292,-0.97748077,-0.56852794,0.13421838,-0.18788715,0.7501955,-0.52668595,-0.9920665,-0.8537787,0.56151325,-1.2876121,0.15963672,0.19287997,-0.91062903,-0.05033486,0.6105231,0.8220759,0.4481215,-1.1329621,-0.67939514,-1.14241,-1.3086642,-1.124928,-0.49532524,-0.19132194,-1.0711579,-0.571361,-1.2764363,-0.624192,0.25020063,-1.0210553,0.107731946,0.20552956,0.9786433,-0.65624064,0.42641923,-0.24762763,0.29493812,0.4254065,-0.46827778,0.49447557,1.0133129,0.5193556,-0.21875112,-0.32629582,-0.60827756,1.0499035,-0.117999285,-1.003883,-0.60935086,-1.0403192,-0.24865021,0.229551,0.002552658,-1.0489734,-1.1980442,0.061712913,-1.4741455,-0.8628336,0.6049492,-0.58438325,-0.8785467,0.79568136,-0.56081855,0.90996516,-0.63001233,-0.5607368,1.0944847,0.26427886,-0.3207184,-0.011323149,1.7146657,2.416641,1.3481634,0.7827011,-0.2979023,-0.49229893,0.24878755,-0.015781838,0.016327666,0.12769607,0.22232088,0.73309046,0.8922367,-0.41524425,-0.37411946,0.19488434,-0.7364632,-0.8813682,0.89934194,-0.744936,0.78549373,0.9385964,0.16986664,0.20856737,-0.48837915,0.18337134,0.50800157,-0.29089037,1.2620363,1.5347533,0.35196424,-0.4975356,-0.41119558,-1.1330701,-0.6904481,0.41430467,-0.3937202,0.5956217,1.615617,1.8792132,1.7682348,-0.17255895,-1.1632872,-0.66839623,0.7871342,0.045878947,0.06850326,-0.61225295,-0.22596066,-0.024011746,-0.8406238,-0.24727702,0.4726141,-0.6811818,-1.0565852,-0.24220024,1.2495697,0.14347729,0.3881498,-1.4443253,-2.1165905,-1.3858122,-1.1350963,0.36238778,-0.516153,1.008605,2.1668658,0.9728334,1.8874537,-0.14784472,-0.9653486,-0.1104194,0.23787108,-0.70422435,0.2107473,-0.015748974,-0.19474073,-0.06313632,0.14594504,-0.01066895,0.14902353,0.004078814,-1.1135653,0.7669005,1.796267,0.58187264,-1.710888,-1.4966204,-1.2822237,-0.39143628,-0.37107104,-1.1175268,0.55032915,1.3171747,2.6979551,1.2940229,2.826479,1.2956754,-0.8840626,-0.48211142,-0.003586219,0.27105677,0.43796661,-0.3616735,0.35841626,-0.05240844,0.7666435,-0.23516902,0.32063958,0.20865926,0.56246483,0.94820625,0.17983872,-0.11450834,-1.5649785,-1.0903372,-1.4799407,-0.10996277,-0.6048354,-1.1092308,0.5131372,1.0592334,2.4095042,1.7354132,1.6516074,0.9707496,0.34508413,-0.83495176,0.27361915,-0.06727086,0.0030062976,-0.7414347,-0.88132215,0.3486642,-0.13935545,0.2323989,1.3428224,-0.17358434,0.2251046,-0.0007740867,0.18805335,-1.9501742,-1.5826172,-1.8920217,-0.6020101,-1.9167746,-0.78657264,-0.77159375,1.1933784,1.9168884,1.2083315,2.6523516,1.7945267,0.9971538,0.6204046,-0.5536285,0.88499403,-0.44328302,0.484565,-0.76554716,-0.28482062,0.10416409,0.8991441,0.8484185,1.172061,-0.12597273,2.3203073,0.46948653,0.018328823,-1.9838511,-1.9772342,-1.1219697,-1.8383918,-1.7855669,-0.37462237,1.2186226,-0.13891272,1.6324865,0.89601123,1.0406153,1.1371119,0.3410488,-0.68463403,-0.55931556,0.4932186,-0.23976557,-0.6480877,-0.9301537,-0.32523042,-1.2850854,0.031861022,0.85499245,0.48635742,0.8643218,0.3387329,0.36328727,-0.263716,-2.2295382,-2.315424,-0.74573696,-3.093954,-2.0848227,-1.9342736,1.088451,0.83967197,1.5609959,1.5392541,0.08650024,0.1071089,0.49551666,0.84508944,-0.55563676,0.4678761,0.47662675,0.8472935,0.7634449,-0.397214,0.8234041,0.8049802,1.158951,1.2305256,1.441762,1.0657947,0.99743116,1.0859951,-0.21111831,-0.91513425,-1.016375,-1.6560812,-1.9437996,-1.0134996,0.3050596,0.5321638,1.5229048,-0.124219485,1.5492616,1.2644166,-0.37949783,0.16537727,0.4211292,0.91079295,-0.29684153,-0.71687156,-0.79416925,0.3717655,0.14788769,-0.14006671,1.4330393,1.2850217,0.8175451,1.4176816,1.9678475,0.90911824,0.31775618,0.86798,-0.89747185,-0.3168458,-0.7839257,-0.4937721,0.26783848,1.1248897,0.9256175,0.5258115,0.87853533,0.2852209,-0.29875135,-0.83273476,0.26751742,-0.986959,0.8182875,0.65192944,-0.3843515,-0.6237356,-0.26412803,0.6820358,0.20526996,1.1361352,1.5458769,1.5686104,0.83294904,1.1009294,1.8755907,0.84814686,1.0634011,0.58607477,1.2408735,1.1062375,0.8660468,-0.358322,0.5251186,0.2589101,0.1968045,-0.095407315,-1.0217448,0.36537826,-0.11686558,-0.70827025,0.44097137,0.079778835,0.8139064,-1.0533677,-0.87056816,0.9102374,-0.20219944,0.58044624,0.33386248,0.26526523,0.6821621,2.3279073,2.099775,0.8982027,1.210279,1.7662213,1.6140025,0.44077235,-0.19106829,-1.2249444,0.0015192927,-0.61388564,0.28399768,-0.09223191,-1.1605849,-0.26771653,0.6854594,0.6204894,-0.058243155,-0.5448507,-0.1850055,0.6986242,-0.5574853,0.22064614,0.4167384,-1.0234578,0.059001572,-0.77617085,0.957737,-0.04398106,1.3799988,-0.09741548,0.78524727,0.80591726,0.91281444,1.3483614,0.31516787,-1.5648427,0.39095548,0.12750748,-1.097084,-1.1902987,0.32715037,0.20925967,0.43693638,-0.8506042,0.29334414,-0.9289519,0.6902484,0.085780114,-1.1042327,0.32985473,0.34535155,-0.8631886,0.6960552,-0.70373523,-0.3162571,-0.5247062,-0.08900543,-0.6111921,-0.5053064,0.7936167,-0.5678664,0.68175554,-0.22296888,-0.93369764,-1.25208,0.3165122,-0.19060631,0.41938272,0.065824986,0.96263236,-0.8394921,-0.7694702,-0.5006604,-0.3607936,-0.8291913,0.58681095,-0.16577885,0.42005995,-0.08341863,0.8555018,-0.43208784,0.017857475,1.1662387,0.234373,-0.38483122,0.3295194,0.22927772,-0.8052677,0.5323949,-0.8977407,-0.6671379,-1.4980823,0.3513814,-1.0252625,-0.15727544,0.16203418,0.78022224,-0.67040014,-0.74429256,-0.016729355,0.13592863,0.263335,0.12499437,-0.95053047,0.50348234,0.5892698,0.46743748,0.746006,0.74917775,0.83134663,0.0070405155,-1.5608925,-1.1225927,0.9883338,1.6802286,1.5622224,0.40612802,-0.6153931,-0.8954574,-1.4120393,-0.8693322,-0.56035256,0.56844324,-0.93016285,0.8141062,-0.13407086,-0.30655733,-0.9874197,-0.84828115,-0.76870525,-0.1811555,0.31468922,-0.01934575,0.4947828,0.04295588,-0.4472916,0.40446395,-0.60138035,0.068284914,0.40574163,0.5691849,0.8278916,0.45206624,-0.4206824,0.281482,-0.49306053,0.2583155,-0.30954692,-0.5688283,0.7882226,0.387533,-0.07947743,-0.82906204,0.21985602,0.48595053,-0.49680948,-0.4578867,-0.49127424,-0.9366088,-0.7092456,-0.87873274,-0.08101769,-0.891935,0.10239874,-0.29613298,0.3983607,-1.0335116,-0.6643471,-0.85356104,0.9343373,-0.33988607,-0.3924236,0.6257552,-0.21073523,-0.2620991,-0.45557773,0.124977574,0.96663874,-0.09878531,-0.213894,0.19379199,-0.87451816,0.96271133,0.031144261,-0.21587014,-0.9235176,-0.24619246,0.26044607,0.7302116,0.5456124,0.67808384,-0.4571135,0.72769105,-0.67136866,0.40174693,-0.55021,1.0092903,-0.42230508,0.48527452,0.19172777,-0.5095046,0.97862524,-0.8609755,0.1409387,0.79118645,-0.88809806,0.99740213,-0.7309392,-0.5348358,-0.163306,-0.001832962,-0.9922116],"bias":-0.35063797},{"activation":1.0,"weights":[-0.46641946,0.99988353,0.16335964,-0.28324664,0.7478825,-0.79474175,-0.20026839,-0.18054247,-0.05326736,0.64743185,0.5350454,-0.73688173,-0.4701937,0.3638589,0.20232546,0.40894735,0.4413259,0.5522895,-0.9806081,-0.57224846,-0.50557137,0.5015925,-0.12843907,0.20966351,-0.20003152,-0.7354932,0.7036511,-0.18698418,0.4522611,0.10855818,-0.21797466,-0.8272698,-0.86348784,-0.019281864,0.12639093,-0.82673,-0.06647766,-0.044789787,0.21004201,-0.7527008,-0.3650892,-0.4814964,-0.89004415,0.24145536,0.043908335,-0.80788064,-0.54663897,0.1258648,-0.78844434,-0.54830897,0.4049521,-0.23466572,0.851879,0.60330725,-0.27695763,-0.63624847,0.8208064,-0.6958499,0.1484369,-0.73144436,-0.3692227,-0.9560641,-0.5692847,0.13295193,-0.53243876,-0.21788394,-0.032275975,-0.64289325,0.39387435,-0.34631345,-0.6415599,0.27554417,0.8490396,-0.12651616,-0.9728186,0.45600098,-0.48353508,-1.0318633,0.31405947,-0.37407708,-0.52786803,0.7567779,0.61181486,-0.3788879,-0.6687001,-0.33579266,-0.2570442,-0.004461362,0.03390058,0.26545712,0.2765762,0.6388088,-0.3615881,0.104058795,-1.1205649,0.77266675,-0.5293214,0.33456692,-0.44424984,-0.31236994,0.5571579,-0.7257313,-0.21271469,-1.0045161,-0.24667013,0.19817825,-0.17889155,-0.61962,-0.5441754,0.23435014,-0.59844565,-0.51136506,-0.06188643,0.7961663,-0.21340299,-0.5065622,0.77165383,-0.5160758,-0.67358744,0.39785966,0.531132,-0.36747193,-0.04399749,-0.0043771076,0.38910884,0.111524306,1.7369591,2.257995,-0.051610176,0.48563838,-0.36756703,0.73044497,0.7807411,0.9823947,-0.45805117,-0.3201272,-0.6705598,0.36519545,0.22744644,0.97503304,0.7995627,-0.54999065,-0.24899808,0.38029218,-0.87296146,0.29255968,0.6709747,0.109627604,-0.41555792,-1.2026715,-1.2077298,0.579619,0.7314076,3.4418867,4.104401,2.8309827,1.8434746,1.5735977,1.6325588,1.4334526,-0.02099144,0.9561509,0.073508024,0.6933525,-0.41415158,-0.19577272,0.9837501,-0.96361566,0.80218065,-0.73199606,0.8925637,0.5155844,0.52628016,-0.5847722,0.7481435,-0.50418967,0.041794293,-0.7741007,1.1399239,1.5559312,2.2149527,3.6277788,4.1491194,1.4758432,3.6827657,1.1239592,1.5195715,1.0200213,-0.28299722,-0.67903066,0.65867984,0.105293415,-0.17725858,0.09858474,0.2306438,0.82759213,0.30943057,0.3297168,-0.08827175,-0.9528244,-0.458106,-1.3569942,-1.1832509,-1.0432502,-1.7395327,-0.8590223,-1.139529,-0.24366137,0.50422597,2.641761,3.695136,1.1987462,1.5124738,1.1377255,1.0566853,0.09996271,-0.6360977,0.566958,0.16740993,0.12240165,0.32768896,1.024585,0.33633044,-0.21652304,-0.9718519,0.22238539,-0.06168858,0.02399103,-0.80212003,-1.8021698,-1.3332108,-0.886487,-1.3083566,-2.4672232,-3.3071043,-2.037492,-3.1007016,-0.2918798,-0.1968431,-2.5160837,-2.7656252,-2.9357507,-1.8116312,-1.8562046,-1.1060888,-1.220652,-0.081748135,0.5361724,-0.2986141,1.1071087,0.79353327,0.17604582,-0.26374698,0.6854771,-1.3621527,-1.6970162,-0.78154755,-0.8970817,-1.6211329,-1.9645518,-2.9060605,-3.3294005,-1.6395345,-2.4746835,-2.9657707,0.18622999,-0.965565,-1.5052491,-3.1486235,-2.7594955,-2.8820877,-2.933636,-1.6739526,-1.3528455,-0.7215943,-0.43120584,1.467874,0.27579084,-0.59413815,0.15632653,-0.50438607,-0.6353689,-0.15161814,0.15528865,0.17930423,0.18511726,-1.3176987,-0.08782052,-2.4225268,-0.45073912,-2.2931855,-2.8515868,-2.7872744,-1.0612582,0.81228644,1.6894696,-1.8506229,-2.1221552,-1.1618482,-0.5929363,-1.4873459,-1.4207559,-1.0198703,1.3054553,0.7046385,0.7046275,0.41144264,-0.77141356,-0.18577401,0.1648527,0.55806625,0.3316897,0.66859645,-0.10444365,-0.079852514,-1.1897584,-1.2689058,-0.76367795,-1.6602312,-1.1337688,-1.4309038,0.7973778,3.6966813,2.6255085,-1.6836704,-2.1847763,-1.5134205,-1.9438163,-2.5411267,-2.7397075,-1.9008404,-0.48017153,1.0473084,-0.36860222,-1.0013304,-0.9440833,0.9244317,-0.62166315,0.83384025,0.02947262,-0.6066902,0.69795257,0.41775677,-0.43144184,0.4048829,-0.009497954,0.3075306,1.161619,1.9478687,3.6838233,6.2371593,3.0567794,-1.9501753,-2.6031573,-1.5950028,-1.5301983,-1.7377646,-3.2362187,-0.65668815,-1.2236978,0.52240026,0.14182776,-1.0029938,-0.7426314,0.8859594,0.61234087,-0.6728713,0.4595401,-0.3360041,-1.200698,0.25121203,-0.24385892,0.17864527,0.87650466,0.40887552,1.7956277,3.7229717,5.271699,5.8670225,1.295135,-2.5351994,-3.21086,-1.204394,-1.6477535,-0.633117,-1.3598626,-0.38666847,-1.8870147,-0.002617148,-0.97576725,-0.5378112,-0.63404983,-0.25449765,-0.08015714,0.43658695,0.087171175,-0.3144578,-0.2569879,0.53286904,-0.40424308,-0.7530871,1.5470451,2.3902287,2.4248269,1.8867394,4.886247,5.4852705,0.66896605,-0.8524162,-1.1995085,-0.6800349,-0.45128182,-1.4745666,-1.0021385,-0.16414946,-0.18010601,0.0079146195,-0.15243648,-0.29319918,0.6039029,-0.90777874,0.3747201,-0.6431652,-0.2672907,0.7403248,-0.91847056,-0.05623525,0.5676519,0.7244857,1.5130816,1.99881,2.262793,3.6212904,4.8838534,2.100997,1.5489393,-1.6777949,0.020469533,-0.7189554,-2.3055289,-1.516894,1.2034019,-1.3606308,-0.61390585,-1.145654,0.51095074,-0.29400417,0.94488996,-0.47313356,-0.4794551,0.85058093,-0.7705655,-0.32979912,-1.1365904,-2.468166,-0.13270587,0.54059076,1.8857563,2.6453521,2.2003503,3.307065,2.500195,2.1353552,0.7813289,-1.7424778,-0.07868637,1.1489669,-1.5858704,-1.4587878,-0.572342,-0.21645519,-1.4536626,-0.06683448,-0.050293252,1.0001343,-0.3554505,0.91617525,0.6741319,-0.88739604,0.42621487,0.43986556,-0.5735739,-1.9602525,-0.30237168,-1.0372607,1.7099721,1.9562312,1.6730677,1.2471802,2.1939337,0.5276175,-1.4200466,-3.1444612,0.7594122,-1.122812,-1.2380228,-1.1482929,0.22722821,0.23876406,-1.5220988,-0.58248717,-0.422384,-0.04074787,0.0443271,0.32805705,0.6054457,0.96137017,0.15905595,-0.94562995,-0.27071014,-0.031405225,0.43407127,-1.0597634,0.2426402,0.91910136,1.0913873,0.14669348,-0.7892244,-1.8004427,-3.4613373,-1.4111079,-0.61718947,0.66904396,0.14758609,1.2166663,0.6875414,0.43864572,0.301371,0.75466436,-0.55288386,0.18282235,-0.6562439,-0.76274085,0.93164456,-0.2367085,0.007051778,0.9489244,-0.2407349,-0.60574806,0.90321153,1.1941711,-0.6310612,-0.48536226,-1.4165593,-0.84647167,-2.2912207,-2.803573,-1.4115452,1.0168136,1.1199337,1.5503683,0.61500245,1.7747383,0.60478896,-0.41511542,-0.17419554,0.029297356,-0.016390173,-0.50421196,-0.49310374,-0.71077895,-0.96840763,-0.81561387,0.6842479,0.76912093,1.0323839,0.058850132,0.98355675,1.3149115,0.5780366,-0.8150624,0.03938738,-1.1083426,-1.7369754,-2.7686548,0.6404973,1.1781763,1.9159735,2.5936189,2.7311556,0.71379685,0.042282127,1.2720658,0.4035987,0.8682204,0.3957692,0.6998096,0.09113002,-0.717191,0.47589907,-0.7337969,0.70674974,0.7365075,1.0960474,1.4295515,1.3560939,-0.27171224,0.06882748,0.30832577,-0.05136124,-1.0642694,-0.78926474,-0.4051592,2.0391634,2.2133844,1.6554734,1.7453175,1.5367417,1.445552,-0.6260171,0.58859855,-0.8174643,0.7264399,1.2366621,-0.2121837,0.044767022,0.40013397,0.28450477,0.88446015,0.09777759,0.5087827,-0.5012173,0.7741439,1.0838645,-0.77654195,1.2126551,0.9820896,-0.19037181,1.1937958,-0.68086195,1.7615478,1.9956003,1.5423851,1.2086701,1.1114795,-0.6117622,1.108395,-0.23904635,-0.25845668,-0.53332436,0.07993463,-0.15538283,0.17586422,-0.4531672,0.1121577,0.055375814,-0.98666203,0.715198,-0.61233014,0.6880149,-0.023156635,-1.2625631,0.04207842,0.4829299,1.399728,0.09169831,0.43284398,0.38246572,1.8318802,1.2495686,0.36571,-1.123477,-0.47629717,0.30497655,0.7795978,0.719931,0.3393505,0.14295575,0.23198251,1.0288025,0.54147494,0.47105873,0.47750604,0.4252367,-1.082304,0.2549725,-0.64026755,-0.46760786,-0.73979735,-0.41116244,0.76551443,1.3569515,-0.3684634,-1.3673345,-0.023035735,-1.6462684,-0.43277666,-1.3444164,-0.15321395,-0.23802476,-0.094340764,0.3196678,0.061714537,0.4799156,0.4595172,-0.52807295,0.07963973,-0.14532925,-0.93087626,0.28749764,-0.36337745,-0.59610796,0.9785671,-0.30651718,-0.4341069,-1.1008631,-0.92552936,-0.06497503,0.5374098,-0.0031485965,-1.7624664,-2.5113544,-3.2079122,-2.8459816,-1.831443,-1.678383,-0.14302182,-0.37984338,0.12677565,0.7562537,0.11645089,-0.38161084,-0.49690083,-0.20979938,0.05667182,-0.17763527,0.19189095,0.42181575,-0.06582749,-0.46877503,0.50196743,0.46380723,0.3248859,-0.80705905,0.6225684,0.6968835,0.25560805,-0.8126292,-1.9750198,-1.8077699,-1.3076371,-1.0445547,-0.7933816,-0.5107117,-0.37362382,-1.0130135,-1.911047,0.030412642,-0.814301,0.39230976,0.20490463,-0.8651477,0.035241723,0.5756351,-0.2904606,0.20077097,-0.82477784,0.655506,-0.7374034,-0.8383554,0.19039667,0.8843203,-0.87044054,-0.6225863,-0.2579592,-0.6613827,-0.3245016,0.25150055,-0.19813669,-0.8214169,-0.44403353,0.13287266,0.714217,-0.29236394,-1.3144315,-0.24616165,0.56960547,-0.68218106,-0.42259482,0.54570657,0.21024537,0.40434194,-0.67993486,-0.60832417],"bias":1.6662748},{"activation":1.0,"weights":[0.9889529,0.905509,0.5626402,0.96372926,0.4358858,0.80240846,-0.8398503,-0.44154227,-0.79934037,-0.95173776,0.6942171,0.69350207,-0.81339467,0.8497786,-0.1700385,-0.89763576,-0.753767,-0.7822007,-0.2901889,0.64432645,0.58157027,0.4364581,0.6511682,-0.51189864,-0.16036487,-0.88059425,-0.14311433,-0.21255183,-0.33268797,-0.47194874,