{"learning_rate":0.001,"activation_layers":[{"neurons":[{"activation":0.16980295,"weights":[0.052632928,0.9931314,-0.99986136,0.42793787,0.69768286,0.75139034,0.8439522,-0.6490544,-0.54023135,-0.056668162,-0.0980171,-0.17192507,0.11419249,0.96663874,-0.39172563,-0.56698,0.5609312,0.8772112,0.28747582,-0.098834395,-0.7245593,0.5850978,0.35682166,0.8779805,0.80619085,-0.74229336,0.99222004,0.07176685,0.22930956,0.9417082,-0.21100664,-0.8635112,-0.51014626,-0.50861543,0.13108763,0.5093229,0.48967698,-0.33416054,-0.21994668,-0.5750203,0.64081943,-0.83043987,-0.13749163,0.6735717,0.963205,0.33451763,-0.84365904,0.020002443,-0.0025141758,0.44545516,0.23576872,0.3998668,0.12435508,-0.15443075,-0.5261456,-0.31885338,-0.24874163,0.7200452,-0.0055523994,-0.2700255,0.6759988,0.023166584,0.36906904,0.27879113,0.7002324,-0.9446466,0.0988277,0.3331986,0.56185514,0.22281903,0.07046974,-0.0353413,-0.25179684,0.8231444,0.006840967,0.25164038,0.91288066,-0.8635616,0.6277403,0.39600092,0.47710335,-0.65178347,-0.5765711,-0.30200875,-0.97479844,-0.0062412024,0.07477412,0.013420311,-0.20049037,0.019752288,0.46904013,0.84832835,0.6112923,0.025815444,0.19231495,-1.1431705,0.47535592,0.3953761,0.24358666,-0.92872804,0.019225035,-1.035725,-0.18816179,-0.9958802,0.42587584,-0.22928368,-0.88570917,0.33431026,0.22896597,0.2790798,0.2430615,0.2626369,0.20398033,0.38011026,-0.8669097,0.011710028,0.25443223,0.2711311,0.3871753,-0.4932519,0.5521738,-0.782089,-0.4605876,0.5726113,0.032778278,-0.8970531,0.20987223,-0.82375425,0.30105805,-0.39932,-0.6312213,-0.051327556,0.89719784,-0.055196967,0.2668571,-0.44672987,-0.15492995,0.75310636,0.006479389,-0.15369569,0.006878495,0.220088,-0.3376988,0.8853812,-0.9381646,-0.5632073,-0.30607316,-0.2887807,-0.16687417,-0.8668228,-1.1751211,-0.7998681,0.22795987,-0.9817358,-1.1920773,-0.3880852,-0.4975753,-1.2576305,-0.4161194,-0.44816923,-0.52918357,0.14444737,-0.7589752,-0.748539,0.111118615,-0.71793485,-0.092582844,0.90009284,0.81319237,-0.4951447,0.23523292,-0.22353396,-0.8169006,-0.7309455,-0.55955184,0.05411221,-0.8630462,-0.6037926,-0.16652068,-0.8835709,-0.06400435,-0.77200824,-0.95146835,-0.8131249,-0.018373648,-0.48533252,0.482729,0.08172393,0.05573487,-0.8776683,-0.6602449,-0.55318886,0.0479263,-0.47820967,0.4519559,-0.75895804,0.61450714,0.49679407,0.88346946,0.12909861,-0.34860432,-0.24733855,0.86802727,-0.661831,-0.7655698,-0.33395356,-0.8682435,-1.0564678,-0.05678239,1.0307136,-0.7025077,-0.04920973,-0.21651107,-0.15268485,-0.81383264,-0.36480957,0.27637902,0.61574215,0.86129767,-0.75607765,0.11218855,-0.7894106,0.27318552,0.35820436,-0.6489783,0.62734824,0.5604404,-0.7114626,-0.55690706,-0.8909097,-0.05682796,-0.7191708,0.06470652,-0.7228319,0.084413916,0.025094656,-0.27007702,0.6665756,0.44546825,-0.46327645,0.23043083,-0.39438713,0.7521646,-0.35495204,-0.86323804,0.37940535,-0.94754046,-0.90338326,0.86949825,0.2939925,0.5241959,-0.7953061,0.81172854,-0.84988105,-0.43690717,-0.86566806,0.73723865,0.01152755,0.7417719,0.7551938,-0.8312546,-0.45497805,-0.3513176,-0.32037756,-0.4825434,0.4791496,0.76318413,0.0014759027,0.3468291,-0.019181702,0.45163184,-0.35614994,0.56997806,0.067935556,-0.16619341,-0.018765533,0.3995262,0.63365,0.76372206,0.21161501,0.7028937,-0.6224612,-0.65573007,0.3418965,-0.57807034,-0.08918003,-0.06839614,-0.46175468,0.46475384,0.31443283,-0.40902546,-0.18607022,0.17519003,0.042472184,0.31548205,0.6511767,0.89057845,0.5758723,0.09842325,-0.17905983,-1.1338756,-0.004656577,0.20491417,-0.9264907,-0.38288912,-0.20214902,-0.06243312,-0.58825994,-0.9869668,0.5177008,-0.06269264,-0.03273021,0.6160125,0.5252389,-0.14980856,0.6748292,1.1452489,0.83612454,-0.73438406,0.2285645,-0.90426654,-0.820098,0.89790976,0.6891574,-0.4920341,-0.20699516,0.26500764,-0.6403798,0.27041858,-0.75268,-0.11034708,-0.5026073,0.73346597,0.18613124,-0.9182806,0.26524556,-0.24280839,-0.95585185,-0.8838389,-0.7062806,0.24145524,-0.50000674,0.2473361,-0.6138667,0.8062279,0.69655895,0.27551246,-0.97740734,-0.9227503,-0.03305822,0.15453164,-0.055008736,0.1859064,0.16295107,1.3352356,0.2774813,0.42117628,0.06156323,-0.8418951,0.36967006,-0.3389638,0.12533136,0.19390471,-0.51125824,-0.025821289,0.10413773,0.2923373,-0.94343156,0.04730476,1.0060464,-0.3925611,1.2829223,-0.63633096,-0.21391271,0.19524196,0.059270468,-0.33163643,0.93175507,0.006344547,1.3271426,0.29974052,0.280555,-0.05037524,-0.17089778,-0.040009182,-0.26089665,-0.56657594,-0.35193917,-0.91466993,0.54826796,-0.5040035,-0.61753106,0.99165714,-0.56383765,-0.13878733,-0.92288154,0.035265844,-0.43760964,-0.695136,0.6688365,1.0907917,-0.01026814,0.2941129,-0.9462878,0.034453962,-0.5681978,1.0000212,0.4031479,-0.18941593,0.6489764,0.24551499,0.92380303,0.7871303,-0.77035266,-0.47330415,0.76615274,0.28828463,0.3010967,-0.1352832,0.42077938,-0.079630055,0.50393873,0.060731094,-0.68378305,0.67677426,-0.77839655,0.5153248,-0.67065066,1.0466113,-0.5004141,0.078712456,-0.32125142,0.58886737,-0.6748844,0.5146627,-0.29028192,1.2966138,0.08278381,0.7765984,-0.7004948,-1.0217222,0.4330204,-1.0996407,-0.9203669,-0.7233874,-0.4392746,-0.15822695,0.3705691,0.8955183,0.90500504,0.9993123,0.8667237,0.15065731,-0.7368368,-0.7270121,-0.098368265,-0.25344262,0.04011345,-0.88603604,0.3740449,0.4990581,1.1661155,1.2232156,-0.3489138,0.13475576,0.5379364,-0.22838284,-0.6768339,-0.22154437,-0.7148831,-0.8385588,0.07850318,-1.0841291,-0.7074087,0.7614324,-0.03151429,-0.70304763,-0.51462066,-0.5662689,-0.44556323,0.3096464,0.56696653,0.34351677,0.4144445,-0.82523924,-0.33412534,-0.56668985,0.96923286,-0.6424849,0.15048428,0.45940414,-0.44374934,0.22261776,-0.5083127,0.1689345,-1.0816919,-0.26491973,-1.0170174,0.65149945,0.6619258,-0.3476725,-0.5519015,0.9530515,0.70199126,0.59003,-0.052517097,-0.8197659,0.4496984,-0.26763958,-0.027702935,-1.1180592,-1.1902078,-0.8697464,0.37751946,-1.1970371,-0.17193529,-0.08077611,0.927849,-0.40237245,0.45884663,-0.15649769,-0.08158825,-1.3986527,-0.24465312,-0.20397174,-0.8385809,0.32914567,-0.17713667,0.13915882,-0.50012743,0.66028225,-0.27440482,-0.59501255,-0.5079033,0.27540648,-0.68243665,0.13022166,-0.5308905,-0.44882932,-1.2481223,-1.0109112,-0.9597924,-0.40090573,0.074548,0.1564446,-0.47907707,0.7030785,-0.23736395,-0.32291546,-0.31258675,0.13397358,0.3375839,-1.2460698,0.3255662,-0.7735521,-0.19019234,0.70589274,-0.32870924,-0.3503295,-0.13889052,0.088968635,-0.0990749,0.98502976,0.7908526,-0.21799968,0.25341943,-1.2598603,-0.8123306,-1.1595215,-0.7592404,0.306037,-0.09024693,-0.008270461,-0.32877392,0.5062151,-0.13531686,-0.29606843,-0.8700843,0.4030265,-1.2640911,-0.21415381,-1.061797,-0.9786812,-0.32356182,0.4709204,0.9308186,-0.8278921,0.6399388,-0.46075246,0.031289086,-0.104677655,0.81748974,-0.5893069,-0.31429285,-1.2271091,-0.35442337,-0.72591966,-0.8062493,-0.4057357,-0.9726339,-0.23883869,0.24187201,0.53365093,-0.9131215,0.110179774,-0.32829747,-0.6461295,-0.099366225,0.505097,0.026608134,0.11646937,0.14567295,0.23190744,0.80565995,0.30362058,-0.8715681,-0.8443193,0.42904887,0.93748987,-0.3914625,-0.6120029,-0.8191812,0.10460168,-0.97760767,0.54551244,0.065954775,-0.99254495,0.21295883,-0.33790225,-0.5140561,-1.0783968,0.21946406,-0.7879866,0.3768849,-0.31073254,-0.3488002,-0.09809936,0.30295715,0.32849813,0.45763272,0.9032068,0.97295403,0.6889077,-0.135026,0.54819095,-0.95197415,0.8297858,-0.6825852,-0.92720044,-0.26543868,-0.7056553,0.3226851,0.7980069,0.010987274,0.45860726,-0.87390673,-0.32041025,-0.81371063,0.35668164,0.2540702,0.57224935,0.36711532,0.85307395,-0.50671744,0.86201817,-0.46059215,0.84604305,-0.74253756,-0.5800832,-0.6294506,-0.77231026,0.3013996,-0.7821928,0.8344548,0.73332876,0.86759895,-0.46097904,0.43315405,-0.3774485,0.7087396,0.1437165,0.20205766,-0.35386378,-0.07737014,-0.9364897,0.115790226,0.29740846,0.31524727,-0.52709585,0.41378286,1.1182957,-0.46888375,-0.30325568,0.42431498,0.27873406,0.20282973,0.1460174,0.18530484,-0.9791144,0.6295495,0.25898254,0.1396786,0.11566043,-0.7138629,-0.36794508,-0.14942189,0.005094295,0.87034154,-0.33587182,-0.6732399,0.6293952,0.011195495,0.64102644,0.2748492,0.837342,-0.3852619,-0.62717396,0.9243472,0.11908334,-0.72249246,0.16777027,0.64550865,0.29085937,0.71703756,0.80338097,0.5157431,0.4155016,-0.5097461,-0.2122302,0.5177454,0.5840181,0.13813038,-0.030969964,-0.3680694,0.39275545,0.7918931,-0.11396958,-0.9301581,0.75650275,-0.15755506,-0.6381968,-0.5409376,0.9597051,0.42741522,0.60438496,0.13584523,0.5093524,0.75999457,0.9576477,0.15388474,-1.0001261,-0.6108823,0.45766073,0.032518975,-0.375242,-0.18526232,0.9029716,-0.3739705,0.6218139,0.10595369,-0.95023465,0.934644,-0.13578977,-0.34871933,0.434847,0.8016314,0.053142,-0.23819366,0.18066402,-0.033343747,-0.28289008,0.06110927,-0.6546714,0.6576217,0.83861566,0.5742435,-0.03086592,0.796458,0.21434449,-0.97705925,-0.9982145,-0.39249766,0.2988974,0.40509963],"bias":0.5327439},{"activation":0.7876509,"weights":[0.81821096,0.5730647,0.41779482,0.74172735,0.5575342,-0.1267612,0.32858586,0.8628112,0.35387778,-0.2651633,0.08103454,-0.24099636,-0.36979082,-0.020122202,0.9699435,-0.23531751,0.5836054,-0.49167824,-0.65743876,-0.9203038,0.92659545,0.3638159,-0.12743127,-0.24731076,0.3134688,-0.87877214,-0.6469022,-0.9154495,-0.18342745,0.9837427,0.6456171,0.07368839,-0.9633716,-0.28731465,0.53233314,0.04186292,0.63870627,-0.3528374,0.41202062,0.89290917,-0.5003242,-0.5807882,0.5840666,0.13103408,0.19102709,0.8910017,0.72675353,0.31087738,0.1514968,0.6976731,0.19440933,0.4808383,0.0041873455,0.9444573,-0.16580892,-0.7748314,-0.8680259,-0.019049048,0.9537434,0.2386125,0.58104897,0.0019629356,-0.90367854,0.27585283,0.37634063,-0.78483236,-0.31286898,0.34551233,-0.5889617,0.43448156,-0.35430297,0.7483034,-0.66030246,-0.7545724,-0.9480036,-0.32720047,-0.6643707,-0.04980035,-0.6031941,-0.9293621,-0.74189484,-0.19678126,0.87451065,-0.43775654,-0.7865453,-0.10919905,0.4121075,-0.2849668,-0.09202049,-0.9684008,-0.5420708,-0.53101254,-0.6459111,-0.30388093,0.89661205,0.007431113,0.5762281,0.6412682,0.058037307,-0.7857361,-0.057802536,0.3235563,-0.9202717,0.39915502,-1.0186162,0.015022352,0.37048724,0.7251798,-0.84084934,0.7032773,-0.02317245,-0.60745895,-0.32104123,0.7524987,0.5434117,0.82035,0.553053,-0.3485134,-0.2308942,0.013490077,0.73601633,0.37082887,-0.81419134,0.6994873,0.16667002,0.84695053,-0.16261017,-0.75280744,0.07915741,0.45458683,-0.21786766,0.19216035,0.6271346,-0.40740225,-0.23179854,-0.5516896,-0.842876,-0.52064246,-0.3839268,0.21210548,0.06106949,-0.12030256,0.40757442,0.29356644,-0.7378975,0.2399127,-0.40957585,0.62810516,-0.68461835,0.47061694,-0.6213951,-0.18658024,0.8560483,0.32808584,0.8570753,0.12263824,0.68010753,-0.5621761,-0.4392773,0.8749901,-0.62090987,-0.3706777,-0.74583596,0.98478943,-0.54547703,-0.34257168,-0.920986,0.49600723,-0.35157502,-0.09110075,-0.9824319,0.6250931,0.18216647,-0.57266957,0.5303669,-0.49692246,-0.46404272,-0.45309266,-0.5193892,-0.72897303,0.8065917,0.24216059,-0.14840892,-0.56925696,-0.75865334,0.60664827,0.33921123,0.53390044,0.22732478,0.0076452694,-0.04830256,0.94345564,-0.2646257,-0.2533999,-0.5613343,0.6990563,0.7875123,0.30473298,-0.33374563,-0.72128797,-0.7028221,-0.94247794,-0.46161005,0.9045147,0.55024004,0.8285039,0.60450053,-0.67631453,0.16808796,0.08378681,-0.064186595,-0.17771037,0.5031918,-0.81043494,0.07907339,0.81721,-0.3147646,0.40799844,0.14060211,0.98567307,0.538072,-0.891746,-0.91769016,0.3316202,0.6910817,-0.78404725,-0.60329264,-0.6008693,0.5886973,-0.72209513,-0.66056496,0.66403735,0.058127575,0.6221942,0.047148317,0.45598674,0.483394,-0.623345,-0.04096485,0.66488504,0.12032033,0.5016486,-0.92957413,-0.08031399,-0.080716856,-0.5438091,-0.32750553,-0.72685,-0.32944208,1.051818,-0.6991098,0.88235164,-0.057334855,-0.40467083,0.8403191,0.3432947,0.052241754,-0.4014894,-0.2271021,-0.7138117,0.9256967,0.1377795,-0.8040639,0.20278816,-0.6456635,0.87541306,-0.5645723,0.65997124,0.3912103,-0.70013785,0.41369393,-0.40599895,-0.4707189,0.17605768,0.74111205,0.28846687,1.0995227,0.07524758,-0.09368298,0.1304358,0.91690093,-0.0499324,0.73168766,0.10007071,-0.75088656,0.5815933,0.640067,-0.7305221,-0.72712284,-0.07511319,-0.11094232,0.17415345,-0.71491426,-0.7735201,0.14130066,-0.59978855,-0.22750907,-1.0152475,-0.1722267,-0.08210988,-0.69060993,-0.9198277,-0.06061562,-0.9188266,0.9914388,-0.56399536,0.93577355,-0.0028700775,0.6581721,0.02731305,-0.7555801,-0.6931843,0.19303629,0.6634118,-0.16405272,-0.35045117,-0.5777594,-0.6033773,0.12056975,0.29777557,-0.11546295,-0.28527015,0.5834837,-0.1981564,-0.08817605,0.077400796,0.14211994,-0.52026004,-0.4800273,0.3670049,-0.5628749,-0.039315786,-0.6558576,-0.4247342,0.07278696,-0.5549559,0.9447858,0.52590275,0.24619362,0.7606013,0.43165928,-0.39141053,-0.9802583,-0.88559276,0.5819763,-0.82122797,0.08322754,0.017225482,-0.75022805,-0.46589065,0.84170866,0.17101838,0.8054446,0.04096156,-0.4031434,0.46616173,0.4462774,0.5502191,-1.0334758,-1.0143898,-0.3307483,0.6949206,0.29733226,0.42427033,-0.108540356,-0.17621736,-0.20716564,-0.16870348,-0.64581525,-0.23411767,0.036065254,-0.7208325,0.39670858,-0.1570592,-1.4005102,-0.9551458,-1.2022773,0.37382638,-0.3891534,-0.23542657,-0.28772,0.18299595,-1.1051741,0.64754176,-0.80289006,-1.2158388,0.17693953,-0.44293892,-0.9569963,-0.43413162,0.3620028,0.008709981,-0.7437864,-0.7537264,-0.459453,0.70161897,0.3472246,0.204866,-0.9414824,-0.7997048,-1.0641364,-1.1238743,-0.19565497,-1.2509054,-0.50439525,0.69766086,1.1304221,-0.18845138,-1.002807,0.31450588,-0.17289583,-1.1013459,0.44484833,0.026870275,-0.17064254,-0.20308262,-0.80480784,0.10423807,0.9028386,0.10266241,-0.44997624,0.9754532,-0.922623,0.09337942,-0.03994095,0.20411162,-0.113559,-1.0285339,-0.7623236,-0.5043366,-1.102134,0.64267856,-0.58169836,-0.14543205,0.25544277,0.44862112,-0.29988155,-0.8227748,-0.013279136,-0.06902532,-0.5314541,-0.056598645,-1.1928382,0.20782298,0.7856299,0.9929043,0.55991393,0.3628584,-0.37522373,0.18592675,0.9431447,-0.8619308,0.7592847,0.29153153,0.5884864,0.3728619,0.5965542,-0.33153126,0.27298424,0.2452987,0.57592875,-0.1642285,1.0697936,0.2222916,0.6388326,-0.31810114,0.18097737,-0.99265033,-1.1308614,-1.0259564,-0.52474153,0.044173744,0.54348254,0.7454736,-0.17216071,-0.13700171,-0.9575249,0.32077834,-0.2928631,-0.06672132,0.3289458,-0.4717255,-0.6198652,-0.40895498,-0.84210575,0.6577731,0.39149594,-0.39433005,1.1306083,-0.070394374,0.62691617,1.0373652,-0.52064073,-1.0532817,-0.8187501,-0.1938377,-0.86568284,0.35504907,0.18309487,-0.45725015,-0.6222352,-0.47074515,0.79332155,-0.13609736,0.6293787,0.9410098,-0.14306806,0.6797507,0.37044606,0.3236047,-0.5523365,0.6171233,0.83292615,0.046647623,-0.023789214,1.009646,1.2797494,0.47666094,0.0075055314,0.16091466,0.35051638,-0.2089982,-0.44777077,0.23790061,-0.4895488,0.4382985,-0.37232447,0.60840595,-0.12293746,-0.81313384,0.6766324,-0.28278366,-0.6800697,0.9213775,-0.8767774,-0.48729032,1.0638187,-0.4819806,0.43183172,-0.36079353,0.36561948,-0.17895706,0.7710827,0.5124941,0.9799531,0.97554016,0.68304855,-0.09606366,-0.827894,-0.8115907,-0.24993138,0.4886964,0.8282827,0.6005708,0.4874205,0.75194323,-0.20214297,0.7288618,0.57693577,-0.5088281,-0.6133894,-0.37356716,-0.9488487,0.032122135,-0.8844808,0.23260845,0.17208497,-0.09738323,0.49641412,-0.110812604,0.4274032,0.45973787,-0.15509325,-0.12989292,0.9091135,-1.0147963,0.48285154,-0.85122395,0.474253,-0.8243998,-0.74747515,0.96365714,0.7820408,-0.07450244,0.4957443,-0.3527058,0.15696298,0.3312231,0.13121662,-0.32355726,-0.51363367,-0.7842407,0.23249596,-0.6795461,0.6593396,-0.39093736,0.6862444,0.92949426,-0.58937395,-0.6664978,-0.13967146,-1.0527328,-0.9405824,0.14571024,0.34765908,-0.4234236,-0.8295576,0.58455217,0.36733297,-0.619086,0.96542937,0.026652712,0.17243227,0.98111385,-0.87584245,-0.50370556,0.555574,0.69086534,-0.2597325,0.97822636,-0.69050527,-0.28910458,0.7443044,-0.62509376,0.67110837,0.41547322,-0.438346,0.38219017,0.11879018,0.24018462,0.46071374,-0.3469197,-0.30365038,-0.5836149,-0.17013454,-0.76148456,-0.70071155,0.51536715,-0.069687456,-0.08107598,-0.6642431,-0.27782235,0.95106184,0.17603754,0.8690989,-0.28158987,-0.0053471774,-0.65560275,0.41326022,-0.29244688,0.5503395,-0.13674293,-0.53689146,-0.15877955,-0.74435675,-0.5047524,-0.99070853,0.65107024,-0.12121889,-0.11530681,0.84159464,-0.20802599,0.64005566,0.70291036,0.6181734,0.032952655,-0.05151329,-0.25775877,0.62124246,-0.22179091,0.4565871,-0.89104474,-0.9846306,-0.8338418,0.21597104,0.56438065,0.5443405,-0.38138628,-0.7897296,0.28017834,0.19276364,-0.41069818,-0.7584968,0.57570684,-0.7338596,-0.1051135,0.8533874,-0.32064617,-0.91443205,0.34826505,-0.6042442,-0.9811904,0.67889255,0.860454,-0.14542708,0.5070723,0.007964896,-0.74331564,-0.5135557,-0.9596001,-0.8182819,-0.039816976,0.36222622,0.51633847,-0.433299,0.0502831,0.06838542,0.21126541,0.7170217,0.47743538,0.78846544,-0.7855142,-0.9233505,0.52440274,0.29294693,-0.18589939,-0.12145406,-0.22684784,-0.69103247,0.21488303,-0.2730244,0.7181128,0.89045554,-0.8556112,0.75446033,-0.20911032,-0.6000676,0.1372596,-0.6208755,0.38326037,-0.5728173,-0.063789375,-0.24808632,0.4373277,-0.46261287,-0.32482335,0.4016692,-0.39544678,0.73851997,0.08867115,0.48492402,-0.5634018,0.6635715,-0.9942303,0.31122857,0.39647624,0.8982623,-0.3887775,0.7597481,-0.73531073,-0.509193,-0.6433355,-0.9094715,0.2330036,-0.7624092,0.5155531,0.1918838,-0.7862483,0.66950595,0.55867803,0.88422406,0.7447507,-0.19137433,-0.6355785,0.8471914,0.24386932,0.82084996,0.054255042,-0.4507044,-0.20156698,0.75740945,0.692585,0.15772487,0.6503728,-0.28122088,0.27598345,0.8585382,-0.39865482,0.7690858,0.95416105,-0.94144964,0.08254802,0.2696668,-0.5108111],"bias":0.568888},{"activation":0.40954456,"weights":[0.5614737,-0.80161464,0.08841932,0.40540516,-0.05266738,0.49574196,0.036088586,-0.7901789,-0.44370162,-0.19119358,-0.26614916,0.40998042,0.67128354,-0.74966323,0.15389118,0.96466947,-0.9177133,-0.67491543,-0.020197868,0.26472032,-0.1713928,-0.2605784,0.4340768,0.6293719,-0.73058474,0.5860703,-0.7150252,0.56155026,-0.14241648,0.37515306,-0.4145757,0.479617,-0.1385062,0.09691572,-0.12939534,-0.66088915,0.9252584,0.9437151,0.27004123,-0.99134374,0.5164135,-0.7218278,0.60852855,0.18177745,-0.5022247,-0.31428355,0.029802052,-0.52545804,0.8517422,-0.11774814,-0.86965597,-0.21085325,-0.9767479,0.58510685,0.02654922,0.059061646,-0.6754724,-0.43653047,-0.72075176,0.34374645,-0.4908549,-0.21956865,-0.04452321,-0.047827817,-0.39031103,-0.25625646,0.076873496,-0.5249407,0.69955313,0.21362238,0.36773628,-0.4788136,0.8741334,-0.2165197,-0.33337483,0.009056473,-0.06287519,0.58844274,-0.30371952,0.3646605,-0.8060495,-0.07380352,0.16654372,-0.18374026,0.8276727,0.2729845,-0.2799208,-0.928426,0.64423555,0.093692735,0.282761,-0.8413626,-0.11951683,-0.37406084,-0.308439,0.53329265,-0.10838912,0.5841271,-0.14082989,-0.7552768,0.5694084,0.23725423,0.8284975,-0.07327724,0.120440945,0.19743192,-0.53332734,0.016498635,0.62328863,0.64730763,-0.46157756,-0.26977944,0.7763319,0.06565269,-0.5746448,0.61343306,-0.39083394,0.7142379,0.8778579,0.11843436,-0.078517064,0.561399,0.116076894,-0.9327042,-0.28133819,0.4998962,-0.8163052,-0.16525154,0.910122,-0.5790111,0.5216629,0.70779514,-0.7357576,0.8233203,-0.3589621,0.8859148,-0.9763844,0.64639413,-0.94870025,0.4040648,-0.36058533,-0.015926838,0.8682638,0.31730142,0.21449536,0.5608519,0.7651156,-0.1328182,-0.24501312,-1.0242999,-0.43936226,-1.2600676,-0.705124,-1.3629953,-1.2442031,-1.2270993,0.48790932,-0.6071538,-0.5175234,-0.44626206,-0.5551255,0.16142753,-0.3293215,-0.85863596,0.047456343,0.3111593,-0.5185267,0.29934534,-0.43768346,0.14104167,0.31649396,0.63900536,-0.9196383,-0.7541784,0.1359564,0.67240006,0.69080764,0.48420492,-0.6336111,0.21404149,0.06319914,0.16977201,-1.3199123,0.29419544,-1.0575632,0.036964435,-0.04321762,-0.34731826,0.8434174,0.8308536,0.3087205,0.99646646,0.30456468,-0.5492704,-0.26912054,-0.62927735,0.54605234,-0.74088013,0.57172126,0.49195573,-0.7166121,-0.61744916,-0.26401436,-0.894017,-0.67112005,0.51771814,-0.956277,0.1147533,-0.43282616,0.43029764,-0.18121111,0.033131875,-0.6808792,-0.4891144,-0.002758566,-0.4448809,-0.8473747,-0.15336818,0.2386231,0.50225,-0.8010945,0.08088506,-0.29734766,0.03576742,0.4949733,0.19241971,0.2604866,0.57187116,0.03655155,-0.57613164,-0.67297286,-0.42040834,0.46295696,0.90178406,0.975116,-0.21635854,-0.7524425,1.0632914,0.79606926,-0.24407734,-0.6616331,0.092320636,0.517375,0.1304729,-0.21864194,-0.100097105,0.46777502,0.73823136,0.66996336,-0.7676583,0.5315381,0.10301438,-0.049049214,0.06705767,0.5716347,0.5364564,-0.874036,-0.5333482,0.5844649,0.72115046,-0.8344955,0.8492739,0.96348745,-0.30186185,0.7985535,-0.6035697,0.04188978,0.10215953,0.59739536,0.18418983,-0.18955404,0.34082875,-0.54819745,0.08181603,0.5536102,-0.8113693,-0.72200716,-0.04020308,-0.2609578,0.029635128,0.52933145,-0.95172673,0.3164042,0.3706069,-0.0460291,0.76844597,0.2689262,0.6101011,0.38107273,0.45603582,1.0215048,0.66329986,-0.005156579,-0.09172617,-0.5259327,0.57975763,-0.08723944,0.06993503,-0.067655355,-1.2123746,-0.07451904,0.3252254,-1.0532715,-0.54782426,-0.00257098,0.8181474,0.17310491,-0.6004147,0.8959706,0.65425515,-0.13261223,0.26525366,-0.6615392,0.036258455,0.6931675,0.18572792,-0.22404757,0.1524611,-0.0734123,1.3341564,0.89307046,0.26510435,0.20552036,-1.0085243,0.41846144,-0.67220914,0.026249556,0.2329635,-0.76192325,0.26119247,-1.1001055,-0.98977923,0.4264712,-0.53578955,0.6577215,-0.90588516,-0.084764555,-0.07158451,-0.9447469,-0.56656146,0.42426863,-0.06267728,-0.06799146,0.5704272,0.5623221,-0.21406998,0.21705586,-0.12038046,0.1471496,0.55364895,-0.31713575,0.5047113,-0.04147614,0.2033184,0.78568053,-0.13016106,0.5191687,-0.2286901,-0.62953186,-0.9139934,0.055738553,-0.89647335,-0.2891312,-0.42878142,0.2791212,0.56790787,0.52757144,-0.81885844,0.07375393,-0.27815235,0.036094148,1.0146765,0.31503722,0.6874304,0.9888239,1.066274,0.27743536,-0.055847052,-0.8733532,-0.14906104,1.266787,1.0104855,0.02319216,-0.37050802,0.85477895,-0.24937733,0.5392823,0.8547297,0.51806974,0.7081664,-0.13919026,0.96901083,-0.7367065,0.9260823,-0.63108486,-0.28339446,0.29393154,0.77525944,0.34395295,0.29009953,0.80010873,-0.24771023,0.1971835,-0.02871753,0.15232266,-0.67875797,-0.004910451,-0.6285569,0.6281935,1.0177583,0.6924567,0.9443742,0.35698208,1.0491159,-0.71122986,0.1849625,-0.6694521,0.47270426,-0.0820444,-0.25844795,0.29594707,0.14445774,-0.4353334,0.6368627,-0.81712294,-0.77747285,-0.19550262,0.51088667,-0.36288473,0.14485313,0.7881853,1.0534518,0.10163024,0.05270781,0.5249121,-0.47287464,0.16437604,0.7510717,-0.19776008,-0.11409636,-0.48764247,-0.49758822,-0.5163993,0.26898164,-0.6239835,-0.536004,0.20226592,0.06708901,-0.38076013,-0.8845425,-0.13366598,-0.8474748,0.33154064,0.49056274,0.103338555,-0.8408723,0.5704336,-0.3670269,0.9519587,-0.22275856,0.016532753,-0.55797,0.38624638,0.29659402,0.041668665,1.2352169,0.04169904,0.022873271,-0.23935875,-0.24508648,0.06902887,-0.9220484,-0.63129854,0.9183722,0.83345485,0.17039229,0.7082174,-0.42254806,0.6845273,0.48198602,-0.7329268,-0.6729291,0.46454772,0.36030385,-0.5312846,-0.5902098,0.6159697,0.12248083,0.40181524,-0.35592356,-0.96620756,-0.18232256,-0.1710605,-0.42516002,-0.523037,-0.5355558,0.3279482,-0.39352062,-0.54772073,0.13907897,0.42875552,0.6937554,-0.22985432,-0.52798676,-0.24821022,0.17386538,0.03014771,-0.8411961,-0.6682326,-1.0459715,-1.0219281,0.26805952,-0.09066672,-0.8132279,-0.58453757,-0.35903642,0.8211639,-0.6050336,-0.55274665,0.86522585,-0.25565475,-0.5777639,-0.36367795,0.7226138,0.5478881,0.45502332,0.5643509,-0.2070693,0.46244165,-0.35421464,-0.8861529,0.857449,-0.54926634,0.9113553,0.01475197,0.38577434,0.06297202,0.37486145,-0.44149455,-1.0204072,-0.37214124,-0.8965435,0.4347573,-0.15556806,-0.38158628,0.2392534,-1.0201969,0.7834769,0.632106,-0.41345024,0.3585305,0.158463,-0.30160356,0.28767323,-0.4469316,0.15598324,-0.89781606,0.7409437,-0.49896795,0.44381797,-0.49173236,0.47125039,-0.6436792,0.01568443,-0.2389263,0.46075344,-1.0447426,-0.058545437,0.6053896,-0.8536781,0.06332297,-0.5919111,-0.25685135,0.6508568,-0.4708262,-0.5936483,0.77527404,0.46838316,0.33762008,0.46631488,0.2972847,-0.5397699,0.22368222,0.18256992,-0.788371,-0.9963952,0.7428815,0.010348304,-0.5043502,-0.6171245,0.917875,-0.7910693,-1.0373335,-0.54906374,-0.7559761,-0.67942244,-0.61759377,-0.78589696,-0.52909976,0.39448366,0.58212316,0.17496365,0.4211207,-0.3167232,-1.0465536,0.65637565,-0.6179821,-1.1015229,0.0701064,-0.47495586,-1.0689273,0.61293405,-1.0216905,0.74843854,0.3025966,-0.8853685,-0.24548358,0.38638085,-0.38332146,0.39915013,0.3659581,-0.48051876,0.5214609,-0.47067916,-1.2211181,0.4732839,-0.6821067,0.34026048,-0.4237362,0.41939363,-0.1846765,-0.47590402,-0.64772004,-0.14902692,0.6563612,-0.786068,0.23660415,-0.51674294,0.6733396,-0.8651099,-0.87515366,0.80169255,-0.89349693,0.67249876,-0.11202788,-0.15007412,0.2877586,-0.5700193,0.69412786,0.695081,-0.8448634,0.4176827,0.22479303,-0.21113178,-0.6482002,-0.64282537,-1.0885136,-0.3005834,-0.6603711,-0.17771652,0.40799192,0.26450792,-0.07250579,-0.5646329,-0.66807646,0.9938903,0.33946317,-0.9791843,-0.28047857,0.000976673,-0.71881616,-0.6282065,0.6865562,-0.60903144,-0.7262988,-0.58967066,-0.69768363,0.5616853,-0.17334217,-0.50859594,-0.14500152,-0.3484934,0.14871576,0.12469323,0.5629651,-0.13792811,-0.5196348,0.9528775,-0.72237873,-0.07077482,-0.41903022,-0.44523948,0.46857402,-0.89864916,-0.8808454,-0.65950656,-0.8670587,0.75984573,-0.89677733,-0.74402964,-0.691257,0.5384406,-0.049164537,0.4982488,-0.6757397,-0.75430936,-0.73899776,0.85281277,0.039126202,0.29423922,1.0053834,0.13258795,0.72607857,-0.11053411,-0.41902962,0.49591354,0.4399735,0.76992786,-0.6024741,0.69908565,0.97482914,0.48640248,-0.33733734,0.8244999,0.12808943,-0.18328816,-0.08450432,-0.53934515,-0.027055502,-0.35094345,0.9441931,0.005666218,-0.31137994,-0.7697603,0.6749046,0.22694437,-0.8270771,0.82280993,-0.15135455,0.37445343,0.5550009,0.29629964,0.0072828247,1.0305104,0.18426389,0.1879397,-0.18242566,-0.79824287,0.73178834,-0.9494712,0.3615696,-0.38515365,-0.61820334,0.8239854,0.31663275,-0.3257761,-0.6571294,-0.9089552,-0.91879034,0.42121077,0.197044,0.3686043,-0.63906235,-0.96177024,-0.2713123,-0.1725047,0.063938245,-0.7776686,-0.7993681,0.8329309,0.65991175,0.20138124,0.5434515,0.81907266,-0.26062113,-0.81716293,-0.08035679,-0.27873442,0.68644166,-0.8445107,0.8613403,0.33923054,-0.84063935,0.013534784],"bias":1.0973735},{"activation":0.99999964,"weights":[0.81711876,-0.547719,-0.707906,0.15197003,-0.5467464,0.27229178,0.058185816,-0.36410356,-0.75548744,0.2617402,0.0110195875,0.22445714,-0.34521472,0.45861387,-0.49216545,-0.15429638,-0.5915339,0.19601023,-0.8565705,0.28037345,-0.21916354,0.24632883,0.33242726,-0.86916256,0.9101888,-0.40196252,0.6991923,0.8142384,0.9497272,0.6935314,-0.6029638,-0.74731195,-0.7164099,0.7868176,-0.76356614,0.23626466,0.21730074,-0.2442235,-0.20946203,-0.48234054,0.062476724,0.19768043,-0.5474205,-0.9600409,-0.39502653,0.5052687,-0.11393422,-0.3758045,-0.10863271,0.6765516,-0.014480346,0.034497555,-0.09674239,-0.11416912,-0.69126236,-0.5818546,-0.53138363,0.2895565,-0.77730286,0.89956665,0.035774816,0.7035766,0.3726104,-0.62823933,-0.012844677,-0.44635597,-0.352306,-0.3097249,0.63972247,0.13556011,-0.114091985,-0.36846727,-0.3945294,0.031785414,-0.75090575,0.9447169,0.3736296,-0.38202247,-0.64438707,0.97737247,0.8201088,-0.3878122,-0.31533825,0.118766546,0.00093889236,-0.6211817,-0.5096528,-0.013335095,0.47112384,-0.47130105,0.5859077,0.67235464,-0.12927274,0.6867109,-0.34443206,0.30735233,-0.028341403,-0.56200397,0.46654147,-0.026536696,0.5490851,0.6386258,-0.7498066,-1.1492227,-0.8950222,-0.55918974,0.20396641,-0.1426484,0.4253236,-0.14868662,-0.03977608,-0.8424785,-0.69405353,-0.7333318,-0.07623316,-0.9664014,-0.032217227,-0.61216027,0.7291749,0.6603478,1.0608567,-0.12354543,-0.1939163,0.7238903,-0.23769373,-0.13694513,0.025459612,-0.22453271,-0.36402115,0.59731954,-0.15613933,0.5565473,-0.8140702,-0.046324596,0.16316806,0.06428758,0.56474614,-0.7079458,-0.57388586,-0.022799708,-0.6128224,0.96388185,0.39682087,0.6238319,-0.37577775,-0.65872175,0.7009969,-0.5541095,-0.012194827,-0.15548576,0.9813503,0.981346,0.3863854,0.7406322,-0.42116904,-0.20552821,0.73194313,-0.57844824,-0.83468235,-0.7883061,-0.3579133,0.5621736,-0.20014155,0.39772457,-0.7767161,0.43513808,0.00040975751,0.7674035,0.10860479,-0.5093796,0.043664947,0.838869,0.4310223,0.63661027,0.99405104,0.5475506,-0.09246567,0.64518845,0.25142056,0.10805599,0.13171688,0.5580751,-0.48977646,-0.6657755,0.7548369,-0.29205385,0.3478648,0.47914332,0.5051918,0.4069497,0.22110683,-0.74191266,0.56289536,-0.38543743,-0.70076686,-0.33368024,0.4696662,0.9953903,-0.46612707,-0.6288596,0.15311773,0.074669905,0.8983203,-0.5248672,0.83577853,-0.85706955,0.7216185,0.41480127,0.77598333,-0.477995,0.53466445,0.8735948,-0.4898411,0.9288212,-0.34350672,-0.52829933,-0.50256395,-0.26695755,0.57101905,0.3755456,-0.27109447,-0.14106679,0.7161272,-0.66303396,0.7401417,-0.5456168,0.3131592,0.93127567,0.42871073,0.03683385,0.9299371,0.629929,-0.84452385,0.23874705,-0.4537034,-0.08857755,0.55945337,0.33464304,0.20811146,-0.35614178,0.53496444,-0.40519544,0.01023146,0.794923,0.38742244,0.6045145,0.1767261,-0.3791988,-0.020323575,0.13390903,-0.48727238,-0.43825367,-0.960192,-0.010686454,0.21132484,-0.7297599,0.15360476,0.9280933,0.27102706,0.6722329,-0.22248015,0.37897012,-0.9259653,0.11158,-0.10238694,0.20776121,-0.58828187,0.4304237,0.80116516,-0.0012538182,0.8620455,-0.090849236,-0.5430892,0.58208424,0.38234356,-0.84987557,0.7568797,-0.26018414,1.0144604,-0.15495697,0.21238135,0.0867869,-0.5223739,0.3682076,0.27031785,-0.66869384,0.013431752,0.43076625,0.45829436,-0.48532844,0.28620633,0.56644446,-0.30257925,0.020181373,0.19388245,0.29236472,-0.02066874,-0.18264285,-0.6331706,-0.3834907,0.41298324,-0.43402627,0.012745905,-0.67542356,0.16458386,0.24186106,0.49616164,0.7398548,0.32323107,-0.7023116,0.6903979,1.0237674,0.71771145,-0.19589525,0.20981584,0.5077903,-0.75828826,0.60685974,-0.3972005,-0.5400986,-0.5508757,-0.14575982,0.6827202,1.426421,0.48419577,0.9823198,0.7593676,0.6401401,-0.46784642,-1.1839428,-0.6468911,-0.41531757,-0.25480026,0.8395198,-0.842241,0.3195536,-0.055701286,-0.15420814,0.019111035,-0.8787278,0.911772,0.22035718,-0.047735464,0.2500977,0.46076286,-0.7579242,-0.40434262,-0.49080515,-1.0688729,-0.4606232,0.24961257,0.7738899,0.9559169,-0.39865357,-0.2119543,-0.32987937,0.8891301,-0.520796,-0.4075264,0.40416154,-0.027079728,-0.35140616,-0.3842135,-0.6725221,-0.65671635,0.1392768,-0.6295621,-0.3590405,-0.7079802,-0.76188594,-0.0021016672,-0.44614452,-1.0318763,0.29334092,-1.0671949,-0.83541036,0.74277186,0.91820556,0.8548772,0.65519524,1.4337834,-0.06776004,0.75299025,-0.071187265,-0.17105712,-0.0022916135,-0.7232834,-0.3836159,-0.7270809,0.89658606,-0.06118358,0.45372778,-0.5835034,-0.64718634,-0.8208538,-0.7588609,-0.6115347,-1.0837264,-1.3189023,-0.41251478,-0.28405628,0.11700118,0.081413485,-0.5207367,-0.4953499,0.4409966,1.2228032,0.30917874,-0.13946424,0.2933042,0.13544573,-0.30234456,0.23885149,-1.0050856,-0.47082338,-1.1484298,-1.115158,-0.4315075,-0.23725814,-0.9823959,-0.21283573,-0.666719,0.45245507,-0.23969142,0.5648949,-0.20547394,0.32730082,-1.1574744,-1.1568581,-0.118535005,-1.0643696,0.45879847,0.37241712,1.5403844,-0.033637926,0.29236373,0.83669186,0.886822,0.34342188,-0.029561706,-0.3958936,-0.5274151,-0.3658842,0.112398215,0.11918349,-0.21597686,-0.27782616,-0.8066926,-0.8209981,-0.09626334,-0.48894125,0.9085227,-0.1154445,-0.013134912,-0.23950414,-0.9701231,-0.32031265,-0.33883274,-0.37075186,-0.7183784,0.98845434,0.60664445,0.5524765,1.1971898,0.5249062,0.067606844,-0.56584805,0.653896,0.30498567,-0.18688565,0.030908855,-0.2637151,-0.38865632,-0.59311765,-0.9225511,-0.79464865,-0.59405506,-0.17713636,0.16028517,0.18808503,0.3722255,0.11134668,0.018334871,-1.1174772,-0.19109964,-1.0928345,-1.1214081,0.016044538,0.7790434,0.604254,1.0713105,-0.6040302,0.91928726,-0.16904137,0.35877797,-1.0556983,-0.29150087,-0.23147316,-0.5928808,-0.26165202,0.13866298,-0.7146064,0.8806641,-0.27055255,-0.87342876,0.24945734,-0.71464443,-0.71915776,1.017242,-0.64629537,-0.047581244,0.05967613,0.020633543,-1.3182842,-1.2368428,-1.0691073,-0.020754972,-0.08510054,0.87356806,1.0828896,-0.12262087,0.17147996,0.16970524,0.27211687,-0.34114236,0.2230049,-0.12173446,0.5294527,0.08746928,0.21742296,-0.20644732,-0.44499445,-0.12892663,-0.31654102,-0.46818173,1.0529114,0.11797831,0.44145113,0.55997074,0.3650777,-0.3271724,0.41302317,0.5138812,-0.4524015,-0.45736513,0.8636085,-0.75681627,0.6825927,-0.6907894,0.67668283,0.44919124,-0.14775626,-0.19776846,-0.49072483,1.0194635,0.1513541,-0.1521078,0.08996063,0.33719227,0.09031633,0.17790604,-0.5595881,0.17494571,-0.46605015,-0.22964711,-0.46366408,0.75972366,0.222368,0.12836544,0.011563145,0.031854406,-0.3752621,-0.7397612,-0.42856765,-0.5628555,-0.41248587,-0.10717709,-0.17259555,-0.58324367,0.5666854,-0.1630446,0.6745504,-0.32484922,0.57818425,0.8388585,-0.75956255,0.23855098,-0.59328854,-0.23479299,0.73305553,0.45468614,0.24109091,-0.7148609,0.3150723,1.0269791,0.4231176,-0.011678997,-0.45456362,-0.59273356,-0.43743917,-0.3817953,0.26750326,0.35172984,-0.27506196,-0.086673945,-0.3805481,0.6820006,0.2069653,0.81133425,-0.46176293,-0.23341393,-0.6959819,0.20690513,-0.5043784,0.23801617,-0.73859435,-0.9800182,-0.3209949,-0.28492922,0.020988723,0.24389163,0.2848269,0.8571923,0.2980317,-0.3886433,0.59103197,0.61671156,-0.62399036,0.37007433,-0.905509,0.71727335,-0.4990033,-0.67959243,0.9349059,0.46547902,-0.28788537,-0.20393313,-0.5934531,1.0671829,0.57060164,-0.044728212,0.30416682,-0.27472705,-0.70285887,0.7583313,-0.46473312,-0.6485048,-0.46914327,0.9533136,-0.7181549,0.14728524,-0.9636736,-0.2670465,0.5504498,0.4718245,-0.7240367,-0.5064339,0.3686462,0.58067065,-0.46882907,-0.059915654,-0.21972488,-0.012437604,-0.06994228,0.61963403,-0.0076264204,-0.29383832,0.44465828,-0.48790058,0.7799482,-0.392911,-0.21793008,-0.8566525,-0.07768524,0.56100434,0.63553935,0.37954658,0.60858834,0.72262037,0.24923985,0.7184979,-0.59996414,-0.12670207,-0.26147693,0.14433788,-0.61268353,0.6807344,0.52080286,0.6908311,-0.64880127,-0.29625762,0.9203209,0.44821715,-0.60623425,-0.89173275,-0.56891143,0.41135937,-0.6015587,-0.82791406,-0.44564676,-0.5405263,-0.072031856,-0.06417339,0.23742354,0.18606995,-0.34171408,0.74366397,0.8267436,-0.08300744,0.30804425,0.8992361,0.1587607,-0.55439,-0.24503452,0.73648506,-0.44643125,0.34148803,-0.38902143,0.90712744,-0.5047401,-0.0029760255,0.52551395,-0.16697764,0.43910864,-0.55456144,0.7373462,-0.17193943,-0.653798,-0.67167354,0.7797711,-0.9405478,-0.9422563,0.4105115,-0.6982487,-0.6713727,0.61953306,-0.8211481,0.6930562,-0.54658365,0.16557103,0.5042296,0.4354603,-0.2465473,-0.8109948,0.64678395,-0.81498545,0.8698066,0.86110485,-0.020701505,-0.07163543,0.9746375,0.88523394,0.14747955,0.24413015,0.0527575,-0.28470898,0.33961284,-0.74289656,-0.9969853,0.37796557,-0.82161,0.7018504,-0.6166985,-0.7085249,0.7151783,0.10633235,0.040784366,0.07626228,-0.6436329,-0.22456169,0.14694782,-0.27437794,-0.32557422,0.3233765,0.36391866,0.17969888,-0.7503512,0.18104051,-0.79909754,-0.08513573,0.08784366,-0.88281167,0.9798844,0.0875901],"bias":0.16257468},{"activation":0.9618814,"weights":[-0.2659812,-0.56407344,0.7518109,-0.5513377,-0.36883855,-0.37871027,0.729558,-0.4490832,-0.17350304,0.8024739,-0.9202591,0.16604495,0.14751895,-0.73864603,-0.07708538,-0.13109949,-0.22085357,0.7676641,-0.36365867,-0.4251541,-0.18624973,-0.12689447,-0.52600014,0.1894778,0.0665375,0.5650412,0.5962882,0.20621657,0.4906888,-0.2688961,-0.29687536,0.7754301,-0.30954054,-0.72576934,-0.33236393,0.6621946,0.8045961,-0.16571254,-0.1072717,-0.18018368,0.9528672,-0.5772588,-0.4780381,-0.4564069,0.00012152518,0.78309745,-0.880085,0.6397169,-0.93709344,-0.14886478,0.18814485,0.81235033,-0.2772528,0.49580204,-0.15627062,-0.48222625,-0.05242932,0.4991951,-0.3890882,0.69652677,0.96355104,0.77281785,0.6074256,-0.60771966,-0.26450804,-0.2741772,-0.5529096,-0.3464824,-0.61783797,-0.3858207,0.905785,-0.4649185,-0.09577872,-0.5055128,0.3316551,0.46759665,-0.3101603,0.931286,0.29136637,0.612394,-0.39651966,-0.19692595,0.84185815,-0.5146148,-0.9873704,-0.19003296,0.7905536,0.22608075,-0.3191941,0.80047417,-0.22975694,0.6787177,0.22346166,-0.28217176,-0.19825435,0.26109144,0.8304239,-0.8810478,-0.3539538,-0.48844588,-0.51700735,0.17865737,0.9198701,-0.7967927,0.71015304,0.68441033,0.6535416,1.0104537,-0.42156106,0.7370044,0.6366229,0.8302293,0.6618823,0.8629636,-0.24227275,-0.10017866,-0.5786869,-0.467479,-0.0034887583,0.3655679,0.11605294,-0.44850427,-0.48057422,-1.4907149,0.106758244,-0.1882678,-0.79073316,-0.54431164,-0.51335347,-0.50794476,0.34379813,0.7207096,-0.7281158,0.15419033,-0.09490348,-0.71328247,0.22032323,-0.6698477,-0.5710706,-0.5294815,0.49653125,0.95694447,0.072371945,0.80174714,0.40165657,0.27725172,0.6123877,0.19313183,-0.041711636,0.07905604,-0.061350983,-0.6821252,-0.12623674,-0.37396997,-0.1990176,-0.09819047,0.6600724,-0.1327023,-0.0996474,0.08495523,0.91647553,0.99113894,-0.3156903,-0.5191876,-0.066803634,-0.08181773,0.28359875,0.699741,0.9909922,-0.7139995,0.84953725,0.6284207,-0.80860007,-0.050105795,-0.80957955,0.08744555,-0.5175836,-0.79866153,-0.11827864,-0.86448574,-0.74689215,-0.031161333,0.22619992,-0.47223812,0.26656353,0.22695595,-0.4619295,0.9234391,-0.81213045,-0.80196214,0.13052715,0.85558635,0.42676866,0.68257886,-0.48415658,0.15208706,-0.37585223,-0.32475758,-0.73964375,-0.8735668,0.76714957,-1.2724066,-0.15515156,-0.80340403,0.0014333486,-0.86385244,0.8466936,-0.62835485,0.7046913,-0.69118196,-0.46091822,0.6800268,-0.86326367,0.55808187,-0.26138923,-0.33145568,0.016118793,-0.014794993,0.8487452,-0.47866297,-0.897057,0.14064473,-0.9533918,0.73151,0.8969718,-0.5098415,0.5718066,0.47258824,-0.54710186,-0.035315912,-0.5598288,-0.6453867,-0.53896755,0.4496083,-0.37716472,0.043921784,-0.33304757,-0.36421362,0.07090009,0.28638875,-0.9628678,0.49544886,0.0402199,-0.31678832,-1.0614616,0.038483158,0.15279837,-0.111472696,0.4073429,-0.10540356,-0.02658775,0.45398492,-0.887253,0.27901787,-0.52094334,0.29817832,0.17056668,0.6001262,-0.19718364,-0.80129504,0.04742273,-0.67399746,-0.5020865,0.71435326,0.8208778,-0.31967992,0.15830675,-1.1009806,-0.7836207,-1.0030035,-0.8681684,0.5697973,-0.53574115,-0.47557047,0.34836417,-0.57412994,-0.94692886,-0.6446621,-0.75812376,-0.37443894,-0.87183106,0.032921653,-0.28302905,-0.1589758,0.31518677,-0.119220845,0.11205215,1.051666,0.87876904,1.093439,1.3915951,0.08069268,0.16143127,0.6059651,0.026625955,-0.13354863,-0.1403735,-0.63372725,-0.10636767,0.18661278,0.08407431,0.10553362,-0.19630891,-0.56652653,0.14144954,-0.4450149,-0.5581891,-0.27598783,-0.99681985,0.2435565,-0.34347063,0.27561134,-0.12230728,-0.3887837,-0.76128197,0.5785774,0.5433716,1.1014454,1.1276399,0.57186586,0.9946924,0.04794875,-0.7104539,-0.7761523,0.47149718,-0.9005101,-0.34628975,0.22941083,0.06737131,0.8702842,1.4222512,0.45521873,1.0578939,-0.6030756,-0.0017668857,0.5497411,0.9914553,-0.20274666,-0.5608183,-0.5684268,0.5764083,0.86486465,-0.06358966,0.22969867,0.62693644,1.5449461,0.37747622,0.39298362,0.956415,-0.18095602,0.8495107,0.18200803,-0.09088851,0.49846944,-0.54328066,-0.15334734,-0.42596236,0.59784657,-0.18912645,-0.48949194,-0.75351477,0.6099271,-0.119404174,0.3124411,-0.030559845,-0.59944874,-0.1856517,-0.7622296,0.56991005,-0.2876247,1.1662173,0.7375521,0.9048953,-0.05847047,0.9564859,0.34749004,0.46365267,0.354523,0.82973135,-0.5000812,-0.85763645,-0.47454488,0.058385983,-0.039256785,0.03390053,1.266303,0.27245644,0.7958793,0.32253677,-0.17232406,-0.9681503,0.040876456,-0.22378373,-0.605133,-0.46379727,-0.45195752,0.24416515,0.48747984,0.5225199,1.2476493,0.3669059,0.6170508,-0.010229095,0.009232385,-0.30828705,0.6447813,1.028463,0.21558337,0.076704115,-0.5558755,-0.48429853,0.40391624,0.5805206,-0.2969598,0.29165944,0.8230381,-0.22263362,-0.807277,-0.011618082,0.27751186,-0.598971,0.01673216,-0.8781265,-0.9512844,0.6737933,0.31277248,0.9380868,1.116444,0.1550231,0.46039638,0.043984577,1.0524368,0.5058447,0.5151193,0.5453805,-0.04771904,-0.58428496,0.2061421,-0.7987869,-0.717759,0.0068412186,-0.3562794,0.8208076,1.084212,0.9021955,-0.96106654,-0.19284482,0.76343673,0.97723657,-0.9490229,-0.5881658,-0.24753961,0.5218324,-0.6576725,0.8905435,0.45003074,0.45594043,0.57401556,0.65646446,-0.349657,0.65809506,-0.53943586,0.68719953,-0.7931059,-0.39221126,-0.12511136,-0.1362357,-0.082240365,-0.19947298,-0.7834956,-0.3937775,-0.83990455,-0.91329044,-0.53611785,-0.74280846,0.1516872,-0.78850996,0.46110362,-0.28210372,0.47299328,-0.7510642,-0.55717695,0.60252666,-0.21588832,0.080208555,1.1003042,0.8554799,0.5647986,0.6686759,0.6953392,0.8977098,0.46428323,-0.7972515,-0.77679265,0.099494234,0.14984259,0.10160496,0.050603773,0.55250865,-0.93196255,-1.0199689,0.49064133,0.71976507,-0.28637895,0.09716538,0.5842544,-0.019411642,-0.8812143,-0.67140466,-0.82240903,-0.1695733,0.59126633,1.0700849,-0.22581275,1.189642,-0.041237835,0.31518662,-0.12566106,-0.64401704,-0.62689525,-0.02333256,-0.25624928,-0.9020151,-0.7998071,-1.0774118,-0.7728116,-0.82793844,-0.17416199,-0.5476015,-0.11891189,-0.5789673,0.65016824,-0.008737443,0.5704362,0.93722427,-0.984091,-1.061451,0.12548928,-0.43478313,-0.27897573,-0.0022681907,-0.38440007,1.0603466,-0.3352937,-0.238963,0.5624778,0.2688613,0.13696514,0.2253989,-0.60514313,0.66379213,0.12213233,-0.1496172,0.46350017,-0.88212705,0.26573327,0.18979664,-0.7285968,0.17743325,0.59563637,0.3296851,0.7985509,-0.6134284,0.041901197,-0.78454167,0.3101715,0.24623539,-1.0096273,0.45182902,-0.3864413,0.09020691,1.0879511,0.14451057,-0.5175293,-0.19148992,0.5068858,0.10926081,-0.7725051,0.29292944,-0.3107538,-1.446194,0.13901034,-0.8124481,0.16774867,-0.500397,-0.3170884,0.49678338,-0.50864005,-0.9584035,0.5903975,0.94275934,-0.119442366,0.42049,0.37381884,0.44796547,0.21621063,0.31204107,-0.09681818,-0.6557112,-0.6297919,0.37301752,-0.039838295,-0.17921281,-0.18618138,0.50230175,-0.6112649,0.1536539,0.25272626,0.06844475,0.43218055,-0.7436567,-0.7974142,0.028862534,0.86224914,-0.030270506,0.48037675,0.7864973,0.4491943,0.9401023,0.4039061,-0.09455297,-0.24938287,-1.2350221,-0.15435547,-0.44481552,-1.1441735,0.74692565,-0.7953378,0.4191073,0.59555143,-0.18628125,0.16204102,0.6564704,-0.19736017,-0.26279038,0.51514465,-0.43850023,0.8341134,-0.95618224,0.4592123,0.96260405,0.00867016,-0.43258685,-0.58732575,0.95762336,-0.7803705,-0.66814154,0.4102462,-0.97814834,-0.72742856,0.6881129,-1.0588003,-0.26794603,0.6018351,-0.6727372,-0.27742904,-0.058565892,-0.45172903,-0.7157887,0.5626458,-0.08584384,-0.56280154,0.6394838,-0.41697007,-0.43850824,-0.20292728,-0.8385244,0.0447962,0.681441,0.672871,-0.8852351,-0.32808268,0.3901844,0.83538115,0.8791508,-0.08568101,-0.83842707,-0.9247776,-0.971129,-0.8011432,-0.7130532,-0.7601625,-0.5259297,-0.3028086,0.15743127,0.18406892,-0.3619775,-0.007150678,0.6302759,0.30215907,0.08819659,0.7038617,0.24784736,-0.32937595,0.082046576,0.10407763,0.97170275,0.4504021,-0.9962865,0.6389533,-0.4726299,-0.21320736,0.29500392,-0.8456389,0.7229061,0.8376222,-0.9345001,-0.676166,-0.29141268,0.042366322,-0.8895245,-0.07975164,-0.8998923,-1.0286924,-0.3674143,0.4459473,-1.0257925,0.30091488,-0.3286838,-0.74155265,0.24410681,0.28531653,-0.5147886,-0.14914283,-0.288126,-0.029190646,-0.45636782,-0.09803879,-0.3033074,0.12243402,-0.5461962,-0.26714367,-0.12817892,-0.026978875,-0.25219125,0.19805701,-0.8818985,0.27366284,0.77769995,0.01429082,-0.7862719,0.14694674,-0.851471,0.30816963,-0.89605916,-0.10465744,0.9282453,0.65394783,0.4973006,0.49769163,-0.661213,0.8212606,-0.6379082,0.75785506,0.40647376,0.29976666,0.5442344,-0.37752795,-0.017885685,0.8379022,-0.39033377,-0.20448723,-0.44558322,-0.27171096,-0.49505863,-0.06585031,0.025619166,-0.2404593,0.20316598,0.70545197,-0.35498706,-0.38401294,-0.049929418,0.043451153,0.7482674,-0.78637725,-0.98872805,-0.804821,-0.5363377,0.47343752,0.445549,0.55276537,-0.6971841,-0.4670025],"bias":0.79808},{"activation":0.9996001,"weights":[0.86457694,-0.61625826,0.1548518,-0.32291532,0.24834418,0.66759646,-0.6040163,-0.22758853,0.20177233,-0.06959498,-0.21963322,-0.7359899,0.7510344,0.19746979,-0.842203,0.77753145,-0.95880365,-0.21345437,-0.9587536,0.7568307,0.41602635,0.07024753,0.66972625,-0.54174674,-0.37138033,-0.5300758,0.8638624,0.26907432,0.16858077,-0.28555143,-0.8659408,-0.2547971,-0.3168682,-0.25312215,0.6692468,0.5326444,0.9609662,-0.13473262,0.16014533,0.834447,0.20298764,0.5657537,0.6364884,0.5600894,-0.8022369,0.421828,0.9148067,-0.5367415,-0.4568939,-0.84457743,-0.2453834,0.0057967897,0.24175048,0.57767427,-0.9511639,-0.65237415,-0.48547244,-0.85271215,-0.3021339,-0.2107377,-0.8948053,0.16059175,-0.17614873,-0.41852412,-0.19135317,-0.29321998,0.8589381,0.7587708,-0.029556638,-0.05862981,-0.19528183,-0.0214124,0.9031291,0.28629142,-0.07486547,0.9697036,-0.12549393,-0.05029098,-0.3916368,-0.9399102,0.97979933,0.10328761,-0.09902668,0.9822521,0.9749243,-0.22195804,0.18960755,0.5848248,0.8782201,-0.3298208,-0.030676916,-0.9155755,0.78847355,0.5209778,0.6180491,0.13968647,0.9173734,1.1028919,0.7825372,-0.4349267,1.0966415,-0.043435045,0.22585902,-0.012064882,-0.13450848,0.10485521,0.07101189,0.9523624,-0.33590314,0.31935865,0.6953328,0.8560828,0.5110998,-0.08544975,-0.70127577,-0.9851293,-0.7534206,-0.7319524,0.8911541,0.1408386,-0.6478315,0.14150299,0.4967761,0.9046782,0.9271721,0.3173505,-0.66008615,0.89842314,0.7870103,-0.6885338,-0.14426337,0.83763456,0.22747894,0.2738196,0.74300146,-0.34079933,-0.2289695,-0.14216496,-0.20572646,0.051192205,0.13820839,0.2603203,0.6197889,-0.073173895,0.43886396,-0.37119713,-0.3661362,0.6767297,0.17461728,0.5476309,-0.12895869,-0.59690636,0.42815125,-0.46922958,0.4205608,0.79327273,0.1477702,0.17207181,0.70131814,-0.5435105,-0.8646853,0.36313042,0.5298414,-0.23557343,-0.31421494,0.5651997,-0.25900862,0.012579427,-0.0761143,-0.43892965,-0.51175195,0.97218764,0.2570035,0.6574653,-0.55160975,-0.6995183,1.0975894,0.9075002,0.7259543,-0.083794005,0.7169586,0.18705888,-0.20201932,0.41391212,0.15442817,-0.62683713,0.77627736,-0.078226276,0.47738624,-0.4862605,0.47547653,-0.62455285,0.16678083,0.83146954,-0.4624491,-0.71852213,-0.66212875,0.25641835,0.17218919,0.025451977,-0.60077846,-0.20246127,0.9058286,0.6070872,-0.5937373,-0.7060028,0.3368265,0.039685927,0.14085184,-0.116207674,-0.37921518,-0.30116194,-0.10634787,-0.870868,-0.78598934,-0.48759696,0.26517084,-0.53621763,0.53056794,0.71856624,0.6407056,0.675389,-0.11501326,-0.2710043,-0.102535985,-0.20584638,0.48820984,-0.67401075,-0.6525054,0.0769208,0.77426714,-0.4130029,-0.9089201,0.08532043,0.40054932,-0.15640756,-0.6019629,0.47061008,-0.85124326,-0.98236144,0.019652974,-0.80514395,-0.5599782,-0.4645892,-0.53976995,-0.78705615,0.49961743,-0.9457494,0.38040105,0.37581775,-0.4163791,-0.38776845,-0.6943126,-0.45748314,0.7941007,-0.42025644,-0.9192221,-0.412213,-0.9687521,-0.6930376,0.08911602,0.4381645,-1.2017525,-0.2224608,-0.15618223,0.7427628,-0.24470633,-0.24350514,0.031756584,-0.4349201,-0.13201275,-0.46166328,-0.6395661,-0.39340279,0.2778466,-0.16801077,0.43640128,-0.21618518,-0.8589892,0.53657264,0.044854328,-0.10448015,0.64164555,0.7808117,0.50957525,0.3425991,0.75176865,-0.44375962,-0.20837577,-0.86095196,-1.092983,0.25185812,-0.016368804,-0.6240228,-0.13595009,0.099688835,-1.326161,0.18146874,-0.42298728,-0.83082974,0.20249715,-0.23022339,-0.46294558,0.10349176,-1.0143781,0.9728648,-0.5069942,-0.1613647,-0.71140397,-0.18958016,-0.47630394,-0.45160794,-0.635345,0.13035591,0.22702208,-0.6968825,-1.3215705,-0.21479446,-0.9237033,-1.3008429,-0.8119987,0.44003755,0.47733736,0.8892256,0.4562283,-0.09685041,-0.83730125,0.1756466,-0.2673202,-0.39652324,-1.0068374,-0.81887823,-0.090598986,0.5170982,0.08270594,-0.25284153,0.0928729,0.1711062,-0.17108554,0.4678241,-0.77872056,-0.29618523,0.4082413,-0.5340719,-0.36962277,0.27542558,-0.81259006,-0.02667728,0.48498046,0.32201064,0.43934187,0.42411086,-0.366137,-0.44351107,0.009144651,-0.013214761,-0.060251735,0.517591,0.12919158,0.22827218,0.62241924,-0.9223176,0.9136159,-0.46990204,0.39747348,-0.77802944,-0.7119907,0.18628986,-0.7182156,-0.49936107,-1.2045531,-0.8918911,0.3000855,-1.0655859,-1.1121281,0.4764118,-0.090542376,0.7413428,0.9598558,1.362778,-0.23841389,0.42321637,-0.21058682,0.8008463,-1.1156371,-0.035309773,-0.27179497,-0.9064135,-0.9119859,-0.58764607,-0.9239299,0.47217965,0.5997334,-0.4974035,-0.14697894,0.5971288,-0.26843727,0.01626514,-0.64789385,-0.4297294,-0.28806594,-1.0373819,0.46401328,-0.66800237,0.75719523,1.5396545,0.70847464,1.2511832,0.08839817,-0.19531213,0.8763662,-0.8686787,0.35794285,0.12570144,-0.3306073,0.6561382,-0.6501436,-0.32771665,0.38283113,-0.146561,-0.18793157,0.16172281,0.6895902,0.108943984,-0.027847482,-0.24631485,0.38070256,-1.0117819,0.646058,-0.51643467,-0.08322576,0.3701982,0.973013,0.10098422,1.5828718,0.043770887,0.673552,-0.1110789,0.6014212,-0.05262631,-0.7314227,-0.4546747,-1.025195,-0.43043262,-0.47297794,0.4783092,0.72843677,0.47126356,-0.22046311,-0.69269115,-0.043901738,0.8030813,-0.6700141,-0.42307648,-0.39971477,-0.5694349,-0.46808484,-0.36239773,-0.9109887,-0.36493474,0.11183078,1.0827183,0.07833801,0.2204503,-0.14941388,-0.5914263,-0.7166267,-0.40391243,0.80989325,0.77098525,-0.1200321,0.65160114,-0.22038202,-0.29515928,0.40741518,0.6640549,0.42019212,0.97051316,0.13506946,-0.6818816,-0.6269852,-0.04069573,-0.111071385,-0.06889557,-0.95822084,0.41906872,0.07066687,0.9319251,1.268096,0.2154645,0.36578727,0.76613444,-0.25110668,0.44999555,-0.51031464,0.57182,0.53135806,0.99523175,0.22620995,0.8435063,0.5961333,1.0458329,-0.7329557,-0.12601723,0.92757064,-0.6209164,-0.14517288,0.0029499452,0.26500013,-0.09087279,-0.16624653,0.8064235,-0.539152,0.47844705,-0.3317736,-0.22956403,0.84840626,1.1744002,-0.2874831,0.18356232,0.26984102,0.8616409,0.177475,0.46693587,-0.100561224,0.2183003,-0.16617316,-0.46710187,0.44855103,-0.15432504,0.94757724,0.8888609,0.87847376,-0.18617158,-0.9600388,0.5496251,-0.037329275,0.33172497,-0.7480956,0.38982403,0.13521346,0.36170012,1.3757024,0.6066418,0.38056266,-0.117494166,0.2535418,0.07314807,1.0538521,0.44941553,0.6431012,0.29100695,1.0166664,1.1619481,0.08437655,0.93180174,-0.83189267,0.7527473,-0.028111942,0.72274023,0.7697128,-0.85457647,-0.2547436,1.0847319,-0.21701695,0.22299206,0.9093751,-0.26936612,0.015934946,0.9091991,0.289377,-0.048154913,0.5683039,0.8665741,0.26017568,0.067156024,-0.33428925,0.69014996,-0.16187018,0.47139734,-0.5835147,1.1594374,-0.5895613,0.055803955,0.18423854,0.5861108,0.26916856,0.4872721,0.15534425,-0.619695,-0.039267413,-0.7839903,1.1808273,-0.38297772,-0.6157979,0.80837935,0.6331892,-0.045836877,0.30081734,0.34599867,0.6414008,0.82381105,-0.5381467,0.056909014,0.10388998,-0.29751742,0.394114,0.035606354,0.54706806,-0.2957693,-0.09969305,0.15234809,-0.30021605,0.10250221,0.88826406,0.39009672,-0.5650721,-0.7659095,-0.5195458,-0.47244236,-0.506585,-0.496142,1.0374253,0.5084451,-0.10671534,0.76689416,-1.188614,0.12249692,-0.44828036,-1.0881004,0.6162803,0.2163297,0.059998605,-0.6043868,0.6267947,0.63166934,-0.5684481,-0.46961084,-0.8237378,0.19198598,-0.9069472,0.95916015,-0.95554453,0.16631138,0.49130428,-0.6837213,-0.39208272,-0.31680536,0.117912084,0.33754957,-0.2751431,-0.5810397,0.97452015,0.22485973,-0.7996029,0.70718634,-0.7531015,0.48402524,-0.5226727,0.34701025,-1.2036278,0.3583059,-0.2560181,-0.7167828,-0.29484716,0.7901232,-0.91835093,0.9086778,0.6516886,0.23368637,0.4729714,-0.8075732,0.9232384,-0.89673984,0.40090632,0.13226438,-0.5165749,-0.0590462,-0.12233581,0.79176986,0.571255,0.51747644,-0.084062636,0.28168672,0.2798211,-0.38642186,0.5610401,0.5911148,-0.3238252,0.2910067,-0.42965338,-0.8939817,0.30142057,-0.12791587,0.33624995,-0.25854972,-0.037643973,-0.31169817,-0.32143325,-0.3406813,0.45129895,-0.47376955,0.22761764,-0.39442706,0.24671236,0.0059172544,-1.0069615,-0.1733592,-0.17965706,0.7661473,-0.02303188,0.04424043,-0.14528549,0.18433747,-0.108272545,-0.45911056,-0.8300487,-0.18824902,0.22301123,-0.5883557,0.30781868,0.54622734,-0.55428994,-0.69249165,-0.33482853,-0.014394275,0.5745784,-0.1878339,0.59229505,-0.6584096,-0.3723191,0.023895428,0.61711675,-0.04354482,0.2352655,-0.9840106,0.9770587,-0.8722863,-0.46204498,0.50206906,0.36328706,-0.18839689,0.51404184,-0.32332474,0.45345628,0.28762254,-0.56709266,-0.99571306,-0.40846965,-0.13620456,-0.47928098,0.7658609,0.15080279,0.9222476,-0.9607134,0.13138902,0.8579476,-0.5454209,-0.43633938,-0.20560491,0.5825405,0.7362799,0.73386645,0.34020922,-0.9343893,0.8508286,-0.77999896,-0.4859589,-0.054780576,-0.7194319,-0.63150364,-0.6453417,0.77882147,-0.62797976,-0.940715,-0.52796346,-0.37760466,-0.9311992,-0.55566645,0.041942857,0.44844782,-0.79272425,-0.7451253,0.99354637],"bias":0.7762442},{"activation":0.99999464,"weights":[-0.76421845,0.43364382,-0.9164537,-0.24021292,-0.07176721,0.57079875,-0.28770018,-0.67739916,0.6473156,-0.5143229,-0.8380711,0.3480947,-0.83543545,-0.21957512,-0.22558254,-0.48777002,0.15934479,0.82086194,-0.39492023,0.07486653,-0.5224278,-0.34181917,0.59616554,0.5818896,-0.8767952,0.36745632,0.4326514,0.75157106,0.744843,-0.21016455,-0.45731902,-0.28413367,0.6123727,-0.6895578,-0.11518158,-0.4005239,-0.5060332,0.2551498,-0.98197734,0.2722972,0.44566897,-0.79943734,0.3681557,-0.5428077,0.5353903,-0.9100133,0.95653784,-0.9584773,0.49970824,-0.86210793,-0.9558762,0.86828065,-0.0012966394,0.12062657,-0.90353024,-0.7527069,-0.03665316,-0.29639626,-0.6963465,-0.28899765,-0.95236003,0.5101183,-0.7928206,-0.79740316,0.18588915,-0.7318637,0.12585445,-0.20347264,-0.09750713,0.26912698,-0.7066786,-0.11541307,-0.115826845,0.1806449,0.1425696,0.8014637,-0.33850902,0.28375596,0.2801037,0.2140915,-0.6479382,0.174957,-0.3849213,-0.87906075,0.40089428,-0.88007164,-0.80871993,0.8364657,-0.8342894,0.4525475,0.40565768,0.79800034,-0.9882037,-0.32385823,0.12624161,-0.8517411,-0.3720888,0.7974778,-0.18107979,0.9118465,0.5060193,-0.58300984,0.78361505,0.40795484,-0.10788235,-0.2797962,-0.6170523,-0.34723106,0.78452706,-0.8150048,-0.16839518,-0.17684972,-0.47648335,0.59834015,-0.8415907,-0.98609835,-0.6294772,0.91747254,0.5328281,0.581702,0.0028272944,0.36507607,0.89932007,-0.28339025,-0.6269951,0.79552895,0.75597453,0.74393594,-0.36803308,-0.41120872,0.8007069,-0.9521274,0.7556013,0.68205893,0.4455687,0.82450175,-0.50507843,0.9752001,-0.09504498,0.8891308,-0.39982843,0.6966586,-0.49941036,0.37052485,-0.9287768,-0.62344867,-0.26843557,0.48248252,0.56579435,-0.70347506,-0.5055311,-0.29508424,-0.3444705,0.066239096,0.41136014,1.0726725,0.9254891,0.2195143,0.32350585,-0.8949184,0.97231907,0.15232623,0.091843136,-0.5980488,0.94096756,0.20004585,0.001676243,-0.029695183,-0.35873318,-0.26166916,-0.046725515,-0.05947344,0.7899394,0.016249677,0.8381514,0.031877268,-0.48601377,-0.43544313,1.0600898,0.6417731,-0.71425253,0.6402579,0.09675655,0.90274024,-0.7534165,-0.16497663,0.5817505,0.52363425,0.8347653,-0.71015173,-0.34205943,-0.90443474,0.9353394,-0.32627836,-0.2991177,-0.33334923,0.5819624,-0.19660988,0.7042878,0.25044692,-0.44048452,-0.15978317,-0.22843519,0.56967926,-0.053874753,-0.2049648,0.6007556,-0.17123769,0.802613,0.516965,0.53018314,-0.29911506,0.9598631,0.71088785,0.3521717,0.4693108,0.8968052,0.10189276,0.2105427,-0.6699091,-0.78692853,-0.9720196,0.84549946,-0.015523362,-0.542254,0.5980542,0.1749587,-0.7482601,-0.39389184,0.95133656,0.8031273,0.12630592,1.0735857,0.28089997,-0.5737326,0.6453182,0.1550287,0.2902823,0.36455026,-0.19306985,0.82193816,0.7735157,-0.63163817,-0.2069542,0.94777906,0.36222592,-0.8685812,0.15565236,0.5663075,0.26648244,-0.48723015,0.09015615,-0.3001668,0.57662696,-0.5304461,0.14576598,-0.14121038,0.492154,0.8551886,0.09048784,0.70243466,-0.35885698,0.40090397,-0.3858134,-0.4377471,0.476941,0.19676265,0.0022971155,0.66397995,0.9557599,-0.23063032,0.3556652,0.97163093,0.1647012,1.0542161,-0.39570832,-0.16887034,0.29226714,0.13746324,0.20192122,-0.1802705,0.18986753,-0.6858213,0.053384606,0.32886893,0.40713853,-0.92875254,0.4313376,-0.75522226,-0.29991066,-0.6102219,0.62175035,-0.06304022,0.56683797,0.315745,-0.18430324,0.4484293,-0.80634415,0.8791675,0.47701445,-0.58790505,0.5252063,0.0052753254,-0.51970094,0.14388858,-0.58618677,0.49839342,0.12541914,-0.10432003,-0.4796352,0.7872241,0.50856835,0.4310405,0.91570175,-0.08042963,0.67991406,1.0679088,-0.44905424,-0.10925022,-0.3339559,0.55740225,0.12577638,0.20042025,0.8634555,0.2506695,-0.20063472,0.40091205,0.8145839,1.0109292,-0.40433216,0.82593006,0.6711133,-0.101430535,-0.9264582,-0.18470529,-0.5976946,-0.43478736,-0.8506496,-0.6585986,-0.34731328,0.34727943,0.60746646,-0.40652314,-0.6309302,-0.34587514,-0.078028545,0.6723853,0.49618092,-0.56863904,0.017911492,-0.178772,0.6527582,0.972133,0.47736079,0.19900689,-0.8118594,0.9088923,0.6346654,0.6369357,-0.18112962,0.40282503,0.057887476,0.7888803,0.43499044,-0.7353577,0.23755488,0.5964271,0.17121641,0.89724386,-0.019154694,-0.10082763,0.26372746,0.81872,0.74859196,0.7133404,0.8975626,-0.33001962,-0.12965415,0.06296063,-0.3260852,0.56218314,-0.7725013,0.6404229,0.24035795,-0.44952863,-0.52510256,-0.77160794,-0.65180457,0.7503512,-0.24921718,-0.32213062,0.59693646,-0.54819065,-0.2688711,-0.7095149,0.60166216,-0.8857592,-0.6474504,0.49123564,0.56849486,0.20821473,-0.6677478,0.8976829,0.9630788,-1.0417612,-0.37974253,-0.36221817,0.07930873,0.7021048,0.25304496,0.1050797,0.9708761,0.4073147,0.0736094,0.56964594,0.10996759,-0.18141265,-0.06240327,-0.20668645,-0.28013816,0.06470071,0.86796266,-0.29816213,-0.91968966,0.9756148,-0.01349836,-0.4106136,-0.5060605,-0.4918558,0.30575588,-0.2651467,-0.7968,0.91381955,0.6794062,-0.2531489,0.38553706,-0.33844075,-0.44671038,1.0462531,-0.6537815,0.31327918,0.07072783,-0.8670239,0.8883086,-0.18200883,0.46375692,0.011149529,-0.4672144,-0.114978604,0.13192675,0.03413899,0.8087578,0.07981822,-0.16626912,0.71902895,-0.29269955,0.16365331,0.03939595,0.41099152,-0.61287487,-0.004722355,0.7661182,-0.7295685,0.87603426,0.30890074,0.8270645,-0.6285556,-0.2243607,-0.41083598,-0.3302179,-0.26883915,0.8292827,-0.055556536,0.42337644,0.5727175,-0.041088652,0.8419266,0.4419938,-0.8647357,-0.932428,0.121995986,-0.40249816,-0.2947692,-0.7837063,0.4332701,-0.5716594,0.84029603,-0.26110193,-0.32865867,0.4309342,-0.44648063,0.35889098,-0.6901109,-0.6350085,0.7484138,0.5394957,-0.6728864,0.93671393,0.43950924,-0.4119554,0.6962864,0.6534621,0.8610578,0.6040109,-0.36983728,0.3242296,0.32404464,-0.8092131,-0.2711136,0.942623,-0.57233196,0.31331837,0.042331412,0.017690273,-0.027713204,0.56712574,-0.32966006,0.8324849,0.5697198,-0.64517057,-0.19545344,0.3700868,0.011314336,0.44490704,-0.6444235,0.455148,0.18676749,0.26321623,0.22848633,0.6469656,0.6827317,0.7063185,-0.9110874,-0.46179223,0.66451925,0.074583575,0.34050044,-0.46121427,0.47652936,0.09189311,0.5792713,0.97729445,-0.8703002,0.47865275,0.10943925,0.18234244,-0.099695295,-0.18033333,-0.19606994,0.5418185,-0.30388984,0.14347169,0.6541346,-0.0061770747,0.3020375,0.8044254,-0.7801235,0.61167204,0.4289307,-0.35450748,-0.15063941,-0.29657045,0.36859614,-0.3521063,-0.40778068,-0.6067375,-0.11570898,0.64907455,0.87494165,0.38752872,0.29677862,-0.6161968,-0.6854236,0.11041647,0.31191033,0.78417146,-0.2708989,0.19131167,-0.37857577,-0.45393303,0.16277263,0.066696934,-0.5121217,0.274592,0.061799005,0.43612963,-0.83296907,-0.03327699,-0.8371536,-0.012196361,0.8818671,-0.21508625,-0.40237832,-0.30931684,-0.68786716,0.42245543,1.0320714,0.036689848,-0.24227202,0.24704957,0.6014839,-0.7683256,0.13041067,0.4398303,-0.69960326,0.3552497,-0.4632529,0.056039464,-0.13267677,0.78350425,-0.14590819,-0.0755662,-0.4203994,0.7315123,0.52740616,0.8828199,-0.909104,0.57541335,0.42483398,-0.75662583,0.7672396,-0.23319961,-0.71092683,-0.29647604,0.42794222,-0.59028023,-0.49754184,-0.5668214,-0.71325976,0.1612744,0.24212705,-0.70000046,-0.5074378,0.86881006,-0.0054648705,-0.4006098,0.48539263,0.3683917,0.95780194,-0.23621581,-0.3985677,-0.41850182,0.36060584,-0.28333056,0.5723171,-0.3418306,-0.15454152,-0.5362398,-0.1854841,-0.27350834,0.8635301,-0.06845375,0.030620866,0.32045037,-0.8352392,0.47506645,0.81529564,-0.620346,-0.3784139,0.6716981,0.6607298,-0.51066893,-0.039076302,0.3981793,0.17313144,0.4191224,0.9906933,-0.6092371,0.64551854,-0.70869917,-0.047787014,0.9363197,-0.051139235,-0.5344089,-0.74293184,0.78578603,-0.15622042,-0.060942914,0.083890244,0.065510035,0.37208915,0.511499,-0.8180082,0.73530906,0.94112426,-0.7592754,0.13617997,-0.55631465,0.9227996,-0.9203662,0.5166998,-0.7827674,0.9223483,0.22559628,-0.36569637,0.9669763,0.88684624,-0.13051036,-0.01534304,-0.47205603,0.023218036,-0.3237034,-0.6873143,-0.25472057,-0.6723966,0.8004478,0.20023032,0.31397295,-0.46535444,-0.5007875,0.02458615,-0.32415628,0.35723925,0.26251107,-0.24439614,0.76379627,0.49395528,-0.01459899,0.53903663,-0.6670186,0.44101837,-0.81064093,0.6199224,0.04224712,-0.6142987,-0.3135733,0.3811636,-0.9514495,0.86639,0.1406368,0.03856051,0.04496765,0.5568634,-0.9900368,0.40525022,0.18385732,0.1597157,0.8469266,-0.72615755,-0.7912026,-0.069824,0.37632447,-0.8954672,0.50533277,0.4477162,0.21746176,0.9051159,0.32144165,-0.93047535,-0.21815148,0.46171913,0.55554223,-0.37480134,-0.7845233,0.527431,0.50914764,0.61168337,-0.51750326,-0.72925687,-0.85207963,0.9465458,-0.290654,-0.7758714,0.103981756,-0.41144928,0.27982375,0.019925177,-0.7962334,-0.21754785,0.50589436,-0.56781363,-0.5406584,-0.9452363,0.7682591,-0.863122,-0.81180125,0.20279047,0.27467182,-0.48476997,0.71946585,0.40949798,-0.08960843,-0.3835101,0.20229208],"bias":1.0771894},{"activation":0.9982578,"weights":[-0.86724985,0.61194026,0.97992826,0.73764,0.11877215,0.032824516,-0.99797785,-0.3252504,-0.8201357,-0.608143,-0.42627096,-0.49666035,-0.91470975,-0.5971612,0.30001628,0.099113345,-0.60032225,-0.7288306,-0.6189499,0.5433667,0.24927115,-0.13199902,0.35064864,0.23270595,-0.3787861,0.18059373,-0.23376572,-0.54597557,-0.17495263,0.42800772,-0.10706937,-0.6936666,0.55796224,-0.33831266,-0.5243158,0.94679666,0.27653733,-0.9166958,0.5551774,-0.9548618,0.7221277,0.22355849,0.61551374,0.5144293,-0.44645843,0.06247776,-0.58116174,-0.40263975,-0.9808786,0.8297387,-0.10582743,-0.3446814,-0.007347703,0.80434406,-0.06611323,-0.28128827,0.6047901,-0.2503854,0.47254544,0.4734364,-0.9207739,-0.13068324,-0.9402806,0.9429111,-0.9294507,-0.7350207,0.31722167,0.7909714,-0.15256204,-0.20129652,-0.7854492,-0.15214363,-1.0115377,0.59261346,0.08661239,0.4440052,-0.36084452,-0.90016496,0.51087725,-0.6973843,0.31731942,-0.055379685,-0.86499166,-0.9063268,0.916005,0.4011823,0.60716957,-0.8975811,-0.09456355,0.11547739,0.27340186,-0.27640358,-0.102356,-1.0457021,0.50821483,-0.9141652,0.2842764,-0.8716881,0.40501574,-0.80416435,0.36376664,0.35941356,0.29572695,0.07854855,-0.8254752,-0.9727568,0.41172937,0.24735898,0.15424153,0.8118371,-0.2788686,-0.834911,0.5265753,-0.61336946,-0.3642419,0.23925239,0.75397664,-0.79388446,0.55406755,-0.619513,0.62526417,0.03735561,-0.5292283,0.22686976,0.042522095,-0.33584672,0.45827496,-0.65740454,0.22260278,-0.29349262,0.48282596,0.2965083,-1.0809879,0.48198602,-0.30696097,0.8745502,-0.90828216,-0.50222695,0.45713586,0.72984236,0.91601884,-0.27100337,-0.11778665,-0.9249112,0.70230055,-0.98246115,-0.21799466,-0.62471247,0.27595514,-0.30021012,-0.46935105,-0.0070386245,0.45194206,-0.5634887,-0.20170541,1.1204319,-0.8331053,0.27644727,-0.8406692,0.8524356,-0.12030139,-0.87286615,0.35403216,-0.71559143,-0.91903436,0.74153304,0.12208198,0.19944453,-0.9271023,0.4742507,-0.940279,0.12282107,0.8206,0.4515277,0.0030602047,-0.2833577,-0.25762364,0.005431556,0.16279185,0.12918532,0.5128012,0.7782859,-0.26232144,-0.40643027,0.31397983,0.19484872,0.5674185,-0.73748684,0.1637498,1.0696194,-0.27781004,0.49761978,0.6975806,0.08357718,0.42746478,-0.62198204,0.7002487,0.24444582,0.98658293,0.69390106,0.6535953,-0.22919324,-0.18198101,0.814051,0.6043405,0.51886076,-0.3861899,0.88696396,-0.62226,-0.102888584,0.4898383,0.3119769,0.21306454,0.1984929,-0.03634526,0.84525573,0.7215998,-0.4909121,-0.6940554,0.4079926,-0.2683036,0.09118351,-0.7431912,-0.5762963,-0.3664736,0.31583905,-0.08596277,-0.32516113,-0.7283158,-0.38543573,0.5046635,-0.8111288,0.755932,0.49816334,0.22788884,0.60637766,-0.04636077,0.72432554,0.5956165,0.9859941,0.85683966,0.016942933,1.0172745,-0.19655493,0.8903914,0.54256946,0.73801094,-0.5552134,-0.7423728,0.59230846,0.21060196,0.6628862,-0.77013946,-0.5515337,-0.24740393,-0.20527469,0.2812554,0.5881642,-0.4008221,1.0577884,-0.12539724,-0.22222458,1.0474163,0.8176293,-0.36255133,0.5338207,0.009975293,0.5901265,0.117020324,-0.004655708,0.9167341,1.2246635,0.14395119,-0.04932438,1.1719997,-0.4780799,-0.30015096,-0.19127396,0.39895508,-0.28209203,0.4892903,-0.6492821,-0.81395304,0.37905428,0.38969773,-0.4170692,-0.6837344,0.11658688,0.48918173,0.4336024,-0.075253256,0.84405863,-0.46089813,0.8975964,-0.22287427,0.7875418,1.3405616,1.302808,-0.031670988,-0.19410102,0.14962071,-0.3324697,0.6631191,1.1368233,-0.76154524,-0.28570327,-0.6672633,-0.84328824,0.7661125,-0.22071357,0.91705096,-0.9082726,-0.11089322,-0.49975818,0.48559576,-0.4977017,-0.2969968,-0.6299432,-0.32896012,-0.642158,0.7935229,0.44780388,0.3381136,0.71614444,-0.16868347,-0.52126247,0.92515177,-0.6972974,-0.2004267,-0.58541334,0.43325418,-0.86795926,0.17308062,0.048902534,-0.23319608,-0.8856651,-0.30270746,0.3508434,-0.5259354,-0.6380693,0.18433622,-0.14000496,-0.34517193,-0.5106374,0.14846222,0.41907385,-0.1642235,0.48912612,-0.19032009,0.7471169,-0.54524463,0.45915887,-0.81780845,-0.64587575,-0.27736115,-0.4839155,0.0399354,0.020684652,0.691823,-0.18973379,0.06812875,0.1897745,0.9872803,-0.36776984,0.41271994,0.06002076,0.48610905,-0.42284045,-0.8383263,0.31822562,0.50655764,0.18168758,-0.6797802,0.14696437,0.45569694,0.20518173,-0.49207282,-0.93413323,0.6632247,-0.1561654,0.6019041,-0.75631917,-0.947057,0.15809733,-0.17585513,-0.19519816,0.8824561,-0.036705703,0.31668997,0.7604858,-0.20686035,0.6393514,-0.78591466,-0.76763344,0.059982814,-0.36038056,0.75398403,0.7248328,-0.4743301,0.5233129,-0.16461588,-0.46159396,-0.7884992,0.28648704,-1.0513663,-0.23794831,0.35307604,-0.89241457,-1.2951291,-0.4214666,-0.03878024,0.016837131,0.070703834,0.15481474,0.5672427,-0.51611763,0.7681036,-0.7760841,0.73877287,0.5606532,-0.08473109,0.15676102,-0.8480626,-0.77334243,0.5929234,-0.4008038,-1.200497,0.36046574,0.13530146,-0.31554714,-0.002336659,-1.0180967,-0.6546964,-0.15075497,-0.29408777,0.39952704,-0.57195395,-0.5770027,-0.71041536,0.4370486,0.01290498,-0.3775364,-0.21724127,0.36768627,-0.11202492,-0.145216,-0.25393257,-0.36572063,-0.27942368,-0.9006194,0.8937916,0.35377225,0.44513908,0.15920877,-0.7510438,-0.084038496,-0.22062606,-0.052284956,-0.37190902,-1.189531,-0.7506832,-1.2714486,-0.37679562,-1.1541513,-0.36746526,-0.0687031,-0.3727137,-0.41741854,0.02990776,-0.23870853,-0.2364688,-0.094595894,-0.8073898,-0.7432637,0.36505803,-0.7511482,0.834025,-0.09779584,0.82508475,-0.47105873,0.9357371,-0.34325257,0.1856488,-0.94274265,-0.7293933,-0.6026495,-0.5883813,-0.54820955,0.3836408,-0.40123546,-0.19524619,-0.04851866,-0.9108822,-0.079507604,0.16223325,-0.90807515,0.14484937,-0.07547567,-0.94200176,0.12370947,0.28075835,-0.26181704,-0.6560537,-0.15113758,-0.2900418,-0.91861224,0.5163594,-0.7699412,-0.45462844,0.36085847,0.9601556,0.06999805,-0.9043452,-0.95457983,-0.050171454,-0.9840435,-0.96314913,-0.26056212,-0.6391933,-0.79368645,-0.5781089,-0.1531015,-0.6853992,0.50232315,0.14397937,-0.9343086,-0.6031187,0.4681753,0.17722803,-0.13441992,-0.3846184,0.055303954,0.28959882,-0.26553223,-0.75058264,-0.6418467,-0.20740794,-0.5209358,0.31575742,0.2859856,0.90141237,0.41874978,0.005198174,-0.5947801,0.64261585,0.35552412,0.40154186,-0.16933158,-0.6862206,-1.2629611,0.1741278,-0.15438227,0.67617595,-0.8717499,-0.34042898,-0.8316,-0.68870735,0.1743711,-0.07220285,-0.25930762,-0.84615254,0.25850892,-0.86867857,-0.29671052,-0.21173754,-0.19892527,0.06830006,-0.38266814,0.7466519,0.396648,0.6397936,-0.70107484,0.46538994,-0.59305215,-0.50136983,0.1608556,-0.42565367,0.21954949,-1.1857054,-0.47303945,-1.0823383,-1.0285249,-0.42447338,-0.6911558,-0.7340581,-0.121769115,0.66100025,0.6725594,-0.19737126,0.46480533,-0.90092945,-0.05289229,-0.24513088,-0.7613803,0.110814005,1.0226649,0.34093255,0.42497647,-0.33407617,1.1615111,-0.8390061,0.71115106,-0.5818608,0.022625783,-0.08934155,-0.27178118,-0.03326932,0.7521628,-0.63468075,0.8781226,0.23470458,-0.1856592,0.65905493,0.22889984,0.41407448,-0.36689058,-0.65535605,-0.0028029282,-0.83997995,0.7578593,0.17169933,0.038637962,0.43848497,0.36640838,0.28698945,0.35614374,0.2759023,0.8171236,0.34411317,-0.40465605,1.1944872,1.1503508,0.49464923,0.8485388,-0.35128352,0.13640109,-0.31960952,-0.9993182,0.23127957,0.065111816,-0.9906152,-0.07767214,0.105783656,-0.35233244,-0.15004313,0.6787621,-0.0012925325,0.08103023,0.12360558,0.41122055,0.51083696,-0.3200346,0.8676645,1.194971,0.83852196,1.3691452,1.2999271,0.8529023,0.59005207,1.1072953,-0.0921994,0.68860525,0.54515845,-0.53155106,-0.040719118,-0.74328405,-0.101419955,-0.9017343,0.6132025,0.7672048,0.81613564,-0.6543361,-0.5537915,-0.55979526,0.42841578,0.77562284,-0.9113147,0.30206662,0.08044354,0.8530174,-0.32622585,-0.56212765,0.6082445,0.009625828,0.80401284,-0.16948868,1.136351,0.28162822,0.53551036,-0.50533,0.054947283,-0.40282652,-0.4051623,-0.46745458,0.05026912,0.98591816,0.24654913,0.3168064,-0.050730724,0.40281153,0.5877615,-0.1974634,-0.51395243,0.19257905,-0.5527522,0.83616173,-0.10765343,0.268469,0.5544471,0.7319743,-0.4243563,-0.24328443,-0.12044166,0.18591435,0.81060135,-0.78709286,0.41538098,0.5591909,0.68698895,-0.12351582,0.17463365,0.24372946,0.12426494,0.22925872,0.25369087,-0.26832393,0.7312285,0.14159,-0.27841306,0.6850399,-0.002488017,-0.3422861,-0.15032244,-0.21045741,-0.14690739,0.33131334,0.60849255,-0.8365632,-0.2621383,-0.054730754,-0.739826,-0.31587037,-0.15334082,-0.4751598,-0.3931796,-0.58673227,0.32118922,-0.3530375,0.34801826,0.41906753,0.6626155,0.32300037,0.56301767,0.95471984,-0.40727663,0.7964312,-0.92768455,-0.26789165,-0.25890303,0.1275121,0.24325758,-0.19190225,-0.82417524,-0.5123933,-0.92774755,0.2594742,-0.60528684,-0.35535288,-0.65579385,-0.3177039,-0.73832554,-0.8611465,-0.061352894,-0.11978588,0.12893473,-0.8679117,0.5750616,-0.035188895,-0.45152506,-0.75411403,-0.9129075,0.104242325,-0.26864266,-0.5603206],"bias":0.43829754},{"activation":0.96994174,"weights":[-0.4850384,0.0025299788,-0.97556376,-0.08052528,0.07648778,-0.22819233,-0.0045011044,-0.6333319,-0.15830624,-0.8591864,-0.22159493,-0.92885995,0.05035244,-0.22769809,0.6905251,0.8473414,-0.52111053,0.23092711,0.5522263,-0.67864037,0.89691365,-0.44097817,-0.6515683,-0.6704658,-0.89683914,-0.1193347,-0.58451855,0.7821381,0.016686916,-0.05323267,-0.5528817,0.40855706,0.6941545,-0.6420371,-0.41974217,0.17608047,0.86239463,0.9358516,-0.97529495,0.79009616,-0.49629265,-0.688379,-0.8572975,0.57781243,0.8239488,-0.04943485,0.21936074,0.22283393,-0.55099034,-0.38167098,-0.88052005,-0.753997,-0.3738072,0.0379411,0.23873615,-0.23619878,0.39674377,0.41614497,-0.7194652,-0.9366416,0.3879209,-0.37087467,0.9800566,0.65018916,-0.5253738,0.6224854,-0.6422024,0.052796032,-0.38538435,-0.30118582,-0.8196872,-0.24913315,-0.22743258,-0.4806855,-0.42339438,-0.17902668,0.50705475,0.96956587,0.49937487,-0.32217634,-0.9948563,0.75117445,0.48829544,0.18100202,0.15729702,-0.3064493,-0.7602953,-0.0985027,-0.63262314,-0.1270438,-0.9562637,0.5797926,0.34324923,-0.79509974,-0.18365803,-0.030060127,0.24637382,-0.77355707,0.60784715,-0.7526242,0.7040796,-0.9183576,0.18580295,0.16454372,-0.31664327,0.47764462,-0.42174464,0.5616457,-0.2408912,-0.72649497,-0.06710698,0.12566161,0.034788847,0.4479582,-0.9612561,-0.7902214,-0.1496252,-0.94633347,-0.3510179,-0.8872941,-0.29208735,0.13998738,-0.8019948,-0.7418566,-0.68432426,0.63604516,-0.1715298,-1.07803,0.38096756,-0.12762195,0.64647245,-0.44557732,0.44266704,0.019701181,1.1549492,-0.6152922,-0.8616574,-0.024246454,0.92636406,0.18346974,0.92264163,-0.36957395,-0.8654428,0.913583,-0.24179147,-0.02003963,0.11184325,0.8522033,-0.43409157,-0.5383913,-0.3710794,-1.1515524,-0.27597696,-1.1531345,-0.48981172,-0.8461373,0.43123984,-0.18582511,0.25421008,0.36811048,-0.45405304,-0.3955643,-0.6647224,0.19963655,-0.031211179,0.98697454,0.110453226,0.045249525,0.6796385,0.48731875,0.6673311,0.98090893,0.77175003,0.6178919,-0.4560853,0.27214313,0.5004764,0.33439615,0.17180417,-0.45564717,0.41110322,0.39877236,-0.97954327,0.9106394,-0.03354836,-0.7656891,0.15466511,-0.7021696,1.0041404,-0.5346947,1.15229,0.10204665,0.90932775,0.120422445,0.1838495,-0.67269015,-0.7762452,-0.7708245,-0.09081291,0.90091264,-0.56057984,-0.48044366,-0.20398887,0.05327314,0.25716546,-0.52703327,-1.1612815,-0.19100143,-0.3422388,0.26570466,0.09319145,-0.4102501,-0.010971763,-0.86764294,0.15934263,0.5237604,0.29552343,0.13705513,-0.80016536,-0.79736185,-0.52494484,-0.62292135,-0.5736613,0.51680565,-0.22979765,0.036747694,-0.9322819,0.5176403,0.59013295,-0.8715517,-0.33111104,-0.11701194,-0.9334892,-0.013419771,0.34435567,-0.6519907,-0.9049642,-0.19432016,-0.8471596,0.107533194,-0.37505132,0.06841967,-0.6865246,-0.9996878,0.33251363,-0.100956865,0.08200985,0.41962248,-0.87156963,0.6495814,0.42951813,-0.8726914,-0.8451783,-0.82875115,-0.3661397,0.124670655,-0.18009593,0.25593013,-0.69397694,0.11575249,0.6127619,0.13202651,0.22653185,0.24568076,0.046985324,-0.06781013,0.02843117,-1.0429604,-0.49042824,0.1345044,-0.49552128,-0.89514,-1.1837032,-0.23070788,-0.274112,-0.9368084,0.15781851,0.43182287,0.14015074,0.67539096,-0.54984385,0.55167866,-0.39266384,0.7406874,-1.0702137,-0.6372195,-0.31017205,0.3382891,0.07124993,-0.5395703,0.5595051,0.34999016,-1.0264755,-0.084109455,-0.29171532,-0.44554752,-1.3075135,-0.96114,-1.074377,-0.13756374,-0.6628252,-0.61612153,-0.8780321,0.7884707,0.0073977155,0.35051012,-0.8965433,0.71714497,0.3082197,0.67752135,-0.35281485,0.11419113,-0.18904543,-0.059155054,-0.052405152,-0.071801655,-0.025982205,-0.20956391,0.081805,-0.26443645,-0.18237406,0.6443809,0.28877565,0.05268627,-0.8194018,-0.23842736,-0.04775821,0.20154274,0.12084984,-0.5012517,0.21196242,-0.22283816,0.2114493,0.5465719,-0.8976354,0.7983845,0.96116734,0.35643724,0.2655554,-0.7329855,0.13682728,0.21057817,1.0417354,0.1020882,-0.26642454,-0.07289387,0.29344168,1.3718445,0.33770725,1.3481784,1.1844599,0.1868366,0.2752581,-0.101647556,-0.08160825,-0.012258036,-0.7530785,-0.21875462,0.13254654,0.5428725,-0.33272856,-0.9171199,0.36135346,-0.49596423,0.91276556,0.3932305,0.4391996,-0.6308909,0.19487095,-0.79647297,-0.26454255,0.7660063,1.1358911,1.0212932,1.2442787,0.73342556,0.423641,1.2268124,0.8111354,1.4467844,0.14375162,-0.17445649,0.82263094,0.3820607,0.307743,0.5017975,0.14405763,0.33012316,-0.8643366,-0.5756048,-0.6117918,0.86067045,-0.9791967,0.66198593,0.8785631,-0.6643152,0.6143533,0.88222,0.9856499,1.1030349,-0.29003316,-0.018611865,1.2417108,0.01872244,-0.25969666,1.0310111,0.9751316,0.21927556,1.0499072,-0.46033564,0.3904795,0.06425916,0.39423084,-0.7594118,0.5717317,0.084942624,0.7824594,-0.8013658,-0.85467833,0.17951852,-0.79176235,0.18086652,0.3153551,-0.8868706,-0.9917516,0.123890474,-0.7232498,-0.6218033,-0.24478905,0.3249916,0.7215902,0.128685,0.37094748,1.1499144,1.2883614,0.106403336,0.44731522,0.8200388,-0.41273427,-0.3087588,0.8980736,0.020608304,0.1366332,0.7147623,0.83717453,-1.0192682,-0.51627815,0.32383463,-0.6090197,0.12962699,0.7204799,0.15246697,-0.8105852,0.05158949,-0.3889707,0.37100607,0.40669188,-0.53649986,1.0681232,0.94845444,0.49626005,-0.26698062,-0.25010398,0.9357476,-0.2309165,0.0029350037,0.8204333,-0.61599463,-0.6633812,0.1843805,-1.0334523,0.37460458,-0.95672596,0.27196434,0.3281695,0.8923836,0.44668996,-0.26010728,0.42672104,0.2144807,-0.8116669,-1.0548177,-1.1223803,-0.51018167,-0.26160583,-0.8018843,-0.059646208,0.5106734,-0.47712868,1.2172533,-0.52757394,0.2711385,-0.61300236,-0.1363297,-0.1270116,-0.23059027,0.1278189,0.43641326,-0.72347116,-0.26535192,-0.74129426,0.44986346,0.3406744,-0.6312899,-0.25933734,-0.11045343,-0.9133541,0.88739467,0.45593673,-0.5290371,-1.3188143,0.38198495,-0.7635185,-0.72919154,0.5294137,0.6223255,-0.59651124,-0.10177104,-0.07156887,-0.91688997,-0.15900043,-0.43945584,0.035902157,-0.5361427,1.0450777,0.34823322,-0.804083,-0.39048994,0.2076898,0.2448267,0.33769342,-0.49912763,-0.24070571,-0.20227997,0.27444962,0.9082275,0.28886202,-0.788734,0.11807051,-1.1461197,-0.9677663,0.09330263,-0.6172268,-0.12850882,-0.009732702,-0.733351,-0.82125366,-0.059156474,-0.13266677,-0.13252236,-0.27658963,0.2271914,-0.6735383,-0.6787122,-1.0747846,0.14640838,0.28986308,0.8348035,0.87200093,0.06823103,-0.36297572,0.8352816,0.22898485,-0.5645783,-0.019248527,-0.69562054,-0.3347997,0.31773445,0.24609973,0.016990507,-0.1055694,-0.8326751,0.64471513,-0.6932749,0.13992064,0.038995247,0.34277686,0.10015751,-0.54465806,0.08383093,0.49438155,-0.46586764,-1.0444365,0.2464888,-0.31022096,-0.7866668,-0.7442024,-0.04302783,-0.16403364,0.5761674,-0.75090355,-0.4904517,0.20453326,0.20446955,-0.19925007,-1.0791348,-0.5722071,-0.32153985,-0.3289348,-0.17172018,-0.2299267,0.55635464,0.21169789,0.45669875,-0.055363525,-0.6384593,-0.63908225,-0.60754794,-0.64619094,-0.38095012,-0.54392457,0.57655096,0.31919408,0.044155464,0.5971998,-0.5037914,-0.6487947,0.2642965,-0.3578795,0.92975825,0.58234066,-0.21230634,0.20297417,-0.06426433,0.3561919,-0.99138904,0.46594426,0.052036785,0.2008256,-0.67231506,-0.16904199,-0.8924761,0.055127613,0.89621496,0.77118224,0.032254357,0.34710383,0.32930648,-0.39972082,-0.9782345,-0.9837173,0.47371998,0.47658423,-0.6526407,-0.07411182,0.55033576,-0.6650544,0.9379043,0.16410673,0.14812613,-0.36907852,0.21433802,0.44757497,0.72691965,0.83454615,-0.88395643,0.3488002,0.61599374,-0.31772992,0.29257932,0.9107576,-0.26256126,0.39147955,-0.30378407,-0.045166958,-0.79964894,0.88154835,0.5865802,-0.15959519,-0.91624856,-0.93916744,-0.25018024,0.7932304,-0.16424382,-0.4762943,-0.7865218,0.38027057,0.83318216,-0.39831007,-0.6958413,-0.78785384,-0.8033211,0.41500208,0.6898332,-0.64397573,0.4736727,-0.67012143,0.27500555,-0.87093526,0.26256,0.13631919,0.0197833,0.82244384,0.5113928,-0.59446555,-0.13780873,-0.47061503,0.98776555,-0.19442347,-0.89144087,0.87677145,-0.30340528,-0.5790334,0.92467004,0.66616637,-0.46990108,-0.20347497,0.33480284,0.8168389,-0.61334014,-0.90883577,0.3921496,0.17151195,-0.34024358,0.10773986,-0.05074228,0.42573023,0.368935,0.5182119,0.64145136,-0.06284113,-0.6319386,-0.10092065,0.99917984,0.6289072,-0.94106823,0.5756156,0.5562998,0.28578043,0.7427559,-0.18580472,-0.103102,-0.8444433,-0.69503075,-0.46869305,0.64343923,-0.018265879,0.40610826,-0.13554099,0.6578753,-0.10884964,0.4509742,0.17777568,-0.46839982,-0.30883428,-0.7487842,0.38940796,-0.29363003,0.8433568,-0.2391081,0.41860658,0.2404403,0.13899305,0.62381256,-0.93054926,0.15643275,0.23306346,0.19693911,0.99039257,-0.8612188,-0.25817773,-0.6040126,0.6739857,0.526844,0.86846167,-0.71307427,-0.39445007,0.34648243,-0.80040866,-0.19114345,0.24626563,0.85657203,0.8722278,0.73724496,0.77416533,0.6456362,0.022424424,0.9307582,-0.7036816,0.29785344,-0.14902103,-0.38252223,-0.6263367,-0.2590766],"bias":0.013761484},{"activation":0.96865743,"weights":[-0.0075006485,-0.5057945,-0.62327886,-0.5247761,-0.7251092,-0.9441687,-0.6419171,-0.8662437,0.13615644,-0.67203176,-0.8513403,-0.5183487,0.9072473,-0.42078325,0.2761444,0.9747699,0.6690086,0.3239938,-0.24765933,0.28135848,-0.012498617,-0.2661811,-0.08676171,0.30550802,-0.65008605,0.952134,-0.72822213,0.7627274,0.22215807,0.84992695,0.5744517,-0.22655416,0.62567294,-0.49155658,0.46464178,-0.98973894,0.3916699,-0.6968769,-0.85378456,-0.18609557,0.5663556,-0.73476774,0.17217611,-0.8916282,0.6370086,-0.4683301,0.5792445,-0.2578719,0.69946706,0.044481523,0.65641725,0.18252757,0.7152022,0.50855327,-0.98535895,-0.70368814,0.1459887,0.4227109,0.11315614,-0.7611152,-0.5870774,0.3270452,0.19860926,-1.0086145,-0.09048065,-0.8671176,-0.49402654,-0.9565592,0.67690736,-0.28903502,-0.6761251,-0.7116532,-0.48914167,0.26987574,0.44313443,0.5555796,-0.32217348,-0.98548126,-0.65726167,0.27978438,-0.47588378,-0.18690948,-0.22241354,-0.9708004,-0.323493,-0.48841536,-0.10512332,-0.968586,-0.06859595,-0.93713325,0.27090305,0.72890955,-0.45228648,0.41423073,-0.9754694,0.72500837,-0.89343673,-0.8698745,0.1925967,0.3413406,-0.9677673,0.21562561,-0.33606496,0.16941935,0.080980174,-0.03128509,-0.55245316,0.8598193,0.52383953,-0.45824403,-0.54760486,-0.73399866,-0.96906936,0.9892419,-0.6133125,-0.023825642,-0.17737511,0.90453,0.0034014734,0.5962715,-0.97077495,-0.51290655,0.7156683,0.33569416,-0.71614057,-0.32778227,-1.0961139,-0.214011,0.29335463,0.87158185,-0.60559106,-0.6400412,0.09644094,-0.771309,-0.14802572,0.59928477,0.6530273,-0.19786727,0.33283958,0.13440256,0.7703494,-0.27448213,-0.72404814,-0.8278015,-0.7321664,0.5367202,-0.016480802,0.8567614,0.2565125,0.76416975,0.68150854,-0.08486521,-0.4628521,-0.034613248,-0.5518096,-0.42092425,-1.4563186,-0.19355193,-0.5311789,-0.594576,0.7025991,-0.1115588,0.4312366,0.888727,-0.39638144,0.78621167,0.85386056,-0.80997926,-0.37592316,-0.7701201,0.4567413,-0.51753074,-0.3865348,0.5837008,0.905102,0.009843459,0.3001565,-0.23813835,0.3657211,-0.23179175,-0.23402505,-0.044327773,0.2686078,-0.4899848,0.16901086,0.25883108,0.0022399132,-0.69725126,0.022685667,0.53249943,0.8705012,1.0262188,-0.23040102,-0.8059462,0.7164482,0.47586673,-0.8762268,0.3570969,-0.35843152,0.7117877,0.14272617,0.31335995,-0.2408138,0.5045537,-0.008646367,0.32267275,0.5665209,-0.46787992,0.31064206,0.7612198,-0.6637385,0.12050374,0.16756816,0.09814509,-0.28412506,1.0203875,-0.20574428,0.24930201,-0.48662898,0.72583574,0.81186146,1.1892947,-0.49656773,0.63013846,-0.8253638,-0.177117,-0.18621413,0.80008936,-0.57674915,0.09230613,-0.39663208,-0.22770531,0.9965073,0.26311937,0.50015557,-0.27769467,-0.2924361,0.007592136,-0.038994186,1.1842741,-0.42785877,0.4166743,0.52981806,0.6878402,0.49747655,0.6177637,-0.8071263,0.6399282,-0.2768119,0.15828584,-0.063068256,-0.27045357,0.6486261,0.5747985,0.69796306,0.1743031,0.76768523,0.7090818,1.0072311,0.63875216,-0.5477564,-0.3373836,0.13904235,1.0628802,-0.2011967,-0.27141798,-0.5418336,0.57260996,0.94011474,0.92067397,0.45524508,0.78434557,0.5357334,0.2078427,0.21401258,0.756101,1.0125957,-0.38220298,0.002856485,-0.046040364,-0.23032,-0.5108736,0.12109359,0.8174338,-0.45473558,0.013585029,0.08596676,-0.8452685,0.8138575,-0.014772409,0.7278258,0.41371688,-0.31323478,-0.30978855,0.7121058,-0.7469274,0.08989297,0.5376302,-0.19974166,-0.7320431,-0.75356376,-0.6954781,0.5716093,0.27986255,0.15923832,-0.7834231,-0.7078711,-0.70544,-0.89284754,-0.5364911,0.51034313,0.0629677,0.015531424,0.5760419,-0.63869023,0.86045223,0.38027328,0.43685833,0.25858995,0.7155108,0.5359606,0.25056228,0.1748876,0.23147817,0.9644678,-0.4858247,0.6521559,0.2772265,-0.98436314,-0.14817615,-0.8991366,-1.1466051,0.19847883,0.4868678,-0.6521184,0.14856797,0.22222166,-0.41093856,0.76290023,-0.50173503,-0.38163272,-0.71000355,0.9967702,0.68975925,0.52257407,0.25333282,0.50155,0.7302571,-0.24864927,0.4149133,-0.7256934,-0.57422817,1.0476564,0.48655123,0.8023471,-0.042282306,0.34082288,-0.27601534,0.122509204,0.23275897,-0.26383072,0.91438454,0.7811317,0.13445099,-0.095041074,0.062101714,0.22024627,-0.3598255,0.18664506,0.63447595,-0.88756084,-0.52939075,0.3698711,0.036556423,-0.5548986,0.7522313,0.13766423,0.37304842,-0.96689916,-0.2408417,1.0299987,1.4110384,-0.5892955,0.98143035,-1.0999699,-0.2903413,-0.1141054,-0.3373825,-0.6805221,0.63731885,0.94993114,0.17224056,0.5602205,-0.035571534,0.2762158,0.99633217,1.0181676,-0.6984103,0.26008654,0.44494474,-0.6520213,-0.34655508,0.77953744,-0.47623554,-0.422181,0.3382216,-0.7201819,0.029797675,0.2315264,1.0607305,-0.18630648,0.027986553,-0.6486803,-0.034735825,-0.6228013,0.10345834,0.60657376,-0.90311486,-0.7297161,0.6849449,0.7807954,0.6670783,-0.74597263,-0.6274092,0.9031752,0.74365,-0.4206446,-1.0482725,0.31959966,-0.42587808,-0.7128829,0.64025855,-0.31991276,0.40918124,-0.835608,0.30126488,-0.021115405,0.92280436,0.98866844,0.70164543,0.88937896,0.6475339,-0.62788796,-0.24386005,0.22670768,0.6293995,-0.7322314,0.42107627,0.16566016,-0.2749942,0.29510432,-0.31063607,0.76839435,-0.50969106,-0.80133307,0.24850811,0.0075564915,-0.1236085,-0.48767054,-0.1972715,-0.6062249,-0.87655574,-1.149061,0.20709428,0.49750406,0.6960648,0.010778405,-0.041725684,-0.27039152,0.80571157,0.37412423,0.24476124,0.10948886,-0.13673422,-0.67648894,-0.25648344,-0.7333349,-0.7494338,0.29403916,-0.16931623,-0.764956,-0.22547406,-0.8372701,-1.1036474,-1.3121933,-0.9481059,-1.0789586,-1.3990633,-0.17261183,-0.91834044,0.16832094,0.91716254,0.84395194,0.45286962,0.8677657,0.46713126,0.55384076,-0.8321688,0.59754896,-0.8185624,-0.9850747,-0.87387943,-0.56351304,-0.23751013,-0.10694101,0.2051165,0.33511087,-0.055688206,0.33202517,0.34030563,0.17269628,-0.045578994,-1.188555,-0.30299884,-0.64472836,-1.1232262,-0.44599584,-0.40130404,-0.33609074,-1.2134935,-0.021363083,0.37087107,-0.5291805,0.5464402,-0.5507081,-0.047244415,-0.5038761,-0.78947026,-0.9847171,-0.4334632,0.68499035,0.3322863,0.96863526,-0.6115644,-0.8125125,0.8434223,-0.05364536,0.3996337,-1.0947068,-0.008761179,0.006358515,-0.54974025,-1.8048172,-0.5724852,-0.70876133,0.15526074,0.23585327,0.1819843,-1.0306654,-0.15705283,-0.37083232,-0.6042714,-0.23830897,0.5812257,-0.66500056,-0.035932582,-0.27341282,0.27812028,0.74727213,0.5185964,0.043025613,0.5905326,-0.39450052,0.9144412,0.19948296,0.19862907,-0.74625474,0.186432,-1.2035822,-1.3954327,-0.6985851,-1.0342722,-0.8646416,-0.91390043,-0.59756094,-0.6751897,-0.053587556,-0.38546777,-0.5939553,-0.022839813,-0.853616,-0.97110844,-0.048995547,0.9197075,-0.46092707,0.32042578,-0.90924317,0.99157923,0.94611794,-0.41886494,-0.81208235,0.71690696,-0.6202943,-0.81258124,-0.05151989,0.115347154,-0.92378944,0.71822697,-0.45184532,-0.3435626,0.20295532,0.009555653,-0.105188385,-0.35769692,-0.4646103,0.81265175,0.33870822,0.18675901,0.79911584,0.16346052,-0.32490432,-0.5864571,0.16457838,-0.4319216,-0.54478014,0.9038859,0.8321357,-0.5068259,-0.9818354,0.62133497,0.03902712,-0.84695035,0.35286617,-0.43950424,0.6274723,0.42660552,-0.3325345,-0.6117805,0.5599031,0.24616109,-0.9383482,0.5180413,-0.4421425,-0.28551966,-0.77251554,0.2512522,-0.23963621,0.12095958,-0.22065453,-0.3301118,-0.20854492,0.23034918,0.4928847,-0.25611734,-0.8701285,0.048163295,-0.2298002,0.41033962,0.416038,0.7939727,0.31446353,-0.02701783,-0.61470896,0.0072145257,1.0443879,-0.22591805,-0.008527583,-0.6326809,0.40198433,0.6517589,-0.6533073,-0.048383776,-0.55801386,0.39856136,-0.83227324,-0.42880294,-0.1083199,0.94666946,0.4203475,-0.17586872,-0.94028777,0.1527096,-0.5404291,-0.97579014,0.38411433,-0.28543836,-0.24761052,0.96651757,-0.3010086,0.97759897,0.29769868,-0.44946808,0.041714035,-0.32076097,0.7424397,-0.58343863,-0.032908786,0.43705618,-0.5579539,-0.05073465,0.8459945,0.35558018,-0.17765793,-0.6584808,0.74690706,0.391127,0.049858972,0.6335304,-0.16222526,-0.047478437,0.67163265,0.95493984,0.30063772,0.19449197,0.83506775,0.8774696,-0.14488898,0.035999794,1.1409496,1.0427148,0.66554785,0.16008748,-0.33829603,0.80860174,0.90807563,1.1095706,0.16593619,-0.7505618,0.36090925,0.8880762,-0.49901512,0.9478864,0.5117639,-0.9294604,-0.74486727,0.9468598,0.8092479,0.89126396,0.117565036,-0.3885435,-0.71618974,-0.29840347,-0.5819551,-0.7942405,0.7863566,-0.18828337,0.015057423,0.3383675,-0.82015985,0.17966717,0.59253585,0.95780414,0.7921984,0.27835104,0.5757807,0.3252459,-0.7017639,1.0001165,0.7087986,0.046268284,-0.84430975,0.27267548,-0.94469035,0.4335002,-0.43120313,0.19020033,0.37851346,-0.084053874,0.2842282,-0.12650597,-0.1114241,-0.24586539,-0.3853468,-0.24285439,0.8183935,-0.37995705,-0.36527976,0.04625987,-0.17152159,-0.17009506,-0.77996284,0.8850806,0.20964946,-0.16676253,-0.8403923,0.297387,-0.7989303,-0.25715885,-0.8063627,0.85327655,0.8960992,0.8457674,0.3074683,-0.9283464],"bias":0.34893823},{"activation":0.639148,"weights":[-0.5221987,0.8403022,0.58422244,-0.12657177,-0.51186776,0.15154147,-0.31625736,-0.47375178,-0.7667749,-0.20979047,-0.085724235,-0.2518258,-0.61518157,-0.6371677,-0.47419465,-0.033309545,0.15081346,-0.15242386,-0.7531929,0.26205504,0.057121634,-0.9201268,-0.06786442,0.11361277,0.41784072,0.8155745,-0.19152117,-0.06593549,0.9123223,0.94529974,0.7671273,0.9419688,0.7542411,-0.12767406,0.9756776,0.9305164,0.6255881,-0.9169926,0.86355627,-0.6917814,-0.88253057,-0.4262078,-0.24401511,0.3755307,0.24600187,0.2979604,0.69900346,0.55790496,-0.86295044,-0.83569336,0.035873048,-0.6188299,0.3761685,-0.11810112,-0.46660817,-0.7201866,-0.15984094,-0.615718,-0.08151819,-0.7418868,-0.26615003,0.274904,0.12002434,-0.87831515,-0.81585777,0.49595967,-0.2329087,0.8709779,-0.6448402,-0.7298352,-0.050283298,0.45887232,-0.14949724,-0.39222544,-0.45106846,0.91733444,-0.40221512,0.15990768,0.13001265,-0.5120464,0.69363886,0.19438578,-0.7302674,-0.6198553,-0.9993285,-0.56542075,-0.42399493,-0.7127434,-0.121875905,-0.04976771,-0.67774373,-0.4446525,0.30288535,0.73587203,-0.61610484,-0.16725795,-0.033794526,0.052223068,0.8666011,0.77385235,0.5145191,-0.29010788,-0.6689156,0.6923287,-0.4807965,-0.027194066,0.2680664,0.011860128,0.9776576,0.524068,0.22478417,0.7285626,-0.84839,-0.17395042,0.8455403,-0.5687871,-0.18747865,0.60754716,0.5977,-0.6387043,-0.46283424,-0.8596271,0.20740475,-0.25181207,0.60702324,0.47874355,0.4833818,-0.6658685,0.4027576,0.48868755,0.040536784,0.36762264,-0.580574,0.08879022,0.6350095,-0.017688137,-0.48331407,0.06991873,-0.030079225,-0.4378401,0.91146445,-0.37605882,0.12421884,-0.5753517,-0.03412902,-0.7243558,0.7450338,-0.5017723,0.33437878,1.0331892,0.19936407,0.9853204,-0.26495212,0.36047122,0.85533124,1.1858327,0.2355623,-0.22900535,0.92022216,0.3679452,-0.8955926,0.6034702,-0.5045637,0.7421409,0.7053682,0.17130822,0.34135798,-0.11380845,-0.9117769,0.057937667,0.7956347,0.55394834,0.005233964,0.49406686,-0.15312505,-0.6885966,-0.7231634,-0.4707395,-0.49732175,-0.27225432,1.000087,-0.53926843,-0.41236115,0.6810877,1.0373574,-0.16728064,0.7908583,0.7822823,0.30693057,-0.12179959,-0.46046248,0.38014397,-0.22627524,0.38841665,0.36701632,-0.2525108,-0.48302132,0.78702086,0.741328,-1.0011939,-0.8133096,0.19039819,-0.049909193,-0.7747759,0.60980636,1.0862279,-0.27960092,0.19554205,0.18375942,0.4388944,-0.7129073,-0.026433814,-0.31195998,-0.042395238,-0.6643479,0.59286916,-0.041340526,-0.5993491,-0.022970516,1.1578062,-0.12916435,0.8547895,1.0082688,0.81102806,0.74112624,-0.07618287,0.87493616,-0.8596479,-0.63771874,-0.66666937,0.08478609,0.28667992,-0.42912146,-0.71063167,0.35956806,-0.48774722,-0.17906076,-0.8053656,0.05243473,-0.010884105,0.12416553,0.2221847,-0.77344775,0.36698103,-0.016686087,0.5443045,-0.20038818,0.9132466,-0.48624936,-0.6048296,-0.42826134,0.3540547,0.42290604,-0.77566266,-0.4608993,-0.55072796,0.7155857,-1.1953639,0.5925017,0.022372529,0.28721195,-0.30001238,-0.1089723,0.58934325,0.08622442,-0.46354073,-0.631498,-1.1056279,-0.29644772,-0.11572682,-0.6780211,-0.043928094,0.007642923,0.7150177,-0.38145486,0.9985511,0.5818088,0.16966343,0.9047944,-0.938753,0.42421582,-0.17326899,0.74123466,-0.92464846,0.31477788,-0.7512606,-0.8498886,0.24365632,0.46952692,-0.5310932,0.07333758,-0.45752853,-0.45926017,0.53725904,-1.3296337,0.09031875,-0.723089,-0.3735486,0.48721084,0.18077786,-0.22076182,0.08853557,-0.12891336,0.9151269,-0.14907311,0.567756,0.11038775,-0.0734972,-0.23702775,-0.9608129,-0.5946865,0.030832859,0.0073964796,0.61652184,0.05518542,-0.5026948,0.66968745,-0.7645353,-0.45003137,-0.25472853,-0.5103057,0.36891133,-0.27348343,-0.47572604,-0.9316891,0.39560968,-1.1735882,0.34957245,-0.6436797,-0.115010574,0.2397731,0.99055433,-0.45742184,0.5086712,-0.0034628229,0.5104211,-0.94683886,-0.9929323,-0.9081519,0.65029895,-0.49593416,0.34491414,-0.7328741,-0.060564112,0.71453685,0.14916259,0.7071286,1.2113228,1.0172035,0.26094976,-0.14853206,-0.725599,0.80567294,-0.64273834,-0.6901754,0.42332628,-0.6832397,0.50194955,1.0281231,0.11447054,0.8531398,-0.031246373,0.3582122,-0.30790034,-0.37806895,0.49642396,-0.24922512,-0.24864699,-0.955158,0.8621679,-0.3061588,-0.29555294,0.4867558,0.8282404,0.3226097,-0.1707744,1.1771295,-0.76467466,0.00034335564,-0.37262022,-0.8456314,-0.5067055,-0.9324651,0.2465917,-0.67396563,0.5905276,-0.5336417,0.05966066,0.7605464,0.15263727,0.5732201,0.55222243,-0.99230784,-0.28811246,-0.23687388,-0.09724863,0.3050867,-0.011697738,0.6100427,-0.054477353,0.5706119,-0.17077664,1.0191666,1.1005433,1.3343532,-0.7122925,-0.02210432,0.80551857,0.7099485,0.036120858,0.34009877,-0.81547236,0.026928395,0.88553256,0.618006,-0.6004865,0.07480375,0.85909575,-0.5992478,0.52582645,0.63827103,0.8757484,0.924292,-0.7297923,-0.88877845,0.8204945,-0.36504805,0.7996078,-0.4168826,0.045597825,1.2404344,-0.31746182,0.7035537,0.08591464,-0.9134926,-0.2834038,-0.6596382,0.08804498,-0.953078,-0.62352544,0.5946536,-0.57979745,0.3865527,-0.5119062,-0.48461547,0.624807,0.61910194,-0.42853436,0.7595076,0.27174836,-0.1200798,-0.13283704,0.43255422,0.1278878,0.4090654,1.2492288,0.13194947,0.99445564,-0.50052595,0.016765954,0.9573729,-0.3063866,0.56609565,-0.028580088,0.60700965,-0.59316814,-0.6600347,0.4405506,0.2225089,-0.121917635,-0.6449651,1.0437144,0.8487317,-0.088750914,0.2469386,-0.34882972,0.73341894,-0.45072007,-0.30107167,-0.23703852,-0.40242496,-0.66257477,1.2749549,0.5758954,0.23112732,0.6719364,-0.118484825,0.03097056,-0.8944681,-0.022313634,-0.07911327,-0.68778586,0.2504362,0.5910174,0.5775194,0.36922172,0.46763173,-0.21705317,0.6787058,0.419845,0.77575755,-0.86531514,-0.7105701,-0.272498,0.5353813,0.39669237,-0.8606493,0.16463067,0.581424,0.6337703,-0.17526928,-0.1003267,0.79873705,0.06891626,-0.23547804,-0.72596234,0.13170247,0.09519931,-0.27073628,0.057107028,0.6160422,-0.28418586,-0.06306567,0.8012256,1.041476,0.5879456,0.013482356,-0.057710756,-0.022522025,-0.18751805,0.9093664,-0.9149596,0.4686039,0.04552524,0.49959886,0.8072883,0.30059022,1.0137454,0.6955386,0.9514202,-0.213428,-0.025598167,-0.06429405,0.7075047,-0.7128888,-0.41673273,-0.22316545,0.006389046,-0.31031042,0.7159369,0.09573673,0.06347832,-0.67107147,0.36975017,1.0726696,-0.2580844,0.13609345,-0.117623046,0.3564238,-0.99223304,0.15732014,0.29033956,-0.59634686,-0.095928125,0.72936475,1.0633562,0.012402483,1.1851708,0.1631595,0.4087396,0.38703355,-0.27011064,-0.11466783,-0.7073245,-0.420507,0.99034125,-0.05111752,0.29200023,-0.069472976,1.0146145,0.33121768,1.1419433,-0.31383127,0.047155105,-0.17540361,-0.6979889,0.39197442,-0.41322795,-0.8638206,0.52822745,0.6263007,0.7927013,0.43284622,0.03504319,-0.31140223,0.5395549,0.21757221,0.45427954,1.1183379,-0.34852794,0.3539547,-0.048052102,-1.0230297,-0.078053825,0.43640873,0.15171225,0.72993743,-0.097853824,-0.37846595,0.64969456,0.9312113,0.041696317,0.7701351,0.46827066,0.7184353,-0.06831882,-0.43489146,0.80349684,-0.83655596,0.656825,0.0053004837,-0.64057904,-0.52801526,0.86471957,-0.26937908,0.23017105,-0.5244989,-0.2620996,0.3169274,0.7096467,0.13957883,-0.1222092,-0.4280044,-0.0121683,-0.32039508,0.62476844,-0.055613622,0.52299243,-0.100187905,0.78629464,-0.0013746138,-0.8292975,0.11527994,-0.8324018,-0.12538075,-0.16961324,-0.7774302,-0.65113664,0.09668548,-0.41323814,-0.09277125,-0.6299691,-0.10310151,-0.58922917,0.6250668,0.88238275,0.69301164,0.3382039,0.94170845,0.8865035,-0.34665158,-0.09547634,0.7257786,-0.22935297,0.119121805,-0.23498364,0.76941806,0.6636869,0.7097391,0.18053856,0.5684853,0.7147311,0.89442456,0.94906783,0.9158858,0.95070374,-0.36300406,-0.076049685,-0.47238368,-0.8270528,0.52761966,0.04625736,-0.16123176,0.18533668,-0.66764593,0.29284054,-0.7631674,-0.203294,0.42335546,0.16919748,0.5646007,-0.851657,-0.696243,-0.6488731,-0.41368318,-0.60494167,0.81767845,-0.9798385,-0.30200824,-0.53340566,-0.37933564,-0.44060147,-0.06024929,0.84606624,-0.87005633,-0.89586234,-0.07632836,0.18746938,-0.7161281,-0.58549887,0.1690057,-0.026123432,-0.8089975,-0.74714386,-0.6920363,-1.0288218,-0.52597207,-0.5496717,-0.3414726,0.8140638,-0.6869554,0.37159336,0.83740824,-0.36058962,-0.2966433,0.22689307,0.48873115,0.09191036,-0.6461692,0.2603469,0.14857244,-0.131343,0.47352794,0.26897225,0.88696605,0.7355371,-0.87720746,0.1935304,-0.8468179,-0.525751,0.5096383,-0.62091863,0.644474,-1.0409703,-1.0571443,-0.35620433,-0.7323684,0.8296728,-0.18660226,-0.82728297,-0.8428599,-0.60695827,0.009607502,-0.86421496,-0.55699205,-0.06963658,0.9029256,-0.245695,-0.35369408,0.82206273,-0.03480924,0.79679906,-0.6439149,-0.46192506,-0.17651565,0.5823862,-0.6234261,0.3945942,0.5740388,0.9019286,-0.33396968,-0.8319801,-0.11817166,-0.88071173,-0.8035793,-0.663315,-0.47414255,0.6810545,0.85026085,-0.97842324,0.19866836,-0.86530876,0.34357178,0.6792432],"bias":-0.8002162},{"activation":5.040036e-7,"weights":[0.51227844,-0.27898693,0.36519194,-0.10068798,-0.94163096,-0.28529084,-0.92486274,0.132864,-0.3557018,0.77535594,0.30079484,-0.65137136,-0.7245201,0.35131657,0.22255456,0.5177156,-0.09343302,0.26081693,-0.23777771,0.16517472,0.3270973,-0.25212288,0.9536767,0.5026169,0.424564,0.87765145,-0.12530625,-0.007622838,-0.51464,-0.04691279,-0.6203022,-0.51572573,0.28479493,0.36478072,0.0731233,-0.9949113,-0.92011917,0.79645437,0.2053169,0.5194571,0.6971937,-0.032348596,-0.37638545,0.7570309,0.47272617,0.015622574,-0.5538917,0.3544231,0.66830146,0.044257358,0.5068171,-0.08850214,-0.44743073,-0.768906,-0.9936625,-0.09499276,-0.44333053,-0.7310926,0.105257355,-0.59381,0.012679154,-0.8953431,0.50171036,0.48830128,0.49734864,0.51098543,0.0681847,-0.3947781,-0.10511578,-0.062403154,-0.83868235,-0.049985487,-0.38997176,0.40289617,0.2072421,0.8107212,0.37544823,-0.8289822,-0.425975,0.46102595,-0.43656665,-0.6648086,-0.6839156,-0.68011343,0.7265539,0.6877842,0.2454948,-0.30636734,0.27536392,0.90613264,-0.43381825,-0.62105465,0.1336627,-0.03743941,-1.0518132,0.55523676,-0.2602244,0.07022704,0.7311604,-0.50039876,0.13032824,-0.46482673,0.5286359,-0.43578044,-0.29011786,-0.1341225,-0.7699747,0.78397524,0.6084143,0.07722245,0.86373264,0.8531487,-0.15749383,-0.47253457,0.25093353,0.37749073,-0.2803229,-0.44741356,-0.711625,-0.37138167,0.071842395,-0.5604931,0.12740245,-0.91139036,-0.56444573,-0.21477114,-0.22427706,-0.2191858,0.79466134,-0.40735024,0.25270858,0.42064476,0.33980125,-0.3178077,0.31435797,-0.6622345,0.5388243,-0.69789785,-0.8311995,-0.81890756,0.008084774,-0.19628346,-0.41062716,-0.8832731,0.8381588,-0.9915384,-0.6152654,0.21713673,-0.24810056,-0.1514763,-0.5570533,0.4575979,0.38166654,-1.1607125,-0.5769965,-0.15841155,-0.18815169,-0.22997388,0.20718253,0.87892145,0.07839845,0.7990926,0.15208344,-0.589574,0.3564778,0.6458201,-0.2150668,0.5138476,0.18672907,0.25557053,-0.8239811,0.84585017,-0.17445321,0.07068219,0.5401146,0.5614597,-0.5691307,0.15777814,-0.6819439,-0.9802033,-0.6876049,0.0013791447,-0.8682071,-0.88734835,-0.43958217,-0.57724315,-0.5408209,0.08964958,-0.24002348,-0.13855492,-0.9209053,0.88924366,0.4782812,-0.108581446,-0.89310414,-0.18047103,-0.099285364,-0.5634047,0.32333598,-0.6857545,0.7681649,0.76911426,-0.9842685,0.55411595,-0.445418,-0.8486535,-0.22088072,-0.57203066,-0.23367183,-0.58879536,-0.9332025,-0.99162215,-0.09661315,-1.1451197,-1.361909,-1.1440842,-0.06548701,-0.64482105,0.4850218,0.81402874,-0.59125274,-0.5090888,-0.8962147,0.72312284,-0.49286768,0.6005064,-0.6752598,-0.6299148,-0.7268009,0.8436993,-0.8802586,-0.8868895,-0.77935827,0.18735029,-0.6920645,-1.2920579,0.08157174,-1.0652001,-0.99347883,-1.0953441,-0.96604913,-0.9401036,0.02134732,-0.22868931,0.36977506,-1.0430912,-0.3072943,-0.027023021,-0.6901978,-0.45603272,-0.34839714,0.24733178,0.6818417,0.7728413,0.14617981,-0.106392905,0.4819792,0.6641352,0.89304423,0.6665694,0.49558645,-0.4249028,0.21119852,-0.48566034,-0.015041006,0.30168954,-1.0153351,0.3545034,0.030224312,-0.043429203,-0.7559376,-0.9979461,-0.29860687,-1.057421,-0.80648035,-0.23701105,0.52350986,-0.76196,0.70295715,0.046197888,-0.8084194,-0.7213646,0.217659,0.93057543,0.21388155,-0.8098597,-0.7666422,0.26689252,0.59945494,0.22283506,