{"learning_rate":0.1,"input_layer":{"activations":[0.0,0.0,0.0,0.0,0.0,0.0,0.0,0.0,0.0,0.0,0.0,0.0,0.0,0.0,0.0,0.0,0.0,0.0,0.0,0.0,0.0,0.0,0.0,0.0,0.0,0.0,0.0,0.0,0.0,0.0,0.0,0.0,0.0,0.0,0.0,0.0,0.0,0.0,0.0,0.0,0.0,0.0,0.0,0.0,0.0,0.0,0.0,0.0,0.0,0.0,0.0,0.0,0.0,0.0,0.0,0.0,0.0,0.0,0.0,0.0,0.0,0.0,0.0,0.0,0.0,0.0,0.0,0.0,0.0,0.0,0.0,0.0,0.0,0.0,0.0,0.0,0.0,0.0,0.0,0.0,0.0,0.0,0.0,0.0,0.0,0.0,0.0,0.0,0.0,0.0,0.0,0.0,0.0,0.0,0.0,0.0,0.0,0.0,0.0,0.0,0.0,0.0,0.0,0.0,0.0,0.0,0.0,0.0,0.0,0.0,0.0,0.0,0.0,0.0,0.0,0.0,0.0,0.0,0.0,0.0,0.0,0.0,0.0,0.0,0.0,0.0,0.0,0.0,0.0,0.0,0.0,0.0,0.0,0.0,0.0,0.0,0.0,0.0,0.0,0.0,0.0,0.0,0.0,0.0,0.0,0.0,0.0,0.0,0.0,0.0,0.0,0.40234375,0.7890625,0.9921875,0.87109375,0.109375,0.0,0.0,0.36328125,0.1953125,0.0,0.0,0.0,0.0,0.0,0.0,0.0,0.0,0.0,0.0,0.0,0.0,0.0,0.0,0.0,0.0,0.0,0.14453125,0.83984375,0.98046875,0.98828125,0.98828125,0.98828125,0.671875,0.0,0.15234375,0.9375,0.4765625,0.0,0.0,0.0,0.0,0.0,0.0,0.0,0.0,0.0,0.0,0.0,0.0,0.0,0.0,0.0,0.0,0.05078125,0.74609375,0.98828125,0.87890625,0.46875,0.21875,0.98828125,0.68359375,0.0,0.2421875,0.98828125,0.359375,0.0,0.0,0.0,0.0,0.0,0.0,0.0,0.0,0.0,0.0,0.0,0.0,0.0,0.0,0.0,0.0,0.51171875,0.98828125,0.67578125,0.0546875,0.0,0.03515625,0.98828125,0.68359375,0.0,0.359375,0.98828125,0.16796875,0.0,0.0,0.0,0.0,0.0,0.0,0.0,0.0,0.0,0.0,0.0,0.0,0.0,0.0,0.0,0.0,0.546875,0.98828125,0.21484375,0.0,0.0,0.09375,0.98828125,0.68359375,0.05078125,0.72265625,0.953125,0.11328125,0.0,0.0,0.0,0.0,0.0,0.0,0.0,0.0,0.0,0.0,0.0,0.0,0.0,0.0,0.0,0.0,0.546875,0.98828125,0.3359375,0.0,0.0,0.37890625,0.94140625,0.23828125,0.32421875,0.98828125,0.78125,0.0,0.0,0.0,0.0,0.0,0.0,0.0,0.0,0.0,0.0,0.0,0.0,0.0,0.0,0.0,0.0,0.0,0.51171875,0.98828125,0.890625,0.6328125,0.1796875,0.37890625,0.609375,0.140625,0.90234375,0.98828125,0.4765625,0.0,0.0,0.0,0.0,0.0,0.0,0.0,0.0,0.0,0.0,0.0,0.0,0.0,0.0,0.0,0.0,0.0,0.05078125,0.70703125,0.9765625,0.98828125,0.97265625,0.81640625,0.14453125,0.4765625,0.98828125,0.6640625,0.02734375,0.0,0.0,0.0,0.0,0.0,0.0,0.0,0.0,0.0,0.0,0.0,0.0,0.0,0.0,0.0,0.0,0.0,0.0,0.0,0.390625,0.76953125,0.98828125,0.98828125,0.98828125,0.9921875,0.8828125,0.13671875,0.0,0.0,0.0,0.0,0.0,0.0,0.0,0.0,0.0,0.0,0.0,0.0,0.0,0.0,0.0,0.0,0.0,0.0,0.0,0.0,0.0,0.03515625,0.5625,0.89453125,0.98828125,0.9921875,0.71484375,0.0,0.0,0.0,0.0,0.0,0.0,0.0,0.0,0.0,0.0,0.0,0.0,0.0,0.0,0.0,0.0,0.0,0.0,0.0,0.0,0.0,0.0,0.0,0.0,0.6015625,0.9921875,0.99609375,0.9921875,0.6328125,0.0,0.0,0.0,0.0,0.0,0.0,0.0,0.0,0.0,0.0,0.0,0.0,0.0,0.0,0.0,0.0,0.0,0.0,0.0,0.0,0.0,0.0,0.2578125,0.88671875,0.98828125,0.703125,0.77734375,0.98046875,0.51953125,0.0,0.0,0.0,0.0,0.0,0.0,0.0,0.0,0.0,0.0,0.0,0.0,0.0,0.0,0.0,0.0,0.0,0.0,0.0,0.0,0.0,0.4140625,0.98828125,0.66796875,0.0234375,0.01953125,0.3515625,0.8671875,0.64453125,0.0,0.0,0.0,0.0,0.0,0.0,0.0,0.0,0.0,0.0,0.0,0.0,0.0,0.0,0.0,0.0,0.0,0.0,0.0,0.0,0.71484375,0.98046875,0.27734375,0.0,0.0,0.0,0.48046875,0.96875,0.22265625,0.0,0.0,0.0,0.0,0.0,0.0,0.0,0.0,0.0,0.0,0.0,0.0,0.0,0.0,0.0,0.0,0.0,0.0,0.08984375,0.95703125,0.65625,0.0,0.0,0.0,0.0,0.1015625,0.859375,0.8046875,0.0,0.0,0.0,0.0,0.0,0.0,0.0,0.0,0.0,0.0,0.0,0.0,0.0,0.0,0.0,0.0,0.0,0.0,0.10546875,0.98828125,0.77734375,0.0,0.0,0.0,0.0,0.0,0.46875,0.96484375,0.2890625,0.0,0.0,0.0,0.0,0.0,0.0,0.0,0.0,0.0,0.0,0.0,0.0,0.0,0.0,0.0,0.0,0.0,0.05859375,0.8828125,0.96875,0.2109375,0.0,0.0,0.0,0.0,0.36328125,0.98828125,0.203125,0.0,0.0,0.0,0.0,0.0,0.0,0.0,0.0,0.0,0.0,0.0,0.0,0.0,0.0,0.0,0.0,0.0,0.0,0.609375,0.98828125,0.98828125,0.52734375,0.29296875,0.4140625,0.484375,0.95703125,0.8828125,0.05078125,0.0,0.0,0.0,0.0,0.0,0.0,0.0,0.0,0.0,0.0,0.0,0.0,0.0,0.0,0.0,0.0,0.0,0.0,0.28125,0.96484375,0.98828125,0.9921875,0.98828125,0.98828125,0.98828125,0.98828125,0.70703125,0.0,0.0,0.0,0.0,0.0,0.0,0.0,0.0,0.0,0.0,0.0,0.0,0.0,0.0,0.0,0.0,0.0,0.0,0.0,0.0,0.25,0.76171875,0.9921875,0.98828125,0.98828125,0.91796875,0.47265625,0.0546875,0.0,0.0,0.0,0.0,0.0,0.0,0.0,0.0,0.0,0.0,0.0,0.0,0.0,0.0,0.0,0.0,0.0,0.0,0.0,0.0,0.0,0.0,0.0,0.0,0.0,0.0,0.0,0.0,0.0,0.0,0.0,0.0,0.0,0.0,0.0,0.0,0.0,0.0,0.0,0.0,0.0,0.0,0.0,0.0,0.0,0.0,0.0,0.0,0.0,0.0,0.0,0.0,0.0,0.0,0.0,0.0,0.0,0.0,0.0,0.0,0.0,0.0,0.0,0.0,0.0,0.0,0.0,0.0,0.0,0.0,0.0,0.0,0.0,0.0,0.0,0.0,0.0,0.0,0.0,0.0,0.0,0.0,0.0,0.0,0.0,0.0,0.0,0.0,0.0,0.0,0.0]},"activation_layers":[{"neurons":[{"activation":0.018018674,"weights":[0.23693454,0.30581832,0.14184976,-0.24388897,-0.18894398,-0.29995835,0.11848962,-0.81995595,0.8539119,0.5143783,0.4574436,-0.5746689,-0.28028798,-0.3847332,-0.31087995,-0.9813187,-0.6014278,-0.9382087,-0.20551169,-0.34567356,0.903777,0.50227904,-0.3547889,0.7109848,-0.5118345,0.813823,-0.0051264763,0.40653253,-0.12327397,0.09131682,-0.0343436,-0.642313,0.49971032,0.96212924,0.302428,-0.09180856,-0.5564563,0.8540386,0.07320452,-0.21886909,0.4068147,-0.44440055,0.50740063,-0.43341267,-0.3782332,0.6858903,0.9273101,0.72712946,0.5543995,0.4118352,0.33832288,0.19050252,0.35805368,0.18044174,-0.65415,-0.698442,-0.20582116,0.67142606,-0.15580463,-0.105641484,-0.04009807,-0.44406414,0.6742494,-0.5575489,-0.44099247,0.47014606,-0.0061616898,0.07916796,0.19653404,0.42785347,0.6464747,0.19397414,0.06946778,-0.35941505,0.0107678175,-0.08265972,0.12938237,0.36569118,0.15288842,-0.5973505,0.98577785,-0.15411127,-0.5375148,0.7694577,0.040286064,-0.73848224,0.412655,-0.8245859,-0.3145132,0.7506945,-0.7555375,-0.6503092,0.11967087,-0.2950114,0.9153007,-0.39021766,-0.7888932,-0.06386483,0.45548677,0.25215483,0.54081607,-0.8569001,0.38042533,0.3350004,0.86733603,0.6788484,-0.7796285,0.2787354,-0.8632629,-0.398978,-0.143404,-0.4885323,0.5511012,-0.008536935,0.815549,-0.8014977,-0.94384825,-0.63051987,-0.54755926,0.59553003,0.03171873,-0.9942459,0.4555757,0.66685,-0.90192866,0.025326848,-0.62985945,-0.8245847,0.5446303,-0.3676176,-0.27726817,-0.7574667,0.04620385,-0.93412185,-0.37744844,0.10824931,0.18632007,0.30186307,-0.40469706,-0.51805174,-0.14650202,-0.29521346,-0.5383935,-0.99004114,0.43859613,0.88706315,0.35256457,-0.2732091,-0.10514796,-0.8142966,-0.33914983,-0.069129586,0.5215316,-0.60645306,0.9847745,0.083522916,-0.31516588,0.4389243,0.11345017,0.43650496,-0.5321317,-0.07507026,-0.3285464,0.24950206,-0.046211362,0.93906724,-0.6406435,0.6259812,0.5398408,-0.38783717,0.13782561,0.9422904,-0.11952317,0.21599436,-0.8261448,-0.161793,0.72876155,-0.9068147,0.16155517,0.21702206,-0.2600243,0.111159205,0.78986037,0.09680295,-0.56698525,0.17862856,0.7120614,0.69808483,0.42045355,-0.13770938,0.14549434,-0.5763519,-0.6659491,0.7012688,0.54316854,0.5431061,-0.8998033,0.9525045,-0.11691439,-0.55872047,-0.59620225,-0.995167,0.277632,0.63071823,0.42174828,0.9360148,-0.9086194,0.79826796,0.1131556,-0.63459575,0.76423776,-0.94273126,-0.8424243,-0.684564,-0.65994024,-0.62905455,0.70469344,0.4947871,0.0792315,-0.45297992,0.4849491,-0.80468297,-0.8305396,-0.53958297,-0.7721088,0.30547094,-0.69168603,-0.8072486,0.096242785,0.80024457,-0.98043895,-0.45504713,0.05884409,0.8747339,0.46962082,0.057432175,-0.03472793,-0.2352246,-0.54056025,-0.57373,0.27398646,0.91341317,0.033020854,0.7352952,0.70377135,0.63871753,0.9235276,-0.7159945,-0.4792583,0.51168776,-0.76355195,0.9863676,-0.6541364,0.30364013,-0.7224591,-0.17171073,-0.70692086,0.5722439,-0.33899856,-0.73698723,0.26866734,0.26541734,-0.081314564,0.7188332,0.2439028,-0.46688914,-0.30703807,-0.25954938,0.067959905,-0.8145349,-0.6414776,-0.4517994,0.13502693,-0.73910785,-0.2260555,0.9459021,-0.5617883,0.06373632,-0.109196424,-0.36618543,-0.5293758,0.6744193,0.67225933,0.5075698,0.0076032877,-0.4655676,-0.68089044,-0.6680566,0.69894516,-0.34341395,-0.46864462,0.1517781,-0.6321924,0.95672727,0.3981949,0.08544147,0.22731686,-0.90625405,0.6182846,0.5210873,-0.71181285,-0.9148594,0.5377599,0.8905802,0.7112056,0.8089472,0.58432996,-0.20115292,-0.0055736303,-0.633378,-0.33316958,0.6225978,0.7735574,-0.92331004,-0.5043348,-0.6572373,-0.7232586,0.39130783,-0.9907825,-0.9454467,0.09548378,-0.50440586,0.39373958,0.37190652,-0.13262916,-0.87840664,-0.43930697,0.5838841,0.002023816,-0.04165721,0.71688557,0.18013453,-0.11536193,0.5468687,-0.21204996,0.9910166,0.80379784,0.7788774,-0.064934134,0.17393386,-0.42859614,-0.6398871,-0.40559852,-0.76810455,0.91282856,-0.45540488,-0.92224765,0.0956769,0.7199707,-0.7383257,0.61446345,-0.10899174,-0.5153891,0.61296916,-0.23609447,-0.13718891,-0.15480232,0.63644314,-0.3855666,0.052993536,-0.47590947,0.33071983,0.80506897,-0.08100867,-0.7811017,-0.05740547,0.98003304,-0.71061265,0.66581774,0.8223176,-0.8808129,-0.32689118,-0.08375466,0.62160707,-0.37635446,0.20377433,-0.7027426,-0.6627804,-0.28157592,0.53842914,-0.4360423,-0.050530434,0.77908087,-0.13269079,0.44117725,-0.21248817,0.87682176,-0.5142846,-0.45138872,-0.58912444,0.9751971,0.015453339,0.64657474,-0.3875922,0.25025094,0.7240925,0.77187574,0.2597803,-0.8053359,0.5098764,-0.53489816,0.93437016,0.4759065,0.5693377,-0.77545464,-0.33903491,-0.6994827,-0.94661355,-0.2803433,0.99441314,-0.38848436,0.30022347,-0.52359426,-0.8752967,-0.23995996,-0.5769253,-0.5993556,-0.9963968,0.92913294,0.83982575,-0.42492068,0.30813336,0.9604471,0.89837635,-0.94505,0.9183638,0.8203703,-0.29958868,0.17966938,-0.66353714,0.9094858,0.4927181,-0.15470695,-0.8238927,0.42185962,-0.065053225,0.053335547,-0.9415405,0.41887665,0.41032243,0.5200168,-0.7233484,-0.21728313,-0.053764462,-0.6472025,0.7933245,0.8792536,0.77731836,0.17766571,0.4447875,0.11180806,-0.12339282,-0.18179941,0.61981034,0.6065041,-0.095351934,0.38248038,-0.34465837,-0.7227193,0.15647066,-0.50272775,-0.8840016,-0.38631928,-0.16160655,0.29798782,0.38020468,-0.70138514,-0.18577659,-0.74669075,-0.2870592,0.9954883,-0.8130281,0.27469838,0.06752026,0.45957887,-0.7973553,0.20156944,-0.98442197,0.35817504,0.829538,0.4448198,0.6282805,0.5305234,0.28755677,0.83056605,0.8690133,0.46552622,0.20358813,-0.62111664,-0.7833234,0.11097622,0.41170382,0.7689425,0.5415859,-0.67228615,0.30360663,-0.8957771,0.44373333,-0.8912219,-0.7556466,-0.45702147,-0.614136,0.9225981,-0.36872244,0.10324514,0.59253764,-0.82595694,-0.2772634,-0.95971537,-0.92891514,-0.5217571,0.6513772,-0.35629106,0.7384366,0.94602346,0.30060387,0.6373069,-0.97460735,0.4048537,-0.38096035,0.3450265,0.06595433,0.98035693,-0.22855282,-0.45536423,-0.9880426,-0.36714995,-0.27732885,0.613866,-0.3060552,0.10868597,0.5838604,0.6250627,-0.4415704,0.9601425,0.6885996,-0.5895175,0.2399385,-0.19613135,0.014442325,-0.71648884,0.6668352,-0.40516603,-0.12954211,0.7931688,0.47532177,0.83324313,0.03441024,0.92523134,-0.21309316,-0.5530753,-0.828436,0.9791442,-0.16430056,0.67415416,-0.988605,0.5656998,0.07124877,0.16910732,0.26683557,-0.08053589,0.46956956,-0.250736,0.31735218,0.5332012,0.8445283,-0.6494169,-0.14850748,-0.64363945,0.58622086,-0.87167025,0.8192502,0.99614096,-0.8570869,0.24747789,-0.7443224,-0.14780128,-0.16348827,0.70840716,0.30606568,-0.30259967,0.8496604,-0.48240602,-0.22044551,-0.6797416,0.24722493,-0.10767126,-0.13739479,0.33520067,0.42127728,0.65224266,0.90939856,0.08102834,-0.58500457,-0.37751865,-0.99053335,0.018497348,-0.35896719,-0.39040077,0.04801631,-0.4234885,0.6293893,-0.24038434,-0.0699507,-0.46539104,0.9447026,0.7915528,-0.29072964,0.18153095,-0.79899573,-0.398561,-0.7397424,-0.39140105,0.78142655,-0.89080226,0.32802725,0.43569005,0.1229074,0.8966563,-0.0037943125,0.7900728,-0.36977482,-0.84130883,0.036909223,0.9763999,-0.8660046,0.324862,0.20818269,-0.16865528,0.53883326,0.020238638,-0.47396863,0.5150119,0.3218906,0.028063655,0.9451096,0.6645385,-0.7054434,0.21319115,-0.3711344,0.6898757,0.79667187,-0.19048035,-0.17275095,-0.35379052,0.035472274,0.99411225,0.31413758,-0.81482756,-0.631793,0.38086665,0.9118751,0.2137469,0.8998741,0.90052533,-0.54670405,0.59496796,0.22647893,-0.86691165,0.11583507,-0.14452839,-0.8313873,-0.71050966,0.47899306,-0.52921665,0.6928985,0.4607948,-0.120468736,0.6575372,-0.931491,0.92309713,0.28378034,0.87718034,-0.44247842,0.6080959,-0.62854433,0.3644836,-0.23054016,-0.79348326,0.44945955,-0.40621245,0.7793666,-0.61800945,-0.09978497,0.9867282,0.4513613,-0.7952304,0.6169702,-0.022102952,0.9841956,0.85364044,0.82383823,-0.22876453,-0.31853163,-0.6700448,-0.7065458,0.19884622,-0.6252539,0.6930084,-0.91762173,0.77976453,0.2125864,0.0149998665,-0.8947457,0.74886596,0.46673012,0.28748536,-0.07860589,-0.4786378,0.5656606,-0.298123,-0.73289883,0.177428,-0.43785906,0.034280896,0.44646275,-0.7058165,-0.3752755,0.017074943,0.6574395,-0.41234386,0.23260498,-0.23048067,0.28643584,-0.6011647,-0.7165122,0.9531934,-0.11927867,-0.44790196,-0.004089713,-0.37972307,-0.5278032,-0.85597324,0.47145283,-0.12875247,-0.17862046,0.0401603,-0.5012486,-0.2756518,0.8366972,0.5828012,0.11644387,0.35690784,0.56455517,0.928228,-0.77927995,-0.46661687,0.67200124,-0.8900857,0.7415451,-0.4242158,-0.84165823,-0.16276073,0.15816522,0.55652535,-0.42597938,0.2385546,-0.9982964,0.49932182,-0.8207587,0.4889574,0.7617949,0.8589299,0.02793026,0.80812335,0.91639125,-0.7166327,-0.63208866,0.80081546,0.34213293,0.28722858,0.67897356,-0.8455515,0.16867304,-0.54339695,-0.96280885,0.014072895,0.43386304,0.95644045,0.03844738,0.24477255,-0.68881404,0.42635238,0.7202873],"bias":0.99741447},{"activation":0.9994381,"weights":[-0.25324094,-0.83364904,0.3476249,-0.022044063,-0.39358377,0.40522814,0.21205461,-0.7804079,-0.042042494,-0.8271594,-0.868343,-0.607424,-0.8867018,-0.84763825,-0.64017653,0.4948709,-0.016373038,-0.120177746,-0.35230052,-0.2660693,0.9473562,-0.7999743,-0.18223798,0.011040688,-0.043715835,0.3744378,-0.07412183,0.46598947,0.08320296,-0.6566024,-0.8561202,0.297176,0.509089,-0.37771797,0.31396878,-0.8534733,-0.0031297207,-0.45887136,0.10144901,0.0037436485,0.9823464,-0.23493397,0.38051772,-0.6275104,-0.17687356,-0.2967236,-0.10656047,-0.73473084,-0.3680911,-0.5150907,0.86469805,0.08033705,-0.95421076,0.07346654,0.12177169,-0.6241275,0.2704836,-0.06958556,0.10389578,0.3300333,-0.29848135,0.3566141,0.9265872,0.35152936,0.6753571,-0.6679177,0.40071476,-0.9566754,0.45451617,0.43859446,0.5701982,0.77596724,0.65008616,0.047871232,0.24581373,-0.87767565,0.85812676,-0.76051116,-0.6748706,-0.848099,0.66033256,0.8140882,0.16655684,-0.12789011,-0.1864891,0.6393018,0.22681618,-0.20117438,-0.37529182,-0.2768234,0.76907957,0.8818023,0.122449756,-0.7385422,-0.29059947,-0.6780094,-0.857568,-0.87555337,0.26481688,0.13142717,-0.6013291,-0.23925507,0.0061665773,0.10429239,0.9335191,-0.5074302,-0.95664346,0.5892377,0.7630651,0.69530046,-0.79804087,0.8013762,-0.93921053,-0.5735804,0.010007858,0.696457,0.6410724,-0.7767426,0.6375619,0.12706864,-0.6117786,-0.9366679,0.85410047,-0.1590277,0.013699293,-0.37540638,-0.07259405,-0.56058764,0.21713138,0.19209671,0.8913367,-0.62186515,-0.42768347,-0.8300973,0.87475204,0.021342516,-0.21324337,-0.8156043,0.012954593,-0.43894517,-0.040132284,-0.7297082,-0.6596645,0.6842394,-0.21889734,-0.87421477,-0.29401994,0.33262312,-0.61639035,0.6464791,0.8929,-0.35491753,-0.6282767,0.8743998,0.058217287,-0.18529117,0.9509269,-0.96469307,-0.927124,-0.9816849,0.9714837,-0.89594173,0.3053614,-0.3721968,-0.81536484,0.9446088,-0.80061364,-0.38686895,-0.61805,0.3604523,0.39306164,-0.7914729,0.7091017,-0.043862462,-0.4007579,-0.24451959,0.66354036,-0.1304959,0.53727424,0.19527972,0.70411503,0.06501794,-0.08378124,0.5461041,0.72023666,-0.09769499,-0.56226027,0.33728755,-0.2535355,-0.599422,-0.83291876,0.005735874,0.5144882,-0.105713725,-0.08648193,0.38358724,-0.74595964,0.58143234,0.6957818,-0.16392946,-0.5697067,-0.2903309,0.6553335,0.5718912,-0.14878356,-0.19093454,-0.8179097,0.03834939,0.35391605,0.7317767,-0.94117856,0.3654194,-0.7099794,0.6739867,0.020326853,0.29963052,0.06787729,0.84104717,0.04323113,0.6517594,-0.4482442,0.51010466,-0.45037878,-0.31377637,-0.06505692,-0.7970216,0.49962473,-0.2758391,0.71808434,0.97510827,-0.98923206,0.2601441,-0.100177646,0.47461903,-0.71451676,-0.10994029,-0.65308213,-0.4442886,0.09820533,-0.59999025,0.3520174,0.68296015,-0.5601121,0.19417143,0.07758105,-0.7692697,0.40963006,-0.015960336,0.25568104,0.6702006,-0.19431877,0.4837036,-0.29774618,-0.39678705,0.079499245,-0.8309989,0.7121526,0.026195526,-0.03795767,0.71056926,0.058075666,0.18241167,0.7657472,-0.23901463,-0.80164635,0.9602046,0.7593696,-0.3245225,-0.45139647,0.4299128,0.074334145,-0.13771403,0.5493475,0.6569567,0.8443866,0.2595786,-0.056579232,-0.00020468235,-0.14492941,-0.043038726,-0.29251873,0.06500459,0.9658512,-0.8041477,0.7364352,0.046659112,-0.3255744,0.23181248,-0.7494509,0.55475163,-0.6575643,0.84252036,0.2426902,-0.062041998,0.22460115,0.79787123,0.25967705,0.15545213,0.8873192,-0.7151575,0.5441574,0.4956069,-0.6576184,0.42923868,0.48269606,0.10677695,-0.59394944,-0.77319074,0.5161973,-0.37233877,-0.26833498,0.5617124,0.42810655,-0.096395254,-0.77507913,-0.2541461,-0.5668235,0.6473677,-0.8758768,0.049522877,0.5087706,-0.9330224,0.85360813,-0.7222022,0.9221715,0.077171445,0.5134046,0.5596051,0.40176713,0.76218605,0.43173218,0.15324724,0.4288782,-0.54874265,0.90014625,-0.5071846,0.034862876,0.32747042,0.7181449,0.65443647,0.28024924,-0.5342617,0.7329502,0.5611111,0.47207582,0.99134624,0.917186,0.32782388,-0.5444261,-0.19367313,-0.9782853,-0.4973601,0.033665776,-0.959635,0.301728,0.17434454,-0.7795391,-0.9560425,-0.12001693,0.74126315,-0.6615536,-0.583554,-0.012783766,0.23878872,-0.89262974,0.14321184,-0.9874836,0.24805939,0.029996037,-0.6047889,-0.0151366,-0.83028436,-0.53294706,0.1003319,-0.26276207,-0.5133951,0.3536719,0.28094923,0.7131189,-0.63376725,0.7273387,-0.20163238,0.23660088,0.8150103,-0.7313299,-0.704322,0.7280731,0.010112762,0.35143232,-0.47925878,-0.48830163,0.62995696,0.16819382,0.09052324,0.49256337,-0.6391102,-0.5127708,-0.4131595,-0.14639425,0.6357963,-0.5101588,-0.7045959,-0.11005318,-0.96078074,-0.2701559,0.89062417,0.28809977,-0.61888504,-0.7969096,0.9050431,-0.4244808,0.12556016,-0.49299896,-0.4421599,-0.6411383,-0.14751947,-0.15994787,-0.5275732,0.64347196,-0.7604176,-0.78778875,-0.10415208,0.356403,0.25336337,0.42095315,0.70416117,-0.029779792,-0.8565471,-0.6069491,-0.28497136,0.6801983,0.21712911,0.7550303,-0.27431142,-0.5256889,0.48616016,0.12368941,0.22659159,-0.7155402,0.06649065,0.6610309,0.8246304,-0.15119493,0.75480723,-0.6854876,0.63473725,-0.46892726,0.34086883,0.8412739,-0.36223865,-0.93937755,0.279235,0.28419447,-0.8523382,0.49451458,0.33367884,-0.24139059,-0.27356005,0.21259952,0.8568549,0.7296181,0.6971195,0.71042013,-0.5151764,-0.61452425,0.21136534,0.82891273,-0.9847841,0.35163283,-0.29999578,0.023129463,-0.17032743,0.05983007,-0.10756874,0.6889099,-0.6708685,0.87103784,0.22579813,-0.38520193,0.17640603,-0.0014352798,0.049349785,0.84790516,-0.740672,0.7109523,0.12298834,0.9753804,0.3725382,0.535087,-0.17553854,-0.22904634,-0.84999275,0.05905664,-0.47024333,0.7190156,-0.041631818,-0.715327,-0.20538723,0.9685426,0.32792604,0.7528913,-0.10544026,0.94822073,-0.3922025,-0.8205769,0.6762681,0.84773207,-0.5843072,-0.9855802,-0.80146444,0.70464325,-0.69684124,-0.10893178,-0.3700198,-0.4078195,-0.28444433,-0.7338749,-0.14488852,-0.15006089,-0.8928114,0.65704036,-0.45934784,0.07351446,-0.6766441,-0.19629419,-0.63524044,-0.83043826,-0.9870107,-0.50401676,0.4945022,-0.5500784,0.48821115,-0.50910294,-0.48186183,-0.9930719,-0.017534018,-0.54538584,-0.80311096,-0.18466389,0.922789,0.66162765,-0.8598287,0.9037591,-0.9315232,0.36345303,0.9351102,-0.91156507,0.9351156,-0.8647554,0.721823,0.9909241,0.9467001,-0.09512508,0.058149576,-0.48274112,0.9270419,-0.87808514,0.99879134,0.25706947,0.9316839,0.73550296,0.72116125,-0.8832679,-0.6882963,0.9990083,0.77883935,0.40252328,0.88823307,-0.14951646,0.32750714,0.279714,-0.37044477,0.117393255,0.891618,0.10311413,-0.6085597,-0.66156435,-0.95583415,-0.687248,-0.20018673,-0.17691636,0.37402773,-0.3806945,0.164096,-0.20456219,0.47522473,0.37206495,0.9154196,-0.64504683,-0.20995367,0.18880689,-0.3018123,0.92766523,0.2692089,0.14152014,-0.6918019,0.74254835,0.97420347,-0.43767488,-0.516186,0.18300128,0.2624631,0.45042813,0.5393778,0.9551641,-0.5946238,-0.6830436,0.0061120987,-0.41228747,0.25665545,-0.43028486,-0.024692893,0.8145262,0.4880463,0.72558415,0.96113265,-0.4347192,0.29399323,0.40134084,0.8295857,0.5836278,0.2675705,0.76156795,0.8487035,0.038384676,-0.6707392,0.11635685,0.6521201,0.575173,0.34980905,-0.84936404,0.20974243,-0.67995,0.15352201,-0.6650003,0.29988074,-0.47341585,-0.96088886,0.56189656,0.68704057,-0.24910617,-0.06816411,0.6872755,-0.9946048,0.16585028,0.36257017,0.22265935,0.44123292,-0.17423558,-0.5300567,-0.95148003,-0.9043305,-0.037843347,0.0710994,0.46374023,-0.38954663,0.40469897,0.95723736,0.43532372,-0.59570086,-0.5614896,0.8577217,0.13047647,0.654806,0.5763279,-0.23394167,-0.5868434,0.8635428,-0.4066552,0.774389,-0.6328738,-0.06401408,0.98777235,-0.19181669,-0.7715355,0.8101667,0.1405561,0.33514416,-0.27936482,0.6611563,0.9952471,-0.048267245,-0.56475675,-0.51124084,0.7861695,0.5123863,-0.61446035,-0.2757895,0.50065506,-0.308663,-0.3279841,-0.54221106,0.8102747,0.8701583,-0.47611284,-0.9177227,0.5956106,-0.33978617,-0.47089362,0.61115813,0.98376524,0.52664423,-0.23277509,0.9458133,0.556985,-0.45820224,-0.4079765,0.5829345,-0.15554392,0.26583552,0.8904729,0.55418503,0.57110703,-0.08868921,-0.39718068,0.9687363,0.0999161,0.5360786,0.7706374,-0.54416263,-0.62203634,-0.8326324,0.84114456,-0.4830793,-0.30552614,0.22454059,-0.3856715,0.214517,-0.46892285,-0.29776,-0.58273005,-0.14094114,-0.38601875,-0.009458661,0.7647133,-0.8495612,-0.30574226,-0.2816317,0.9898999,0.106488466,-0.68940306,-0.5930921,-0.951164,-0.35999382,0.21683323,0.2642256,-0.1504221,-0.23841059,-0.57493424,-0.13577962,0.7315934,0.7818481,-0.61333764,-0.08128595,0.7306676,0.21095276,-0.12242389,0.1308235,0.15046787,0.45037532,0.639753,0.77489316,0.79041326,-0.069509864,0.08090913,-0.8920375,0.9418373,-0.011033297,0.8078346,-0.12990344,-0.12959373,0.4744761,-0.6079701,0.07228196,0.11471307,-0.22850013,0.2930591,-0.42609668,-0.5974705,-0.3783313,0.7781768,0.16792989,0.17337954,0.3996967],"bias":0.3311628},{"activation":0.9925523,"weights":[0.388672,0.23382318,0.8985529,0.9810555,-0.3833815,-0.9221916,-0.9778155,0.35062397,-0.04446006,-0.73979723,-0.020753503,0.7592336,0.7684901,0.22490585,0.18994379,-0.113524675,-0.5026423,0.68447876,-0.8123144,-0.390211,0.39870477,-0.118578434,0.9083499,0.66056406,-0.9536004,0.121323586,0.6664653,0.5852437,0.016964078,-0.7088311,0.60793245,-0.8592576,0.08549118,0.1297661,0.017705679,-0.7628163,-0.7339939,0.7513672,-0.8939816,0.6542529,0.49777484,0.50699234,-0.2524891,0.7645843,-0.04302776,0.6824204,0.35302544,-0.25006044,-0.78025484,0.70434606,-0.85869765,-0.67332876,0.04535854,-0.6658647,0.78871715,-0.39306378,-0.5295296,-0.39638996,0.99530995,-0.5990063,0.72018147,0.39116812,-0.18306041,-0.19239008,0.33352983,0.22548163,-0.81974554,-0.8612282,0.5194018,-0.9256848,-0.5559809,-0.6007942,0.33927774,0.34296358,0.36878943,0.30010426,0.58879995,-0.9667647,0.15646899,-0.86203,0.5554981,0.3797593,0.21566045,0.669546,-0.48771977,-0.741307,0.12582731,-0.8037753,-0.66069186,-0.5470134,-0.3018986,-0.027864575,0.18471467,0.45106912,0.9067298,-0.5104803,0.53566086,0.6815281,0.3642968,0.8805065,0.48894083,0.26427996,0.7964684,0.6577469,-0.6038053,0.037680984,0.12633204,0.03162062,-0.73987544,-0.6764643,0.07944,-0.7158277,-0.8937912,0.82568383,0.15172064,0.59778035,0.7116095,-0.5067251,0.8132796,-0.55559266,-0.26216292,0.6622695,-0.86735916,-0.28628027,-0.54116,-0.6609688,-0.6543714,-0.6213045,-0.29005063,0.74392176,0.3616625,0.9774865,-0.36845732,-0.72141695,-0.4384433,0.9399246,-0.24089575,0.3857615,0.1029886,0.6269202,0.5688108,-0.2127155,-0.15201974,-0.74196553,-0.8707633,0.14134133,0.8991568,0.16872013,0.660545,-0.28985512,-0.10341549,-0.46706414,-0.05329275,0.04756391,-0.016310453,-0.8362334,-0.39930284,-0.8037491,-0.5088459,0.49515986,-0.8529645,0.8185549,-0.9120897,-0.45221448,-0.06996858,-0.49411404,0.2930436,-0.87906086,0.87675893,0.5868403,0.65131366,0.36490583,0.41251576,-0.27524436,0.3258164,-0.54934597,-0.4761516,0.18204105,-0.50383914,0.18781364,0.65194786,-0.051375866,-0.30074573,0.19606197,0.7973516,0.633253,-0.22690725,-0.20119536,0.057299852,0.37001288,-0.23883975,-0.83897555,0.2887622,-0.34102178,0.82009494,0.25465715,-0.32928002,0.2159766,0.921947,0.46463656,-0.06039357,0.049372554,0.9970505,-0.7675786,0.32454813,-0.7256174,-0.5505738,0.13427329,-0.45919764,-0.8271104,-0.9776269,-0.048468232,-0.67499137,0.38593102,-0.08529818,-0.659547,-0.5433121,0.82356715,-0.03865397,-0.35006464,0.58246315,0.7587733,0.81672645,-0.17951429,0.083253026,-0.1097157,0.5534649,0.7994245,0.5132475,0.82363236,0.19338322,-0.14407921,-0.25366127,-0.4233247,-0.87579083,-0.13420212,0.6227523,-0.32705963,-0.21635067,-0.27698576,-0.9391824,0.13682735,0.8528639,-0.72055495,-0.5094429,0.4364673,-0.8909838,-0.2878976,0.4929806,0.02859664,0.4625845,-0.523862,0.90527415,0.42360115,-0.7811053,0.9305564,-0.6737994,0.79740846,0.6554694,-0.5246607,-0.25277424,-0.5718615,0.31670368,0.2664063,0.440853,-0.65995204,0.7105695,0.46710277,0.8777479,0.8773991,-0.4822179,0.45245707,-0.3433081,0.3727517,0.078807354,-0.63435626,-0.16472244,-0.35486853,-0.08817899,-0.2116481,0.43801987,0.3079772,0.84741485,0.18962932,-0.19795501,0.8568734,-0.10875511,0.8030759,0.91107106,-0.20048225,-0.11535108,-0.80523956,0.2283665,-0.9059818,0.18274331,-0.8790877,-0.40501273,0.26566827,0.8695389,0.5554216,-0.7261957,0.41068065,-0.75214505,0.5296109,-0.74769056,-0.22425067,0.068350315,-0.8615434,-0.90417206,-0.5596888,0.122104764,-0.58066595,0.6852764,0.9071851,0.7905669,0.33068275,-0.8864634,0.07984042,-0.32337224,-0.89196336,0.9901304,-0.7005155,0.9396552,0.77793825,-0.54198897,0.91464734,0.94374835,-0.17292571,-0.65950286,-0.88755953,-0.58122563,0.9861133,0.5827433,-0.43053675,-0.8251014,0.3384422,-0.77689016,0.5520127,-0.24716258,-0.55294514,0.5669807,-0.763,-0.57124174,0.022137403,0.32807064,0.543906,-0.7153559,0.9805113,0.5626843,0.93848026,-0.104252934,-0.43801928,-0.93975663,-0.6328695,0.28784513,0.1519059,0.43502522,0.63836014,0.15153372,-0.7021586,0.94946146,-0.33282804,0.1494652,-0.06358147,0.48012447,-0.35328805,-0.2939055,-0.06581509,-0.89159286,0.733992,-0.5922061,-0.6816027,0.25004494,-0.70755553,-0.74347186,-0.114761114,0.044211984,-0.91834414,0.84425163,0.65669644,0.88109314,0.4624107,0.58378804,-0.46808875,-0.82200754,0.7701343,0.3119626,-0.19549012,0.5653635,-0.75687635,-0.027925014,0.86776006,0.8735666,0.68222237,0.50498474,0.051615477,-0.4119717,-0.071771026,-0.34210277,0.040985465,0.476305,-0.18021572,-0.7575767,-0.53566957,0.18229938,0.8242929,0.935359,-0.64838135,0.16966558,-0.643579,0.46114457,-0.15038562,-0.46687877,0.9214519,-0.67029023,-0.4503473,-0.7022767,-0.9187213,0.51220286,0.6860715,0.6490563,-0.6259557,0.3144034,0.3459525,-0.5215088,-0.0029904842,-0.6457974,0.38338614,-0.9754616,0.06653035,-0.31540298,0.29257166,0.9785979,0.117241144,0.948699,-0.17730486,-0.9510683,-0.4644493,0.8921311,0.5369898,-0.32810724,0.74705887,0.8836541,-0.2896899,0.51149285,-0.4306301,0.7882054,-0.03752327,0.99422765,0.7448945,-0.5002501,0.9862088,-0.94320834,-0.21450698,-0.23431265,-0.0782994,-0.38418436,0.95248866,0.6714215,0.22764742,0.98306286,0.8748493,0.54413986,0.8886504,0.32872176,0.8456235,0.6966568,-0.3978721,0.04604709,0.7461798,-0.64231646,-0.114326835,0.35183764,0.42823303,-0.46808386,0.6214658,-0.05525434,-0.116364,-0.65666175,0.3960551,-0.43088377,-0.63976777,-0.84509444,0.03003788,-0.07091308,0.018738985,-0.20072961,-0.3723966,0.96022356,0.30226135,0.15345156,-0.24319708,0.13709688,-0.93584776,-0.24737918,0.8008418,-0.8033564,0.16721416,-0.71384776,0.17603517,-0.71074533,0.6685692,0.033703566,0.7729225,-0.6364144,-0.50102377,0.7200364,-0.8740437,-0.6928998,0.09708619,0.9398575,0.791801,-0.4881004,-0.22705686,-0.5481676,-0.9032825,0.0012612343,-0.06996906,0.56425893,0.0998224,0.8952892,0.3148471,0.08442569,-0.31413007,-0.17645633,0.72661376,-0.007896185,0.54378736,0.63545346,0.6585711,-0.6345979,0.92312884,0.6096058,-0.21159792,-0.09216559,-0.24706137,0.94465303,-0.8348799,-0.76499224,-0.25432372,-0.43688786,0.45290637,-0.080189586,-0.9639014,-0.4581244,-0.7162025,0.69717693,0.054312944,0.361161,0.14552784,0.5123037,0.90178645,0.61890686,0.85675716,-0.47216797,0.8414345,-0.35974646,-0.9001609,-0.6852536,-0.88103676,0.89799154,0.28218734,-0.27733374,0.43149185,-0.20599532,0.106494784,0.98387885,-0.07699835,0.25940073,0.09113097,-0.83571625,0.0992161,-0.26391506,0.029561877,-0.37503767,0.55480707,-0.43655312,0.24267292,-0.43073547,-0.0010714531,0.64543664,-0.0011373758,0.72402143,0.47813153,0.72952783,-0.9964775,0.97894704,-0.10672009,-0.30132055,0.61507607,-0.7364887,-0.61975217,-0.29772604,0.8015264,-0.30669117,-0.21528101,-0.60738087,-0.97124386,0.8565042,0.19727385,-0.14280021,-0.40517426,0.92046404,0.43633735,-0.61735773,-0.81596315,-0.1204983,-0.742108,-0.37702763,-0.9584677,-0.44866812,0.82472086,0.2851627,0.78776765,0.48524404,-0.12608898,0.528725,0.7540488,0.5861399,-0.43193865,-0.724296,0.5280838,-0.83722866,-0.7873614,0.28887558,-0.7242749,-0.11663437,0.44091845,-0.54090583,0.47814155,0.9990448,-0.14127028,-0.59005,-0.7685689,-0.29759288,-0.07283664,-0.7008481,0.07776916,0.30396903,0.91617715,-0.21437442,-0.28521562,0.19042277,0.8118453,-0.51446414,0.851519,-0.9909663,0.1535747,-0.5813,0.4212073,0.76083946,-0.24911952,0.40754902,-0.21422493,0.24747694,-0.5565016,-0.4231068,-0.5489341,0.81987906,-0.9321228,0.93412995,0.72743595,0.20812201,-0.54296577,-0.20290232,-0.41641164,0.16440737,0.17775393,-0.9898875,-0.21633661,-0.13837624,-0.37304938,-0.28971016,-0.26480138,0.64806926,-0.6807791,0.74007416,-0.44171894,0.513839,-0.82687473,0.7444973,-0.8913528,-0.86226,-0.11079919,0.50410306,0.6903361,0.34673774,-0.06449282,0.46341336,0.21326578,-0.38147306,-0.812273,-0.858809,-0.4813981,-0.803915,-0.24285817,-0.3475448,0.03213346,0.3042599,-0.13376653,-0.08436,0.35575306,-0.12991583,-0.23294592,0.97725475,0.7264297,0.33990192,-0.31517053,-0.6189834,0.7801968,-0.8091959,0.8246993,0.22979069,0.084573984,-0.8394736,-0.57085085,-0.9893689,-0.25611365,0.57485247,-0.18753743,-0.19802237,-0.6846256,-0.08760011,-0.26162767,0.15947163,0.64010847,0.83823776,0.6749412,0.2588749,0.14585745,-0.5253793,0.4991927,0.6213355,0.21198106,0.6955676,-0.5176778,-0.87422204,-0.28157043,-0.21584451,0.30034244,-0.75113857,0.2529062,0.99927473,-0.92558277,0.76626873,0.91451,0.10503185,0.43546677,0.88434863,-0.26663256,0.24369109,-0.91665125,0.7998992,-0.13964462,0.92696667,0.35380435,-0.9597498,-0.16949987,-0.38739932,0.64149785,0.7105783,0.33518767,-0.14058197,0.8681408,0.3611306,-0.44336045,0.86228096,-0.5391283,0.85246706,-0.53952,0.2655146,-0.09348869,-0.2045114,-0.08099234,0.64107585,-0.970731,0.65230787,0.5551189,-0.36619604,0.8464129,0.3691448,-0.53481615,-0.32873416,0.5358199],"bias":0.6194564},{"activation":0.9340292,"weights":[0.32797122,0.8646766,0.5486996,0.7149514,-0.517686,0.3316387,-0.11653662,0.100271106,0.34855282,-0.82791054,-0.18897724,-0.7096292,-0.32764935,0.8823811,-0.5294876,0.5365789,0.1754489,-0.4922521,0.8770633,-0.8794056,-0.26351094,0.5047171,-0.6903844,0.9561181,-0.21557164,0.34177792,0.199942,-0.8821764,0.3083923,-0.13196099,0.46589482,-0.0783335,-0.086449504,-0.6821108,0.38144922,-0.54959404,0.26178634,0.87442243,-0.7192966,0.56754434,-0.16744089,-0.0039396286,-0.52533925,-0.9847332,-0.10281491,0.14817631,-0.47813487,-0.75736344,-0.441041,-0.110390306,0.34630525,-0.15204012,-0.65661407,0.15223134,-0.2008456,-0.015304804,-0.9568877,0.2507863,-0.9073938,-0.9070059,-0.85486484,0.003349781,-0.7122034,0.49972224,0.68551695,-0.55838597,0.20297289,-0.076253295,-0.28162873,-0.19333696,0.87761045,-0.9112009,-0.9211987,0.10973966,0.9100189,0.4639485,-0.112657785,0.3434571,-0.22165656,0.4510355,0.36243856,-0.6048224,-0.77328634,-0.49373496,-0.04217148,-0.81598663,0.094966054,-0.75790274,0.76487494,0.039738774,-0.4771223,-0.23046052,-0.6650567,0.22548163,0.6480136,0.6227906,0.62862945,0.2656852,-0.8950399,-0.27113616,-0.8179939,-0.30207956,0.78022087,0.44987428,-0.20310259,0.84640455,-0.53347313,-0.5369353,0.27774525,0.0657841,-0.34043264,-0.7981434,-0.7786219,0.83461344,-0.48730326,0.8717605,0.69575095,-0.88074005,0.72354317,0.33358777,-0.4430524,0.5923958,0.8583393,-0.10366166,0.41546905,0.15704322,0.80645907,0.48207712,-0.6366079,0.016314149,-0.53478634,-0.014619589,-0.04343152,0.4780829,-0.11726034,-0.70939267,-0.1394428,0.45348632,-0.7394204,0.20047677,0.18769622,0.83981526,-0.32873213,0.19093609,0.89152765,-0.95467484,0.23417008,0.96687865,0.6571772,-0.3362019,0.7539977,-0.48003435,0.7200304,0.63019395,-0.11753476,-0.2526244,-0.30699492,-0.17977428,0.41318333,-0.74234426,-0.3516786,-0.79776573,-0.60841024,-0.60430324,0.37145507,0.39175272,0.099992156,-0.90318966,-0.3960303,0.20739138,0.6286013,0.5688877,0.90460587,-0.9545362,-0.83099794,0.9665911,0.06904054,0.57434475,-0.5070299,0.92428815,0.2758466,-0.92261744,-0.10649049,0.88716257,-0.68530226,0.5230466,-0.2092371,-0.39864314,-0.26995265,-0.43921864,0.4020455,-0.885707,0.8501297,0.7896297,0.80020785,0.4156592,0.2772199,-0.9535667,-0.62912476,-0.60171235,-0.7855941,-0.14519489,-0.051771045,0.7443726,0.1734215,-0.07051146,-0.6435752,0.58030236,0.45329404,0.7081474,-0.970608,-0.86028194,0.5191859,0.80689406,0.33706546,0.7934487,0.3773036,0.46476066,-0.6183741,0.6078079,-0.11210978,-0.22375429,-0.93353295,-0.17484736,0.7225604,-0.21490574,-0.97723055,0.60021734,0.6434076,-0.26577628,0.8254534,0.03161812,0.9941398,0.85447,0.38960397,0.5379648,-0.93942595,0.31534338,0.5101789,-0.44793928,-0.8780453,0.50795174,-0.5183593,0.60776985,0.7966852,0.6014042,-0.48576236,-0.94689,0.028238297,-0.36313105,-0.47109997,-0.84657586,-0.5235437,0.934417,-0.64114475,-0.29567635,0.13525319,-0.1675297,-0.9033539,-0.5926696,-0.8219663,-0.57528305,0.92637324,-0.81730425,-0.053709984,-0.8407619,-0.32758474,0.58487165,-0.8509667,-0.5002235,-0.5763824,0.943228,-0.44234014,0.69845617,-0.8772404,0.4159925,-0.4823401,0.87582076,-0.15601337,-0.15626812,-0.11437774,0.4238751,-0.03074658,0.9725193,-0.6559802,0.22739577,0.45952797,-0.29343963,0.6541798,-0.6493753,-0.34797823,0.36216986,0.41031373,-0.023857236,0.5727873,-0.40978515,-0.61710083,0.7644081,-0.71368396,0.62768996,0.67838025,-0.62424386,-0.24264228,0.2193433,-0.49036813,0.92767847,-0.8922858,-0.29472685,-0.3874029,-0.48906243,0.043109536,0.20642436,-0.68567216,-0.07487583,0.32255363,-0.073293805,0.8646966,-0.62778616,0.36122847,0.5917051,0.70471525,-0.46295488,-0.25040853,0.9151921,-0.6560304,-0.9732423,-0.24505949,0.9861126,-0.20218337,-0.5529448,0.9308971,0.22300327,0.49964,-0.66670287,0.44696772,-0.22013307,0.40243888,-0.02117002,0.08111632,0.50017226,0.4130906,0.8372735,0.8655579,-0.1021657,0.69457746,0.32313,0.99854875,0.12306678,-0.9765556,0.23809242,-0.8606231,-0.5130694,0.8913177,-0.76664054,0.104034185,0.85198593,0.927858,-0.7516825,-0.49679244,0.8473022,-0.8727416,-0.8031081,0.8514663,-0.9523126,-0.45902395,-0.27121568,-0.6160772,0.7883041,-0.260185,0.9749509,-0.84970057,0.35886157,-0.115312815,0.79298866,-0.6088097,-0.6576464,0.774099,0.73775196,0.65941894,-0.89031637,-0.5521319,0.8325089,0.4606706,-0.5973209,-0.053275824,0.60390556,-0.9751575,-0.8642205,-0.49377155,0.6495569,0.15833783,0.65071523,0.33747494,0.49903893,0.03805256,0.06099999,-0.7281234,-0.4696417,0.65552497,0.9480088,-0.88174534,-0.96881545,0.7471756,-0.07204735,-0.7421452,0.4288113,-0.64209104,0.8893981,-0.40743828,0.8069856,0.032577515,0.23428464,0.034480333,-0.27624524,0.7012843,0.16990769,-0.119324684,-0.65547895,-0.66804147,-0.28293848,-0.8681495,-0.8453368,-0.55556285,0.073887825,0.6679219,0.9167752,0.6267953,-0.7276715,-0.45087922,-0.5086546,0.11569822,0.5440568,0.24356055,-0.36140478,-0.6847304,0.04744649,0.34218824,0.15063882,-0.24160087,-0.13467097,-0.6425307,0.3818307,0.20422316,0.1139344,0.47322857,0.3643545,0.8575963,0.63142884,0.49423933,0.56293166,-0.34413826,-0.20130205,0.6886778,-0.9152347,0.6940148,0.22475028,0.7016337,0.8044281,-0.16057098,-0.41665316,0.1794573,-0.8883449,-0.13350666,-0.6413821,-0.636209,0.9873278,-0.9368484,-0.26033604,0.20313,-0.7078593,-0.5019268,-0.2538898,0.9886639,0.1480633,-0.094463944,-0.9761573,-0.11733186,-0.3383454,0.96409595,0.5902474,-0.15950215,-0.72512484,-0.41206872,0.49228287,-0.24379218,0.6183888,-0.34854674,0.0037109852,0.12724245,0.81956124,0.15874434,-0.636608,0.035658002,-0.95991635,0.13889098,0.9373331,-0.43801796,-0.78440714,-0.43330598,-0.27277994,-0.5495095,-0.48313832,-0.5997529,0.9947438,0.3830861,0.007812381,-0.65604913,-0.11163747,0.74822307,0.33574843,0.06325364,0.11667895,0.5529851,-0.99818313,-0.37634838,0.3490256,0.32213855,-0.09166789,-0.15658402,0.36096585,0.8722645,0.31958342,-0.28119504,-0.43743587,0.8042834,-0.9651475,0.6837261,0.20105779,0.1313827,-0.50690794,0.28738618,-0.9409169,-0.6380873,-0.60645294,-0.95904815,0.29470992,0.2051748,-0.28878486,-0.36840284,0.6948991,0.17936444,0.2166096,-0.5259259,0.6892625,-0.68673897,-0.2482531,0.71991324,-0.8241683,0.49464345,0.5173596,0.21182358,0.68737376,-0.93082356,0.16675603,-0.25539756,-0.80688524,-0.93910015,0.5129267,-0.5405855,0.5522957,0.8742833,0.7625232,0.39017808,-0.044034243,0.30124176,-0.67035234,0.5629244,-0.026032329,0.74441326,-0.6074544,-0.1026299,0.057804823,-0.937675,-0.3374914,0.13064146,-0.7746824,0.016384482,0.9930699,-0.8613833,0.041835785,-0.4715072,0.17434084,-0.9431919,-0.20136833,0.32942903,0.5138093,0.6976255,0.76987267,-0.8698405,0.6263453,-0.28049672,0.35855675,-0.05543351,0.5383278,0.174142,0.72962797,0.47772694,0.4103012,-0.47518277,0.11915457,0.08763492,-0.24361956,0.12902749,0.5641445,-0.06384683,0.6784558,0.4437269,0.12337339,0.24641073,0.45780003,-0.8251785,0.75145257,0.00795567,-0.046721935,0.51008546,-0.4036957,-0.9260495,-0.32414424,-0.8346456,0.28276896,-0.8082228,-0.39212263,0.25955105,-0.37205625,0.92341566,0.9123082,-0.87690496,0.7053114,0.10035336,-0.5363686,0.3169316,-0.18627238,0.4336902,0.57071567,0.9265139,0.723606,-0.18771887,-0.5333704,-0.29792416,-0.80283856,0.51726604,0.42648947,-0.087643504,-0.9474015,-0.741084,-0.9998418,0.4602896,0.13577235,-0.59682953,-0.17608154,-0.098707676,-0.9150294,-0.95259345,0.45538497,-0.40860653,-0.17949855,-0.5410638,0.53749216,0.9311087,0.117880344,0.99048054,0.34056222,0.25253022,0.45714462,0.80488527,-0.91715837,-0.51784396,0.056674242,0.5202861,-0.14967382,-0.039797306,0.7638757,0.58991313,0.19402504,-0.21997297,0.053208828,0.063420415,-0.1583209,-0.16687655,-0.85179734,0.46273696,-0.087456584,0.061986327,0.621264,0.4391328,-0.88057625,-0.6869898,0.15374184,-0.33899963,0.10297048,0.81964314,-0.046492577,-0.3682679,-0.57501495,-0.5540788,-0.30903947,-0.7481679,0.8558512,-0.065295815,-0.14648104,0.7951342,-0.4565339,0.2955948,-0.14296901,0.3823793,-0.4968617,-0.6758704,0.28839552,-0.9884895,-0.6671511,-0.44732428,0.9886707,-0.8599901,0.7317302,-0.20352066,-0.12770653,-0.4960549,-0.25818276,0.19149923,0.94552934,-0.67965746,0.8499625,0.65072,0.45605373,0.9126046,0.25343275,0.5002469,0.882763,0.78644264,0.5462674,-0.5053519,-0.5576942,-0.949214,-0.9402951,-0.2237339,0.9005892,0.3111136,-0.22385442,-0.80692005,0.15936542,-0.58394074,0.48397422,-0.70480907,0.7272229,-0.6751443,-0.7601801,0.84497213,0.6250955,0.4398836,0.46107626,0.45882463,-0.045582294,0.24867046,-0.4287187,-0.9890386,0.6122153,0.9967828,-0.120262384,0.7710254,-0.06924069,-0.71931016,0.7577704,0.92777824,-0.06701398,0.6367761,0.7603544,-0.20828927,0.28928542,0.80854464,0.7487037,0.088347316,0.19464302,0.23935473,-0.091430545,0.74357426,0.4717995,-0.43551564,0.25089037,-0.055321574,-0.46179616,0.38658416,-0.15898907,0.88662934,0.8445792],"bias":0.7297523},{"activation":0.095817,"weights":[0.7391496,0.7143712,-0.14919317,0.9680505,-0.551244,0.6046498,-0.21517766,-0.6913377,-0.27824247,0.7750436,-0.8849622,-0.32112885,-0.28555715,-0.43337452,0.045580387,-0.092677236,-0.55704296,-0.8836328,-0.7414262,-0.2559569,0.38990402,0.021659136,0.27558696,0.6721196,0.8107792,-0.18308377,-0.2015475,0.20364046,0.9652195,0.56203353,0.29902565,-0.36139774,0.7390946,0.8435862,0.046084285,-0.5389792,-0.4537679,-0.14811361,-0.6778952,-0.23071313,-0.7334739,0.13859212,0.7409433,-0.64419544,0.4991411,0.54815733,0.7326112,-0.22721839,0.049454212,-0.39995825,0.25835228,-0.82712066,-0.3454392,0.6923325,-0.05949819,0.27873778,0.9208243,-0.98722506,0.17735064,-0.7245368,-0.09291983,0.71789336,0.7990166,-0.17561758,-0.18451571,-0.09265125,-0.06646216,-0.38214636,0.5147451,0.9178467,0.51636314,0.5538647,0.43841922,-0.43360233,-0.25539172,-0.44919455,-0.7390684,-0.9635602,0.33038163,0.73890054,0.45096207,0.31107032,0.29297793,-0.9588314,0.7944858,-0.96440804,0.60459864,0.24470735,0.7615793,-0.16919816,0.22390151,-0.6259471,0.56384385,-0.860139,-0.2027812,0.65796554,0.4313327,0.20453608,-0.09175265,0.12714136,-0.901173,-0.96228683,0.1692617,0.66999185,-0.540449,-0.53204584,-0.26460743,-0.9132397,0.9187765,-0.84246004,-0.5649588,0.57673466,0.09469271,-0.8913636,-0.8422611,0.469568,0.75883484,0.4946108,-0.9640485,-0.43874097,0.25411654,-0.45931423,0.88270354,0.8308263,-0.926903,0.7105932,-0.6978047,0.1555767,0.742321,-0.8231096,0.49039698,0.27006674,0.12084365,0.7114719,0.4175923,0.3563981,0.8504349,-0.6627773,0.27039242,0.4733987,0.46454823,-0.6954123,-0.10628939,0.9096041,-0.46101356,0.90063107,-0.34974277,0.53677523,-0.42042089,0.023520827,0.88127303,-0.24092042,0.8058889,0.69738555,-0.35313416,0.25776994,0.61671567,0.015793085,0.2871369,0.2701918,-0.27038002,0.19540703,0.33888578,0.20619524,-0.92826545,-0.0029420853,-0.4994732,0.6220808,0.59098494,0.9117867,-0.4852165,0.25868654,0.18931246,-0.32368147,0.39696229,0.06776023,-0.13094175,0.082365036,-0.6100787,-0.9371332,-0.8587104,0.29166603,-0.20813036,0.45392287,-0.69301236,0.15692663,0.3145193,0.016291618,-0.44643283,-0.19549274,0.57014334,0.82973015,-0.2672323,0.18083143,-0.020281434,0.029261827,0.50697374,-0.68337154,0.7948768,0.07249582,-0.3390975,0.22371387,-0.2971139,-0.6828704,-0.8205658,-0.48937654,0.6774322,0.33486307,0.91423535,0.4990492,0.7553785,0.6212605,0.19963431,0.73082364,-0.82577133,0.028848052,-0.80972636,0.19200873,-0.6216084,-0.28796387,-0.50346076,0.839983,0.44280112,0.42791665,-0.4099102,0.9830035,-0.8845254,0.71458626,-0.96270585,-0.42681122,0.95742834,0.82094467,-0.5294901,0.6839819,-0.8148867,0.92692375,-0.7977481,-0.5718645,-0.4137733,-0.38250875,-0.32507002,-0.74906516,0.067647815,0.8405497,0.07724285,0.07301378,0.22131383,-0.12878251,-0.15697491,-0.07306969,-0.9146452,0.48908365,0.27429295,-0.77770436,0.7895042,0.565794,-0.18408608,-0.74898267,-0.07496512,-0.78378224,-0.30045593,-0.9849597,-0.63383687,-0.71166444,0.92060053,-0.48369086,-0.25919306,0.64094687,0.42556965,-0.6179731,0.21309721,0.4209833,-0.8554461,-0.52066946,-0.041353703,0.6831218,-0.052255154,0.66700244,0.48506832,-0.7227416,-0.80209315,0.08357406,0.7920258,-0.06919289,0.41769862,-0.9393964,-0.380149,-0.85026526,-0.38455868,0.8562572,0.5962869,-0.76851094,0.74634624,-0.39305294,0.034501314,-0.7270744,-0.3076681,0.77691495,-0.9808202,-0.90641093,0.050085306,0.35231102,0.5726781,-0.14442253,0.058306098,-0.5734246,0.47503102,0.96748376,-0.73917437,-0.2234987,-0.9420072,-0.071005106,-0.8269023,-0.8694881,-0.7633128,-0.8751888,0.091939926,-0.9793403,-0.30319464,-0.019339442,0.44014156,-0.3504702,-0.35051405,0.69741154,-0.25963938,-0.60877526,-0.11590636,0.47485065,-0.30077755,0.7101724,0.15287006,-0.3337183,0.49696445,0.0726949,0.6044321,-0.97505283,-0.70527804,-0.480492,0.10412073,-0.7120234,-0.29294014,0.52435505,-0.9625889,-0.8694247,0.3263508,-0.8318744,0.7637118,0.4111781,0.43231022,0.5893823,-0.90026224,-0.8291203,0.35667455,-0.8271636,0.96700084,0.5662482,-0.3552935,-0.49542582,-0.1373502,0.3139994,-0.44049764,-0.46366894,0.49722445,0.23509943,-0.33504546,-0.7117692,-0.43888998,-0.053990364,-0.48059785,0.39092028,-0.28911042,0.824891,-0.90116715,0.41857588,-0.62031424,0.5092472,-0.21421719,-0.18073857,-0.42983627,-0.71813464,-0.94917035,0.24044728,0.9243276,-0.9271977,0.67074764,-0.0952543,0.5020044,-0.9014889,0.2663945,0.7020371,0.47453475,-0.03171563,0.030337214,0.34510612,-0.4899658,-0.086165905,-0.30969405,0.34637856,-0.28604436,0.19869995,-0.8234799,0.13323903,-0.9448365,0.519758,-0.6375618,0.2571863,-0.32432544,0.46097863,-0.26210916,-0.21871626,-0.21505952,-0.77845156,-0.16677761,-0.071744084,0.24137151,0.23669028,0.527899,0.58376205,0.16458976,-0.21321869,0.11799967,-0.2866701,0.63246834,-0.19341898,-0.39113045,0.17795038,0.5988207,-0.13969493,-0.21863484,-0.97323704,-0.64184046,-0.07809496,-0.76434267,0.35343158,-0.1855011,-0.009267926,-0.7644421,0.34130502,-0.45756245,-0.37238944,0.43434513,0.6217226,-0.74538326,0.47778213,-0.22352362,-0.17980337,-0.48595393,-0.27198577,-0.9696994,0.5666851,-0.7314584,0.6102115,0.6246687,0.31692863,0.20759058,0.5541208,-0.19260895,-0.8241824,0.7431538,-0.83937883,0.696792,-0.56926596,-0.96402967,0.7560804,0.26732528,0.6963724,-0.6185256,-0.89195096,0.01678598,0.4694507,0.16055858,-0.032064795,-0.12694323,0.08866453,-0.10089123,0.8098942,0.20339334,0.44021857,0.52490354,-0.5925963,-0.43326712,-0.81480944,0.7442714,-0.8716446,0.5382447,-0.5948651,0.5208899,0.45445156,0.52762187,-0.12038636,0.6302272,-0.13606119,-0.7844386,0.76875436,0.59749734,0.4850459,-0.7488059,-0.6334318,0.8502532,-0.893945,-0.6301789,0.43226123,0.17125821,-0.8650298,-0.5460763,0.75572956,0.3800243,0.54268193,0.5770123,0.47237384,-0.31100118,-0.4411093,-0.09986889,0.7701521,-0.86592245,-0.33159685,-0.8396733,-0.0681113,-0.8455974,-0.7204759,-0.35454607,0.31364262,0.79080045,-0.9498205,-0.314054,0.29349887,0.95075977,-0.78281987,-0.24590123,-0.92349017,-0.7717682,0.66376495,0.32474065,0.9332752,-0.7126317,0.6253307,0.91128767,-0.3144405,0.042732477,-0.25275838,-0.5036092,0.6441022,-0.7656902,-0.95833766,0.3574803,-0.02634275,0.46182907,0.6540724,-0.82872224,0.4562347,0.84890056,0.9903462,0.38798642,0.04349792,0.5577867,-0.568449,0.65922856,-0.52806437,0.9269279,0.10278928,0.01149106,-0.15193427,-0.91385746,0.41796505,-0.017985106,0.49040973,0.37791538,0.30902827,-0.8731246,0.5351875,-0.34555316,-0.9743948,-0.25220728,0.33731174,0.93887305,0.48291278,0.43663466,-0.45570207,0.47002017,-0.93850064,0.621174,0.46148312,0.8069333,-0.37518024,0.16442907,0.68466353,-0.93762755,-0.33185935,-0.45667386,0.71187925,-0.6912265,0.27006197,0.7998338,0.83446264,-0.5331938,-0.93007565,0.21345413,-0.439749,-0.5836235,-0.89589083,0.21839225,0.023361087,-0.4325924,0.3769437,-0.35695016,-0.6493199,-0.6644167,-0.0983392,0.07313204,0.8610064,0.7202655,0.93599856,-0.30203176,0.69584453,0.08101094,0.15318918,0.43023562,0.95637786,0.29096806,-0.40627337,0.7722858,-0.3180492,0.010432601,0.044130445,-0.9237846,-0.2487185,-0.48465776,0.0066490173,0.3345381,0.13234913,0.13890684,-0.38833666,0.43176067,0.39640594,0.012381077,0.67559123,-0.08486962,-0.258973,0.22111475,-0.91709447,0.9137821,-0.64585674,-0.91478944,-0.6442696,-0.15170181,0.9070269,-0.045000315,-0.068297505,0.46360683,-0.26923335,0.64984703,-0.75689197,-0.350361,-0.99699414,0.9765732,-0.24823225,-0.64339495,-0.5644392,0.7259412,-0.6996294,0.2318517,-0.8120042,-0.63159454,-0.02234757,-0.9933605,0.49062872,-0.10556424,0.6246213,0.53363025,0.9582962,-0.40095925,0.060076,-0.67486763,0.5117645,-0.055927277,-0.29116273,0.3254944,-0.63844156,0.82161427,-0.05197215,0.50654614,-0.07713807,0.6836542,-0.98378706,-0.37511206,-0.1122123,-0.63399494,0.7624806,0.41336834,0.72801816,0.5335046,0.3207445,0.38028002,0.4894395,-0.61560524,-0.6847757,-0.3833424,0.50537837,0.8863193,-0.48261786,-0.93330777,0.86990225,-0.6189954,-0.93126154,0.68702066,-0.5108106,-0.6737585,0.91530025,-0.8892766,0.1999718,-0.13538373,-0.6591667,0.49535167,-0.9521388,-0.5107236,-0.7799156,0.7652556,-0.90328455,0.8127854,-0.4608519,-0.039338708,0.35383654,0.48368132,-0.6676978,0.3373133,-0.5323864,0.7334404,0.15407443,-0.6087942,0.3684268,0.55146265,0.27960932,0.8763113,0.5440599,0.36674964,-0.6658679,-0.8446429,0.2662176,0.7836803,-0.009864926,-0.99165356,-0.9009018,-0.6219804,0.44165075,-0.898625,0.36314142,-0.1962632,0.6116296,0.37667096,-0.20472968,-0.39062417,0.30058563,-0.10258651,0.81346333,-0.13441813,-0.42935205,0.04606104,-0.7566788,0.57019603,0.54459095,0.127087,-0.7743422,0.1322385,0.47817266,0.74303114,0.49464214,-0.5210601,0.053581357,0.03066504,0.90091753,0.32859945,0.3712554,-0.57464457,-0.8034973,-0.95607924,0.6881161,-0.12458372,0.051777005,-0.30885088,-0.63257205,-0.7262584,0.80905914,-0.46401083,-0.74563205],"bias":0.1947943},{"activation":0.8319083,"weights":[0.81684303,0.39032125,0.1672045,0.7803271,-0.35893214,-0.68847215,0.9140043,0.6714406,0.77533376,-0.53584707,-0.14523947,0.6797087,-0.04943657,-0.41130757,-0.89324677,0.22010016,0.9408809,-0.04547441,0.3787099,-0.51580334,-0.025797844,-0.6135956,0.21397376,0.2998904,-0.47768378,-0.089000225,-0.4430555,-0.83497775,-0.16312647,0.44706368,0.4886036,0.39316905,-0.60318637,0.45038867,0.83700526,-0.070706844,-0.336228,-0.79809284,0.6994982,0.27184176,-0.3592373,-0.6980181,0.23849404,0.061523914,0.784008,-0.27153647,-0.8350637,-0.9914814,0.6828736,-0.08604288,-0.9594451,0.26322186,-0.9297677,-0.55675256,0.5033817,-0.117761254,-0.22928035,-0.3300395,0.53534734,-0.80592716,-0.1169225,-0.19330478,0.49007332,0.14366019,-0.80996513,0.7979411,0.35373342,0.6147145,-0.32852888,-0.71637464,-0.865484,0.98087347,0.7902566,-0.6717638,-0.4569341,-0.66571593,0.17520595,-0.23834443,0.25446248,-0.9278537,-0.32388163,0.49772608,-0.87953556,0.03450179,-0.75183594,0.2715931,0.120495915,0.11665356,-0.125031,-0.74047816,-0.53726125,-0.9084754,-0.63765824,-0.52732825,0.21352994,0.2565943,0.26973367,0.09184313,0.36839736,-0.9063113,-0.14444685,0.75155914,-0.11428738,0.01236248,-0.9295839,0.53817165,0.3176012,-0.99844897,-0.42760193,-0.35822523,-0.57548296,-0.8606534,0.05219233,-0.8966336,0.47415602,0.25324452,0.57060695,0.7433765,0.76119065,-0.7474085,0.82371354,0.33193195,-0.6120024,0.03839135,-0.3859365,0.6979618,-0.866436,-0.37708223,-0.76164734,-0.3755778,-0.50563025,-0.07098973,-0.26661706,0.12466955,-0.16096652,0.1853075,-0.716452,-0.12611043,-0.08472669,-0.9471457,0.16554284,-0.83882654,0.26528203,-0.6488501,-0.9706781,0.39046848,0.7280239,-0.9074774,-0.6745113,0.71180916,0.8311652,0.98228645,-0.41562402,-0.23134375,-0.38035583,-0.44787073,0.05130756,0.33780658,0.22411287,-0.4604125,0.3437078,-0.7806529,0.07663834,0.662045,0.86266327,-0.9287114,0.6725626,-0.29507422,-0.5826771,-0.35452223,-0.5254208,0.42606235,-0.5285034,0.8318896,0.08368838,-0.2163521,-0.8401209,-0.74867177,-0.10858989,0.64571965,-0.7930317,-0.6444049,0.41500306,-0.48353422,-0.5084852,0.22616768,0.656083,0.16053891,0.54619396,0.8381908,-0.44947278,0.52264714,0.5302427,0.020526767,0.2428695,-0.8913498,0.5543575,-0.9033489,0.32602072,0.81030726,0.9940231,-0.5846549,0.74127316,-0.48315108,0.94381785,-0.12298298,-0.00037944317,0.80246186,0.8920319,0.06433356,0.6936569,0.4202863,0.1415466,0.9339613,-0.85160124,0.43983567,0.7665589,-0.2773124,-0.9735229,-0.59117496,0.54942214,-0.29739463,0.68960667,0.48800743,0.79422474,-0.19126809,-0.033198833,0.11961973,-0.38742578,0.95322514,-0.8101784,0.32902014,-0.5290996,0.4012556,-0.44032204,-0.4860252,0.39760578,0.9837979,0.06991112,0.8454777,0.7014661,-0.8175025,-0.035461307,0.7255609,0.5774189,-0.5233252,-0.7158606,0.25766778,0.6985048,-0.21565318,0.6939634,0.37648928,0.6877645,0.93097496,0.98878443,-0.17582262,-0.81306946,-0.89607334,-0.60898364,-0.82888865,-0.44659173,-0.7037047,0.59989095,0.78763247,0.7803843,-0.5173273,0.762334,-0.30921185,0.93714094,-0.82343256,-0.027384877,0.74010885,0.24451351,0.43439698,-0.22487068,-0.6100968,-0.902761,-0.6621127,-0.43173373,-0.2136234,0.18246508,-0.6532142,0.91914654,0.052624106,0.104864836,0.8055507,0.6108515,0.18573594,0.66670895,-0.27938247,-0.99968886,-0.32758033,0.22977662,-0.1523037,0.7213166,0.61869466,0.14710605,0.24711621,0.9416269,-0.16199529,-0.7120645,-0.62055624,0.10777259,-0.7825227,-0.18290162,-0.9882777,-0.47058332,-0.61105824,0.460351,0.79643,-0.68605435,0.4096161,-0.064839244,0.46261716,0.75400984,0.71980715,0.11702943,0.5358368,-0.68490887,0.809587,0.8309057,0.47222197,-0.8351929,0.77363145,0.13900566,-0.43958914,-0.9169079,-0.15049756,0.26935816,-0.21478033,0.81717324,0.2150861,0.31533444,0.6968527,0.30749,-0.5625938,-0.90791297,0.23315156,0.343346,-0.08402264,-0.03474784,-0.08954775,-0.7909657,0.23631907,-0.86763215,-0.07333481,-0.70751035,0.2843567,-0.247872,-0.9351442,-0.30771577,0.80501235,-0.78758574,0.53473544,0.28184092,0.55777204,0.20085835,0.09580195,-0.002518177,0.92899907,0.88942015,0.605739,-0.19928479,-0.34164023,0.29447246,-0.75971425,0.8710747,-0.686391,-0.15228128,-0.61176133,-0.11875284,0.12945771,0.037092686,-0.5100508,0.3155265,0.5125946,0.95853555,0.5828819,0.11828673,-0.25848556,-0.057185173,-0.20960546,-0.8356446,-0.85843766,-0.44920135,0.006860614,0.8743278,-0.1564002,-0.7858169,-0.35045612,-0.47077549,0.19110763,-0.7162719,-0.27484667,-0.04377854,0.3898672,0.2919289,-0.579206,-0.3053559,0.30158317,-0.23134398,-0.23933482,-0.8059832,0.4100678,-0.5152303,-0.32534242,-0.17111945,-0.34470868,0.6835307,0.38971353,-0.041832805,-0.44642484,0.35691822,-0.009239316,0.2823379,-0.93591166,-0.06043434,-0.077251196,-0.19401062,-0.39732146,0.77089,-0.8815981,-0.6885513,0.58983314,-0.15821671,-0.3796835,0.065825224,-0.6498058,0.69402087,0.9983597,-0.35965896,-0.3902681,0.5944598,0.2608688,-0.5731518,0.527881,0.117424846,-0.6150925,0.35005522,0.5975363,-0.71629965,0.9969555,0.5590559,0.9357884,0.091299295,-0.66407514,-0.83462214,-0.5818553,-0.16685355,-0.76299,0.13863981,-0.04623258,0.5598867,-0.95190775,-0.6608728,-0.082410574,0.62191474,-0.00078964233,0.04222524,0.203215,-0.034733295,0.5593592,-0.8664365,-0.58127,0.76300836,0.71456516,-0.5851898,0.13491619,0.50652313,-0.4259261,-0.7136842,-0.73031676,0.6667141,-0.5566002,0.36924374,-0.833714,0.33120334,-0.31468117,0.07521379,0.8170645,0.40384007,-0.61860347,0.16036797,0.101504445,0.37369633,-0.65797234,-0.6885147,-0.44642007,0.63146555,-0.52005255,-0.8813058,-0.387537,0.8729731,-0.41632462,0.3891896,-0.8139216,-0.68485844,-0.73397136,-0.61371136,0.8717592,0.87796664,-0.06762493,0.88244283,-0.44044256,0.2964015,0.5076705,0.8929107,0.29597235,-0.9823657,0.23602211,0.28915834,0.23123765,-0.3878777,-0.22497642,-0.6049409,0.5782752,-0.105280995,-0.7405604,0.017493486,-0.3257321,0.17783797,-0.40443718,0.41863203,0.43902802,0.71507025,-0.8034549,-0.57636166,0.75199056,0.6758386,-0.088612914,0.43133926,-0.39386046,0.459646,-0.15402305,-0.094534636,0.06893492,-0.4632926,-0.44310153,-0.27034962,0.046603322,-0.54364824,-0.9570774,0.024830937,-0.94928455,-0.4451294,0.34271884,0.14375103,-0.3617344,-0.02234149,-0.4376415,-0.7350757,0.45024014,-0.51916945,-0.1577301,0.5977255,0.8494185,-0.42529178,-0.44429636,0.95126367,0.6216333,-0.053430438,-0.65612173,0.7029507,-0.48808467,0.16527522,-0.022579312,-0.11469495,0.5251194,0.6175754,0.14138103,0.47555006,-0.8812504,-0.9939314,0.02735722,0.98268783,0.020983815,-0.4782498,0.182634,0.9574518,0.8936719,0.37786198,0.15225613,-0.7253028,-0.7852453,-0.37661803,-0.73386693,0.6287898,0.19221961,0.8123534,-0.9928001,0.90562665,-0.00030374527,-0.4262669,-0.6231791,0.6352211,0.47896647,0.3064642,-0.38317573,0.6562996,0.9918053,0.9101783,-0.40589976,-0.17073858,-0.10734761,-0.5529518,-0.17755592,-0.290092,0.3513546,0.24026358,-0.17625701,0.5859705,-0.6678021,0.85640156,0.11984277,0.2576058,0.42259037,-0.075662255,-0.68809295,0.47559476,-0.31757426,-0.1680224,-0.25218475,-0.6303673,0.16395164,0.97040737,0.7218329,0.4852023,-0.5176039,-0.6620103,0.8740094,-0.23428476,-0.031826973,0.7494036,-0.15480483,-0.54271626,-0.13627028,0.41106963,-0.9946128,0.23145545,0.2759745,-0.8694701,-0.106877446,0.9854982,0.29110837,-0.23838043,-0.42524183,0.5092188,-0.23400521,0.8191017,0.04248333,-0.49352264,0.5420232,0.77962124,-0.8608389,-0.22496235,0.024305582,0.97828484,-0.38681006,0.011816502,0.28373492,-0.49670708,0.2889638,0.6746721,-0.51527977,0.3602699,-0.06717932,-0.3170954,-0.27550483,-0.3405112,0.16857398,0.59471536,0.6680536,0.3008983,0.743016,0.35519552,0.059651256,0.14448535,-0.08666706,0.98137426,0.95412755,0.19087493,-0.3065287,0.8465315,-0.4138031,-0.6788995,-0.122537374,-0.8454423,0.8574879,-0.030411482,-0.6836637,0.49801207,0.21298838,-0.22865224,0.9848236,-0.18744242,-0.7040566,0.0055211782,0.8869238,0.7995472,0.718923,0.25217295,-0.84991205,0.8515928,0.96917987,0.8013216,-0.46729422,-0.36004257,0.5616517,-0.4178369,-0.7580074,-0.6399243,-0.53762364,0.48766494,-0.5363529,-0.6025115,0.21308255,0.4146638,0.6080309,0.89069605,-0.741861,-0.08723986,-0.09674883,-0.1542126,0.8115963,-0.20555282,-0.48200965,-0.3575269,0.5541419,-0.36911976,-0.11970997,-0.35930014,-0.9244994,0.97093785,-0.9363451,0.84146714,-0.33766568,-0.35683334,0.8625001,0.026507616,-0.7629589,-0.6078392,-0.99553394,-0.47358108,0.59975827,-0.79977155,0.5402733,0.12709868,-0.35048366,-0.91007495,0.910741,-0.9770849,-0.29043782,0.75648963,-0.7273997,-0.64351285,0.638559,0.21915853,0.31161582,0.3969177,0.68717515,0.17825079,-0.3249141,0.1618625,-0.03824234,-0.31021512,-0.45278585,-0.80645657,-0.9784697,-0.19751394,0.5836425,-0.1350975,-0.74408674,0.061358213,-0.513932,-0.58126867,-0.106683016,0.91912067,-0.77381957,-0.90516376,-0.104133725,0.103176355,0.00037753582,-0.64327586,0.8096858],"bias":0.65490615},{"activation":0.514035,"weights":[-0.25976253,-0.2927071,0.4752264,-0.09837031,-0.741696,0.63666046,-0.14512706,0.00069856644,0.6530683,0.88067305,0.2804861,0.889204,0.65665615,0.11878216,-0.5651034,-0.93888676,0.41860533,0.7081969,0.6979271,-0.4665699,-0.88239574,0.77306426,-0.044846296,-0.4790833,0.98428667,0.29190028,0.1809367,-0.060108542,0.84982204,0.93235373,-0.06820083,-0.7112181,-0.8876126,-0.7779685,0.8488481,0.6048758,-0.5764035,0.2741797,0.39463568,-0.40394282,-0.27732408,0.4977733,0.47546363,-0.8255025,0.12769675,-0.38490152,0.8401514,-0.82205176,-0.9965397,-0.5524992,0.22559452,0.51098883,-0.90764666,0.28714395,-0.05637598,-0.83587337,0.42025137,-0.7284391,0.42601252,0.9905616,-0.63048065,0.44128358,0.31318974,0.59885013,-0.86218274,0.40076482,0.9021208,-0.38326395,-0.015933275,0.15214121,0.027731538,-0.46784508,0.8133646,-0.29721582,0.11346698,0.31977224,-0.24354851,-0.95349157,0.7078097,0.9513433,-0.2558446,-0.100996375,-0.20189178,-0.5728805,0.06016648,0.7776685,-0.69723797,-0.42941964,-0.31573617,-0.6775521,-0.28844452,-0.037025094,0.023935795,-0.26840162,0.6300291,-0.33390868,0.5736989,-0.5845878,-0.45605373,0.6587689,-0.8319564,0.44389844,-0.29168713,-0.528828,-0.73297036,-0.2331872,0.6947733,0.73990154,-0.994161,-0.9957694,0.3009385,-0.5601039,0.8434826,-0.6700592,0.90622294,-0.9549316,-0.32292914,0.74982226,0.30202448,-0.5785836,-0.3328066,0.53579915,-0.98007727,-0.34673905,-0.94056916,-0.5625198,0.50756717,-0.66151106,0.03250885,-0.60875964,0.53518295,-0.64840186,-0.43144274,0.762871,-0.88274324,-0.5322174,0.62086034,0.8100437,-0.9300064,-0.24853158,0.2785313,-0.15659821,-0.90770566,-0.24854898,-0.79227614,0.66810393,0.7357197,-0.9861952,-0.15277576,0.23264754,-0.691555,0.52206457,0.6675401,-0.33935177,-0.9406129,-0.097643256,0.66209996,-0.6063491,-0.060141683,-0.89077306,-0.5728973,0.039405465,0.79857147,0.8438866,0.4174974,0.0077861547,-0.44158208,-0.036208153,-0.24737096,-0.28955162,-0.07859123,-0.6978961,0.47752035,-0.985031,0.8687867,0.5290768,-0.91051865,-0.9413177,0.4914496,0.86154926,0.7489654,0.40571868,0.37605906,0.26560855,0.6079267,-0.34997833,-0.6756264,-0.15830493,-0.9234173,-0.014400482,-0.5983398,0.07677841,-0.21368599,-0.19905102,0.6653979,-0.8421135,0.07848525,-0.5348265,0.46396756,-0.5371481,-0.40858424,0.2552563,-0.5674758,-0.17994022,-0.15850604,0.6478603,0.24003685,-0.63907444,0.50640905,-0.014833689,-0.49678266,-0.2626294,-0.67420363,-0.5970464,0.40294552,0.3172518,-0.40194607,0.1662333,-0.3911687,-0.8680358,0.020362735,0.6868532,0.43545055,0.09797943,-0.5413859,-0.86303604,0.4278947,0.8387389,-0.08356619,0.38794017,0.092366934,-0.9136543,-0.9844049,-0.68453634,-0.6025944,-0.5053389,-0.8657657,0.40394902,0.5121726,0.9388747,0.9482055,0.1094439,0.2845857,-0.5011083,0.13716114,0.04058051,-0.07426798,0.61140096,-0.9277017,0.049799085,-0.39902794,-0.3761586,0.41379476,-0.6411694,0.65246177,-0.641798,0.0010784864,-0.07252717,0.21518576,0.20569623,-0.32852888,-0.050442457,0.29844105,-0.63173735,-0.8813442,0.9060794,-0.67764246,0.2671566,0.95368207,-0.7813108,0.76678705,-0.22731447,-0.58496976,-0.7334025,-0.80048895,0.4495976,0.21437478,0.1857388,0.87151,-0.13601899,0.6487452,-0.088353395,0.89485407,0.28883815,-0.3640765,0.7333293,-0.4373176,-0.41843903,0.23189676,0.46350336,-0.9025521,0.90539193,0.9524244,0.092936516,0.6166327,0.36456478,0.2723925,0.48393893,-0.81895506,0.5366069,-0.26238322,-0.36158574,0.8395493,0.8709562,-0.70660925,0.5675154,0.881758,-0.9747709,0.060262322,0.8266157,0.38080668,0.5157126,0.62263834,0.8526765,-0.88140595,0.043147326,0.4561422,-0.9472927,0.22990549,-0.26264536,-0.38887358,-0.24533832,0.23346233,0.86962664,0.57322717,0.44549894,0.67047334,0.3054049,-0.68229246,0.8227024,0.5851387,0.48285544,-0.84869635,0.8971808,0.021903992,-0.1323477,-0.7583009,-0.46898103,-0.2237432,-0.06847823,-0.678185,0.81256354,0.76925254,0.73444784,0.11851716,0.43202472,-0.9557153,-0.94406223,0.749285,0.6516448,-0.54016995,0.2438327,0.06591821,0.7319385,-0.8691311,0.8140681,-0.40168738,-0.7729484,0.5538478,-0.8816278,0.6829606,-0.5251583,-0.1927278,0.12340391,0.83067966,-0.25234878,-0.70637834,0.174142,0.5310832,0.09354961,-0.23653066,-0.93012714,0.8189193,0.3231585,-0.8888531,-0.43410885,0.17934155,-0.87272096,0.37314534,0.123876214,0.4677348,-0.4859488,-0.44388533,-0.0010939837,0.121344805,-0.41760993,0.07791567,-0.23572779,0.10181081,0.6711236,0.69731677,0.22553492,0.45108664,0.09505868,-0.5747192,-0.4599365,-0.648047,0.8731102,0.30602574,-0.5466069,-0.2651651,0.121221185,-0.45837784,0.8148935,-0.2201209,0.04858172,-0.806411,0.6899072,-0.76643455,-0.94126165,-0.75978553,0.9480984,-0.17442799,0.9190341,0.5532682,-0.66311204,0.61629725,-0.2851938,-0.036692977,0.49837506,0.15100646,-0.055535555,-0.8983252,-0.19617271,-0.81584334,0.4122771,-0.0024290085,-0.26384735,0.6841482,0.08074725,-0.177091,0.305174,0.62516856,0.4154129,-0.4695872,0.6753888,-0.10409975,-0.41538608,0.83695817,0.6489899,-0.8732443,-0.46579492,0.97753215,-0.5547172,-0.8705591,0.6253097,-0.48490512,0.9907961,-0.2398014,0.5552895,-0.20649326,0.97444415,-0.21883738,0.85110736,0.27682602,0.29688728,0.7445986,0.046650767,-0.31567764,0.2461369,-0.8021494,0.48332417,-0.25242877,-0.2904123,-0.6467879,0.7052541,-0.4233929,-0.13458431,-0.32277846,-0.17157555,0.37515855,0.861099,-0.1474477,-0.22376859,0.16219985,-0.5075673,-0.17066681,-0.45240128,0.046262622,-0.45731938,0.93754256,0.34036994,0.86905766,-0.12680256,0.8347231,0.25640893,-0.4865936,0.7372345,0.07323599,-0.015320659,0.30463088,0.44232726,-0.012079716,-0.36299372,-0.19273329,0.18057406,-0.23902225,-0.46267807,-0.9828844,0.41459322,-0.7109021,0.3808689,0.025733948,-0.5739263,0.79152334,-0.107771754,-0.30783916,0.03055358,0.25206137,-0.5582763,-0.34796834,-0.0041605234,-0.702461,-0.76803434,-0.33378625,0.11528969,0.094379425,0.72916985,0.7656083,0.7913779,0.95007455,-0.18518889,0.7900313,0.10621703,-0.88598037,0.083497524,-0.4016621,0.9588692,0.4772948,-0.87621367,-0.333313,0.0391891,0.6222644,0.6302471,0.29176354,0.6520958,-0.02657485,-0.6991483,-0.78701544,0.5225276,-0.24755228,-0.12512505,0.9389646,-0.32274508,0.3214308,-0.20813,0.5288967,-0.27178764,0.7681279,-0.028382659,-0.9190582,0.717569,-0.34692276,0.9273586,-0.27590966,-0.81334007,0.40842998,0.00946784,-0.065911055,-0.00022530556,0.14908862,-0.38614798,-0.8009621,-0.14073706,0.9350083,-0.62613404,0.991505,-0.46795356,-0.5174537,-0.23713684,-0.5765376,0.47325552,-0.9469421,0.07879233,-0.7946689,-0.35718024,-0.036219954,-0.39369297,-0.4533242,-0.21137512,0.6396986,-0.9768108,-0.59253705,-0.109007716,0.59934247,-0.66139865,-0.033445954,0.90004504,-0.41869688,-0.39932656,0.82626355,0.23165035,-0.9648764,-0.16909313,-0.76393497,-0.6102526,-0.00080883503,-0.1848849,-0.89984596,0.75380397,0.24935734,-0.94007003,-0.9388946,0.3306762,0.10739064,0.9262748,0.9419228,0.57960355,-0.8929802,0.0025144815,0.8039838,0.1678344,-0.053868175,-0.42296576,-0.3057251,-0.11725569,0.6820632,0.18650103,0.9960128,-0.8740308,0.84376085,-0.21915686,0.056258082,0.28913558,0.65106475,0.39753306,-0.5361035,-0.9578793,0.70960605,-0.1326319,0.6134585,-0.17652035,0.11201465,-0.8656769,0.0068790913,0.26114047,0.9705967,0.40488017,0.9738252,0.43282747,-0.42121458,-0.63958144,0.06729126,0.08321917,-0.15470588,0.24014199,0.02680552,-0.46408403,0.30555725,-0.3866738,0.56653,-0.3079331,-0.68827105,-0.036872268,-0.6306492,0.077507615,0.6638659,0.47018373,-0.58908284,-0.9432231,-0.957492,-0.9879415,0.23082256,-0.7107867,-0.8466431,-0.27752292,-0.020414114,-0.009665012,-0.8903663,0.21221304,-0.8514204,0.91270006,-0.68728507,-0.9086914,-0.2533002,-0.60803246,0.132254,-0.58452606,0.18566644,0.63370895,0.25237715,0.6922226,0.16869462,-0.10298526,-0.26781774,-0.25847375,-0.27028525,-0.22256768,0.7486149,0.3826847,0.017772675,0.5276512,-0.6276436,0.5160707,-0.7096524,0.43200696,0.52594316,-0.70367265,0.228683,0.53089285,0.61961544,-0.43360734,0.14738679,-0.10808635,-0.12011802,-0.9671037,0.23883641,-0.7371031,-0.9126487,-0.6587379,0.3336035,-0.7333739,-0.91632915,-0.8981898,-0.19630289,-0.21366942,0.32094514,0.9657587,0.06279433,0.15970635,-0.6568489,0.24444616,0.73543596,-0.6526139,0.66467905,0.237391,0.9648154,0.6475823,-0.3655858,0.50634766,-0.955536,-0.05396521,0.80263853,-0.06790686,0.0015695095,-0.9403416,0.5210761,-0.8568859,-0.33421767,0.86718285,-0.119840264,-0.37425077,-0.46468627,-0.23777342,0.0948925,-0.80813396,-0.26797187,0.44013107,-0.53555477,-0.8763393,-0.08454132,-0.6828444,0.31707585,-0.85943973,-0.48341787,-0.87158537,-0.56559384,0.041766286,0.21136177,-0.27914882,-0.20488405,0.9733131,-0.046885133,0.32828045,0.093215704,-0.05880809,-0.85669315,-0.8567381,0.08095384,-0.7847638,0.25327075,-0.39294314,0.40694404,-0.06843817,-0.32006395,0.09468961,-0.73877966,0.7337035,0.078437805,-0.7912177,0.70769036,0.86201537,-0.7332654,-0.60694647],"bias":0.4441002},{"activation":0.8740653,"weights":[-0.4095099,-0.5346799,-0.0760026,0.0798403,-0.44653213,-0.44315434,-0.033566475,0.8618711,-0.35550833,-0.3023404,-0.4363159,-0.67223597,-0.5790092,-0.03277898,0.1656704,0.7668328,0.9510348,-0.5560801,0.77089155,0.60383976,-0.9498204,0.6502098,0.03912103,0.3629408,-0.20261681,-0.9726013,-0.55732477,-0.36192155,0.09558666,-0.38994622,0.7867719,0.8024477,0.8204889,0.5197736,0.94667995,0.78381765,-0.19285715,-0.017085433,0.018445492,0.5532403,-0.71877205,-0.9452323,0.9183103,0.5446526,-0.7315825,-0.53161204,-0.07924366,-0.14921391,-0.7865757,0.61759615,0.41097474,0.88087773,-0.84459364,-0.36922586,-0.45260942,-0.31765926,-0.7602489,-0.20197845,-0.19785166,-0.6831939,-0.5547006,-0.35354507,-0.28604043,-0.7378931,-0.004997134,-0.75530744,-0.05238092,-0.60589874,-0.0511626,0.26510167,0.4646032,-0.99293375,0.2557248,0.5901935,0.34979475,0.79959035,-0.22613966,-0.78311324,-0.8357625,-0.78662586,0.55359364,-0.85834086,0.59197116,0.043516517,-0.051378608,0.35799062,0.669994,-0.77576137,0.7210753,0.8598428,-0.9175713,-0.77732253,0.6742692,0.45838356,-0.1855545,0.30386877,-0.64210093,-0.07669711,-0.58992124,0.22124314,-0.786322,-0.2399174,-0.015170813,0.59941876,-0.9022157,-0.74846363,0.10778499,0.48755622,0.93337655,-0.57113683,-0.5290991,0.4949175,-0.050418496,-0.79319334,0.44632077,0.4717394,0.67482066,0.94557905,0.036148548,-0.09555161,-0.9438244,-0.5875995,0.86771536,0.11474776,0.25497234,-0.23260045,-0.4091444,-0.45341372,-0.48404276,0.10095227,-0.4346453,0.6444403,0.16337764,0.8868842,-0.70531654,-0.5015099,0.36696756,0.100036144,-0.010359168,0.7505959,0.3255477,0.2938267,0.66627383,-0.9539161,-0.9003427,0.5163299,0.52502453,-0.93003607,-0.56630313,-0.88131785,-0.57156765,0.502859,0.17646241,-0.10872245,0.40510738,-0.20397449,0.5122677,0.20025682,0.6987765,0.45970988,0.24200201,-0.84095085,-0.017163754,0.59044695,-0.37499046,0.24348235,-0.5868397,-0.39498687,0.2491492,0.9093467,-0.4294243,0.37239373,0.87296414,-0.42776656,-0.04917991,0.52997553,-0.9298929,-0.7116374,0.21378088,0.36677015,0.22678494,0.35651374,-0.84644306,-0.64288104,-0.62643814,-0.5364573,-0.6662154,0.12239909,0.6319394,-0.06688118,0.86991096,0.41919923,0.6190165,-0.07980454,-0.4886359,0.2043662,0.12545729,-0.84925735,0.9087348,-0.30312788,-0.20277667,0.91085386,0.98641896,0.41626394,-0.0065157413,0.041196823,0.9641807,-0.0414145,-0.6832149,-0.020385027,0.54005134,0.9808713,0.075372934,0.044027805,0.68887496,0.19818676,0.74356663,0.101588845,0.11826944,0.9932437,0.92296386,0.012655258,0.19496429,0.83290493,-0.52487826,0.26271892,-0.94962025,-0.17864668,0.47666597,0.7497417,-0.8942964,-0.16118109,-0.00696218,0.31060147,0.14970458,-0.7927002,-0.6456078,-0.9999298,0.15601218,-0.21801972,0.27057958,-0.05639577,0.492198,0.6022419,0.18549109,0.34948862,0.23822808,-0.95922923,0.24877882,-0.8729687,0.2894162,0.42005646,0.9209602,-0.5123553,-0.31656706,-0.069075346,0.5114409,-0.142313,-0.40827227,-0.42326903,-0.6387708,0.96045804,-0.9457463,-0.78865075,0.904315,0.73155534,0.76574576,-0.10991359,0.8468543,0.43862092,-0.85107803,-0.56440413,0.9977788,-0.8523729,0.39801633,0.87572134,-0.64197814,-0.7924353,0.42837322,-0.16906118,0.3871224,-0.13107872,0.9340317,0.79286146,0.16382253,0.7111131,0.51376307,-0.97248864,-0.8250984,0.11076319,-0.5449678,-0.84558403,0.33813262,0.22330642,0.26181006,0.4610219,-0.048712015,-0.9434297,-0.32842803,-0.86256075,-0.36386716,-0.9904003,-0.5668192,-0.5233406,0.63872397,-0.24125493,0.55727136,-0.027494669,-0.5378941,-0.40510905,0.34767914,0.92611,-0.8222623,0.19980907,-0.8728347,-0.16327465,-0.87514853,0.9727664,0.930825,0.66645634,-0.17142177,-0.04594755,0.82758856,-0.7408005,-0.64989316,-0.56437266,-0.14608943,0.8843876,0.29190898,-0.12847042,0.16788971,0.29879463,0.6591624,-0.6761159,0.7421776,0.91025674,0.990183,0.14963293,-0.94988143,0.3443823,-0.62698567,-0.7276751,-0.15955555,0.297284,0.40488076,-0.52378273,-0.17162251,-0.4911189,-0.37356722,0.62129927,-0.9766139,-0.13978517,0.22326517,0.43522084,0.9745883,0.55454516,0.44049144,-0.70653176,-0.33148158,-0.9281008,0.90989304,0.066525936,0.43230665,-0.14818776,-0.3550912,-0.78668773,-0.6155108,0.97443855,-0.4984908,0.28399503,-0.74274194,-0.46604705,0.6841469,-0.47031713,-0.5572475,-0.75884664,-0.88819146,-0.16576433,-0.14657307,-0.74946845,-0.18160641,0.32643187,0.35280597,0.06753862,-0.8828341,0.36184382,0.369694,0.08919561,0.7000468,0.38764608,-0.8878503,-0.31461966,0.05009377,-0.7827287,0.7763194,0.035956144,0.11460614,-0.10881841,-0.3659072,-0.72711325,-0.07773578,0.69015574,0.87105596,-0.44485223,0.9439261,-0.30042624,0.08213484,0.97158015,-0.9186611,0.37044096,-0.024431467,0.1746887,-0.9237863,0.66986823,-0.9745264,-0.27724957,0.1998825,0.9575139,-0.31644797,-0.24519551,-0.041743636,-0.48805928,-0.8534303,0.90383506,0.5567434,0.7771982,0.6030127,0.73263097,-0.5677651,-0.9293066,0.5479282,0.24381804,-0.72503257,0.4924369,-0.5631832,0.053592086,-0.54323506,-0.03729832,0.74772155,0.4306308,0.11368501,-0.048969507,0.39611113,0.19350493,0.9532341,-0.41223216,-0.85869265,0.87275743,-0.37419355,0.033804655,0.18857002,-0.6718614,-0.9082489,-0.34896612,-0.16251397,0.7584379,-0.25244546,-0.6586822,0.39367723,-0.5620034,0.2692033,-0.18620324,-0.62867916,0.5997491,-0.49958634,0.66559887,0.39138222,0.5609118,-0.91425693,0.7121661,-0.14669192,-0.6879685,0.86446905,-0.14338064,0.40123796,0.041255116,-0.88703954,0.060667515,0.8184564,0.12981379,0.39499784,-0.5997735,-0.40444136,-0.07868433,0.41580486,-0.57774293,-0.18299079,0.91161287,-0.7158812,0.8678485,-0.77346027,0.04216063,-0.17131805,-0.59857607,-0.21347642,0.9308032,-0.39967048,-0.4914323,0.99163413,0.1259079,0.9558741,0.14305389,0.7907101,-0.31306684,-0.9609773,0.59167814,-0.7741114,-0.46621788,-0.47041333,-0.7530831,-0.6584319,-0.009903789,-0.5078881,-0.3128866,-0.07569802,-0.5558492,-0.87317026,0.0185467,-0.4546119,-0.78651285,0.73442304,0.057955265,-0.41722465,0.6711681,-0.885206,0.41430688,-0.94591475,-0.83610487,-0.8617153,-0.6235125,-0.7919549,-0.89335465,-0.23878634,-0.1047734,-0.47108424,0.23756206,0.9538963,0.9144715,-0.10728574,0.9130124,-0.5352535,-0.72241795,-0.46389008,0.055622578,-0.17326427,-0.36077774,-0.9582523,0.6335082,0.14522552,-0.8660339,-0.43040442,0.9540428,-0.60769165,0.632311,-0.3224448,0.021807194,0.9225477,-0.09844649,0.27952814,0.29627323,0.19509768,-0.7644732,-0.7971871,0.9742074,0.74404204,0.4665544,-0.7572911,-0.28486133,-0.9603772,0.8702365,0.23523128,0.10782921,0.8487425,-0.6082628,0.50350976,0.15944326,0.17209423,-0.43438423,0.93918073,-0.9397038,-0.22932208,-0.3934871,-0.55032957,0.27980542,-0.6548395,0.123527765,-0.6356709,-0.59247124,-0.1864698,0.651322,0.5224353,0.08270037,0.5258299,0.74357975,0.87405765,0.03459668,0.847718,0.34349418,0.5858791,0.3139683,-0.52677214,-0.22661746,-0.97908556,0.96522903,-0.81714785,0.9903468,-0.22396684,0.76481605,-0.24897826,0.3643043,0.3181969,-0.5136925,-0.2964238,0.40815282,-0.6164695,-0.48415518,0.23169065,0.71086836,-0.2670778,0.32764196,-0.20659804,-0.8494909,-0.49905384,0.25015604,-0.1235677,0.5589466,-0.42465925,0.6774477,-0.5575733,-0.5178124,0.46003628,-0.9174427,0.7457893,0.5201019,0.2558303,0.92405844,0.74565446,0.48906302,-0.83687747,-0.5195724,0.9817755,-0.1762048,0.34340358,0.3513887,-0.31897068,-0.3718636,-0.19565141,-0.3824426,0.71519136,-0.787714,-0.34036613,0.7564684,-0.58581614,-0.41534102,0.6645504,0.83659697,0.38781846,0.6625005,0.65862644,0.66822433,-0.14724123,-0.41376507,-0.8428458,-0.23524523,-0.58212304,-0.30967593,-0.5627507,-0.4649459,-0.08961952,-0.33427668,0.60191166,-0.6828158,0.18500805,-0.76014435,0.2968999,0.605193,-0.16252804,0.66141415,-0.88567865,0.42307746,-0.06109917,-0.21426785,-0.31287456,0.8229027,-0.010541558,-0.91262436,-0.5353489,0.9544289,-0.8229213,0.86622727,0.710812,0.44862533,-0.12215829,0.87077713,-0.34152114,-0.8615463,-0.6580905,0.96582055,-0.018487096,0.96803963,0.7303679,0.12969637,-0.15877664,0.14647365,0.15172076,0.9481555,0.0032280684,-0.43077064,-0.28170872,-0.64506745,-0.81603503,0.80530035,-0.42324924,0.051146865,-0.7963418,0.5778303,0.84879494,-0.17806232,0.9613595,0.63833594,0.8144386,0.53562486,-0.48718524,-0.51717556,-0.85277975,-0.4193499,0.3327831,-0.9454998,0.1402353,-0.30262733,-0.77323306,0.0556432,0.845863,0.3153578,0.39316595,-0.22879112,-0.14996624,0.96364,0.6872978,0.20661163,0.7982559,-0.7897037,0.9701772,-0.65055966,0.787065,0.23791051,0.40895498,0.7594067,-0.26002073,-0.452896,-0.56093824,0.8418406,0.50594807,0.11106372,0.80475605,-0.14798331,-0.65029573,-0.90941083,0.53009474,-0.42027247,0.8868315,0.80608666,0.9328431,0.59396434,-0.5560262,-0.82201815,0.8899578,-0.1629399,0.9120972,-0.22969794,0.92509294,-0.04090929,-0.656688,-0.32613373,0.271523,0.6714119,0.7904533,-0.71901953,0.89515114,-0.61760306,-0.42815173,-0.1533879,-0.8961667,0.71179914],"bias":0.56351},{"activation":0.8674756,"weights":[0.33460152,0.7093979,-0.33951473,0.94395185,-0.4399053,0.17183578,-0.73938537,0.24545574,-0.6708288,-0.99446654,-0.25155973,-0.7719445,0.28329325,-0.4784602,-0.9312049,-0.3002975,-0.57609355,-0.15040076,-0.18368936,-0.8241029,-0.68647933,-0.15902662,-0.14315176,-0.5379083,-0.7912904,-0.15264082,-0.65426075,0.84031725,0.58059394,0.13927841,0.8568624,-0.6762756,0.70863974,0.1306802,-0.88434243,0.0068463087,-0.9588617,-0.6068826,-0.35376942,0.8130264,0.30093384,-0.9903234,-0.77723587,-0.07026529,0.4832896,0.9030167,0.29635227,-0.4003365,0.20720804,0.61318874,-0.8080958,0.5861187,-0.46687984,-0.87186325,0.7764424,0.17819679,0.9430065,0.47112215,0.17664027,0.28922772,0.961622,0.61276853,0.7406131,0.5648904,-0.65824723,0.1468091,0.24259734,0.52216876,0.59127855,0.16725063,-0.6905639,-0.7989763,0.35952508,-0.23658097,0.5918412,0.5002893,0.7216073,0.35216963,-0.8221785,0.89368033,0.88985455,-0.7986568,-0.91097677,0.4866296,0.33433366,-0.33156943,-0.94448996,-0.2621367,-0.61489975,-0.78944254,-0.6981095,-0.9787773,-0.6341113,-0.88781667,-0.16739106,-0.2548704,0.4185847,-0.2667297,-0.43585408,-0.70940363,-0.8968593,-0.2098943,0.80996346,-0.96680987,0.8189199,-0.35050642,0.18123507,0.87681246,-0.95703673,0.5979409,0.3230704,-0.51286554,0.372306,-0.6756413,-0.39356613,0.8205447,0.11964226,0.22694719,-0.9655595,0.36359072,-0.41352212,0.113551736,0.9211211,-0.1942724,0.579007,0.8511826,-0.20749605,-0.56477964,-0.4203087,0.9345591,0.682135,0.553583,0.93877804,-0.9896759,-0.44520092,0.26302278,0.6483066,0.055972695,0.9486909,-0.76718605,-0.99950325,0.9731251,0.7398306,0.87746465,0.09688902,-0.9984863,0.36668193,-0.40858698,0.43567526,0.834849,-0.0067977905,-0.9917284,0.14283538,0.3281244,-0.18326724,-0.9541813,0.42908335,-0.9506649,-0.4482777,0.1868037,-0.8406373,0.9801763,-0.445428,-0.2009654,-0.71857476,-0.38472927,-0.9433924,-0.6305678,0.5751319,0.39374018,-0.310943,-0.32131624,0.24893475,0.60252666,-0.11011541,-0.59848,0.8698654,0.1415577,-0.09686923,0.6442547,0.8453411,0.9360497,-0.5708629,-0.8185632,-0.98120224,0.46559358,0.68018436,-0.12874353,-0.3655373,-0.8082495,0.3517555,-0.00284338,-0.2092017,-0.87965083,0.5855347,-0.54236746,-0.7858447,-0.3880329,0.61006105,-0.8344573,-0.42919195,-0.7161459,0.07879341,-0.6566379,-0.64124846,0.721169,-0.077371836,-0.8279469,-0.79998124,-0.16383624,0.8570503,0.6086215,-0.04702115,0.004395485,0.6119219,0.1840012,0.45756948,-0.347126,0.68285525,-0.4772079,0.38512552,-0.7451757,-0.3259387,-0.067234755,0.94215906,-0.027692199,0.98318815,0.6420833,-0.42640138,-0.5533314,0.51548254,0.6984416,-0.17764497,0.08733952,-0.5836221,-0.7539327,-0.8887043,0.47731686,-0.7538265,-0.98405373,-0.30682302,0.9272139,0.09904039,-0.03842902,-0.59413695,-0.7203921,0.4823718,0.8759676,-0.9823724,-0.53157806,0.78335226,-0.55463684,-0.13118589,-0.88834846,-0.90023565,0.28549826,0.755571,0.023657441,-0.9353589,-0.45829105,0.13312185,-0.5946455,-0.81014454,0.40556192,0.6308875,-0.050287724,0.604012,-0.8768207,-0.714159,0.65772915,0.62705636,0.7304535,0.31945598,0.48698115,0.5774716,-0.9799429,0.7145767,-0.2680173,0.8296763,-0.4993428,0.98230803,-0.52280915,0.8227192,0.038760424,-0.46408558,-0.59313715,0.2819314,-0.45085967,0.64409304,0.5373347,0.50432813,0.5324129,0.341002,0.47057772,-0.84738874,0.73456013,0.47222972,0.017166018,0.193591,0.2355299,0.8244138,-0.3570161,0.04398012,-0.12476182,0.23000062,-0.9506885,0.8730819,0.23269665,-0.5176654,-0.33715236,0.86123717,-0.95649445,-0.6973655,0.73866224,0.41828632,-0.694077,-0.8580905,-0.21408534,0.47752964,0.8527839,-0.8852701,-0.73832417,0.011788964,-0.6342517,-0.71450174,-0.6888186,0.20563447,-0.8598895,0.4750135,-0.773877,0.06428611,0.8998796,-0.6777657,-0.93692684,-0.6694262,-0.99264467,-0.9165031,-0.65187037,0.46525812,-0.96357584,-0.19888878,0.37585962,-0.76972747,-0.8194313,0.83303213,-0.281664,-0.19660676,-0.9726634,0.63890576,0.43947697,0.5856668,0.40821052,-0.1258198,-0.2845863,-0.48546898,0.6450387,0.5479319,0.71640456,0.2672963,0.36938727,0.23855305,0.27201605,0.768304,-0.6721351,0.6905625,0.79829955,-0.83431196,-0.8078244,0.78292024,-0.7186909,-0.9027424,0.06737542,-0.67938614,-0.39849246,0.70459926,0.9541551,0.34969497,0.37155998,0.5600606,0.03627515,0.84580433,0.6537869,0.54898465,-0.96866274,0.86264896,-0.7042675,-0.8548931,-0.42866242,-0.24089253,-0.14257336,-0.04188919,0.23460484,0.5994861,-0.14095509,0.34474003,0.885661,-0.015652299,-0.3192829,0.5821264,0.22767556,-0.8492323,0.31988406,0.99648786,-0.28194416,-0.87663245,-0.60778713,-0.05950284,0.20956755,0.36551297,-0.6038133,0.90307057,0.29146814,0.48985386,-0.92461216,-0.8761498,-0.9116062,-0.30788863,0.5065427,0.10319054,-0.48173404,0.46413267,0.76369774,0.097085714,-0.42025805,-0.9809438,0.384233,0.12174833,0.00016486645,0.27049947,0.42990458,0.2128768,0.48492336,-0.17743123,0.63105035,0.60277534,0.87184215,-0.8298856,-0.69038105,0.22687304,-0.8401576,-0.6940007,0.73089314,-0.70199835,0.7317306,-0.7465844,-0.021957755,0.6166214,-0.6803142,0.63524866,0.32457292,0.55733883,0.9539275,0.5697824,-0.3291756,0.7292446,0.69175875,0.53892505,-0.23181963,0.7863505,-0.92019224,0.43691123,-0.45710588,-0.26954937,-0.14726782,0.10598886,-0.2534181,0.24014425,-0.5909567,0.58661175,0.65104616,-0.18475115,0.58292246,-0.66112804,0.5807493,-0.33923793,-0.37628567,-0.1799035,0.90327275,-0.29411328,-0.54707766,0.35149562,0.4845029,-0.28315258,-0.42390943,-0.7190738,-0.68394065,0.12451804,-0.6260921,0.58613384,0.03636992,0.7588383,-0.28564537,-0.8345419,0.06219542,-0.2384975,0.2902459,-0.31221604,-0.18102992,-0.7859553,0.53309083,0.37995625,0.65534747,0.34457815,-0.35149562,-0.6503991,-0.69493115,-0.8759124,-0.41315258,-0.8296987,0.53088415,-0.40951622,0.90905786,0.856848,0.3641069,-0.056660414,0.1332022,-0.79520166,0.9413583,-0.43758893,0.4054773,-0.5795773,0.9785236,0.9228102,-0.50206316,-0.07625854,-0.2554115,-0.6206502,0.5556698,0.4765154,-0.91687584,-0.14790678,-0.021796107,-0.94759965,-0.07936883,0.58245337,-0.73162293,0.5770863,-0.5374744,0.2648673,0.9204974,0.87685764,0.51136005,0.5266036,-0.5424583,-0.08578396,-0.12560439,-0.062458277,-0.29899263,0.27644885,-0.4265231,0.10412049,-0.18121147,0.07675564,0.60100746,0.85240483,0.61736417,0.26806915,0.70651865,0.5219543,0.16716778,0.9802084,0.74026275,-0.8864758,-0.5515028,-0.83917654,-0.24965501,-0.78114545,-0.23822391,-0.5442456,0.37355506,0.22129488,-0.3266598,0.80173826,-0.1430533,0.83352244,-0.81382775,0.5166186,-0.5683675,-0.6926949,-0.61157334,0.37573826,-0.72472954,-0.26958764,-0.40885043,-0.3647697,0.4223565,0.93664384,0.6887456,-0.07457852,-0.41209054,-0.7826388,-0.052742243,0.937541,-0.39881372,-0.6198566,0.56459606,0.47606063,-0.9970751,0.9023932,0.61317766,0.034561634,-0.37211645,0.51004684,0.42885005,0.07192695,-0.084569216,0.8982922,-0.90914917,0.28055918,-0.1390289,-0.3173542,0.6567966,-0.810925,-0.18255877,0.57448494,-0.0046020746,-0.75466406,-0.45662296,0.38906562,-0.08523965,0.83613217,-0.588876,0.8979471,-0.4931239,-0.27435124,0.5632726,0.45800138,-0.96746147,0.72309375,-0.8074509,0.8789265,-0.022420883,-0.29339314,0.21441984,0.35278523,0.10197806,-0.024047017,-0.45242357,-0.9858329,0.3911432,0.050717592,0.17096698,0.8981724,0.7251867,-0.47112513,-0.97384286,0.21233821,-0.3590567,-0.7934284,0.060670733,0.50405073,-0.9258317,-0.65349567,-0.61804354,0.09567547,-0.5155226,0.7445171,-0.5214089,0.27725184,0.17604876,-0.040635705,-0.34049642,0.38619888,-0.41400766,-0.7493496,0.3125311,0.8637364,0.1872108,0.3838663,0.117384195,-0.51184726,-0.1683762,0.86422133,0.12622106,0.76621866,0.9033693,-0.30426347,0.0111089945,0.3547666,-0.42214024,0.5879333,-0.71705735,0.2648809,0.2398988,0.052892447,-0.49526882,-0.15052831,-0.9808295,0.62911785,-0.55186474,-0.9278592,-0.5358478,-0.48772347,-0.5976597,-0.21489,0.02019751,-0.415447,0.43676114,-0.14690125,0.04979396,0.05597925,0.36080837,0.7740028,0.73862445,-0.83315396,0.5107316,-0.78982174,0.33270717,-0.45851564,0.6872908,-0.2473818,-0.70636034,0.9365121,0.14854717,-0.55289567,-0.06341314,-0.86909795,-0.6792991,-0.34126592,0.57188654,-0.91071534,0.5030805,-0.07243335,-0.37518358,0.6049861,-0.5463309,0.48005068,-0.6342586,0.96235955,-0.04938662,0.55644906,0.99082804,-0.47308767,-0.0058904886,-0.6645143,-0.13477695,-0.6586689,0.8269881,0.485345,0.048287034,0.3936218,-0.33589542,0.9726021,0.31071413,0.5538503,-0.6884364,0.7219224,0.14333534,-0.60771513,0.7607126,0.64550304,-0.31323993,-0.016284466,-0.705425,0.5691849,-0.72316206,-0.22692454,0.4447174,-0.6809983,0.08819854,-0.3009895,0.59671724,-0.95369077,0.4351889,-0.5661329,0.8932022,0.16803586,0.21140647,-0.94939756,0.40369678,-0.5235387,-0.13221586,-0.56034195,-0.78223,-0.08863592,0.9036268,-0.70567095,0.6485672,0.6776792,-0.34027588,0.30393195,0.63962936,0.03713727,-0.44788027],"bias":0.05430782},{"activation":0.99984825,"weights":[0.10027933,0.7507545,0.050569296,0.52003145,0.18727052,-0.78643477,-0.97940433,0.6624043,0.41996717,0.95215964,-0.048290014,0.00012612343,0.6080756,0.13480425,0.072132826,0.65065956,-0.08685398,-0.2714014,-0.90659,-0.6237601,-0.606621,0.9750445,0.9829906,-0.40932453,0.9900627,-0.6126988,-0.2032994,-0.28916895,0.40835702,0.30188906,-0.8042408,0.20242214,0.51536536,0.11166239,-0.6914456,-0.22773325,0.09789789,-0.42088485,-0.0685904,-0.30665922,0.6862359,0.432392,0.14158225,-0.25254047,0.14225423,-0.16009009,0.19018507,-0.5316341,0.27826965,0.9182302,-0.6843071,0.54751384,-0.07420695,0.2634009,0.8203949,-0.73844564,0.3224312,0.5751791,-0.018993616,-0.3007636,0.9358249,0.78636837,0.29095745,-0.8468605,-0.8063637,0.37263632,0.6432059,0.67453825,0.21984828,0.20747554,-0.837695,-0.24503422,0.057646394,-0.6704571,0.07156491,-0.5566509,-0.94885445,0.22404182,-0.45386052,-0.718225,0.85538125,-0.38059235,0.81387913,0.27658117,-0.29279232,-0.9940691,-0.5999404,-0.7131858,0.38831854,0.14166641,-0.088631034,0.4798771,0.12822342,0.33965957,0.7806357,0.7597629,-0.9754206,-0.29747486,-0.90328753,-0.7019218,-0.36722267,-0.31288576,0.09003246,-0.94357264,-0.045705795,0.18305886,0.4665439,-0.92921376,0.08600783,0.00030374527,-0.08167195,-0.3414595,-0.3766775,0.8516396,0.68342483,0.3959638,-0.57773674,0.41218102,0.42944396,0.6668445,-0.031077266,-0.7742523,-0.23683631,0.043109894,-0.4072671,-0.59307265,-0.9093617,0.22459638,0.043563843,0.659776,-0.49805546,0.87967455,-0.272323,0.6533128,-0.6591928,0.23583364,-0.9212427,0.33973062,0.97123706,-0.19933951,-0.6662916,-0.39632523,-0.60198665,0.4748459,0.25244272,-0.4849409,-0.47704148,-0.8159777,0.20522177,0.23235083,-0.084243774,-0.44651473,0.68477225,0.26019597,0.7722845,-0.38297927,-0.39016557,0.15111578,0.3392514,0.30473542,-0.73038733,0.4304074,0.4670769,0.8706955,0.042321086,-0.6440344,0.22785795,0.4033332,-0.15652347,-0.9577576,0.51536906,0.43673396,0.49259865,-0.7004862,0.5793443,-0.3217913,0.48587036,-0.96585786,0.7273499,0.83084655,0.7233572,0.9731808,-0.66538274,0.019956589,-0.22037196,-0.9914036,0.49818206,0.33097577,0.94704175,-0.16110063,0.14403749,0.94051933,-0.88547087,-0.5375345,-0.4486636,-0.0915606,-0.9287373,0.5830668,-0.08730757,0.18161583,0.36868727,0.07583678,0.8591291,0.09111345,-0.074116945,0.92312217,-0.7648344,0.6028738,-0.07507694,0.49004138,-0.84396243,0.46006656,-0.34172702,0.14016128,0.2648939,0.17147791,-0.6027353,0.8654691,-0.4871726,0.320822,0.70867264,-0.46705687,-0.7357136,-0.15755868,0.021224856,-0.9661511,-0.51305926,0.09300995,-0.44766128,-0.520715,-0.9812112,-0.8398837,0.8891574,-0.12934077,-0.1577462,0.4520353,-0.48650777,0.3051015,-0.2195561,0.37815773,0.87576556,0.8603884,-0.26063132,0.24789226,0.099959016,-0.111518264,-0.15730119,0.32775342,0.91903603,-0.14182913,0.04434192,-0.6135578,-0.73544157,-0.23603714,0.11087954,-0.93422055,-0.2463305,-0.09254503,0.11669922,-0.9959134,-0.24056137,-0.949301,-0.53961504,0.03652346,0.95949054,0.26753032,0.5627217,0.56939745,-0.08136082,-0.029203057,0.96961427,0.5748292,0.78581595,0.65039694,0.9472413,-0.41782916,-0.6867174,-0.0928359,0.35256505,0.45191598,0.9524863,-0.09914827,0.26109207,-0.8141711,0.46271622,-0.06522119,-0.1869216,0.85438097,-0.9728764,-0.5296427,0.8081615,0.05550337,-0.9962293,-0.7766485,0.15951216,0.36355555,0.2591771,0.57013655,0.24258232,-0.23535633,0.26809204,0.071646094,-0.260332,-0.025116444,-0.27154148,0.9065993,0.021351695,0.9531064,-0.32355332,-0.35545695,0.9608921,0.02526033,-0.35523188,0.6519673,-0.054437518,0.14720464,-0.31897902,-0.1859734,0.6157359,-0.08730817,-0.09751499,-0.3667196,0.5504775,0.50347626,0.28812993,-0.7044718,-0.8438022,0.82762325,0.10121322,0.6432091,0.5384507,-0.7016206,0.90438795,-0.64696133,0.17746747,-0.6371167,-0.3188368,-0.44018018,0.53080106,-0.6865382,0.031445622,-0.68837273,-0.20591187,0.99639785,-0.16327989,0.44720995,-0.9142405,0.8946371,0.046817422,0.5737852,0.93186057,-0.9193251,-0.86960423,0.8981844,-0.9636705,-0.8142022,0.14279091,-0.5110121,-0.62128246,0.66940844,0.32480145,0.6911483,-0.88582253,-0.46457744,0.64260685,-0.4900092,0.2644676,-0.4138167,0.9989437,-0.20310307,-0.8583802,0.26330578,-0.3522644,0.14037883,0.45426857,-0.43438292,0.33937097,-0.70102346,-0.05611062,-0.88257,-0.36556923,0.33391762,-0.71979034,0.43094432,-0.19302571,-0.030531645,0.30317628,0.51768196,-0.75686264,-0.9146178,0.3941803,0.1721791,0.49021518,0.29390013,-0.3111459,-0.7270472,-0.8727454,-0.19405127,0.63500416,-0.1646365,0.82198644,0.90734315,0.9338883,0.5546236,-0.10197389,0.40234447,0.9432212,0.8945364,0.5638828,-0.93005157,-0.7742871,-0.39890742,-0.38287175,0.96804667,0.013341665,-0.23720503,0.54343235,0.18068469,-0.35401356,-0.6305653,-0.20188224,-0.9089768,0.7991319,0.32699478,0.2406125,-0.59815156,0.7812557,-0.1588875,-0.7045636,-0.050808787,0.62025535,0.973577,-0.69321465,-0.23472893,0.7306076,-0.8602605,0.7583519,-0.7362615,0.52972174,-0.43147433,0.40708625,0.5355598,0.16634667,-0.7475393,-0.9216969,-0.8297559,0.9884106,-0.52467024,-0.5057442,0.73521554,0.41753924,-0.83169746,0.4964956,-0.07847929,0.4152087,0.14907646,0.93911684,0.9382374,0.5228441,-0.43188393,-0.3579433,-0.2956184,0.7891706,-0.29917896,-0.01619482,0.13017356,0.5823144,-0.5287205,0.931041,0.79855704,-0.7709192,-0.24777591,-0.4194975,0.011214852,-0.17644942,-0.08256316,-0.51785576,0.5059694,0.06775391,0.8531201,0.21603084,-0.65581846,-0.85824144,0.25127184,-0.07676482,-0.85766244,-0.06398296,0.38573503,0.7923639,0.8376993,0.14540172,0.24875104,0.64586306,-0.4118452,-0.25019848,-0.307598,0.7556175,0.19854581,-0.27562797,0.17235231,0.25438857,-0.57054126,0.2346009,-0.03746009,-0.49772918,-0.42949033,0.60275865,-0.36385524,0.7836938,-0.38801372,0.34302366,-0.27720428,-0.72352326,-0.23549283,0.14046252,0.07005322,0.5357541,0.08140516,0.3961426,0.68597746,-0.5614463,-0.14023292,-0.8622445,-0.3508185,0.21542382,0.73067605,0.10554886,0.026410818,-0.2678882,-0.06660128,-0.48092496,0.01728797,-0.8617412,0.47611892,-0.4110993,-0.072729945,-0.56518424,-0.6760415,-0.6739824,0.9305662,-0.25503194,0.25684905,0.714329,0.48184788,0.79678786,-0.6371511,-0.036829114,-0.39764225,-0.09800184,-0.7507409,0.22543466,-0.48194516,-0.48203874,0.7432562,0.43626666,0.35390782,0.23236299,0.8106599,-0.8763927,-0.13096714,0.91460764,-0.63533735,-0.816255,0.67192066,0.39775813,0.37552452,-0.39776468,0.78274024,-0.20101166,0.7540535,-0.13873613,0.5832238,0.0149822235,0.22143292,-0.24299526,-0.03427434,-0.61446226,-0.45262492,-0.97860277,0.19203782,-0.42875206,-0.7233205,-0.1336596,0.87729216,-0.99220955,0.5415784,-0.46643198,0.09776187,-0.16477668,-0.45858574,0.3302325,-0.4538561,0.84599197,-0.3937813,0.3765241,0.8759315,0.43765903,0.93863845,-0.31375134,0.06901002,-0.68663836,0.057281375,-0.68381727,0.9785737,0.95892143,0.46458673,0.42499864,0.77677464,0.094947815,-0.057754636,0.9857073,-0.7711966,0.19740486,0.3882283,-0.42290366,-0.50632775,0.9837651,-0.24284613,0.8745166,-0.44579124,0.7885444,-0.71983063,0.83957386,0.96219134,-0.6902126,-0.9347105,-0.48938775,0.35625458,0.017124057,0.49718404,-0.044347882,-0.41738415,-0.8602482,0.34843743,-0.101832986,0.61098945,-0.99524736,-0.9110203,-0.6198343,-0.24647474,-0.08888376,0.04992485,0.45577335,-0.13783753,-0.3640759,-0.07818735,-0.20503712,0.013103962,0.12758327,-0.042678595,-0.83953524,-0.8863137,0.030623555,-0.97509027,0.92488706,-0.35692084,0.8420795,0.6193663,0.7179072,-0.9731246,-0.73883367,0.3261943,-0.003941536,0.7466568,-0.7462568,0.31388235,-0.9729192,0.2534138,0.75950587,0.8214786,-0.8996682,0.88503706,-0.78850377,-0.19953346,0.3697189,0.5605972,-0.7489754,0.53965247,-0.9538398,0.802137,0.18923497,-0.46671116,-0.5113845,0.52361965,0.7172773,-0.17743158,0.30755854,0.6547779,0.58742845,-0.23839092,0.2433517,0.57682824,0.028212667,0.050072312,-0.82565606,0.51186657,0.014690995,0.36291695,-0.17661297,0.12827158,0.8546814,-0.1589334,0.3913095,0.88305056,0.88173306,-0.0027143955,-0.17716658,-0.431275,0.04436493,-0.9675838,-0.61939085,0.92644787,0.61569893,0.60285497,0.7503258,0.95411277,-0.46419966,0.6584765,0.0799247,0.71232605,-0.31906343,0.34745324,-0.6499257,0.5265597,0.13350964,0.225775,0.23420334,0.2392906,-0.55736756,0.8488724,0.19573414,-0.73260236,0.5867398,0.8498825,-0.9239358,-0.73910844,-0.5366837,-0.27074885,-0.10912359,-0.06698477,0.08792758,-0.06988549,-0.15295994,0.015773416,0.3256253,0.05025482,0.71183205,-0.42747664,0.8521484,0.7049937,-0.37371957,-0.60189426,0.79427576,0.8430829,-0.7001841,-0.8506943,-0.51448405,0.92892194,0.79697776,0.65485525,0.078858495,0.12575173,0.18953383,0.48301148,-0.29221404,0.27964914,0.5862627,0.86869454,-0.07029736,-0.7392777,0.083289504,-0.69460475,0.02391386,0.26970255,-0.003076315,0.2532196,0.24767756,-0.47507596,0.19754612,0.16062129,-0.7128924,0.7244321,0.06363857,0.010806084],"bias":0.44296366},{"activation":0.1453172,"weights":[0.2823025,0.76737356,0.75791204,-0.8435,-0.4104122,0.56857204,-0.03066516,-0.002239585,-0.34124887,-0.498114,-0.35336375,0.66391623,0.80131745,-0.9936726,0.7850797,0.6338558,-0.8286489,0.21285868,-0.077121615,0.49116838,-0.9636929,-0.9118626,-0.75715625,0.9109241,-0.647547,-0.8324996,0.05914271,-0.5297097,-0.570951,-0.513561,0.88337994,-0.84370375,0.5903413,0.13533771,-0.21803153,0.8690027,-0.21384037,-0.063231945,-0.7683377,0.060745597,-0.7250273,0.30681562,0.14306211,-0.30052042,0.33544052,-0.7102262,0.28599596,-0.9458544,0.0097949505,0.40209794,-0.41779518,0.13950884,0.44309676,-0.30798388,-0.3561598,-0.75624335,0.66213167,-0.26069438,-0.21446049,-0.03409362,0.5318999,-0.6438358,0.82390726,-0.35036004,0.52576697,-0.91964984,0.065087795,0.324929,0.8868903,0.5151714,0.46123385,-0.009309769,0.8672242,0.7850164,0.95947397,-0.43132198,-0.03839922,-0.16600382,0.5024773,0.84488165,-0.29220057,-0.5970801,0.20185673,0.64917433,-0.7660202,0.6712862,0.6577213,-0.7193886,0.8824791,0.033123493,-0.8658427,0.016195059,-0.13832903,0.41748774,0.6903838,-0.7471421,-0.31620908,0.94563127,-0.41753924,0.66539526,0.1726799,-0.7207376,-0.701604,-0.8548782,0.19109726,-0.23122,-0.0978713,-0.008032918,-0.6674826,0.10179055,0.23953116,-0.13587976,-0.14716089,0.4013747,0.25287485,-0.8167361,0.8019941,0.43064213,-0.48178852,-0.30447912,-0.92201316,-0.33324504,-0.23795116,-0.22838223,-0.5748576,-0.5331888,-0.7629261,0.30000043,-0.38999057,-0.7812189,0.48905015,0.41522336,-0.20040655,0.8483349,0.20025659,-0.01752317,-0.5782087,0.07627022,0.9066405,-0.61245215,-0.008869648,-0.40466154,-0.9164833,0.30957222,-0.7381519,0.107939124,-0.7000923,-0.44785523,-0.5423136,0.18369043,-0.9537196,0.25082552,0.54308796,-0.18492019,-0.9293618,-0.38590825,0.8432828,0.71242297,0.36984468,0.6142154,-0.07544613,-0.9767809,0.9921433,0.54315937,-0.25408804,-0.72493696,0.5587833,-0.4672085,-0.2247392,0.070652604,-0.8128977,-0.45870876,0.3350761,-0.004419446,-0.8684629,0.76637614,0.009294629,0.26188576,0.6393658,-0.33494294,0.46680045,0.8640467,-0.95625305,-0.8288027,0.8752477,0.96634793,0.55111516,-0.5730736,0.89054716,-0.37719643,-0.38252938,-0.21943188,0.35982978,-0.15442276,-0.031662107,-0.0077922344,0.2593249,-0.54956806,-0.16156316,-0.70907164,-0.7677231,0.6775148,0.9503168,-0.0837996,-0.071116924,-0.043790936,-0.013733029,-0.5949522,-0.9828136,0.26912868,-0.107032895,-0.65532064,0.74446535,-0.28140497,0.047423244,-0.8885138,-0.22322273,-0.14896119,-0.37380219,-0.73388743,-0.07546306,0.8869095,-0.36032104,-0.7490053,-0.9032477,-0.8070599,0.58190346,0.9605584,-0.14881134,0.42012286,0.4347012,-0.70023537,0.20012891,0.21857095,-0.43935406,-0.31477845,0.8733536,-0.367015,0.9695654,-0.74345875,-0.31843114,0.09408367,-0.37717414,-0.7003814,-0.7804887,-0.09127498,0.6583457,0.9609076,0.79942954,-0.1947447,0.67963386,-0.6433705,-0.63853014,0.9550431,-0.50819826,-0.91898596,-0.3685887,0.084997416,-0.92137825,0.059310675,0.23732221,0.86706245,-0.61180913,0.23561645,0.66346717,-0.75847423,-0.18547094,-0.5735829,-0.50335455,0.38192725,0.7060312,0.06471276,-0.913646,-0.7810966,0.22843587,0.9594356,0.16714191,-0.9621848,0.51541936,0.76674914,-0.1432097,-0.71004546,-0.59162927,-0.72427416,-0.7932428,-0.87383974,0.86958313,-0.16312313,-0.8305886,-0.6215682,0.11380255,0.029726624,-0.3888557,-0.9342499,-0.95595133,0.6316103,-0.93006134,-0.17271495,-0.44292796,-0.6765405,-0.2702092,0.30453908,-0.96187973,0.9428829,0.4926988,-0.77385545,0.5605813,-0.89149,-0.14444196,0.9638865,-0.69279146,-0.8945215,0.79014754,-0.14846325,-0.6150024,-0.56991124,-0.76111734,0.44042563,0.48893595,0.90220857,0.9854032,0.8457563,0.71524346,0.6570829,0.9929702,-0.7927495,-0.8984002,0.21394026,-0.16094887,0.33061373,0.48715448,-0.29465914,0.5910469,0.019144773,0.96319914,-0.12709236,0.77833855,0.08052194,0.054662228,0.41739345,-0.91501117,0.3694806,-0.82645214,-0.63834226,0.0838536,0.7070252,0.09058535,-0.0000044107437,-0.03834033,0.32669663,0.16646826,-0.07485938,0.034536004,0.92744756,-0.95873415,-0.47497702,-0.74667823,0.5112319,0.82374215,0.1516639,-0.55758774,0.07411957,0.34096813,0.08502972,0.3116107,0.8605319,0.9864249,0.111598015,-0.25488293,0.8118217,0.8302951,-0.37124217,0.0581882,-0.19259202,0.034321785,-0.33230603,0.98773754,-0.21055043,0.4029119,-0.19365227,-0.5275222,0.23438275,0.82454336,0.092140436,0.21360672,0.9796654,0.18182862,-0.13489997,-0.8847617,0.64788425,0.21832395,-0.00789535,0.09717083,-0.24353063,-0.72408843,0.8986652,-0.17056811,0.9633882,-0.33936,-0.7331886,0.54720163,-0.14538765,0.6472405,-0.30399072,0.10545409,-0.30018473,-0.9642494,-0.22522867,-0.74797666,0.2898382,-0.64782,-0.078626394,0.89225876,-0.285962,0.3730346,0.07322264,0.5796219,-0.8217635,0.08729899,-0.60391176,-0.17860544,-0.16319954,-0.3384483,-0.79721296,-0.77394843,0.19860482,0.6354418,-0.67986095,0.8992932,-0.08066416,0.40569127,0.91963696,0.64745545,-0.39194262,-0.81978893,0.37531364,0.8007436,-0.81206703,0.2271105,-0.98537314,0.2576424,-0.68877316,0.5075815,0.75917673,0.27388358,-0.43858063,-0.40760708,-0.028238654,0.5607879,0.1555053,-0.71008146,-0.5512489,-0.54751134,0.5511217,-0.008368254,0.5608449,0.41150594,-0.78469443,0.9505657,0.95588064,-0.21576786,-0.70901644,0.9593011,-0.3877058,0.96517384,0.33568335,-0.6650939,0.07016027,-0.24708045,-0.8566762,0.611871,-0.43656993,0.110557914,-0.4233986,0.64278865,0.1437434,-0.30345464,-0.25119042,-0.7256448,0.7690958,0.047522068,0.65831447,0.407799,-0.099748015,0.20553148,-0.7729285,0.9915955,-0.91039157,-0.36490643,-0.471766,0.354455,0.9784745,0.4022143,0.77876294,0.71419907,0.82772946,0.5288811,-0.8297057,-0.5735434,0.63654983,0.7649182,-0.74235547,0.1608814,0.6033008,-0.6944355,0.9983865,0.057139516,-0.09531593,-0.38641953,0.9526073,0.022184372,0.8452009,-0.1421014,0.27655578,-0.56902194,0.68271565,-0.79674304,-0.9520204,0.96339285,0.80243075,0.98520434,0.019889712,-0.07547557,0.1815573,0.6553402,-0.6097946,0.45226932,-0.7157583,-0.40631723,-0.74436975,0.82215667,-0.6941122,-0.8737892,0.4532796,-0.32105482,0.059629083,0.4328102,0.65045464,-0.35480952,-0.18557763,0.17331207,0.29510927,0.6808264,-0.03653586,0.16432524,0.99472475,-0.6442102,0.3049158,0.711928,0.46948993,0.60066974,-0.87564504,0.2535485,-0.4678663,0.4431827,-0.64333916,0.030329704,-0.7248907,-0.6814995,-0.25591254,0.8661765,-0.13341641,0.31272054,-0.97356534,0.82038474,0.31424677,0.747054,-0.7072437,-0.26759613,0.09126878,0.5583482,-0.7565707,-0.28069985,0.6458026,0.8995081,0.99808645,-0.49820864,0.010490894,0.69871056,0.25203276,-0.33313346,0.9128275,-0.6443254,-0.80811894,-0.5363412,0.936005,-0.41212928,0.2165128,0.040373325,-0.75842214,-0.5603672,0.28197718,0.40666234,-0.7264539,0.4388907,-0.084934115,0.17035007,-0.3846872,0.70947504,-0.7635832,-0.46852374,-0.45416892,-0.25965226,0.95235205,-0.33799708,-0.8638253,0.376045,0.09871209,-0.9546119,0.96548796,0.7366122,0.35550284,-0.34390414,-0.19799304,-0.34192097,0.7751237,-0.8717712,0.7310233,0.74219155,-0.29847133,-0.4279492,-0.2782519,-0.8185406,0.44868696,-0.063780785,0.30826056,0.97690296,0.012494564,0.80909145,0.5679854,0.079692125,0.82261884,-0.33787143,0.4490056,-0.91892624,-0.14762545,0.67545223,0.64544606,0.40726328,-0.17675257,-0.38599777,0.5736344,-0.54017067,0.7954757,-0.5982826,0.677524,0.2734728,0.22658849,0.8336494,0.84846234,0.7340504,0.20811784,-0.3274454,0.54817,-0.0853287,-0.032224655,-0.51678526,-0.062306643,-0.07596457,-0.1626966,-0.76135886,-0.30464673,0.027453423,-0.5471916,-0.1321497,-0.57078564,0.28834522,-0.1033864,0.25362968,-0.20476079,0.4087683,0.37784672,-0.49474835,-0.27102768,0.76415,-0.518396,0.11656499,0.56760216,0.022297263,-0.52821505,0.10891116,0.6009886,0.577767,0.9520439,0.73317313,0.9043958,-0.36895645,0.46309114,-0.45488203,0.4787122,0.665848,-0.28018093,0.1537646,0.8886279,0.0042761564,0.6683469,0.42488432,-0.2032131,0.846432,-0.47941303,-0.3262925,0.09880602,0.87676764,-0.23013496,0.19590151,0.8192644,-0.66922545,0.88165283,-0.35070956,0.41296232,0.51778805,0.9521946,