{"learning_rate":0.1,"input_layer":{"activations":[0.0,0.0,0.0,0.0,0.0,0.0,0.0,0.0,0.0,0.0,0.0,0.0,0.0,0.0,0.0,0.0,0.0,0.0,0.0,0.0,0.0,0.0,0.0,0.0,0.0,0.0,0.0,0.0,0.0,0.0,0.0,0.0,0.0,0.0,0.0,0.0,0.0,0.0,0.0,0.0,0.0,0.0,0.0,0.0,0.0,0.0,0.0,0.0,0.0,0.0,0.0,0.0,0.0,0.0,0.0,0.0,0.0,0.0,0.0,0.0,0.0,0.0,0.0,0.0,0.0,0.0,0.0,0.0,0.0,0.0,0.0,0.0,0.0,0.0,0.0,0.0,0.0,0.0,0.0,0.0,0.0,0.0,0.0,0.0,0.0,0.0,0.0,0.0,0.0,0.0,0.0,0.0,0.0,0.0,0.0,0.0,0.0,0.0,0.0,0.0,0.0,0.0,0.0,0.0,0.0,0.0,0.0,0.0,0.0,0.0,0.0,0.0,0.0,0.0,0.0,0.0,0.0,0.0,0.0,0.0,0.0,0.0,0.0,0.0,0.0,0.0,0.0,0.0,0.0,0.0,0.0,0.0,0.0,0.0,0.0,0.0,0.0,0.0,0.0,0.0,0.0,0.0,0.0,0.0,0.0,0.0,0.0,0.0,0.0,0.0,0.0,0.40234375,0.7890625,0.9921875,0.87109375,0.109375,0.0,0.0,0.36328125,0.1953125,0.0,0.0,0.0,0.0,0.0,0.0,0.0,0.0,0.0,0.0,0.0,0.0,0.0,0.0,0.0,0.0,0.0,0.14453125,0.83984375,0.98046875,0.98828125,0.98828125,0.98828125,0.671875,0.0,0.15234375,0.9375,0.4765625,0.0,0.0,0.0,0.0,0.0,0.0,0.0,0.0,0.0,0.0,0.0,0.0,0.0,0.0,0.0,0.0,0.05078125,0.74609375,0.98828125,0.87890625,0.46875,0.21875,0.98828125,0.68359375,0.0,0.2421875,0.98828125,0.359375,0.0,0.0,0.0,0.0,0.0,0.0,0.0,0.0,0.0,0.0,0.0,0.0,0.0,0.0,0.0,0.0,0.51171875,0.98828125,0.67578125,0.0546875,0.0,0.03515625,0.98828125,0.68359375,0.0,0.359375,0.98828125,0.16796875,0.0,0.0,0.0,0.0,0.0,0.0,0.0,0.0,0.0,0.0,0.0,0.0,0.0,0.0,0.0,0.0,0.546875,0.98828125,0.21484375,0.0,0.0,0.09375,0.98828125,0.68359375,0.05078125,0.72265625,0.953125,0.11328125,0.0,0.0,0.0,0.0,0.0,0.0,0.0,0.0,0.0,0.0,0.0,0.0,0.0,0.0,0.0,0.0,0.546875,0.98828125,0.3359375,0.0,0.0,0.37890625,0.94140625,0.23828125,0.32421875,0.98828125,0.78125,0.0,0.0,0.0,0.0,0.0,0.0,0.0,0.0,0.0,0.0,0.0,0.0,0.0,0.0,0.0,0.0,0.0,0.51171875,0.98828125,0.890625,0.6328125,0.1796875,0.37890625,0.609375,0.140625,0.90234375,0.98828125,0.4765625,0.0,0.0,0.0,0.0,0.0,0.0,0.0,0.0,0.0,0.0,0.0,0.0,0.0,0.0,0.0,0.0,0.0,0.05078125,0.70703125,0.9765625,0.98828125,0.97265625,0.81640625,0.14453125,0.4765625,0.98828125,0.6640625,0.02734375,0.0,0.0,0.0,0.0,0.0,0.0,0.0,0.0,0.0,0.0,0.0,0.0,0.0,0.0,0.0,0.0,0.0,0.0,0.0,0.390625,0.76953125,0.98828125,0.98828125,0.98828125,0.9921875,0.8828125,0.13671875,0.0,0.0,0.0,0.0,0.0,0.0,0.0,0.0,0.0,0.0,0.0,0.0,0.0,0.0,0.0,0.0,0.0,0.0,0.0,0.0,0.0,0.03515625,0.5625,0.89453125,0.98828125,0.9921875,0.71484375,0.0,0.0,0.0,0.0,0.0,0.0,0.0,0.0,0.0,0.0,0.0,0.0,0.0,0.0,0.0,0.0,0.0,0.0,0.0,0.0,0.0,0.0,0.0,0.0,0.6015625,0.9921875,0.99609375,0.9921875,0.6328125,0.0,0.0,0.0,0.0,0.0,0.0,0.0,0.0,0.0,0.0,0.0,0.0,0.0,0.0,0.0,0.0,0.0,0.0,0.0,0.0,0.0,0.0,0.2578125,0.88671875,0.98828125,0.703125,0.77734375,0.98046875,0.51953125,0.0,0.0,0.0,0.0,0.0,0.0,0.0,0.0,0.0,0.0,0.0,0.0,0.0,0.0,0.0,0.0,0.0,0.0,0.0,0.0,0.0,0.4140625,0.98828125,0.66796875,0.0234375,0.01953125,0.3515625,0.8671875,0.64453125,0.0,0.0,0.0,0.0,0.0,0.0,0.0,0.0,0.0,0.0,0.0,0.0,0.0,0.0,0.0,0.0,0.0,0.0,0.0,0.0,0.71484375,0.98046875,0.27734375,0.0,0.0,0.0,0.48046875,0.96875,0.22265625,0.0,0.0,0.0,0.0,0.0,0.0,0.0,0.0,0.0,0.0,0.0,0.0,0.0,0.0,0.0,0.0,0.0,0.0,0.08984375,0.95703125,0.65625,0.0,0.0,0.0,0.0,0.1015625,0.859375,0.8046875,0.0,0.0,0.0,0.0,0.0,0.0,0.0,0.0,0.0,0.0,0.0,0.0,0.0,0.0,0.0,0.0,0.0,0.0,0.10546875,0.98828125,0.77734375,0.0,0.0,0.0,0.0,0.0,0.46875,0.96484375,0.2890625,0.0,0.0,0.0,0.0,0.0,0.0,0.0,0.0,0.0,0.0,0.0,0.0,0.0,0.0,0.0,0.0,0.0,0.05859375,0.8828125,0.96875,0.2109375,0.0,0.0,0.0,0.0,0.36328125,0.98828125,0.203125,0.0,0.0,0.0,0.0,0.0,0.0,0.0,0.0,0.0,0.0,0.0,0.0,0.0,0.0,0.0,0.0,0.0,0.0,0.609375,0.98828125,0.98828125,0.52734375,0.29296875,0.4140625,0.484375,0.95703125,0.8828125,0.05078125,0.0,0.0,0.0,0.0,0.0,0.0,0.0,0.0,0.0,0.0,0.0,0.0,0.0,0.0,0.0,0.0,0.0,0.0,0.28125,0.96484375,0.98828125,0.9921875,0.98828125,0.98828125,0.98828125,0.98828125,0.70703125,0.0,0.0,0.0,0.0,0.0,0.0,0.0,0.0,0.0,0.0,0.0,0.0,0.0,0.0,0.0,0.0,0.0,0.0,0.0,0.0,0.25,0.76171875,0.9921875,0.98828125,0.98828125,0.91796875,0.47265625,0.0546875,0.0,0.0,0.0,0.0,0.0,0.0,0.0,0.0,0.0,0.0,0.0,0.0,0.0,0.0,0.0,0.0,0.0,0.0,0.0,0.0,0.0,0.0,0.0,0.0,0.0,0.0,0.0,0.0,0.0,0.0,0.0,0.0,0.0,0.0,0.0,0.0,0.0,0.0,0.0,0.0,0.0,0.0,0.0,0.0,0.0,0.0,0.0,0.0,0.0,0.0,0.0,0.0,0.0,0.0,0.0,0.0,0.0,0.0,0.0,0.0,0.0,0.0,0.0,0.0,0.0,0.0,0.0,0.0,0.0,0.0,0.0,0.0,0.0,0.0,0.0,0.0,0.0,0.0,0.0,0.0,0.0,0.0,0.0,0.0,0.0,0.0,0.0,0.0,0.0,0.0,0.0]},"activation_layers":[{"neurons":[{"activation":0.012817425,"weights":[0.6497774,-0.7592633,0.18909204,0.1369369,-0.6286193,-0.5115957,-0.7630329,0.7849934,0.47084153,-0.63085437,0.8425708,-0.1278646,0.22802222,0.2219038,0.9749552,-0.9589062,0.26075935,0.061017394,0.29006338,0.31228817,-0.32114923,-0.7445787,0.7078533,0.29342282,0.86932147,-0.6701952,0.29366446,-0.95414317,-0.5625973,-0.107699275,-0.76642334,-0.5834681,-0.06273222,-0.86283743,0.8233491,0.24791598,-0.91751564,0.92879677,-0.50392115,-0.56859756,0.45513523,0.60981953,-0.11220944,-0.7014717,0.42950916,-0.25089896,0.08208549,0.7609861,0.8030102,0.9187927,0.1999129,-0.9787686,0.00016927719,-0.34484792,0.67758965,-0.28063095,0.9920738,-0.2582661,0.68382585,-0.29933202,-0.43124342,0.19948137,-0.2421894,-0.8668678,-0.4209417,0.047934055,0.85776913,-0.1863594,0.2896402,-0.14102983,0.51970136,0.8303678,0.24111903,-0.12436819,0.04289186,-0.43811345,0.082687736,-0.18109286,-0.9432107,0.8465078,-0.40391994,0.4214748,-0.07322574,-0.8905158,0.886943,-0.4291799,0.35378313,-0.49180794,0.8420558,-0.45380127,-0.47215176,0.5747901,0.7892355,0.096048236,-0.11199641,0.82122564,-0.55274665,0.4792478,0.048958898,-0.53287566,-0.28630328,0.5827681,-0.94633234,0.15231597,0.417462,-0.68663883,-0.4933641,-0.91644585,-0.701689,0.1921587,-0.77577317,0.30319607,-0.8527634,0.8310472,0.5997486,-0.037139773,-0.06775892,0.15317976,0.56191266,-0.97914195,-0.061662674,0.7695285,-0.11546743,-0.34971368,0.35712612,-0.9525244,0.6138127,-0.8657712,-0.9717716,0.67146444,0.44904327,-0.46121716,0.62007344,-0.06420064,0.26199603,0.07202113,0.4041977,0.22065246,-0.6275691,-0.604669,-0.013722062,0.06330764,0.1449871,-0.35237873,0.017403483,0.5009781,0.23033786,-0.13527429,-0.43939245,-0.5847025,0.9531522,0.0888654,0.73235476,0.66636395,0.72693586,-0.5328293,0.19481945,0.52181506,-0.89321697,-0.54654,0.013072729,-0.26854658,0.81099105,0.2220037,-0.52198625,0.5468496,-0.96046877,0.7516948,0.59546924,0.7436552,0.854035,-0.2245686,0.36691868,-0.7186878,0.3742901,-0.6757549,0.825889,0.0052222013,0.07255387,0.4792645,-0.5042124,-0.034467936,0.36599922,0.34145916,0.8592998,-0.8709905,0.91440713,0.4263636,-0.56854427,-0.8263992,0.57921565,-0.82874155,-0.769261,0.30115223,0.6268463,-0.747319,-0.7421676,0.056061387,0.85342956,0.7787255,-0.33886802,-0.41716003,0.3517722,0.83806264,-0.8262744,-0.1766814,-0.53761697,-0.79111814,-0.88700426,0.03108573,-0.032840848,0.7548895,0.40070128,-0.2497487,-0.36068857,0.34324443,-0.5741936,0.03172207,0.069179535,0.48296916,-0.6059958,-0.22237885,-0.85003304,-0.24913263,0.086508274,-0.9460925,-0.8008007,0.35747755,0.4311918,-0.043736815,0.9686693,0.41117752,-0.69854105,-0.16015613,-0.44405282,0.9438845,-0.8334509,0.0006377697,0.024187565,-0.1572305,0.9125477,-0.3740201,-0.9026172,0.6256019,-0.39344537,0.1297419,-0.7608563,0.05667138,0.30318213,0.030134559,0.7231766,0.91580236,-0.16047215,-0.47790885,0.22121441,-0.828779,0.47482586,-0.48168766,-0.6140944,-0.9258778,0.056527257,-0.556103,-0.16104674,-0.029995441,-0.23063648,-0.080374956,-0.25156438,-0.82318294,-0.7985827,-0.056667566,0.7195854,0.20149696,-0.5027064,0.95534873,0.04224503,-0.2827338,-0.11856437,0.494285,-0.105389476,-0.1921066,-0.98294103,-0.79117286,0.6356915,-0.13254261,-0.03319466,-0.8545371,-0.97789085,-0.64205563,-0.19852662,-0.72380984,-0.11579585,-0.15623319,-0.3914554,-0.6926638,-0.399652,0.91444886,0.2564528,-0.71580637,0.60311615,0.21058464,0.4697833,-0.736375,-0.19547904,-0.29758263,-0.5327774,-0.6753553,-0.7608992,0.03265536,-0.3182323,0.48808086,-0.18587661,-0.6977068,0.068766,0.31288326,0.22567022,0.1319654,-0.8087841,-0.62579215,-0.57306314,-0.388973,-0.3695084,0.33928692,0.24216425,-0.017669916,0.72288847,0.41602302,0.7878051,0.28254914,-0.26522577,-0.047304153,-0.4808588,0.6159439,0.31836033,0.56726027,0.59351254,-0.3775562,-0.16632545,0.48347092,0.12781155,0.5394826,-0.45021236,0.43996406,0.34173524,0.32065332,-0.37455153,0.8333436,-0.5123447,0.13168359,-0.8597487,-0.37798226,-0.9543592,0.9364115,-0.44778967,-0.5423857,-0.45353162,0.83459187,0.060189605,0.83533967,-0.7139653,-0.27502155,-0.54027593,-0.0039749146,-0.48980367,0.36974823,-0.98229444,0.24775636,0.76373637,0.32331157,-0.39666283,0.2633859,-0.6530684,0.8046217,-0.7923788,0.47192895,-0.0192734,0.004982829,-0.07299912,-0.15348351,0.17669272,-0.022575974,-0.43043423,-0.018646002,-0.08014238,-0.93893373,0.99589777,0.78521574,0.299837,0.86034393,0.96630156,0.08980274,-0.5705197,-0.4557867,0.6727582,0.92560995,0.84865415,0.5010396,0.2657938,-0.31299603,0.62518287,0.8822342,-0.9126897,-0.8371768,0.8602896,-0.8175533,0.4833094,0.51059854,0.22558367,-0.91661406,-0.5177252,0.60664356,-0.96103764,0.3520285,0.4425038,0.21360958,0.25440264,0.60259926,0.07355666,-0.09794617,-0.83267367,0.7352686,-0.49650276,0.6632798,0.12593031,0.17699325,0.8486186,-0.5765836,0.3800887,-0.9948994,0.72008944,-0.15982223,-0.99392605,0.7672901,0.4195596,-0.10820079,-0.20731807,0.3667202,0.602267,-0.77103066,0.3592255,0.5213883,0.22479951,-0.6226275,0.006866932,-0.84347093,0.34453762,-0.7266314,-0.63605046,-0.5731385,0.82509875,-0.8651818,0.048187256,0.014267921,0.5933908,-0.25798666,-0.8571131,-0.7259457,-0.00116539,-0.7554922,0.44178164,0.29622066,-0.5256698,0.839712,0.92740965,0.1684308,-0.9031173,0.75381994,0.3678751,0.97298944,0.3767333,0.9513557,-0.8568859,-0.45990133,-0.4109583,0.4912778,0.7846447,0.39517128,0.92546844,-0.96330833,0.15856063,-0.60786986,-0.91808474,0.875728,-0.12161958,0.7365966,0.7785803,0.8311962,0.87779975,0.035769105,-0.3853948,0.2901764,-0.45955837,0.5868393,-0.9267005,-0.0810796,-0.047303915,-0.49833405,0.76581466,0.09995985,0.2249397,-0.41714847,-0.6989492,0.4217515,-0.27347553,-0.774863,-0.58735275,-0.55564296,0.95475805,-0.81532526,-0.6102905,-0.039908886,-0.6665021,-0.25882065,-0.9385598,0.2339884,0.72322583,-0.7931317,-0.65267944,0.13829422,0.30578113,-0.7036617,0.1314714,-0.71327996,0.6612514,-0.30232012,0.22934473,0.65322924,0.25610363,-0.72699475,0.4805081,-0.3549136,0.45741045,-0.08902323,-0.5063151,0.9916122,0.28129613,0.0835644,0.2659415,0.22342467,-0.88777137,0.6184974,0.4882245,-0.9311327,0.6031734,-0.80626416,0.9856156,-0.66122603,-0.7323768,0.74482596,0.15242827,-0.6164508,0.5418116,-0.7366917,0.42902792,0.5809561,0.47984815,-0.35877025,-0.86940455,0.6713145,0.3274076,-0.6796328,0.46363056,0.38477945,0.74817026,-0.535913,0.6440512,-0.31229174,0.9144707,-0.7953633,0.16876996,-0.81327903,-0.56288326,-0.62833333,-0.54414177,-0.1858164,-0.3486501,0.74937356,0.7958518,-0.7785566,0.5470915,0.6593574,-0.76967,-0.36577308,-0.9878689,-0.0957551,-0.5105357,-0.3003006,0.15746176,-0.41504502,-0.60108507,0.0064417124,-0.7659812,0.5922959,0.22241306,0.80547106,-0.99520457,-0.2528435,-0.16941631,0.97523236,-0.8553109,-0.7441728,0.57817006,0.12613368,0.08723736,0.9675629,-0.62253606,0.2648455,0.4470154,0.34077442,0.08659911,0.45931756,-0.44130957,0.3194219,0.6027367,-0.67649007,-0.40730453,-0.5958022,-0.79528713,0.5358026,0.032958746,0.75847805,-0.23418224,-0.041152716,-0.89868593,0.19071043,0.53244185,0.098814964,0.80061185,0.3261304,0.8062477,-0.8788824,0.13391459,0.5326972,-0.015760064,-0.27324665,0.2936406,-0.91811335,-0.763227,0.24228215,-0.77986693,0.0077416897,-0.5169389,-0.026733398,-0.28825438,-0.22529054,0.64674985,0.8923392,-0.2586019,-0.9217169,0.63597345,0.8448831,-0.429667,-0.9387821,0.58336663,0.658201,-0.054819465,-0.06978989,-0.59152067,0.27182984,0.26935852,0.5507506,-0.73454297,-0.16765618,0.7679187,-0.15697753,-0.9716228,-0.9674922,-0.008293986,-0.075793624,-0.59637356,0.84906745,0.9765426,0.62445104,-0.45220625,-0.35991168,-0.030453682,-0.17246711,0.75037324,-0.8461499,-0.46415448,0.53051686,-0.28621674,0.24536991,-0.07062316,-0.14375043,0.26365685,-0.5293013,0.33905196,0.11698532,0.4866414,-0.9331142,0.20297945,0.84390473,0.5532044,0.6192602,-0.66221213,0.55992675,0.79618967,-0.25564384,0.013421178,0.0686847,-0.05425763,0.79364836,-0.102354646,0.4038973,-0.52162814,0.50995445,-0.5894848,0.7160158,0.43114996,0.18301046,0.9114982,0.26470792,0.6625414,-0.83633375,-0.96408796,-0.37524867,-0.06362605,-0.10631168,-0.043880224,0.31066346,0.08266187,0.5755136,0.49663806,0.38148975,0.84441864,-0.76266074,-0.27466953,-0.025201559,0.3934394,-0.5161905,-0.24339414,-0.8017386,0.10163176,-0.06087935,0.72219014,-0.972087,0.10439873,-0.21694994,0.5831424,-0.2748636,0.34758198,0.6134466,0.18248987,-0.22117639,0.73991287,0.9182328,-0.40619183,-0.90638137,-0.032921672,-0.7309563,-0.4826399,0.25337672,0.13885212,0.7732061,0.031558752,-0.34089613,-0.85438657,-0.072057486,-0.8914151,-0.12670517,0.28466082,0.87262607,-0.8726293,-0.7897818,0.4723543,0.0067720413,0.86124957,-0.5693834,-0.19237542,-0.26358438,0.75632036,-0.85619354,-0.7290983,0.16644704,0.79867876,0.17932296,-0.5513321,0.5310378,-0.4229523,-0.763275,-0.5755024,0.90468407,0.32156873,0.43928516],"bias":0.67052966},{"activation":0.64943707,"weights":[0.8783617,-0.60854924,0.06135118,-0.2296201,0.5584023,-0.50572217,0.6801946,0.44503188,-0.5858898,-0.51998246,-0.24647832,0.95542717,-0.19999278,0.1612041,0.2899282,0.63976,0.78263366,0.34311712,0.3155433,-0.07273626,0.23919392,0.58153355,-0.3762548,0.9583589,-0.5252092,-0.095172524,-0.7154927,0.9913229,0.8461653,-0.60988617,-0.12977624,-0.18112707,0.75352895,0.63326323,-0.6168672,0.3047619,-0.033179402,-0.9612113,-0.3932835,-0.6907898,-0.4322244,-0.5217912,0.29870105,0.101350665,0.42050147,-0.88291764,0.31067574,-0.89084613,-0.16705906,-0.2047044,-0.20589113,0.73955727,0.61535776,0.15247524,-0.23115218,-0.80916417,0.91437554,-0.06754947,-0.4714005,-0.7612159,0.20838535,0.37925518,0.52326715,0.7168195,-0.3985914,0.7563745,-0.46872663,-0.5972364,0.762033,0.76568174,-0.70873237,-0.9182552,0.92573106,-0.657315,-0.19270873,0.23287833,0.8612286,-0.10141206,-0.71344423,0.6648414,0.17467487,-0.10176158,0.11666846,-0.46290755,0.85788095,0.77222204,0.90008307,0.11492145,-0.5874095,-0.35358977,-0.80430686,-0.78971374,0.06461799,0.005759239,0.14703584,-0.3857032,-0.45412183,-0.28717852,-0.7465329,-0.22803617,-0.5854051,0.55759084,-0.9456992,-0.81239283,0.86302245,0.34922993,0.3782276,-0.3090273,0.20172358,0.4584602,-0.93302095,-0.97152233,0.59830284,-0.7176901,0.040446162,0.19430792,0.15007806,0.43346953,-0.8284615,0.1216408,-0.40343797,-0.3536451,-0.47493804,-0.90991914,0.72322345,0.7792418,0.4336543,0.1435256,-0.6138307,0.5483408,-0.1082021,0.6137682,-0.5407857,-0.5508295,0.75614905,0.75647795,0.04645443,-0.9683552,0.91763365,-0.90406346,0.9091953,-0.011951089,0.384722,-0.38312626,0.8486868,-0.62329173,0.6735866,0.9169525,0.34768724,-0.6968044,0.7935153,-0.5627705,0.64052963,0.34920108,0.94036055,0.11305046,-0.16544974,0.7132124,-0.0013586283,-0.43432534,0.354833,-0.97488785,0.1557436,0.4836862,0.985487,-0.6770514,-0.24706233,0.2363143,-0.6858835,-0.10787213,-0.38655972,-0.6520146,0.17540061,-0.15159905,0.8605187,-0.10026693,0.5150267,-0.16778696,0.3635404,-0.1889987,-0.80792415,-0.9379301,-0.9094254,-0.9413738,-0.82029724,-0.37454188,0.39048994,0.96949434,-0.14959526,0.40741837,0.45207834,0.9693657,-0.6266843,0.9056711,-0.30794156,-0.69546986,-0.90738726,0.8576175,-0.109603524,0.17907977,-0.10836303,-0.025942087,0.03766477,0.41296792,-0.11209178,0.2953142,-0.17877007,0.4157405,0.5103183,-0.9200958,-0.21578288,0.39132118,-0.7031814,0.2805915,-0.63275146,-0.07718825,-0.5881616,0.6331607,0.75163484,0.59013474,0.14546955,0.08778179,-0.22161794,0.2980001,0.8374096,0.35383904,-0.7629906,-0.96360993,-0.25707424,-0.67994285,-0.065432906,0.67716897,-0.678254,-0.086116076,0.34895444,-0.4982072,0.21164441,0.30597293,-0.27571523,0.085017204,-0.890345,0.799597,0.24374723,-0.18862438,-0.40736973,-0.59400654,0.11398709,-0.6477063,0.85171056,-0.48965335,-0.69074905,0.20955122,-0.1267271,-0.5982027,-0.23650801,-0.07869077,0.70725787,-0.9387101,-0.7877133,-0.5675559,0.013260722,0.25063276,0.4810847,-0.55625737,-0.74563634,0.8684969,-0.7506125,0.2804401,0.41720223,0.15573835,0.3568244,-0.7005211,0.43530834,0.28388584,-0.42305827,0.33735073,0.26265442,0.72619605,0.46535325,0.1900475,0.42590785,-0.6819918,-0.7737477,0.6678115,0.82587636,-0.40730655,-0.6243938,-0.988454,0.7362927,0.5095315,0.498204,0.39884937,-0.5857632,0.1919086,0.17418206,0.46579862,0.12973905,-0.2512735,0.827994,0.27082765,-0.24465811,-0.8710754,0.5871923,0.16047919,0.5084758,-0.017098904,0.90761817,-0.03611195,0.57997096,-0.4329263,0.47477674,-0.03749442,0.35350502,0.27711034,-0.77772856,-0.34829485,0.90379333,0.8180505,-0.5502559,0.8655176,0.6678628,-0.7352747,0.13162112,0.23201,0.21045887,-0.01190424,0.37783706,0.63347054,-0.6065246,0.60418403,0.5600116,-0.14086616,0.20740592,0.23492992,0.47501135,0.30254722,-0.7395607,0.16758001,0.19971871,-0.33572233,0.3790053,0.6389667,-0.9947734,0.87120044,0.5560217,-0.027228713,0.8724332,-0.6321446,-0.6545366,0.093998075,0.122978926,-0.2127248,0.9939724,-0.91432214,-0.43401587,-0.6896535,0.41131198,-0.33837318,0.64352524,0.553604,-0.70970607,-0.021440864,0.7065015,-0.63165677,-0.64572644,-0.92779243,0.8287841,-0.71149457,0.83828723,0.19563305,0.10860288,0.22511351,0.08681822,0.183527,-0.45681834,0.821156,-0.7677914,-0.07806313,-0.33429098,-0.43896222,-0.85298276,0.4167652,0.50458264,0.9511986,0.14880979,-0.20281184,0.8366028,-0.10225499,0.65012777,-0.32115757,-0.63161397,-0.2828622,0.088912964,-0.17878437,-0.3176067,-0.90857995,-0.6208471,0.94196737,-0.0033328533,-0.47241235,0.97440493,0.081356764,-0.99721193,-0.6703831,-0.3612951,-0.12709045,0.26099086,0.008878589,0.5941093,-0.14596987,0.5930021,-0.25980842,0.5218226,0.20994687,-0.02967155,0.3796047,-0.14818287,0.11153281,0.9565679,0.87725914,-0.053477645,-0.044221044,-0.83486235,-0.9047009,-0.56855655,-0.684453,-0.86225533,0.63344467,0.26281476,0.63421786,-0.5920367,-0.15660095,0.037961602,-0.91761076,0.21063924,0.14413989,-0.5264466,-0.43551672,0.1732322,0.5540527,-0.988323,-0.8194084,-0.2429192,-0.08763051,-0.68277323,0.07448602,0.42153895,-0.35382032,-0.6525072,0.16798139,-0.6533909,0.49057424,-0.7334658,0.04292524,-0.9200454,-0.9469489,0.3765061,0.6175722,0.5881034,-0.98863554,0.41519713,0.20452285,0.5988786,0.92789364,-0.95485866,-0.658422,0.98259723,-0.66340077,-0.43432403,0.22139251,0.6381521,0.2531227,0.1881665,-0.53857243,-0.54115,0.100584984,0.42142236,-0.30336952,0.09789026,-0.97331786,0.9491502,-0.5236491,0.82002723,0.1018163,0.27252412,0.60570383,-0.13131714,0.66391885,-0.989069,-0.15330315,-0.73728704,-0.26622832,-0.98047554,0.81219697,0.66665304,-0.42759168,0.7119788,0.862774,-0.38989174,0.2678616,-0.0892185,0.5940292,-0.5103638,-0.9077866,0.31893265,-0.17379856,-0.75523555,0.77339315,-0.008597851,-0.64396095,0.93386793,-0.8830091,-0.7560723,-0.8309922,0.41229784,0.59956944,-0.46877885,0.8980571,-0.14411628,-0.49245536,0.91235244,0.46404564,0.66679835,-0.5828203,-0.22870839,-0.6747308,0.5915344,0.19119442,-0.05202794,-0.9679928,0.47563422,0.83598995,0.08029735,0.87783706,-0.23333633,-0.27290952,0.7148074,0.5533351,-0.91073835,-0.10413885,0.5381851,0.46226537,-0.52263165,-0.47096372,0.11540806,-0.72357786,-0.033926606,0.20072305,-0.22013605,-0.24971414,0.5475588,-0.5841497,0.73822546,-0.8888105,0.9720137,-0.11606979,-0.59240186,0.57265437,-0.68872654,-0.27686214,-0.4979546,0.5401156,0.40195954,0.437086,0.25460994,0.10301149,-0.8925394,-0.21313572,0.00013267994,0.20867491,-0.414793,-0.25846374,0.29070294,-0.48105454,-0.3853984,-0.31141448,-0.2504109,0.19210291,-0.48886418,-0.8909317,-0.8302592,-0.8404584,0.3715297,-0.44127035,-0.69147563,-0.6849793,0.18182147,-0.8183358,0.25630772,0.52642524,-0.5720514,-0.20443022,-0.7048147,0.6609149,0.2471447,0.49003696,0.19806135,-0.99058986,0.6217985,-0.4763056,0.015299916,0.42218447,0.37346077,-0.8029455,0.031504154,-0.6897447,0.82011425,0.6251023,-0.18127,-0.44263542,0.6949886,-0.09507263,-0.89636743,-0.5402658,-0.52589166,-0.15817046,-0.2510482,-0.16681421,0.168895,-0.8199322,-0.91311324,0.7186637,-0.4065076,0.23303604,0.12224221,0.77268946,0.3032397,-0.63596165,0.09098613,-0.62126386,0.88300455,-0.34009802,0.20695889,-0.44874144,0.15225816,0.5927098,-0.95436203,-0.34148943,-0.5309161,-0.12367618,-0.6121931,0.08946669,0.42991316,0.059901714,-0.5932623,-0.47227418,-0.2863152,-0.6396241,-0.18508291,-0.80160594,0.5053488,0.5446079,0.7589675,-0.3792634,0.6393064,-0.5052264,0.7022083,-0.73890376,-0.9823445,-0.9222437,0.22149456,0.6120404,0.5202482,0.74981654,0.7712656,-0.38268876,0.4621601,-0.37894225,-0.7689258,-0.9354149,-0.4573841,-0.95984066,0.30850673,0.12841809,0.47935426,0.18071318,-0.57225215,0.7678542,0.45800006,-0.90830076,0.31065762,-0.47004855,0.18124759,-0.31161118,-0.18958879,-0.6551584,0.966851,-0.39936543,-0.5127324,0.17180967,0.6253896,0.8595201,-0.90142524,-0.4384693,0.51497185,0.09792602,-0.8556932,0.50273526,0.013136864,0.47008276,0.5530907,0.42128253,-0.14989805,-0.7525971,0.86729634,0.4525392,-0.25482416,0.12678969,-0.3035624,-0.5929544,-0.49114752,0.6415466,0.40652764,0.48252892,-0.2619784,0.2228204,0.9876963,-0.9507257,0.2041769,0.3384142,0.5883212,0.96955705,0.19928229,0.7182075,-0.8642374,0.6186863,-0.5485722,0.13848484,-0.9893993,-0.23196769,-0.064973,0.5209137,0.06271362,0.4196496,-0.72639096,0.11428678,0.27342844,0.6324347,-0.4032582,0.080001,0.99201715,0.45093858,0.039917707,-0.25567353,0.32338035,0.112972975,0.9510144,0.97950315,0.6606116,-0.92169046,0.868541,0.24243748,0.9534557,0.42679358,0.26052952,0.40324163,0.3087479,-0.1778084,0.5863216,0.7931528,0.71166253,-0.09630191,-0.040201426,-0.35319197,0.7325736,0.2028445,-0.5140159,0.30927587,0.4692372,0.99070144,-0.110224485,-0.8596443,-0.98336744,0.1639477,0.3256086,-0.57904994,0.04584062,-0.42876863,-0.29757988,-0.39946795,0.50831246,0.81317866,0.66506076,0.35857558],"bias":0.6469988},{"activation":0.5438269,"weights":[0.15472472,0.41138864,0.12578976,-0.32794225,-0.81745195,0.5716275,-0.55664504,-0.43431675,-0.80252576,-0.110630274,0.8434205,-0.2494824,-0.16671991,-0.90696156,-0.3177904,-0.2218535,0.94103634,0.04608679,0.6777935,-0.8193269,-0.15217876,-0.46421802,0.70559525,-0.55515945,0.117548704,0.8405771,-0.9729644,0.94508815,0.2857771,0.23265696,0.91267633,0.93968356,-0.6166022,0.6715474,-0.123690605,0.40110755,-0.8361981,-0.02447486,-0.5858884,0.8165885,0.8448956,-0.9619235,0.6382991,-0.9468919,0.78220046,0.98175347,-0.34376693,0.9431689,-0.5963888,0.2523365,-0.7289096,0.022663236,0.10030973,-0.38342094,0.03330362,-0.5495435,0.34394848,-0.7889739,0.2822647,-0.19435847,0.043126225,-0.46817172,0.48133397,-0.83914626,0.3471557,0.008570552,-0.09496009,-0.95719206,-0.9926261,0.63742507,0.42330098,0.378245,0.21703255,-0.21415699,0.07554448,0.55516124,0.2960148,0.4537561,-0.7088913,0.35774934,-0.20509648,0.78837526,-0.9573195,-0.2048384,-0.84245276,-0.8534813,0.9587383,-0.38831782,0.6951339,-0.45744514,0.016686916,-0.14178729,-0.29915774,-0.5445274,-0.24486792,-0.9412031,-0.5666902,-0.005981803,0.70335805,-0.63532174,0.09873271,-0.35554242,0.60550094,-0.9317175,0.7141782,-0.9018166,-0.3186189,-0.52381253,0.042466998,0.34527147,-0.16290843,-0.5202596,0.9502119,0.6407281,0.58889186,-0.05889201,-0.66895044,-0.9723265,-0.9917648,-0.2519374,0.52512205,0.27079737,-0.96270645,-0.6073314,0.011543751,0.21858895,-0.59140253,0.79329145,0.18333852,-0.55182743,-0.9840975,-0.4015752,-0.41665924,0.834973,0.577173,-0.89948595,-0.60060346,-0.22259736,-0.47026515,-0.30197573,0.43166745,-0.4744352,-0.21879363,-0.60019577,-0.78568614,-0.67220163,0.17580986,-0.23260725,-0.63688374,0.98344386,-0.10516322,-0.0949496,-0.96011853,-0.35377777,0.16895008,-0.88593936,0.43066514,0.21076715,0.7306857,-0.2283293,0.039705634,0.76495016,-0.5995598,-0.52002966,0.7522788,-0.7407514,0.9176034,-0.033439517,-0.07864404,-0.63999414,-0.5071511,0.37677133,-0.8465204,0.78102994,-0.789811,-0.24189675,0.99316776,0.8709105,-0.37520468,0.04921317,-0.7915888,0.47617662,-0.24746668,-0.7160047,0.8548993,0.07511854,0.8920326,-0.6232703,-0.23995316,0.51821756,-0.07225561,0.7687639,0.89561653,0.93371487,-0.57244074,-0.046064734,0.70745015,0.35473847,0.040108323,-0.98707855,-0.9439032,-0.34099865,-0.65241766,-0.88766885,-0.32859588,0.25661945,0.58007,-0.8888991,0.11113107,0.38668644,0.7212,-0.6385131,-0.34884048,-0.54808474,0.9162426,-0.6114876,-0.49321115,-0.4191413,0.08177006,-0.2194401,0.0477854,0.051931858,0.1987921,0.3002348,-0.5847074,0.8627658,-0.11117089,-0.24466515,0.9323547,0.12696445,-0.8876499,-0.67542005,0.9085752,0.24865818,-0.93948066,-0.44275248,-0.99540484,0.2776754,-0.43219733,0.9151797,-0.60117483,-0.5781275,-0.68060017,-0.58134604,-0.22328568,0.45415998,0.6168195,-0.7296343,-0.0038255453,-0.7433611,-0.53305304,0.10908675,0.090112805,0.7081859,-0.14877677,-0.09012461,0.01207912,0.5644629,-0.74658275,-0.6659279,0.8902259,0.85389435,-0.33369195,-0.901456,0.8522371,-0.1557858,0.4548049,0.42577374,-0.766361,-0.40560174,-0.9960185,-0.7855462,-0.44897115,0.48420548,0.026688099,0.47463822,-0.17546237,-0.40554667,0.61572576,-0.49796724,-0.09013343,-0.10368347,-0.7947279,-0.012443066,0.88227844,-0.3522191,0.84007525,-0.30289936,0.8289709,0.8241534,-0.40023935,-0.62914383,0.00059473515,-0.8603549,0.27332473,0.67269194,-0.7481711,0.5725992,0.44193566,0.18068624,-0.040200114,0.99337053,0.07578039,-0.10384381,-0.8047465,-0.3570012,0.18451655,0.7476404,-0.12914014,0.86996806,0.91208446,-0.9765209,0.5789796,-0.66795874,-0.19800568,-0.026901841,0.96925926,-0.10289955,0.90233994,-0.996312,-0.21583748,0.38374388,0.031766057,-0.933571,0.16569924,-0.23391736,-0.86194944,0.02723825,-0.5936742,0.3569845,-0.17929626,-0.8188598,0.6268637,-0.115046024,-0.67454493,0.7933413,-0.051714897,-0.99672675,-0.024204493,-0.34401667,-0.37415254,-0.29838562,0.9083642,0.93549156,-0.25495493,-0.1972121,0.66160655,-0.50978804,0.7342831,0.9229907,0.37302554,0.07503462,0.062797785,0.5202966,0.66241777,0.39876068,0.38802147,-0.6918434,0.23959684,-0.51282215,0.89131856,0.40013015,-0.0014249086,-0.9682907,-0.6940168,-0.82235825,0.14552665,-0.3263793,-0.9995924,-0.44316983,0.35396647,-0.8130108,0.5326644,-0.7691792,-0.3907132,-0.1687293,-0.99417806,-0.99541533,-0.20399678,-0.8196243,0.22706926,-0.35820496,-0.5450311,0.95415044,-0.5983697,0.534583,0.8681911,0.28727984,-0.6766082,-0.21171892,-0.42282796,-0.06990492,0.020858645,0.0931288,0.44822085,0.007823586,0.94716454,0.8400439,-0.47478676,-0.52596927,0.91981936,-0.22784114,0.561519,-0.31701744,0.29024673,0.09730387,-0.4367627,0.79583526,-0.29146135,0.13963902,-0.46552122,-0.07907033,-0.48385966,0.18325078,-0.3264376,0.6113447,-0.81467545,0.08772552,0.050323486,0.6856053,0.04132092,0.2907604,-0.38981962,-0.805374,-0.29121614,0.54222786,0.64476216,0.7917801,-0.6372514,0.9464948,-0.31601882,-0.7791518,0.9873152,0.3625641,-0.5211307,-0.5329919,-0.44483972,-0.5526018,0.94502735,0.12289846,0.46758115,0.16326511,-0.9745114,0.97069395,-0.8762202,-0.28214777,0.4664986,0.999874,0.050519824,0.69219565,0.89213336,-0.18130207,-0.20469141,0.12468004,0.6756836,-0.087429285,-0.65222013,0.30307126,0.55678284,-0.12019777,0.7214961,-0.3420087,0.71676743,0.9102495,0.21846855,-0.053324938,0.16964579,-0.39033687,-0.73964,0.050871372,-0.2725036,-0.42013443,-0.70022106,-0.53379714,0.68105745,-0.96390545,0.55473983,0.20094454,-0.9711379,-0.53786755,-0.065957785,-0.63348305,0.8596697,0.6648849,0.8031777,0.1945312,-0.5386199,-0.15863979,-0.65130484,-0.51215065,0.5232928,0.45064843,0.48594093,0.65394163,-0.08306122,-0.44866765,-0.024112701,0.42890215,-0.5569993,-0.18860757,0.5712544,-0.5296664,0.828493,0.24477112,-0.4219073,0.0014697313,0.86613715,-0.35712278,-0.5122721,-0.81518626,0.07785487,-0.39886367,0.6924889,-0.82123303,0.35834658,0.33489668,0.9753357,-0.37442267,0.18028748,-0.89365923,-0.121118546,0.11061156,-0.0063112974,-0.35140574,0.9381014,0.8233249,-0.28173625,-0.3217038,-0.40498996,0.3821807,0.4533676,0.7774918,0.97556293,-0.36946595,-0.7069582,0.5789983,0.6332822,0.13170898,0.805367,-0.30865872,0.9704399,-0.9311186,-0.07820606,-0.20531523,0.4105612,-0.14688802,-0.9586364,0.2644564,-0.2140379,-0.1284231,0.5756663,-0.054239035,0.059220076,-0.796386,-0.55479515,0.58927274,-0.36675036,-0.07887876,-0.5963812,0.27015114,-0.012414098,-0.31505716,-0.6862141,0.8074447,-0.6738014,-0.24792242,0.28651202,-0.35052764,0.3109933,0.76866007,0.7938014,0.015131831,0.7548412,-0.8946061,0.5979551,0.7144109,0.021504045,0.51735497,-0.5752897,0.6237451,0.6657654,0.25666142,0.9960418,-0.10212195,0.22748971,-0.26499164,-0.15237582,-0.3552128,0.015699387,0.11984527,-0.41786218,-0.5071517,-0.9291526,-0.4332155,-0.18087924,-0.04960251,0.7661556,0.7866787,-0.30890834,0.059600472,-0.047544003,-0.008825898,0.8846334,0.59482396,-0.87915957,-0.68193424,0.018942595,-0.9810958,-0.24613369,-0.8990661,0.7876562,-0.35831177,0.3688246,0.33501112,-0.6252928,-0.7590281,0.7127044,0.08825123,0.074704885,0.35869455,0.9059218,0.19455826,0.2227714,0.49373102,0.69457614,0.5102041,-0.69112396,-0.7037436,-0.1871922,-0.08734405,-0.052546382,0.8359413,-0.1654365,0.3662442,0.63143575,0.35032094,-0.4778918,0.14528394,0.19620979,-0.39372885,-0.9077847,0.2198137,-0.27424037,0.42362428,0.6600838,0.04781139,0.9870554,0.2389108,0.103221536,-0.93018997,0.57733893,0.8675122,-0.36813903,0.33561277,0.80644906,-0.4981916,-0.11687291,0.6869612,-0.95006883,-0.087225676,0.5086378,-0.58436215,0.34418797,-0.7545893,-0.5856029,-0.74998343,0.722898,-0.35648346,0.7779081,-0.013102293,0.49804223,-0.7797897,-0.4581821,0.76978767,0.063307285,-0.15013826,-0.9681617,-0.037079692,-0.9518285,-0.795599,0.98218143,0.346722,-0.8741368,-0.8149092,0.04813516,-0.8895966,-0.430207,0.473302,-0.71142375,0.44450355,0.32506907,0.27887475,-0.92210877,0.79748464,-0.29090214,-0.80895746,-0.3378036,0.73460686,0.6057091,-0.14415348,0.049963593,-0.7697259,0.87614393,-0.9685379,0.6174475,-0.8391634,-0.1711942,0.066515684,0.082831144,0.8972701,0.006287217,0.088532805,0.88792694,-0.28765404,0.7698573,-0.62969816,-0.7976173,0.48138404,-0.4884405,0.33561206,-0.17831051,-0.5715275,0.22947347,0.24446535,0.7825401,0.4001416,0.9593239,-0.91813827,-0.5331825,-0.63932574,-0.7117168,-0.84743905,-0.21060145,-0.9483421,0.17891216,-0.21056354,-0.97590256,-0.31906497,0.374182,0.04256928,0.65563536,-0.83053887,0.77081096,-0.27075326,-0.8324559,-0.9254856,-0.7086401,-0.40844977,0.5276202,-0.18980837,-0.19606102,0.5067655,0.25435328,-0.6287613,-0.78598297,0.7738931,-0.5461565,0.5155798,0.5448868,-0.122329,0.879513,-0.13785529,0.98005116,0.9347081,-0.25274742,-0.4963416,0.6022155,0.7108475,-0.2811488,-0.61046135,0.06662583,-0.11706364,-0.91993904,-0.6059377,0.98871446,-0.46933067,0.46557724,-0.5836065,-0.58764184,0.37772822,0.9778652,0.020819306,-0.8976172,-0.1496768],"bias":0.09329963},{"activation":0.9779148,"weights":[-0.39968574,-0.4625032,-0.093667746,-0.17525947,0.46356142,-0.97176254,-0.62057114,-0.74871564,0.58873653,-0.20670891,-0.05711627,0.21312523,-0.27786994,0.8676292,-0.8858197,0.70263624,-0.535033,0.17932284,-0.8347535,0.029137969,0.85562515,0.014380813,-0.8692012,0.3125018,-0.5677873,0.18488479,-0.6308925,0.2777418,-0.7133064,-0.104002714,-0.7060287,0.80398536,0.807011,0.16112256,0.9024308,-0.07209456,0.45073426,-0.0979439,0.06687403,-0.8367405,-0.69234204,-0.15031564,0.5878732,0.25183046,0.3287021,0.32816494,-0.5162083,-0.5728979,0.60654795,0.10304117,0.0031995773,0.068339944,-0.69832957,0.36007726,0.4424833,-0.42835438,0.58436215,0.33284163,-0.22595978,0.75689363,-0.7153852,-0.8666301,-0.2460407,-0.7955388,0.88809943,0.9539747,-0.47981417,-0.04303646,0.12876165,-0.9939145,-0.88608325,0.40110362,0.5957526,0.89413035,0.9615401,0.037727475,0.6057298,0.43409085,-0.35339594,0.26379657,-0.0910511,-0.45672715,-0.03392446,-0.979754,-0.27753234,0.11971438,-0.52544284,-0.70421207,0.615798,-0.78211987,0.58418155,-0.3860855,-0.56342137,0.99957573,-0.71433747,0.49776757,-0.74967825,-0.91984475,0.1752888,0.51961136,0.51253605,0.3059379,-0.05460775,0.12483871,0.7778286,0.024107456,0.24039888,-0.5004991,-0.5808594,-0.6716262,-0.45635366,0.88186324,0.048631668,0.26787055,-0.23273802,-0.71100223,0.32815397,-0.30746186,0.81355786,-0.3585552,0.019548655,-0.17739868,0.57764804,0.20568705,-0.29046452,-0.3731054,-0.446584,-0.86289406,0.3479011,0.9691758,0.32773352,-0.48312843,0.5195005,-0.65607464,-0.6622119,0.16310227,-0.11907816,-0.53941596,0.45926464,0.4041605,-0.8957379,-0.16896856,-0.56432617,-0.05496049,0.6841475,-0.9602827,-0.04113424,0.9721552,-0.152313,-0.80789924,-0.6943613,0.31828165,-0.1592964,0.2302624,0.7038672,0.24940002,0.8454466,-0.45244336,-0.7678735,-0.13294196,-0.23016822,0.32337368,-0.41540182,0.5548532,-0.49236238,0.023900986,0.043715,-0.36032557,0.34440827,0.038653612,-0.48990464,0.15562737,-0.416507,0.8068149,-0.16693139,0.820338,-0.019029021,-0.5197401,-0.004869938,-0.14708471,-0.55627143,-0.9825268,-0.5220463,0.17630541,-0.36464226,0.73664296,0.49522352,0.20061004,-0.5197891,0.60486746,-0.48586738,0.6381136,-0.84056246,-0.3469031,-0.01186049,0.086657405,-0.29789412,-0.09789848,0.64963055,-0.76979685,0.38336396,0.4320054,0.22316933,0.8916532,0.83783734,-0.24212277,-0.006960392,0.763271,0.6836735,-0.9449507,0.9871235,-0.63185966,-0.057978034,-0.12551057,0.776371,-0.12894058,0.60517097,0.054333687,-0.39751494,-0.058665752,0.117293954,-0.56584525,-0.47024965,0.8817947,-0.088933825,0.80293393,0.08899057,0.5782013,0.91674864,0.11919904,-0.98549175,-0.6995772,-0.96275175,0.42106462,-0.15503943,0.37387884,0.7318747,0.88210547,-0.7241367,0.09035754,-0.29446113,-0.68288517,0.2356801,0.57017493,0.13372755,-0.17878711,0.20198035,0.73313844,-0.5524683,0.4163623,-0.19835699,-0.79124534,0.34681737,0.9716805,0.6823509,-0.95810544,-0.5598992,0.8377894,-0.014415145,0.5297884,-0.93016493,-0.558833,-0.17764199,0.3421141,-0.33645535,0.031226873,-0.5202359,0.056876063,0.31940246,0.6133138,0.1794399,0.2807945,-0.8573595,0.15409994,-0.20815337,-0.09133601,0.29772925,0.10051906,-0.40958798,0.15134788,-0.26926565,-0.07547915,0.40830088,-0.8711349,0.9774214,-0.016358852,-0.6825099,-0.5633167,0.73539376,0.63236415,-0.023917794,-0.44937158,-0.015121341,-0.18215024,0.9542347,0.8635931,-0.07186866,-0.92913723,-0.06792605,0.96516836,-0.036091685,0.7848127,0.0011343956,0.5940231,-0.36419582,0.040836453,-0.19379818,0.7806066,0.9593222,-0.45018613,0.4771775,-0.5047972,-0.88824916,0.39075315,0.9832915,0.8629081,0.17686641,0.1854564,0.11549604,0.9568572,-0.57950056,-0.49111867,0.073530555,-0.5949799,0.7548193,0.46010303,-0.08524549,-0.5322888,-0.18519688,-0.5610261,0.15005577,0.033743262,-0.7728772,0.6540512,-0.36141026,0.91439295,0.21369112,-0.5143986,-0.49919128,-0.1694411,-0.66872644,0.9788884,0.0698024,0.37455726,0.59423363,-0.18962169,0.47871757,-0.6258011,-0.057310224,0.35880172,-0.24908948,0.10980415,-0.058083773,-0.97165537,0.21643054,-0.4409641,-0.5943742,0.31178415,-0.6495826,-0.44132876,-0.46971667,-0.73719275,-0.52308655,-0.18509293,0.1872667,0.13599277,-0.71851563,0.17976296,0.4407754,-0.040495634,0.63101494,-0.8815969,0.13911378,0.59754264,-0.40263522,-0.41833043,0.08477616,0.33348703,-0.5062655,0.90629756,0.74851656,-0.35085428,-0.15776646,0.43111718,0.4902302,0.12109029,-0.49561787,-0.24742627,-0.5892632,-0.10470128,0.12478125,0.026032925,-0.24699676,-0.09504378,0.85728467,-0.87198126,-0.8990755,0.031136394,0.48242605,-0.29013515,0.8009927,-0.90327907,0.6135156,-0.195768,-0.028059244,-0.5144936,0.6271626,-0.5819826,-0.2681098,0.20504272,-0.79665446,-0.7454778,0.6855463,-0.99335265,0.33984005,0.4773724,0.11997986,-0.95342803,0.6458138,0.8255533,-0.061308384,0.84533167,-0.48473954,-0.61309946,0.2886672,0.57967377,0.006590128,-0.30113757,-0.102821946,-0.64009106,0.24053884,-0.37965524,0.67475736,0.062308908,0.32558072,-0.1995765,-0.4499786,-0.10784197,-0.1741625,0.94690466,-0.043775678,0.8024349,-0.40017688,-0.08372259,0.5330312,0.8967562,0.11714733,-0.7736286,0.49415135,-0.21472895,-0.11199069,0.7611034,-0.7937256,-0.3528571,-0.29310882,-0.03217709,-0.0028867722,-0.73431385,-0.042577744,0.3663664,-0.30251706,-0.38804817,-0.06490779,-0.4436319,-0.524819,0.8663447,-0.32324183,-0.35151708,-0.31019747,-0.6000892,-0.8872081,-0.012200594,-0.33852386,-0.74650574,0.8192928,0.0757947,0.85727906,0.69110453,0.15051854,-0.8201548,-0.8458742,0.7844213,0.3233503,0.8337834,-0.98381984,-0.08282983,-0.005004525,-0.6857331,0.4452039,0.06971073,-0.59047544,-0.05148506,-0.6657857,0.35294604,0.32820177,0.42375004,-0.413185,0.6263695,0.31894028,-0.15623093,-0.4462427,0.58526504,0.33021653,0.120598316,-0.72697043,-0.19380617,0.7627561,0.20639062,-0.27820265,0.24576712,0.96812356,0.4761901,-0.18808854,0.6958432,-0.95392525,0.48220146,0.51952934,-0.8950254,-0.8994235,0.09921193,0.5076839,-0.17324865,0.5762466,0.7680563,0.4908799,-0.644917,-0.7664832,0.08019662,-0.010990143,0.87057126,-0.8533797,0.33424604,0.19136441,0.39139163,-0.798887,0.39315128,0.5182358,-0.70499086,0.8148955,-0.6154349,-0.84327114,-0.4262166,-0.37117827,-0.93747604,-0.6511252,-0.8831823,-0.18515885,0.7088245,0.69960034,0.35152996,0.8781768,-0.81783915,-0.7470856,-0.93529606,0.29817605,-0.42915022,-0.09974754,0.061564326,0.35340834,-0.14608479,-0.6523224,-0.717841,-0.70464313,0.9746605,-0.9486674,-0.2104361,-0.3272859,0.08252835,0.5083277,-0.055476546,0.1964674,0.8766482,0.8554007,0.53488684,-0.38319242,0.026975036,0.19737649,0.1187191,0.97940767,-0.91749644,0.76468194,-0.4686128,-0.24269664,-0.49946368,0.06175399,0.78278947,-0.77263176,0.60341644,0.9998522,0.10872018,0.9256185,0.6725526,-0.34878707,0.9165592,0.63847756,-0.01603496,0.31394994,-0.28012466,-0.3394873,0.40467823,-0.5229976,-0.5002208,0.5667162,-0.52269554,0.02548194,0.75381243,-0.05186355,-0.81338966,-0.11709857,0.61972046,-0.15225744,-0.8440453,0.30541277,0.3575846,-0.33546543,-0.5561515,-0.6882764,0.6627495,-0.27663112,-0.6342584,-0.8353621,0.7911366,0.2572472,0.6355629,0.30232024,0.007987261,0.47800446,-0.70516,0.6716553,-0.33653665,0.6774938,-0.99844646,-0.9359567,-0.27933168,0.838869,0.30200624,-0.35060465,-0.71475327,-0.4342153,0.8233082,-0.63703704,-0.3625294,0.5545988,0.7193749,-0.34671497,-0.078125596,-0.54058695,-0.6415764,0.75825703,0.526844,0.19514358,0.385131,0.975934,-0.6561667,-0.19442928,0.6963874,-0.7397244,0.41025436,0.58323956,0.9869307,0.48211527,0.32558453,0.54532945,-0.31769228,0.88283086,-0.99218035,0.88075995,-0.69854796,0.21076107,0.4028926,0.17918324,-0.41465497,-0.65750027,-0.9379144,0.28987944,0.5692326,-0.20737529,-0.26734245,-0.42095637,-0.8834344,0.80339885,-0.132097,-0.67440605,-0.33414936,0.23103166,0.7198765,0.35033536,-0.8237674,0.9519708,0.47702706,-0.3818363,-0.60626554,-0.33158493,0.80328095,0.04974878,0.6398431,0.31413448,0.18940616,-0.41068256,-0.44795346,0.9727558,-0.23000276,0.13071394,-0.12278235,-0.05368328,0.45985663,-0.56608975,-0.008283973,-0.2797799,-0.8718674,-0.771852,-0.8789443,-0.9840785,-0.904614,0.47757006,-0.49826837,0.24457252,0.5429138,0.56620145,0.6202798,-0.17704237,-0.34609592,0.10974932,0.3681122,-0.5236485,0.03123939,0.59362197,-0.74050915,0.32584047,0.38817155,0.44424438,-0.026372671,-0.99186623,0.50581026,-0.23870921,0.2996341,-0.009452462,-0.711692,-0.24266446,-0.80373657,-0.48200178,0.4232775,-0.11272156,-0.53026783,-0.9528396,0.74713266,-0.24235976,-0.8809478,0.7718688,0.6761904,-0.04121828,0.46445382,0.15485609,0.5676236,-0.2109853,-0.04840982,0.29731393,0.23939538,0.14299262,0.79253674,-0.012574673,-0.36080182,-0.3721273,-0.6407739,-0.16860354,0.48004556,-0.9107734,0.94641864,-0.1923461,0.7642106,0.983366,0.90876627,0.7827548,0.5230621,-0.10573697,0.7403023,-0.92282534,0.65765214,0.025384068,0.30084753,-0.51077557,0.31349218,0.3626405,-0.45048726],"bias":0.09025228},{"activation":0.7761144,"weights":[0.43959606,0.40471792,-0.87915707,-0.7142297,0.3568231,0.032063246,-0.9377241,0.438352,0.4203179,0.85339344,0.6235138,0.5501648,0.37195766,0.2142843,0.06389427,0.9380543,-0.07822919,-0.7889255,0.97012436,-0.58391595,-0.82637644,0.9698291,0.83221114,0.9098816,0.0961895,0.8715445,-0.72663736,-0.53666747,0.021164536,-0.1358329,-0.6018753,-0.8264693,-0.14570189,-0.80374324,-0.3136654,-0.5016246,-0.9311234,-0.65840304,-0.0010060072,0.33524013,0.8761864,-0.5464392,0.6949688,0.14041305,0.6362238,0.33470583,0.2569492,-0.34896123,-0.95940864,-0.91411006,0.3526441,-0.3918978,-0.38059437,0.18854856,0.45419753,-0.7464131,0.18263268,0.7950001,0.6103474,0.021412253,0.06703985,-0.6015035,-0.8766568,-0.6702063,0.3118019,0.981954,-0.88703525,0.3412547,-0.5058086,0.37524712,0.35941052,-0.20642841,0.5297648,-0.90054095,-0.8465718,0.20939004,0.93067956,-0.25125813,0.8722346,-0.43066752,-0.5563086,0.35288596,0.1843754,0.68347955,0.51682675,0.0013076067,0.29607832,0.023701906,0.53374946,-0.75108576,0.49647427,-0.4830402,0.14475715,0.15226042,-0.5960026,-0.475659,0.85195684,0.21504068,0.61893237,-0.74318767,0.11229384,0.7298378,-0.8738549,-0.79582596,-0.6941539,-0.61626995,0.69293165,-0.16846216,0.9476075,0.3963759,-0.3124267,0.042565107,0.98647106,0.6941217,0.30093563,0.3950218,-0.83791864,0.0005681515,-0.7004745,0.50787294,-0.8730129,-0.40177584,-0.7659408,0.5107509,-0.011300683,-0.64346445,-0.26979923,-0.16737676,0.8173392,-0.2724285,0.5649477,0.9113579,0.7991154,-0.9066813,-0.36041093,0.8076761,-0.35113394,0.20957315,0.6144,0.9838828,-0.55942583,-0.7642777,-0.073137164,0.08354688,-0.5752491,-0.9766784,0.11309636,0.6831697,0.35666573,-0.78210235,0.69604456,-0.09396541,0.369215,0.5067222,0.15498829,-0.59508157,0.7347511,0.8056141,0.336102,-0.3470732,-0.34617305,0.24484646,0.6246401,0.39564502,-0.31138968,0.6676904,0.44717717,-0.41655898,-0.051549435,-0.093933225,0.10042846,-0.86965823,-0.15721095,0.72707975,0.6472651,-0.34112883,0.23179674,0.4433744,-0.054110646,-0.036204934,-0.35146034,-0.16369319,0.346761,-0.7567514,-0.35586894,-0.6301924,0.13320947,0.32278872,0.02263546,0.73442256,-0.20363688,0.20033538,-0.44344795,0.22797084,-0.40160775,-0.6179997,0.23729801,-0.5855931,-0.2162323,-0.29896426,0.6147413,0.961022,-0.73027503,0.9413599,-0.81219566,-0.8197479,-0.588907,0.524009,0.6908883,-0.01766932,-0.5747739,-0.7614417,-0.20934916,0.28836238,0.4034698,-0.66270876,0.2303927,-0.8641385,0.34888196,-0.98983157,0.5292264,-0.63691306,0.5446203,0.89013326,-0.30899966,-0.96773744,0.4791137,0.9865079,-0.093132496,-0.45035005,0.49175465,-0.64348066,-0.66190135,-0.8528186,0.91973484,-0.7363218,-0.003076315,0.112247825,0.72729623,-0.21045172,0.28711116,-0.9298997,0.6673484,-0.12407696,-0.54827464,-0.59408736,0.28211367,-0.59869707,0.23067057,-0.3350532,-0.7752272,-0.20316613,-0.14591181,0.80431724,0.1612997,-0.89858484,0.10115743,-0.9084364,0.49060786,-0.9158002,0.2247827,-0.59800005,-0.33672023,-0.69642794,0.7623544,-0.60063064,-0.16968906,0.15709579,-0.72667277,0.6321627,0.86641395,-0.017822385,-0.42295134,0.5971799,0.9831042,0.4198426,0.83427167,0.3744626,0.14165461,0.73892534,-0.660568,-0.2195518,-0.5963905,-0.96472657,0.028015614,-0.1022563,0.97592723,-0.2789768,0.69660115,-0.64720094,-0.29866838,-0.5205339,-0.836421,0.35939133,0.7438705,0.34143865,0.95196235,0.28211677,-0.30807006,-0.30868864,-0.20364058,-0.6090611,-0.39720583,0.63049793,0.5624336,0.69338405,0.23285496,-0.49819577,-0.026726604,0.87984073,-0.11146355,-0.9699184,-0.1489017,-0.23692715,-0.38642132,0.47091007,0.9940351,-0.9469435,0.5764357,-0.35411513,0.04164779,0.51970327,0.121505976,0.591725,-0.24171329,0.800478,-0.54227495,-0.16696405,-0.9144672,0.53288114,-0.9361855,0.6089146,-0.7263231,0.7041979,-0.7235539,-0.007727623,-0.22380269,0.097718,0.9223778,0.09276092,-0.9214889,0.7817664,0.9611105,0.75722766,0.14816988,0.25895822,0.762532,0.47971487,0.3431723,0.762928,-0.45596313,-0.052493095,-0.6086178,-0.16592228,-0.4474696,0.16388607,-0.8247328,0.7113863,-0.04533124,-0.43146253,-0.9653791,-0.8253542,-0.05411899,0.15248859,0.8693477,-0.20877111,-0.9901602,-0.51570046,-0.29380655,0.79967916,-0.021938086,0.13105977,-0.6832082,0.8087245,0.26529872,0.42813027,-0.8661908,-0.70573056,0.97748375,0.024953008,0.279716,0.050431132,0.9036107,0.79195154,0.71340835,-0.24145424,0.65242434,0.2994212,-0.47814918,-0.59795237,-0.0341295,0.85486674,-0.88837016,-0.32051158,0.3960104,0.25538468,-0.072087646,0.6652341,-0.47212207,0.024437904,0.3801694,0.8871416,0.3996898,0.59659374,0.25175285,-0.69315755,0.6001655,-0.04896629,-0.83620906,-0.7391323,-0.578326,0.47577965,0.14998674,0.54616606,0.050518632,0.101174235,-0.6761327,0.97482324,-0.018988967,-0.10086095,0.41437936,-0.8292078,-0.2507609,0.6338339,0.28054237,0.8795719,0.867694,-0.9013022,-0.6170418,-0.03504193,-0.502427,0.408396,-0.51056314,-0.29396403,-0.37849188,-0.5580764,-0.20858479,0.5804597,0.9894973,0.15241098,-0.64645386,0.7668524,-0.27019763,0.892949,-0.9309076,0.9762416,-0.45673943,0.5496105,-0.3682146,-0.33509684,-0.20067573,-0.340132,0.57910836,-0.16845334,-0.19905448,-0.35850286,-0.22140002,-0.97012997,-0.7859812,0.7588806,-0.6026621,0.8890784,-0.64477,0.029196858,-0.91691697,-0.85040224,-0.52007794,0.5159247,-0.8585379,0.16661239,-0.69761443,0.49876916,0.61038554,-0.34388518,-0.70214796,0.8186784,-0.90513647,0.7232528,0.8129327,-0.176085,0.8258753,-0.85393167,0.12371099,0.8889135,-0.09367514,0.8870293,-0.30288768,-0.14809549,0.973909,-0.6310954,-0.66125834,0.473925,0.54614353,-0.65148735,0.8988619,-0.3297155,-0.6473683,-0.80753887,-0.84389734,0.5891961,0.4194734,-0.20007491,0.23896527,-0.28331554,-0.27745008,0.14279103,-0.6933439,0.6243143,-0.71482444,0.3980446,-0.5755327,-0.47072136,0.21715152,-0.7610239,-0.35044014,-0.9604814,-0.03229642,-0.098878026,0.68126667,-0.22056305,-0.8717252,-0.55964816,0.23625767,-0.63300693,-0.894714,-0.31011117,0.7121936,-0.9401555,-0.810292,-0.031337023,-0.4131533,-0.16393125,-0.2723198,0.2149378,0.2990501,0.38879848,0.28167772,-0.52791226,-0.5041597,0.61822045,-0.28367448,-0.5896213,-0.38444746,0.61221707,-0.4170494,-0.42288554,0.71506107,-0.6595043,0.41866946,0.7999276,0.77825797,-0.9669517,0.77333057,0.5525117,-0.5210353,0.11287868,0.5939957,0.9377786,0.49071443,-0.8449526,-0.6177281,-0.022826552,-0.23941755,0.2978965,0.45000446,-0.46122408,-0.8786961,-0.4388368,0.44583976,-0.72013617,0.012662649,0.981637,0.47913635,-0.41007316,-0.77213955,0.0066769123,-0.90581965,-0.42611718,-0.5763377,0.40852237,-0.7496629,0.32971275,-0.63776577,-0.91634035,0.41324162,0.7998587,-0.7761073,-0.9239986,0.34461558,-0.16628683,0.1152854,-0.5333657,-0.11412358,0.6557169,-0.08647847,-0.3633082,-0.035098076,0.2883662,0.84728205,0.5080774,0.48695755,0.88525915,0.7724947,-0.78218913,0.52312267,-0.33876872,0.41584837,-0.68615365,-0.23569238,0.36187422,0.5184516,-0.21025467,-0.22595394,-0.47619653,-0.17470014,0.43363404,-0.8855561,-0.8101665,-0.1815486,0.39442778,-0.8823538,0.45887232,0.13273656,-0.12984061,-0.9876313,-0.59863186,0.6989496,0.21521533,-0.21977913,0.36704743,-0.7678503,0.3681965,0.9466176,0.60293674,0.6193019,0.22000408,-0.32375515,0.9037967,0.3395387,-0.0033560991,-0.350811,0.01048553,-0.6439326,0.8074174,0.77555275,0.41810322,0.42297888,0.50899374,-0.040071726,-0.38566995,-0.124908686,0.98168933,0.1736691,-0.042422414,-0.9008447,-0.5409012,-0.31935346,0.57467175,0.17336464,-0.56124043,0.9280176,0.82453096,0.97245085,-0.3304783,-0.32706654,0.8638829,0.055867434,0.48412895,-0.010594845,0.81946135,0.69493186,0.43927336,-0.54092,-0.63731945,-0.28020847,0.2305646,-0.5155251,-0.77297294,0.14404309,0.23915517,-0.21951997,0.14047265,0.9408258,0.3630818,-0.40294492,0.2979561,0.15287006,0.22495556,-0.8926401,-0.6696979,0.8568903,-0.52444184,-0.068490386,-0.7762327,0.2463603,-0.04027915,0.9524673,0.2945099,0.25789905,-0.077631354,-0.78200865,0.28316343,-0.1648097,0.14672732,-0.21965182,-0.009606361,0.2833867,0.5003438,0.6582055,0.5831312,-0.8460022,0.7099613,0.9939331,-0.86884093,-0.06859362,-0.02492845,0.03319335,-0.37130034,0.744413,0.66618836,-0.44652057,0.7484733,-0.7926818,-0.18691015,0.88045394,0.67516184,0.59738386,0.22860014,0.23680472,-0.7643676,-0.08272314,0.7324672,0.45744514,0.059048176,-0.060811162,0.10282123,0.5862807,-0.31716478,-0.31415057,-0.8303796,-0.35079575,0.19559693,-0.5282544,-0.5560988,-0.7714938,-0.20319116,-0.90901315,0.0148561,0.191262,0.6625644,0.5386356,-0.3434527,-0.5062269,-0.39408517,-0.6898011,0.44886434,0.96125555,-0.15030384,0.9821025,-0.50236595,0.75645936,-0.9045806,0.51503813,-0.12888277,0.45604277,-0.27592778,-0.22991061,0.50117123,-0.5147935,-0.0029183626,0.18979967,-0.57710314,0.5602071,-0.47452497,0.93688095,-0.91389537,-0.38359725,0.47860968,-0.5750046,0.31048143,-0.19140351,0.7666681,-0.12175441,0.86174643],"bias":0.16330516},{"activation":0.74595314,"weights":[0.9172404,0.25368178,0.21710002,-0.6186758,-0.36936605,0.8023132,0.19535184,0.81176126,-0.19533288,0.30580163,-0.9220501,-0.6356418,0.5115794,0.74752665,-0.72159326,0.36360288,0.64068985,-0.4468336,-0.8566452,0.07065475,-0.8615707,-0.3374542,-0.23588133,0.10854936,0.4899912,0.52318776,-0.8189492,-0.8998543,-0.10783696,-0.9383756,0.505219,0.38379443,0.64429617,-0.8385726,-0.8648453,-0.098668575,0.70673,0.83406305,-0.82952845,-0.5006503,0.13883054,0.149863,-0.6091087,0.8189827,0.7192209,0.29183114,0.07032025,-0.123251915,-0.23545158,-0.48386288,-0.7711314,0.68846095,-0.7873622,-0.20520413,-0.18977118,-0.8897469,0.40644777,-0.61284626,-0.8401309,0.31669378,-0.46733284,-0.4662168,0.98878896,-0.6544949,-0.7795459,0.7992401,-0.4584018,0.20705104,-0.17876732,-0.27156425,-0.16813362,0.007357836,-0.83731043,0.06939006,0.17807364,-0.47664356,-0.79796886,-0.50456536,-0.428977,-0.5574949,0.06320989,-0.6089945,0.8455664,0.16520464,-0.82237124,0.17763054,0.9263439,0.6471909,0.45801628,-0.16294372,0.6261214,-0.3738935,0.30739677,0.67357206,0.6027554,-0.15906489,0.6906866,0.8158233,0.9765034,-0.42112994,0.8357161,0.21783209,0.9474374,-0.8713659,-0.12788856,-0.7393712,0.46586406,0.7716199,0.78876054,0.8012178,0.52940905,-0.75926447,0.65666246,-0.5798583,-0.855505,-0.23503208,0.832553,-0.41900742,0.16123843,0.2017479,-0.57744694,0.8343158,-0.35606468,0.8979659,-0.028059244,-0.6591401,-0.38963413,0.034901023,-0.449332,0.92808974,-0.9859979,-0.7170125,-0.42543924,-0.73467636,0.98036504,0.49547374,0.39615583,-0.18151832,0.34211874,0.92561114,0.87544155,0.877203,-0.933764,-0.28450072,0.40328622,0.0406425,-0.03025043,0.9446422,0.8269012,0.7415637,-0.20271587,-0.19628608,-0.22794175,-0.3089676,-0.015486121,0.96158934,-0.9552671,-0.85566354,0.11673236,0.8924434,-0.84635377,0.73789,0.318969,-0.87906325,0.9544709,-0.79611933,-0.9863522,-0.76498735,0.9119377,0.4875573,-0.9188312,0.8716438,-0.21803367,-0.3532982,-0.6506623,0.30863547,0.67361164,-0.47841275,0.3613969,-0.029882431,0.8883866,0.07165575,-0.5066447,-0.5492345,-0.14738953,-0.901108,0.28359163,-0.015130281,-0.6262615,0.20278311,0.35647142,0.6306248,-0.7107394,0.55443454,0.8943969,0.99833703,-0.7106234,-0.45282114,0.6809664,0.62514544,0.8139521,0.64599895,-0.29514515,0.86613584,0.084076285,-0.8710308,0.21688092,0.28557575,0.93055785,0.5494137,0.29854524,-0.3377943,0.34115255,0.8252406,0.92640746,0.96633697,-0.27143943,-0.2595899,0.1865983,0.000739336,-0.7763469,0.73311734,-0.12491214,0.42819178,-0.9857726,-0.67684984,-0.9857191,-0.51949227,0.72977245,0.7695204,-0.7366121,-0.8946185,-0.6196383,0.8686943,-0.15328813,0.56550467,-0.037716746,-0.57681775,-0.9894122,-0.69897413,-0.87001,0.09336305,-0.8350389,0.24872756,-0.30043876,0.9772463,-0.64204645,0.9242928,-0.4931612,-0.021961212,-0.3985449,-0.17414916,-0.70367444,-0.6872641,0.6656394,0.7936945,-0.7694262,-0.10431874,-0.49076855,-0.8006458,-0.29966295,-0.26232553,-0.69230163,-0.057289243,0.2786585,-0.36113644,-0.73580694,-0.069601774,-0.6366341,-0.6475301,0.14568949,0.80175984,-0.36851776,-0.41436136,-0.7080375,-0.41480184,0.67815363,0.9486501,0.69996727,0.5594778,0.6055412,-0.1471777,-0.6451689,-0.041505456,-0.27052557,-0.6541474,0.51360834,-0.86433876,0.3751731,-0.037308216,-0.2132318,-0.14594424,0.05094695,0.8272041,-0.97820234,-0.7072271,-0.015617132,-0.037046194,-0.31559455,-0.27356923,-0.09720051,0.6066389,0.61562765,-0.6661341,-0.18580246,0.847013,0.870226,-0.27093112,-0.224792,-0.90011024,-0.9097192,-0.40282238,0.9309665,0.95970476,-0.8574095,0.42483258,-0.496907,-0.75664794,-0.52451086,0.40131354,-0.1960249,0.88845766,0.024197817,-0.8791175,-0.97041094,-0.32252407,-0.26555777,0.336532,0.18854976,-0.13903022,0.85536015,-0.6273395,-0.24672484,-0.9184432,0.066897035,-0.743945,-0.12761533,0.31119728,0.85832417,-0.66122365,-0.51985157,0.7922168,0.050540566,-0.41589844,-0.6428256,-0.8760048,0.5948943,-0.14287722,-0.6985984,-0.4327594,0.47012067,0.73656166,0.72615016,0.42725182,0.7988962,0.31397843,-0.2355181,-0.76972914,0.05284369,-0.5280086,-0.10717678,-0.7267518,-0.14655817,-0.7318238,-0.76278305,-0.55657125,0.71475244,-0.8085003,0.774696,0.4081391,0.73786736,-0.5698042,-0.17876112,0.03653419,0.7522733,0.14350021,0.9782717,0.24082398,0.9078374,0.8788276,-0.587523,0.12325263,-0.06991136,-0.15800214,0.21971142,0.4749713,-0.75496984,0.22187889,-0.26470828,0.9408233,0.6359861,-0.15433347,0.15574038,-0.84325933,0.70548725,0.8196554,0.38522482,-0.7633816,-0.6273595,0.00054478645,-0.18421543,0.6793262,0.014154077,-0.949041,0.39896774,-0.4079491,0.047258377,0.4303249,0.95359397,0.20333517,-0.048886538,0.55941975,-0.31595123,-0.30316842,0.6060089,0.367265,-0.5929493,-0.13627267,0.24715173,0.07548642,-0.52628493,0.08225131,0.15657341,-0.7271961,-0.11252737,-0.8435768,-0.17228508,0.35570943,0.25363648,0.64717436,0.3205961,-0.57900286,0.38176048,0.6505804,-0.84847605,-0.28837943,-0.8495923,-0.39230192,-0.040437102,0.28848958,0.34383345,0.6197382,-0.45674253,-0.54992235,0.6938691,-0.2626444,0.19244552,0.7817732,-0.6160314,0.46630502,0.3588761,0.5157577,0.44025433,-0.9546524,0.8624964,-0.1954472,0.80460286,-0.55157816,0.31886363,-0.7277931,-0.3356377,-0.3685094,-0.042382836,0.3352635,-0.4530213,0.9778955,0.6017289,-0.61317945,0.0009545088,0.42567766,0.6025717,-0.92734075,-0.9470972,0.81817377,-0.43938744,0.6722263,-0.8850161,-0.72266376,-0.99105406,-0.3827201,-0.87761676,0.79236114,0.72077465,0.23539603,0.7973541,0.4248426,-0.521374,-0.23543096,0.43920934,-0.39306903,0.0039930344,-0.7557373,-0.3033973,-0.21462548,0.26850772,-0.9829316,0.67723835,0.3409121,-0.58255327,0.52998674,0.7362931,0.48320603,0.58277476,-0.521479,-0.6282767,-0.38202715,-0.02185762,-0.15455842,-0.43187022,-0.83503413,0.1977067,0.43004835,0.07437825,-0.43515575,0.067050576,-0.7731632,-0.16856885,-0.72491217,0.8236321,0.73754156,-0.4995817,0.75855243,-0.27675474,0.20276725,0.6624907,0.3797741,0.12122393,-0.5157801,0.6284945,-0.40548134,0.09736657,-0.76102316,-0.05627072,0.84503675,-0.025835395,0.14646482,-0.8112551,-0.64086235,-0.5229578,-0.15879536,-0.80779123,0.57167804,-0.7655113,-0.55850065,0.88788855,-0.18118024,-0.8804288,0.82675445,0.27891922,-0.99024296,-0.6732031,0.85369146,0.09073615,-0.50257695,-0.26847756,0.46643734,0.94880056,-0.31985557,-0.20086312,-0.07124996,-0.79086554,-0.7753196,0.7517313,0.9860126,-0.22981703,-0.64317214,-0.6217258,0.74727845,-0.2563398,0.5795336,0.4671327,-0.4721911,0.43440354,0.66384304,0.9866196,-0.33055866,0.6598877,-0.10451484,0.2604742,0.9160541,0.646907,-0.91030896,0.50683534,-0.17602849,-0.98032737,-0.11493325,0.60825396,0.57293737,0.33634531,0.7206327,0.32502627,0.83588445,-0.5822717,0.62511337,-0.4711393,-0.0820899,0.73144567,0.513345,-0.2877673,-0.15405428,0.03867817,0.2444129,-0.15614438,-0.88827956,0.8689989,0.48746872,0.50712335,0.23482144,0.38471937,-0.06017244,0.25834775,0.4002967,0.7314768,0.1761949,0.3170966,0.055585146,-0.5798899,-0.16754842,0.54810953,-0.19049382,-0.020800829,-0.8348094,0.03433156,0.57690585,0.044324994,-0.36859715,0.7248987,0.6988429,-0.33211052,-0.7390276,-0.42006075,-0.9678602,0.8731817,-0.050413847,-0.8551599,0.9054339,-0.5505829,0.30754364,-0.86902416,0.111941576,-0.28678882,0.4820646,0.47341764,0.61994433,0.6200162,-0.5264622,0.82721555,-0.7096317,-0.22608876,0.24182475,-0.7567334,0.6608249,-0.10767889,0.6125896,-0.69431174,-0.15587974,0.121956706,0.1750474,-0.76873887,0.3913983,0.7329217,0.8174459,0.42482567,-0.9313446,-0.6790277,0.81200373,-0.64278793,-0.9735329,0.9871175,0.14758718,0.7714822,-0.29184592,-0.40488648,0.20097613,-0.16878283,0.9046118,-0.5978757,0.36946905,0.50006044,0.90399694,0.010618806,-0.40019655,0.756196,-0.86137307,0.20802939,-0.6969876,-0.30274153,-0.47708488,0.89805496,-0.0871371,0.9308064,-0.1720072,0.6939025,-0.41037,0.04892373,0.75685704,-0.44307566,0.7075473,-0.2438035,-0.7800026,-0.9019493,0.7121403,-0.09610033,0.034374833,0.55067074,0.24104452,0.05662906,-0.9066092,0.6978321,-0.95863235,0.71721137,-0.8520913,-0.3283069,0.7914455,-0.9246007,-0.7180761,0.5839181,-0.6440207,0.6633425,-0.36934972,-0.28033614,-0.8622427,0.15663528,-0.9545059,0.7567965,-0.3070327,0.092986465,0.2653873,-0.87974167,0.86586,0.12065995,0.6256064,-0.6135467,0.4864931,-0.8636024,0.62726426,-0.06835699,-0.94178545,0.40946996,-0.24929094,-0.82153857,-0.3352672,-0.77914155,0.04863286,0.15030348,0.8710048,0.098258615,0.7779645,0.4310218,-0.2063713,0.81074524,0.34197164,-0.1374234,-0.9909226,-0.1197567,0.021548629,-0.46108985,0.647547,-0.70983756,0.35596442,0.7214806,-0.5954952,-0.2808622,0.81558406,0.36976516,-0.5432012,-0.38827038,0.5608487,-0.3326372,-0.9168961,-0.55408597,0.15473342,-0.05485618,0.11772275,0.73079526,0.7740909,0.13401341,0.054267883,-0.32756555,0.47695184,-0.179165,-0.7283479,0.94908607,0.46288145],"bias":0.6513638},{"activation":0.6965412,"weights":[0.26538324,-0.0008249283,-0.7991929,-0.537874,0.039318204,-0.1066463,0.2415837,-0.7350668,-0.3796023,-0.24377215,0.95805013,-0.7454461,-0.4297377,0.5227196,0.9630722,-0.28794515,0.68692183,0.3403653,-0.20948482,0.60237646,0.08666217,0.012568712,-0.92537796,-0.15403938,0.51723135,0.8090311,0.6392982,0.9807348,0.48103857,0.6236105,0.893343,-0.25108814,-0.6974827,-0.062862515,-0.24271214,-0.19560778,-0.4086504,-0.35694158,0.058723927,-0.46409452,-0.3152964,0.9509703,-0.95017755,-0.48922133,0.36476886,0.00024998188,0.077206254,0.67263985,0.96204567,0.9564364,-0.79874945,0.77353096,-0.053623557,-0.9358728,-0.9677268,0.7180617,-0.40366912,0.6120347,0.18006802,-0.16845119,-0.8569534,0.91776955,0.054350615,0.111062646,-0.47059095,-0.45944107,-0.9523823,0.22152853,-0.9982617,-0.36918676,-0.70012367,0.082036614,-0.025915861,0.3044485,-0.89006615,0.3974433,0.10272372,-0.12026405,-0.9681332,-0.71104133,0.6298641,0.9030988,0.43551767,0.27240074,0.6847198,0.25316298,-0.64240336,0.0011935234,0.83044577,-0.024930358,0.9178021,-0.50668633,0.47432208,0.00692451,0.13842392,0.10975468,0.6103426,0.94068503,-0.67365706,0.4513662,0.07459533,0.36760938,0.6346816,0.042364597,0.0029927492,-0.029402137,-0.46638322,0.26437223,-0.18629551,0.69659233,-0.44472957,0.4947821,-0.5279491,0.32056844,-0.29947245,0.21381009,-0.5220045,0.716975,0.67284226,0.20017517,0.5933856,0.9021958,-0.2090429,-0.29442215,-0.3064158,0.015143514,0.5022602,-0.3312329,0.80416,0.20975912,0.6063739,0.7229531,0.10371339,-0.7481166,-0.10863793,-0.70258284,0.103399396,0.9737704,-0.18655884,-0.9670346,-0.4265486,0.5167923,0.5245527,-0.14626586,0.07726562,0.47344065,-0.6323478,0.32422817,0.1530093,0.8640057,0.031627893,0.52154815,0.6817552,-0.52476215,-0.00910902,-0.6838075,-0.9426147,0.47914279,0.12995243,0.10992491,0.5373955,0.8773235,0.907127,-0.18989658,0.08434439,0.7269753,0.36790776,-0.9299865,-0.47209132,-0.69424164,-0.85523295,0.7557912,0.9454069,-0.45111096,0.06888318,-0.58736455,-0.5773066,0.69123673,-0.15050983,0.23267698,-0.56958985,0.23279095,0.91909647,0.8302139,0.2966628,-0.9261447,-0.17649734,-0.7071605,-0.53159523,0.67039347,0.06423354,0.4963677,-0.30901754,0.68685865,0.43266845,0.3724141,-0.2651254,-0.44031596,0.6622534,0.64971066,0.7231914,-0.276119,-0.7605574,0.6319388,-0.40941346,-0.052541852,0.33638954,0.22952509,0.84145546,-0.18778789,-0.8617803,-0.48431635,-0.74724245,0.49834585,0.16115844,-0.76647925,-0.92712283,-0.5844611,-0.58437157,-0.5553117,-0.028048754,-0.055208564,0.7037518,-0.8579756,0.17071879,-0.4794613,0.6056317,0.279207,0.71405613,0.8153051,-0.6001457,0.97452295,-0.8406043,0.6622379,0.98573935,-0.89352334,0.8450959,-0.17174172,0.46463335,0.5333215,-0.5240778,-0.48705018,-0.54168606,-0.34648716,-0.093686104,-0.27486658,0.012847304,0.5341581,0.9128233,-0.4329015,-0.40645182,0.03119111,-0.3965193,0.64148486,-0.11720371,-0.81897426,-0.8365022,0.95997894,-0.40910375,-0.24079013,-0.99496734,-0.96080244,0.82621825,0.08914912,-0.9965811,0.71653044,-0.7274196,-0.6879494,0.14539647,0.7878932,0.6935439,0.18447244,-0.5223881,-0.17188215,-0.22595763,-0.48469627,0.6653987,-0.26063967,-0.76713073,-0.020499945,0.38026989,0.31093216,0.3497486,-0.075303316,-0.6744641,-0.5099133,0.016249895,0.8170552,-0.97666717,-0.9196454,0.18235731,-0.82033145,0.80576646,0.8438053,0.024302483,-0.27813315,0.2242316,-0.5501449,-0.8435365,0.39307702,0.9578247,0.80563354,-0.51537836,-0.92494595,-0.97493565,-0.24282408,-0.6324538,-0.6814219,-0.22684562,0.38454962,-0.29333842,0.5739993,-0.034124017,-0.73900306,0.013695359,0.59138167,0.19490695,0.9728085,0.44262195,-0.066866755,0.5133201,0.5493865,0.31079376,-0.59343517,0.42287886,-0.19941735,0.49276388,-0.20151412,-0.33052325,-0.008093834,-0.34961057,-0.07082844,0.74456155,-0.602247,-0.28714204,-0.47949553,-0.30892086,-0.54713917,-0.13608408,0.18949986,0.102998376,-0.1275568,-0.09696782,-0.04782045,0.4331658,-0.26163924,0.3671707,0.11556935,0.8659749,0.2147541,0.6314205,-0.77383125,0.6168995,-0.58371127,0.7861177,0.78490937,0.9746592,0.08025277,0.1432569,0.5694437,0.4421327,-0.15885508,0.14578485,0.57062113,-0.7341666,-0.24266052,0.30821705,0.5840211,0.47775102,-0.3476379,0.68809664,-0.4109999,0.88885844,-0.57381463,-0.82211614,0.4609964,-0.22533524,0.10306847,-0.4439602,-0.045701385,0.020547867,-0.39241898,-0.8466183,0.750767,0.9104099,-0.6770743,-0.82143533,0.59955156,0.6589662,0.48585534,-0.99748015,0.69828534,0.044147134,0.6407498,0.6384306,-0.6880379,-0.61071384,0.5134233,0.3463341,0.58429885,-0.98724663,-0.6215799,0.2506019,-0.8622656,0.43413234,-0.79571176,-0.650187,0.0718776,-0.21100068,0.96704197,0.95749426,-0.80111647,0.9434253,0.30627346,0.9311056,-0.8782201,0.43303502,0.13098812,-0.694517,-0.72207594,-0.6401454,-0.9060521,0.858014,-0.5227101,0.426188,0.3853159,0.9084594,-0.9753355,0.56417763,-0.5682459,-0.423154,-0.093484044,-0.4844923,-0.3164451,0.49631238,0.10645676,0.14682174,-0.57495403,-0.9943483,-0.4242494,0.4673109,0.96757376,0.5297947,0.8404007,0.5059991,-0.2781763,-0.10962784,0.8236768,-0.93632805,-0.6097332,0.40255165,0.18066406,-0.2918905,-0.100400686,0.6327785,-0.32135153,-0.44975948,0.47986794,0.7064538,-0.6512122,0.3103242,-0.69799614,-0.44128287,-0.13151622,-0.973631,-0.7434963,0.1343,0.6821563,0.5712106,-0.48024762,-0.22962415,-0.725687,-0.62013066,-0.5156621,0.26625693,0.47703493,-0.01409626,-0.64740884,0.95784485,0.65797794,-0.9227388,0.36620557,-0.6254395,-0.7650045,0.6695765,0.06997025,0.17273831,0.1967957,0.58691823,-0.37130105,0.069583535,0.9546523,0.32846355,0.029193759,0.32931113,0.298411,0.23721814,-0.13656175,-0.67900145,-0.2283802,0.41974735,0.7474319,0.348485,0.8607391,0.5969765,0.7043699,-0.40313733,-0.49630773,-0.6071665,-0.27228737,0.5922103,-0.6081444,0.76199186,-0.13727868,0.49551463,-0.41231477,-0.64498067,0.27070415,0.8264681,0.4423567,-0.050891757,-0.796684,-0.21496558,0.32248366,0.28225625,0.47643805,0.9282807,0.4568771,0.22813642,0.78403676,0.1627785,0.7359433,-0.7843517,-0.06151235,0.7372129,-0.8865998,-0.9511093,-0.37252855,0.09414518,0.60250545,-0.5687827,-0.6795777,-0.2576301,0.9503913,0.2609663,0.7818204,-0.75611293,0.6188849,0.99428487,-0.704749,0.44792402,0.28794563,0.4192922,-0.95199573,0.76859987,0.99273133,0.6332556,-0.037687063,0.822044,-0.36966753,-0.33231378,-0.25725842,-0.9728527,-0.34342837,-0.22209144,-0.2746551,0.6154815,-0.75413096,0.6578833,-0.2322371,0.9650341,-0.71782184,0.50134635,0.28085196,-0.21871996,-0.31526446,-0.2385031,-0.4509834,0.14820683,0.606354,0.1474495,-0.90815175,-0.14289236,-0.53446543,-0.23837328,-0.68948174,0.19361699,-0.45693374,-0.9813889,-0.07148528,-0.77444375,-0.11732912,0.7727114,-0.7821318,0.50467205,0.8641012,-0.7693387,0.12423897,0.43549895,0.1121676,-0.3788693,-0.73335445,-0.87512875,0.655022,-0.6279793,-0.45380688,0.5356003,0.5033264,0.9448534,-0.7715907,0.047862887,-0.70818925,0.8805858,-0.087477565,-0.5421568,-0.35908163,-0.79338884,-0.11519325,-0.5191525,0.6978421,0.7030326,0.61168265,-0.6582525,-0.45796955,-0.31943786,-0.46797287,-0.8917879,0.77317977,-0.9131112,-0.873392,-0.057755828,-0.030346513,-0.51937556,0.74271154,0.6744119,-0.041009545,0.22976851,0.7947017,0.45582616,-0.5193074,-0.80393755,-0.36962605,-0.369568,-0.57361186,-0.48279095,0.12608528,0.3109635,-0.14058495,0.9886751,0.18280315,-0.53393507,-0.29832113,-0.5262344,0.9486644,0.40235186,0.6500288,0.45095265,-0.278448,0.857195,0.66339517,0.97582984,-0.42615557,0.8435637,0.102096796,0.28511417,-0.83853996,0.25724387,0.7345084,0.7128806,-0.1400671,0.2138995,0.5740037,-0.43482757,-0.71777415,-0.86054647,-0.07851577,-0.36871946,0.053616405,0.71967363,-0.5195162,-0.81033933,-0.24275732,-0.7908044,0.7385602,0.10006189,0.86410224,0.26590776,-0.87846756,-0.6761782,-0.34948123,-0.8261237,0.07118189,0.2046845,0.7279817,-0.9240608,0.78286946,-0.2967342,0.20414042,0.7258874,0.84450316,-0.43264973,-0.93385947,-0.06615543,0.033537388,-0.71009326,-0.8334782,0.94260585,-0.559677,-0.6208726,0.017831206,-0.7948204,-0.86430705,-0.951043,-0.1768862,0.15805054,0.8537184,-0.2142235,-0.8893001,-0.87992895,0.10021579,-0.33517563,0.1832174,0.8124641,0.47663414,0.7225647,-0.15080237,0.1108309,0.9775137,0.7990327,-0.63195133,0.767136,0.4463476,-0.82130194,-0.8393419,-0.32259262,0.8098239,-0.0011940002,-0.6257031,-0.078700304,-0.98431265,0.9574709,-0.9886422,0.5296049,0.14611173,0.43070173,0.5073137,-0.68679285,0.90011716,-0.3926847,0.047987342,0.5533595,-0.66365325,-0.69560325,-0.031046629,-0.42081952,-0.7358587,0.7203524,0.45767307,0.8139478,0.43236887,0.76458776,0.25252664,0.3856392,0.50460947,0.7231438,0.27284908,0.7807083,0.18740177,0.4300021,-0.50425196,-0.030786395,0.22409284,0.18375397,-0.20965064,-0.34694076,0.89914346,-0.36235535,0.80615103,0.18932056,-0.74207425,-0.046766162,0.00039184093,-0.1442225,0.45363462],"bias":0.57084614},{"activation":0.3402364,"weights":[-0.2787068,-0.12578058,-0.7024746,0.17246103,-0.18671572,-0.72076845,0.30838692,-0.7722665,0.32979226,0.3671434,-0.26209617,0.9694376,0.002552271,-0.36648834,0.59741354,-0.2046485,-0.6286973,0.16657245,0.07545352,0.9316907,-0.010291338,0.9883454,-0.17030156,0.6258482,0.48189437,-0.05206275,-0.7451712,-0.69277644,0.6627381,-0.24572885,0.5873791,0.026060581,0.45416117,-0.46906078,-0.10346699,0.6825737,0.77146554,-0.30877435,-0.110740066,-0.03702259,-0.78880095,-0.067227244,-0.71584153,-0.27473283,0.6370671,-0.7959205,-0.45159996,-0.85579073,0.89356065,0.4200648,0.47963214,0.20129907,0.9894484,-0.07887304,0.90503335,-0.62833285,0.08213127,0.5394844,0.8711623,0.9598979,0.09093428,-0.037605286,0.4492234,-0.5100534,0.5105692,0.7304547,-0.13055313,-0.7483208,0.4167974,0.61067283,-0.47680092,0.69425917,0.43707907,-0.46992195,-0.6839818,0.5679283,0.9980992,0.99198353,-0.91487205,0.6364958,0.63899076,-0.026817203,-0.9202155,0.2163769,-0.41321385,-0.16110098,0.8505095,0.15701783,0.23947573,-0.21643257,0.60277855,-0.055580497,-0.95894575,0.29866755,-0.31458008,0.8019116,-0.694013,0.49463975,-0.16783285,0.023087978,0.94115925,-0.91448927,-0.81625223,-0.6974032,-0.8617499,-0.69906723,-0.29869485,0.47962344,0.4764005,-0.52860355,0.36424494,-0.24900866,0.91542876,-0.50417364,-0.5909817,-0.33550453,0.86241746,-0.19006598,0.5504781,-0.0015172958,-0.094370484,0.8385153,-0.6088277,0.69990766,0.42101073,-0.41747153,0.5110792,0.680364,-0.2834742,0.84502876,0.8443352,-0.8645741,-0.2446804,-0.49559498,-0.19486046,0.004119277,-0.42031038,0.20110893,-0.06593704,-0.026289225,-0.09038317,-0.28494143,0.67839456,-0.28057897,0.9646292,0.21839261,-0.43111873,0.63719857,-0.057768226,0.59959924,0.33081293,-0.8905096,0.46089816,-0.38226354,0.998819,0.6111169,-0.6003325,0.6760721,0.7691144,0.26006603,0.57756793,0.5269247,0.8405322,-0.7343285,0.774585,-0.37796497,0.84635544,-0.9243822,0.71752095,0.8731544,-0.4275459,0.8342233,-0.31061578,0.08108485,0.25652635,-0.010948539,-0.76056635,-0.1481849,-0.8703295,0.62152445,-0.7890897,0.9004133,0.71727335,-0.7018461,-0.2093308,-0.68866694,-0.24152029,-0.90581405,-0.083007336,-0.5308012,-0.30497396,0.9648018,0.95985615,-0.6058923,0.46301687,-0.22385836,0.7582474,0.14196491,-0.09496498,0.34893882,-0.3813238,-0.6413586,0.7992157,0.7555754,-0.29924166,0.5388168,0.86664414,0.30176163,0.045177817,-0.8396075,-0.8858857,-0.5540217,-0.5730276,-0.7114824,0.81294906,0.18978834,-0.6821475,-0.7259525,-0.22864091,-0.44093394,-0.761418,0.9279238,-0.891039,-0.91597223,0.66479814,0.13920522,-0.060727715,0.72890484,-0.43872213,0.41537762,-0.9142543,-0.110070825,-0.42641544,0.09132326,0.841383,0.70897436,-0.11487973,-0.29528117,0.08905923,0.44878066,0.7585169,-0.5671767,0.2696476,0.3836615,-0.1972816,-0.22877169,-0.945416,-0.18275762,0.99953854,-0.71545506,0.6361816,0.6245848,-0.37514162,0.12952852,0.62375534,-0.40307403,0.8739023,-0.7446952,0.4000765,-0.08279109,-0.99577343,0.34548926,-0.9145634,-0.66667116,-0.72708714,0.9462887,0.62669814,0.20459878,-0.86492884,0.83825123,-0.9302707,0.9751024,-0.80236244,0.6733439,0.5080975,0.17143977,-0.13314831,0.0027149916,-0.031832576,0.22088659,0.25645494,-0.57266223,-0.2840563,0.84361804,0.84695566,0.04218173,0.17648053,-0.85361004,0.13952136,-0.38081276,0.792097,-0.6928408,-0.7940694,0.8042736,0.35507333,-0.8112248,-0.554471,0.1409471,-0.40265703,0.022666335,-0.34158194,-0.12689531,0.389292,0.5400481,0.4145975,-0.24205673,0.8413173,-0.31823814,-0.65780866,-0.16166973,0.4734807,-0.45452273,-0.5959089,0.7241081,0.24513507,0.9655124,0.8484936,-0.024846315,-0.47518098,-0.530465,-0.601653,0.39568675,0.33166683,0.91439974,-0.57963264,0.016220093,-0.12344313,0.17905974,-0.2809186,-0.24472153,0.43158805,-0.27894914,0.8853923,-0.9897771,-0.4249426,-0.3377087,0.026870728,0.7539853,-0.1902982,-0.94864416,0.5658941,-0.22663891,-0.63867235,0.18719113,0.72943676,-0.18971503,0.35935676,-0.8149314,-0.8279753,-0.24923801,-0.28771245,0.5663352,-0.25237787,0.8635043,-0.91501224,-0.021842241,-0.21593523,-0.058032393,-0.5230348,-0.40239334,0.63779855,0.04449618,0.45547807,0.80674326,-0.46932793,0.9991716,-0.90666044,-0.52023804,0.8692508,0.116116166,0.50643563,-0.34889555,0.3508942,0.94610393,0.12794769,-0.75739956,-0.44297063,0.44013286,-0.5122609,0.44770098,-0.80699027,-0.17344499,-0.03634715,-0.41771388,0.82644546,0.43841302,0.21119833,0.35045707,0.33264828,-0.83921325,-0.34940028,-0.32018435,0.38072157,0.54267454,0.63432133,-0.3994342,-0.42462742,0.16302466,0.3918817,-0.34242034,-0.7090453,0.69232035,0.085223794,0.6518593,-0.42107916,0.87314093,-0.16376162,0.8101132,-0.18510485,-0.18341756,0.25458574,0.12721646,-0.52636576,0.9715452,0.35074902,-0.26830542,-0.9412111,0.5265429,-0.08314359,-0.38633478,0.2682073,0.7448026,0.3299086,-0.6485747,0.8481556,-0.9179169,0.8161448,-0.23981822,-0.38152385,-0.96669257,-0.7885107,0.43285406,0.82279325,-0.9331548,0.20607126,-0.3675574,0.41639173,-0.37631142,0.625149,0.38170314,0.41969883,0.9291681,0.8630612,0.47086334,-0.74664474,-0.73770285,-0.7796166,0.20607865,-0.7543725,-0.94258595,-0.03550303,-0.9879017,-0.39118624,0.8485439,0.52746975,0.80862916,0.85459423,0.11032498,0.23358107,-0.36165345,0.09347308,-0.89404035,-0.8250625,-0.91928136,0.103506446,0.5927527,-0.61671066,0.82371616,-0.71088994,0.0049306154,-0.40370715,-0.2019676,0.41088188,-0.8100585,0.5679351,0.9131806,0.73657167,-0.556381,-0.43252587,-0.8865391,0.9028021,-0.32295847,0.43370283,-0.8341336,-0.68695855,-0.324216,0.38475537,0.36764884,-0.63385177,0.96741486,0.59590805,-0.81524026,0.7174306,0.2935896,0.858376,0.35373902,-0.73802245,0.26608503,0.9752375,-0.28008544,0.50734556,0.37209177,-0.99862933,-0.42610776,-0.8084643,-0.5241859,-0.38834572,0.9691602,0.23020124,-0.8696364,0.8736036,-0.88934445,0.59728575,0.15955818,-0.18907559,-0.45166552,0.7162237,-0.60756457,-0.45320272,-0.10623133,0.557546,-0.558833,-0.5041435,0.49370182,-0.23636663,-0.57712257,0.56543505,0.49201596,-0.3906709,-0.42352474,0.7703742,-0.33993435,0.301561,-0.7636447,-0.4586619,0.14606977,-0.49681187,-0.52824783,0.25821018,-0.9096991,-0.70229197,-0.6796918,0.96284664,0.44871724,-0.8618114,-0.68544555,0.10390735,0.22226512,0.2252214,0.9240937,0.07340789,-0.45258677,0.076874614,0.5816487,0.41898453,0.24171591,0.29982054,0.81665576,-0.69926417,0.5141947,-0.8652481,-0.32203627,0.57872045,0.10824168,-0.61888564,-0.6827936,-0.58176005,0.12508702,-0.5026803,0.41395783,-0.670928,-0.9851198,-0.09665084,-0.23498738,-0.88734734,-0.69420624,0.35449505,-0.55809736,-0.9708046,0.36315918,-0.17128098,0.59917486,0.51413906,-0.78632617,-0.7701831,-0.38747418,0.7824943,-0.2056154,-0.58308196,0.48617613,-0.57445645,0.22396016,-0.8553612,-0.89527416,-0.3760152,0.27791464,-0.15561366,0.43162024,-0.58829796,0.6956315,0.5104159,0.14095294,0.069980145,0.082879424,0.9215467,0.09024775,-0.6279286,0.101564646,-0.49104667,-0.85215616,0.22473717,-0.6299529,0.45075524,0.6656301,-0.68453634,0.29034412,0.28201497,-0.47089827,-0.87196124,-0.26611853,-0.3087492,-0.31077588,0.64315987,-0.21595323,-0.28353524,0.36349368,-0.7404002,-0.9973872,0.9264134,-0.6069187,0.70084584,0.22567534,-0.7823136,0.19740152,-0.5098393,-0.56319726,0.6090517,-0.5460961,-0.7221037,-0.039934754,-0.801018,0.20323634,0.6659926,-0.7240299,0.20857763,0.005566001,-0.337438,-0.19427109,0.010789394,-0.99506485,0.55344784,-0.3062606,-0.7374408,-0.3071015,-0.2601639,-0.19856441,-0.634346,0.3008814,0.76969266,-0.75929344,0.23701179,-0.7898518,0.18508422,-0.50373113,-0.50639176,-0.52811444,0.37032747,-0.42692673,-0.8269954,-0.66156805,-0.3142351,0.919556,-0.0052438974,-0.48230064,0.80750906,0.18489861,0.54696393,0.66999483,0.35793376,-0.32123363,0.72802424,-0.03115344,-0.44611967,-0.49263,-0.04493594,0.86794734,-0.729195,-0.1749965,0.06184721,0.898064,0.85084903,-0.1890297,0.13414347,0.648944,-0.7917758,0.64145696,0.71318233,-0.1937499,-0.22487736,-0.42694843,-0.2520765,-0.14132285,0.78012383,0.9863857,-0.086631656,-0.75903165,-0.14903724,-0.57324135,0.30378115,-0.4610151,-0.65764225,0.24048853,-0.5358927,-0.24472022,0.47862482,-0.83971584,0.1040771,0.4874636,-0.2657025,0.7528218,-0.39078224,-0.5970036,-0.06621587,-0.05076623,-0.69237626,-0.7384546,0.5301595,0.037133455,-0.8418417,-0.5859512,-0.78822124,-0.95548177,0.98574007,-0.1725862,0.7025205,-0.7427155,0.95144653,-0.013851285,-0.063751936,-0.8886808,0.6051059,-0.38468242,-0.6959332,-0.6005938,0.51750755,0.35424984,0.71929264,-0.26532924,-0.60524964,0.16956568,0.7705965,0.23718572,0.9512203,-0.24971461,0.16877174,0.95148087,-0.39042425,0.47907233,0.9642321,-0.45380318,-0.024250627,-0.21854675,-0.830994,0.39608777,-0.37139583,0.01470983,0.06173837,0.5160934,-0.7077006,-0.50856364,0.5951158,0.89580643,0.8856627,0.8128377,0.94872224,0.58636045,0.4022442,-0.26699245,-0.9255848,-0.28881657,-0.80376923,-0.764359,0.6465703,0.28652322],"bias":0.41248184},{"activation":0.999931,"weights":[-0.3842095,0.11989927,-0.54783726,0.49688494,-0.80058515,-0.219185,-0.43603492,0.64907837,0.5103152,0.7361945,0.27199697,0.55188465,-0.40849566,0.41342616,-0.13855958,-0.37335277,-0.68865836,-0.8456619,-0.92676294,0.8916153,-0.37475288,0.5877955,0.410918,0.93077004,0.98983014,0.8895122,-0.67722905,0.9277891,-0.80002654,-0.88751996,0.7188772,-0.3923334,-0.35445392,-0.27685094,0.5207715,-0.9019213,0.030702949,0.6118605,-0.57913446,-0.44281518,0.68386745,-0.38325202,0.92082405,0.61975,-0.45994067,0.46557474,0.3752607,0.90173185,0.58715606,-0.42504716,0.9446249,0.8405616,0.9706986,-0.06977379,0.91354394,0.9464867,-0.1899141,0.7375852,0.73900425,0.15888965,0.6089201,-0.0021629333,0.723418,0.20982838,-0.2010653,0.87572396,-0.05160868,-0.53674865,-0.91187274,-0.7078402,0.86803436,-0.84279203,-0.15390885,0.7196574,0.77174306,-0.7345394,0.16307127,0.3697418,-0.53794634,-0.38037443,-0.46533382,0.67076755,-0.38581276,-0.5799922,0.7101877,-0.46121752,-0.015368104,0.90411186,-0.9939035,0.087129,-0.15667379,0.8070909,-0.97726285,-0.14333367,-0.75427616,-0.37177122,0.29649234,-0.796469,-0.887033,0.8531519,-0.51016235,0.31804192,-0.73386395,-0.20363116,0.20150316,0.47431922,-0.56308794,-0.9597397,0.0715214,0.78161323,-0.2510873,0.7588352,-0.6953677,-0.49223697,0.4341681,-0.38184905,0.46610582,0.9875586,0.13140547,0.4159416,0.45164144,0.6659095,0.49839175,0.44783175,0.17672443,0.8419585,-0.101172805,0.9697758,-0.24728906,0.5267613,-0.72826564,-0.07076907,-0.9346944,-0.064071774,0.79024434,-0.2122165,-0.897684,0.30537665,-0.6851789,-0.2014637,-0.034630775,0.05294752,0.32726884,0.5006455,0.8921112,-0.3478644,0.47917747,-0.5390847,-0.4592793,-0.2367078,0.9708966,0.46881056,0.8305422,0.3093785,-0.015556455,-0.7496097,0.3791548,0.004668832,-0.61958575,-0.4803599,0.13802004,0.18851209,-0.4817381,0.80513597,0.69728386,-0.24961638,0.57510173,0.7531481,0.4119339,0.21668673,0.78113973,0.19209194,0.3759116,-0.6188643,-0.84264505,0.27081025,0.31690443,-0.5818441,0.17480338,0.44177246,0.0076806545,0.07639706,0.6264539,0.65797615,-0.67584467,-0.77346444,-0.06379616,0.58075416,-0.946172,0.0017119646,0.18274093,0.68294764,0.40561473,0.004074216,-0.806749,-0.7984412,-0.77207255,0.07917285,0.53805745,0.2412988,-0.08623195,-0.010219216,0.45569658,0.71109235,-0.5649229,-0.23866212,0.39223242,-0.9936665,-0.92518556,0.4816438,0.3229072,-0.68349695,0.25518787,0.30424702,0.89288723,0.5642953,-0.6821215,0.07652414,0.16902459,0.66989243,-0.8668572,0.6040193,0.99098027,0.8787265,0.63675284,0.7621931,0.6999161,-0.7772378,0.5992451,-0.16255355,-0.084267855,0.366315,0.3983307,0.15465248,0.58481455,-0.50187933,0.34258807,-0.039744854,-0.1574955,-0.5174378,-0.9846041,-0.28565562,-0.021237731,0.49032104,-0.90045476,-0.60513604,0.8365774,0.047094107,-0.9842187,0.8085884,0.57489836,-0.9157771,0.09532642,-0.51919484,-0.24450552,0.25469768,-0.33912587,0.9426477,-0.3205639,-0.5652362,0.6009462,0.98069894,0.88708353,0.96454203,0.81123257,0.520542,0.3868301,-0.38494074,-0.44431818,0.7256278,-0.09457362,0.45433354,-0.53556633,-0.6319045,-0.86192656,0.043189526,0.45358908,0.3182019,0.80023146,-0.17093456,0.8962525,0.112392545,-0.3987987,-0.59944785,-0.038398385,0.4074428,0.91189146,-0.896052,0.31628847,0.86683524,0.17434216,-0.5340141,0.9295559,-0.2591771,-0.59012294,-0.53100383,0.08015895,-0.99357545,0.022962928,-0.35999596,-0.35647476,0.26458275,0.6165453,0.48393452,-0.065056324,-0.6982746,0.50158393,0.59541094,-0.22079337,-0.16557992,-0.09051764,0.007884145,-0.4997486,-0.62084746,0.8093687,0.95205355,0.018000484,-0.3750931,0.985587,-0.19642937,-0.6204183,0.5099511,-0.8170258,0.809927,-0.43797028,-0.26354837,-0.258152,-0.14232099,-0.14254475,-0.5545682,-0.21920824,-0.77127516,-0.70229006,-0.68823516,-0.16979444,0.2344656,-0.9734827,-0.81348443,-0.5435648,0.79722273,-0.2506609,-0.5756676,-0.23012102,-0.33178675,-0.4646442,-0.95541906,-0.43132567,0.72085583,0.76915884,0.7926421,-0.9933747,0.87539685,0.67064583,-0.68584704,-0.581208,-0.7906791,0.39486706,-0.4891342,0.15304899,0.7047448,-0.39152515,-0.086995244,0.78828084,-0.96541107,-0.033372402,0.052632213,0.4571452,0.47729337,0.6731,-0.82612395,-0.633283,0.7516136,-0.6014688,-0.51476574,0.98933995,-0.6097715,-0.4041314,0.66367483,-0.66678405,0.6918739,0.37665904,0.5699661,-0.11934757,-0.3741119,-0.43261778,-0.057955027,0.9012104,-0.8766917,0.09741831,-0.45710552,-0.6813638,0.1652968,-0.7382853,-0.5753484,-0.8475945,0.7954997,0.5609386,-0.93474257,-0.25104654,-0.36138344,0.35396194,-0.6282276,-0.72676384,0.0778389,0.057827234,-0.99017715,0.007836103,0.5855534,0.8731818,0.61989534,0.10594475,0.2907231,-0.030257821,0.37280035,0.98507524,-0.29211402,0.012871623,0.11018312,-0.09305084,0.7674091,-0.70531726,0.49427915,0.3928423,-0.04182291,-0.2721827,-0.3704462,0.43989372,-0.10449779,-0.4747703,0.70131195,-0.12870514,0.052717924,-0.63628066,0.46582317,-0.5711448,-0.09778333,0.93171644,-0.62900734,-0.27796543,0.40981638,-0.34199739,-0.88961434,0.6919067,-0.029443145,-0.18469644,0.8704946,0.5542917,-0.58837986,0.40726805,-0.5624465,-0.6732074,0.9860959,0.28712773,-0.23367989,0.02323234,0.34722292,-0.5403782,-0.07776952,-0.28951955,-0.20884466,0.32872367,-0.05552411,0.3971796,0.7322887,-0.18945134,-0.012447715,0.7995558,-0.40376973,0.49602473,0.26816833,0.49923384,0.24651504,0.028912663,0.15930176,0.3664384,0.6575774,-0.7740574,0.9760827,-0.87994695,0.72773135,0.069247246,-0.026956558,0.9779185,-0.54244053,-0.28503358,-0.47425246,-0.5431278,-0.63106287,0.94956243,-0.8474159,-0.06408882,-0.6077919,-0.8702904,0.35718215,0.8131709,-0.112612486,0.39519823,-0.5135405,0.5550693,-0.18871617,0.5847398,0.7104019,-0.7711756,-0.11645913,-0.016073942,-0.5245789,0.24675155,-0.6396309,0.27776623,-0.357682,0.8284248,-0.58706355,-0.52636063,0.80898476,-0.6068746,-0.081148624,0.58530545,0.1898036,-0.6135421,0.48203552,0.8917624,0.52773166,0.38272333,-0.08249521,0.13517857,-0.48595488,0.66718554,0.5819031,0.41847074,-0.98803484,-0.13977635,-0.9799653,0.0021890402,-0.67235184,-0.68669593,-0.4042418,0.7221298,-0.6704999,-0.6190187,-0.78920984,0.037782907,-0.55568135,-0.40533853,0.99140596,-0.15801656,-0.25932252,0.72812176,-0.19753456,-0.17654312,-0.5803013,0.18551278,0.12849188,0.5866133,-0.37927413,0.74873745,-0.42316484,-0.8013686,-0.39596117,-0.027520537,-0.84000266,-0.37970972,-0.47092772,0.018135786,-0.3686173,0.38799775,0.30951428,-0.69277227,-0.14921796,-0.72571945,0.5290147,-0.06746578,0.5782981,0.23289394,-0.049734473,0.114434004,-0.8904182,-0.2631687,0.9042666,0.90618324,-0.18184686,0.7733257,0.28712487,0.7434958,0.0797019,0.5963752,0.67260575,-0.9002168,0.47418416,0.89124393,-0.033410907,0.945976,0.75927484,-0.37316668,-0.41962945,-0.6436417,-0.21568096,0.77912056,0.9896585,0.81780505,-0.19678855,-0.5271418,-0.043094277,0.17060745,0.537958,0.7285086,0.16481113,0.58457124,-0.34803915,0.5528846,-0.84740293,0.5312809,-0.86120844,0.52385116,-0.43848574,0.88880014,-0.30324554,-0.9282452,-0.8315382,-0.029221296,-0.88885105,0.72506607,0.697561,0.5064777,0.127918,-0.46470356,0.21011126,-0.113075614,0.084746,-0.18514156,0.04681945,0.5761441,0.3034153,-0.3040706,-0.9975691,0.04686296,0.8377677,0.9556514,0.38653207,-0.5853404,-0.6595408,-0.004093051,-0.7903464,0.3554467,-0.41012216,0.98545706,0.24957526,0.5188608,0.11319363,0.53863144,-0.61780834,-0.9842582,0.47387922,0.6204183,-0.9546317,0.6654464,-0.53508556,0.17057776,-0.8396541,-0.9156425,0.075895905,0.90905,-0.5117855,0.10876274,-0.008932471,0.588693,-0.53503203,-0.67584276,0.44968128,0.42651057,0.29550576,-0.04043007,0.93502676,0.40523922,-0.18900096,0.6555439,0.41072345,0.78867173,-0.89990115,0.97082055,0.29304302,-0.7137933,-0.35910583,-0.572399,-0.396721,0.58183837,0.83534694,-0.9054431,0.47382843,-0.84215844,0.37702763,-0.39231265,-0.049550056,-0.69876254,-0.75335884,0.34181964,-0.6245065,-0.58635676,0.16452622,0.24547875,0.6655073,0.23694456,-0.7292129,0.96517265,0.27798355,-0.927982,-0.21709251,0.47709203,-0.28830087,-0.22070575,-0.9788333,0.29408574,0.67954147,0.22252011,0.58101726,-0.27812147,0.23293293,0.9706056,-0.7918632,0.62053573,-0.8936868,-0.61193573,0.64652455,-0.7100595,-0.031397462,0.8444016,-0.8597121,0.71226525,-0.43012857,0.307675,-0.70108235,0.2864555,-0.27745962,-0.27247488,0.30614686,0.549425,-0.28348875,-0.6167834,0.15728474,-0.37509358,0.9912293,0.011534452,0.5338373,0.041733027,0.30835068,0.028442264,0.20170403,0.38752127,0.8501365,0.43377364,0.39981735,0.6103041,-0.18064976,-0.6224543,0.11876154,0.70125747,-0.28806984,0.3063296,0.3405851,-0.04341197,0.0003324747,0.6009562,0.30045962,0.3014511,-0.22645414,-0.6468127,-0.21542108,0.58674693,-0.80198455,-0.6769165,0.39823973,-0.61519194,0.56887686,0.53992105,-0.7515013,0.6997404,0.06468713,0.011460543,0.5035422,-0.7223797,-0.16767228,0.6332598,0.435436,0.46398997,0.34313333],"bias":0.16383946},{"activation":0.00016479542,"weights":[0.72976744,-0.7508949,-0.6915375,0.58517957,0.97213066,0.23525691,-0.283857,-0.023323894,-0.82229877,-0.4368006,0.37936652,0.9473702,-0.42965817,-0.49260998,-0.69771624,0.5663941,-0.5403739,-0.9505482,0.023072362,0.09594357,0.44423604,-0.47513664,-0.21817517,-0.56292677,0.26583302,-0.5736153,-0.77729714,0.25256205,0.628948,-0.23525977,0.3984517,-0.838958,-0.64584196,-0.4752649,-0.36708045,-0.3990873,0.95808935,-0.56973207,-0.62300587,-0.27196646,-0.552171,-0.009460926,-0.884552,-0.5345746,0.56996465,-0.15734208,-0.9148189,-0.6635561,-0.46062553,0.16011071,-0.5488492,-0.58492947,-0.32093596,0.0038375854,-0.84593177,-0.8874949,0.5621679,0.24690485,0.06280601,0.3970958,-0.6295968,0.7576128,-0.29027796,-0.015517473,0.51014864,-0.03614521,-0.28529608,-0.34021997,-0.9311185,0.8267772,0.8141203,0.44678557,0.4956591,-0.19549167,0.89864707,0.797194,0.8931881,0.26314867,-0.4938569,0.82205415,-0.8974446,0.7052437,0.9358491,-0.5038712,0.089892626,-0.7300643,-0.87023985,-0.03117466,-0.41441715,0.97018313,0.42679572,0.38426626,0.8856412,-0.5086789,0.02327454,-0.66714454,0.5653665,-0.19551373,-0.086618066,0.5002161,0.87421715,0.9077339,-0.65650475,0.58967733,-0.82339513,0.7423428,-0.6068437,-0.7644446,0.033319235,0.21836793,0.24009466,0.15328372,-0.9929595,-0.46765006,-0.88302755,-0.8763946,-0.5699831,-0.87879395,-0.24953389,-0.7260263,0.3684621,0.96117246,-0.6953895,0.9536139,0.33188236,0.06137979,-0.42969108,0.43459415,-0.988186,0.01208508,0.4532647,-0.54187346,-0.5243076,0.95758307,-0.06107986,-0.20843959,-0.54810107,-0.8708149,-0.38523424,0.73034894,-0.4084729,0.74618757,-0.39573193,-0.68975246,-0.34502172,-0.69059944,-0.26241362,-0.4846481,0.00044727325,0.12363684,-0.8032055,0.6642591,0.24394453,0.5100161,-0.38923442,0.014468551,-0.27908504,-0.85769403,-0.10073733,-0.4828347,0.59528494,0.74488306,-0.3586291,0.88112664,-0.71317434,0.7179098,0.4162631,0.13512266,-0.088184,0.8355838,0.61898935,0.025734186,0.6093527,0.35716867,0.13104522,-0.8356502,-0.3251921,-0.71035135,-0.81095743,-0.29307604,-0.08575523,-0.19642305,0.22988093,-0.03844309,0.12876809,-0.7185192,-0.19757938,-0.17802346,-0.10962343,0.0379622,-0.82891726,0.050567508,0.4715854,-0.8498781,0.7855886,-0.75197387,0.3032539,-0.5482155,0.5087005,0.63583016,0.63600826,-0.45932698,-0.3644842,0.2772876,0.18695581,0.14478564,-0.73554385,0.9494835,0.51071346,0.117177844,0.8978263,0.5254986,0.47946048,-0.27432585,-0.25165236,-0.6964588,0.31826568,0.33601928,-0.59096336,-0.6604595,-0.98915255,0.22184741,0.01239121,-0.52069867,0.5030347,-0.30639958,-0.26305306,0.42512155,0.9197235,0.76369464,0.0558666,-0.9557351,0.6585475,-0.7238773,-0.45575702,-0.6438948,-0.12217569,0.7420052,-0.41561604,-0.8841257,-0.33882225,0.6973299,0.22099316,-0.6913835,0.28298104,0.80861306,-0.12443268,-0.68203056,0.22572279,0.00044226646,-0.76808393,-0.63946307,-0.3146515,0.3725568,-0.5816829,-0.35454953,-0.1608895,0.3529303,0.21005082,0.5985098,-0.8328937,-0.15851021,-0.792783,-0.9662802,0.32269955,-0.9320419,0.6392751,-0.8729031,0.41367412,0.84066916,-0.60196924,-0.4485469,0.19976187,0.20976746,0.17160046,-0.77704084,0.41707337,0.29698312,-0.93209755,0.66579473,0.7067807,-0.80927444,-0.090841055,0.16612661,0.17548215,-0.6740284,0.9989207,-0.28034985,0.7500881,0.7310916,0.8944298,0.25212812,0.6503304,0.26966345,-0.34917295,-0.46850884,0.30567193,-0.8844886,-0.29458153,-0.3351946,0.40773714,-0.5072267,0.3069489,-0.85269713,0.9994967,0.69075143,0.74976325,0.79303515,0.7265923,0.35853922,0.89754593,-0.7906921,0.4542799,-0.74768245,0.12655962,0.52118826,-0.6942105,-0.079844594,-0.21878529,0.4663478,0.81726027,0.4921496,-0.73350203,-0.49580443,0.68045306,-0.8435677,-0.38025832,-0.6265123,-0.8454293,0.7134311,0.0005271435,-0.32744944,0.7128918,-0.31578243,0.29522407,-0.362947,-0.97197723,0.97941935,-0.1410172,0.7138573,0.8757273,-0.97495854,-0.13322222,0.47002482,0.88085556,0.6567788,-0.46032,-0.9793061,-0.8948147,-0.6830567,0.025984526,-0.32673764,0.4691434,-0.15852809,0.8591256,-0.7869526,-0.45258653,0.8506818,0.885321,-0.12515521,0.5760162,0.33000743,-0.69655,0.2771542,0.92770255,0.25362992,0.0000027418137,-0.3804766,-0.85888004,0.6236316,0.9057158,0.06375718,-0.9775883,0.6878271,-0.38858354,0.7844157,-0.8457335,-0.7189449,-0.08526993,-0.023719907,0.10464823,0.93867683,0.26889598,0.18260372,-0.21669877,-0.027700186,-0.09018457,-0.040002823,0.19856763,0.43064773,-0.21955764,-0.2706039,0.83824825,-0.88293993,-0.63677216,0.608732,-0.16408384,0.7250743,0.8114109,0.35450232,-0.18151224,-0.7291535,-0.11222446,-0.9223348,-0.12578058,-0.8163456,-0.792266,0.9622314,-0.96876276,0.115403414,-0.9414475,-0.5016544,-0.7288563,0.9343711,0.10591233,-0.7692113,0.64166117,-0.99334025,-0.8115145,0.6847578,0.35859084,-0.23471785,0.7581258,-0.943251,-0.5974405,-0.039329767,-0.53554916,0.24608243,-0.05641544,-0.8481506,-0.23558784,0.21888459,-0.24200284,0.6970519,-0.7575996,0.68656147,0.5526725,-0.121860385,-0.004888892,0.8327894,0.80240786,0.37808383,-0.82750356,-0.664024,-0.28334153,-0.95552313,0.86406684,-0.009298444,-0.21899581,-0.35169864,-0.116452575,-0.58726346,-0.45672965,0.45701134,0.7768054,0.963261,-0.4777789,0.8346003,0.44535756,-0.6663294,-0.22141314,-0.5051211,-0.2164985,0.71248686,0.9501883,-0.9826145,0.5319283,-0.6630242,0.61410546,-0.96035266,-0.1681031,-0.07130468,0.6869261,-0.48617435,-0.08543396,-0.5176643,-0.7311264,0.11655879,-0.6992619,-0.3374666,-0.029717326,-0.5172217,0.6844828,-0.26951492,-0.55404234,-0.6497606,-0.49447513,0.5729141,0.06827843,0.9093969,-0.8117453,0.36979008,-0.64005375,0.47787023,-0.69512975,0.2643733,-0.14611435,-0.121534824,-0.6169057,0.98148406,0.39708912,0.45934308,0.77655494,0.1586703,0.9302833,-0.32834852,-0.07716715,-0.37880087,0.09774399,-0.79027283,-0.590569,-0.44431138,0.37368727,-0.79879284,-0.5026989,0.00837338,-0.8839737,-0.6912093,0.11391652,0.19939649,0.7414919,0.5631503,0.12592149,-0.75027883,-0.7534187,-0.63823175,0.8120712,-0.23995793,-0.19776738,0.9392977,-0.26838315,0.5902113,-0.12369895,-0.35042703,0.60593855,-0.33732915,0.7619213,0.54571176,0.70104504,0.8771527,0.9478977,0.6627798,0.056162,-0.24626148,-0.62620604,-0.6416764,-0.05177903,0.95662344,0.9877881,0.7375053,-0.6269977,-0.6905501,0.41580224,-0.9430119,-0.7540438,0.5705137,0.5268625,-0.27826166,-0.6707691,0.17685342,0.9362118,-0.21277308,-0.47546065,-0.676777,0.102173924,0.2048229,0.46240926,0.34811747,0.8096317,-0.8576138,-0.24551678,-0.66443026,0.46815586,-0.5074645,0.9893632,-0.9924387,-0.004691839,0.69319355,0.6839113,-0.36782944,-0.7099626,0.19226873,-0.82222104,-0.7090887,-0.81670487,0.88350904,0.4730475,-0.70408046,0.95868194,0.12215102,-0.016588211,0.056931734,0.15294635,0.47141254,-0.15532827,0.04870248,0.26128352,-0.8678782,0.40764272,-0.6912322,-0.6325915,0.5732082,0.5143949,-0.90616524,-0.2863382,-0.7277857,-0.97372365,0.41479182,-0.069463015,-0.35977685,-0.59188855,0.27535284,0.8780639,0.3444345,-0.22382486,0.364491,0.98669493,-0.69933975,0.6211846,0.24358904,-0.19901192,0.17695487,-0.23822594,-0.6380837,0.9981811,-0.65187764,0.39950395,0.75811934,-0.94552076,0.66239893,0.58571756,0.32345057,-0.5684283,0.97969747,0.48542368,-0.9493699,-0.2503549,0.9446484,-0.7647817,0.8513888,-0.6843457,0.91470647,0.7620064,0.5175626,0.2782675,0.032753468,0.57268894,-0.8170186,-0.10362244,0.45385206,0.7855091,0.6608738,-0.21047258,0.4831468,-0.3629341,0.4299153,-0.48524368,0.90948546,0.2592281,-0.9481472,0.9241798,-0.14100194,0.9485723,0.77765405,0.3510157,0.38180244,-0.16019678,0.75686085,0.13504648,-0.45469236,0.63146603,0.8114773,-0.30899334,0.21282268,-0.3011961,0.07697976,0.49597454,-0.3158859,-0.19377828,-0.1908313,0.58871114,0.03725946,-0.9119425,0.20689368,-0.08461702,-0.78709424,-0.09346044,-0.3868661,0.80180645,-0.33733928,-0.79063,-0.7683122,0.021541119,0.7564539,-0.688686,-0.88612187,-0.4815477,0.58057594,0.20779538,-0.6165291,0.77238166,0.14617074,-0.61099494,-0.7777219,0.13692296,0.58652115,-0.23281717,-0.45668113,-0.2949555,-0.83819807,0.46238196,0.91023874,0.84556735,-0.34041345,-0.17910933,0.19130528,0.57001853,-0.1936655,-0.8121724,-0.80814505,0.7502414,0.7860639,0.5274594,0.3459797,-0.31211197,-0.25138652,0.5449203,-0.85182273,0.089235425,-0.18768382,-0.31367683,-0.14314139,-0.010330915,0.94117975,-0.2200551,0.5510789,0.14220345,-0.79673123,-0.63185596,-0.75083935,-0.6366049,0.14618826,0.837796,0.44821298,0.15688539,0.14411044,0.100835204,-0.40806246,-0.5176616,-0.42558753,-0.33827543,0.7395606,0.6684357,0.35134423,0.65257907,0.69809365,0.6513556,-0.34038723,0.7605207,-0.6942905,0.1925317,-0.074653745,-0.378538,-0.3484106,0.23365188,-0.116288066,-0.49608588,-0.39425993,0.91687727,0.6082257,0.046291113,-0.74916077,-0.2914102,0.17829525,0.025170922,-0.5564163,0.3986547,-0.066761255,0.3720683,-0.07713318,0.96356964,0.30056977,-0.16970849,0.69517636],"bias":0.31746078},{"activation":0.0021391485,"weights":[0.20659184,-0.34867442,0.009412408,0.54855573,0.61974895,-0.052320242,-0.21833599,0.04560721,-0.7794535,0.2706418,-0.5258311,0.14055252,-0.36043942,-0.6577405,-0.16585445,0.2276293,-0.36436987,-0.96142066,-0.6818787,-0.46860158,0.57028556,-0.8555809,-0.9867035,-0.7448032,0.30917454,-0.057876587,-0.0031884909,-0.3811308,-0.66990423,-0.8407161,0.87179124,0.8717866,0.6197541,-0.55293965,-0.81092083,0.46018326,0.15895462,-0.42819035,0.20047235,-0.39373362,-0.6949326,-0.96199405,-0.23570538,-0.17480314,0.6917249,-0.35259354,-0.13811839,-0.7749182,0.30197442,0.65770257,0.44561577,-0.9959943,0.6143397,-0.49483573,0.2418977,-0.4585992,0.77477884,-0.634586,0.9543849,-0.5598303,-0.59609747,0.7703247,0.47803473,-0.9218581,-0.6473899,-0.6508316,-0.2976873,0.07085872,0.14264154,-0.7261739,0.8992847,-0.02031827,-0.7518431,0.8648659,0.72723484,-0.061673164,-0.39156592,-0.50530565,-0.95541215,0.7358427,0.3348503,-0.005322695,-0.8812393,0.9982414,-0.20232272,-0.78021836,0.48219168,0.41448665,0.3232876,0.27062118,-0.75481164,-0.15999472,0.14045942,-0.8065373,-0.21011794,0.9113549,-0.21734881,-0.2062025,-0.0081961155,0.46941578,-0.17928684,-0.066725135,0.43172395,-0.09314287,0.48503125,-0.108096,0.55528986,-0.06923759,0.025329232,0.49957323,-0.6473018,-0.2774949,0.25034797,0.9748596,-0.6423197,0.15050805,-0.3244096,0.48302543,0.28825104,-0.11180031,-0.08452499,-0.8779663,-0.10318339,-0.9096092,-0.87963176,-0.79361236,0.32798362,-0.58935916,0.73583317,-0.12360966,-0.76116395,-0.056955457,0.2965896,0.84840953,-0.95608354,0.44216347,-0.7902907,0.8002931,-0.8770323,0.053344846,0.56633174,0.038148165,-0.119397044,-0.03420019,0.20119679,0.22760749,-0.7054919,0.062508464,0.9836774,0.9536035,0.6459552,0.09732962,-0.37648392,0.5633005,-0.0164752,-0.08802879,0.60125196,0.087816,-0.74417484,0.60426533,0.66532576,0.111593485,0.39440238,-0.0058373213,0.6911653,-0.9375627,0.50734854,0.08233333,-0.034955382,-0.00011193752,0.53689086,-0.2161293,0.8075644,0.2753402,0.6471044,-0.98776674,0.21542406,-0.5129967,-0.56124985,-0.5884043,0.7234014,-0.4980383,0.9415386,0.25712955,0.58515465,0.9886626,-0.74381745,-0.5079098,0.2578653,0.4855622,0.8320652,-0.36021376,0.8984959,0.80549526,0.6406814,-0.8830664,-0.9300935,-0.966815,0.23895216,0.46540725,-0.53512335,0.8571949,-0.9807519,0.2703917,-0.5746902,0.8503115,0.37835193,0.0600152,-0.40391946,0.3871181,0.04180336,-0.8766904,0.8504145,-0.966272,-0.6269076,-0.18023264,-0.51735234,0.14514554,-0.6921581,-0.9987905,0.4280988,0.5635989,0.48920214,-0.51323247,0.39770055,0.5512725,-0.80530536,-0.1752758,0.40406537,-0.052534223,0.47772944,-0.7570026,-0.0076566935,0.942773,-0.31716764,-0.3808787,0.52422905,-0.16091347,0.8692906,-0.50330067,-0.48685372,-0.8341942,-0.92076206,-0.47812414,0.3570075,0.25227284,0.71605706,0.7284746,-0.47979152,-0.75152683,0.74417317,0.28883266,0.7696289,0.49794137,-0.17642868,0.9668498,0.6688168,0.8985162,-0.9970094,0.4556421,-0.39994407,0.5752084,0.057364583,0.6179726,0.8970299,0.49222338,-0.6693306,-0.9842564,-0.16578567,0.2058444,0.21069455,-0.7855456,0.3717879,0.44213796,-0.5627769,-0.6779232,-0.042729616,0.35060132,0.38243127,-0.13322175,-0.6854762,-0.81895995,0.96710336,-0.37802446,0.6674503,0.35788918,-0.1632247,0.25781357,-0.75500226,-0.37323308,-0.6836946,-0.8795872,0.0850966,-0.9070567,-0.6300068,0.8695502,-0.7795366,-0.99066865,0.20759809,0.5727911,0.74774086,0.117289305,-0.19031322,0.026052475,-0.5161214,0.105072975,0.22075713,-0.78501046,-0.7518891,-0.74849164,-0.22725606,0.018404722,0.9843128,-0.15472066,0.75525594,-0.7130461,0.17519045,-0.50498796,-0.17290509,0.06778765,-0.3164612,-0.7168001,-0.15803838,-0.23286247,-0.7853898,0.71183765,0.57489467,-0.9020591,-0.39177477,-0.8823253,-0.8447257,-0.04345286,0.8692877,0.9461442,0.2800181,0.7154176,-0.7101414,-0.8833587,0.038808227,0.40049028,0.037007928,-0.33070922,0.43005598,0.87587774,0.376899,-0.51966584,0.62693095,0.7515446,-0.39988315,0.35554326,0.28121543,0.38149667,0.5243499,0.546451,0.4454664,0.7272731,-0.21777272,0.4353596,-0.3570987,0.15797067,-0.43543375,-0.70860755,-0.99466133,0.13297617,-0.65989506,0.65190315,-0.46483254,0.23891652,0.93942106,0.13666701,-0.2828523,-0.91548884,0.37430882,0.36293983,-0.8698654,0.963676,-0.45865476,-0.33454096,-0.68045306,-0.16838253,0.9938867,0.39407682,0.8444593,-0.55438673,0.0984236,-0.69802725,0.8739449,-0.57393765,0.13289249,0.95433533,-0.76311386,-0.20430863,0.7214438,-0.36137068,-0.3005644,-0.2489152,-0.9277197,-0.6606159,0.6183437,-0.39147878,-0.2159257,0.62364733,-0.06558442,0.25819278,-0.7966186,-0.9968494,-0.49905849,-0.9796634,0.78990793,0.884689,0.931224,-0.39233148,-0.051112175,0.75316083,0.6004076,0.42909622,-0.3320843,-0.25443542,-0.1430825,0.9891058,-0.89408135,-0.9387158,0.0593009,-0.14264262,0.44003248,-0.71147394,0.50624824,-0.38750696,-0.66480494,0.47800732,-0.6948415,-0.98254836,0.59714234,0.061298847,-0.37012732,0.3805802,-0.43544114,-0.7913884,-0.32913673,-0.6088511,0.73644257,0.975343,-0.47794533,0.82172203,0.9970192,-0.73503697,0.4570055,-0.6073189,0.20818329,-0.8714199,0.009393215,-0.27789772,0.7610322,0.81591535,0.6267612,0.841141,-0.84734035,-0.14044988,-0.44483328,0.15006483,-0.31868327,0.2846973,0.3002416,-0.7939261,-0.5963068,-0.9003589,0.73742163,-0.8715662,-0.032587767,-0.5579109,-0.6750219,-0.15232992,0.5145427,-0.9759749,-0.66256154,-0.4660362,0.43520772,-0.50815105,0.2938274,0.9669938,-0.5006006,-0.4031192,-0.4364971,0.6813073,-0.45900786,-0.3016292,-0.43616474,0.9528812,0.22441602,0.53973377,0.2596351,0.48727,0.40049684,0.08617556,0.10227454,0.67091906,0.6357156,0.3687762,-0.96117663,-0.5505146,0.025081158,-0.6608536,0.87351775,0.06745899,-0.01376009,0.33240128,-0.56894755,-0.05312848,0.5765592,0.86143255,-0.6928053,0.23818564,0.0925473,0.7715088,0.93836,-0.8488729,0.9369581,0.25809944,0.1070621,0.1243794,0.7344718,0.11576998,0.99484324,-0.78995955,0.7623582,-0.6722597,-0.5748594,-0.3806889,0.010858536,0.12407553,0.06388283,0.8136461,0.009753704,0.9356396,0.43272054,0.1508559,-0.9242009,0.79763484,0.7770091,-0.6963427,-0.85032785,0.3847214,-0.34223723,0.77502453,-0.98485553,-0.75002205,-0.80504286,-0.42355955,0.713379,-0.56102824,0.8715352,-0.34197927,-0.7300477,-0.93809414,0.70403135,0.317577,0.4098853,-0.5133635,-0.9717792,0.111359,-0.9434879,0.6573647,0.4397943,0.90131927,-0.7030426,-0.19132137,0.42135525,0.6721916,0.95988667,-0.5980277,-0.055812955,0.5897875,-0.4021268,-0.11971235,-0.42967415,0.45388854,-0.84163463,0.9525485,0.9612696,0.94157255,0.07033718,0.52853334,-0.9965873,-0.69533384,-0.13391244,-0.48935235,-0.4591608,-0.5048306,0.5076053,-0.92742264,0.5875604,0.3832085,-0.6249958,-0.82076716,-0.6709107,-0.6931565,-0.71403456,0.52638674,0.3229388,0.31359303,0.26632464,-0.7721325,-0.2169187,0.1924665,-0.16204894,0.19396281,0.28342474,0.40911448,-0.30511272,0.942176,-0.28120553,0.56597626,0.214638,0.0002105236,-0.20107257,-0.79842556,0.18459427,0.66753256,0.3168794,-0.40560114,0.13774109,0.027809978,0.7168901,-0.51376224,-0.41782308,0.06415236,-0.98637676,-0.46075416,0.96598125,0.9258802,-0.7397102,0.22827029,-0.42396045,0.41931164,0.6678114,0.9890697,0.89696705,0.18079472,-0.6863841,0.5143806,-0.3130803,-0.23458242,-0.5050144,0.08801365,0.17868388,-0.47562468,0.93280876,0.17015982,0.10143995,0.86520696,0.21143007,-0.84712064,-0.52587056,-0.6666986,0.9888532,-0.46130824,0.21488297,0.6334089,-0.88239837,0.51618075,-0.6473601,0.11278963,-0.4983468,0.28941798,0.4835869,-0.76138186,-0.48176467,0.5981878,0.92775846,0.93748045,-0.33634114,0.551677,-0.5040883,-0.16240883,0.9375515,-0.90069497,0.95053685,0.098266125,-0.9683113,0.5447023,-0.49533427,-0.4652244,0.21946824,-0.12326002,-0.5014583,-0.9189216,-0.30325472,-0.6021303,-0.61072004,-0.22441745,0.3688612,0.31280434,-0.31788743,0.8929782,0.19246459,0.00848496,0.5768118,0.8834162,-0.33056974,0.9953871,-0.07614803,0.4175619,-0.06971359,0.83175313,