{"learning_rate":0.1,"input_layer":{"activations":[0.0,0.0,0.0,0.0,0.0,0.0,0.0,0.0,0.0,0.0,0.0,0.0,0.0,0.0,0.0,0.0,0.0,0.0,0.0,0.0,0.0,0.0,0.0,0.0,0.0,0.0,0.0,0.0,0.0,0.0,0.0,0.0,0.0,0.0,0.0,0.0,0.0,0.0,0.0,0.0,0.0,0.0,0.0,0.0,0.0,0.0,0.0,0.0,0.0,0.0,0.0,0.0,0.0,0.0,0.0,0.0,0.0,0.0,0.0,0.0,0.0,0.0,0.0,0.0,0.0,0.0,0.0,0.0,0.0,0.0,0.0,0.0,0.0,0.0,0.0,0.0,0.0,0.0,0.0,0.0,0.0,0.0,0.0,0.0,0.0,0.0,0.0,0.0,0.0,0.0,0.0,0.0,0.0,0.0,0.0,0.0,0.0,0.0,0.0,0.0,0.0,0.0,0.0,0.0,0.0,0.0,0.0,0.0,0.0,0.0,0.0,0.0,0.0,0.0,0.0,0.0,0.0,0.0,0.0,0.0,0.0,0.0,0.0,0.0,0.0,0.0,0.0,0.0,0.0,0.0,0.0,0.0,0.0,0.0,0.0,0.0,0.0,0.0,0.0,0.0,0.0,0.0,0.0,0.0,0.0,0.0,0.0,0.0,0.0,0.0,0.0,0.40234375,0.7890625,0.9921875,0.87109375,0.109375,0.0,0.0,0.36328125,0.1953125,0.0,0.0,0.0,0.0,0.0,0.0,0.0,0.0,0.0,0.0,0.0,0.0,0.0,0.0,0.0,0.0,0.0,0.14453125,0.83984375,0.98046875,0.98828125,0.98828125,0.98828125,0.671875,0.0,0.15234375,0.9375,0.4765625,0.0,0.0,0.0,0.0,0.0,0.0,0.0,0.0,0.0,0.0,0.0,0.0,0.0,0.0,0.0,0.0,0.05078125,0.74609375,0.98828125,0.87890625,0.46875,0.21875,0.98828125,0.68359375,0.0,0.2421875,0.98828125,0.359375,0.0,0.0,0.0,0.0,0.0,0.0,0.0,0.0,0.0,0.0,0.0,0.0,0.0,0.0,0.0,0.0,0.51171875,0.98828125,0.67578125,0.0546875,0.0,0.03515625,0.98828125,0.68359375,0.0,0.359375,0.98828125,0.16796875,0.0,0.0,0.0,0.0,0.0,0.0,0.0,0.0,0.0,0.0,0.0,0.0,0.0,0.0,0.0,0.0,0.546875,0.98828125,0.21484375,0.0,0.0,0.09375,0.98828125,0.68359375,0.05078125,0.72265625,0.953125,0.11328125,0.0,0.0,0.0,0.0,0.0,0.0,0.0,0.0,0.0,0.0,0.0,0.0,0.0,0.0,0.0,0.0,0.546875,0.98828125,0.3359375,0.0,0.0,0.37890625,0.94140625,0.23828125,0.32421875,0.98828125,0.78125,0.0,0.0,0.0,0.0,0.0,0.0,0.0,0.0,0.0,0.0,0.0,0.0,0.0,0.0,0.0,0.0,0.0,0.51171875,0.98828125,0.890625,0.6328125,0.1796875,0.37890625,0.609375,0.140625,0.90234375,0.98828125,0.4765625,0.0,0.0,0.0,0.0,0.0,0.0,0.0,0.0,0.0,0.0,0.0,0.0,0.0,0.0,0.0,0.0,0.0,0.05078125,0.70703125,0.9765625,0.98828125,0.97265625,0.81640625,0.14453125,0.4765625,0.98828125,0.6640625,0.02734375,0.0,0.0,0.0,0.0,0.0,0.0,0.0,0.0,0.0,0.0,0.0,0.0,0.0,0.0,0.0,0.0,0.0,0.0,0.0,0.390625,0.76953125,0.98828125,0.98828125,0.98828125,0.9921875,0.8828125,0.13671875,0.0,0.0,0.0,0.0,0.0,0.0,0.0,0.0,0.0,0.0,0.0,0.0,0.0,0.0,0.0,0.0,0.0,0.0,0.0,0.0,0.0,0.03515625,0.5625,0.89453125,0.98828125,0.9921875,0.71484375,0.0,0.0,0.0,0.0,0.0,0.0,0.0,0.0,0.0,0.0,0.0,0.0,0.0,0.0,0.0,0.0,0.0,0.0,0.0,0.0,0.0,0.0,0.0,0.0,0.6015625,0.9921875,0.99609375,0.9921875,0.6328125,0.0,0.0,0.0,0.0,0.0,0.0,0.0,0.0,0.0,0.0,0.0,0.0,0.0,0.0,0.0,0.0,0.0,0.0,0.0,0.0,0.0,0.0,0.2578125,0.88671875,0.98828125,0.703125,0.77734375,0.98046875,0.51953125,0.0,0.0,0.0,0.0,0.0,0.0,0.0,0.0,0.0,0.0,0.0,0.0,0.0,0.0,0.0,0.0,0.0,0.0,0.0,0.0,0.0,0.4140625,0.98828125,0.66796875,0.0234375,0.01953125,0.3515625,0.8671875,0.64453125,0.0,0.0,0.0,0.0,0.0,0.0,0.0,0.0,0.0,0.0,0.0,0.0,0.0,0.0,0.0,0.0,0.0,0.0,0.0,0.0,0.71484375,0.98046875,0.27734375,0.0,0.0,0.0,0.48046875,0.96875,0.22265625,0.0,0.0,0.0,0.0,0.0,0.0,0.0,0.0,0.0,0.0,0.0,0.0,0.0,0.0,0.0,0.0,0.0,0.0,0.08984375,0.95703125,0.65625,0.0,0.0,0.0,0.0,0.1015625,0.859375,0.8046875,0.0,0.0,0.0,0.0,0.0,0.0,0.0,0.0,0.0,0.0,0.0,0.0,0.0,0.0,0.0,0.0,0.0,0.0,0.10546875,0.98828125,0.77734375,0.0,0.0,0.0,0.0,0.0,0.46875,0.96484375,0.2890625,0.0,0.0,0.0,0.0,0.0,0.0,0.0,0.0,0.0,0.0,0.0,0.0,0.0,0.0,0.0,0.0,0.0,0.05859375,0.8828125,0.96875,0.2109375,0.0,0.0,0.0,0.0,0.36328125,0.98828125,0.203125,0.0,0.0,0.0,0.0,0.0,0.0,0.0,0.0,0.0,0.0,0.0,0.0,0.0,0.0,0.0,0.0,0.0,0.0,0.609375,0.98828125,0.98828125,0.52734375,0.29296875,0.4140625,0.484375,0.95703125,0.8828125,0.05078125,0.0,0.0,0.0,0.0,0.0,0.0,0.0,0.0,0.0,0.0,0.0,0.0,0.0,0.0,0.0,0.0,0.0,0.0,0.28125,0.96484375,0.98828125,0.9921875,0.98828125,0.98828125,0.98828125,0.98828125,0.70703125,0.0,0.0,0.0,0.0,0.0,0.0,0.0,0.0,0.0,0.0,0.0,0.0,0.0,0.0,0.0,0.0,0.0,0.0,0.0,0.0,0.25,0.76171875,0.9921875,0.98828125,0.98828125,0.91796875,0.47265625,0.0546875,0.0,0.0,0.0,0.0,0.0,0.0,0.0,0.0,0.0,0.0,0.0,0.0,0.0,0.0,0.0,0.0,0.0,0.0,0.0,0.0,0.0,0.0,0.0,0.0,0.0,0.0,0.0,0.0,0.0,0.0,0.0,0.0,0.0,0.0,0.0,0.0,0.0,0.0,0.0,0.0,0.0,0.0,0.0,0.0,0.0,0.0,0.0,0.0,0.0,0.0,0.0,0.0,0.0,0.0,0.0,0.0,0.0,0.0,0.0,0.0,0.0,0.0,0.0,0.0,0.0,0.0,0.0,0.0,0.0,0.0,0.0,0.0,0.0,0.0,0.0,0.0,0.0,0.0,0.0,0.0,0.0,0.0,0.0,0.0,0.0,0.0,0.0,0.0,0.0,0.0,0.0]},"activation_layers":[{"neurons":[{"activation":0.9867931,"weights":[0.569816,-0.97694385,-0.5918441,-0.5652728,-0.24724019,-0.7782748,0.74485993,0.31004977,-0.06859183,-0.0096462965,0.7114035,-0.23747027,-0.724385,0.06407189,0.018336296,0.8119309,0.5920975,0.9860383,0.72939444,-0.4477948,0.6242722,0.84133816,-0.29375744,-0.73777175,0.35847783,0.2356689,0.59369683,0.07746661,0.80589366,0.60057724,0.59307265,-0.224769,0.16530478,-0.69194067,-0.14098907,-0.30661452,-0.50211704,0.24039233,-0.096791506,-0.5885154,0.83944404,-0.40517414,-0.20875418,0.14453495,0.2904017,0.105362654,-0.76461625,-0.8957236,-0.051175594,0.4845425,-0.5389925,-0.17222893,-0.262514,-0.712548,-0.6780853,0.37954247,-0.30166256,0.75521576,0.876323,0.41339815,0.2036103,-0.04904294,-0.6916412,0.9604032,0.045910835,0.8791554,-0.4719633,-0.06300616,0.0037609339,-0.43529308,0.99988544,0.84777343,0.4308015,0.46629083,-0.54161084,0.14098394,-0.7754592,0.9663155,-0.3157493,-0.9053546,-0.0898782,0.15643132,0.8528265,0.9811677,-0.6342658,0.9072299,0.006489873,-0.095918894,0.11098218,-0.6220758,-0.10115743,-0.8073602,-0.16419709,-0.80787086,0.13034225,0.5781828,-0.8500868,-0.70168936,0.6887958,0.2436049,-0.93562233,-0.49492967,0.6545751,0.37073314,-0.80358887,0.8415693,0.281734,-0.29366994,0.62308645,0.12561059,-0.39859056,0.9860649,0.88644433,-0.42309654,0.81361866,-0.4896549,0.69336,-0.08732271,-0.96418965,-0.94607115,0.3215475,0.93308425,-0.8445164,-0.39559102,0.4650694,-0.5380298,0.908985,-0.3642589,0.2574005,0.74022305,-0.534636,0.56988,-0.23369098,-0.7867447,-0.7217853,-0.60272694,-0.7000183,-0.74097776,-0.021440744,-0.5395024,-0.45745945,0.31380117,0.30672467,-0.28788614,-0.73903096,0.22454536,0.5684085,0.60021913,-0.19354057,0.16797209,-0.5035168,0.6015363,0.3090192,-0.5563289,-0.5928602,-0.42436862,0.26519632,0.8800156,-0.9483696,0.85108244,0.85606635,-0.8993733,0.37026703,0.85522604,-0.11260843,0.078489184,0.6084659,-0.81005764,0.92214656,-0.36724043,-0.08605814,-0.2566887,-0.20715618,0.053323865,-0.9802916,-0.84983754,0.4725988,-0.6916771,0.84161615,0.56561434,0.28282595,-0.5812936,-0.5463089,-0.9749737,0.5226338,0.7723237,0.7944076,0.51846516,0.5405741,0.034528732,-0.99916923,0.8322344,-0.9121425,-0.1257112,0.73500574,0.71982956,-0.8822874,-0.11527121,-0.47906363,0.34288764,0.8980998,0.46061993,0.7573818,-0.60669816,0.98948586,0.8069501,-0.95566285,-0.23484826,-0.22954357,0.89490795,-0.7128947,0.9100945,-0.18002784,0.5197393,0.110226035,0.9678148,0.7494899,0.1575563,0.32235825,0.8616493,-0.9123814,-0.36871338,0.7475202,0.040676355,0.28105783,-0.087263346,0.97910094,-0.20338273,0.66151226,-0.838995,0.73877084,-0.36304772,-0.54287875,-0.3597113,-0.50854695,0.4785415,-0.10435021,0.5459924,0.41773462,-0.28412068,0.3663491,-0.34713435,-0.050870657,-0.8099798,0.5016886,0.48579133,-0.37246132,-0.19910729,0.8089843,0.12137425,0.9303577,-0.8334911,0.5883322,0.8937386,0.8026732,0.8831121,-0.3928548,-0.021407962,0.14784229,0.12350321,0.45565104,-0.86365867,0.07112074,0.44701183,0.5304799,-0.15569663,0.0035967827,0.7365786,0.14947355,0.60435057,0.73445165,-0.4924494,-0.13355398,-0.91085744,0.8827511,-0.8403096,0.25182033,0.51334894,0.9225246,0.7235483,0.2875626,0.30146027,0.5048139,-0.3269328,0.16797209,0.5214803,0.12227619,-0.9695605,-0.7849783,0.16110086,-0.69738245,-0.42057157,0.32113028,0.32275987,0.35343742,-0.6048734,-0.32640243,0.26968575,0.900478,-0.46700978,0.91171587,-0.08816433,-0.45495534,-0.5023446,-0.21723378,0.8871888,-0.8085878,0.016164899,0.86108017,-0.16036081,0.516778,-0.2101357,0.13735068,0.5090411,0.72806,0.93648815,0.96486986,0.36457646,0.2416879,-0.4299556,0.27827537,0.6020589,0.78350246,-0.58258355,0.45629513,0.7419293,0.6438277,0.7316191,-0.7125385,0.28001678,-0.28947818,-0.8013991,0.80429566,0.6976707,-0.05701804,-0.96744585,0.88032854,-0.88428795,0.72951007,0.8422946,0.9297879,-0.06153381,0.21543014,0.84248674,0.6413119,-0.073553085,0.54803836,-0.86132824,0.64479053,0.04346347,0.9220824,0.065493226,-0.8429674,-0.67255056,0.23667777,0.6537055,0.2042557,-0.75658906,0.6463746,-0.41167033,0.3449707,0.9281392,0.63829255,0.6895405,0.9645847,-0.87909126,0.08848238,0.2741053,0.8339429,-0.4140644,0.45995677,0.9576801,-0.8298688,-0.6961609,-0.2891599,0.94990385,0.12532902,0.36442983,0.772475,0.8871206,-0.022511005,-0.5356145,0.017532349,-0.25399292,0.6999217,-0.19121718,-0.6224016,-0.9286797,-0.33962095,0.6324806,0.48758435,0.74380445,0.43588984,0.52415705,0.86855555,-0.16767061,-0.71183026,-0.112517715,-0.59217787,0.13408983,0.60418534,-0.17023635,-0.1045866,-0.71018827,-0.87587225,0.4999975,0.86617196,-0.17689264,-0.79694164,-0.08565402,0.30460775,0.9784697,-0.008425593,0.5654228,-0.11853528,-0.2921915,-0.8217336,-0.13186955,0.48828876,-0.75285935,-0.15699077,0.109787464,-0.022403836,-0.60525,-0.5962044,-0.085077405,-0.5350119,0.4957254,0.2393316,0.86654365,-0.22548676,0.063061595,-0.63828397,0.26891255,-0.7309618,-0.7582017,-0.407048,0.67038655,-0.83638155,0.956126,0.21493208,0.34840405,0.28852797,-0.9942062,0.8456203,0.01915574,0.26160812,-0.62218153,-0.091174126,0.71698105,0.5070963,-0.09237528,0.80016863,0.008848548,0.33585823,-0.7179866,0.8059515,-0.09574187,0.12568152,0.26243162,-0.6445229,-0.47042108,-0.20213485,-0.22797334,0.9954752,0.57316065,-0.24781942,0.26454723,-0.060706973,0.1974523,-0.5585555,-0.11688936,-0.7981831,0.38407886,-0.47793674,0.45722508,0.11236799,0.43234193,-0.49557638,-0.11715782,0.60950077,0.43220782,0.084816575,0.50249267,0.32212007,-0.43227506,0.8735019,0.84282327,-0.30292428,-0.112362504,-0.19383729,0.92341554,0.091426015,0.33284295,-0.009007096,0.71903145,-0.3363291,0.6629181,-0.5463835,0.9353664,-0.72606254,-0.61545885,0.45473135,0.7757906,-0.12666047,-0.49768257,0.8770311,-0.13322866,-0.74771214,0.5181142,-0.56707287,-0.67326844,0.46692717,-0.5459429,0.28403854,-0.16641438,-0.73044205,0.26597238,0.8653592,0.75900745,-0.63067114,0.26716185,-0.3180604,-0.21553624,0.2365179,0.16630352,-0.43329942,0.40734148,-0.18991148,0.6771549,-0.21814132,0.85260046,-0.1019305,0.41001892,0.9193487,0.016441822,0.28232634,-0.79654145,0.3682245,-0.14883268,0.77431905,0.2884643,-0.39610684,0.304366,0.52697027,0.25756812,0.28931177,-0.4380617,0.13299441,0.0029454231,-0.6473143,-0.17888355,0.5306213,0.86408746,0.7281922,0.79806256,0.9713652,0.8359407,0.40929008,0.7797973,0.844468,0.37567282,0.9212326,-0.31997,0.24027371,0.06661701,-0.016474366,-0.7626804,-0.9984963,0.9725499,-0.50451195,0.17295885,-0.51784647,-0.102182984,0.5019413,-0.3399644,-0.346187,0.47463822,-0.1627636,-0.57087934,0.9446454,-0.59360695,-0.053346038,0.31700218,0.097115755,-0.7463285,0.26110566,-0.92182684,0.071483016,0.1660521,-0.1845026,-0.1460799,-0.15223503,-0.29104483,-0.646569,0.32405615,0.89138997,0.7976563,0.61915493,0.29493463,-0.17659879,0.9929278,-0.6675081,0.2913071,0.6995939,0.84318924,-0.68439674,0.66329074,-0.50825036,0.08686137,0.426471,-0.7946118,0.42257464,0.2877276,-0.023800492,0.15541005,0.35170698,-0.73162997,0.79478204,-0.596177,-0.569952,0.60782886,-0.73405504,0.5894041,-0.30826545,-0.24170494,0.8112353,0.7334956,0.20559251,0.46949637,-0.71015155,0.2525401,-0.8511826,0.6866056,-0.81575644,-0.48099542,0.31393635,-0.4895848,-0.82457423,0.023524761,-0.35337532,0.28073704,-0.27409256,-0.294971,0.14381027,-0.07571125,0.9064512,0.0048520565,-0.5278988,-0.29839587,0.8850393,-0.031131506,-0.7724974,0.19259357,-0.3647027,-0.8903638,-0.1021539,-0.35659683,-0.116256595,0.55017304,-0.44086766,0.45457113,0.7166445,-0.818207,-0.65261066,-0.72115076,0.67608464,0.4413166,-0.55210006,0.53046334,-0.35410333,-0.5840843,0.21400607,-0.3144369,-0.5585325,-0.11946082,-0.45145833,0.9879911,0.09111929,0.0469141,-0.0655731,-0.5621755,-0.7693534,-0.6265203,-0.13735533,-0.6771064,-0.54099846,-0.98848534,0.00059854984,-0.03463483,0.89236593,-0.9534979,0.8572285,-0.8380387,0.077323556,0.6965183,-0.69434917,-0.99286366,-0.51804554,0.9360632,-0.6961243,-0.34362197,-0.12523937,0.8232086,0.34554517,-0.92392695,0.90123665,-0.0628463,-0.399498,0.11750269,0.8332124,0.7983458,0.8113909,-0.85497046,0.85449505,0.7402365,-0.7215905,-0.61476886,0.049611688,0.7006676,-0.6520716,-0.011679411,-0.70775974,-0.65109813,-0.106461644,-0.9856801,-0.5670742,-0.109672785,-0.030111432,0.14206302,-0.8464049,0.29702294,-0.48224902,0.5224743,0.28483748,0.62237597,0.93312407,0.5576805,-0.36985457,0.50742567,0.20645905,-0.085915804,0.4617182,0.42385495,-0.09143996,0.79699373,-0.098523855,0.3365103,-0.100859046,-0.7248281,0.3800137,0.8091732,-0.05293393,-0.7148521,-0.54985595,0.35867536,0.09494233,-0.6922939,0.4673605,-0.17453372,0.47013175,-0.6234629,-0.5111332,-0.32181203,0.63892245,-0.64937973,-0.014205098,0.38927305,0.3590008,-0.84594834,0.035395384,0.58668435,0.099680305,-0.7811916,0.7895397,0.61455286,-0.15430856,0.92197967,-0.57491577,-0.45695186,-0.68200195,-0.8251296,0.45247138,-0.7661041],"bias":0.88417107},{"activation":0.8835213,"weights":[-0.20257461,0.1359756,-0.36897504,-0.7062651,-0.19305027,0.57948947,0.6581533,-0.6575841,0.24114192,-0.12433171,-0.26483595,0.23193753,0.24282193,-0.20305717,-0.5190973,0.68867373,-0.6811569,-0.023352146,-0.86078835,0.59822977,0.72414184,0.5889696,0.49639845,0.8810779,0.49824393,0.13818944,-0.7869656,0.21279073,0.5078453,0.8036231,-0.5110967,0.67545295,-0.8753315,0.13012624,0.8461957,0.102508545,0.5475408,-0.7508625,-0.53834283,0.5131291,0.7577188,0.5441239,-0.25221932,0.074955225,0.3193512,-0.26267743,-0.7502279,-0.0691371,-0.95099497,0.123300314,0.9362811,-0.7997606,0.57827973,-0.09243083,-0.26776624,0.84399796,-0.8444327,0.64013016,0.5400512,0.7258313,0.95795596,-0.5839592,-0.78695095,-0.20896482,-0.76698637,0.32547486,-0.63761353,-0.68868566,-0.7102926,-0.48431134,0.99152005,0.42884767,0.56664395,0.38723516,-0.6774813,-0.50702536,0.98607147,0.7365397,-0.045053005,0.9938854,0.8934902,-0.40936673,-0.5343219,-0.20969415,0.91694915,0.38761318,-0.55472994,-0.1765269,0.84946585,0.22030056,0.071743846,0.72980773,0.7034799,-0.8604125,0.63351643,-0.25533462,-0.7117491,-0.33698142,0.8662354,0.40337682,0.10812938,-0.5705818,-0.036771655,0.70313644,-0.9770533,0.27093446,0.9469987,0.8975141,-0.311602,0.49178982,-0.20811617,0.49292624,-0.37507808,0.6724968,-0.12703538,-0.18942177,-0.07090509,0.9567809,0.6252574,-0.7525985,0.86941195,0.6217239,-0.7873174,0.9417825,-0.8428073,-0.69351673,0.3399148,0.3919294,0.85694563,0.8878044,-0.3321458,0.89421713,-0.81013906,-0.5213605,0.5837747,0.9164349,0.04767537,0.7239908,-0.84499454,0.14947152,-0.5178095,-0.6321765,-0.18999815,-0.9146962,0.19501615,-0.75361574,0.9939611,0.11363959,0.9566915,0.44369686,0.67347026,0.85420763,-0.80852735,0.77802396,-0.27613807,-0.6129632,-0.04534042,-0.9304713,-0.09825957,0.5442411,0.88245964,0.8319174,-0.004578948,0.7983,0.07957232,0.34751713,0.18089724,-0.7939323,-0.576604,0.67650855,0.5761459,0.15938592,0.64199376,-0.5979649,-0.07061124,0.8435497,0.15210223,-0.26153803,-0.88267946,0.72350705,0.61950505,-0.6316589,-0.64408827,0.96962,-0.5233644,-0.691605,-0.8571099,0.5001942,-0.43032587,-0.7354423,0.1176672,-0.47057164,0.98846686,0.5757158,0.7926234,-0.4483161,-0.85804296,0.99442375,0.43184483,0.8031428,-0.5873152,-0.11541045,-0.60485804,-0.5059557,-0.62395906,0.58093834,-0.11926675,0.86085,0.06698167,0.40084565,0.7447467,0.20816553,-0.84669876,0.9899715,0.39163864,-0.7055023,0.91768575,0.5203563,-0.57004845,0.44829667,-0.00062060356,-0.72034156,0.044609904,-0.29869938,-0.30734873,-0.3457396,-0.6600672,0.9079858,-0.34439492,-0.771541,-0.5440991,0.21669805,0.47471297,-0.03864765,-0.14625561,-0.7538533,-0.1853795,0.40422726,0.05031538,0.6329678,-0.81990635,-0.34741545,-0.68342507,0.19406271,0.9252349,-0.66658425,-0.0019335747,-0.8863448,0.5583017,0.17822134,0.35434687,-0.46219933,-0.5332588,0.8493537,-0.8858489,-0.4971937,0.69251704,-0.29012954,0.35648298,0.02454853,-0.3812219,0.9509733,0.511027,0.92545617,-0.81038606,-0.7123207,-0.31045985,-0.79553545,0.57396305,0.28848147,-0.46100914,-0.88129485,0.7731551,-0.13760161,0.90951633,-0.63406336,0.45859957,-0.576957,-0.5767175,0.15201604,0.2549107,0.8320118,0.5543697,-0.22647583,-0.59645295,-0.59438586,-0.6602342,0.4664266,0.65362763,-0.62069035,-0.5045531,0.26106358,0.2766739,-0.47523224,0.07810652,0.9250413,-0.12861872,-0.6293647,-0.681085,-0.58409417,0.5152489,0.46679294,0.54946506,-0.1738646,-0.64105415,-0.53146696,0.8839911,0.24253535,0.41461396,0.042298198,-0.07828891,-0.24710608,-0.35717332,-0.3314842,-0.13651597,-0.6594076,0.59378266,0.06177306,0.49379563,-0.62584245,-0.745432,0.19501519,0.9585444,-0.25873387,-0.4256395,0.20543385,0.08751631,-0.6808919,0.0949105,-0.5098965,-0.19989693,0.22258067,0.06320226,-0.21424782,-0.6587678,0.073598504,-0.46396124,0.7641326,-0.469563,-0.09583962,-0.8021884,0.73611116,0.752265,-0.6756184,-0.060801625,-0.6367928,-0.568748,-0.7149328,-0.3450668,-0.32530332,0.6802659,-0.6677153,0.5666729,-0.103708506,-0.5161818,0.7068844,-0.3250985,0.33983004,0.2988906,0.1373334,0.9233464,0.28522468,0.168468,-0.2587855,-0.006293535,-0.175336,0.58322144,0.22728682,-0.34103382,-0.21303105,0.5022503,0.8551103,0.51719177,0.6840242,0.95873976,-0.43743145,-0.08315754,-0.8631785,0.97114694,0.08749604,0.47573555,-0.15326738,0.10687983,0.21775472,-0.533326,-0.3301258,0.25158787,0.14857686,0.42601573,-0.112255216,-0.9602773,-0.70871806,0.48356044,0.44994414,0.52580917,-0.4100783,0.27516627,0.15654624,0.34076583,0.18385851,0.48936749,-0.15974593,-0.2687739,0.99640644,0.03488946,-0.345173,0.6611252,0.28610742,0.14969933,-0.81794214,-0.3714422,-0.95462763,-0.63119256,-0.016765714,0.24355352,-0.66045535,-0.49200642,0.392429,0.58925354,0.54863286,0.049958467,0.11322427,0.541926,-0.90669,0.0008016825,0.2547568,-0.08393705,-0.8896607,0.27681684,-0.76911366,0.32809317,-0.36127937,0.8621445,-0.26257956,-0.029868007,0.94022906,0.6718986,0.8270081,-0.4134332,0.058165073,0.32824588,0.30931222,0.27220356,0.7533823,-0.31614769,-0.89006734,0.9668437,0.12939179,-0.31766808,-0.7464155,0.08766711,0.9844898,-0.9387381,-0.7013762,-0.08267534,0.3487016,0.10307467,0.22903562,0.5254445,-0.53822875,0.3823216,0.7074344,0.17690146,-0.31052756,0.24189997,0.21929741,-0.029683232,-0.3734138,0.47151756,0.9907311,-0.49156928,-0.44188845,0.13995874,0.19916344,0.6112983,-0.66418993,-0.5015991,-0.14221084,0.03972137,0.96173596,-0.86723995,0.91205883,-0.3250773,-0.30406868,-0.83766043,0.6850853,0.4791783,-0.03295338,0.25012803,-0.89893496,-0.8310139,0.47561455,0.0744189,0.13054287,0.72282803,0.3737707,-0.19599593,0.7087399,0.60080314,0.05195844,-0.89106035,-0.8690258,0.6943331,0.7114707,0.6285267,-0.038888097,0.14581537,-0.6076635,0.46318305,0.52519155,-0.32018566,0.55754805,-0.34661484,0.9199439,0.80977786,0.27048302,0.7253661,-0.87430716,-0.26600087,0.49402452,-0.52276695,0.64716303,-0.9497317,-0.49095273,-0.6934594,-0.6014606,-0.5501293,0.39073062,0.33692098,-0.46915293,0.404907,0.06117499,-0.17810798,0.30314088,-0.509735,-0.34442544,-0.1171211,-0.58504987,-0.7554052,-0.95498466,-0.9248694,0.025911331,-0.7523799,0.5734333,-0.26106954,0.7769269,0.1638776,-0.43835676,0.67414534,-0.0005220175,-0.56264424,-0.5750314,-0.031578183,0.5221015,0.58132625,0.6226574,0.93473804,-0.8634012,0.7041763,-0.7810316,0.6276742,-0.7481842,0.825663,-0.1393627,-0.61674595,-0.2704954,-0.13324034,-0.32800972,0.8628304,-0.4495418,-0.6348139,0.65529776,-0.27194095,0.102823734,0.45951688,0.07698393,-0.6710707,0.35996437,-0.46413112,0.60075176,-0.8233876,0.8446746,0.88810277,0.23772037,0.6981485,0.41147745,-0.5262966,-0.46435773,0.2852249,-0.65800893,-0.36398423,0.77414834,0.7708943,0.41350615,-0.9964268,-0.66054237,-0.42915154,-0.90008414,0.5770649,0.3167616,-0.33503914,-0.53066313,0.03787887,0.120867014,-0.6376097,0.6636996,-0.30195224,-0.7850077,0.20205534,0.7110214,-0.5318513,-0.1536392,0.8790482,0.4709065,-0.27398717,-0.41908503,-0.92135525,0.75452375,0.6119174,-0.1595993,0.17617309,0.5227215,0.58099055,0.6955694,0.54693437,-0.59063804,-0.46665323,0.63213575,-0.82804835,0.1418904,-0.10315037,-0.6749879,0.86759734,0.000069856644,-0.94324136,0.3000847,0.71686685,-0.531137,0.3445437,-0.80333495,0.5995667,0.5678444,-0.11804283,-0.42904425,-0.38284612,-0.2556584,-0.5101818,0.85791636,0.48194683,-0.17822659,-0.8894478,-0.33153462,0.4080962,-0.77077055,0.037515998,0.13385785,0.77795076,0.7644534,-0.43214035,0.19955981,0.5266384,-0.7109573,0.18302238,0.85331583,0.55729425,0.54768133,-0.0919503,-0.7137215,-0.96493006,0.2180748,-0.37509573,-0.21820295,0.028347373,-0.13670969,-0.7708857,0.35488927,-0.0982455,-0.93608534,-0.93393743,-0.5652212,-0.67777586,0.011226773,-0.6412085,-0.5716039,0.71513283,0.60343766,0.7811657,-0.29302788,0.9728937,-0.82187724,-0.54889905,-0.55981827,-0.24099386,-0.02736175,-0.36253202,0.96719635,0.6322168,-0.29996395,0.4703976,-0.9914378,-0.8104296,-0.3347695,0.18065596,-0.2285068,0.07484257,0.21563852,-0.24883628,-0.74193764,-0.09641254,0.11251533,0.33998168,-0.9909649,-0.015708685,0.47501576,-0.8151772,0.058039308,-0.04035902,-0.21317315,0.4776181,-0.28464055,-0.47436082,-0.48019826,0.9133997,-0.86007,-0.084486604,0.4025606,-0.3494556,0.1677314,0.39910173,-0.8725802,0.25883508,-0.09156954,-0.5068768,0.02553022,0.052145362,0.6082511,0.4904549,0.89967215,0.7833259,0.62489665,0.16225815,-0.7125963,0.19173348,-0.3437003,-0.92505205,0.6377157,-0.95750725,-0.30305016,0.43570483,-0.5252552,0.9387702,-0.72044647,-0.090412855,-0.95683753,0.18193173,-0.055686235,-0.72015846,0.6870884,0.04163921,0.35856557,-0.26825213,0.96702135,-0.9902961,0.4992503,0.111419916,-0.8011012,0.36204386,-0.5552435,0.033875704,0.47496057,-0.17872536,-0.7800553,0.32392597,-0.5125729,0.1334765,-0.7054889,0.38569272,-0.32712615,-0.22577,0.97605586,0.90406096,-0.4627725,0.5732895,0.6050564],"bias":0.7946146},{"activation":0.9904033,"weights":[-0.19538844,-0.9401376,0.53824675,0.55510294,-0.568401,-0.9997586,-0.8903109,-0.8417829,-0.4801445,-0.30540597,0.19016504,0.86936677,0.9957812,-0.3567934,-0.8143462,0.6660669,-0.64845693,0.44034982,0.9458021,-0.921177,0.95498633,0.98275185,0.2975304,-0.7681283,0.7083317,0.63543844,0.42582262,0.250404,0.68593276,-0.25134814,-0.90093887,-0.38585508,-0.7414187,0.61067796,0.4110359,-0.020046353,0.12371802,0.6003578,-0.62463975,0.3861568,-0.45975876,0.10822415,-0.29608595,0.97187996,-0.5840893,0.5629343,-0.36793387,-0.6083654,-0.10843325,0.9493866,0.13413918,-0.15292633,-0.87181413,-0.73120654,-0.769915,-0.13199747,-0.88868535,0.15103388,0.13396561,-0.64277446,0.85103714,-0.5544691,0.5576085,-0.9267125,0.610427,0.45530188,-0.8132434,-0.75260615,0.56463444,0.43898392,0.025079846,-0.27359736,0.39556515,0.00039565563,-0.5530181,-0.74004436,0.1376828,-0.6751218,-0.7489469,-0.2893057,0.06802392,-0.5709541,-0.82408977,0.48772156,-0.6465422,0.15707338,-0.54268825,0.44619966,-0.81973624,0.6700156,-0.95639503,0.21571827,0.5383179,-0.07183957,0.65487885,-0.36020648,0.48204362,0.5199475,-0.83839333,-0.8180561,-0.5890907,0.3576156,-0.6818657,-0.923596,0.620507,-0.067935586,0.46340358,-0.45647514,-0.32960093,-0.6369741,0.29280353,0.8116511,-0.24739122,-0.29380393,0.5116825,0.2808429,0.5090221,0.8357825,0.07847738,0.9804523,-0.3497162,-0.5880482,-0.79062915,-0.882298,-0.4745233,0.7930566,0.70018065,0.75950193,0.3352859,-0.034611702,-0.042438507,0.08503592,0.7117945,-0.6614835,0.49423873,0.25777793,-0.8437294,0.053542852,0.3711934,0.42216945,-0.590369,-0.43889666,0.40873873,-0.920663,-0.043764114,-0.07425547,0.32997584,0.2050668,-0.14774191,-0.9792222,0.974156,0.9600972,-0.7934722,-0.2611531,0.6888882,-0.67312944,0.6927146,-0.99100447,0.24895346,-0.09159851,0.023913383,-0.09632671,-0.43852246,0.1175524,0.09174204,0.9656906,0.9671222,0.057562947,-0.15010858,-0.26897526,-0.7618866,-0.3737297,0.9789908,0.38535273,-0.53747296,0.54963994,-0.92103577,-0.8101454,0.47888684,0.3972801,0.18633628,0.7822672,-0.0011810064,-0.07534695,0.49630797,-0.42775095,0.8183223,0.39817393,0.4665811,0.013256073,0.6932591,-0.3110603,-0.23220563,0.5443226,0.7521268,0.5690888,0.83986413,-0.24004471,-0.8193109,-0.77171695,0.51795185,-0.1798495,0.665079,-0.41715956,-0.88982964,0.1833229,0.98157454,-0.2773447,0.68049026,-0.6049508,-0.9806143,0.24074721,-0.34826815,0.8386382,0.99966395,-0.93242943,-0.43385065,0.42242312,0.12765634,-0.8919287,0.45294678,0.81572556,-0.25936663,0.479908,-0.47003615,0.24397004,-0.7225592,0.3168093,0.69976664,-0.8078841,-0.50794387,-0.6199832,-0.21226668,-0.47699463,-0.8657181,-0.08568084,0.41658866,-0.33514106,-0.77968264,0.63788307,0.39756703,-0.16861546,0.46797347,-0.54140973,0.0099903345,0.41674078,0.30876446,0.3905368,-0.23688841,0.8050102,-0.91192234,0.1215862,-0.32904744,-0.08724415,0.90762055,0.685562,-0.68448687,-0.19329214,0.23154831,0.10404849,0.774248,0.3079164,-0.08331692,-0.72870207,0.49619496,-0.32871604,-0.25665426,0.041687965,0.68045783,0.68604124,-0.14119911,0.888587,-0.93800175,0.7132982,0.7961099,0.52354217,0.7012533,-0.9846302,0.71124923,0.9244778,-0.43248463,-0.71140134,-0.5931535,-0.104040384,0.29804027,-0.65770304,-0.4439274,0.8082402,-0.045330048,0.91845214,0.33857405,-0.8551562,-0.88460267,0.06863284,-0.5825634,0.16467524,-0.08220327,-0.52380466,0.83169043,0.658005,0.75314903,0.6380304,0.7782366,0.31120276,-0.18375993,-0.59730387,-0.20938241,0.10637438,-0.6826743,-0.26935697,0.3029034,0.677987,-0.30282044,-0.9873295,-0.46702385,0.2984295,-0.31645894,-0.13242292,0.6238761,-0.28953385,0.7108489,-0.24359822,0.8941871,-0.4246174,-0.75632465,-0.42944515,-0.47828567,0.67185485,0.029934287,0.37395215,0.48394442,0.6604161,0.10033023,-0.9871764,0.9795008,-0.9828589,0.9930029,0.96093285,0.13744545,0.9890306,0.8937417,0.17466497,0.22600222,0.6357523,0.70429647,0.30793464,-0.38173938,0.3119254,0.98113406,0.46645164,0.81795704,-0.9397963,-0.68361664,-0.8649801,-0.9616085,0.7480172,-0.9597459,0.15949023,-0.6632854,0.33399844,-0.0059491396,-0.822243,0.40497673,-0.16677725,0.7274728,-0.80713916,0.28526318,0.013297558,0.27682304,-0.28203225,0.0992018,-0.8624464,0.4710226,-0.71306133,0.7283232,-0.90267587,-0.7024375,0.3432845,-0.65191936,-0.97642064,-0.17627203,-0.0039924383,0.2039789,-0.2618128,0.52746344,0.066259265,-0.30634713,0.4185816,-0.40148735,0.77851963,-0.6507324,0.26783848,-0.5096772,-0.9316319,0.9515525,0.432634,0.25493574,0.26892805,-0.074596524,0.5427767,-0.16303718,-0.0006914139,-0.025814533,-0.7981044,-0.98505545,-0.86153054,-0.04726684,0.67323816,0.4010986,0.48904037,0.8056464,0.9164816,0.11902523,0.38717723,-0.27159762,0.02735424,-0.459414,0.75737476,0.13118792,0.23765111,-0.63217795,0.95310664,0.46339917,0.14237618,-0.5341079,-0.20573223,0.10570574,-0.41842234,0.712759,-0.52483594,0.8769878,-0.46417105,0.76692283,0.43707383,0.037616134,0.26845288,-0.4988221,0.9276488,-0.49410975,0.8446553,-0.6339921,0.47701466,0.67713237,0.6889944,-0.31511796,0.512707,0.53395677,-0.22425139,-0.6446663,0.053569794,0.50264335,0.77759445,0.46876156,-0.9826186,0.46940994,-0.7683281,0.29534435,0.48934555,-0.22606015,-0.44399273,0.54602146,0.07617879,0.5694535,-0.5422677,0.7131711,0.58421457,-0.85647476,0.22648847,0.18331015,-0.91739607,0.94790614,-0.19405496,-0.537776,-0.8939915,-0.7721567,-0.58708847,0.4906981,-0.5530751,0.084198,-0.067965984,-0.008000851,0.91583014,-0.64822376,0.48886585,-0.20250249,-0.3113531,-0.355433,-0.44264555,0.45823967,-0.1690656,0.6499642,0.25025606,0.66934276,-0.20287979,0.34801114,-0.9957967,-0.8198551,-0.8608248,0.8346926,0.36398625,0.046765804,0.34424126,-0.03152263,0.98042226,0.7288588,-0.75326,-0.21483564,-0.70880246,-0.55571187,0.5171256,-0.4735464,-0.43859482,0.88783574,0.4524684,-0.72357595,0.10688341,-0.72612095,0.57154274,0.42827213,-0.61876357,0.8623768,-0.54896533,-0.40571105,0.551816,-0.058618307,0.8503145,-0.033491015,0.38345313,-0.36125326,0.27683342,-0.09531486,0.22788203,0.16118717,-0.6750274,-0.5499368,0.6084851,0.5566938,0.22436512,-0.16139817,0.045939088,-0.20304894,-0.9599086,0.15367985,-0.076005936,-0.032808185,0.44171703,0.9420445,0.3684132,-0.8961891,-0.12930334,0.09363711,0.49090052,-0.14290869,-0.8289746,-0.91221035,-0.6812744,0.68883145,-0.18852258,0.87102556,-0.62500143,0.22910213,-0.9331621,-0.9381573,-0.4118867,-0.5869454,0.77635884,0.15208387,0.76136446,0.42708874,-0.35025358,0.6813798,0.8029107,-0.19045424,-0.8616359,0.379377,0.2113446,-0.6591034,-0.26840734,0.78683853,0.98339915,-0.62164974,-0.73910296,-0.1570158,-0.9298785,-0.6065202,-0.06862867,-0.3638425,0.7073337,0.0351578,-0.643661,-0.3473382,-0.9378518,-0.06098461,0.7815459,-0.9119643,0.6152599,0.42260766,0.89189804,0.057929635,-0.015008807,-0.1582793,-0.010676146,-0.4650581,0.84021175,0.40395117,-0.40648758,0.024997473,0.7321979,0.26423478,0.98364556,-0.24434292,-0.2974013,-0.85491955,0.20292401,-0.8364748,0.69865096,0.6600466,-0.1461401,0.70154595,0.78665674,0.84582937,-0.22228134,-0.39135373,0.2957034,-0.03894925,0.22229803,-0.32626557,-0.5337447,0.18365395,0.28466523,0.23562288,0.33385205,-0.56263685,0.9774616,0.6396991,0.48052573,-0.4021958,-0.68939006,-0.30882037,0.38417184,-0.94570434,0.6202111,0.25432718,-0.8093437,-0.1434977,-0.72384953,0.71624315,-0.5013591,-0.59813344,-0.035601735,0.051632524,0.345739,0.28552687,0.5493015,-0.8485147,0.13221931,0.6286268,-0.5577884,0.49479902,0.1035862,0.8607193,-0.06454694,0.9175707,0.1406517,0.34576476,-0.94881535,0.3109585,-0.405015,-0.71106136,0.61692405,-0.013958216,0.018387318,-0.8828949,-0.6303494,0.2552936,0.97868514,0.49125278,-0.33886433,-0.37852156,-0.123025894,0.2871685,0.21915114,-0.2609446,0.78449714,-0.9929148,-0.07300329,-0.59151375,0.66598964,-0.51974285,-0.96056855,-0.8032452,0.031618953,-0.9143503,-0.43973255,0.6766226,-0.64998794,0.2714914,0.9246887,-0.2705289,-0.2812971,0.87428844,-0.1507721,0.71672297,-0.08836436,0.2921517,0.94817615,0.970356,0.7256695,-0.41488373,0.215289,0.96116436,-0.6373341,-0.4856665,-0.6122292,0.6646466,-0.97579765,0.566717,0.38738465,0.46519244,0.068253875,-0.55536103,0.4743395,-0.009491682,-0.98534405,-0.76696944,0.49687254,-0.046121478,0.16680968,0.91215754,0.8936229,0.43817723,0.3039925,-0.37518597,-0.7900629,-0.06169498,0.98958313,0.3849337,-0.9030539,-0.9480854,-0.5442846,-0.5925461,-0.4399643,-0.8261545,0.89984894,0.11619198,-0.64632773,-0.75482583,0.38105333,-0.5558708,0.7370192,0.4464774,0.72374666,-0.7595322,-0.17951381,0.41601157,-0.55189145,0.43242908,0.94791603,0.25813127,-0.42164302,-0.52451,-0.3835839,-0.81436837,0.44498575,0.48919725,0.06027496,-0.011645675,-0.19102001,-0.68698764,0.7821944,-0.4451313,0.7645441,0.78821313,0.33086753,-0.650836,0.47947454,-0.8176173,-0.48426688,0.4074123,0.9262465,-0.35612357,-0.81894755,-0.773389,-0.8049538],"bias":0.55147827},{"activation":0.9973876,"weights":[-0.42552376,-0.6627815,0.73862445,0.35478437,0.6598598,-0.7075236,-0.23489153,0.5338119,0.7441269,0.72099566,0.93174815,0.72405434,0.81945026,0.19847345,0.94254494,-0.46226895,0.45614552,0.7959986,0.25419116,-0.82731736,-0.83041906,-0.7656977,-0.51647294,0.9945229,-0.9703729,-0.46042562,0.005119562,0.2989577,-0.50940907,-0.81199574,-0.19832945,0.5050994,-0.6047739,0.8185184,0.28266025,-0.35886788,0.5695517,0.5331526,-0.68186533,-0.08809686,0.20572376,0.05552566,0.5844909,-0.4954151,0.92291486,-0.05993688,0.9084183,-0.5497823,0.69851494,-0.7142112,0.92172825,-0.05851519,-0.45530343,0.48192656,0.3176701,0.051418543,-0.23372912,-0.6543814,-0.64478123,-0.3787489,-0.58299744,0.64759374,-0.5045581,0.27229476,-0.07524848,-0.293033,-0.22350085,-0.53654003,-0.2999512,0.6436089,0.33796847,0.948568,0.64551365,0.8417883,0.019969106,0.4515419,-0.8521607,-0.3698634,0.41978967,-0.21928799,0.22324347,-0.7874259,0.033157706,0.40330982,-0.39873862,-0.46826327,-0.9526286,0.49628913,0.104557514,0.90867126,0.016275883,0.074129224,0.14391041,-0.37253535,-0.53333306,-0.35598552,-0.2736267,-0.048269033,-0.6363869,-0.6121881,0.21422601,0.7847836,-0.83244526,0.9353225,0.4613651,0.76870084,-0.010590076,-0.89084613,-0.7173724,-0.7419394,-0.054778934,-0.6030425,-0.016315222,0.112422824,-0.7461562,0.011130571,-0.00063431263,0.4892558,0.86421585,-0.5035598,-0.82307017,-0.41241944,-0.64694965,0.50304294,0.20979679,-0.6682792,0.10021031,0.22673905,0.8224337,-0.007971048,-0.49119782,-0.6840639,-0.5545211,0.79184616,-0.81356275,-0.8371686,-0.22586834,0.39053905,0.35572708,0.59242105,-0.84900117,0.91041386,-0.6193284,0.86036503,-0.51564014,0.51277006,-0.64859724,-0.4792117,0.6885693,0.6691501,-0.5620135,0.2682433,0.43960893,0.6701089,0.183218,-0.7370523,-0.40432262,0.0474025,-0.76933897,-0.49475956,-0.024031878,0.27855158,-0.63316536,0.6335919,-0.029111028,-0.44712293,-0.05291438,-0.41419375,0.10351837,0.2722082,-0.44926155,0.11156082,-0.11589861,0.09402728,-0.7323004,0.6346196,0.7769034,0.058834195,0.6086234,-0.48305213,0.08711147,0.48253322,0.9548812,-0.7048955,-0.7751672,-0.2489841,-0.063307405,0.8797703,0.9235196,0.8279915,-0.6672201,-0.8593768,-0.50670123,-0.6569307,0.9871465,-0.28370023,-0.7510356,-0.79409087,-0.06026995,-0.96225274,-0.8526298,-0.30109727,0.5923109,0.39452827,-0.99581003,0.50026536,0.0920037,0.2663231,0.52367914,0.9944043,0.3052081,-0.31085742,-0.7701833,0.9174355,-0.9762049,0.54783416,-0.61732817,-0.5707445,0.27964163,-0.6224433,0.6077901,-0.8116878,-0.8939688,-0.3829645,0.7481744,0.97154593,-0.84381557,0.53447163,-0.7061486,0.3164376,0.4646572,0.10802722,-0.4720652,-0.30364347,0.6731038,0.7601868,-0.26846933,0.5873654,-0.37986207,0.5282421,-0.5419649,-0.9089037,0.69808507,-0.15007496,0.51369774,-0.32848704,-0.8768337,-0.7070099,-0.4146633,-0.82956076,0.020221591,0.24356318,0.24061656,-0.32341015,0.44609034,-0.9417887,-0.97737217,0.11915076,-0.2920605,-0.8604555,-0.6778642,0.17929924,0.7243327,0.25592852,0.22893465,-0.2329849,0.19483352,0.44566822,-0.83222616,-0.033716917,-0.3403684,0.276657,-0.621995,-0.69984055,0.5287882,0.27740812,0.3275733,-0.61628103,-0.06597543,-0.881565,0.56556773,-0.6343117,-0.5815786,-0.16651583,0.13506341,0.24985552,0.6198219,0.32603824,0.67752886,-0.003152728,0.73027396,-0.15032113,-0.77434623,-0.39918745,-0.5373683,0.5682241,-0.029382467,0.5395559,-0.197003,0.17154884,-0.7047168,-0.86573887,0.3431939,0.5974239,0.64051425,-0.5107522,0.6899018,0.27193058,-0.9291059,-0.68602955,0.16092753,-0.15243328,-0.18324935,0.45743394,-0.13063884,-0.5694947,0.18474936,0.45188534,-0.6097326,0.116259456,0.414361,-0.49956214,0.22751331,-0.4505962,0.47908318,-0.86802053,0.4219371,-0.64748657,0.35819745,-0.9338423,-0.531924,-0.345559,0.8581294,0.027186275,0.78271115,-0.8929752,0.7274319,-0.46398032,0.4829961,-0.086393595,0.4028952,-0.24006593,0.52192485,-0.61354804,0.17290545,0.3129022,-0.49745286,0.3659556,0.6305479,0.90518546,0.09629166,0.29253054,-0.21534598,-0.21922672,-0.41384506,-0.32133758,-0.46707833,-0.61236846,-0.49543965,-0.2741623,-0.060277104,-0.4955685,0.15936434,0.04078138,0.03464389,0.1827215,0.9900619,0.71380746,-0.5364748,-0.04933393,0.64895666,0.8220203,-0.24476075,0.28377092,0.11959696,0.034715533,-0.8258127,-0.15488839,0.69848883,0.00572443,0.8422239,0.34969842,-0.87537074,-0.42107785,-0.8145851,0.7995465,0.9310162,-0.095534444,-0.2097665,-0.050127625,0.63735783,0.7747514,0.22173119,0.8264202,0.30899024,-0.11275208,-0.7982019,0.29197443,-0.5277628,-0.49919617,0.7754804,0.45996225,0.4378965,-0.37523675,0.72862947,-0.43421447,-0.80171084,0.8907889,-0.6994215,-0.28822815,0.7485883,-0.6811155,-0.6376374,-0.40609372,0.32421982,0.17033768,0.8979491,0.32665682,0.49139357,-0.49458432,-0.36425018,0.1526339,-0.32066345,-0.60754955,0.4884014,0.34634995,-0.1534568,0.6316328,0.6166576,0.50616693,-0.2932285,-0.54186606,0.32374334,0.5451189,-0.313182,0.25158644,0.50095224,0.25270867,-0.89688814,0.027613401,0.96655524,-0.56984425,-0.8222554,0.16883433,-0.63320327,-0.14654076,0.21556008,-0.13542807,0.8715613,0.78499436,0.48074436,0.38428366,0.420655,0.13536358,0.8920039,0.35187614,0.089446306,-0.97349894,-0.99591935,0.6138009,-0.17346644,-0.68423486,0.027531028,-0.5581231,-0.31455767,0.86691666,-0.7438613,0.90827155,0.4686463,0.9475671,0.5141983,-0.2430569,-0.097218275,0.33513057,-0.680089,-0.47967744,0.31021857,0.5132811,-0.7202982,-0.7709429,0.87862825,0.08379245,-0.08477676,0.22197938,-0.122796655,-0.28357577,-0.6587043,0.4358245,-0.58197737,0.3727361,-0.31057048,-0.47666943,-0.26382852,-0.65796196,0.7880758,0.41872132,-0.67647135,0.32174957,0.5329392,0.114299536,-0.5801053,0.8596524,-0.64364505,0.9893557,-0.95788586,0.46421742,-0.08411765,0.27506173,0.68730724,-0.4406407,-0.8567947,0.23808157,-0.1529187,0.51346326,-0.3422786,-0.8274597,-0.032343507,-0.4771222,-0.9554241,0.098576784,0.30516517,-0.44580483,-0.38543928,-0.9821454,-0.11619604,0.6973696,0.17098427,0.7186519,0.13675201,-0.21614397,0.6208013,-0.52737606,-0.4263692,-0.9123608,0.43146002,0.16997993,0.79278576,-0.4695053,0.18619657,-0.20280588,-0.24557114,-0.073566556,-0.29030466,-0.2900809,-0.8210232,-0.7536026,-0.07462776,0.1644299,0.72530437,0.08613539,0.85969925,0.691728,0.43000722,-0.07909167,0.795028,-0.42534018,-0.46014547,-0.0040016174,-0.48382342,0.5712029,-0.40877402,-0.83788097,0.39801347,-0.41512907,0.48620236,-0.982761,0.27883112,-0.95766056,0.66751266,-0.07029259,0.15941429,-0.99428844,0.32564902,0.43431532,-0.14394629,0.9482306,-0.37199152,-0.003707409,0.5376301,0.7222024,0.6426164,0.667454,-0.4348687,0.4054159,-0.45079458,0.64468145,-0.62189364,-0.5069268,0.18485236,0.7768073,-0.22510898,-0.95770097,-0.6389928,-0.06475389,0.4318061,-0.24119854,-0.12138963,0.44683325,0.044806242,0.31150723,0.5644498,0.97998273,0.21055186,0.11168146,-0.14935136,0.16767395,-0.53424597,0.5096381,-0.68634546,-0.40166342,-0.98552215,-0.8376614,0.054243207,-0.44875813,0.63089275,-0.3059554,0.9341147,-0.6632693,-0.54768574,0.5618695,0.06589699,0.29521823,0.98765457,-0.73228717,-0.81485665,0.2189529,-0.43866372,0.42625737,0.84499097,-0.23566484,-0.72555006,-0.8730211,0.28601265,0.41737175,-0.8937262,0.035285473,0.5052264,-0.8408097,0.41297317,0.6416141,0.095098615,-0.41590393,-0.1279819,-0.85240793,-0.61171865,0.074472666,0.19821429,-0.018241167,0.026429892,0.02325797,-0.9670687,0.42764628,0.6147115,-0.48881435,0.017135859,0.20968747,0.78907955,0.20587766,0.54433894,0.8494865,-0.116977096,-0.514307,-0.8634552,-0.94833136,-0.83550155,-0.24106574,-0.9951695,-0.9674721,0.17256904,0.265962,0.30399024,-0.52006114,0.72857714,0.3534943,0.98668706,-0.41734147,-0.5963547,0.2510383,-0.9548874,-0.07931769,-0.9767008,-0.8076509,0.8236387,0.536849,-0.7394644,-0.09469974,0.8066902,0.7878889,-0.26529872,0.5677415,-0.2943896,-0.4161427,-0.9105567,0.4840796,0.34648252,0.79316735,0.5847672,0.46020532,-0.097661614,0.3164761,-0.25269246,-0.09702504,0.8323815,-0.77909756,-0.44174087,0.5081873,-0.60113347,-0.73267496,-0.6564319,-0.40449512,0.4433403,-0.740245,-0.7227644,0.023448586,0.70911777,-0.30122745,-0.20280504,0.039182067,0.040216684,0.1890961,0.21458054,0.12660551,-0.62300265,-0.554057,0.32276344,0.5203439,0.98649716,-0.10412359,-0.65896297,-0.5319693,0.8841735,-0.71585953,-0.33878636,0.18862593,0.3877982,0.5294466,-0.19709933,0.92341375,0.47723663,0.8215569,0.97643924,0.23060215,-0.23906088,-0.30975378,-0.5785402,-0.026777625,0.619588,0.43881035,0.6549815,-0.5279499,-0.11667347,-0.31378686,0.32265544,0.046766996,-0.52608716,0.76577437,-0.83075,-0.40246677,-0.6964929,-0.13291442,0.25859344,-0.010759354,0.15789926,-0.87975776,0.3691939,-0.26993942,-0.82114184,-0.031015754,-0.51209414,0.6852585,-0.353536,-0.40086937,-0.5297799,-0.28491175,0.5926473,0.42900074,0.16523373,-0.45381224,-0.55953324,0.7547798,0.5469307,-0.6343509,-0.6062354,-0.017106414],"bias":0.47497618},{"activation":0.0012276039,"weights":[-0.6989833,-0.04395342,-0.08951938,-0.5583837,0.2316029,-0.8026508,0.4901297,-0.5745027,0.13831711,0.9377458,0.24574637,0.041974545,0.086972594,-0.6050596,-0.20503473,-0.0485754,0.9219527,-0.9272344,0.41278493,0.8457693,-0.3896805,0.28656757,0.033766866,0.69466734,-0.9587121,-0.4406886,0.4659282,-0.9561949,-0.32318807,0.25285006,0.10546911,-0.7507664,0.2693404,0.97723484,-0.5541241,-0.5832958,0.35184264,-0.76491463,-0.85327876,-0.84002197,0.49641454,0.1268822,-0.4732797,0.659951,-0.23040247,0.7038231,-0.77263415,-0.2862128,0.7211287,0.57026684,-0.4417436,-0.9082792,-0.08631778,0.5819427,0.1760807,-0.3849938,-0.45607972,0.76496875,0.5982151,0.22439456,0.7885481,-0.3178134,0.2875799,-0.39340913,-0.9376857,0.09786284,0.27215123,0.8557086,-0.07599902,-0.26685512,-0.3517691,0.8181504,-0.009195447,0.7016195,0.031235218,-0.3774079,0.6869484,0.70882535,-0.5534644,-0.68890595,-0.9178411,-0.81847656,0.8055408,0.0104106665,0.86106884,-0.65507984,0.39121437,-0.79370725,0.36970496,0.7168695,0.86366737,0.9726888,0.9499881,-0.20892608,-0.4297757,0.38977075,-0.16733742,0.049002886,0.53972733,0.53804314,0.01620841,0.89724386,0.7547976,-0.04044819,-0.61897624,0.6643218,0.39005387,-0.23748112,-0.79825985,-0.8276707,0.5285671,0.3704933,0.4572971,0.67559314,-0.96727407,-0.9612982,0.1088717,0.09733689,0.506358,0.80675125,-0.53664744,-0.42986822,-0.8421873,-0.87350845,-0.5419687,-0.4012798,-0.42768228,0.33401537,0.9781463,-0.4564309,0.368034,0.7320856,-0.25945508,-0.048319936,-0.5624474,0.30608594,0.90196705,0.37516594,0.044279456,-0.31692517,-0.60078216,-0.8127245,-0.738922,0.4244051,-0.55520666,-0.9832257,0.5544081,-0.5646579,0.4195552,0.8257159,-0.42711806,-0.27869034,-0.25444067,-0.12030816,-0.34567535,-0.2292155,0.8708186,-0.67060244,0.639927,0.049186707,-0.6902734,0.7607796,0.7054702,0.8263509,0.6282344,-0.08141744,0.70166075,0.31122184,-0.87537384,-0.37106836,0.68806636,0.53209114,-0.26118672,-0.6999694,0.38128614,0.2526561,0.4358058,-0.5050942,0.2885133,0.27754474,0.7679429,-0.14020813,-0.6210091,-0.31754577,-0.9798552,-0.6821984,0.21670961,-0.9473425,-0.8835275,-0.30333018,0.7934153,0.7392756,0.03863275,-0.06384122,0.9451711,0.78529096,-0.411947,0.7317158,0.009687185,-0.62581444,0.74837554,0.6410161,-0.73381567,-0.6077018,-0.6339276,-0.666749,-0.85772324,0.08279264,0.73968315,-0.6449683,0.43497026,0.9870745,-0.5207869,0.43787277,-0.5290731,0.5492363,-0.4901775,0.12156403,0.660836,-0.32162285,-0.18844903,-0.5825254,-0.754647,-0.096126676,-0.9182719,0.12135482,-0.28061044,-0.73665917,-0.13630891,-0.08496642,0.9833435,-0.33027184,-0.9161643,0.056344867,0.71209586,-0.1669761,-0.56223106,0.44410014,-0.39027262,0.5967549,-0.5284853,0.26029074,0.88969433,0.6197144,-0.99409056,0.72691417,-0.32353485,-0.7808211,-0.86269605,0.7254727,0.8584299,-0.7657697,0.61738956,0.8281137,0.862759,0.89157677,-0.6299039,-0.17312384,0.28466427,-0.22906089,-0.11424291,-0.49854946,-0.628263,0.5082222,-0.7836896,0.92008305,-0.78398335,0.6802726,0.3855369,-0.5729053,-0.009417415,-0.07852733,-0.57403576,-0.15127242,-0.67548966,0.0725472,0.79895127,-0.13615906,-0.98097336,-0.80795693,-0.05015409,0.6585237,0.09754729,-0.48453248,0.36171806,0.031995773,0.8870032,-0.46750546,-0.80148494,0.48895288,0.005763173,-0.43833256,-0.8794029,-0.1597805,-0.65582466,0.42467785,0.98930144,0.7684696,-0.7073978,-0.11396241,-0.43828714,0.52841103,-0.5536009,-0.20578432,-0.9984485,0.2896235,-0.30928707,-0.71949124,-0.5716145,-0.10267973,-0.3485886,-0.9968734,0.6367668,-0.49688375,0.092820406,0.49918342,-0.9271451,-0.71245015,0.13566422,0.4181602,0.15976584,-0.20807815,-0.44849777,-0.09225857,-0.93896616,0.7726958,0.7661091,-0.6203532,0.5613744,0.29681253,-0.22575796,-0.97996664,-0.14436603,0.08430767,0.778496,-0.50010085,-0.96477854,0.23440135,0.7695389,-0.8744749,0.500715,-0.710776,-0.07094705,-0.77503395,-0.94815624,0.63933873,0.20381403,-0.16863239,0.32147098,0.739812,0.7194009,-0.85705566,-0.7454674,-0.40842164,0.18829429,-0.23343635,-0.79078674,-0.02837789,-0.21310365,-0.6028054,-0.3499087,-0.41462564,-0.5160022,0.52527547,0.022115588,0.8191879,0.61371326,0.17424464,-0.5221555,-0.8215971,-0.86307967,0.2804048,-0.15246844,0.8048526,0.53269565,-0.5532987,-0.849954,0.46354365,-0.012120247,0.863114,-0.24898303,-0.9966414,0.06940985,0.32677615,0.6059582,-0.6147845,-0.81463265,-0.81895804,0.8632579,-0.8372245,0.7379457,-0.3004545,0.11425388,-0.135939,-0.60112584,-0.38094306,-0.093761206,-0.1984036,-0.059542418,-0.73395824,0.8567028,0.78070927,0.94506097,0.28471696,-0.20905125,-0.7173331,0.47708964,0.61462533,0.87861407,0.37583077,-0.6342051,-0.58002615,-0.4900658,0.5512179,0.38920486,0.98068404,0.17230392,0.2876526,-0.9770775,0.23677635,-0.57158566,-0.9882972,-0.5371407,0.70880055,0.7863996,-0.43972158,-0.35668135,0.61290705,0.16439116,-0.22464395,0.969172,-0.59554935,0.9244431,-0.4098183,0.76978076,0.7206086,-0.16179144,-0.7187377,0.58779097,0.14060748,0.86846125,0.02623558,0.97495496,0.6142279,0.94556797,0.27573264,0.70931804,0.17547107,0.6692574,-0.0018954277,-0.6583295,-0.0387336,0.9181266,-0.42242157,-0.51572204,0.49402344,0.83925045,0.65784526,-0.88244677,0.47479844,0.27467442,0.8245717,-0.28867292,-0.7204046,0.93230677,-0.59503865,-0.93163526,0.3121593,0.42524898,0.19381618,-0.42967606,-0.84901714,-0.6826352,0.46753693,0.9823811,0.6879449,0.051181912,-0.1920445,-0.13926113,0.30680275,0.47320163,0.24262774,-0.9355444,0.7696748,-0.6822628,-0.32806695,0.24255991,-0.23983932,-0.5702455,-0.8232813,0.040275455,0.68807065,0.7949096,-0.525916,-0.26319265,-0.03461492,-0.92226136,0.30008805,0.70477116,-0.6985549,-0.19565392,0.9775655,-0.30570686,0.48933792,-0.02103901,0.0306772,-0.6079562,-0.102178454,-0.45399547,0.49440944,-0.08215773,-0.41577446,-0.32548654,0.19334304,0.04089904,-0.59748197,0.08372128,0.5777979,0.7211995,-0.5654229,-0.04758632,-0.32982826,-0.30731332,0.075276375,0.25204432,0.31132388,-0.5802778,-0.8411646,-0.32889438,-0.70871115,-0.033216834,0.21944427,0.97966886,0.65527225,-0.024970412,0.42592752,0.34059882,0.45942223,-0.32208192,0.34399998,-0.29511106,0.8670435,-0.8866509,0.749421,0.93855035,-0.66789985,-0.6961193,-0.038764477,0.5430906,-0.70280635,0.96474826,-0.9814024,0.782938,0.66972196,-0.47713256,-0.5873529,0.39590287,0.91701126,-0.93880844,-0.9171988,-0.46287048,-0.42023218,-0.33848143,-0.21071446,-0.5502541,-0.27897608,-0.84567964,-0.022952676,0.5660323,0.9641645,0.9583701,-0.42156827,-0.89572,0.18070614,0.9956013,0.27896214,0.2062707,-0.21562934,-0.8815483,0.38160992,-0.06774211,-0.48152018,-0.6920904,0.43082583,0.12699306,-0.59295225,0.52322054,-0.3702402,0.35793173,-0.77836835,-0.48286462,0.95212126,0.6739373,0.48568535,0.65072405,-0.23852026,0.9296063,-0.27577627,0.096867085,-0.5816158,0.2512927,-0.23131382,0.86336386,-0.19379759,-0.25784278,-0.98928237,0.61766636,0.20735407,-0.70857584,0.9973211,0.9867836,-0.54844475,-0.01721847,-0.50667155,0.31308496,-0.3507179,0.90167284,0.64470077,0.59505856,-0.73514926,-0.81429505,0.58156633,0.76351964,-0.89937246,0.9743347,0.474218,0.44070578,-0.030384183,0.6007247,-0.18114579,-0.88947034,0.16384184,-0.37713134,-0.72156155,0.15091288,-0.44682586,0.42634833,-0.34458482,-0.31270635,-0.06617916,-0.19716072,0.78226006,-0.40901744,-0.22113526,0.6652458,-0.6567029,0.32813156,-0.64540744,0.13184452,-0.59873223,0.1805985,-0.20673478,-0.43032396,-0.71114874,-0.75900996,-0.9866934,-0.86480105,-0.46053195,-0.15959251,-0.24776614,-0.42824674,0.42485976,-0.19044805,-0.97624314,-0.20354462,0.3225485,-0.037720203,0.13347721,-0.20848966,-0.5935732,0.28041446,0.053283215,-0.43206537,0.98899925,-0.37855196,0.78895295,0.045123696,-0.23647833,0.22543669,-0.71424496,0.4135791,0.8558421,0.0023417473,0.90214515,-0.53170526,0.4240979,-0.24538183,-0.52930343,0.61720717,-0.8195648,-0.73527265,-0.6267042,0.8192556,-0.5691521,-0.17372906,0.013600826,0.8140162,-0.92203915,-0.5212469,0.8221148,0.032465458,-0.7157893,-0.51564455,0.006576538,0.70491576,-0.481331,0.34777617,0.058362365,0.5521449,-0.723696,-0.62735224,0.13246429,0.83429277,-0.12886417,-0.22360432,0.5401914,0.7436547,0.8562521,0.51091206,-0.22476411,-0.87182057,0.7469008,0.6787553,0.76235986,-0.8529291,-0.7842177,-0.3939408,-0.7889645,-0.9316262,-0.5270517,-0.16755533,-0.44012952,-0.6439167,-0.34965217,-0.047029853,0.37863004,0.09783137,-0.6471636,0.45244753,0.14161956,0.7546197,-0.27131343,0.7519685,-0.70961654,0.90116084,0.9243487,0.8927169,0.2786919,-0.18798304,0.9207797,-0.5529133,0.13587153,0.5998633,-0.7797307,0.19991302,-0.8831624,-0.25095856,-0.7468436,-0.8991817,0.073215365,0.025095701,-0.80202305,-0.10526693,0.4887973,-0.0016185045,-0.6463506,-0.4868425,-0.28273296,-0.96609783,-0.7021164,0.19181752,-0.14253664,-0.9678805,-0.0003207922,0.38820028,-0.36284864,-0.055029035,-0.84511435,-0.8338784,0.44739664,-0.28187072,-0.5114813,-0.70745015,-0.9952264],"bias":0.3998943},{"activation":0.0114667155,"weights":[-0.2755071,-0.72043765,-0.6656662,-0.65038717,0.4204725,-0.7391914,-0.9180088,0.6546848,0.70996094,0.61693335,0.46932685,0.26394176,0.24044633,-0.7845408,-0.70655274,-0.31599247,-0.6987674,0.9463228,0.4879874,0.4397,-0.646621,0.78811777,-0.18901587,0.11826444,-0.97026134,0.7323277,0.8908887,-0.31997955,-0.5845872,-0.46491992,-0.08779347,-0.058255076,0.40048075,0.244416,0.29442048,-0.2580645,0.65646386,-0.9973912,0.48405135,-0.7528002,-0.9278922,-0.7487446,0.5890101,-0.79915357,0.9681144,0.56112015,-0.90443885,0.4104675,0.565676,-0.02164507,-0.4998573,-0.9864187,-0.40361643,0.082068324,-0.7845777,0.17871797,0.1577692,0.3077458,0.82774997,0.10229409,0.7190449,0.6507977,-0.78106475,0.44070268,0.99312377,-0.60635185,0.6699413,-0.77554905,-0.79105544,0.5416362,-0.06695402,0.49283493,0.61049676,0.41969073,0.7698983,-0.45740914,-0.48281348,-0.44868088,0.5566839,-0.90392244,0.8473507,0.77529883,-0.29547763,0.5156419,-0.34140968,-0.62633944,0.2564119,0.635239,-0.98292935,0.03536427,0.6147679,0.599543,0.039637685,0.5888603,0.2315594,-0.6392629,0.28147113,0.7679908,-0.98999333,0.9639876,0.8179518,-0.27369547,0.07801187,-0.20983386,-0.2994486,0.40639937,-0.14700115,-0.25246954,0.47946775,-0.0057519674,-0.9488636,0.649925,-0.4369092,0.9479846,-0.6571249,-0.7356789,0.57716644,-0.30222988,-0.7758087,0.33068025,0.9061221,-0.93424404,0.08311558,0.6995852,-0.19831514,0.8087541,-0.4705372,-0.63009787,0.36311853,-0.6682097,0.58735585,-0.50143695,0.7451438,0.2168485,-0.38823032,-0.5751214,-0.21737313,0.94894385,-0.5770639,0.90787506,-0.07211614,0.7243601,0.1385814,-0.4483137,0.24020052,-0.77186143,0.39821482,-0.98810697,0.48974764,0.72140324,0.36803722,0.64372134,-0.012269616,-0.43327546,0.4950682,0.5599705,0.06065297,0.9959246,0.47905743,-0.41269267,0.9779625,-0.21837139,0.023071766,-0.39645886,-0.4092033,0.9086008,-0.87668085,0.19713998,-0.24736655,-0.06958735,0.83812284,-0.099555016,-0.5763558,-0.3413006,0.5277827,0.5977709,0.7866596,-0.7852888,0.22911417,-0.06198299,-0.42209506,-0.61715746,-0.43859518,0.4890269,-0.88878095,-0.76843786,0.113993764,-0.24830139,0.76066434,-0.83119166,-0.26499307,-0.1261239,-0.9667679,0.5498204,-0.48267686,0.5838411,0.6306815,-0.5917735,-0.088398576,-0.19449222,-0.12730503,-0.29329348,0.86866844,0.44818902,-0.035965562,-0.85534525,-0.6721319,-0.9941963,0.92333734,0.8353901,-0.8122909,0.73250616,0.83444345,-0.50992453,-0.49597454,0.9769105,-0.4960246,0.40133655,-0.9948678,0.0139580965,-0.91778743,-0.50656927,0.30042124,0.6302191,-0.33465004,0.42385197,0.356637,0.3167479,0.59599125,-0.8084142,-0.13345838,-0.41457713,-0.8037834,0.36962283,-0.83811057,0.41839874,0.25375557,-0.447672,0.6149515,-0.044670105,0.5817504,-0.00925827,-0.36501384,0.23687136,-0.580672,-0.5018234,-0.32003164,0.2106353,0.44438207,-0.5259447,-0.037499547,0.25153255,-0.043239236,-0.5123913,-0.76075804,0.2456305,0.974831,0.21438134,-0.6483666,0.70997417,0.8582015,0.4983536,-0.16247725,-0.5371822,-0.06427705,-0.053964734,-0.64398813,-0.36653078,-0.59383154,0.02515924,0.7634473,-0.12337732,-0.8265971,0.035254955,-0.21001947,-0.42923355,0.98274827,-0.2255615,-0.2970972,0.26199365,-0.070782304,-0.9667512,-0.19055486,0.9975941,0.95025265,-0.006389141,0.30068278,0.11312604,-0.9814706,-0.7524837,0.6564195,-0.98073983,-0.52101624,-0.17999005,0.5783689,-0.9079305,0.38981938,-0.4852903,0.7925781,-0.28960526,-0.010439277,-0.4364388,-0.75183034,0.90484715,0.40824795,-0.16417038,-0.16130137,-0.121319056,-0.67451346,0.5881164,-0.0065436363,-0.7229947,0.24718559,-0.980613,-0.5127803,-0.6821948,0.830997,0.21950805,0.09711301,0.22855008,-0.76355636,0.81470764,0.111483335,0.061582565,0.49742055,0.102766275,0.5497118,-0.8501154,-0.94427156,-0.82999504,-0.24663651,-0.8499154,0.7762935,0.18447423,-0.47336996,-0.13833761,-0.35845888,0.05184424,-0.045407772,0.54632175,-0.021728516,0.3365667,-0.49070632,0.4995203,-0.24364376,0.76489604,-0.014543176,0.37297654,-0.3731414,-0.9785317,-0.9867619,-0.4789852,0.40211046,-0.9257611,0.62384343,-0.44832087,-0.90168655,0.18778324,-0.18129861,-0.82232666,0.23243499,-0.8177997,-0.98049486,0.05897379,-0.4214326,-0.792465,-0.76179314,0.027051926,-0.86211836,0.410123,-0.911428,-0.886222,0.06625068,0.99090314,0.46492326,-0.6768141,-0.5804466,0.16813123,0.537076,-0.82873106,-0.68046606,-0.026517987,0.3033347,0.1922121,0.7823993,0.006011367,0.511219,-0.60521615,0.7390809,-0.35926616,0.5988498,0.009307861,-0.086684585,-0.58808124,-0.6422484,-0.76304495,-0.21510708,-0.9964049,-0.7895925,0.67871547,-0.8774115,0.8092685,-0.6455662,-0.9884496,-0.38857353,-0.6422175,-0.08858454,-0.46971977,0.8531985,-0.1578114,0.59176004,-0.025794268,0.68841887,0.7692237,-0.12143755,-0.4028908,0.8138298,-0.4609995,-0.098647594,0.33975804,0.3703295,-0.43925047,-0.3517326,-0.00016701221,-0.78132105,-0.3853923,-0.8452678,-0.8990861,0.41710413,0.8635502,-0.9314314,0.06708968,0.07260275,-0.15121281,-0.89649034,-0.010017633,0.6472974,0.17207241,0.31421685,-0.6572038,-0.3956797,-0.61432326,-0.90738106,0.7383816,-0.5503905,0.49537385,0.3141061,-0.3209716,-0.6101061,-0.23742735,-0.09757936,-0.17319083,-0.87852347,0.27444625,-0.5331402,-0.7315922,-0.20394373,0.41329038,-0.6945565,0.052146792,-0.21626592,-0.704865,-0.8501444,0.6564878,0.7859851,-0.135988,0.33095074,-0.92053354,0.66827345,0.7181436,0.53648853,0.9671284,0.6472101,0.07024622,-0.72038627,-0.84937334,-0.5777514,0.3968233,0.65972054,-0.58032537,0.94828725,0.23425937,-0.9658357,0.78498614,-0.6969117,0.5617132,0.9659413,-0.5945382,-0.23448443,0.50163686,0.83026385,0.48592758,-0.8176993,-0.6796161,0.54498684,0.27819002,-0.74938464,-0.9024408,0.91658485,-0.83154714,-0.18653953,0.8045391,-0.42605448,0.93206334,0.37923777,0.16906464,-0.036940455,-0.668504,0.59446573,0.5776875,0.32117367,0.19449723,0.56322694,0.25255716,-0.67671585,0.09966755,-0.98085856,0.8874954,-0.34835732,0.5998125,0.2944728,0.2816472,-0.52627015,-0.9239017,0.012345314,0.6989893,0.79339397,-0.32525563,-0.7613957,-0.3893925,-0.29258847,-0.4363624,0.31490564,-0.46506464,0.5864284,-0.52423763,0.7078719,-0.25568998,-0.7626668,0.41115594,0.75158334,-0.17657042,-0.3882202,0.8509873,0.12378061,0.6191919,0.116965055,0.19607437,0.32479703,0.17400908,-0.13328004,-0.84906065,0.4473188,-0.39478397,0.84639776,-0.6697334,0.5591055,-0.97924113,-0.42349195,-0.008946657,-0.108002305,-0.44571042,0.9019109,-0.78301203,0.75799084,0.05036664,-0.9382589,-0.7972096,0.47970998,-0.6308253,-0.71349466,0.5839646,0.261824,0.9963685,0.35189855,-0.019096494,0.24368632,0.461887,0.37560272,0.059464574,-0.20106983,0.80519927,0.71067095,-0.16642463,0.8932072,0.6202898,-0.16109824,0.011803269,-0.19043338,0.80953205,0.31506777,-0.81486714,0.2800361,-0.9349334,-0.36613655,0.38678288,0.7785691,0.77219534,-0.7228497,-0.38448822,-0.80402935,-0.4038813,-0.20538568,0.20128596,0.24840212,-0.19494498,-0.67353547,-0.5274259,0.21147454,0.6838013,-0.49526167,0.27275825,-0.72985876,0.25001657,0.36146688,0.37716722,-0.33223522,0.9414133,0.7819469,0.6016444,-0.28770077,0.9475757,0.18456578,0.0013533831,0.6100062,0.82916343,0.6816733,0.76422846,-0.92105055,-0.4454795,-0.1795975,-0.957585,0.16193771,-0.68671,-0.18155563,0.30116856,0.6634288,0.23526108,-0.27771246,0.9149853,-0.25969958,0.02941811,0.39930153,-0.94504166,-0.44001997,-0.347988,0.3026905,-0.045330405,0.0034195185,-0.25355184,-0.30233765,0.9936378,0.48123264,0.4961722,0.34959388,0.7452811,0.3580644,-0.17378354,-0.14795494,0.8123565,0.62470675,0.6992494,0.2909448,0.2958666,0.36041617,0.5610752,-0.04620552,-0.5005287,-0.6012019,-0.9804586,0.13545775,0.05659938,-0.022570252,-0.27785087,0.16649973,0.5887021,-0.44535863,0.7211034,0.021052718,-0.42919302,0.45010388,-0.8959489,0.2787876,-0.5959798,-0.56842387,0.053673267,-0.852667,-0.057670116,-0.68859005,-0.6553168,0.081932664,0.40917826,0.8042432,-0.35687792,-0.09872341,0.30176413,0.01315558,0.18438232,-0.04815507,-0.22710288,0.7685386,0.030157804,0.08296335,0.39979672,0.15232849,-0.56409883,-0.47258997,0.66286576,-0.025376678,0.03342271,-0.67338026,-0.3378564,0.62759185,0.67771065,-0.5847584,0.78214836,0.49694157,0.32010424,0.38998652,-0.25898468,-0.28414762,0.2502656,-0.844571,0.26607037,-0.834139,0.12244272,-0.14178085,0.4001392,0.70279396,-0.6606877,-0.41920543,0.43307495,0.14091194,-0.49862182,-0.8861834,-0.19674098,-0.5726019,-0.58908534,-0.5278834,0.86655605,0.48896813,0.09305966,0.021932364,-0.12457073,-0.86513555,0.57267594,0.009492636,-0.24698818,-0.92477024,-0.7383388,0.8257952,0.5368252,-0.14241767,0.507962,-0.31400275,-0.017629385,0.7481797,-0.15116215,-0.78265476,-0.88193166,-0.8424773,-0.38406634,0.76970136,0.8507767,-0.20021117,-0.895851,0.026413918,-0.20460606,0.34140682,0.8579103,0.059839964,-0.9881383,0.048000216,0.69174826,-0.58039045,0.9334786,-0.31114817,0.542729,0.8561497,-0.8945316,-0.9568409,0.07435799,-0.5379381,0.89155483],"bias":0.07457322},{"activation":0.9999033,"weights":[0.36435962,-0.7502104,0.24861634,-0.8834213,0.07852042,0.055635214,-0.40166855,-0.81028056,-0.056413293,-0.86811745,0.06608772,-0.9808711,-0.5344361,-0.85209763,0.94450605,-0.5011952,0.6355213,0.80896235,0.9240358,0.80314624,-0.32068813,0.82030606,-0.8587761,0.514287,-0.22289026,0.74967384,-0.056408525,0.8264059,0.17274666,-0.81460416,-0.9560878,0.68058026,-0.24945462,-0.68351805,-0.6668216,-0.52962744,0.99804604,0.96467006,0.18548155,0.225618,-0.47267723,-0.076717496,0.06205201,0.056955457,-0.25123763,0.4268521,-0.58420455,0.20399547,0.68528974,0.16399896,0.92694426,0.4089316,-0.17619038,0.030172348,0.71641314,0.25538337,-0.41156292,0.74534404,0.061209917,0.56516314,0.27203274,0.87309074,-0.94041765,-0.2537228,-0.3235705,-0.6080488,-0.9169061,0.060905337,0.13939106,0.51322174,0.6559448,0.119363666,0.82710123,0.3733256,0.9086884,0.015493512,-0.009225726,0.93564117,0.6327777,-0.56118536,0.6023917,0.11097276,-0.77132714,0.950112,-0.8644799,0.6525428,0.3549639,0.50865304,0.7578342,0.2854166,0.3791678,0.64880085,-0.9711361,-0.19329298,-0.41105044,0.56479394,0.98977935,-0.20172131,-0.24639213,-0.115239024,0.94451714,-0.001866579,-0.11753976,0.46958637,0.15022671,0.72836506,0.98600006,-0.9133742,-0.49132848,-0.021708012,-0.9003025,0.37621236,0.23272681,-0.37574625,0.76231146,0.31199062,-0.9506017,0.28484237,-0.9722488,0.13957107,0.7482667,0.021363378,-0.0029536486,0.69436336,0.40402925,0.08597052,0.33883297,0.39651132,0.51357996,0.12044251,-0.5694878,0.29137373,0.63797224,0.5264642,-0.532868,0.321571,0.7055547,-0.7082726,-0.5730157,-0.28945398,0.6523999,-0.21519077,0.8007908,-0.31191385,-0.09354353,0.4213909,0.9793165,-0.24753535,0.806098,-0.5656599,0.5315244,0.4773755,0.5216763,0.6653625,-0.76843953,-0.43780732,0.12027967,0.36115372,0.26080036,0.7987784,0.19678307,-0.95942307,-0.38626957,0.13187456,0.37176192,0.9219247,-0.57833755,0.84234893,0.0666914,0.8475001,0.80350745,-0.84421325,-0.5360837,-0.64225507,-0.07324755,0.37046528,0.50273407,-0.7481214,0.94225967,-0.11850703,0.6664692,0.787971,-0.3078102,0.09862375,-0.46638274,-0.78894114,0.25657582,0.8383231,0.15339816,0.11150205,-0.5537323,-0.8840568,-0.9054704,-0.57859933,-0.6788628,0.05588031,-0.89639485,0.4024998,0.20552194,-0.71754014,-0.07333279,-0.099701405,-0.8888817,-0.8045043,0.37694025,0.5959227,0.12383556,-0.17782569,0.3798741,-0.36127818,0.80419374,-0.89959264,-0.93635345,-0.60766757,0.3080846,0.9224653,-0.610989,0.31101227,-0.24302101,-0.21951115,0.6933937,0.9998709,-0.58057475,-0.5311856,-0.20453501,-0.39960384,-0.1886208,-0.91249835,0.92370105,0.31541598,0.8254726,0.93396926,0.02350998,0.33910382,0.90513265,-0.53866136,0.8008914,-0.96089745,0.74181926,-0.37861133,0.36934817,-0.36114872,-0.24744773,0.8237337,0.13684475,0.1865598,-0.6107317,-0.97037876,0.011498809,-0.19755983,0.8677113,0.9669399,-0.07249808,-0.47127807,-0.25181007,-0.33664322,0.7350433,-0.8892523,0.03916955,-0.84884393,-0.5368891,-0.7144865,-0.5848124,-0.34109735,-0.63214445,-0.08989513,0.99638224,0.0902555,-0.6217077,0.041812897,-0.5154965,-0.55387175,-0.5464984,-0.5794662,0.7829945,-0.77599204,-0.7349951,0.36925697,-0.58858335,-0.8632604,0.46206713,-0.7942759,0.64441776,-0.94176185,0.3130113,-0.048579454,-0.5660441,-0.74869204,0.17683291,-0.35207796,-0.8704076,-0.9612236,-0.58555436,0.6088035,0.9782802,-0.9008907,0.22602785,0.53402793,-0.032360196,-0.44252288,0.44579995,0.6916858,0.9583961,0.077548385,0.24503553,0.7094184,0.39786208,0.6447315,-0.015462279,-0.25128603,-0.5209671,-0.44744658,0.0894047,0.03414488,-0.58226264,-0.23064363,-0.07050645,-0.7199521,-0.17266,0.7400756,-0.13932312,0.27179825,0.88282514,0.67406285,0.1570847,0.93915033,0.20543647,0.28665936,-0.21915615,0.8193066,0.029659152,0.91736877,-0.13373744,0.86972487,0.3201878,0.23435688,-0.6613332,-0.90367544,0.765079,0.5838493,-0.4589703,-0.8772143,-0.1903634,-0.5660285,-0.83049166,-0.21260607,0.71226645,-0.17278397,0.6491084,0.84631777,0.5456978,0.54137766,0.9202616,0.19616699,0.5241649,0.8874452,0.6871687,0.105620146,-0.15146494,-0.35704684,0.35901952,0.13912034,-0.054545403,0.7023928,-0.32186675,-0.15908659,-0.04160416,-0.72738886,0.66827834,-0.44654143,-0.538064,0.5561174,0.01487112,0.5763658,0.5967845,-0.45396018,0.29341447,0.96467113,-0.06316781,-0.2740513,-0.4749074,-0.6808897,0.70262134,0.8682723,-0.47636974,-0.53266513,0.74567294,-0.5724354,0.43891847,0.8596425,0.26822174,0.43618178,0.7733493,0.7039901,-0.41019893,-0.3033005,-0.7227944,-0.9936162,0.9027604,-0.52191556,-0.32420325,-0.59159124,-0.6738664,-0.7540059,-0.72450244,-0.61021876,0.3714409,-0.33166718,0.8028041,-0.7017691,0.7103858,0.51391804,-0.37086213,-0.5207528,0.11455679,-0.85543644,0.3884791,0.02664733,0.85173213,-0.57449687,0.8242301,-0.330698,-0.12227619,-0.83045256,0.99324536,0.39442885,0.023207068,0.39114523,-0.20959842,0.44637942,0.54103374,0.058603883,0.8640348,0.34677088,-0.11370003,-0.18859768,-0.51100385,-0.7875663,-0.99369156,-0.014267087,0.38535643,-0.43735778,0.9890206,-0.9903226,-0.37642038,0.7653531,-0.57000554,0.9512458,0.4992845,0.86541593,-0.71524346,-0.9391781,0.14287007,-0.49703252,0.12885487,0.8568084,0.8401834,-0.67777276,0.77203715,0.5286951,-0.17526984,0.6991854,-0.22413027,0.0052160025,0.19829714,-0.21851325,-0.352795,-0.9056951,0.1653986,-0.7414212,0.6305295,0.12282753,-0.24824321,0.45431554,0.030167699,-0.11854851,0.12605631,-0.67786777,0.278903,-0.3601309,-0.51255596,0.822593,0.4506389,0.24459803,0.14522195,0.52108943,0.27691245,-0.4396981,0.29309964,0.9098371,-0.863037,-0.30035782,0.73000276,0.66945314,-0.0922544,-0.56338215,0.8787658,0.40741313,0.3156954,0.039129496,0.25140107,0.6706482,0.42265856,-0.20134878,-0.11356139,-0.9859966,-0.8738823,0.40308928,0.54046595,0.2076881,0.9005892,-0.04425955,-0.2116096,-0.10548484,0.9638287,0.7882129,0.6724503,0.20720494,-0.3424604,0.46163464,0.809289,0.44565678,-0.7056922,-0.6629621,-0.047444224,-0.52323043,0.56363773,-0.39565492,0.016302466,-0.9065665,0.4021368,0.6319392,-0.12894356,-0.7946986,-0.9479159,-0.67311275,-0.5910922,0.33091748,0.021317363,-0.029898524,-0.8223417,0.9646914,-0.65548944,-0.8616003,0.3628837,-0.39061904,-0.05589223,0.9964639,-0.10597384,-0.5700339,0.51879334,-0.74361587,0.9951265,0.009648085,0.058786154,0.69390476,0.26806486,0.21820068,0.6492183,0.1457628,0.28155088,0.54366994,-0.38378036,-0.48370504,0.51171136,0.45884657,0.5764339,-0.80878985,0.03465748,-0.9974717,0.7119944,0.21601474,0.28222775,0.43632364,0.55551696,-0.5960455,0.03889382,0.20538461,-0.17668772,0.70494676,0.07299054,0.1520766,-0.29907846,0.6597246,0.02628684,0.50326633,0.4690752,0.5362711,-0.504815,-0.7838923,0.07087088,-0.347448,-0.2973864,-0.0100774765,-0.7010211,0.04626906,0.45310926,-0.27328992,0.22185254,-0.7907257,0.06432617,0.86549735,-0.5845703,-0.95921206,0.038683176,-0.8348596,0.59853184,-0.2045716,-0.6809405,0.41476,-0.19830155,-0.8775362,0.72475684,0.35098386,0.6149287,0.5933912,0.23335695,0.46493304,-0.6476238,0.69912195,0.8937315,0.52187836,-0.7729225,0.74313545,-0.17313218,-0.70266545,-0.3010838,-0.5625504,0.8959868,-0.18468726,-0.99110055,-0.31161368,0.09270561,0.81244016,-0.58852327,-0.08294952,-0.011525035,0.79907715,-0.2425232,-0.88166904,-0.7016219,-0.24850142,-0.58843446,-0.3648628,0.78855,0.8215693,-0.08407152,-0.30110848,-0.82994103,-0.88824105,0.087807775,0.58721006,-0.5480335,0.66366076,-0.18225038,0.9265528,-0.9226619,0.5733129,-0.19196999,-0.8045883,-0.05455172,-0.072812796,-0.23447025,0.38803613,-0.01856792,-0.19284272,0.57369506,0.80784214,-0.17515957,0.63117063,-0.02195537,-0.38633096,-0.42524803,0.113963604,0.09778607,0.3766575,-0.9198797,-0.47961116,0.47817767,0.7148646,-0.14240372,0.73643446,-0.33341634,0.4387673,0.034509897,-0.3211974,0.85864353,-0.07011521,-0.74564564,0.063981295,0.34267473,-0.552714,0.33309007,0.7840129,0.5112494,-0.63258255,0.73062766,0.5884143,-0.20317936,0.9478713,0.053251743,-0.9384005,-0.59862804,-0.42424655,0.42019224,-0.8117502,0.3003471,-0.918241,0.6656313,0.92667913,-0.76313543,0.5851474,0.5538626,-0.43244588,0.011105895,-0.2737714,-0.7834995,0.058261156,-0.80755067,-0.24438298,0.30867434,0.11362982,-0.89732695,-0.65112495,-0.7795111,0.060855508,0.5668857,0.26698422,-0.72387505,-0.92460537,0.6087364,0.5185193,0.20817792,0.6594641,0.04468751,-0.0054461956,0.64996374,0.011734962,0.19309735,-0.19952476,0.4211049,-0.95738363,-0.8106477,0.6141342,-0.24088085,0.06255889,-0.7318952,0.42270744,-0.6729448,0.28828776,0.87920845,0.32276,0.9120121,-0.16142988,0.64474463,0.42412317,0.78954256,-0.15597606,-0.50439966,-0.7854276,0.8170366,0.4933679,0.98439026,-0.96884215,-0.04220116,0.6184349,-0.73060596,-0.47841167,-0.58334494,-0.021690011,0.2443583,-0.821504,-0.8488685,-0.53689265,0.56496227,-0.7615588,-0.88376546,0.8897052,-0.58027947,-0.12034404,-0.4818759,0.97948825,0.04581213,-0.73897624],"bias":0.39687198},{"activation":0.9323312,"weights":[0.20134497,-0.18282509,0.10020614,0.6106533,0.30729067,-0.5816603,-0.9668839,0.53769743,-0.7223226,-0.754385,-0.40473425,-0.3518647,0.41686714,0.8348173,-0.806363,0.5717323,-0.6447054,-0.66433525,-0.832937,0.7828653,0.5945425,-0.2584685,0.7883233,0.20883965,0.08548784,-0.9273962,-0.41381776,-0.11505258,-0.28228426,0.32883656,-0.7728064,0.21988809,0.3587569,0.05418086,0.5269772,0.32055652,0.37998915,-0.98675907,0.77116776,0.7796922,-0.39645064,0.6329874,0.20083916,0.0010815859,-0.86646223,-0.50124454,-0.15992999,0.86229706,0.014235258,0.9145155,-0.80071104,-0.15398645,0.48570764,0.5303651,-0.52572,0.5738689,0.091686726,0.87213075,-0.2942567,-0.7295469,-0.48227024,-0.74423945,-0.03846574,-0.5504638,0.31791103,-0.7738669,-0.73745286,0.73902833,-0.8518865,-0.56724656,0.77491224,-0.2906922,0.7224896,-0.77749836,0.047062755,0.69216883,-0.32546794,0.6528424,-0.08734012,0.9037399,-0.39090288,-0.1894356,0.8381691,-0.79432535,-0.57489157,0.6674582,-0.10719466,-0.12212479,0.80491745,-0.46536493,0.88362753,-0.67663026,-0.7390771,0.5232687,0.111711025,-0.53634846,-0.9619384,0.739812,0.60849214,-0.8022554,-0.8274976,-0.09797609,-0.8823178,0.2011882,-0.7198999,-0.6836475,-0.7614832,-0.9253948,0.67953086,0.72961795,0.030828357,0.4046532,0.124528885,-0.5493946,0.11476326,-0.5116652,-0.85176253,-0.40231764,0.16030824,0.0013123751,-0.57012,0.6682106,-0.5822214,0.33063614,0.7586751,0.035518885,-0.96625376,-0.5192237,-0.37246716,-0.84672797,-0.85326636,-0.39899242,-0.44927156,0.8669919,-0.24539709,-0.124663234,0.37698627,-0.26984632,0.87296367,0.13109744,-0.54796517,0.17983878,0.6811943,0.2551198,-0.78176916,-0.28745186,-0.92571294,-0.80406606,-0.95953727,-0.9753376,-0.22133732,0.1989026,0.08923757,-0.32201242,0.106692314,-0.10425305,-0.8661537,0.7381482,-0.11254096,-0.9230279,-0.76897943,0.14684892,-0.49465013,0.97715986,-0.8798417,-0.6909497,-0.026662588,0.015039325,0.9395077,0.3573488,-0.22215283,-0.8229693,-0.43664563,-0.42460704,-0.34162068,0.9904231,0.82110834,-0.68770015,0.7881323,0.89251363,-0.24981797,-0.45688498,0.7822802,-0.52382123,0.4237492,-0.44373524,-0.6486341,0.2632835,0.9389298,0.75379217,-0.79689884,-0.38037062,0.22201836,0.63442504,-0.36947262,-0.516564,-0.06783867,-0.060411215,0.6855916,0.8319793,0.9636475,0.31028974,-0.7363986,-0.73667955,-0.9074762,-0.9652101,0.656587,0.63006425,0.31205225,-0.51488125,0.53179157,0.63276076,-0.16826665,-0.8768296,0.05711329,-0.27896106,0.023828983,0.9378841,0.043178678,-0.9020027,-0.35347295,-0.84950376,-0.6284374,0.15737605,0.61040413,-0.85148966,-0.45184422,-0.86665297,-0.9859469,-0.6129234,-0.6861917,0.75601184,0.09559178,-0.33167303,0.5371454,-0.27632082,0.39748776,-0.214329,0.47819114,0.52237177,0.47517884,-0.58043265,0.36869144,0.7142478,-0.28744352,0.95036125,-0.057319522,-0.28133786,0.5813408,0.98200655,0.6897862,-0.8393979,0.07920325,0.17628133,0.18745887,0.9592848,-0.5846933,0.85408807,-0.33997166,0.47536254,-0.4228139,-0.3565446,-0.5394561,-0.4048972,0.10827792,-0.83805716,0.27742827,-0.13354862,0.11021507,0.9996338,-0.17959785,0.8987839,0.86942625,0.9949999,-0.04749453,0.19762301,0.76182556,0.26387644,0.1743989,0.9025655,-0.8274987,-0.43417776,0.17879951,-0.21649694,-0.5402986,-0.84000444,-0.87525296,-0.7932472,0.5817646,0.4842769,0.0070825815,-0.7588376,0.04486227,0.90712583,-0.38842905,-0.9704765,0.96165025,-0.53910375,0.038394213,0.16876316,-0.44279492,0.4909129,-0.52690303,-0.14772534,0.9842365,0.34845996,0.77299,0.7648392,0.1166352,-0.09962344,-0.601611,0.408077,0.7685001,-0.36364245,0.23396611,-0.1332711,0.22310889,-0.45935774,-0.61690986,0.6398319,0.86511064,0.4563185,0.25315094,-0.22074771,-0.2615081,0.35354972,0.9507005,0.40427494,0.4149158,0.5477228,0.734514,-0.9337001,0.70910835,-0.7740536,0.14234686,0.4841801,0.5078033,-0.9562366,-0.410141,-0.14064622,-0.6519772,0.1658901,-0.83513856,0.31726563,-0.4899001,-0.0920881,0.864604,0.34683192,-0.28067672,-0.7204766,-0.13352454,0.5166645,0.39395618,-0.7607765,0.071379185,-0.91547537,0.27942383,0.47566342,-0.24949491,-0.18784487,-0.21071577,-0.03038323,0.917755,-0.66121674,0.7351712,0.41321206,-0.57014394,-0.96442974,0.01860559,-0.094733,0.75681365,0.197402,-0.9894874,0.7349962,-0.21592247,-0.6724422,-0.73660064,0.61919284,-0.8429556,0.94662464,0.4547752,-0.001512289,0.38757014,0.34526324,-0.7776921,0.8386718,0.20972359,-0.77927136,-0.98691285,-0.6469548,0.42727172,0.54152226,-0.038151503,0.3387518,-0.50859606,-0.78249824,0.26801538,0.2383709,0.29004848,-0.87039423,0.23695898,0.9017942,0.9409735,-0.9202231,0.046554685,-0.4391867,-0.68150413,-0.9206511,0.7978207,-0.23105371,0.9590434,-0.8286017,0.54380965,-0.9042958,0.5568466,-0.22440791,-0.7841977,-0.77073145,0.503809,-0.2543975,0.03589046,-0.88330615,0.9458169,0.6905432,0.54985356,0.41461194,-0.38764262,-0.80645907,-0.5147468,-0.122069836,-0.035212517,-0.5229726,-0.24997914,0.22623193,-0.88944757,0.79606736,0.375378,0.60708046,-0.19475806,-0.7511432,-0.23535156,0.9777914,0.7662928,0.2926513,0.27270103,0.6087233,-0.31031978,-0.42990088,-0.5992737,0.74384487,0.14658237,0.8807678,-0.1705836,-0.57004964,0.63149214,0.25792027,0.28863692,-0.9760475,-0.044820666,-0.5960903,-0.04685688,0.5108845,0.56247914,-0.9810592,-0.36696076,0.5518453,0.65268874,0.6267016,0.057482004,-0.45735264,-0.09512043,-0.16909242,0.81805694,-0.94427717,-0.13102317,0.15437591,0.9028903,-0.28594565,0.21037686,-0.7764491,0.15508306,0.98025954,-0.9942101,0.8480872,0.9884106,0.839733,0.99828124,-0.65494096,-0.6947093,-0.7284541,0.35201836,0.443246,-0.40629327,0.7721504,0.56916475,-0.38608432,0.94531727,0.6284219,0.40198624,-0.77994,0.7037469,-0.91255665,0.85746956,0.2276324,0.21086907,-0.5386635,0.74493873,-0.9479219,0.85477567,0.42160964,0.88079596,0.13719761,-0.88992345,0.5960094,0.69459283,-0.010842204,0.6452185,-0.80686235,-0.0077843666,-0.72786033,-0.82472336,0.65075004,0.8357322,0.035453796,0.15951574,0.8523271,-0.095911026,-0.50488555,-0.46847463,0.27929437,0.7405729,-0.6687001,-0.9490775,0.45437002,-0.49565542,0.5874593,0.9509562,0.33092916,0.3877313,-0.17553365,0.09141779,-0.81669486,-0.0149588585,0.061157465,-0.82454205,0.9487008,0.43928277,-0.15197134,0.029271126,-0.041019917,0.16170275,-0.4307865,0.9870182,-0.6218387,0.04657948,-0.6720389,0.7889087,-0.3496487,0.40030408,-0.5394242,-0.8569257,-0.23708808,-0.19694912,0.6007787,-0.91114306,-0.9133804,0.75265765,-0.65043557,0.48190677,-0.5872735,0.37032402,0.3506956,-0.7891356,0.37447357,0.36402786,-0.08282733,-0.9495264,-0.50764906,-0.78160095,-0.17748415,-0.49213874,0.45120585,0.34412062,-0.89381075,0.24821877,-0.823228,-0.578097,-0.6213124,0.4156313,-0.47905767,-0.35867167,-0.6631726,-0.9637207,-0.39523697,-0.46187103,-0.5276059,0.42665792,0.88059604,0.6182939,0.31560147,-0.8041408,0.92188823,-0.49759245,-0.874522,0.5360898,0.801033,0.3945135,-0.9522228,-0.43023312,0.26612568,0.93305755,0.0092282295,0.9661486,-0.425112,-0.06218314,-0.2752223,-0.04528761,-0.20101118,-0.26163173,0.7907691,0.985646,-0.35847712,0.10614705,0.73474526,-0.85565937,-0.2217257,0.60985875,0.1379968,0.84049773,-0.92690897,0.33480847,-0.5595325,-0.14302588,0.99957657,0.08889508,-0.15345955,-0.10467005,-0.31548297,0.088925004,-0.79117644,-0.2369076,0.53384745,-0.53622663,0.8577385,-0.3870635,0.59130526,-0.08205426,-0.8289461,0.6706246,-0.19754195,0.46902215,-0.70418656,0.12394893,-0.43708646,-0.84263813,0.5723604,-0.33583188,-0.84580994,0.4429406,0.178159,-0.72981095,-0.5868882,-0.17284703,-0.63540614,0.50539374,-0.25838852,-0.11833894,0.8771275,-0.92755306,-0.96981966,0.9918122,-0.730582,0.12727165,0.44349742,-0.50696564,0.8379686,0.8025975,0.3852899,-0.40052986,-0.04061508,-0.61189675,-0.38120008,-0.03690207,-0.10724807,0.9299512,0.08590114,0.5250882,0.6859554,0.7271564,-0.16185188,-0.7885518,0.82224476,-0.82878196,-0.8363966,0.81427705,-0.2029351,-0.34189868,-0.03191316,0.3301034,-0.10711646,-0.283193,-0.19587874,0.47760653,0.41638672,0.7136296,0.37148058,-0.526127,-0.75715315,0.6190088,0.35205436,-0.01503253,0.2176547,-0.87450993,-0.1708945,0.431512,0.27117062,-0.85762095,-0.5094408,0.7978817,0.5914253,0.5325861,-0.041757345,-0.7519903,-0.12080705,0.68275154,0.35530543,-0.33628905,0.73770726,0.983042,0.17827785,0.3594762,0.8520893,0.7615993,-0.38374805,-0.4895717,0.80586934,-0.31580126,-0.90565753,0.28439307,0.5275254,0.62931216,0.8227196,-0.34041524,-0.96272576,0.060531616,0.15197432,0.23955905,-0.15023887,-0.91058064,-0.8674073,-0.30864227,-0.77703047,-0.74001014,-0.38921106,-0.57438076,-0.95591605,0.17500925,0.70876014,-0.5704993,0.4329449,-0.13491905,-0.6474582,-0.5778817,-0.16876125,-0.17356384,0.13740766,0.85190654,0.26927125,-0.50965977,-0.69239056,-0.22252786,0.07113516,0.13365841,-0.64962673,0.4385817,0.4947611,-0.8651916,0.9690933,0.76311266,0.4752568,-0.5104698,0.99739456,0.5237309,-0.81964684],"bias":0.9042955},{"activation":0.99173474,"weights":[-0.785954,0.1433841,0.33046138,0.65389466,0.5665704,0.4404379,0.78325,0.8282584,-0.942263,0.9787626,-0.45417845,0.59442973,-0.9375386,0.73021233,-0.5266758,-0.06901181,-0.28065145,0.8758,-0.9289963,-0.01903224,-0.5998541,-0.07008159,0.13085365,0.47965896,0.37044096,0.6689279,0.98508906,0.37797427,0.7964971,-0.115668416,0.6726333,-0.096161485,0.025780678,-0.8471322,0.7133814,-0.12956941,0.5652741,-0.86079514,-0.51952195,0.30542397,0.9915587,-0.3990295,0.3987913,0.32605338,-0.10424113,-0.5491208,-0.30265725,0.6338403,0.17082107,0.75903654,-0.334015,0.85183895,0.043663383,0.362805,0.22367084,0.27195668,-0.47950733,-0.9335778,0.49361312,0.62462306,-0.7143737,-0.94012654,0.35748172,0.15840852,0.2543794,0.18674421,-0.9777219,0.054860592,0.9079565,0.5060394,0.9730016,-0.39066362,0.9338794,0.36723995,0.60392106,-0.3809353,0.06545353,0.9419162,-0.34348786,-0.13105488,-0.99185634,0.77068245,-0.78641117,0.41558492,-0.6608616,0.46004677,0.8640456,-0.41572797,0.32993782,-0.027855515,0.38817203,0.7527499,0.97305727,-0.20633984,-0.93787336,0.19962168,-0.88650525,-0.15156984,-0.3218776,-0.9902568,-0.7318876,-0.68455267,-0.51630545,-0.62665117,-0.4719429,0.62334466,-0.6407536,-0.052836657,-0.9359151,0.4769231,0.71486056,-0.366562,0.8058138,0.79485476,0.33897328,0.8409914,0.15927231,0.28347182,-0.47654688,-0.14243257,0.6068487,0.6399931,0.10977876,-0.24970186,0.10733998,0.5303006,0.09894824,0.24222553,0.064665556,0.17721105,0.8195592,0.526271,-0.8904288,-0.25829637,-0.22725558,0.14926183,-0.8802246,0.228495,-0.6075475,-0.33496416,-0.741439,-0.3563274,0.83984065,0.3330047,-0.8893926,-0.7478969,-0.274876,0.8324573,-0.19768965,-0.4372475,0.8084147,0.2843454,0.7145003,0.6807636,0.2107966,-0.50881624,-0.8591374,0.7785598,0.8030436,-0.05014193,0.76442206,0.75195503,-0.14814031,0.7125851,0.2631123,-0.4325657,0.39253628,-0.7419331,0.121158004,-0.6836746,-0.8800341,-0.028733969,-0.095578074,-0.7341887,0.589741,-0.004627824,-0.073991776,-0.62087226,-0.5540321,0.505324,0.3165238,0.0024318695,-0.7079308,0.17305076,-0.3022865,-0.6204983,0.7940259,0.78467894,0.9656409,-0.13385105,-0.6345198,-0.5111873,-0.6965015,0.87078154,0.8849431,0.016043305,0.71204185,0.8570515,-0.84122515,0.1792103,-0.3238362,0.21431708,-0.9821845,0.2891003,-0.5469692,-0.023240447,-0.30824935,0.651312,-0.720858,-0.25736892,-0.77674234,0.90422523,0.5849937,0.81838083,-0.94704056,0.49529433,0.33868563,0.61806417,0.35537982,-0.6486428,-0.83050025,0.49994874,0.44877565,0.77125514,-0.15478694,0.15631998,0.55633414,0.8342489,-0.6706226,-0.98432493,-0.33433235,0.60943556,0.22873163,0.83668756,0.5009917,-0.31777632,-0.467476,-0.6812184,-0.785794,-0.050429463,0.28604782,0.24677587,-0.05430627,0.04279208,-0.6724963,-0.672433,-0.58722556,-0.31013668,-0.3656782,-0.37737846,-0.4267863,0.96995544,0.70013404,-0.47127652,-0.60054684,-0.2777313,0.8683301,-0.5827503,0.87731636,-0.15843606,-0.5272335,-0.5258248,-0.5371896,0.22121322,0.49479806,0.5318283,0.56919646,-0.80366933,-0.33388758,-0.4308747,0.0071890354,0.69454014,0.36070728,-0.011823893,-0.1296246,-0.15167344,-0.3719126,0.02859199,-0.9265542,0.89989364,0.12899685,-0.40879464,0.36374593,-0.3254435,-0.7034495,0.79601645,0.8192191,-0.09806836,-0.13616824,0.38198137,0.2325263,0.19699907,-0.69950783,0.030538917,0.39525044,0.5558164,0.56118274,-0.05142963,0.99930143,0.87871516,-0.3740288,0.98261213,-0.5258956,-0.7171202,-0.83765054,0.5835885,-0.7531501,0.7261077,0.39165556,-0.8771061,0.8045535,-0.86716616,-0.045413733,0.22756827,0.06909907,-0.66140413,-0.9873731,0.5263238,0.64297223,0.97465444,0.6793903,-0.25159693,-0.87775564,-0.6054505,-0.37355006,-0.1927799,0.071959615,-0.20737469,-0.94650257,-0.048363686,-0.73423135,-0.8420533,0.51717186,0.6531236,0.43080056,0.8672198,0.24520361,0.4988531,-0.24898231,-0.5416341,-0.10631728,-0.21560585,-0.6006967,0.08647287,0.23286593,0.8631433,-0.8597605,0.4659933,0.91066504,0.24424767,-0.9886378,-0.8851023,0.6772579,0.37199867,0.0714432,-0.15693247,0.97778857,-0.26181722,-0.25296247,-0.7019526,0.8358058,0.056532264,-0.7654098,0.08795285,0.18336666,0.5523733,-0.7000874,0.5269543,-0.8390112,0.29016447,-0.5273148,0.549451,-0.01998663,0.6522496,0.79782975,-0.038563013,-0.49872673,-0.008640289,0.9277103,-0.63136494,-0.08204925,-0.8133309,0.7064893,-0.6992215,0.7231958,-0.80839384,0.019891858,-0.8341216,0.60197294,0.553607,-0.11645031,0.1744107,0.2250905,0.5926521,0.7110877,0.45496678,-0.80266345,0.8614805,-0.10635722,0.26041973,-0.2660663,-0.17830575,0.47824812,0.24525738,0.7531291,0.96731734,0.05989194,-0.2796471,-0.1933924,-0.5866953,-0.22526693,0.9537053,-0.78425515,0.3088988,0.4084667,0.42139494,0.57804716,-0.7222972,-0.64137447,0.13435626,0.99273074,0.58244455,-0.33552396,0.7120844,-0.6409936,0.6074785,-0.8665247,-0.88596463,0.80733526,-0.31514895,-0.7306768,-0.29046416,0.020712376,-0.11093986,-0.7589855,0.6201652,-0.46613705,-0.41460264,0.5893631,0.16178644,-0.32054603,0.43452954,0.8667983,0.6910447,0.7289479,-0.4646846,0.21878684,0.6993929,-0.8304019,0.2427243,0.5679295,-0.6107855,-0.03689289,0.5689306,0.23878217,0.54101396,-0.8403603,0.2440201,-0.25065935,0.47237682,0.87179387,-0.40497208,-0.44877565,0.53574264,0.20647061,0.4832095,-0.02265668,0.23585176,0.86043954,-0.14027274,0.98500013,0.9694115,-0.8430685,-0.3179525,-0.45844948,-0.44253945,-0.22643971,-0.14689362,-0.0658679,0.59826577,0.941893,-0.98380876,0.47069383,0.51781785,0.7402806,0.30961573,-0.63853097,0.4536382,0.15807545,0.055066705,0.6357322,0.16490793,-0.45116425,0.56983864,0.7945477,-0.6285523,0.8199799,-0.9673388,0.52233934,0.8170639,-0.41108835,-0.2772926,0.36690378,0.035844803,-0.21779037,-0.08466756,-0.7320771,-0.119781494,-0.33502316,0.7506448,-0.29284108,0.57109964,-0.19320202,-0.3655548,0.9539547,-0.97487617,-0.35671544,0.5290421,0.38248754,0.042162776,-0.3107183,-0.7822217,-0.4869386,-0.7490492,0.40654647,0.74201167,0.3870355,-0.29785717,0.015697122,-0.9911107,0.12630725,0.5877861,-0.43246508,0.70875406,0.89427996,0.7822112,-0.95980895,-0.16152704,0.254251,-0.12471247,0.63308966,0.080379486,0.5561073,0.02756691,-0.48050618,0.48878348,0.96147156,-0.54228127,0.86983,0.016863227,0.33685327,-0.98679733,-0.07900417,0.94313073,0.38686848,0.38889456,0.0678674,0.81153715,0.03695607,0.95109105,-0.05388689,-0.17140424,-0.65540445,0.63381517,-0.28239477,-0.46327114,-0.9650998,0.85632,-0.36643445,-0.89792895,-0.70836735,0.26548386,0.86335766,-0.19205523,0.64076257,-0.05397165,0.7232506,-0.53000283,-0.32102358,-0.13889194,-0.15499675,-0.012469053,0.59746945,-0.5451833,-0.33176577,0.6463436,-0.49517846,-0.56189334,0.10940254,-0.73141956,0.09251523,-0.7427118,0.44546223,-0.014583707,-0.041065693,-0.8524872,-0.08844733,-0.7374228,-0.84965205,-0.9598862,0.81307435,0.466583,-0.17938983,0.73686314,0.31214237,-0.8055892,0.7235323,-0.24532938,0.3248211,0.41942322,0.6596085,0.47412515,0.90604854,0.66867924,-0.39379585,0.9197097,-0.68874824,-0.8968165,0.37072814,-0.9036895,-0.8395183,-0.70576894,-0.07025516,-0.1972357,-0.2823434,-0.46403313,0.06526971,0.48651505,-0.9965682,0.609486,0.0072619915,0.6335778,0.37683523,-0.14065337,0.27674007,-0.7387928,0.246889,0.73281157,-0.3281294,0.5974262,0.26742494,0.04213226,0.81020737,0.06810117,0.7492863,-0.7340064,-0.98733425,-0.5201708,-0.725693,-0.48103094,0.08630872,0.9063575,0.61798286,-0.55128884,-0.5035553,-0.6164911,-0.6810008,-0.37645984,0.24517405,-0.23246717,-0.86112463,-0.7102797,0.4058528,-0.12744832,-0.93456733,0.76995337,-0.4354669,-0.20598066,0.26021433,0.3347001,0.21498883,-0.13898373,0.66611886,0.18725014,-0.86174166,-0.77369606,0.52659214,0.53478694,0.9645821,-0.31689787,0.35936236,0.1752733,-0.34870338,-0.8227793,0.30953002,0.5517919,0.9878137,0.44083834,-0.35828543,0.22936106,-0.7872422,-0.4699056,-0.9968667,-0.20568144,0.6903428,0.28695226,0.9635445,-0.59002995,0.66477144,-0.9824579,-0.46730483,0.5585841,-0.98869956,0.975572,-0.5167748,-0.592589,-0.8909817,-0.47835112,0.31594467,0.6005832,-0.2140919,0.47677612,-0.5286397,-0.58481467,-0.18692255,-0.44166648,-0.9152154,0.5363246,-0.7394575,0.042639375,-0.7192435,-0.0393939,0.5972626,0.3480854,0.08910692,0.2345506,0.49471807,0.8268676,0.45851386,-0.15553856,-0.66870546,0.71941674,-0.1806711,0.57244205,0.7724502,-0.7149527,-0.47321558,-0.04827845,-0.5663953,0.88986313,-0.88966465,-0.06800592,-0.8577999,0.504531,-0.38841677,0.92316794,-0.8486252,0.62120163,-0.36993086,0.4185804,0.32639432,0.17790854,0.59174144,-0.5322144,-0.759333,0.80025446,-0.23742938,0.018705845,0.726375,-0.56309485,-0.80739367,0.4595213,-0.5904293,0.6987685,-0.30125737,0.73013306,-0.72343934,0.73930943,-0.0060265064,0.5731152,-0.7690413,0.3837813,0.41489196,0.71022856,0.79790366,-0.21935916,0.82569456,0.91947854,0.8171257,0.28803647,-0.8723136,-0.5972073,-0.5481305,-0.3998388],"bias":0.7009822},{"activation":0.52546155,"weights":[-0.29242718,-0.74166715,0.37652743,-0.9332671,0.06260145,-0.51550233,0.16507757,0.70692563,-0.44702673,-0.623235,-0.81498384,-0.13295913,0.042880654,-0.40854943,-0.8846376,0.3464949,-0.86104655,0.76575065,-0.99666107,-0.812304,0.15645647,0.27209342,0.108887434,-0.44475365,0.93563974,0.2440095,0.55219066,-0.49330378,0.31690156,-0.03664708,0.884351,0.93615556,-0.8120853,0.12351942,0.4924487,-0.032684088,-0.15923166,-0.6198652,0.38053036,0.19271207,-0.3711009,0.4157461,0.33467937,-0.7366365,-0.8396715,0.21826804,0.45383954,0.9569621,-0.87442327,0.22628295,0.62556994,-0.55515754,0.10234165,0.94878864,0.9798856,-0.8871989,0.5404726,-0.6884345,0.5811981,-0.97615683,0.7913693,-0.60535264,0.5872896,-0.58892894,-0.40375018,-0.22487628,0.8165475,-0.26914918,0.05353999,-0.97022486,0.85200906,0.89102244,-0.7407297,-0.4228952,0.4555794,-0.47990108,0.24138403,-0.33400404,0.854123,-0.38221133,0.6348027,0.5744523,-0.16751611,0.045066237,0.4948486,0.1917659,-0.6754981,0.48206818,0.60492575,0.23648429,0.12965083,0.79976094,-0.21752918,-0.36237466,0.33638418,0.87245536,-0.94513845,0.81244075,-0.91969275,-0.8613204,-0.6442518,0.6845448,-0.7375598,0.39687216,-0.42945457,0.8709583,0.34912896,-0.6315237,0.10125029,0.22082055,-0.6193906,0.6082206,-0.004190922,-0.45031488,-0.8427352,0.31514716,0.113909364,0.1395117,-0.79822886,0.22182918,0.6018735,0.6595181,0.68566,-0.7181827,0.20170784,-0.8943198,-0.30737364,-0.59777784,-0.32270002,-0.35518885,0.24721861,-0.3221916,-0.42590785,-0.27603936,0.7580404,0.8128668,-0.6277666,-0.022164345,0.5928037,-0.57645965,0.83016515,-0.3951968,0.113554716,-0.21209681,-0.25367403,-0.27312076,-0.3771844,-0.33155835,-0.94716775,-0.6094898,0.25687385,0.025832295,-0.4163338,-0.20355356,-0.9638902,-0.41864097,0.5477778,-0.2598554,-0.69509614,-0.60585546,0.53717947,-0.5688994,-0.8267033,0.4096893,0.81313384,0.5128627,0.67368126,0.20896876,-0.4793036,0.2857561,-0.9441643,-0.32029867,0.056577682,0.18417072,0.08672452,0.37028122,-0.7023922,-0.38621783,0.26234853,-0.41432893,0.48707044,0.67336166,-0.53860855,-0.2062167,-0.31207144,-0.21995187,-0.23269022,0.79520595,0.78697634,-0.42134488,0.9762306,-0.6467476,-0.24203789,0.0742811,-0.9945953,-0.8533007,0.34795868,-0.21572828,-0.29521656,0.38130987,0.7292303,-0.8724785,-0.76635695,0.48058736,0.87432873,0.17147183,-0.6319841,0.7566885,-0.48382246,0.4932176,-0.8479749,0.36352873,-0.61560726,-0.81641984,0.74220634,-0.40809584,-0.07753575,0.12240875,-0.9423152,-0.9128934,0.121441364,0.35501337,-0.10217214,0.8325311,-0.9003496,0.26999152,0.15130198,-0.9847344,0.02459073,0.4211254,0.10733616,-0.33057678,0.4784987,-0.8102293,0.05874276,-0.1945399,-0.44470286,-0.26108444,0.8836622,-0.063067555,-0.78944266,0.4310981,-0.18806922,0.36859035,-0.56763375,-0.31542385,0.6655202,0.34184992,0.23802912,0.7820194,0.39075267,0.0457834,-0.6729449,-0.4022286,-0.34274805,0.6554271,-0.579875,-0.08807039,0.36455476,-0.62765753,0.64190495,0.8284607,-0.116543174,0.14311516,0.9426037,-0.49230218,0.66757095,0.5547035,0.4454664,-0.50077987,-0.19068825,-0.21918714,-0.26568544,-0.81620455,0.64853144,0.021817207,0.057234287,0.7372122,0.23534584,-0.63597834,0.24368942,-0.07776308,0.485641,-0.53468597,-0.4250176,-0.20240617,-0.892086,0.0840497,-0.046435714,-0.8205739,-0.59065366,0.22288418,-0.047658205,-0.076593876,-0.44376493,0.869122,-0.88509846,0.07891357,-0.22611892,0.9751798,-0.5415559,0.89090145,-0.70211804,-0.06850135,-0.73948586,-0.3501873,-0.25334167,0.81543076,0.0067373514,-0.34889233,0.6788683,-0.6853225,-0.12391412,0.8326433,0.6750686,0.2660445,-0.068602204,-0.5940845,0.091383815,-0.40199423,0.27593887,0.7010778,-0.4858364,-0.29584658,0.010531068,0.3846457,0.5340228,-0.7004212,-0.47967565,-0.7128937,-0.6062859,0.21239209,0.9800395,0.032084703,0.8022146,0.45488107,0.69377196,0.2382487,-0.9466988,0.025715828,-0.39101863,-0.43049645,0.5307393,0.14318657,0.23578131,-0.2606423,0.40177274,0.929345,0.7228203,-0.9849467,0.2546395,-0.22277677,-0.94344425,-0.556651,-0.30963886,-0.31082952,0.87987685,0.6168754,-0.040712237,-0.014245391,0.29329908,0.89347124,0.99989927,0.28842247,0.9396188,0.45038295,-0.96702325,-0.09193051,-0.40956986,0.12957335,-0.9035293,0.6523255,-0.5434135,-0.94362247,0.7208725,-0.031248808,0.66162133,-0.2112701,0.7534461,0.8090155,0.59862256,0.33759248,0.93172693,0.11931205,0.74174917,-0.25502837,-0.04520011,0.11606932,0.9301522,0.53601265,-0.0738281,0.51746345,-0.607272,-0.106437206,-0.9902744,-0.47363245,0.36260343,-0.9016421,-0.22226727,0.32430792,0.7304369,0.8733448,-0.8860768,-0.62997854,0.14694703,0.99995625,0.479941,-0.40389907,-0.54800975,0.027517676,-0.8031751,0.5798775,-0.21406877,-0.110165715,0.25481665,-0.5058899,0.46505046,-0.5137085,0.89493155,0.3299867,0.9725219,0.9262525,-0.08833969,-0.35753274,0.46651697,-0.8655989,-0.92219377,-0.5891074,0.015731573,-0.7466234,0.97026336,0.8791957,-0.92193484,-0.5935632,-0.60963047,-0.41713464,-0.84524775,0.4729687,-0.5401622,0.2281586,-0.3317362,-0.4394455,-0.925995,0.3155415,0.49244702,-0.32764602,-0.978829,0.7373272,0.056640625,-0.47615612,-0.6818875,-0.239532,-0.55970895,-0.7011193,-0.84662306,0.5350188,0.41316235,-0.9898026,0.6633383,0.82081985,0.735163,0.3410734,0.93078566,0.6455039,-0.98099315,-0.21344018,0.23765564,-0.8219311,0.83211005,-0.162413,-0.36114478,-0.12054396,0.098394156,0.93967056,-0.35607898,-0.85239756,-0.33623886,0.6094183,0.097207904,-0.08442938,0.9650513,-0.5985836,-0.8480902,-0.867856,-0.79884255,-0.5008491,0.020843029,0.99620914,-0.43465686,0.5055511,-0.96980286,0.30216765,0.3689574,0.06159854,-0.12356174,0.36199582,-0.85095716,0.78976643,-0.50382066,-0.5534401,-0.8560389,-0.24107659,0.3605286,-0.9815699,0.98499453,0.6017939,0.82329106,0.5618875,0.4285711,0.18044162,-0.51407945,0.50449765,0.33312201,-0.0218395,-0.9467945,-0.060564876,-0.4412967,0.16327643,-0.81952083,-0.054487705,-0.965932,0.77605057,0.97308743,-0.68995583,0.05215466,-0.45806324,0.20248485,-0.027711391,0.2579533,0.8517891,0.6432886,0.60970783,0.035221577,0.71088815,-0.40835333,0.18472445,0.90039825,0.8117076,-0.60070527,-0.49109876,-0.12401223,0.90695655,0.26860845,0.55049574,0.8242445,0.81318784,-0.9679524,-0.69263303,0.49390042,-0.17433906,0.15046573,-0.6205033,-0.9194021,-0.50425553,-0.7449597,-0.8151789,0.43616712,0.74397326,-0.12304461,-0.67316544,-0.5953232,0.127581,0.5820111,0.84466815,-0.06583536,0.00024962425,-0.5182017,-0.20770156,-0.37578928,-0.10121417,0.22490287,-0.5780449,-0.13446712,0.09382737,0.048866153,0.43709636,0.054886103,-0.551373,-0.33575845,-0.21003711,-0.73297167,-0.10062122,0.55002904,0.44615757,0.08937323,0.6857722,0.6679177,0.48085296,0.8185767,-0.95372915,-0.9523784,-0.07980418,-0.7246003,0.84581447,-0.9393351,-0.9763038,0.12674189,-0.9148214,-0.48275578,-0.026165605,-0.9217951,-0.5220841,0.65235317,0.5811722,-0.064219475,0.4674716,-0.5798868,0.14485395,-0.499187,-0.51346457,-0.44646478,0.5640954,0.24081755,0.85531497,0.22426653,-0.012550116,0.90340185,-0.2746122,0.33072186,-0.058574557,0.88850284,0.49654567,0.871505,0.89123654,-0.0520916,-0.8101951,0.38751984,0.901492,0.966766,0.4069885,0.45973635,-0.8942487,0.26465166,0.31755674,0.44017935,-0.7581824,0.27391064,0.045558095,-0.8297925,-0.35406482,-0.80531466,0.20950067,-0.6141058,0.87104666,-0.29052818,-0.7966399,-0.2968676,0.56726885,0.6891533,0.97698665,0.7351829,-0.8660289,-0.9487462,0.3546312,-0.84619844,0.6586051,0.27337062,0.03995812,-0.013920784,0.8884227,-0.5226481,-0.88106394,-0.5442238,-0.7713313,0.52626693,-0.44879258,-0.31552005,0.29796243,-0.22238064,0.6479913,-0.55591166,0.65122867,-0.51612556,0.6237644,0.66812027,-0.19894052,-0.17994273,-0.15701282,0.3083738,-0.5134134,-0.8227651,-0.047735333,-0.5025579,0.46487176,0.48669553,0.8491018,-0.17222035,0.98203456,0.89647424,0.7894652,-0.16546834,0.7970604,-0.6660814,0.56333065,-0.47090006,-0.26257634,-0.006760955,0.735075,0.61434066,0.5384599,-0.6492932,0.26899123,0.7140429,-0.21001685,-0.3516897,0.04812646,-0.02465403,0.28338742,0.44113266,0.77254903,-0.1576047,-0.60025954,-0.8137349,-0.30080914,-0.049480557,-0.15760612,0.8448988,-0.18260098,0.20563817,0.3348894,0.53018713,-0.21289527,0.8757769,-0.96882,0.1560998,0.32869756,-0.36264753,0.8407537,-0.5227648,-0.9386182,-0.5469818,-0.8501725,0.45894706,-0.4319365,0.5210998,0.91620326,0.96667683,-0.5266013,-0.055921912,0.4135239,-0.3725363,0.75043905,-0.4024266,0.8566648,-0.24888146,-0.9530374,-0.580567,0.30126178,0.568166,-0.40763664,0.39471233,-0.025131226,0.8794161,0.36678374,-0.56235695,-0.22581875,0.95225585,-0.32297647,-0.70883214,-0.62462103,-0.123680115,0.40260327,-0.916623,-0.39808798,0.42362022,0.23123491,0.43587554,-0.55052626,-0.88386035,0.617082,0.28013217,-0.33640432,-0.56549823,-0.11812258,0.59777915,-0.6483084,-0.6643218,0.3023293,0.68626523,-0.7171726,-0.1071136,-0.11474776,0.5112598,-0.6433697],"bias":0.1356203},{"activation":0.012842404,"weights":[0.07814133,-0.3330773,0.63025093,-0.61164474,0.4981885,0.9076402,-0.8201065,-0.67520475,-0.381099,0.83772707,0.78507626,0.533905,-0.11325002,-0.7509159,0.9805473,0.43715465,0.599561,0.54715407,0.14020789,-0.47015,0.34918535,-0.06304419,0.28733242,0.3668319,-0.7008786,0.19194782,0.0980947,0.8963599,-0.034066916,-0.66584396,-0.3087057,-0.6605129,-0.95205855,0.23620427,-0.7125287,0.9875338,0.101098895,-0.1895262,0.8962457,0.93295324,0.029043198,0.66583395,-0.042750716,0.54772186,-0.028404117,-0.3996663,0.69109917,0.23312831,-0.61931455,-0.6387218,-0.8735312,0.6140853,-0.17887545,-0.15710175,-0.79310334,-0.91203654,0.055377603,0.46392596,0.7914139,-0.059054613,0.1694789,-0.06343174,0.40151954,-0.14651084,0.10922718,0.7980341,0.43236458,0.56194484,0.5757669,-0.87359,0.49672842,0.5060314,0.096538186,0.98880494,0.9429611,-0.28826594,0.8153006,0.8916775,-0.584363,0.8393097,-0.08872163,0.8126464,-0.40148544,0.08221769,-0.870702,-0.7278124,0.50654554,-0.050043702,-0.580449,-0.73432934,0.70669603,0.9068239,-0.57893836,-0.32161474,0.7544304,0.42150736,0.030081868,0.92412174,-0.0049393177,-0.05654633,0.90868366,-0.2821505,-0.66710746,0.37597823,0.16554129,-0.39633536,-0.38084972,0.39093375,-0.7832047,0.35043097,-0.66001666,0.31707442,0.24436474,-0.6370237,-0.12568963,0.84986603,-0.46834624,0.72586775,0.03140092,-0.50516045,0.8619847,0.5170623,-0.6280575,-0.4328333,-0.80821455,-0.85518265,-0.5257232,-0.3976872,-0.92736197,0.379251,0.23933256,0.9468045,-0.6738254,0.8277956,-0.7115041,0.9832239,0.55060434,0.44897568,-0.6183804,-0.46258223,0.45831215,-0.07054043,0.25093603,0.6679431,-0.15988457,0.6889204,-0.82976556,-0.39385402,-0.04575157,0.3587315,-0.20541716,-0.49442005,-0.7860886,-0.37576616,-0.63962924,-0.58628523,0.45131707,0.50168014,-0.9141278,0.35169184,0.94571674,-0.51692116,-0.74166954,-0.7494389,-0.84284556,0.5280597,0.05914986,-0.16654205,0.6982316,0.13643456,0.3080119,-0.38992977,-0.7063247,0.5742439,-0.5997126,0.716727,-0.36934423,0.6734488,0.741752,-0.92273974,-0.291965,-0.58313215,0.7284665,-0.40964878,0.68483186,-0.26103842,0.5267432,0.5213754,0.030353785,-0.8220699,0.7470262,-0.7909118,-0.21855485,-0.20881414,0.7245842,-0.14206493,-0.7629254,-0.8230127,-0.100911975,0.55853117,0.9207866,0.35469568,-0.76028335,-0.9327048,0.42232418,-0.76698756,0.80050766,0.9708055,0.68662524,0.36704743,-0.8500438,-0.016501665,0.115582585,0.64453316,-0.55781186,-0.15511048,-0.88798714,0.7424699,0.75448143,-0.1964041,-0.41309536,-0.5841403,0.053824544,0.2341106,-0.13564634,0.53232086,0.14546227,-0.10193968,-0.7308265,-0.6287837,0.8247161,-0.36557627,-0.12316227,0.72018504,-0.25244284,-0.4476428,0.1900053,0.39661503,-0.3948685,-0.5991684,0.4479183,0.37582147,-0.40214097,-0.72934055,-0.9840983,-0.46015346,0.4320054,-0.40064383,0.9516448,-0.16182041,0.5272242,-0.4102111,-0.24620533,-0.2738794,-0.9569826,0.43663263,0.44996095,-0.93943596,0.40500414,-0.40375328,0.6734581,-0.3456124,-0.36782718,-0.34533846,0.2968861,0.51785827,-0.9437517,-0.25891113,0.80572736,-0.65373325,0.34795964,0.07683754,-0.6229725,-0.11038101,-0.57539153,0.6540563,-0.30165386,0.8698484,0.57550263,0.48210073,0.5090356,0.43878448,-0.54026604,-0.6659788,0.4954393,-0.98079956,-0.7738757,-0.31563723,0.87351084,-0.3743496,-0.05292082,-0.846359,-0.026944995,-0.52132416,0.40068936,-0.1866163,-0.34554923,-0.8540783,-0.5138874,-0.7057166,0.3515303,0.7988316,-0.05306387,0.6165793,0.5882721,0.6941539,-0.93342793,0.81733644,-0.9656966,0.04302478,0.64294505,-0.8457345,0.78162336,-0.41135907,-0.23635435,-0.6168144,0.6404824,-0.23895276,0.6376157,-0.64465,0.30537224,-0.07966554,0.915786,-0.7887602,0.6264931,-0.0933826,-0.6733731,-0.5522618,-0.3565817,0.36259246,-0.9166422,0.9026698,-0.46954072,-0.041912913,-0.33781612,-0.5761771,0.7437761,-0.033373713,-0.17396343,-0.24322128,0.43678224,0.19612944,-0.20718491,0.35838223,-0.9646208,0.6878848,-0.31216443,-0.32293797,-0.28930545,0.60943234,-0.26091623,-0.7921984,0.52174985,-0.58753943,0.75774133,-0.69058573,-0.6670494,0.8161535,0.52107584,-0.92629516,0.79496396,0.86619973,-0.33401942,-0.8276024,0.3479048,-0.24535978,-0.02375257,-0.085310936,0.27489722,-0.2735045,0.5781287,-0.66519046,0.28044724,0.91418886,-0.40641725,-0.4398563,0.1110549,0.89273036,-0.2721262,-0.6180842,0.7659668,-0.75096226,0.4672153,0.67985725,0.696262,0.3072598,-0.65883577,0.5886917,-0.9928187,-0.027826548,0.7087494,0.47532046,0.43385375,0.75244737,-0.2837689,-0.111304164,-0.06070459,0.5560099,0.63262045,0.475129,0.10732949,-0.12350428,-0.99057937,-0.8400172,0.26584864,-0.52335453,-0.97223854,-0.6126541,-0.23490894,-0.08668673,-0.13661993,0.80636466,-0.6184896,-0.24250221,0.8859478,0.77527964,0.07902634,-0.82169306,-0.88062704,0.527014,-0.5474125,0.13245893,-0.1359129,0.19305062,0.92199135,0.020936608,0.94103384,0.2438457,0.16898656,0.51331675,0.82813346,-0.8799231,0.81707704,0.7471026,0.038741946,-0.6532874,0.22943652,-0.3930621,-0.3453256,-0.22405279,-0.3080654,-0.4329852,0.5305965,0.3321911,-0.36048985,-0.69219863,0.8390579,-0.6460358,-0.05613315,-0.67124486,-0.3363161,-0.9696984,-0.14383078,0.2520405,0.47312784,-0.18402267,-0.24694216,-0.40947688,-0.99582875,-0.86102545,-0.24572301,0.834859,-0.19462097,0.3717469,0.0522635,0.58521736,0.76183915,-0.7982775,0.31445765,-0.11947775,-0.80993986,-0.5007982,0.18211031,-0.5630691,-0.3472047,0.57712305,-0.83968925,0.33922827,0.6577281,-0.95218503,-0.864357,-0.3083123,-0.5346217,0.6920812,-0.3368014,0.19941926,0.92425096,-0.13927078,0.29371345,0.37519038,0.5481951,-0.9441395,0.6830739,-0.5302048,-0.4805845,-0.755849,-0.2559377,-0.12866211,0.6595639,-0.8750715,0.10338867,-0.7935728,0.2693323,0.44522142,-0.4715978,-0.0974772,0.70144963,0.637025,-0.4549924,0.036545277,0.41543078,0.5373068,-0.039420128,-0.514621,-0.9973663,-0.25156772,-0.29727805,0.8306856,0.43975246,0.71868694,0.7664485,0.7536303,-0.27120936,0.98767424,0.36392045,0.24310601,0.069086075,-0.11939359,-0.22297561,-0.3099805,0.5788361,0.18633878,0.43707228,0.06307042,0.38248432,-0.23224485,-0.7232839,-0.35108364,-0.27658343,0.4477899,-0.9087405,0.7319397,0.006657362,0.85502625,-0.61184144,-0.56084025,-0.42376328,0.6141869,-0.88761795,-0.15486121,0.80514324,-0.3349284,0.12439954,0.5159645,-0.8100438,0.73892117,-0.14930522,-0.8468602,0.0777905,-0.44892645,0.53076136,-0.74239385,0.7673485,0.0696888,0.7646612,-0.7467972,0.07993579,-0.92498434,-0.22059643,-0.01360774,0.23672819,0.51022816,-0.7495378,0.1478864,0.92766416,0.94805,-0.7667825,-0.4665879,0.571435,-0.96343756,0.32390785,0.9340366,-0.8493775,0.61614776,0.88447976,-0.14848423,0.66382325,0.7283485,0.39538288,-0.10355115,0.7073846,-0.30586135,0.22890174,-0.18892324,-0.4116937,-0.24259996,0.12997758,-0.302387,0.44887638,0.23911357,0.84208167,-0.2842251,-0.077584505,-0.5570743,0.9610175,-0.6579778,-0.29314625,0.7057519,0.44137466,-0.24336469,0.21110809,0.64276683,-0.11542261,0.0523355,0.16350114,0.050956845,0.50543785,0.654037,0.54346037,-0.1290052,-0.65620744,0.12034106,0.8570131,0.6577318,-0.26644957,-0.35029328,-0.7893573,0.4163643,0.8099952,0.25156462,-0.4714054,-0.16852295,0.9509988,0.85045254,-0.77974737,-0.3980596,0.71547306,-0.48945284,-0.31336248,0.43107557,-0.6242254,0.4687804,0.8479233,-0.12286246,-0.37584865,0.2578268,-0.7398851,-0.6911317,0.543432,0.76962507,0.7158661,-0.17060673,-0.18719625,0.8501322,-0.46729434,-0.6078552,-0.5222627,-0.28484237,-0.6128726,-0.7244091,0.5517384,-0.810467,0.5978756,0.14684439,0.9051167,0.8161664,0.6203481,-0.6310648,-0.9363028,0.41661906,0.35203874,-0.44125354,-0.26634753,-0.6290027,-0.5211731,0.27904832,-0.25546873,0.1721605,-0.45032215,-0.38216817,0.08350456,-0.015328169,0.5633427,-0.40755188,0.96266115,-0.18865907,-0.44722986,-0.09974599,0.021613479,-0.99830556,0.42747283,0.22226226,-0.60631824,-0.9411715,-0.11600196,-0.9864007,-0.068217754,-0.39682794,-0.38242435,-0.12287438,-0.8009572,0.5458858,0.588446,-0.0090072155,-0.2483989,-0.5852883,-0.1280353,-0.32038617,0.35910845,-0.19211566,