{"learning_rate":0.1,"input_layer":{"activations":[0.0,0.0,0.0,0.0,0.0,0.0,0.0,0.0,0.0,0.0,0.0,0.0,0.0,0.0,0.0,0.0,0.0,0.0,0.0,0.0,0.0,0.0,0.0,0.0,0.0,0.0,0.0,0.0,0.0,0.0,0.0,0.0,0.0,0.0,0.0,0.0,0.0,0.0,0.0,0.0,0.0,0.0,0.0,0.0,0.0,0.0,0.0,0.0,0.0,0.0,0.0,0.0,0.0,0.0,0.0,0.0,0.0,0.0,0.0,0.0,0.0,0.0,0.0,0.0,0.0,0.0,0.0,0.0,0.0,0.0,0.0,0.0,0.0,0.0,0.0,0.0,0.0,0.0,0.0,0.0,0.0,0.0,0.0,0.0,0.0,0.0,0.0,0.0,0.0,0.0,0.0,0.0,0.0,0.0,0.0,0.0,0.0,0.0,0.0,0.0,0.0,0.0,0.0,0.0,0.0,0.0,0.0,0.0,0.0,0.0,0.0,0.0,0.0,0.0,0.0,0.0,0.0,0.0,0.0,0.0,0.0,0.0,0.0,0.0,0.0,0.0,0.0,0.0,0.0,0.0,0.0,0.0,0.0,0.0,0.0,0.0,0.0,0.0,0.0,0.0,0.0,0.0,0.0,0.0,0.0,0.0,0.0,0.0,0.0,0.0,0.0,0.40234375,0.7890625,0.9921875,0.87109375,0.109375,0.0,0.0,0.36328125,0.1953125,0.0,0.0,0.0,0.0,0.0,0.0,0.0,0.0,0.0,0.0,0.0,0.0,0.0,0.0,0.0,0.0,0.0,0.14453125,0.83984375,0.98046875,0.98828125,0.98828125,0.98828125,0.671875,0.0,0.15234375,0.9375,0.4765625,0.0,0.0,0.0,0.0,0.0,0.0,0.0,0.0,0.0,0.0,0.0,0.0,0.0,0.0,0.0,0.0,0.05078125,0.74609375,0.98828125,0.87890625,0.46875,0.21875,0.98828125,0.68359375,0.0,0.2421875,0.98828125,0.359375,0.0,0.0,0.0,0.0,0.0,0.0,0.0,0.0,0.0,0.0,0.0,0.0,0.0,0.0,0.0,0.0,0.51171875,0.98828125,0.67578125,0.0546875,0.0,0.03515625,0.98828125,0.68359375,0.0,0.359375,0.98828125,0.16796875,0.0,0.0,0.0,0.0,0.0,0.0,0.0,0.0,0.0,0.0,0.0,0.0,0.0,0.0,0.0,0.0,0.546875,0.98828125,0.21484375,0.0,0.0,0.09375,0.98828125,0.68359375,0.05078125,0.72265625,0.953125,0.11328125,0.0,0.0,0.0,0.0,0.0,0.0,0.0,0.0,0.0,0.0,0.0,0.0,0.0,0.0,0.0,0.0,0.546875,0.98828125,0.3359375,0.0,0.0,0.37890625,0.94140625,0.23828125,0.32421875,0.98828125,0.78125,0.0,0.0,0.0,0.0,0.0,0.0,0.0,0.0,0.0,0.0,0.0,0.0,0.0,0.0,0.0,0.0,0.0,0.51171875,0.98828125,0.890625,0.6328125,0.1796875,0.37890625,0.609375,0.140625,0.90234375,0.98828125,0.4765625,0.0,0.0,0.0,0.0,0.0,0.0,0.0,0.0,0.0,0.0,0.0,0.0,0.0,0.0,0.0,0.0,0.0,0.05078125,0.70703125,0.9765625,0.98828125,0.97265625,0.81640625,0.14453125,0.4765625,0.98828125,0.6640625,0.02734375,0.0,0.0,0.0,0.0,0.0,0.0,0.0,0.0,0.0,0.0,0.0,0.0,0.0,0.0,0.0,0.0,0.0,0.0,0.0,0.390625,0.76953125,0.98828125,0.98828125,0.98828125,0.9921875,0.8828125,0.13671875,0.0,0.0,0.0,0.0,0.0,0.0,0.0,0.0,0.0,0.0,0.0,0.0,0.0,0.0,0.0,0.0,0.0,0.0,0.0,0.0,0.0,0.03515625,0.5625,0.89453125,0.98828125,0.9921875,0.71484375,0.0,0.0,0.0,0.0,0.0,0.0,0.0,0.0,0.0,0.0,0.0,0.0,0.0,0.0,0.0,0.0,0.0,0.0,0.0,0.0,0.0,0.0,0.0,0.0,0.6015625,0.9921875,0.99609375,0.9921875,0.6328125,0.0,0.0,0.0,0.0,0.0,0.0,0.0,0.0,0.0,0.0,0.0,0.0,0.0,0.0,0.0,0.0,0.0,0.0,0.0,0.0,0.0,0.0,0.2578125,0.88671875,0.98828125,0.703125,0.77734375,0.98046875,0.51953125,0.0,0.0,0.0,0.0,0.0,0.0,0.0,0.0,0.0,0.0,0.0,0.0,0.0,0.0,0.0,0.0,0.0,0.0,0.0,0.0,0.0,0.4140625,0.98828125,0.66796875,0.0234375,0.01953125,0.3515625,0.8671875,0.64453125,0.0,0.0,0.0,0.0,0.0,0.0,0.0,0.0,0.0,0.0,0.0,0.0,0.0,0.0,0.0,0.0,0.0,0.0,0.0,0.0,0.71484375,0.98046875,0.27734375,0.0,0.0,0.0,0.48046875,0.96875,0.22265625,0.0,0.0,0.0,0.0,0.0,0.0,0.0,0.0,0.0,0.0,0.0,0.0,0.0,0.0,0.0,0.0,0.0,0.0,0.08984375,0.95703125,0.65625,0.0,0.0,0.0,0.0,0.1015625,0.859375,0.8046875,0.0,0.0,0.0,0.0,0.0,0.0,0.0,0.0,0.0,0.0,0.0,0.0,0.0,0.0,0.0,0.0,0.0,0.0,0.10546875,0.98828125,0.77734375,0.0,0.0,0.0,0.0,0.0,0.46875,0.96484375,0.2890625,0.0,0.0,0.0,0.0,0.0,0.0,0.0,0.0,0.0,0.0,0.0,0.0,0.0,0.0,0.0,0.0,0.0,0.05859375,0.8828125,0.96875,0.2109375,0.0,0.0,0.0,0.0,0.36328125,0.98828125,0.203125,0.0,0.0,0.0,0.0,0.0,0.0,0.0,0.0,0.0,0.0,0.0,0.0,0.0,0.0,0.0,0.0,0.0,0.0,0.609375,0.98828125,0.98828125,0.52734375,0.29296875,0.4140625,0.484375,0.95703125,0.8828125,0.05078125,0.0,0.0,0.0,0.0,0.0,0.0,0.0,0.0,0.0,0.0,0.0,0.0,0.0,0.0,0.0,0.0,0.0,0.0,0.28125,0.96484375,0.98828125,0.9921875,0.98828125,0.98828125,0.98828125,0.98828125,0.70703125,0.0,0.0,0.0,0.0,0.0,0.0,0.0,0.0,0.0,0.0,0.0,0.0,0.0,0.0,0.0,0.0,0.0,0.0,0.0,0.0,0.25,0.76171875,0.9921875,0.98828125,0.98828125,0.91796875,0.47265625,0.0546875,0.0,0.0,0.0,0.0,0.0,0.0,0.0,0.0,0.0,0.0,0.0,0.0,0.0,0.0,0.0,0.0,0.0,0.0,0.0,0.0,0.0,0.0,0.0,0.0,0.0,0.0,0.0,0.0,0.0,0.0,0.0,0.0,0.0,0.0,0.0,0.0,0.0,0.0,0.0,0.0,0.0,0.0,0.0,0.0,0.0,0.0,0.0,0.0,0.0,0.0,0.0,0.0,0.0,0.0,0.0,0.0,0.0,0.0,0.0,0.0,0.0,0.0,0.0,0.0,0.0,0.0,0.0,0.0,0.0,0.0,0.0,0.0,0.0,0.0,0.0,0.0,0.0,0.0,0.0,0.0,0.0,0.0,0.0,0.0,0.0,0.0,0.0,0.0,0.0,0.0,0.0]},"activation_layers":[{"neurons":[{"activation":1.0,"weights":[-0.35882795,0.9921093,0.79723513,0.40691757,0.9460125,0.15748584,-0.08622837,-0.298254,0.47196174,0.48337555,-0.48612964,0.12158823,-0.7473053,0.41734353,0.6818252,0.38787562,-0.9960393,0.8865254,0.45648658,-0.96528435,-0.07075846,-0.3885026,-0.38908243,-0.21796942,0.8644029,0.51324844,-0.39431286,0.58073175,-0.50786126,0.16920471,0.24966168,-0.009356976,-0.5590859,0.8967294,0.21609321,0.08410198,-0.79520184,-0.55584365,-0.5955837,0.42136085,-0.5204658,0.5984358,-0.8740371,-0.3595033,0.110618114,-0.14329045,-0.9930838,-0.79760396,0.9848707,-0.57044065,-0.24747406,0.8797152,0.7633406,0.9090347,0.90505874,0.18261814,0.25784802,0.6936059,-0.7437486,-0.48418665,0.2156724,-0.32529974,0.41671026,0.8271535,-1.0972987,0.08283849,0.27244234,0.14482957,-1.2575446,-1.9952517,-1.7705468,-0.13685666,-0.35817498,-1.4537019,-0.9720006,-0.7378549,-0.56546926,0.658283,0.879994,0.6873975,-0.38470086,0.98391736,-0.706815,0.1519264,-0.114816666,0.5685768,0.5020956,0.15830207,0.6376526,-0.5358814,-0.5868862,-0.44229707,0.10633116,-0.10681411,-0.7611532,-1.6534967,-3.2150714,-3.0214005,-2.6717525,-1.6782147,-1.486591,-1.0700748,-0.05586613,-1.3315319,-1.326159,-0.807383,0.0045542386,-0.53766423,-0.010457869,0.6039383,0.5636506,0.020838618,0.06086266,0.4195711,-0.8790745,-0.6579565,0.22010921,-0.94709593,-0.10703851,-1.1352817,0.113135345,-0.7592852,-0.28946424,-2.0568025,-3.4565084,-1.9475383,-2.242781,-2.7441075,-1.1747913,0.031009788,-0.067416,0.34775946,-0.2077254,-0.18186031,0.50588495,-0.41565573,-0.3546498,-0.26305348,-0.95995575,0.62517047,-0.5203022,0.68067896,-0.8430486,-0.6328649,-0.8645356,-0.802234,-0.18318172,-1.2949322,-2.0617714,0.84680915,-1.040702,0.08223703,-0.30194637,-0.45465678,-2.3025768,-2.9988573,-3.5403643,-2.2850327,-0.35550782,-0.7163319,-1.293625,0.062111773,-0.30887222,0.5986803,0.08624978,0.008724612,-0.58367825,-0.28968444,-0.5051925,0.19286495,0.06174604,-0.5277,0.7034023,-0.54180086,-1.377095,-1.802215,0.016396005,0.2872977,0.7559854,-1.0854913,-1.2694376,0.82594246,1.8247708,1.6347635,-3.7057993,-1.6842085,-2.902324,-0.68655616,-1.7198279,0.25483248,0.08265368,-0.9224519,-0.06431328,-0.026963655,-0.75434595,-0.7189995,0.57661104,-0.5950683,0.1753046,0.10527291,-0.9169272,-2.1200695,-1.8124923,0.19835557,3.8291922,3.002651,3.2756138,0.30701396,1.360133,1.8691227,2.1479957,0.65191364,-2.4482203,1.075047,-0.36565614,1.0901191,0.18440697,0.18038808,0.6916068,0.7817894,1.0563235,1.419431,-0.26719382,0.27180666,0.5961477,1.0332316,0.5099269,-0.62690485,-0.3605011,-1.0310509,0.63930094,2.4281878,3.2252429,4.502284,4.6337104,1.8100982,2.6801417,2.9221356,2.4181714,-0.831866,0.6025155,2.4640422,0.5904066,3.7281597,2.99955,1.6122832,1.4535975,-0.004764655,1.7097688,1.017518,-0.6149567,-0.64251363,0.28877515,0.35808745,-0.68238145,0.9018347,0.9039074,0.05983087,2.8741915,3.9664695,3.289852,5.527928,6.275651,3.7611253,3.6545417,3.7052028,2.5265088,0.27031958,2.414644,2.9214604,1.2176198,2.87839,2.6744895,1.0561851,0.23706225,1.5090247,0.7363701,1.2539343,0.20812388,-0.46990088,0.23809612,-0.8955543,1.0310562,-0.26964933,0.13307035,1.8826188,3.8237455,3.305205,2.8536289,4.8255205,4.855198,4.0671325,2.4495177,2.9712596,1.3907281,1.4312847,2.9986863,2.9414444,1.7420765,2.3894465,3.0754414,0.87245166,1.620481,1.9289881,0.68879735,0.11421974,-0.11867185,0.8013272,0.99553555,0.86948085,0.7753503,1.4919783,1.3724711,2.196722,6.064372,3.9551003,4.326336,4.3618317,3.9916992,5.3091855,3.100911,1.0752765,0.031739447,0.58520657,2.7305412,3.3900654,1.2970821,2.483486,3.3171222,1.2407281,2.635975,0.102548234,-0.3243515,-0.5384518,0.21071954,0.03482215,-0.7789599,-0.19786334,1.1162989,0.90599674,0.8639984,4.7246594,5.4402566,6.293535,4.8382945,4.623073,4.147267,3.2902377,3.1700132,0.68778336,1.6270814,2.6647668,3.1953137,-0.643826,-0.7193727,-1.353489,0.24228296,-0.3907714,1.1147634,1.6375442,0.84985656,0.19851701,-0.19345286,0.31093442,-0.7775428,-0.61957496,0.0756843,0.7509261,0.08245618,3.9769757,6.854181,8.334002,7.3149714,6.594482,5.3165283,3.3410935,1.5260161,0.5042924,2.110317,4.4804583,2.026164,-0.43786395,-0.4815039,-0.66020525,-1.0335941,-0.08242905,1.5083753,1.973633,-0.009046392,1.0730748,-0.09102911,0.5127745,0.080183744,0.8198082,-0.9533673,-0.13271925,-0.6078233,2.2697222,4.582293,7.2320666,6.6200995,2.443408,3.091668,2.7152169,4.9830675,2.9104562,3.8349617,3.863512,3.8773153,2.173941,0.13463879,-0.6284946,-2.0507822,-0.05801096,2.4252903,1.7809695,0.05402893,0.16258319,0.59776616,0.55819,0.5072725,0.47785613,0.7987525,-0.71945983,0.05081249,1.2493476,3.7751863,4.174876,2.9462707,0.47472027,-0.80025595,1.5044191,2.3636565,1.3566988,4.5177836,4.686981,4.576782,2.4206877,1.9994087,3.1142926,0.5142816,-0.06845966,1.3031589,1.1850506,-1.0260837,-0.99536556,-0.5187856,0.6364242,0.18891487,0.37550125,-0.7654201,0.3352393,-0.74044263,0.9097276,2.9717727,2.6221526,1.0401084,-1.5557166,-1.4201475,1.9217554,2.9485075,1.2408509,5.554765,3.7974415,0.79660565,0.33610687,1.6434338,2.3978443,3.477054,-0.09509419,0.028285725,-0.16501524,0.24065685,-0.0037600605,-0.5147558,0.62011784,0.28405952,-0.23341143,-0.059873607,-0.5380111,-2.7947452,-0.95769465,0.4870805,0.3445893,1.7871599,-1.928325,-2.4751961,0.15572937,-0.32497346,0.9885609,4.6135697,3.9158955,-0.09326808,-0.15232986,-2.7940536,0.9982767,2.9122975,1.721346,2.1041725,-0.2216264,-0.3040806,-0.89354056,1.243777,-0.76937306,0.5372647,0.6196761,-0.27642062,-1.2914461,-1.4626132,-3.00185,-1.7708412,0.34137446,1.3128883,-0.7814966,-4.0866375,-5.082661,-3.0585098,-1.3394756,2.0293353,2.6873543,1.2811862,-1.4338359,-0.61076844,-0.5342941,-1.303136,-0.68872803,1.7501589,1.4031825,0.513588,-0.82278556,0.020891044,-0.88237315,-0.7060424,0.71934325,-0.13791797,-0.23925377,-1.4963741,-4.220889,-4.463791,-2.2669296,-1.9092354,-2.730083,-6.3931184,-5.682427,-3.9205196,-3.2570467,-3.0681546,0.8972407,0.24986413,-1.5533179,-0.8416076,-2.0500345,-2.7299957,-3.1545753,-0.53615487,1.0622625,1.4248145,-0.9835823,-0.43846083,0.72671235,-0.84183466,-0.20152502,0.40027425,0.41923764,-1.3367257,-3.5862725,-3.3287156,-3.1447625,-2.443668,-3.5428803,-6.715966,-7.763777,-7.035302,-5.3537064,-3.336619,2.5723693,2.814126,-1.734733,-1.3991221,-3.3097918,-2.9534743,-2.9330611,-0.34029132,2.1271741,1.2628353,0.01725279,-0.055799346,0.32237014,0.1564894,-0.32191998,-0.25168538,-0.8382314,-0.7201568,-3.3339555,-1.789695,-2.8862848,-3.8273458,-2.363237,-3.2381575,-3.5648687,-2.1526875,-1.8285967,1.7366934,4.1633263,3.4748495,1.5488858,-0.7473335,-0.15575667,-0.55226517,-0.21770713,0.110571146,2.2755675,1.5705749,0.56180185,-0.8049665,0.32040426,-0.49144408,-0.33417937,-0.4337108,0.38724825,-1.0125749,-1.4860548,-2.2340462,-3.1227503,-2.5935278,-0.52282083,-0.8968607,1.5046922,2.6862621,0.84912604,1.6576288,4.2445636,4.55284,2.381327,0.72735536,1.6039917,2.039992,3.3727264,2.9894753,2.7194786,0.59249514,-0.57520086,0.6572679,0.12741236,-0.9374435,0.038224697,0.3616108,0.7297272,0.15823637,-1.7645332,-2.8966467,-0.6344251,-0.52777535,-1.5770499,0.92398936,3.2192822,2.0113344,-0.88580257,-0.13709946,0.5362413,0.65419614,1.6326042,2.4651756,2.4954221,4.01673,4.160414,2.3943646,1.5015074,0.96126467,0.13494137,0.32864097,0.7591349,-0.047822237,0.9569365,0.6156726,-0.20565943,-0.00941381,-0.045666303,-0.72060484,-0.41357738,-0.6149662,0.2790307,-0.66544694,-0.27873328,-1.9598151,-1.4573909,-0.56216145,-0.98374784,-1.7496496,-0.75836396,-1.1929146,1.8604611,1.4850448,0.8331689,0.57517487,0.7568009,0.30798382,-0.9221426,-0.38496274,-0.64475083,-0.4743842,0.35453582,0.18704414,0.31283686,0.70167667,0.6585098,-0.22086577,0.464805,0.26292107,0.96034795,0.73716223,0.0657634,0.6150298,3.1537457,1.9843723,1.2435458,0.56403595,0.120753184,0.7186585,0.5669717,0.20818052,-0.46983317,-0.058790352,0.09873524,-0.016405432,0.91178924,0.64596254,-0.6793997,0.11100507,-0.76913273,0.07438326,0.2618741,0.6591534,-0.42205864,-0.43955633,0.58736205,0.67345804,0.6414371,0.09753942,-0.19491681,-0.012313542,-0.12825365,0.044757236,0.5382232,0.5305215,0.9191267,-0.77502185,0.008557104,0.28311294,-0.0074001104,0.9196445,-0.4219456,0.4596634,-0.2582394,-0.47292376,-0.5373466,0.20054853,-0.23448908,0.8322998,0.5624764,0.76045656,0.36749828,0.72627383,-0.41856453,0.51021194,0.114732146,-0.2907713,0.1865432,0.31933478,0.96323836,0.03661635,0.4920592,0.68044364,0.80184865,-0.59573925,0.53357685,0.49175838,0.84344995,0.28980303,0.118271254,-0.97441244,-0.86602175,0.020553589,-0.59090614],"bias":5.565818},{"activation":1.0,"weights":[-0.05090201,-0.42823398,-0.98748577,0.22620702,0.68294346,-0.8753847,-0.81690097,-0.9190277,-0.71688795,-0.031585336,-0.19662416,-0.77142286,0.05200182,0.823682,0.73621416,0.9573924,-0.30160284,0.87831473,-0.17396629,-0.28351033,0.61948705,-0.5454776,0.6767174,-0.46706533,0.14615929,0.0025144815,0.31583774,0.74227154,0.54127204,0.013929129,-0.34499323,0.0431509,0.40418553,0.12180443,0.17279924,-0.7987624,0.91156554,-0.37517998,0.5720871,0.05962435,0.60737324,0.2331883,-0.24769185,0.34227863,0.9234181,0.46185717,-0.842692,0.419048,0.57442975,0.00991251,-0.36718574,0.54899776,-0.14409566,0.2985772,0.9623622,0.73488235,-0.70767355,0.162485,-0.48301184,-0.28026748,0.00070766127,-0.9535172,0.6496083,0.6472481,0.749557,-0.7264435,0.07237856,-0.798483,-0.96052676,0.4036877,3.606912,-0.41910335,1.0399898,-0.6058595,-0.20787008,0.16468766,0.17215122,0.024885071,0.17639808,0.41272315,-0.2888247,0.7989419,-0.17939675,-0.84869635,0.6077534,-0.45566308,-0.63557196,-0.3757792,-0.66113883,0.12745512,0.5059622,0.2618859,1.5185391,0.9259331,0.90586543,2.0199268,3.072907,4.1596193,3.5095503,2.187066,2.5078185,1.6995646,-1.176464,-0.98484164,-0.7185798,0.94107896,1.0663743,-0.23858052,0.12884939,-0.22880591,-0.58281386,0.003262639,-0.030735254,-0.7858527,0.7279535,0.7024095,0.7499562,-0.11772434,-0.2974631,2.516341,0.9912201,2.0422125,2.7595017,2.8238518,3.5574057,3.9862287,1.8579593,-3.713066,-3.6246495,-2.3636227,-2.680612,-2.3224034,-0.9122963,0.5718005,1.8459435,3.0076158,1.96892,-0.32574987,0.2959439,0.28544328,0.008921981,0.91303027,0.5999702,0.13820574,-0.32533842,1.3762109,2.7707038,2.8178887,3.7620234,3.7106524,2.49662,1.0697145,-1.9013593,-4.8270164,-10.76879,-12.862833,-12.232776,-12.035722,-8.469423,-4.1578627,0.75662327,2.0243268,4.6904535,4.762211,4.8272877,1.9343216,-0.90942866,0.49700236,0.32280087,-0.3924022,0.64108014,0.9389882,1.5199568,1.2926333,1.5728495,2.4289935,5.4227176,4.382211,-1.1821749,-1.8324575,-4.2734284,-8.964666,-6.432553,-9.997834,-9.414549,-10.887673,-6.8726473,-2.8993,0.7872088,-0.73572075,1.9013072,4.7796874,6.4102907,4.8167977,0.05788192,0.15841518,-0.37077245,-0.097146176,0.101937674,-0.40978965,1.0514989,0.6710178,1.6650273,2.5174649,3.688887,1.006818,-2.1366336,3.0914197,0.18427698,-1.896343,-2.3109303,-4.826954,-5.382853,-7.478802,-9.376179,-5.9287558,-1.0181891,1.6270552,2.3735034,8.273548,10.707445,4.9723196,3.2804046,-0.18655941,0.13361678,-0.12024418,0.06780067,1.4148886,1.9327183,0.97474384,1.7130369,4.0336337,0.92632574,-0.5403018,7.4727755,8.88416,4.495923,2.9384406,-0.17446184,-3.4770234,-2.7153447,-0.78165734,-0.5631891,2.5711703,5.0558977,0.99432975,0.036866583,5.105532,10.467559,4.6943407,1.9617385,-0.78165126,0.39800057,0.70245534,-0.6207259,0.9260717,0.8720947,2.554321,5.3003364,6.0725718,3.1294072,4.46683,9.133785,7.6979804,3.0104,-0.6767517,-1.4764992,-0.48232144,2.4641833,1.4542276,0.83101237,5.5276885,4.3414125,4.6464405,3.5210679,-0.59325784,3.6858306,2.5881062,0.33638427,-0.5760924,-0.9909522,-0.24929339,0.9468743,1.5888853,1.5436225,4.635084,9.42687,3.6168668,1.2787117,5.404123,5.7921205,6.8105154,3.5800128,3.0463626,2.7172039,6.057877,12.831731,12.187902,3.8765185,2.9734757,1.7220203,1.1744163,-4.2925844,-3.366223,1.4868667,1.072749,-0.25251412,0.16873948,0.30529314,0.4960272,0.30833754,0.48852152,3.7999806,10.381433,8.266224,5.7910266,6.65566,10.498716,10.022622,3.9733932,-1.3618366,1.9542379,3.200923,10.12301,14.659389,8.430565,-0.93338907,-1.2092556,1.2008357,1.923591,-1.5885227,-4.364571,-1.3355981,0.2554865,-0.90187,0.78531647,0.108076386,0.92714936,-0.057568535,1.8498557,6.4588637,9.053046,7.9917965,2.8536334,1.8672835,4.4126024,0.39696145,-4.563579,-3.6670635,3.7493765,8.821671,10.25818,12.389897,9.824974,1.5446124,-2.5503466,-1.8766828,-3.3845525,-6.221285,-3.7296348,0.58218616,-1.5973427,-0.54074126,0.8478283,0.033453554,-0.07210446,1.0772457,3.225233,5.3321867,6.9929113,1.4851598,-2.6247556,-3.0477953,-5.1956005,-8.091372,-4.840826,4.346425,9.163935,10.442669,11.358196,12.500692,11.539276,5.2007813,-0.73526645,-2.6416142,-5.4151106,-9.963379,-8.229681,1.9541867,-0.5933566,-0.25130588,0.57822436,-0.71177876,-0.8299152,-0.15216649,1.4315522,1.1225643,-0.22615196,-4.6423464,-3.4241803,-2.2506685,-6.985255,-8.615449,2.1105387,10.649566,10.934387,9.13468,10.518938,12.097096,10.506393,5.5260906,0.015497054,-0.95080143,-2.7119474,-5.902847,-4.153664,-0.6286808,-1.8366486,-0.341689,0.14897774,-0.29461932,0.7422833,0.86384374,1.8679279,-2.2318523,-6.324643,-5.86157,-6.132406,-6.6165323,-8.308249,-7.003676,5.6993284,12.366244,15.9448805,11.398498,15.856199,13.628482,9.387481,5.8473496,1.3760574,-3.8699195,-4.5198994,-1.0235765,0.21396849,-1.347138,-1.870926,0.87192583,0.31508508,0.14872423,0.43788388,-0.35898012,1.790109,-2.1240954,-9.42712,-10.293904,-2.3953054,-2.639227,-0.93019044,1.8008246,8.887171,15.689643,18.887333,13.873454,15.496751,10.903864,7.6948175,-1.7831919,-6.893784,-8.720148,1.1636554,2.1436267,-3.2716184,-1.8754584,-0.39603126,0.43450478,-0.050819866,-0.15879583,0.751956,0.1984757,1.9950945,-3.3999016,-7.039053,-3.9363418,-2.5732045,-0.9062124,2.0406673,4.6006975,7.987112,12.448748,13.848055,12.441123,9.7217245,5.4767323,1.6201316,-5.5011964,-7.371979,0.7998261,3.8581874,-5.0936475,-2.8308127,-1.5696998,-0.29167402,0.22791071,-0.7778015,0.56564075,0.98064184,-0.5460203,1.0188067,-0.4757227,-1.2213352,-1.0373266,-5.3723497,-6.7387943,-3.769137,3.261422,9.162391,7.538246,8.572328,6.2044024,0.048231997,-1.9390808,-1.649261,-0.25912666,4.7954597,3.0002308,-0.9310267,-3.3204026,-0.26576707,-0.86867267,1.0963346,0.279382,0.34490964,0.538445,0.79754555,0.58211523,0.44553152,0.5326269,-0.72176623,-1.5977467,-2.114431,-5.4983697,-9.14821,-3.1616418,0.6350103,0.7663288,0.7208583,-4.002501,-3.7570424,-5.5055194,4.612146,6.448514,3.7292562,-0.83701044,0.7104986,1.1437191,1.4655946,2.0608625,1.4713403,-0.143393,0.30113873,-0.19428694,0.1628529,-0.9667738,-0.15720893,0.29866305,-1.7082856,-3.4454734,-0.4927598,-8.7928,-13.32828,-8.820598,0.21033818,-0.15070614,-4.9678774,0.36084428,0.09078794,0.50006634,5.032494,0.3611472,-2.8918772,1.243593,1.3849933,4.926058,3.5554266,0.5136743,0.07049933,-0.49195328,0.8227502,0.54414004,-0.26435632,-0.05960094,-0.21133085,0.1620673,-5.3268094,-5.9545135,1.0546913,-1.985917,-6.5386944,-6.568648,0.25679466,1.9700698,1.2290589,0.2822669,-6.7082486,-5.099279,-0.33683455,-2.1315,2.3608801,3.1308093,4.826187,3.7674286,1.9531937,1.462189,-0.01920226,0.8585588,0.67951316,0.3217594,0.627113,0.14195359,-0.38636297,1.0460137,-2.4995472,-6.742856,-2.3827052,-0.74104375,-1.2754574,-1.9066907,-1.8275548,-1.6761302,-5.7724953,-4.14489,-2.9857547,0.47299513,-1.0147731,2.061329,3.310088,2.9716523,1.1319543,1.2298907,2.1835835,-0.8610827,-0.9114772,-0.5617677,0.72354096,0.6488898,0.54071987,-0.5532532,0.7679785,1.2071995,1.0124271,-0.55335176,0.8984705,1.385575,1.6412243,-2.5229316,-7.2034354,-5.8033752,-3.534553,0.87317294,3.4934266,3.0427506,2.4135168,0.28956917,0.17852196,0.9406485,-0.58069557,0.07283347,0.4176336,0.5465277,-0.15647434,0.94682753,-0.13109028,-0.11520803,0.20588303,-0.051947575,0.90405345,-0.5021814,0.41420287,2.4928634,3.585244,2.7967458,0.24822435,0.4238549,1.562089,2.510833,4.3543963,5.260302,5.57121,6.564596,4.2011266,1.0404934,1.3989829,0.19005528,0.63655317,-0.76139164,0.8501476,0.4848312,0.68937194,-0.20329858,0.60645556,0.30905402,0.20055294,0.70455986,0.17365283,0.8599664,0.3955034,0.56397754,3.6822238,2.9230595,2.2563448,3.4782221,3.5112484,5.542489,4.946664,7.9488277,6.5994644,4.554398,4.375937,1.9796695,2.1133204,1.40658,1.4318674,0.29930675,-0.2369305,1.0193388,-0.9042105,0.8505875,-0.96599674,0.064501524,0.35443878,0.32556653,0.3332301,-0.54828215,0.42359158,0.8124957,0.54211396,0.24798186,1.3143373,1.2937876,1.8637785,1.0444127,3.577153,3.1554928,2.6603563,0.75703186,1.0379813,1.0740916,0.19931799,0.9970625,0.6909892,-0.6226564,0.056884617,0.2617228,0.149207,-0.9688184,0.4127828,-0.5145271,0.81564367,0.83773386,0.37634265,-0.023378873,-0.2753358,0.14796871,0.3713428,-0.8377616,-0.054266106,-0.8713649,-0.23403572,1.8168939,1.164504,-0.4153658,1.0416925,-0.8174628,0.06750975,-0.6244159,0.10610589,-0.83290535,0.10210412,-0.74897176,-0.11034898,-0.067415714,-0.15712988,-0.48636186,0.5771004],"bias":23.70266},{"activation":1.0,"weights":[-0.60094476,0.6676295,-0.66574264,-0.11388147,0.7670263,-0.1780994,0.48177457,-0.1911968,0.0011867285,0.08195639,-0.36740434,0.8480958,0.2226305,-0.1585479,0.66312444,0.32013524,-0.27193844,-0.10557914,-0.37014782,-0.61715996,0.7453089,0.020748258,-0.90573883,-0.09099746,-0.0444417,0.52924144,0.75532794,0.38219976,-0.34165442,0.9111599,0.98954725,0.47394776,-0.54168797,-0.5241823,-0.66138744,0.9439098,0.61429507,0.32645136,0.4453943,0.9520281,-0.24755211,-0.15942058,-0.05185862,0.627025,0.92091304,0.016057467,-0.012408015,0.97539294,0.4436269,-0.23374942,-0.92080986,-0.9537827,0.87527335,-0.94145787,0.7250488,0.09650886,-0.66807115,-0.056610227,-0.82435894,0.08555961,-0.6436092,0.55878204,-0.928996,0.2871836,0.102074884,0.94032305,0.22698103,-0.4012783,-0.075659506,0.8684822,-0.1838761,0.9642503,-0.4868467,0.1557614,0.24463943,-0.20240103,-0.8878078,0.75218713,0.25234467,0.0043113874,0.03708633,-0.1299392,0.3607062,0.6547288,0.6822264,0.80074453,-0.32825196,-0.71423244,-0.51243806,0.968321,-0.6009429,0.33680564,-0.9668989,-0.43228438,-0.24044581,-0.41431475,0.13994223,-0.8692142,-0.09365933,-0.934742,0.08435946,0.45361802,0.8601818,0.4760062,0.38428727,-0.19581601,-0.0365105,-0.7408102,0.60358596,-0.07289004,-0.24066722,0.045088053,0.63422644,0.9481795,0.9553436,0.7161276,0.2746341,0.5989832,0.7955911,0.46227238,0.67349964,0.12066799,-0.735685,0.47238716,0.9519121,1.3929358,-0.27850345,0.8188508,-0.14870705,0.7578628,-0.10315517,0.9107612,0.6103278,-0.7465749,0.44905812,0.6796877,0.63792044,-0.100664444,0.38821268,-0.7563399,-0.07513392,-0.69497776,0.4379168,0.29825324,-0.3502512,-0.19981326,-0.4464598,0.7216512,0.4096452,0.7159888,0.5064924,0.06523555,1.132229,1.0468034,1.9546597,0.73137164,1.7850822,0.0096198125,0.4875873,0.50679284,-0.4566511,0.54874575,0.33200395,0.82543623,-0.23061012,-0.37280235,-0.047586165,0.3675865,0.53316617,-0.16174114,-0.19741799,-0.5097886,0.57276994,0.02009346,-0.7109059,0.5069161,-0.5178073,0.17412177,0.6122958,0.95458406,1.4538983,0.04802541,1.231376,1.570864,-0.03864787,0.76444757,1.1715448,-0.12863313,1.1412069,0.016868202,-0.7517154,-0.3889894,0.35960397,0.95557576,-0.06269169,-0.63131607,-0.7583713,-0.08615355,-0.55539286,-0.2508168,0.41136986,-0.02868387,0.5414744,0.294872,0.035139035,0.9416084,0.77488714,1.1618705,0.62074524,0.99773985,0.95658654,0.68869346,-0.17156665,0.22839402,0.37404352,0.5185381,-0.56351393,0.08111941,0.36960763,-0.21323837,-0.48652965,-0.024521645,0.43923053,-0.8313068,0.4083345,0.8208492,0.53321886,0.15613662,0.41589206,-1.0235535,-1.2653829,0.62480646,-0.48305702,0.3736344,0.3149479,-0.05678927,0.6896071,-0.40195101,0.78851783,0.8718588,0.5403238,-0.09659299,0.4152856,-0.3980186,0.7703892,-0.20751452,-0.6401328,-0.26061046,0.2424174,-0.61561316,0.9090634,-0.5781364,-0.15053397,0.86788017,-0.3753267,-1.1318092,-0.35674807,-0.7027541,-0.8921782,-0.7323898,-0.8743076,-0.4571686,0.24168631,-0.5202186,0.18732676,-0.7579551,0.49297333,-0.31765896,-0.38943246,-0.017575808,-1.0039818,-0.14060463,0.7651161,0.092133924,0.6345898,-0.21059917,0.1728541,0.70533425,-0.34197837,-0.26439998,0.78880775,-0.47098202,-0.54389745,0.44325596,0.17088126,-0.566458,-0.35033748,-0.103803076,-0.6921182,0.78079,0.9370555,0.22864763,-0.17542341,-0.416073,-0.035837684,0.30068782,0.71000594,-0.40111175,-0.62717867,-0.38071838,-0.26704535,-0.5192804,-0.436198,-0.7661905,0.15366986,0.0016647868,0.17641161,-0.45696408,0.46184886,-0.08059885,-0.08267834,0.083303384,-0.36198696,-0.6803937,0.6680801,-0.43700176,0.47416273,0.6170928,0.30202127,0.006906005,0.21370792,-0.6288509,-0.0747697,0.2119679,1.2655877,0.12112578,-0.72162944,-0.48028538,-1.1708821,-0.036783703,1.2258399,1.1105133,-0.071523994,0.6899653,-0.32869634,-0.030980282,-0.7520878,0.4242639,-0.5959092,-0.05257161,-0.12890548,0.11521174,-0.49853683,0.12200982,1.0415287,0.36773726,1.4051404,0.42509085,1.3280998,1.8154709,1.356351,1.5674587,0.39203277,0.27550253,0.4795856,0.037320785,-0.07652843,1.0720474,-0.25029653,0.034468632,-0.33476737,-0.7646941,0.15843245,-0.04812054,0.497424,-0.38832277,-0.40981486,0.08428198,-0.071450755,0.9837685,0.6569702,0.039563622,0.42590398,0.3151938,2.0289545,0.64801556,1.9638729,1.3081608,0.8869568,2.0206118,0.9924699,-0.06208811,-0.1224058,0.3193726,-0.81476104,0.8081895,0.511375,0.07727936,-0.7304409,-0.08911487,0.58467805,0.9878925,0.7808392,-0.7770504,-0.913663,-0.6497543,1.0044404,0.99537104,0.9137508,0.21046509,1.5398527,0.06852131,2.2146375,0.97721905,1.9446796,2.2065837,1.1354754,0.5231815,0.22010435,0.8964342,0.47137585,0.47479138,-0.31028667,0.81474656,0.4181876,0.4968353,0.54557705,0.63079613,-0.062060244,0.24143922,0.8596407,0.29008147,-0.70867157,-0.35799858,0.09576233,1.0834267,-0.08149791,1.779345,1.1319878,1.746657,0.5633887,1.2073624,1.2966199,1.1491506,1.792224,0.1546619,1.006541,0.08117013,-0.22611915,0.9218832,-0.022628788,1.3458335,-0.5943616,1.1795143,0.014804607,0.94701576,0.06613205,-0.16073018,-0.5182324,-0.17949256,0.19910489,-0.3157939,0.05424123,0.19486411,1.3606021,1.7846689,1.0580626,1.5592507,1.2027497,1.454967,1.060851,0.76913667,0.8233347,-0.17811608,-0.4350016,1.350125,1.2344187,0.8899039,1.4000944,0.86646485,0.89078337,1.1473609,-0.53597456,1.0617642,-0.78943145,-0.22698937,0.5583657,0.56616664,0.55260795,-0.85442144,-0.7817342,-0.059679303,0.50582033,0.73462903,0.2238284,0.5238442,0.9651826,1.2641703,1.4922414,1.090885,-0.35506046,0.66168606,1.5182401,0.6992818,0.3786601,0.6096918,1.26958,1.6905844,0.6780802,0.8321359,1.0890505,0.20529018,0.82328194,0.6013836,-0.47590548,-0.7355529,0.9412156,0.5940574,-0.32487756,0.27024224,1.5832331,1.823703,1.6057566,0.34337658,1.2667075,1.1233913,0.23795529,0.8364553,0.76685107,-0.10919665,-0.15753916,0.5079238,1.494219,2.0826457,1.2490311,0.8148527,0.4082368,0.8499161,0.5565913,0.32622954,1.1297008,-0.6302286,-0.32949817,0.9896815,0.035406176,-0.58553785,0.9722506,1.3375591,0.35941258,1.323707,2.005502,0.5008181,0.8345895,0.413958,-0.17512263,0.2429139,0.45773464,1.4348276,0.8795846,0.61274415,1.0283471,0.54575604,-0.4251284,0.95404553,0.93926054,-0.049439482,-0.2454187,-0.78536844,-0.4396838,0.3944356,-0.18694162,0.5893135,-0.14754385,-0.26132154,-0.054598104,1.1333716,0.006277833,-0.099953026,2.0631142,0.4636922,1.0850948,1.2454662,0.16775477,-0.34170204,0.404192,0.7657154,1.0707027,0.74215496,-0.15179147,1.0250726,1.1991054,0.13992915,-0.24038473,0.10239517,-0.49081427,-0.8655984,0.5500508,-0.9773031,0.0039719343,0.61091137,0.8866308,0.17778274,0.6696866,-0.0990036,0.17088121,1.0376664,0.8228403,1.0513477,1.3073858,0.5646301,0.43085217,0.2861125,0.35563743,1.1108834,0.34168062,-0.2814306,0.680929,-0.06572741,1.1711388,-0.6797418,0.5950807,0.336241,-0.97687733,-0.7986941,0.8304651,0.9712739,0.46664488,-0.5900117,-0.8273584,0.19795763,-0.000072990064,0.44998458,0.1571714,-0.045836885,1.1643863,0.596326,-0.51651406,0.39498353,0.6272051,0.61165744,0.6610984,0.3374124,0.732039,-0.58642346,0.772189,0.14742756,0.43870416,0.6790386,-0.09703163,-0.5554588,-0.97604835,0.02085827,0.5851192,0.5117848,0.45865464,0.17194843,-0.58128047,0.2219564,-0.6528471,0.88964117,-0.18487756,-0.8986443,-0.29974765,0.94253284,0.8500567,0.22399566,0.99170995,1.581629,0.043602057,0.63921654,-0.46268272,0.79059285,0.54289055,0.10359879,0.18787494,-0.3517288,0.68751884,-0.6152827,0.7506919,0.79210156,0.5589019,0.9699509,0.11767471,0.8106197,-0.13920447,-0.23809662,0.4407166,-0.05153447,0.37089464,-0.96742517,0.18846446,0.18360367,-1.4064677,-0.9136726,-0.4997731,1.0349692,0.5116494,0.2968694,0.031014426,-1.0573754,0.22950439,0.5087219,-0.75145733,0.82968146,0.62839717,0.08939969,-0.8027191,-0.6962939,-0.03948837,0.56702805,-0.04231465,-0.96064734,0.33965465,0.19319625,0.37259874,0.7092454,0.7337214,-1.018922,-0.67537796,-0.39134905,-1.7856668,-1.1771307,-0.19752626,-0.7086308,-0.3987841,-0.32898146,-0.19046001,0.14242882,-1.2283148,-0.4510971,-0.5349989,0.78790116,-0.61678857,0.56650525,-0.09410926,-0.47651514,-0.43654492,0.6505797,0.8148129,0.05150318,-0.6332518,0.06677096,0.4889032,0.20919092,-0.19507085,-0.93937474,0.36976254,0.08692582,0.30168945,-0.88655883,0.09101407,0.19588391,-0.14082116,-1.0266917,-1.0953887,0.026283279,0.30902195,-1.061419,0.50482845,-0.7670085,0.20197451,-0.32062986,-0.16708517,-0.6777866,-0.68211067,0.90298545,0.486233,-0.010654569,-0.72435284,-0.040084124,-0.3318346,0.83589935,0.8823802,-0.5992503,0.30788866,0.16957876,0.77946895,0.38805512,-0.87624717,0.44034937,-0.19671384,0.37494665,0.5521931,0.5253596,-0.73586553,0.8258687,0.67894477,0.18081823,-0.37898692,-0.34795898,0.6335962,0.6408918,0.03526759,-0.79722524],"bias":2.0031655},{"activation":0.0,"weights":[-0.52169013,-0.4270215,-0.26073658,-0.34591937,-0.36261165,0.45858884,-0.043150306,-0.67655313,0.7045171,0.4538002,0.65418315,0.28322017,-0.80422676,-0.64225537,0.30505627,0.8967839,0.0137838125,0.764485,0.039793372,0.37962866,-0.71124625,-0.10137665,-0.059259534,0.5579313,0.71146667,-0.9386376,0.25434434,-0.4747479,-0.8537041,-0.7579113,-0.70733356,-0.8527502,-0.36384535,0.30783784,0.112015724,-0.08583009,-0.66714394,0.70869476,-0.84887433,-0.2817095,0.9783275,-0.5307504,0.24551249,-0.9130031,0.82381105,-0.88790774,0.9010679,-0.94017756,-0.39507765,0.61469513,0.58101165,0.4727118,0.6277977,0.9535649,-0.45511723,0.83804834,0.42457294,0.26417732,0.07298696,-0.30735028,0.10412478,0.07017834,0.87460023,0.9439624,-0.88584757,-0.7340535,-0.0040869387,-0.3575266,0.102887124,0.162083,0.015678493,0.24467386,-0.72239476,-0.95813066,-0.7505683,0.4530545,-0.07752189,-0.25130692,-0.8685615,-0.8395071,-0.22373831,0.23455727,-0.2928282,0.89546394,-0.63182557,0.69604766,-0.7495053,0.64489067,0.10405205,-0.40042686,0.37035954,-0.4972203,0.054037157,-0.47884715,-0.7344468,-1.5709027,-1.1568985,-2.5889242,-1.8637506,-2.4558575,-2.6606655,-1.176765,-0.6852666,-1.9815587,-1.1570103,-0.08867145,0.35978168,0.7502407,0.22054043,-0.012646752,-0.2580437,-0.9895054,-0.4590969,-0.15283084,0.8056624,0.26285785,0.11282543,-0.7229507,-0.9764,-0.49939403,-0.6973799,-0.313878,-2.3593533,-3.3148677,-3.1252096,-0.97291434,-1.8875068,-3.007463,-3.1533523,-2.0996306,0.19665349,0.96342987,0.50260454,2.2783544,0.61438066,-0.06370974,-0.57378227,0.53905076,0.20383736,0.21951824,0.31578314,0.00046157837,-0.99115103,-0.0845122,-0.74897444,-0.4089056,0.49651617,-1.2781562,-2.6589484,-1.8262267,-4.2160106,-4.1142287,-0.2378785,1.1222746,-1.516552,-0.44615647,-1.079817,-2.3627713,-0.6936949,-0.8259137,0.9927785,2.446978,1.5702115,0.51067954,0.12079441,-1.1376039,0.41899616,-0.62241054,-0.55950046,0.06873906,0.31945157,0.08362751,0.48850664,-0.093817435,-0.6388171,-2.0240405,-1.4873599,-3.0718842,-5.0554023,-2.9885755,-0.71205556,0.3783673,-0.5267177,-4.816323,-1.724202,-1.8588288,-2.093549,-0.43990207,0.86980456,0.6625972,-0.19869341,-0.010511252,-1.612794,0.5772538,0.78006434,-0.30745006,0.06818824,0.7654222,-0.8958208,0.116473734,0.6379417,0.51537997,-0.6495156,-2.6244648,-4.394468,-5.5234365,-3.8954735,-2.3446102,-0.33863556,-2.5288205,-3.1913528,-5.753783,-4.6272593,-2.134872,-1.2961514,0.4982729,1.649485,-0.85088545,-0.9762375,-1.8355323,-1.9996461,-1.1098212,-0.87372434,0.7742398,0.30485526,-0.35065997,0.6134748,-0.39984825,-0.4988908,-1.8901002,-0.43384826,-2.684812,-2.9403806,-4.4495845,-4.608719,-4.063458,-1.1250525,-0.783717,-1.747587,-2.4066534,-2.82873,0.6732826,0.6765909,0.21886522,-1.6866865,-3.6793346,-3.2956405,-3.9065602,-1.9903498,-0.44016722,0.09202917,0.8326825,0.16369794,0.08143557,-0.52178174,0.7332658,-0.6615076,-0.84627557,-0.16624007,-0.11568612,-2.5408258,-3.879947,-4.382679,-4.4214096,-3.3841686,-1.3457841,2.781687,3.8981361,3.0660923,-1.1797386,0.5269743,-1.5382084,-3.0102208,-2.3602734,-3.7786608,-2.3627772,-0.859683,-0.31311575,0.9024406,-0.8475057,-0.24563384,-0.12127891,-0.97921735,0.43598974,0.5032568,-0.65716785,0.74336934,-1.2806182,-2.544659,-2.1233408,-3.806016,-3.9347663,-3.3267932,1.6054198,4.2295723,3.522711,2.2913973,-0.099746905,-0.053729918,-3.1764467,-3.5656939,-1.2541448,-1.3801514,-0.85694945,-0.38732263,0.046712313,0.32603276,0.63546556,0.3716358,0.31838602,0.11759903,1.0737298,0.78791285,0.6636682,-1.2654859,-0.7014235,-1.8382082,-2.3140967,-4.369093,-3.7849243,-2.7780883,2.004133,3.6962392,4.2560797,2.2588015,-0.362358,-1.814839,-4.110694,-1.8890797,-0.6980831,-1.1246533,-0.69698197,-0.42303228,0.5855282,0.46500415,-0.7263885,0.26659858,-0.6884881,0.5975963,0.83604145,-1.0285964,-0.7008108,-0.38751864,-1.4444141,-2.854455,-2.6560297,-3.9405708,-7.331458,-3.4846177,2.5718803,4.1687555,4.6304345,1.9055134,-1.016365,-3.7864828,-3.7078104,-2.7313805,-1.6148847,-1.219931,-0.35490352,0.083305515,0.3169909,-0.63665533,0.2275178,-0.6478188,0.23907423,-0.4874323,-0.75503176,-0.83609325,-0.35054943,-1.2178354,-1.63144,-0.1967739,-3.7463808,-6.2637753,-6.462048,-0.20204745,2.676431,6.051884,3.6029425,0.13418141,-1.9767616,-2.1311674,-0.81292665,-0.9478625,0.36727166,-0.23360097,-0.5265975,-0.7770138,-0.23958498,-0.62120146,0.7615708,-0.4434123,-0.3392139,0.46511576,-0.7640555,0.71646595,-0.24335301,-0.8999348,0.75257736,0.008248854,-2.4077082,-5.908793,-6.2630224,-0.04718259,4.2862697,4.3338175,3.4141157,1.0089146,-3.300546,-4.0119863,-2.283745,-2.0354304,-0.64412713,-1.5613271,-1.3726993,0.025171876,-0.8811185,-0.9058887,0.6350467,0.815668,-0.30826056,-0.63002783,-0.36903563,-0.42463845,-0.33727014,0.086202875,-1.1418537,-0.9510946,-3.7669456,-3.6665633,-1.3049469,3.13854,3.1025014,2.9196546,0.09165295,0.4205093,-2.4685154,-3.2447224,-1.8897519,-2.788092,-2.4420505,-1.288728,-1.4884323,-1.5892433,0.41237307,-0.9285666,0.9829665,-0.08485663,0.33310193,-0.75813895,-0.85831267,0.81290245,0.12836991,-1.2650424,-1.7419653,-2.5530436,-3.0045009,-1.9219823,0.3017625,1.5515171,3.3252072,3.0051959,1.5524791,-1.4636226,-4.627808,-2.3725016,-2.1219482,-1.4492173,-1.5422779,-1.7976646,-0.036496542,-1.2473569,-0.017127348,-0.07692399,-0.986826,-0.8534101,-0.33413407,-0.38140342,-0.14396949,0.15940975,-1.8175988,-1.6638255,-2.472383,-2.9467504,-4.889914,-2.393114,-3.0610483,0.46259823,4.3942904,4.927294,0.8838986,-1.0219942,-3.258389,-3.7410176,-3.287318,-2.127473,-0.3319439,-0.7407233,-1.3328662,-1.5960236,0.2854088,-0.73152035,0.13759947,-0.045983538,-0.04560598,-0.67440456,0.09323785,0.042116582,-1.9171795,-2.776106,-4.0083175,-5.353781,-4.768474,-4.577517,-1.8162452,-0.30428663,2.9642313,1.943533,-0.9786814,-3.8285148,-3.80681,-3.3389416,-3.1894422,-2.2638245,-2.4692364,-0.6499657,-2.8842695,-1.6021901,-0.042377487,-1.3897824,-0.2762794,0.020243572,0.3608561,-0.0883833,0.11625172,0.06779537,-1.8738658,-3.4549122,-2.8171594,-3.3549106,-2.8269966,-0.5621633,-0.21689121,0.21848269,0.45137373,-0.2746065,-0.12531011,-2.0109892,-3.8674643,-5.8887863,-4.3864074,-1.898547,-3.1554255,-2.1545868,-1.6893538,-0.68761915,0.38641366,-0.86351925,0.08034258,-0.065093756,-0.32368127,0.23967925,0.20068836,-0.74339795,-0.68961716,-3.30713,-3.394931,-0.81979245,-3.379789,-1.4254081,-0.15012759,1.3810637,-0.43436897,-2.0741282,-0.97360224,-1.1976185,-2.768022,-5.3684154,-5.4139333,-2.7862973,-3.0495033,-1.2047553,-0.38757196,0.8874762,-0.009868933,-0.5432868,-0.7822025,-0.8496496,0.288843,-1.0105512,-0.2225706,-0.4285203,-1.003753,-0.1219522,-1.5419241,0.80996007,-2.5075758,-0.81909734,-1.2930719,-1.9060395,-3.0157247,-2.3442216,-0.43997636,0.9783496,-1.4789339,-4.9804654,-3.493275,-2.4995286,-2.375028,0.25188693,0.6984936,0.41312954,0.58211297,-0.8735242,-0.43166804,0.04932703,-0.5057867,-0.9196807,-0.5845027,-0.4256859,1.1812676,2.0545502,2.149619,1.5526196,0.5147527,-2.4916222,-4.3524523,-5.187119,-3.2405963,-3.3656902,2.1481717,2.0249672,0.08555723,-1.98817,-2.562624,-1.4631389,-0.8018303,-0.1921922,-0.12214733,-0.7799042,0.2753006,0.14321484,0.7554164,-0.59696984,-0.08679521,0.35334057,-0.59653765,0.20782515,0.88377684,3.023489,3.0711217,0.6741609,0.3271584,-2.6802683,-1.7204084,-3.5503874,-2.5732176,-2.7029955,1.1586392,2.5290048,1.7717313,-1.4886962,-2.1240418,-0.8858297,-0.9147183,0.17402638,-0.54522914,-0.1397069,-0.35318843,-0.32110932,-0.69244576,0.98819864,-0.25364554,-0.600214,-0.026927825,-0.37336323,1.1612512,0.9651772,0.5072706,-1.3711907,-1.0174122,-2.389452,-2.4299102,-4.1552143,-4.007539,-3.4162803,-3.6024356,-2.1290455,0.2801263,-0.6799554,-1.170168,-0.4769315,-0.96052396,-0.4296903,-0.38550207,0.78033257,0.45248982,0.42549598,0.6272901,-0.102838635,0.12007022,-0.4222157,0.331354,0.6937053,0.27930605,-0.33005235,0.6426163,-1.1074579,-1.2823399,-0.96367747,-0.41605818,-0.6781401,-2.853114,-5.339373,-4.94586,-0.84628767,-1.1152481,0.404827,-0.35133806,-0.922297,0.62040925,-0.074576326,-0.91943574,0.2949246,0.008100867,-0.43683302,0.09837198,-0.24130166,0.8128573,-0.046527624,-0.90756446,-0.8948466,-0.9853822,0.10412909,-0.9684362,-0.093351014,0.10309675,0.073352136,-0.5116806,-0.5335603,-1.6313365,-0.5263492,-0.7796094,0.19642699,-0.501905,0.018427368,-0.6676834,-0.15114374,-0.16988772,-0.4734503,-0.07239974,0.24013042,0.77729034,0.68245876,-0.42923725,0.6792517,0.27045715,0.26503193,-0.38744378,0.050379768,-0.8300824,0.5933414,-0.34796232,0.37877408,-0.9565402,0.28585878,0.05384665,-0.676776,0.6866897,0.113704234,-0.68984723,0.6756893,-0.16474572,0.062405907,-0.055668984,-0.73688775,0.64325255,0.18247521,-0.7034775,-0.1261301,-0.3967737,0.2780676,0.78689814],"bias":-5.572056},{"activation":1.0,"weights":[-0.8085122,-0.19274461,-0.38343847,0.5512934,-0.88986444,-0.7932327,0.8183702,-0.8290427,-0.71148825,0.02992618,-0.2903689,-0.48938358,0.5293535,-0.8884451,0.49608222,0.60080475,0.102730036,-0.10206866,-0.72931576,-0.70167494,-0.9137167,-0.32999265,0.7824949,-0.4243096,-0.13435471,0.90193117,-0.7662171,-0.97647274,0.44188523,-0.23933339,0.6961782,-0.45003855,-0.9903928,-0.12971282,0.33316314,-0.9059949,0.27382585,0.04756542,0.26791534,-0.68900543,-0.25650403,-0.9238099,0.9721079,0.9038713,0.33668923,-0.8416069,-0.6571551,-0.6261417,0.22933833,-0.01596204,-0.66815066,0.62629366,0.6220784,-0.017940521,-0.24484897,-0.6018326,0.51950586,-0.8225708,-0.046403646,0.77308416,-0.19952261,0.40290254,0.21094057,0.62889713,-0.19346488,-0.37404492,0.421314,0.34294063,-0.4479833,-0.37830594,-0.08234792,0.2685873,-0.9849337,-0.67018825,-0.45916176,-0.26940167,-0.26462477,0.06256579,0.34851152,-0.8713092,-0.16861361,-0.22883272,-0.4796214,0.8575773,-0.04876113,0.26417446,0.36234593,-0.2323828,-0.28776488,0.8628266,0.6144088,0.408234,0.8296727,0.3688975,-0.009192315,0.24191006,-0.45705274,0.58180034,-0.06804817,0.40609062,-1.0416031,-1.5256747,-0.15749177,0.190367,-0.112234086,-0.5313978,-0.7731841,0.015009485,-0.20355403,0.49998355,0.082802415,-0.8180971,-0.055684686,0.6212909,-0.72108567,0.8899201,0.10091674,0.36844963,0.630086,-0.28525135,0.42243344,0.10504613,0.44029152,0.089991555,0.11953712,-0.66753155,0.17210804,0.9210761,0.60136443,-1.0264359,0.85479695,0.011027243,-0.50368255,-0.60267496,-0.70768726,-0.29657933,-0.86662203,0.53757924,0.46364757,0.26556444,0.36169338,-0.73489225,0.10513127,-0.5295893,0.93326795,-0.34469923,-0.19294627,-0.82217014,0.64207435,-0.17408605,-0.22624268,0.8748211,-0.3032294,1.032993,0.22028464,0.06338992,0.12873073,0.6101624,0.20606486,1.0429688,0.025514713,0.27132404,0.027814656,1.4516766,-0.055775438,0.7570602,-0.17006178,-0.47081128,-0.8400744,0.8237728,0.32276145,-0.86356354,-0.5892382,0.0035413683,-0.5479506,0.15719585,-0.36843196,0.9062808,0.3298084,-0.07661978,-0.08657385,0.51283425,0.45279792,1.1642388,-0.07547936,0.77484566,0.7507209,0.8199637,1.2326266,1.472926,0.891356,0.5721065,0.98472124,0.7624685,0.5515432,0.031905003,-0.5953329,-0.9072519,0.31737816,0.4370215,-0.8614854,0.15397757,0.17426331,-0.18291394,-0.074508175,-0.21611789,0.5711795,0.48633328,0.0077526723,0.19766815,0.597207,0.9699063,0.9301561,-0.31657246,1.1038711,0.8519696,0.7707567,0.80488294,0.59389156,0.31761274,1.4290012,0.5766599,0.53091997,-0.9563445,-0.08066347,0.023328919,0.26104844,0.36917195,-0.14469777,-0.3624741,-0.35845548,-0.9306982,-0.5759129,0.2687388,0.6032679,-1.0813586,-0.04007122,0.81023777,-0.49437746,-0.7949608,0.4354409,1.3412012,1.2362658,1.9819677,1.6786599,1.2857987,-0.4998078,-0.32406566,0.2065339,0.42647097,0.4852937,0.2934398,0.60307205,-0.49032035,-0.16629066,-0.4804579,0.3158936,-0.7133393,0.76323295,-0.41633844,-0.8171912,-1.5696095,-0.87694377,0.33979404,-1.4093257,0.36338255,-0.39565143,2.0992496,0.98831564,1.1241469,0.5082451,0.40071997,1.0342041,0.2148972,0.3855998,0.6892546,-0.31307518,0.2032999,0.23346345,0.81301135,0.07362647,-0.20630588,0.8513368,0.31330374,0.5930035,-0.69615716,-0.6453633,-0.11653793,-1.0236452,-1.1840901,-0.39607656,-0.36400172,0.4544922,1.4820076,2.679729,1.8977361,1.6452833,1.9015193,0.6855232,-0.9699889,-0.081866495,1.0309519,-0.05560404,-0.1690665,0.9078819,0.47909,0.21263239,-0.96210444,0.79678893,-0.58652747,0.6713009,-0.147912,-0.48234066,0.3639651,-1.0399292,-0.9125661,0.044429462,-0.39683628,-1.5180438,0.58156866,0.9523796,0.81095517,2.9175003,2.7600348,2.030106,-0.72725827,0.010576003,-0.8440499,-0.36785257,0.055717003,0.58115137,0.7142591,0.77415735,-0.5066665,0.02121945,-0.45825636,-0.20906743,-0.8739698,0.9285585,0.5855651,-0.81290156,-0.30050868,0.37069637,0.051404074,-1.1954149,-0.006547135,-0.037265122,1.4910597,2.0417607,1.786859,1.8183111,0.94034976,-0.6405087,-1.6987983,0.12407626,-1.1810032,0.7426915,0.43311194,0.76196724,0.0502244,0.6791785,0.5750911,0.34877935,0.5717823,-0.61208546,0.058670662,0.30924585,-0.0736908,-0.35124347,0.23733537,-0.048909854,0.32100025,-0.29244325,0.42382544,1.1719478,0.43193477,1.7204354,1.8290536,0.5727645,0.36111164,-0.6282201,-1.3706099,-0.08120843,-0.8949786,-0.8499544,-0.02746099,-0.7019938,0.6979822,-0.23586649,-0.057768393,0.2839331,-0.8293898,-0.8655901,0.20084682,-0.75749266,-0.65101063,0.50437194,0.9740706,-0.95411974,0.2549063,0.29118726,1.7240103,0.8983281,0.9266384,1.6042862,0.5762719,1.3631139,0.8439977,-0.70949286,-0.53826296,-0.104856536,-0.60511506,0.5150395,0.86180866,-0.41320488,-0.25784218,0.7098335,-0.31072864,0.85072047,-0.7967211,-0.21583681,-0.5389478,-0.33863202,-0.7571963,-0.6079497,0.00047867614,0.13184501,1.0732703,0.11437064,1.6671492,0.7849922,0.6602522,0.3403219,1.8761243,0.44823238,0.50522286,0.39717907,-0.2899838,1.1164008,0.2722134,-0.4916758,0.9614403,-0.6761749,0.40012202,0.6120687,0.63970345,0.6180365,-0.90019023,0.4366091,0.4738272,-0.39434537,-0.019672412,0.111964956,0.6162524,0.78045446,1.3159308,0.51313215,0.083322264,-0.3907681,-0.73348826,1.173538,0.25801453,0.8897456,-0.016671408,-0.97616786,0.013358718,0.8566455,1.4710264,0.49387634,0.24847363,0.9342377,-0.3013089,0.47681186,-0.6431972,0.052150022,0.15885489,0.46813583,0.24085501,-0.36267683,0.59997517,0.4735123,-0.78480214,-0.35805714,0.8062829,0.44066396,-0.36923325,0.19265033,1.0352763,0.48056763,0.085097395,0.66786474,-0.50723904,1.0613078,-0.060069676,1.1338906,2.0190413,1.2572998,-0.38556355,0.5575338,-0.07548135,-1.1774403,0.26800004,-0.7218006,0.63044226,-0.40425053,-0.4489409,-0.6504912,-0.72902167,0.09248096,0.7876984,1.5001063,1.1064649,0.28427884,-1.7585863,0.42582804,0.020374313,0.05124653,-0.14447898,0.25673363,0.56263006,1.3391914,0.94313693,2.2658722,0.9575712,-0.48323548,0.4252676,0.9100573,0.32524896,-0.75086945,0.146439,0.10472179,0.7237486,0.09082806,0.05508118,0.11615511,-0.07750902,-0.5486692,0.37092414,1.9129767,0.92326576,0.3578738,0.7884639,-0.31884232,0.37344712,0.651195,-0.7476173,1.2231123,-0.11764108,1.1001991,1.4491147,-0.42825118,-0.08991755,-0.6667356,0.14729637,0.85155934,0.98596257,-0.09678385,0.75568765,-0.26910463,0.48555204,-0.42500567,0.40451464,0.9080123,0.18516663,-0.80490124,0.9617401,1.628579,0.7307497,2.1188042,2.0316055,1.1383181,1.656945,1.0984584,0.64466673,0.8102669,0.62349635,0.6507838,0.6233056,-0.03035902,-0.00341326,1.0688287,0.22382106,0.42891702,-0.87674206,0.6914111,0.97116256,-0.12255748,0.82990456,0.61924857,-0.23761386,0.39192224,-0.22853953,0.4318872,0.95473206,-0.060036294,1.8516643,0.9329671,1.3173718,2.3493297,1.5582522,1.79634,0.67665446,-0.017308695,-0.36949638,0.43971848,0.49515724,-0.2954578,0.4422002,0.22568241,-0.25075543,-0.29905453,0.8107625,-0.24951509,-0.98207957,-0.79884607,-0.029303022,-0.16309923,0.19130805,0.89426744,0.7207348,0.5198244,-0.7186259,0.5364773,1.37079,1.7118933,0.8700678,0.974009,0.6832344,1.5383519,0.96196663,0.9026588,0.8958616,0.9146399,0.9645095,0.05128641,0.36023003,0.15538171,0.6515719,0.91838366,0.81144816,0.6027957,-0.69025743,0.47932798,-0.16002622,0.08159459,0.94394493,0.22818732,-0.22117262,0.92354,0.25207537,0.8611081,0.056841988,1.0302839,1.0778065,1.5336854,0.021949904,0.10548363,1.1818477,1.0935128,0.90612346,0.09439512,-0.117890865,0.01674844,-0.6103993,-0.20464706,0.52703005,-0.2851026,-0.57115316,-0.08475966,-0.2525601,0.97385544,-0.6167376,0.13969398,-0.49353254,0.96861744,0.33245957,0.9655115,0.4057967,0.5429344,-0.7204695,-0.6441407,-0.8553458,-0.39729318,-0.38407698,0.06986374,-0.021213548,0.60581195,-0.5695142,0.21854267,0.044069316,-0.13244687,-0.12435776,-0.7685834,0.15524617,-0.7175254,-0.68640304,-0.5399916,0.36998698,0.16316135,0.47146487,0.7197443,-0.32848954,-0.13674435,0.371696,0.8927943,-0.20631799,0.18218055,0.62564737,-0.12627053,0.009297099,-0.6073441,0.18999511,-0.7466322,-1.1698289,0.29252812,0.123272166,0.3961529,-0.85537565,0.409849,0.33000478,0.15030183,0.8358469,0.7929611,0.40070102,0.21229318,-0.75181913,0.03435254,0.44294834,-0.4920286,-0.39060342,0.4878981,0.5467781,-0.16109094,0.29562038,-1.110062,-0.33617762,-0.28958064,-0.5179668,0.19313437,0.275131,0.2672426,0.6123618,-0.8224228,-0.8806421,0.5662976,-0.79626155,-0.5537158,-0.44580746,0.25287363,-0.70069647,-0.6036662,0.1635137,-0.42868304,-0.5615785,0.22954857,0.9797368,0.5742924,-0.07748854,0.3088323,-0.7317612,-0.45483366,0.0002444012,-0.7388333,-0.23023975,0.3377485,0.29755688,0.32069063,-0.98651886,0.84044236,-0.81873924,-0.8646368,-0.21971041,0.2569445,-0.10904011,0.01273972,-0.10944069,0.44457176,0.73593,-0.18973671,0.78934556,0.38896728,-0.25397098,-0.41517508,-0.34162307],"bias":1.3728118},{"activation":1.0,"weights":[-0.052535534,0.061642885,0.764586,0.70667267,-0.35568488,-0.20670664,-0.17208862,-0.7871679,-0.38179004,0.13916337,0.459422,-0.3531016,-0.016615411,0.45199338,-0.33658955,0.8857238,0.46141207,-0.6762955,0.79016685,-0.061506987,0.4234854,0.09685314,-0.71375227,0.5235038,0.8879515,0.051298022,0.16161132,0.5770266,-0.43276823,-0.2204045,-0.2639302,-0.7722671,0.9640415,-0.16600454,-0.5283111,0.19786532,0.85944194,-0.7658951,-0.20501359,0.5515305,0.8529641,0.650096,-0.42124468,-0.27247348,0.8853234,-0.026566602,-0.3373338,-0.656037,-0.5303801,0.38048372,-0.80240697,0.49786648,0.8134593,-0.3535998,-0.9358305,-0.44259572,0.31835425,0.25580013,0.9247112,0.4616115,-0.31049913,0.7798458,0.28239232,-0.28959358,-0.7480477,0.29745,-0.21431546,0.94689375,0.2001869,-1.1586312,-0.0180401,-1.4095832,-0.9330108,0.2629847,1.2322657,-0.4543846,-0.4337087,0.33252496,-0.6085247,0.646056,0.1405236,0.6618379,-0.23767245,0.94482684,-0.8629155,-0.77036285,0.7167755,-0.11476901,0.13491747,-0.34221277,1.0263643,-0.26597968,0.8158122,0.21584058,-0.0026785224,0.9715411,0.78728104,-0.8767759,-1.0565841,-1.019511,-1.016545,0.35809335,0.20282477,0.52094775,-0.13911986,-0.18453074,-0.59630203,1.2071902,-0.8910458,-0.7736186,-0.8459395,0.9796637,-0.7321156,0.055701077,0.32439482,0.46343046,-0.2166902,-0.30846956,-0.25214693,0.7760629,1.6659037,2.6218963,3.1225758,1.2019597,1.2016547,-1.9769061,-0.5112015,0.19124658,0.30871132,0.16368489,0.34335193,2.5483696,1.5577463,2.3695726,-0.24100074,-0.505898,-0.17201667,1.0352144,-0.09918179,-0.8770964,-0.49187672,0.31439805,0.85978675,-0.78086466,-0.08180404,1.0595711,1.9172748,2.2795775,1.6454734,3.802496,1.6039898,-1.0678486,-2.6767383,-4.9896374,-1.2011982,-1.6222676,-2.178683,-1.0427175,0.4284385,0.23661149,0.9628327,-0.23014963,-1.4915861,0.27726305,-0.3057739,0.8570348,0.729047,-0.19361648,0.9694015,0.17940962,-0.444534,0.04001761,0.78751886,0.99646837,1.5693344,0.6906068,0.4622246,2.037954,-0.05984995,-3.2856503,-4.298799,-6.0132203,-2.2949522,-4.516326,-4.903784,-3.6988559,-5.2316504,-4.58959,-0.6331636,-0.61823297,-0.6962948,-0.706947,1.572064,-0.28038678,0.37498632,-0.66366726,-0.8137268,-0.12884514,0.7692966,0.5026677,-0.14077675,-0.18409823,0.9472,1.2042954,0.29233232,-0.87781996,-2.8853128,-4.0652313,-4.7786384,-4.8709884,-4.458707,-5.8795996,-6.713265,-4.775064,-4.2825985,-4.099684,-2.6592755,-1.6756973,-0.73981816,-0.38483858,1.4993757,0.35243315,-0.44551188,-0.7537935,-0.12605718,0.08819914,0.38894486,0.74910975,-0.27690876,0.5789513,1.8477744,1.0794946,0.8292584,-0.3285803,-3.1427097,-5.054003,-2.413317,-1.9295845,-3.90796,-1.5029955,-2.128009,-1.3535154,-0.13065885,-2.2353387,-3.3906188,-2.0367672,-3.537744,1.4987332,2.0197322,1.3528746,-0.4947727,-0.3325414,0.83272254,-0.10791821,0.2984631,1.1211454,-0.10012392,-0.9735388,1.2090045,1.4052325,0.8954574,0.7686374,-2.1588836,-2.1971033,-4.462546,-3.3952465,0.97124124,3.3096662,0.64260966,-3.0729423,-4.5951214,-3.3047035,-3.7932613,-2.4294918,-4.9616156,0.62891173,1.764721,-0.5882949,0.18903153,-0.28908676,0.006747133,0.50903064,-0.55523837,0.8015901,1.1990505,1.1546329,2.1356623,1.6883239,0.83405167,-1.1779201,0.521079,-1.7074333,-4.974813,-1.1677759,2.532677,5.7271957,3.309284,-3.0349023,-3.3961926,-5.1158075,-3.2540033,-4.6978087,-5.5085554,-1.3360479,1.2788789,0.36198753,-0.74776316,0.56160164,0.19046077,-0.31306997,0.5893515,-0.23846664,-0.096194245,0.09526992,0.23452473,-0.7629274,-0.46888682,-3.1243455,-1.3621458,-4.5436316,-2.1291974,2.5273366,10.1084385,11.886976,5.197458,2.0147567,-3.9024348,-3.0275574,-1.8320637,-5.855173,-5.951333,-1.3983741,0.6159317,0.027490655,0.6153905,-0.2189061,0.034135986,0.6967953,0.24962465,0.13086215,-0.033257656,-0.75040704,-1.2551891,-1.8562584,-2.3760154,-2.0375626,-1.6014879,-2.3605878,2.029915,10.559572,13.9237795,13.195278,9.004913,6.235705,0.87000144,-0.49986824,-5.1759567,-3.599149,-4.084053,-0.22549932,-1.5940806,0.7970279,0.22218718,-0.4145167,0.588609,-0.6279425,-0.7718247,0.86011744,1.5315771,-1.147696,-0.90062374,-3.2045546,-3.0139482,-1.6426681,-1.8244047,0.83557457,7.2775526,11.537483,9.683264,9.64271,6.265467,6.3323336,0.99046373,1.6649952,-2.922113,-4.5784793,-4.7819757,-1.8265529,-1.6422642,-1.1046746,0.0003690226,0.22562954,0.76859975,0.38905397,-0.30120957,0.99873894,0.58569115,-1.9986545,-2.744821,-4.050112,-3.8874316,-2.418398,-3.2131062,-0.12532635,5.3552637,8.570593,10.1776085,7.119797,6.0122633,5.173653,-0.6129632,0.3385844,-1.2137501,-4.077327,-6.225208,-3.625242,-1.2164799,0.23220746,-0.10601395,-0.22415648,0.63895845,-0.24887952,0.008185416,0.8042696,0.9020347,-2.55414,-6.0839868,-5.4646544,-2.8907273,-3.7558734,-5.579142,2.0193567,6.4793077,8.857599,8.554701,7.235721,8.693494,3.9461324,-1.3795221,-1.1687497,-3.0614922,-2.7999847,-4.3524218,-2.8979125,0.7300105,1.9859037,0.9473614,-0.9358032,-0.55901015,0.8756159,-0.36972803,-0.70584655,-0.36862323,-5.129317,-5.2332125,-6.215976,-1.5150999,-4.898957,-5.487531,3.2230814,8.393143,6.4435143,6.0463824,7.6949334,8.200378,4.9072175,-1.1755407,-2.7173126,-0.14762348,-0.9822976,-3.3840747,-1.718939,0.29328588,1.3135897,-0.56576174,-0.47243,0.06540513,-0.3890682,0.40825623,-0.48870325,-2.0249462,-4.129042,-3.7587597,-2.7676105,-0.738976,-4.45114,-3.308076,1.9461558,4.8680024,6.130521,7.211819,9.439266,6.418334,3.9169033,1.3920811,-0.48279607,0.97080165,-0.5524605,-2.184669,-0.7744619,-1.6505855,1.014507,-0.48961422,0.10356746,0.23609686,0.76541936,-0.29936686,-0.41474918,-1.9749026,-3.633278,-3.17166,-0.1123114,1.4769815,-2.7125666,-1.4764968,3.12666,6.101298,7.666939,7.456366,4.8067555,3.9300644,1.9983848,-0.48072204,-0.514413,-0.30581495,-1.2181547,-2.404162,-1.391664,0.3700924,-0.4902692,0.14598553,0.97527164,0.9010165,0.59852844,-0.55485654,0.055259474,-2.8083622,-3.5533156,-2.7080114,0.9770625,1.4607357,-1.5966214,-3.3486128,2.0496967,4.5180283,2.1827586,1.6225429,1.812208,0.7863245,-1.4136368,-0.005681196,-0.25567955,0.007885762,-1.6050651,-0.7712579,-0.0028557614,0.1479941,0.493381,-0.10364898,0.91749394,0.083492875,0.54776967,0.14101906,-0.8591822,-0.9614263,-2.2984414,-3.0783167,-0.8697443,-1.9111339,-2.3776627,-3.1821697,-3.7947395,-0.42417502,-0.498563,-4.198381,-2.6810315,-1.3078563,-2.9407537,-0.42464405,0.42249674,0.95587325,-0.80151093,-0.30930242,0.49299425,0.40305012,0.9453461,-0.3600997,-0.78670734,-0.997144,-0.19046354,-0.09622412,0.6358811,0.561731,-2.4911091,-1.9254147,-3.3175225,-4.5638,-4.289732,-5.287685,-7.6030746,-4.181942,-3.093935,-3.80974,-3.6865897,-2.554148,-3.8505476,-1.2459902,0.8901399,1.8863881,0.7832404,0.13303468,0.51413924,-0.73956853,0.3101222,-0.4662845,0.052420612,-0.27326262,-0.80248463,0.46425095,0.29610187,0.111897856,-0.820605,-2.1842384,-1.7583123,-5.789783,-6.919309,-4.8024607,-7.2291822,-7.0687103,-3.0484774,-1.7042837,-2.0441213,-4.1297345,-3.1416626,1.1634276,1.4359974,-0.26264974,0.30402228,-0.9980344,-0.0016450823,0.86175454,-0.60185295,0.3270226,0.8309467,0.66964054,-0.5980476,-0.14120409,-0.25537023,-0.44863367,-1.1369313,0.54189503,0.32202396,-2.700865,-3.0685818,-1.7444286,-1.8402733,-0.2974239,-1.0404618,-3.7092848,-3.591112,-2.672986,0.5970533,-1.0447834,1.3906225,0.31600404,0.9116016,0.68300503,0.57806724,0.5200675,0.37539822,0.2554417,-0.55222845,0.12495792,-0.85590065,-0.97262406,-0.8647008,0.012704574,-0.6604038,-0.31936607,1.9007277,1.0771415,0.1442054,-2.3106737,-1.4006714,-0.51736313,-0.6639738,0.057885893,-0.63647,0.31871673,0.2136018,-1.9197106,0.5975488,-0.66896975,-0.11735598,0.76203966,-0.45836648,-0.8720156,-0.6043496,-0.9121418,-0.99345565,0.39550674,-0.0087503195,0.7487149,0.04040917,-0.090368755,0.22595368,0.53766024,1.3897997,-0.08849848,0.70737666,-0.37275875,-0.39610055,-0.8204284,-0.44168577,0.64520985,1.6932231,0.62086314,0.23584571,0.89531004,-0.50523096,1.1918443,0.43021607,-0.7851128,-0.7050807,0.7242605,0.16462107,0.41838264,-0.24949205,-0.39382482,-0.088029146,0.42798555,0.27911228,0.9651867,-0.48844007,0.39388034,-0.3020214,0.310054,0.88883597,1.0823858,1.1886947,1.0394775,1.5885038,1.8141273,0.33432564,1.3695023,0.1732846,1.0575589,0.26845333,-0.6305088,0.8909646,0.7730936,0.16678917,0.17210293,0.59573865,0.69326925,0.18869698,0.101166844,0.50760305,0.33938193,-0.83998704,0.92153853,-0.78195393,-0.89924395,0.017990172,-0.14070664,-0.79101187,-0.2188448,0.363782,-0.52934605,0.52950037,-0.42398414,0.8426476,-0.81588095,-0.50391644,-0.67558193,-0.8510173,-0.8071605,-0.061904065,0.23507,0.072386704,-0.2087636,0.014320493,-0.78537,-0.805511],"bias":2.394873},{"activation":1.0,"weights":[0.8460243,0.9314289,0.21647227,0.0897696,0.42369223,-0.55366755,0.3156159,-0.04293883,-0.24868536,0.09733498,-0.041900754,0.42854917,-0.3361827,-0.8723566,-0.52148765,0.70811665,-0.06868613,0.22225022,0.7722986,-0.6215577,0.08790481,0.5857954,-0.977893,-0.13135576,0.6101867,-0.72779286,0.6563387,-0.8724545,-0.3672619,-0.4269365,-0.34450066,0.9842533,0.55078936,-0.43441272,0.6644807,-0.94482887,-0.47579017,0.04465693,-0.7780538,-0.5301468,-0.5704917,-0.99228406,-0.20694089,-0.97817713,-0.2179252,-0.52345234,0.94687426,-0.7470933,-0.0039546113,0.4986158,0.010031161,-0.16422413,0.64473176,0.0892421,-0.8454467,-0.5591706,0.033337593,0.08335507,-0.2737193,0.42261052,0.92693734,0.419217,-0.99711245,0.36803794,0.3807365,-0.6846646,0.7385766,-0.53391993,-0.39404592,-0.2526162,-0.030097205,0.7422121,-0.4459108,-0.18108013,0.2078436,1.1573967,-0.77758515,0.23754211,0.4912074,-0.18527722,0.65749764,-0.15880978,0.952291,0.78201294,0.7484374,0.7004415,0.6173256,-0.9142945,-0.28317893,-0.96173096,0.80384094,0.7364092,-0.0012374244,-0.115975864,-0.56694233,0.056648962,0.077674575,1.1956512,0.57952124,0.7041287,0.28438205,1.014886,1.4670993,0.032474734,-0.17130432,0.43096653,0.004278269,0.2234524,0.19557542,0.24307965,-0.31602693,0.7969377,0.0577842,0.23095945,-0.8719086,0.49163592,0.92733574,-0.5916566,0.518627,0.18025471,-0.9396243,0.48603806,-0.6883596,-0.40659893,-0.18376811,1.5535704,0.68061286,1.927469,1.6223158,1.9006262,2.1091952,2.8437152,1.7409015,0.6368241,-0.38046283,-0.26883125,-0.04468894,-0.12082587,-0.79470235,-0.52284867,0.83532286,0.88402414,-0.6303073,0.99048233,0.38051805,0.75122726,-0.4490504,-0.98510957,0.43284166,-1.5127741,-1.5534487,1.1539364,2.4367204,2.2443454,4.467624,4.3003855,2.5938773,2.0308044,1.5823814,3.148862,1.1531394,1.155587,0.934525,1.2650266,-0.55059606,-0.99387443,-0.10955659,-0.94012105,0.9431342,0.2610861,-0.98867923,0.16304345,0.74952847,0.10279744,0.024681026,-0.68126214,1.19993,-0.24311307,0.7313874,2.280034,3.0809388,1.6515946,0.035602037,0.80911046,-0.14826134,2.0899825,0.5387325,-0.26774362,0.28490406,0.041650817,0.65041983,0.39040312,0.9353098,-0.045613613,-0.41921335,-0.82899255,-0.87806594,-0.27361473,0.025478605,-0.20586267,-0.91383374,0.72459704,0.05901956,0.017684856,2.9986877,1.8935813,-0.14226462,1.1193655,-0.9377854,-1.0861932,-1.4760641,-2.940586,-2.512268,-0.5568765,-0.5809855,-0.587998,-2.1888156,-1.139528,-0.51480556,0.023647524,0.6474607,-0.2019017,-0.027794106,0.9846444,0.44936752,0.25218105,0.6019445,0.35139132,0.40349305,-0.57428855,0.5844339,1.6907616,2.2550192,0.23661155,-0.35029578,1.1018958,-1.3643986,-3.3575122,-1.5885772,-1.8186442,-1.7088963,-1.7951987,1.7894822,-0.60263616,-1.6132904,-0.2925461,-1.2557511,-0.9011903,-0.09504823,-1.0069599,0.39538056,0.79258883,0.8264391,-0.662301,-0.46387407,-1.0868306,-0.9395687,-1.419582,1.3294582,0.4859444,1.4310592,0.4722432,-1.0429002,0.6526926,-0.8238451,-2.6709824,-0.83670294,-1.411426,-0.48226017,0.35722354,3.2662582,0.45601186,-0.10426725,-0.47317734,-1.7783072,-1.3157858,0.24300471,0.061449416,-0.1035549,0.3308273,-0.37626675,0.6612632,0.6195073,0.17615998,-1.4881239,-0.9767708,-0.6327463,-0.5544847,0.46041763,1.0526369,2.3837936,1.5197083,1.1916856,-0.5574993,1.0709221,1.1792026,1.7800552,1.419131,3.3402333,0.49336335,0.25215417,-0.74609756,-2.618553,-0.5416576,-0.08762785,0.27455294,0.5471986,0.81528807,-0.8025485,-0.3280622,0.8108391,0.86514586,-1.1309745,0.09015519,1.9027568,1.6213806,0.09094693,1.5238581,3.7060773,2.6085432,1.061617,1.0476227,1.6387895,2.8405263,2.5949826,3.0496645,1.4023144,0.084660016,0.26615757,-0.3011709,0.051665917,-0.7816722,0.6311476,0.2896501,0.9885317,0.3343284,0.78400457,0.5651611,-0.8069382,-0.2679406,-0.32857975,-1.0235662,0.37641934,1.4166104,-0.3089962,1.9221678,3.7887356,3.2453253,2.7410126,1.6771069,1.4114201,4.2722917,3.246621,2.3527112,1.1566975,1.3858336,0.6034309,0.63662416,-0.20439208,0.6788636,1.2685829,0.6972205,-0.09880396,0.99649155,0.65608263,0.9412576,-0.6740756,0.015281162,-0.89754575,-0.33590025,1.3708363,1.9375105,3.398345,3.220041,6.101198,5.033884,1.2338239,2.5413353,1.9316064,4.520072,3.5858967,1.6369355,0.1392867,2.2822027,1.7552035,0.92216754,1.8520077,0.26179448,0.5596365,-0.62192744,0.9751411,0.23619008,-0.50516176,-0.7805454,-0.6026771,0.52979636,-0.38988918,-0.5427945,1.8300041,2.0685134,4.462357,5.4978323,4.622502,3.1809864,1.89347,1.0199398,3.1852245,7.1155868,3.7015445,0.9767147,1.3874342,1.8001056,1.7243574,1.7081485,1.2678865,1.2518485,0.93155164,0.34644148,0.46278185,0.13014989,-0.7362079,0.06977187,-0.31070748,0.4164337,0.63803273,1.240482,1.3233851,2.8745956,5.4586334,6.128504,5.1891813,3.27391,2.866334,3.4398782,5.217539,6.1647363,2.7457638,0.4199772,3.6459374,3.4071684,3.4732754,3.7123466,1.4872522,0.4982662,0.9640255,-0.6263276,0.8954353,0.9817736,0.8028064,-0.8484108,-0.5103496,-0.12757723,-1.7767955,1.1652757,1.7241752,2.8555448,6.245381,4.994482,4.2590528,4.945318,5.1244564,2.941737,4.5996013,3.2424767,0.095315516,3.3260021,3.6460547,4.3938675,3.2178407,3.3041458,1.2145098,1.8340945,0.68039614,1.141899,0.6659265,0.5023196,0.98144853,-0.46931916,-0.20793362,-0.055353664,-0.10846337,0.36421326,1.4586344,2.9488876,3.8015456,2.1866393,2.7106283,3.698998,4.1434045,2.5873487,5.5128493,1.3183635,1.4656086,1.1766362,0.81772876,1.8612133,0.99211186,1.6340059,2.1735866,1.459235,0.10114544,0.71179295,-0.51770777,-0.5998054,0.81954944,-0.42152485,0.42020178,-0.068962865,-0.6225545,-0.6024145,0.5446762,2.4443169,2.5827055,2.247329,2.6596842,3.2781706,3.15096,2.693128,3.0287337,1.0784539,-0.59802663,1.298734,3.6214557,1.9027226,2.615678,1.1169571,-0.47305885,0.26079896,-0.7954875,-0.35015306,0.23735008,0.12684111,0.53815305,0.95842826,0.7510135,0.0045639006,-0.4051348,-1.4240626,-2.5690265,0.28424677,-0.27757788,1.518614,1.6005747,3.3772087,1.2418036,1.7685738,1.6636343,3.562443,2.754104,2.1363852,4.079819,1.5510378,1.6703703,-0.26294968,0.3245887,-0.74012786,-0.9364634,-0.60111034,-0.0029067083,0.5226211,-0.72934556,0.844872,0.9422248,-0.85804546,-1.051351,-2.0500243,-1.4542537,-0.28071573,1.1642976,1.4398804,2.9812877,1.2384077,1.3442888,2.867167,5.612231,5.32768,1.7825896,2.316398,1.7973868,-0.4110188,-0.66815877,-1.599957,-1.9214914,0.58949965,0.08910864,-0.972902,-0.0048985435,0.15310717,-0.98410094,-0.06118362,0.6482664,0.6911027,0.25637347,-1.3749552,-1.2567638,-1.9999537,-0.3831559,0.48834148,0.23262687,1.343038,1.9251364,5.11668,5.149467,3.1174617,2.2417443,0.31165943,-0.06863706,-0.16915068,-0.42844653,-0.4013635,-0.67462295,0.19307992,0.45132458,-0.5450392,-0.7518412,0.4085286,-0.19838691,0.7899781,0.13108486,0.056604005,-0.5316466,-1.0421841,-0.22634284,-0.910987,0.130612,0.40567106,0.13613747,0.8302203,3.0075464,1.9854084,3.0913403,3.328124,0.4942186,1.268798,0.47859654,0.4436111,-0.90706784,-0.9196895,0.14576003,-0.5110954,-0.99071586,-0.029832546,-0.25171658,0.17778817,0.7491832,-0.5343181,0.24313381,0.6757873,0.0769713,0.5590237,-0.8685327,-0.77232736,-0.64178747,-1.6931515,-0.9439192,1.4535261,1.5933769,1.1346062,-0.63159704,1.6511965,-1.1906749,0.52272063,0.65864897,-0.4192899,0.23003824,1.3321909,0.4297643,-0.4349879,-0.61091316,-0.67827547,0.23609592,-0.42251813,0.9525114,0.6115881,-0.22815731,0.04631104,-0.40976033,0.090717226,-1.2498989,-1.1266876,-2.0447512,-2.6433723,-0.10796205,0.21360858,1.7791426,-0.0331864,0.17252578,1.7055259,-0.026375422,-1.0144354,-0.7106487,0.148168,0.6103351,0.8703793,-0.36942452,0.9754737,-0.7100522,-0.054933865,0.16149533,0.08642876,0.04396987,0.4033512,0.91239357,0.1550331,0.9509412,-0.4061948,-1.3786166,-0.764359,-1.1905352,-3.4845047,-1.3777784,-1.070716,-1.498719,-1.0776536,-1.7501643,-1.6551085,-1.2290486,-2.3692968,-0.48324746,-0.10623877,-0.04687104,0.09075876,0.7872286,0.67504823,-0.040179998,-0.930882,0.39230072,-0.23510504,0.99222016,0.5956485,0.9697938,-0.19441976,0.53579485,0.5120213,0.34528184,-1.39423,-1.2634078,0.02197934,-0.21615869,0.004434536,0.10550302,-1.2284818,0.31805092,0.11585617,-0.8734664,-0.8727255,-0.0122560095,0.23333442,0.2027587,0.35724285,-0.126927,0.952306,-0.6668406,0.24311483,-0.37603998,0.11466622,-0.15024912,0.43827987,-0.29784667,0.43125677,0.7134652,-0.4979783,0.99274427,0.020998513,-0.79975843,-0.99639976,0.52057797,0.4870432,-0.2282315,0.15179655,0.8206805,0.18441615,-0.048026867,0.11430874,-0.73559463,-0.2745016,0.37737256,-0.54663473,0.80135417,0.40433875,0.9443866,-0.8325715,-0.5663594,0.095047355],"bias":6.500768},{"activation":1.0,"weights":[-0.45821047,-0.24921644,-0.98983204,-0.7185092,0.010743022,-0.28559208,-0.78119504,0.7777585,0.6112635,0.12938821,-0.3089093,0.8600178,-0.44541663,0.96128356,0.9286655,-0.63284504,0.7855195,-0.8980948,0.65050304,0.9612808,-0.8035997,-0.5379009,0.88451946,0.43914843,-0.5981693,-0.38909018,0.7668104,-0.97538066,0.38345575,-0.4910065,0.25069678,-0.966931,0.15583885,-0.43009245,-0.86431223,0.48125342,0.32269168,-0.40894428,0.9095265,-0.53306025,0.76224416,-0.6148037,-0.18070321,-0.3031834,0.50618446,0.53398436,-0.96034443,-0.41757852,0.30603024,-0.8719791,-0.99603224,-0.71551263,0.30161023,0.88641703,-0.6110548,0.2937503,0.95775163,0.7456491,-0.2836461,-0.8777605,-0.016662955,0.2906988,-0.5306232,-0.24854276,-0.72778326,0.27521518,0.8258504,0.5010951,-0.9711002,0.12884524,0.7141781,-0.16961348,0.37615198,0.72779506,0.8655172,-0.23724543,0.6538817,-0.25740266,0.9904402,-0.6376758,-0.8646797,-0.9249685,-0.44528687,0.024736643,0.32101846,-0.37681615,-0.23809946,-0.61891115,0.7072936,0.4526448,-0.1335873,-0.8246154,0.59260094,0.45292726,-0.46269262,0.40142834,0.060549147,0.16614641,0.59149617,0.88445747,-0.71740866,0.64045465,-0.08533431,-0.3979785,-0.57134736,0.3004356,0.94252783,0.52604365,-0.8760242,0.6091582,-0.029697299,0.3707378,0.99566126,0.13296533,-0.6444334,-0.5972233,0.1201326,0.23511288,-0.5393604,0.033994865,-0.5637466,-0.8481804,0.5008121,-0.55010164,-0.26351875,1.0538766,0.03897387,-0.2752041,-0.5947436,-0.40361294,1.0455164,0.68626195,0.49712953,0.768015,0.9469543,-0.9385897,0.17512108,0.97457457,-0.6643573,-0.14424789,0.72818434,0.76338935,-0.27661204,-0.24394704,0.12484383,-0.016790658,-0.20496166,0.7310806,0.63557065,0.38697565,0.61330545,-0.2344583,-0.059343923,0.61185956,-0.73368406,-0.19240376,-0.14622086,1.0070642,0.5501976,0.3386137,0.6070586,0.13559884,-0.05803136,-0.46958032,0.64761865,-0.31241494,-0.47497585,-0.63903373,0.48480487,-0.7251046,-0.12888196,0.59111524,-0.74765116,0.15350474,0.26436886,-0.764555,0.7920525,1.274382,0.31970435,0.19910488,0.6620426,0.25287914,0.03896101,0.108246565,0.017372258,0.60880864,0.0019979984,-0.11241301,-0.84048176,0.121184416,-0.7541407,0.19747783,-0.10043413,-0.21369202,-0.023911605,-0.6603236,-0.8964782,0.95849854,-0.25396627,-0.66823816,-0.59692085,0.43883204,0.19504169,-0.39297497,-0.25250065,0.6043288,1.2284704,1.1479063,0.4826245,-0.39410946,1.2561232,0.63576114,0.9623401,0.7908616,0.08512877,0.759913,-0.7427234,0.5890866,-0.7838206,0.53117436,-0.10947034,0.09276127,0.17255242,0.3332849,-0.36639905,-0.25702032,0.11291405,-0.99161917,0.48508167,0.09658709,-0.734627,0.0600557,-0.10914055,1.4022204,1.0119658,0.86037654,1.8559022,0.46118173,0.38494405,0.5458017,0.5947014,0.9129753,0.086133,0.9100787,-0.14425124,-0.6485168,-0.6788735,0.97296065,0.65143657,-0.5664283,-0.7324022,-0.19732179,-0.58017135,-0.8220549,0.26920807,-0.72969514,-0.764428,0.30266455,0.7494039,-0.44838047,-0.7019914,0.09157715,1.3241751,0.4886196,1.5618279,1.3712871,0.24930951,0.5856961,0.66220504,0.8481229,0.074410826,0.11023763,0.7661775,1.0250962,0.5593377,-0.82540107,-0.68660426,0.8029806,-0.58682454,-0.9527863,0.76509,0.095537454,-0.5824349,-0.9115127,-0.005138587,0.5769306,-0.17556818,1.1351129,1.0720717,-0.4479767,0.6965338,2.3722067,1.7350057,1.8851415,-0.47494546,0.23718476,0.55219436,0.82158184,0.791016,1.0698335,-0.1527573,-0.10923458,-0.3701598,0.1706711,-0.50417876,-0.11450765,0.3679174,0.86136526,0.9496684,-0.9075864,-0.66030663,0.8836349,-0.3734533,0.38890222,-0.14999624,-0.696109,0.6810917,0.8693565,1.2263538,0.8958863,0.78645647,0.4678804,1.1501721,-0.17518355,0.86718005,0.7381782,-0.83347327,-0.6524492,-0.39834478,0.26929474,0.09063075,0.5697096,-0.9390032,0.20732147,0.45503822,-0.83994406,0.97325945,-0.3934568,0.84945977,-0.9913154,-0.050285544,0.2237866,0.8058261,-0.16564941,0.8325089,0.6020895,0.8349859,1.1109738,0.87667364,0.65534174,0.43022427,1.5146079,0.93405193,-0.20338754,0.9236077,0.15475109,-0.12845857,0.5896782,0.6479208,0.830383,-0.30778813,-0.8291767,0.95788354,0.7906258,0.19081712,-0.66559845,-0.16938281,0.27583784,0.039411657,1.0916339,-0.70659524,-0.4330984,-0.17972116,-0.54334354,0.5559792,0.21917859,1.8459928,1.1564656,0.98510426,-0.30423874,-0.6534314,0.75569093,0.21405435,0.77613974,1.0774877,0.33121356,-0.4104465,0.5356602,0.88365245,0.6624974,0.2587517,0.9074905,0.48821235,-0.51032394,-0.504454,0.17078078,-0.34477958,-0.7089927,0.40309894,0.61276037,0.15315923,0.7305169,0.36300877,0.28650412,0.046648264,2.1044757,0.5261546,1.1181711,0.9888043,-0.77339923,1.0471231,-0.40012813,-0.010767654,0.108518414,-0.5410245,0.7965549,0.82674664,0.37881926,0.68335116,0.41845536,-0.5390507,0.77736956,0.97911966,0.5168382,-0.61688006,0.12865272,-0.2772472,-0.32332793,0.92549276,-0.7172126,1.0367922,0.80832493,0.90759903,0.15253352,1.4488335,2.3018632,1.4412723,0.4717821,0.7987462,0.92936915,0.386186,-0.76831186,0.46735665,0.98796517,0.616449,0.23380528,0.8347689,-0.68926847,0.5180464,-0.09664026,-0.6287717,0.99202764,-0.6709926,-0.043942213,0.2611702,-0.7212117,-0.37599507,-0.14069627,1.0159278,-0.41513997,-0.3493131,0.6439991,2.0809755,0.42570007,1.7475178,0.23926859,0.55758584,-0.12383237,0.8881601,0.8857465,0.4635564,0.63443464,0.39357674,-0.78387886,0.7410656,0.5340956,-0.7735261,-0.022024373,0.1618041,-0.9184459,-0.67949367,0.7498426,0.014478156,-0.6743521,-0.31347734,0.3495972,-0.13508464,0.22671424,0.2995214,0.62057644,0.4192757,1.4120646,1.2485399,0.90585905,0.5969586,-0.64912325,-0.028118266,0.8857011,0.33228227,-0.71467304,-0.33833015,-0.8690736,0.084017746,-0.35705557,0.31748652,-0.04092431,-0.41532707,0.27355745,-0.75374615,-0.32369035,0.3599322,-0.64613366,-0.11068106,0.74496675,-0.42877012,0.82742125,-0.6268315,1.063525,-0.34603858,0.057440054,1.4458764,0.84700996,0.6519011,-0.19717833,0.7764576,0.83021414,-0.051992472,0.89717644,-0.47559166,-0.5980212,0.15436101,-0.33968866,0.9956026,-0.7741926,-0.18657559,0.6195153,0.27115354,-0.5531798,0.17272402,0.50040025,-0.58724576,-0.36822507,0.38068897,0.26572925,0.7300942,0.7047461,-0.30788925,-0.048264585,0.2677284,1.3416564,1.2905929,1.4885557,-0.29137662,-0.042573705,-0.78462124,0.31420836,0.57897586,0.44078827,-0.110305555,-0.9838084,-0.56744933,-0.86189926,0.44699946,0.57967216,0.9262164,-0.37557098,0.46251103,-0.53565353,-0.26408353,0.020987682,0.5943838,0.32065782,1.1005124,-0.21182284,-0.10630309,0.09880661,1.566248,0.88057894,1.2552661,1.4336544,-0.5163172,-0.5123625,0.50336295,-0.12389424,0.45844746,0.78824824,0.81992203,0.6266465,-0.34028494,0.913301,0.4216887,0.4655522,-0.9053011,-0.4777916,0.37537792,0.23557101,-0.5827476,0.19332547,0.88482916,1.1059811,-0.06589247,-0.08498883,0.19096558,-0.33687878,0.12272904,0.73051864,0.9188031,2.1693537,0.33916417,0.8624827,0.14354259,0.23434521,-0.5743267,-0.8819776,-0.41180143,-0.31956923,0.21008885,0.7157378,-0.7657301,0.9320114,0.9756066,0.9316887,-0.3116213,0.95850444,-0.81728935,-0.22204246,0.23792647,-0.01517422,-0.043896634,0.15958343,-0.06334252,0.7234409,-0.8744058,0.09368254,1.7083168,0.4532671,0.8662001,-0.6394487,0.9793219,0.67240626,0.72852445,0.74974173,0.52555853,-0.36616874,0.6559875,0.4881233,0.6054219,0.32069862,-0.71427184,-0.93206775,-0.7288879,0.7494523,0.47087532,-0.77326655,0.3788996,1.0731267,0.67998916,-0.63228226,0.686577,0.385658,1.0185274,0.21301845,0.35833344,0.30066597,0.8238299,0.32068917,-0.0057400893,0.33708736,-0.3087371,0.3502424,-0.3260177,0.40614057,-0.7337365,-0.9071702,0.5797203,0.7244551,-0.89430165,0.77671325,0.24775432,-0.8622158,0.29015404,0.33151665,-0.9198933,0.7180898,-0.8557049,0.0702662,-0.85256463,0.073362745,0.026199214,0.9107393,-0.7296044,1.5741028,1.0544693,0.8616243,-0.45153913,0.95158833,0.48845083,-0.6984801,0.74113196,0.38679874,-0.17745268,-0.73235154,-0.3086815,-0.25620642,0.90060014,0.4706938,0.030921979,-0.8520764,-0.09611612,0.8665115,0.14267237,0.26892823,-0.3599373,-0.8337992,-0.6816995,-0.93603224,0.84619236,0.8760782,-0.08384781,-0.624985,0.042725783,0.5983763,-0.005934825,-0.44195712,0.9297046,-0.6474458,-0.12112343,0.4551884,0.34537864,0.38781667,0.43057835,0.72039855,-0.33023837,0.17663208,0.550134,0.30505154,-0.868416,-0.91537005,-0.67795247,0.113148205,-0.19877431,0.09868504,-0.09434914,-0.932183,-0.47648138,-0.7563819,-0.33700937,0.8120584,-0.4162707,-0.35798007,-0.7957786,0.10843896,0.8360832,0.59740555,-0.68962705,0.84624326,0.5089636,0.7925421,0.041802883,0.915501,-0.044860244,0.3019393,-0.6973394,-0.2975172,0.26351187,0.80406666,-0.740617,-0.7486527,0.84275246,-0.65859,0.78325164,0.74549055,0.921615,0.8603226,-0.99121344,-0.79954755,-0.5496788,-0.21385479,0.87305075,-0.08605337,-0.81268215,0.89563537,-0.13048375,-0.7359644],"bias":2.0438836},{"activation":0.0,"weights":[-0.575346,0.85805166,-0.93021786,0.8205118,0.09674728,-0.20957386,0.7689241,0.36207175,-0.8515301,-0.8281851,0.8990865,0.3897363,0.48020315,-0.61873823,-0.39992753,0.19022262,-0.4991511,0.76373994,-0.23245573,0.20654607,0.33569276,0.022598982,-0.96334815,0.35861742,-0.18387389,0.006755352,0.8987818,-0.38106406,-0.81564486,-0.4141506,0.8891454,0.9893453,-0.94776094,-0.46667433,-0.016543865,-0.63111395,-0.74052936,0.5750816,0.04565229,-0.019113306,-0.94248223,0.03632866,-0.61209035,0.1639825,0.31521964,0.045090463,0.6810193,0.23891543,0.36344814,0.45288873,0.5176384,-0.71610665,0.77559435,-0.7917584,0.9176116,0.79249823,0.5519531,0.54982305,-0.83311105,0.7860414,-0.5169023,-0.32034615,-0.8931969,-0.22899428,-0.7867303,0.55419004,0.65812594,-0.6547295,1.0123347,-0.1246905,0.94046134,0.7512804,0.27575237,-2.2435815,-3.5042245,-2.5067072,-0.10958688,0.5608277,-0.0547881,0.93168306,-0.9530281,-0.30429947,0.31393766,-0.29965103,0.82236075,0.9623109,-0.8139857,-0.8498987,-0.20563309,0.15142503,-0.04813819,1.1132647,0.847822,0.8264013,0.8726439,0.14361292,0.55821455,2.5611167,1.0916405,2.3537152,4.130957,0.7880912,-0.6170783,0.0489527,0.6508929,0.5614452,1.1529025,1.473312,-0.5283779,0.5475036,0.110710464,-0.26119328,-0.16785324,-0.575354,-0.91432226,0.27887908,-0.285465,0.834832,0.5475063,-0.42895198,-1.1466492,-1.7568418,-2.7802553,-1.8504536,-1.7541679,-2.8957472,-1.9854126,0.0020168389,-0.71857184,-0.20607473,-1.2162461,2.2699845,5.5095887,4.549081,1.8506479,0.6686188,-0.09818634,-0.11902363,-0.9092148,0.6321911,0.768716,-0.9102491,-0.1597379,0.4995083,-0.76222044,0.59392804,0.2108516,-1.1555132,-2.7030056,-5.745877,-4.934647,-5.495799,-5.4632964,-7.6573443,-4.4826436,-5.7803392,-7.704047,-4.070667,0.0911182,2.265784,4.8525796,5.114449,4.7843785,0.93741417,1.4518895,0.89745474,-0.76550883,0.056693804,0.83065724,0.05163636,1.0010378,-0.5328278,-0.019377796,0.97868127,0.20235737,-0.5359753,-6.4293623,-4.486829,-4.884712,-5.0282216,-9.778887,-10.204079,-6.354319,-9.099473,-8.760233,-3.5657103,1.7375458,2.5177026,2.7939997,6.748224,6.0457206,1.7372378,0.32665345,-0.13545135,-0.55102247,0.19041665,-0.48244184,0.30972397,-1.0513932,-0.32003042,-1.1989688,-0.26796073,0.41203737,-2.004941,-4.977107,-5.7773333,-6.8267155,-4.0787745,-4.6045284,-2.0177855,-4.8599095,-6.0998254,-6.7023177,-6.8341703,-2.724296,-1.1844579,-0.78507894,4.443919,3.5297997,2.0057437,1.2426891,-0.8639154,-0.99339086,-0.27856815,-0.60923773,0.6034803,-1.1595347,-0.20476145,-0.29128692,-0.15857357,0.99066424,-6.648676,-9.568985,-10.683605,-12.458421,-12.084974,-8.320122,-3.6564476,-6.4839215,-8.518932,-11.19714,-11.444271,-6.628527,-10.250512,-8.607766,-1.8240033,2.69631,0.60326093,-0.842231,-3.0063236,-0.91836894,0.49125835,0.06699127,0.90552384,-0.11649603,-0.2476863,-0.86056566,0.55191827,-1.5655928,-7.1210303,-10.205314,-11.871492,-14.250088,-11.218954,-7.5315704,-6.8600516,-6.8225694,-9.799039,-13.657561,-13.722492,-12.079235,-15.00659,-13.762981,-8.2609625,-3.159086,-0.505961,-0.3510854,-1.232145,-0.08010443,-0.57119036,-0.5892928,0.4264396,0.56077486,0.8116327,-0.35616842,-0.12698561,-1.1450824,-3.6825774,-6.2207103,-7.5184627,-7.905548,-6.74923,-6.1620817,-5.4831276,-5.719902,-3.343838,-6.303755,-12.314726,-14.4447975,-11.984681,-10.255578,-5.532057,-1.219942,0.31149364,0.63600606,-0.88692707,-0.8734801,-0.992676,-0.056984603,0.67732424,-0.35488987,0.58328027,0.23249392,-0.3039058,0.20777163,-0.7503433,-1.6282234,-5.028547,-1.8478918,-0.8048537,0.91066134,1.6814107,2.5134168,4.518253,1.7905004,-7.3616757,-7.9489727,-8.174937,-5.2557983,-3.4073868,-0.7014728,-0.10057209,-0.6006982,0.82108784,-0.23942205,0.077434935,-0.18791938,0.9872312,0.15620053,0.90250444,0.07061223,1.2809289,0.5721786,0.49321824,-0.74528444,-3.2635078,-2.742425,0.5041155,2.043455,7.221991,3.150441,5.4470935,0.53002846,-2.634887,-7.1898413,-9.814015,-2.493082,-2.2543392,-2.2424712,-1.4093516,-0.82578063,-0.77860373,0.58561873,-0.2297971,-0.9614713,0.9951259,-0.01891755,0.82598454,0.61146134,0.33192298,0.5584718,1.3282405,-0.6929965,-4.59939,-2.005153,1.0965334,0.31650856,7.5596714,6.2882376,8.741817,-2.373532,-4.7703705,-8.650366,-7.9282455,-4.230377,-0.8884251,-0.5588214,-1.697095,-0.13502818,0.5141433,0.5380695,0.8673368,-0.87886506,-0.6258174,0.5097287,-0.11918674,0.124716006,0.7002676,1.9927708,0.3529083,-3.8909228,-7.232964,-4.9303117,-2.4419339,2.6269424,9.778667,7.1521587,4.28476,0.067050934,-3.8821762,-6.007887,-10.135912,-5.8584223,-1.5738745,-2.8374443,-0.2582739,-0.7528526,0.33718506,0.44972897,-0.5527216,0.27408195,-0.7157342,-0.23225915,0.40133488,1.1301185,1.9219993,1.9867785,-2.4940047,-4.0555387,-5.9298363,-8.377701,-8.624471,0.88664615,5.120159,6.100829,-2.484675,3.2682197,-1.0859988,-7.4667625,-12.145475,-9.947933,-1.1541213,-0.38361746,-0.47858018,-0.646047,-0.6031498,0.27989107,-0.34654713,-0.31130734,-0.8747172,-0.10048087,0.4330316,1.6817127,0.40820858,0.7271219,-2.7119844,-4.2838254,-8.010159,-6.9529624,-4.4634986,2.297078,2.1392393,4.7775455,4.3675623,6.2388916,1.9086014,-4.248301,-12.751923,-7.8137627,-1.8781395,-0.027682941,0.5444262,0.4425002,0.2102591,-0.16506955,-0.47166282,-0.19264138,0.29447046,-0.5007637,0.18812864,2.5642564,0.4310525,-1.3228524,-4.9501624,-3.7739732,-6.089026,-4.6916757,0.53022605,0.96947765,-1.495949,4.0592604,5.5781436,6.039922,1.3702238,-9.483093,-12.3589325,-9.415141,-3.302428,0.32817557,0.0033210772,0.9965291,0.91016734,-0.8812314,0.7142468,0.7473879,-0.109596655,0.36543244,2.553208,2.539491,2.6906044,0.1195939,-3.192103,-5.1263046,-7.643439,-3.8889782,0.99984723,1.5154792,-0.4554035,7.0508604,7.9938684,10.5737705,-4.4246573,-10.334303,-11.254382,-5.3816733,-0.5472796,0.70723355,0.09575108,0.47473347,0.6464463,-0.66454005,-0.3097463,0.9736965,0.26516116,1.7727321,2.5561278,1.5239899,4.5053663,2.4672542,1.992035,-3.1469307,-8.555006,-8.653282,-0.95352095,-0.44763562,0.50166,7.3727684,7.079955,0.91335446,-8.871253,-10.547401,-4.3389897,-2.0767035,0.22131228,0.18752673,1.0091201,2.0398886,1.1969612,0.105985746,0.44072178,0.02670002,-0.3500905,0.72420514,1.8512425,1.6782806,4.0448165,4.3406706,0.9494005,-2.6493423,-9.937709,-12.425878,-4.5879827,0.44998595,1.6160859,-1.517905,-2.2841103,-5.78032,-11.126873,-5.5850387,-1.9984195,-1.9183568,-1.3086137,1.7174767,1.0270115,0.8637058,0.30105665,-0.6429333,-0.80486083,0.8808807,-0.3796111,0.07872848,-0.6755399,1.0398263,2.2189026,2.7671292,-1.5493478,-4.5156183,-8.761714,-9.420044,-11.85113,-11.211112,-10.387667,-13.627409,-8.479169,-11.058113,-10.24125,-7.436718,-3.9383674,-4.7886333,-3.194429,-0.41707093,1.3593976,-0.6371571,0.30213517,-0.6639545,-0.8215096,-0.6699995,-0.00026745975,-0.38939565,0.75268096,-1.0235213,0.99436605,1.2355447,0.49367097,-4.436041,-10.750882,-7.7345543,-8.233663,-11.11764,-12.430927,-14.262153,-9.972073,-10.303286,-9.777553,-8.765323,-6.6028175,-6.947229,-3.1368496,-1.5755177,-1.0366077,0.92134035,-0.3097852,-0.38334256,-0.743603,0.7565063,-0.09107554,-0.24925335,-0.39311308,-0.543058,0.1815435,-1.5353551,0.6774181,-2.5074413,-7.8300633,-8.469678,-8.667699,-12.026224,-11.574889,-11.045579,-4.572811,-7.147683,-5.803056,-5.0313807,-5.4892893,-4.513599,-1.6696665,-0.6622512,-0.99089885,-0.39708504,0.78534037,0.54670435,-0.8202007,0.7471764,0.14977145,0.025276767,0.47446555,-0.442356,-0.6534661,-1.0037303,-0.08137084,1.6524665,-1.3735462,0.31462118,-0.8007443,-4.6419854,-2.8025818,-0.14811027,2.2642782,-1.1024481,-1.4312767,-1.346267,-0.2280329,-0.52753854,0.59891504,0.43811175,0.01254906,0.3844078,0.043478776,0.62216985,-0.16363394,0.87711656,-0.5734186,-0.07960127,-0.5795128,0.24086739,0.83081126,-0.5215945,0.19835754,0.20530766,-0.64100343,2.511668,-2.8303955,-3.7553356,-3.6376464,1.988842,1.4932567,-0.16180468,-0.7062697,-0.30211553,0.2956718,-0.22318673,0.3348766,-0.47725224,-0.50378084,-0.14472412,-0.35198605,0.5061327,0.3912871,-0.46787488,0.92688143,-0.56430113,0.93431634,-0.68702525,-0.2588314,0.6300617,0.030639773,0.23445587,-0.18953745,-1.077489,-5.1114817,-5.7714467,-3.2645714,-0.121964216,-0.5940063,-2.008726,0.48791987,-0.67722636,0.6627734,0.5723055,0.99011683,-0.4609385,0.8328624,0.26213217,0.7717662,0.09194875,-0.929531,-0.2910242,-0.8222108,0.7843529,-0.7562127,-0.5386698,0.8750239,0.99492764,0.06842851,0.7407992,-0.15294293,0.512111,-2.0056162,-4.08796,-0.56654274,0.22447972,0.15694365,-0.23391187,0.55094814,-0.38430628,0.94556195,-0.5799639,0.9597966,0.50330013,0.7241282,0.18317235,-0.84812415,-0.7919018,0.15192044],"bias":-12.448963},{"activation":1.7303797e-28,"weights":[0.6265198,-0.6393267,-0.9081508,-0.38932323,0.6186118,0.18361878,-0.4982251,0.40689266,0.2944095,-0.24017072,0.3294921,-0.19526339,-0.56315136,-0.7900722,0.6601502,0.34159958,-0.88198745,-0.6263318,-0.67486453,0.80525184,0.5128701,-0.6089889,-0.36813223,-0.5257797,-0.9244418,0.8726764,-0.603706,-0.0385406,0.6488577,-0.69224834,-0.09526074,0.5191393,0.50757384,-0.13560009,-0.86709875,0.8182904,-0.28509977,0.51448095,-0.69989896,-0.15631199,-0.88995075,-0.4043879,-0.6457821,0.38103694,-0.49091455,0.6801122,-0.2048082,-0.34657207,0.86519134,-0.35717824,0.49328482,0.5183656,0.6805289,-0.18827379,0.21995676,-0.6976615,-0.6455902,0.305799,-0.17288172,0.53938115,0.22758065,-0.63566947,-0.0932832,-0.73984766,-0.23852837,-0.6427406,-0.28668866,-0.4154074,0.8958973,0.93327343,0.360171,0.3804434,1.1621878,-0.6331799,-1.156957,0.20467523,-0.4072932,-0.51596856,-0.9269804,-0.32092234,-0.48681316,-0.6455826,-0.9452492,-0.69284177,0.5595666,0.6253321,0.45332262,-0.53339607,0.20619382,0.37674126,0.8107799,0.648797,0.7305925,0.2517114,-0.37269524,-0.6040688,-0.9983525,-0.4392867,-0.3683427,-0.3622218,-0.37302628,-1.5276521,0.47937202,-0.25420693,1.2755803,-0.54811037,-1.044105,-0.8510171,-0.5072926,-0.17085324,-0.74402344,-0.8666289,0.8843074,0.17848003,-0.81159353,0.8877085,-0.47962373,0.06643653,-0.040751014,-0.74549305,-0.57209295,-1.3369043,-1.4242865,-1.1159092,-1.6861433,-1.922097,-1.7115953,-1.0978568,-1.6628957,-0.13807361,1.126058,0.32139292,1.4247123,1.0825577,0.2720361,1.1559001,0.4963425,-0.50224096,-0.292334,-0.8699256,-0.2741351,0.89903367,-0.5785054,0.8737828,0.6131134,-1.3463863,-0.9053953,-0.9318604,-0.5129736,-2.2817104,-2.8080106,-0.97819424,-1.91884,-3.804835,-2.6405861,-2.579916,-1.019553,-0.8965915,0.5197193,1.2751646,1.5803058,0.76631457,0.45643216,0.1882026,0.7952517,-0.575752,0.8593394,-0.39819485,-0.06519902,-0.545223,0.5840209,0.1662286,-0.31160173,-1.7918466,-0.6916231,-2.260574,-2.0161521,-3.096992,-1.3416793,-2.7247448,-3.289597,-2.7452397,-2.2376282,-1.6596882,-0.87824667,-1.7277592,-0.32544872,0.32109457,-0.73744315,1.8157424,1.3360715,0.45016402,0.75629157,0.4897562,-0.5087911,-0.51302874,0.8331189,0.20577168,0.9847227,0.15337951,0.42866138,-1.296411,-0.49132496,-0.45723787,-1.6980824,-1.6205676,-0.8273453,-2.0335488,-3.3681288,-3.4441967,-0.30079168,-1.9211918,-1.8249435,-1.5034876,-1.252485,-2.3547237,-0.6427731,-1.058892,-0.70939094,0.16846496,0.9878236,-0.29167762,0.8803478,-0.26377267,0.63409394,-0.043716982,-0.012139396,-0.69613236,-1.2757932,-1.3678389,-0.06387058,0.1433886,-0.5025402,0.0026166996,-0.7362279,-2.0230327,-2.3621259,-0.2448908,0.18462217,-0.56634927,-2.284293,-2.8615668,-0.5657631,-2.9050086,-2.5494337,-0.8012093,-0.58752805,-0.16656734,-0.20578277,0.539219,-0.84082144,0.026544448,-0.29756588,0.7504294,0.40001646,0.71947914,-1.3072984,-0.27141362,-1.0329351,1.0314026,1.7962469,0.08801552,1.8765589,0.9922717,1.9582134,0.77382827,-0.1223136,-1.257185,-1.5396171,-1.8696047,-1.1511644,-1.1262603,-2.3636925,-1.1361125,-0.23521282,0.59799254,0.9081813,0.64116055,0.49417272,0.91120386,-0.7939777,0.0912353,-0.6475514,0.7839342,-0.4644582,-0.9067079,0.86147577,0.6621246,0.7889732,2.5235488,2.623266,2.9606903,3.369548,0.13162515,-0.54657483,-2.2474692,-2.9196544,-3.0457716,-2.6435053,-0.799115,-1.5105278,-0.22127499,0.3265023,0.9745535,0.3842573,-0.32104534,0.31731078,-0.48108163,-0.8822217,0.1165863,-0.73193526,0.03846941,-0.83143824,1.078567,0.92032444,1.8333477,2.0362098,1.8911409,1.6412209,0.49711996,0.8507868,-0.10033336,-0.602512,-1.6683339,-2.5015862,-2.072609,-1.8372178,-1.7032198,-0.023005731,0.6022666,-0.8115471,-0.1237663,-0.22570854,0.5831386,0.8795239,-0.7774157,0.9704572,0.2091713,0.05232229,-0.8323324,-0.69434655,0.23144174,1.6986711,0.82398045,1.2929627,1.2779812,0.04101116,-0.33456528,-1.5394274,-1.101167,-0.8733889,-1.9614941,-1.8423111,-1.2540946,-1.4953572,-1.7744895,-0.3192724,0.6528092,-0.3785344,1.361768,0.2624274,0.34657273,-0.20895064,-0.36065665,0.9336989,0.2010972,-0.33503324,0.3983924,-0.81295687,0.6172327,0.4547006,1.8035694,0.5448977,-1.5223533,-2.047464,-1.9578846,-2.9476619,-2.1086445,-1.2029557,-0.25133318,-2.3255806,-1.6553284,-1.4036072,-0.6391447,-0.9805692,-0.39174846,0.35782847,0.3081967,0.893066,-0.83607554,0.9786817,0.523029,0.9731701,0.24312916,0.7931281,-0.12472502,-0.5076821,0.3172097,0.4764596,-0.042097833,0.35809258,-0.6751852,-1.0595474,-0.48901585,-0.6603225,-0.6859272,-0.6199818,1.0323497,-2.2278566,-2.8466277,-2.6968646,-2.2082853,-0.7787274,-0.023791535,1.1302152,2.052076,1.0661937,0.824383,-0.47863558,0.40402186,-0.6334839,-0.7561868,0.01894469,-0.07330485,0.5081377,0.88920957,-0.22544993,-0.28165057,-0.6859381,-1.8221378,-0.6545638,-0.40106398,0.29771915,0.03245558,2.4481685,1.0747129,-0.9869715,-1.8628883,-0.5480263,-0.9234341,-1.3675076,-1.2022008,0.7970257,0.23094253,-0.18565993,0.89153415,0.6014629,0.9444164,-0.0063865185,0.33049315,0.7286613,-0.5400653,0.064536355,0.40894762,-0.9619614,-0.3428651,-0.7138944,-1.6364954,1.0280225,0.57571477,0.93667483,1.5619873,2.957605,0.6604041,-1.0578291,-2.3092022,-1.1014347,-1.882963,-1.6142759,-0.7209707,0.85516375,0.999715,0.0785556,-1.0117376,-0.12732977,-0.9913042,0.23713255,-0.24571316,-0.9437516,0.4064846,-1.5160155,-0.5214809,-0.15569355,-1.4777658,-0.09207188,1.1902993,1.5644249,1.8864495,2.0236037,2.5264792,1.050509,-1.2578295,-1.8196319,-1.6056896,-1.7441952,-1.896765,-2.181628,-2.019379,-1.1016104,0.4690044,0.6709829,-0.037416175,-0.52745265,-0.62638503,0.20931423,-0.7093071,-0.33098808,0.31232956,-0.9145094,-2.6033406,-0.6409653,0.06472034,0.93791294,0.7189939,2.472203,1.7065183,1.660364,1.3986,0.3000974,-1.1792058,-3.0845234,-2.4104276,-1.4204602,-2.6979885,-2.0712867,-1.5563895,-1.5852449,-1.2901167,0.47940975,-0.6809986,-0.69000655,0.7651073,0.8981525,-0.2887929,-0.6822874,-0.39481202,-1.9998825,-1.7476592,-0.137887,0.7878326,-0.6606385,-0.90481806,0.4847646,2.9614284,1.8386208,0.6610646,-0.3749066,-3.4742794,-4.606572,-2.8817956,-3.5907054,-2.7392802,-2.9359634,-2.0268042,-1.1249621,-0.9886177,-0.91801804,0.4727149,0.116949014,-0.8376876,0.58477426,0.6777951,0.6099439,0.17100875,-2.5793474,-1.8975844,-1.0574518,-0.15139516,-0.53041977,-0.5645325,-0.86075795,-1.2645273,-1.1257542,-1.0532416,-3.157005,-3.850559,-3.436175,-1.7183204,-1.8412479,-2.3792934,-1.2292368,-1.0655102,-0.89650273,-1.1919461,0.48620024,-0.5495142,0.75991714,-0.09122721,-0.3407779,0.992367,-0.7211904,-0.65925014,-1.3530499,-2.8400204,-2.909941,-2.4890172,-2.214301,-3.0023205,-1.1534712,-0.79107547,-0.16533722,-0.7212073,-1.8631712,-1.325888,-1.9856589,0.3799532,-0.7533164,-1.9634323,-1.2805245,-2.0743682,-1.4918121,-0.06445644,-0.4922873,-0.837334,0.8631295,-0.27854824,0.3326088,-0.7918679,-0.2284587,-0.55554724,-1.4089332,-1.0500993,-1.855511,-3.004811,-2.410058,-3.2849693,-3.193515,-1.5387392,0.8293732,0.8792068,0.05211096,-0.60782903,-0.01005465,1.4481949,-0.22028212,-0.44970506,-0.20688038,-1.4429185,-0.8295582,-1.1987443,0.61524475,0.80554795,-0.69808507,0.65260005,0.879593,-0.4965142,0.031818226,-0.4338241,-1.1383461,-0.30487165,-1.2585008,-1.5984052,-1.1846766,-1.9650053,-2.502733,-0.6971987,-0.84616894,0.011070202,0.6368266,0.16977176,1.4735129,1.0305648,0.8943943,-0.5215676,-1.5461673,-0.7643868,-0.9201617,-1.0784528,0.15690853,-0.0033664624,-0.6276681,0.07309568,-0.27516925,-0.53592384,0.8205285,-0.0036933734,-0.36626786,0.57239354,0.42126146,-0.65118456,0.3549537,-1.0479964,-0.68637425,-2.0392206,-0.70454675,-0.8337537,-0.518471,0.31738907,-0.1481759,1.5691932,0.9691994,-0.9559625,0.33637536,0.4064021,0.54851854,0.47467762,-0.29681998,-0.6365483,-0.572694,-0.27854133,-0.8468652,0.9320009,0.83938426,0.6579824,-0.40671864,0.76304895,-0.5923294,-0.979782,0.7497245,0.416607,-0.36666685,-0.955753,0.7567723,0.67383146,-0.82652014,0.12875138,0.6033935,-0.915318,-0.9895039,0.92807525,0.77511775,-0.656316,0.367211,-0.45392954,-0.4172215,-0.6070033,-0.6089586,-0.7089877,-0.6311716,0.92117536,0.4156649,0.81375533,-0.3532883,-0.4334711,0.052554734,0.43024403,0.12658861,0.449821,1.0323758,-0.40971097,0.2297385,-0.1289343,-0.7519671,0.61277384,0.8951714,0.7257142,-0.078509234,0.1739368,0.74766386,0.13877122,0.15597801,-0.5978026,-0.120298386,0.6650846,-0.5213735,-0.99470663,-0.35135174,0.27152884,0.38192606,-0.528221,0.36193562,-0.98950106,-0.6392966,-0.45559782,0.714352,-0.6183359,-0.40442875,0.4980203,-0.94857097,0.019318048,-0.9470184,-0.06038762,0.5645267,-0.37850997,0.39155868,-0.06471175,-0.64435905,0.09021738,0.84762615,0.6118487,0.61338353,-0.45890892,-0.7516581,0.0065265894],"bias":0.16697735},{"activation":1.0,"weights":[-0.84935915,-0.3846587,0.957186,0.21267581,-0.16657293,-0.29843605,0.8346175,0.6271534,0.030654669,-0.23192012,0.05279243,0.29420257,0.3953717,-0.45418414,-0.23441999,0.98062605,-0.037028074,-0.1525091,-0.85043454,-0.6205039,-0.8253164,0.04949093,0.6848955,-0.64767516,-0.5442258,0.7017187,0.6893269,0.059811473,0.46973252,0.58713007,-0.4758383,0.61391914,0.69708705,-0.9137939,0.37133908,-0.5439516,0.49781772,-0.7810104,0.6893336,-0.53562295,0.35525712,0.04121648,-0.25177354,0.6156886,-0.31064963,0.51634496,0.065588035,0.7930164,0.5460303,-0.39650655,-0.27346006,-0.5977748,0.96673405,-0.8830999,-0.6054386,-0.3232497,-0.7293459,-0.2993486,0.9409411,-0.26507413,0.41954386,0.7759906,0.5804084,0.08273405,0.683967,0.962127,1.2334517,-0.6562935,-0.6341824,-0.6018738,-0.7648485,-1.514529,0.9304792,1.3600367,0.11308181,0.2957938,0.39775708,0.0092215445,1.2048708,-0.553295,-0.545809,-0.28396642,-0.6959417,0.3148774,0.22961116,0.7284912,0.15539324,-0.61403966,0.9498376,0.4102205,-0.11001593,-0.22249581,1.1160463,0.540951,0.44249383,1.014509,2.907075,2.9339926,0.18239546,-2.2084854,-0.4551073,2.1406507,2.6352878,2.21522,0.35952485,-0.6426799,-1.61106,-1.7048217,-2.2357047,0.057404097,-0.9732287,-0.3983742,-0.6304022,0.42094207,-0.4894172,-0.80901456,0.8337583,0.857852,-0.80115694,-0.30901483,-0.32690328,2.7215335,1.4123815,2.9508011,4.604906,4.5768847,0.92187816,0.3615081,1.4468513,2.2165504,1.1892273,0.6328619,-1.8216941,-2.260747,-4.326766,-2.852727,-1.0777035,-0.4991208,0.7989469,-0.51675785,-0.08172667,0.45493448,-0.47712937,0.24122265,-0.50526273,-0.34702212,0.003860214,-0.3567553,1.7679981,3.459034,4.008575,5.882053,3.4852853,4.593454,6.2846274,7.1083245,8.735076,5.939074,3.0205028,-0.05534952,-2.1018767,-3.4346807,-1.2909969,-0.2640904,-0.6275093,-0.9586889,0.34080887,0.47617275,0.76285565,0.98185027,-0.15392272,-0.58590466,-0.89781857,-0.68351907,-0.6055715,-0.56767553,1.2155237,3.5995224,4.2825775,4.6078,4.403408,6.0266027,6.710228,8.562817,6.3812947,6.9193783,4.6760874,4.1151595,3.286105,0.78849787,1.8432128,-0.81106025,-0.7529945,0.6121572,-0.28124613,0.027209247,0.18487903,-0.8030538,0.17673653,-0.93373257,-0.40110844,0.18121049,0.11040884,0.077299766,1.412311,2.1615493,4.415421,4.3370914,6.3137946,8.02676,9.012188,8.4065,3.835488,1.9593058,4.450884,4.71392,6.013043,3.8288214,2.5563116,1.2809628,0.029552413,0.9295826,-0.6209369,0.44569397,-0.7633288,0.43281454,0.7728181,1.1738126,-0.84460497,-1.5456698,1.2258791,2.6134589,2.8942018,3.7371066,3.772654,7.0116973,6.8034735,6.7780147,8.651381,4.1846776,-0.030843433,1.0103823,2.8683,4.560999,4.9391847,3.4651115,0.05056323,2.1811633,3.9005184,1.9957675,-0.021299347,-0.64446187,-0.027772646,-0.23081857,-1.0478307,-0.6048286,-1.0878948,-0.38129035,-0.24598522,1.4058319,-0.19591962,1.1014464,4.1395516,7.0740085,7.252165,6.328554,3.966229,0.25189343,-1.2743406,-0.8468682,0.8693805,3.8992002,2.9432347,1.415059,0.20091599,3.5030022,3.2574797,0.74810314,0.27843624,0.19145721,0.1619069,-0.29253125,0.23807538,-0.09160693,-0.576064,-0.16545832,1.0346476,1.4056134,1.2724328,1.2518935,5.154827,7.5289016,4.7009854,2.436646,-1.1139199,-4.6562877,-2.4578397,-1.1437624,-0.78074163,1.5435251,1.8367882,1.781741,0.04100359,2.8047621,1.7126133,0.68366694,-0.26575738,-0.9614097,0.19064212,0.14871071,0.71096927,-0.50386554,-0.28684226,-0.5918122,-0.33829767,0.027455395,1.2767973,2.134702,6.112248,4.5324655,3.0326285,-2.66728,-3.1246488,-2.296442,-1.1546727,-2.557569,-2.3033593,1.3213526,-0.2721884,0.17582877,1.5896126,2.6706736,1.9811128,-0.22166207,1.0356419,-0.7312048,0.16892326,0.7944708,-0.7217313,-0.24756588,-0.5020538,-1.1103004,-1.0803052,-1.3436501,0.5849457,3.5920796,6.804701,4.4662685,-1.6660528,-5.967009,-5.921145,-3.3765836,0.28928962,-3.6380105,-1.0267208,0.9922351,0.28242582,3.5956972,4.1937594,3.8982735,0.54676086,0.93137175,-0.70664346,0.67168814,-0.5499716,0.16943192,-0.46314907,0.72009444,-1.4547063,-1.8871295,-1.8906578,0.24458101,2.1618757,5.3847003,1.7630662,-1.3974367,-2.941638,-3.4939742,-0.52022916,-0.59111875,-0.3258674,-1.9119697,-2.0546565,0.32558727,0.5836777,2.1863327,4.322517,4.3421082,2.4181404,-0.119667396,0.10700506,-0.5486731,0.52734756,-0.14816734,-0.57139736,-0.47043088,-1.6284326,-2.2306232,-0.86734045,0.69063854,2.8933327,2.2986677,-0.2687001,2.8030155,3.0710616,1.5608011,1.8623111,2.8861058,-0.25909525,-2.9149036,-0.062371727,1.4005237,1.4117618,2.335733,2.5356042,2.1589675,2.1189723,-0.954891,-0.2915326,-0.74678576,0.97890574,-0.011838347,-0.5677675,0.22874746,-0.5677626,-2.213731,-0.43542856,-0.83392626,2.4279182,-0.53122354,-1.8017783,3.0050359,4.9257884,3.955697,2.9080536,1.6824044,0.9527478,-5.23036,-4.2738566,1.553869,1.691337,1.0784233,3.96869,2.0307171,1.1388787,1.1577805,0.6519791,-0.97132045,0.18358995,-0.5264654,-0.5814272,0.1447891,-1.3888527,-1.6102502,-1.3218834,-0.47415358,0.7613694,0.03308092,-0.068197004,1.1987813,2.8279266,1.9646848,0.020793676,-1.1033571,-0.79390115,-6.426315,-1.2271322,4.2879734,5.245777,3.6680534,5.125874,2.427955,1.3408669,1.1597705,1.0792543,0.06537509,0.46336985,0.29182243,0.8812054,0.059874546,0.09004702,1.1537893,0.93269074,0.31028554,0.48766285,1.1658965,1.438417,0.01755285,-0.74118596,-1.0697606,-5.2652955,-7.1347184,-5.231287,-2.2946825,4.8016853,7.138575,8.075539,6.3471074,4.986543,2.518229,1.3744849,-0.2638129,-0.7938915,-0.5580755,0.328836,-0.00621628,-0.06948051,-0.41997233,-1.499085,0.8893431,4.7345223,2.847751,2.850146,4.413961,3.5483563,2.492814,0.8556385,-1.8153223,-2.8283086,-3.6935613,-1.5731239,3.8211117,7.9135942,8.115922,7.1261134,5.0288467,3.169199,1.7920914,0.9419617,0.19795617,-0.86951077,0.36268514,-0.54606855,-0.15393423,0.011086985,-0.32346913,0.1454643,0.9223827,1.7305739,3.161189,3.9148917,3.8931236,6.6659384,4.2842655,0.62360996,-1.7153847,-1.3671439,-1.8547454,3.3501499,9.58266,7.8481746,7.8025184,5.6362844,4.233015,3.6076415,2.336706,1.168905,0.89243364,-0.13969345,-0.23644859,-0.28818774,-0.035776045,-0.2907013,1.0757922,1.44459,1.6317811,2.3025067,4.0357094,5.968004,4.6955085,4.187918,4.0538297,0.35588437,-1.7370379,-2.8293085,-0.0073337066,4.8942723,8.5971985,7.147625,6.3214774,4.0965776,2.463623,1.3774885,2.1474826,0.40003073,0.3953802,0.08200965,-0.4303343,0.9072006,-0.7219113,-0.43555614,-0.4159191,-0.27934694,2.1230662,2.684164,2.7569625,5.649647,3.905693,4.463915,4.943539,5.315318,0.85451317,0.746855,5.3733335,6.1369476,6.287073,4.289769,1.4406563,1.117324,1.0788689,0.1675453,-0.20914188,0.37439513,0.84478366,-0.5366799,-0.6105664,0.3125695,0.07994406,1.252708,1.2267587,1.3138483,1.9558805,2.8365283,2.86123,4.85077,4.3369493,2.0584295,4.408236,4.5441246,5.082013,8.063374,6.9465623,7.3173223,5.333048,3.608784,0.09281327,1.1005331,0.40260935,0.5990529,0.6239688,0.42855576,-0.7177336,0.34075618,0.4818648,0.22640753,-0.3812263,-0.60747993,1.0276837,0.18568134,1.4245645,1.814247,0.116198435,0.41237986,1.9251722,2.857144,7.2514606,5.650181,5.3687987,5.730906,6.253348,4.6090655,4.0311837,2.2652702,0.7002159,-0.679873,-1.0504333,-1.7096683,-1.1906213,0.5345025,-0.20722543,0.03520085,0.43076372,0.69892514,-0.5460775,-0.6452311,0.020667441,-0.110119045,-0.41954085,-0.15407032,1.1306432,-0.16696711,0.9597097,2.0714502,4.5884247,4.437851,6.945918,5.041004,4.7098484,2.5791757,1.4236381,-0.5075523,-0.8686765,-0.66183096,0.019248199,-0.3592638,0.6392803,0.79166204,-0.07501075,0.7329385,0.91215086,0.26806355,-0.80416334,0.6399753,-0.70779955,-0.7519943,-0.5344819,-0.52510273,-0.6178843,-0.6428261,0.2471116,-0.06555027,0.8066035,0.5287912,0.034659043,-0.36897925,0.65585613,-0.4958478,-0.053805754,-1.0008126,-0.22629035,0.4092139,-0.8118092,-0.2517232,-0.546602,-0.34663877,-0.9596202,-0.1325225,-0.29401577,-0.044306993,-0.05062282,0.5696672,0.58388305,0.37446678,0.160452,-0.7222277,-0.6815995,-0.16252172,-0.8364895,0.37343165,0.9339146,-0.444019,-0.81192404,0.10204668,0.10506007,-1.3886344,0.27749425,0.52933294,0.48087606,-0.67901576,-0.47263774,0.4852729,0.07993748,-0.22689521,0.94337344,0.88474214,0.06985998,-0.020688891,-0.21434736,-0.04380715,-0.88152444,0.50131094,0.39131182,-0.32570007,0.58691,0.7869117,-0.8014915,-0.8085364,0.0008656654,0.72507435,0.13318092,-0.50180423,0.4594883,-0.5865574,-1.0429713,-0.82508445,0.9437659,0.7757271,0.98787874,-0.7844226,0.70770633,0.016632915,-0.959761,0.7680088,-0.46515763],"bias":1.0676554},{"activation":1.0,"weights":[0.4297136,-0.1739173,0.2793399,0.3874116,-0.022287011,0.12222707,-0.31441414,-0.9132496,0.68614626,0.48578334,0.2856661,0.52478826,0.058310308,0.95563066,0.5581845,0.099652834,0.051924586,-0.9367902,-0.78213096,0.044647455,-0.6382066,0.5679226,0.64673185,-0.24023736,0.56220067,-0.7200619,0.64969194,0.0790298,-0.2793585,-0.06911445,-0.1516757,-0.009554982,-0.32170343,0.010194493,-0.7007308,-0.07230739,0.7700512,-0.9247161,-0.94849586,0.23517676,0.82224697,-0.70008695,0.4531818,0.7829565,0.5112767,-0.45916936,-0.29247338,-0.2251703,-0.20772022,-0.1424399,0.3016292,0.37972766,0.7972841,-0.27458584,0.06266105,-0.57433224,-0.5640923,-0.42075682,0.17209816,-0.638638,-0.9362759,-0.0031666132,-0.5338931,0.05605188,-0.24456193,-0.1644047,0.60523796,-0.18298139,0.74982435,-0.1359613,-0.3400039,0.38747022,-1.0859734,0.3553555,0.28853062,0.40631533,-0.37810573,0.46324128,0.90595335,-0.5078537,-0.97892857,-0.843977,0.9555663,0.03576088,-0.6594496,0.78290296,0.7826396,0.38349655,0.27155086,0.77262485,0.7890517,0.023834608,-0.016267214,0.959412,0.50782293,0.8934678,-0.3877105,-1.1957688,-0.56082255,-0.6570011,-0.14483461,-0.3494205,-1.5144463,-0.15713751,-0.8106164,-0.36505765,-0.8001716,0.3443239,0.39604303,0.6512116,-0.83595955,-0.15891254,0.07853222,0.15622425,-0.7006923,-0.2200613,0.6097289,-0.72771806,1.0336983,0.5093571,1.0933766,-0.082438536,-0.61223555,-0.20979844,-0.8416164,0.8390821,0.37474465,-0.93424237,-0.28343868,-1.3259342,-0.44858232,-0.750276,-0.85985065,0.057241496,0.07972824,-0.025973435,0.91711974,0.19039671,0.122421965,0.41869518,0.24433458,0.56122494,-0.1487102,-1.0005957,0.9724163,0.91992474,-0.058871392,0.28139612,1.1368107,0.67557013,0.63691723,-1.1976738,-0.01635713,-1.4859004,-0.32435012,-0.49339786,0.1547972,0.10964703,-0.35897306,0.3840636,0.53914315,-0.47727963,0.7755436,0.23509206,-0.5259875,-0.8231084,-0.9473492,0.67547435,-0.95229447,0.49427974,-0.31238288,0.8442304,-0.8022075,