{"learning_rate":0.1,"input_layer":{"activations":[0.0,0.0,0.0,0.0,0.0,0.0,0.0,0.0,0.0,0.0,0.0,0.0,0.0,0.0,0.0,0.0,0.0,0.0,0.0,0.0,0.0,0.0,0.0,0.0,0.0,0.0,0.0,0.0,0.0,0.0,0.0,0.0,0.0,0.0,0.0,0.0,0.0,0.0,0.0,0.0,0.0,0.0,0.0,0.0,0.0,0.0,0.0,0.0,0.0,0.0,0.0,0.0,0.0,0.0,0.0,0.0,0.0,0.0,0.0,0.0,0.0,0.0,0.0,0.0,0.0,0.0,0.0,0.0,0.0,0.0,0.0,0.0,0.0,0.0,0.0,0.0,0.0,0.0,0.0,0.0,0.0,0.0,0.0,0.0,0.0,0.0,0.0,0.0,0.0,0.0,0.0,0.0,0.0,0.0,0.0,0.0,0.0,0.0,0.0,0.0,0.0,0.0,0.0,0.0,0.0,0.0,0.0,0.0,0.0,0.0,0.0,0.0,0.0,0.0,0.0,0.0,0.0,0.0,0.0,0.0,0.0,0.0,0.0,0.0,0.0,0.0,0.0,0.0,0.0,0.0,0.0,0.0,0.0,0.0,0.0,0.0,0.0,0.0,0.0,0.0,0.0,0.0,0.0,0.0,0.0,0.0,0.0,0.0,0.0,0.0,0.0,0.40234375,0.7890625,0.9921875,0.87109375,0.109375,0.0,0.0,0.36328125,0.1953125,0.0,0.0,0.0,0.0,0.0,0.0,0.0,0.0,0.0,0.0,0.0,0.0,0.0,0.0,0.0,0.0,0.0,0.14453125,0.83984375,0.98046875,0.98828125,0.98828125,0.98828125,0.671875,0.0,0.15234375,0.9375,0.4765625,0.0,0.0,0.0,0.0,0.0,0.0,0.0,0.0,0.0,0.0,0.0,0.0,0.0,0.0,0.0,0.0,0.05078125,0.74609375,0.98828125,0.87890625,0.46875,0.21875,0.98828125,0.68359375,0.0,0.2421875,0.98828125,0.359375,0.0,0.0,0.0,0.0,0.0,0.0,0.0,0.0,0.0,0.0,0.0,0.0,0.0,0.0,0.0,0.0,0.51171875,0.98828125,0.67578125,0.0546875,0.0,0.03515625,0.98828125,0.68359375,0.0,0.359375,0.98828125,0.16796875,0.0,0.0,0.0,0.0,0.0,0.0,0.0,0.0,0.0,0.0,0.0,0.0,0.0,0.0,0.0,0.0,0.546875,0.98828125,0.21484375,0.0,0.0,0.09375,0.98828125,0.68359375,0.05078125,0.72265625,0.953125,0.11328125,0.0,0.0,0.0,0.0,0.0,0.0,0.0,0.0,0.0,0.0,0.0,0.0,0.0,0.0,0.0,0.0,0.546875,0.98828125,0.3359375,0.0,0.0,0.37890625,0.94140625,0.23828125,0.32421875,0.98828125,0.78125,0.0,0.0,0.0,0.0,0.0,0.0,0.0,0.0,0.0,0.0,0.0,0.0,0.0,0.0,0.0,0.0,0.0,0.51171875,0.98828125,0.890625,0.6328125,0.1796875,0.37890625,0.609375,0.140625,0.90234375,0.98828125,0.4765625,0.0,0.0,0.0,0.0,0.0,0.0,0.0,0.0,0.0,0.0,0.0,0.0,0.0,0.0,0.0,0.0,0.0,0.05078125,0.70703125,0.9765625,0.98828125,0.97265625,0.81640625,0.14453125,0.4765625,0.98828125,0.6640625,0.02734375,0.0,0.0,0.0,0.0,0.0,0.0,0.0,0.0,0.0,0.0,0.0,0.0,0.0,0.0,0.0,0.0,0.0,0.0,0.0,0.390625,0.76953125,0.98828125,0.98828125,0.98828125,0.9921875,0.8828125,0.13671875,0.0,0.0,0.0,0.0,0.0,0.0,0.0,0.0,0.0,0.0,0.0,0.0,0.0,0.0,0.0,0.0,0.0,0.0,0.0,0.0,0.0,0.03515625,0.5625,0.89453125,0.98828125,0.9921875,0.71484375,0.0,0.0,0.0,0.0,0.0,0.0,0.0,0.0,0.0,0.0,0.0,0.0,0.0,0.0,0.0,0.0,0.0,0.0,0.0,0.0,0.0,0.0,0.0,0.0,0.6015625,0.9921875,0.99609375,0.9921875,0.6328125,0.0,0.0,0.0,0.0,0.0,0.0,0.0,0.0,0.0,0.0,0.0,0.0,0.0,0.0,0.0,0.0,0.0,0.0,0.0,0.0,0.0,0.0,0.2578125,0.88671875,0.98828125,0.703125,0.77734375,0.98046875,0.51953125,0.0,0.0,0.0,0.0,0.0,0.0,0.0,0.0,0.0,0.0,0.0,0.0,0.0,0.0,0.0,0.0,0.0,0.0,0.0,0.0,0.0,0.4140625,0.98828125,0.66796875,0.0234375,0.01953125,0.3515625,0.8671875,0.64453125,0.0,0.0,0.0,0.0,0.0,0.0,0.0,0.0,0.0,0.0,0.0,0.0,0.0,0.0,0.0,0.0,0.0,0.0,0.0,0.0,0.71484375,0.98046875,0.27734375,0.0,0.0,0.0,0.48046875,0.96875,0.22265625,0.0,0.0,0.0,0.0,0.0,0.0,0.0,0.0,0.0,0.0,0.0,0.0,0.0,0.0,0.0,0.0,0.0,0.0,0.08984375,0.95703125,0.65625,0.0,0.0,0.0,0.0,0.1015625,0.859375,0.8046875,0.0,0.0,0.0,0.0,0.0,0.0,0.0,0.0,0.0,0.0,0.0,0.0,0.0,0.0,0.0,0.0,0.0,0.0,0.10546875,0.98828125,0.77734375,0.0,0.0,0.0,0.0,0.0,0.46875,0.96484375,0.2890625,0.0,0.0,0.0,0.0,0.0,0.0,0.0,0.0,0.0,0.0,0.0,0.0,0.0,0.0,0.0,0.0,0.0,0.05859375,0.8828125,0.96875,0.2109375,0.0,0.0,0.0,0.0,0.36328125,0.98828125,0.203125,0.0,0.0,0.0,0.0,0.0,0.0,0.0,0.0,0.0,0.0,0.0,0.0,0.0,0.0,0.0,0.0,0.0,0.0,0.609375,0.98828125,0.98828125,0.52734375,0.29296875,0.4140625,0.484375,0.95703125,0.8828125,0.05078125,0.0,0.0,0.0,0.0,0.0,0.0,0.0,0.0,0.0,0.0,0.0,0.0,0.0,0.0,0.0,0.0,0.0,0.0,0.28125,0.96484375,0.98828125,0.9921875,0.98828125,0.98828125,0.98828125,0.98828125,0.70703125,0.0,0.0,0.0,0.0,0.0,0.0,0.0,0.0,0.0,0.0,0.0,0.0,0.0,0.0,0.0,0.0,0.0,0.0,0.0,0.0,0.25,0.76171875,0.9921875,0.98828125,0.98828125,0.91796875,0.47265625,0.0546875,0.0,0.0,0.0,0.0,0.0,0.0,0.0,0.0,0.0,0.0,0.0,0.0,0.0,0.0,0.0,0.0,0.0,0.0,0.0,0.0,0.0,0.0,0.0,0.0,0.0,0.0,0.0,0.0,0.0,0.0,0.0,0.0,0.0,0.0,0.0,0.0,0.0,0.0,0.0,0.0,0.0,0.0,0.0,0.0,0.0,0.0,0.0,0.0,0.0,0.0,0.0,0.0,0.0,0.0,0.0,0.0,0.0,0.0,0.0,0.0,0.0,0.0,0.0,0.0,0.0,0.0,0.0,0.0,0.0,0.0,0.0,0.0,0.0,0.0,0.0,0.0,0.0,0.0,0.0,0.0,0.0,0.0,0.0,0.0,0.0,0.0,0.0,0.0,0.0,0.0,0.0]},"activation_layers":[{"neurons":[{"activation":0.33027002,"weights":[0.080547094,0.1252886,-0.6631392,-0.9692774,-0.7640841,-0.6612767,0.12850356,-0.81730235,0.26451707,-0.32167983,0.04165578,0.93150127,-0.23464108,0.74753237,-0.33218324,0.078124285,-0.652951,-0.29944813,-0.7362375,0.7015008,0.68681884,0.6685386,-0.22654057,-0.8766831,0.18018937,-0.8529414,0.16917396,0.98702574,0.72917855,0.56059337,0.5436611,-0.64969444,-0.6059574,-0.56899095,-0.76666963,-0.9035356,-0.5850711,0.8418524,-0.8818315,0.7067492,0.81626356,-0.013839483,0.28578782,-0.7362201,-0.6795316,-0.113737226,-0.016917467,-0.42159188,0.52647936,-0.80529,-0.8761461,0.04204333,-0.2268318,0.843091,-0.8587955,0.82678497,0.60692286,0.30170846,-0.23694718,0.54476285,0.81689537,0.7695054,0.35633838,0.18348145,-0.91721,0.31036055,-0.4349538,0.5250354,-0.833992,-0.7466531,-0.35420275,-0.42160785,-0.38494205,-0.33156013,0.4021995,0.97645414,0.8507942,0.37035322,-0.35950255,0.77618575,-0.62639,0.3955469,0.35544336,0.46985018,0.70301294,0.4763112,0.8066629,0.7528254,0.4621507,0.28163588,-0.5856118,0.70647705,0.8701987,0.045421124,-0.641997,0.06268966,0.34405482,0.89190936,-0.7539598,0.20518816,-0.30333853,0.85105455,0.52175987,-0.67369306,0.5358999,0.8505378,-0.95165277,-0.011990309,-0.7729572,-0.90436137,0.49619603,-0.27999067,0.78556347,0.018489122,0.5223162,-0.8444195,0.04737866,-0.48680067,0.4844383,0.87598896,0.35712183,-0.6908046,-0.27182257,0.049551725,-0.7463889,-0.35649645,-0.09821701,0.18313968,0.57237935,-0.61027217,0.77026904,-0.6763009,0.2997557,0.49608362,-0.5089035,0.8705418,0.9577075,0.002033949,-0.33529294,-0.075402975,0.17681098,0.81191003,0.94480836,-0.14176702,-0.17303383,0.052321672,-0.18454719,0.8190373,-0.8122567,0.6681218,0.119717,-0.6156149,-0.43120134,-0.5739708,0.8829682,0.8219104,-0.304155,0.3313372,0.7016467,-0.011423349,-0.20681357,0.994539,-0.09831035,0.65205586,0.29296517,-0.65517044,0.25827372,-0.8415177,0.02951324,-0.8086158,0.3782755,0.6721022,0.33565784,0.7684934,0.69053173,0.047544837,0.71042717,-0.83316743,0.48102438,0.91248524,0.4311999,0.7729765,0.22166085,0.11748171,0.58374035,0.61322796,-0.39978242,-0.82072926,0.066176295,0.8997427,0.67006767,0.9115524,0.31728077,0.8920299,-0.7976644,-0.80120635,-0.8924861,0.73655474,0.6755233,0.5982356,0.7335167,-0.8225541,0.2541101,0.54134405,0.41767192,-0.57980204,-0.9894414,-0.129071,-0.24753737,-0.47949147,-0.68184245,0.2374264,-0.80748093,0.42133665,0.5755234,0.054594517,-0.4372089,0.896106,0.85184634,-0.6104393,0.514107,-0.49657202,0.26474345,-0.7760234,-0.3806373,-0.9203923,0.7665038,0.3887087,0.8855852,0.9649222,-0.76144075,0.2791195,-0.24547851,-0.99019074,0.42355978,-0.1950165,0.8671291,0.021460772,-0.20390081,-0.3868469,-0.898752,-0.70717907,-0.36885643,0.7027662,0.8941823,-0.59004736,-0.098745465,-0.3886218,0.2302512,0.39782286,-0.43091285,-0.7317921,0.3632009,-0.7687831,0.38352084,-0.873248,0.48821127,-0.8678359,-0.23428202,0.5287266,0.5453093,0.3210994,0.39841855,0.15395021,0.74394023,0.6437727,-0.21261191,-0.93523264,0.4064355,-0.09429932,0.3626095,-0.9607594,0.07855737,0.42562425,0.43527496,0.2770847,-0.09754503,0.37150216,-0.57674134,0.08969903,0.6556765,0.43069315,-0.23849368,-0.46942747,0.407068,0.6280117,0.9668616,0.5625131,0.374753,-0.2986796,-0.8628987,0.24461424,-0.36731815,0.43705606,-0.54640996,0.6390104,0.4192052,0.33470106,-0.7190962,0.10051501,0.04567945,-0.077343106,-0.18438995,-0.07073569,0.3404138,-0.8030236,-0.49702168,-0.92354274,0.88710034,-0.7565019,-0.12334871,-0.88265204,0.31516123,-0.655779,0.83206964,-0.8428556,-0.18349862,0.45550525,-0.5681757,-0.32554984,-0.6035119,-0.6776341,-0.6801261,0.4903605,0.07904768,-0.5749333,-0.7904526,0.9929012,0.33197045,0.0015263557,0.68604183,0.74120355,0.48062718,-0.442791,-0.16531956,0.72567844,-0.29191148,0.8711566,0.6101439,0.6262747,-0.39814818,-0.12044346,-0.7305933,-0.95382226,0.17212498,-0.39727712,-0.46289074,0.78315556,-0.37235987,0.059184194,0.5850916,-0.95502687,0.46828234,0.9526032,-0.25506234,0.447685,-0.25068104,0.7090467,-0.15983427,-0.7318958,0.062433362,-0.98599434,-0.66207075,0.8919406,0.34225214,-0.92097235,-0.47865856,-0.59287035,0.9716457,0.6220112,0.37733817,-0.030815005,0.600631,0.7165147,-0.0731231,-0.07167566,0.7852956,-0.16484427,0.51351833,-0.47103798,-0.24798524,0.7830092,0.060981154,-0.26579094,-0.390087,-0.89315116,0.8654549,-0.8527484,-0.8051233,0.81613684,0.05037558,0.95478857,-0.9238392,-0.9548075,-0.8487328,-0.9486307,-0.1404674,0.3863163,0.041164517,-0.3767469,-0.4083978,-0.34443152,-0.43915308,-0.39476943,0.20981503,0.66019654,0.45708525,0.99560714,-0.8490664,0.6440381,0.76347196,-0.39470077,0.94205177,-0.6210129,-0.30466366,-0.11221826,-0.5833875,-0.6757133,-0.4132775,-0.5192565,-0.1360321,-0.47080672,0.65045106,-0.097448826,0.62231266,-0.09289968,0.4844483,0.021485806,-0.94500816,0.12918115,0.8962712,-0.46380126,-0.03365183,0.8867893,0.87711775,-0.9163809,0.39696324,-0.8532742,0.50106525,0.8953506,-0.5460402,-0.43952167,0.74354994,0.62070155,0.11309421,-0.7761432,-0.47305715,0.72690403,0.9815819,-0.37363684,-0.14667964,0.98931,-0.39990973,-0.9679755,0.9589406,-0.6166756,-0.31431866,-0.0036303997,-0.27030122,0.64868414,-0.50465083,-0.15221536,-0.7968142,-0.7430185,0.016955376,0.6415875,0.7255447,-0.4031633,0.974723,-0.10764265,-0.9186419,0.9109229,-0.54145706,0.3191712,-0.8449892,0.1303631,-0.8476049,0.18341601,0.7766527,0.13464665,-0.1769625,0.5566628,-0.6378635,0.77465653,0.4102882,-0.17637241,-0.53161573,0.44249487,0.89336264,0.7668438,-0.16083276,0.95372593,0.6974673,0.8678943,-0.9826393,-0.82722425,-0.3012563,0.86788094,0.40690958,0.8225192,0.83544016,0.6195172,0.05452335,-0.006780982,-0.6828276,-0.24173474,0.7988863,-0.75656796,0.6681762,-0.73532236,0.7790022,0.9627389,-0.08672643,0.1968205,0.053439736,0.5964737,-0.525489,-0.2649703,-0.79240334,0.405823,-0.5217562,-0.45141315,-0.7652962,0.6965405,-0.29295886,0.35520148,0.9891517,0.7938082,0.19425583,-0.14907444,-0.33457863,-0.045386314,-0.41580045,0.9019594,0.8681879,-0.99446404,-0.2109114,-0.334324,0.8993763,-0.115775585,0.6603004,0.3922267,-0.8773222,0.3257823,-0.5661701,-0.555341,-0.4474659,0.3049667,0.691013,0.9542887,0.8682492,0.81045115,0.41468978,0.9305527,0.65988064,0.52230096,-0.33699226,0.22124755,0.6410841,-0.23287034,-0.67210627,0.20490587,-0.5474446,-0.27936125,-0.515489,0.9339081,0.06688738,-0.0068519115,-0.9050263,0.7322247,0.086687684,0.15848148,-0.87861824,-0.7725756,-0.076936126,-0.057602167,-0.76069105,-0.9636028,-0.3829744,-0.88493574,0.5560906,-0.8018123,-0.5750779,-0.6817832,-0.7555963,0.02853024,-0.57809603,-0.03224373,0.6392355,-0.7488487,-0.6361848,-0.39436495,0.5867741,0.2691667,0.18679881,0.7064545,-0.5811875,-0.36104345,-0.8442676,-0.5878967,0.39033675,0.09801614,0.4877547,-0.42445743,-0.17497933,-0.3965323,-0.9049109,0.05055797,-0.83993137,0.9775547,-0.31595612,0.48430657,-0.9449334,0.025470138,0.9359009,0.17202151,-0.81439626,-0.08500373,-0.9754391,-0.036482453,-0.91638064,0.015829563,0.32758987,-0.38519967,-0.5442202,0.60835207,0.7753023,-0.6535158,-0.7030755,0.42824376,0.64195144,0.7150941,0.65517306,0.1821208,-0.6653948,0.22123373,0.08034384,-0.914435,0.7865499,-0.35825217,0.5520109,-0.10072434,-0.2670809,-0.64608884,0.94115436,-0.7777761,0.864498,-0.7021431,0.110762596,0.8854002,0.15547657,-0.761479,0.9055352,-0.81513155,-0.006900072,-0.13991117,-0.0776732,0.66870236,0.19923127,0.041201234,0.82784116,-0.06798947,-0.036779642,0.048522115,0.6597991,0.8482305,0.035026908,0.7456869,0.13441491,-0.07854509,0.022407651,0.7886541,-0.8024745,-0.6984211,0.4252869,-0.7747427,0.87048984,0.6606126,0.3491658,0.6730976,-0.15732133,-0.25443077,0.38841283,0.1695857,-0.39391494,0.17400455,-0.73760104,-0.5612606,-0.053258777,-0.22357774,0.8812525,-0.27675474,0.46263492,-0.5567913,-0.95259535,-0.062321782,0.0360384,0.7189778,0.9625864,0.84423256,-0.38131046,0.74026835,-0.36813736,-0.5257065,-0.00089621544,-0.95044875,-0.91933453,0.36017072,-0.8253132,0.83648086,0.37082684,-0.03460872,0.1767695,0.99328935,0.061873794,0.27609682,0.41321325,0.7922689,0.98664594,0.16254091,-0.31849098,-0.12358868,-0.4140488,0.24985766,0.66810405,-0.6754905,0.06419945,-0.7331387,0.6819923,-0.2678492,0.37131655,-0.6815345,-0.2845558,0.7831638,0.22425818,0.05798614,-0.8185924,-0.5880462,-0.10590243,0.6968646,0.5709685,-0.4950503,0.27096117,0.67518723,-0.8389497,0.5370542,0.6268071,-0.8438748,0.9884553,0.22568882,0.47759914,-0.6801313,-0.03256893,0.3219999,-0.65609694,0.20742226,-0.17104638,-0.99055505,0.9460664,0.8281485,-0.25147247,0.08586216,-0.23776579,0.43143713,0.25715804,-0.64135456,0.90855896,0.086296916,-0.48621237,0.8584626,-0.4761908,-0.717883,0.39488757,0.07607818,0.58563733,-0.9692073,-0.53506327,0.10053301,0.23941612,-0.12893522,0.2099446,0.23909712,0.8723941,0.8757771],"bias":0.39761114},{"activation":0.0001507533,"weights":[0.9438703,0.6987667,0.6320958,-0.4416182,0.51346815,0.93351305,0.59297025,-0.22767878,-0.3366257,0.5725764,-0.024870276,-0.96434367,-0.3858794,0.66007674,0.214234,0.6603142,-0.18821716,-0.84163356,-0.3400495,-0.99074197,-0.72779906,-0.5270338,-0.57905984,0.55609477,-0.9574883,-0.04858172,-0.78521657,0.31291068,-0.38524866,0.27861905,0.29467237,0.25985503,0.28695285,-0.48406088,-0.8963524,-0.15011132,0.17168772,-0.2985766,0.007264018,0.13305187,-0.21422565,-0.95904124,0.13748932,-0.28517509,0.31564403,0.011214495,0.07262063,0.1402359,-0.08761597,0.83095896,-0.4194106,0.49548912,-0.86390734,-0.53797936,-0.32773805,0.2290411,-0.33051574,0.60588074,0.20917869,0.62772596,0.5098796,-0.15511858,0.4123156,-0.18309891,0.84585667,0.55008423,0.45057786,0.36732948,0.96450555,-0.07355106,0.017413855,-0.4944321,-0.022688508,0.9807365,0.15892518,0.47814453,0.21320653,0.31403792,-0.31463087,0.1967119,0.4995532,0.36143148,-0.40887225,0.3152349,-0.028013468,-0.8020425,0.32235718,-0.5702903,0.6267134,-0.35738325,-0.82496977,0.12299204,0.29645932,0.3550173,-0.045015454,-0.047748923,-0.327922,-0.7658526,0.96324766,0.39389706,-0.8309876,-0.87096596,-0.559039,-0.18979299,0.059564352,0.8623738,0.24827945,-0.7215512,0.90062594,-0.09431732,-0.86214435,0.2470237,0.14318669,0.2031703,-0.57419026,-0.5733632,0.5143707,-0.8789753,-0.0005596876,0.4403726,0.08946347,-0.518052,-0.5004389,0.4348414,0.017952442,-0.65823185,0.11097276,0.7814282,-0.48031652,-0.9483621,-0.75013936,0.012586474,0.5797157,0.4801532,-0.452134,-0.82891023,-0.7181988,-0.56869924,0.43759477,-0.10477507,0.17312801,-0.3231374,0.5499859,-0.85984683,0.17556953,0.76615584,-0.48805285,0.39031482,-0.4158286,0.2530737,0.66646767,-0.6949173,0.12666285,0.21907139,-0.7050885,0.38148022,-0.45707893,0.4129429,0.2196542,-0.8414718,0.8280128,0.09440112,0.88089705,0.28470922,0.33952987,-0.8948206,-0.6347654,-0.7611753,-0.5307319,0.0540843,-0.9331622,-0.258767,0.52086484,-0.70357656,0.84371924,0.6879176,-0.49883366,-0.8335377,0.3806398,-0.9564452,0.7622845,-0.98104465,0.15910912,0.5815972,-0.03587687,-0.7513288,-0.07738161,0.654017,-0.5601642,0.6181495,-0.72789335,0.0018051863,-0.12524116,0.8810457,0.18317556,-0.6044669,0.088219404,-0.60702276,-0.6892165,0.083171606,0.9499538,0.5678266,0.37976778,0.4451884,-0.28201306,0.75623727,0.9586834,0.28696096,-0.87763286,0.37310863,-0.2795117,0.42173958,-0.18911636,-0.6205076,0.14685655,-0.9962094,0.36584413,0.88670874,0.19449043,-0.3249904,0.3305812,-0.8696699,0.18195915,-0.82590866,-0.1556232,0.36220598,0.69585526,-0.5337279,0.4005915,-0.40673578,0.5004083,0.34930992,0.50647676,-0.11449444,0.6251384,0.14217126,-0.47988927,0.62726593,0.4773972,0.7021116,0.96532464,-0.74912417,-0.32876062,-0.49287975,-0.2966256,0.9872625,0.600598,-0.97938776,0.9856471,-0.63111234,0.859805,0.64039946,0.75913703,-0.07564807,-0.04157245,-0.393695,-0.42874444,0.5479268,-0.89141953,0.41812778,-0.74297965,0.0947212,-0.694054,-0.017302513,0.11631572,-0.051796556,0.46912432,-0.4575069,-0.5835378,-0.928316,0.9407078,0.09840548,-0.63445616,0.20138419,0.6657424,-0.71220577,0.9849111,-0.7268033,-0.99899256,0.43564367,0.002382636,0.9852401,0.7657207,-0.05583632,0.064055204,0.62562823,-0.18476892,0.8934367,-0.2703153,-0.29622114,0.12140763,-0.7657138,0.26596618,-0.92851245,-0.023327112,0.6726327,0.99154234,0.4018985,-0.7037096,0.66437006,-0.33642316,-0.22263515,-0.4160918,0.9198046,-0.6129509,-0.1123749,-0.45455098,-0.36645734,-0.032129288,0.43753803,0.02682507,0.51831126,-0.63371897,-0.42531276,0.10627937,0.8170308,-0.022079468,-0.28498328,0.27339137,-0.13067257,0.53910255,-0.076548934,-0.18714845,-0.54213965,-0.89225817,-0.79582775,-0.48011136,0.73946464,0.55568135,0.32993245,-0.86895406,0.0978241,-0.40088356,-0.14735699,-0.972373,0.26485062,0.17593622,0.97316194,-0.94488835,-0.16997683,0.774189,-0.012480617,-0.15277302,0.22320926,-0.8221791,-0.589641,-0.7913996,0.6468208,-0.46838844,0.75681305,-0.6239675,-0.7741144,-0.72819626,-0.7240001,-0.55410075,-0.67751443,0.6409346,-0.16834295,0.31042027,-0.30634093,-0.09714055,0.43587232,0.09586644,0.34059262,0.821607,0.9150406,0.658759,-0.70462275,0.4441831,-0.41389,-0.3015108,0.8719444,-0.17619562,0.088226795,-0.15693343,-0.26292682,-0.45414758,-0.3238387,-0.10964155,-0.4114449,-0.9384556,-0.26383233,-0.5695344,0.5013721,-0.33002806,-0.9813576,-0.3237883,-0.21308231,-0.6432761,0.73410475,-0.041595936,-0.39028454,-0.9428148,0.93106115,0.5093622,-0.8563428,0.6455009,0.9867834,-0.53452027,0.8257222,-0.66637015,-0.97231424,-0.877251,0.5415609,-0.0746758,-0.82817113,-0.056324124,-0.38273168,0.6474595,0.32957685,-0.37458587,-0.7582344,0.79678476,-0.5987859,-0.11267376,0.09497762,0.84976804,0.74150324,0.5187249,0.13811517,0.68029344,0.9264065,0.3241378,-0.47630668,-0.5213063,-0.4371252,-0.14248216,-0.0066384077,0.6025362,0.5271609,-0.06399131,-0.45457315,-0.23021054,0.72719514,-0.6758952,-0.62968504,-0.9045912,0.87535906,-0.5370661,-0.43026686,-0.9190651,-0.89930296,-0.74995947,0.70733964,-0.3194226,-0.79374135,-0.25503457,0.6027124,-0.4093145,-0.3116796,0.24549723,-0.07064748,-0.8343158,0.2729516,0.5842693,0.41280198,0.21326864,-0.3768413,0.5385126,0.5519506,-0.039327383,0.04295492,-0.600132,0.0460335,0.86087763,0.21623683,0.57430947,0.036335707,-0.14544582,0.9569411,-0.51427615,0.9859897,-0.38446736,-0.9854145,-0.5697416,-0.17134285,0.8130939,-0.7707726,0.13721049,0.5444745,-0.50137436,-0.73097837,0.4474206,0.6039096,-0.33971405,0.07636428,0.3721906,0.26635575,0.6360252,0.8843198,0.30967927,0.23351097,0.9757813,-0.5994035,0.25027847,-0.56919086,-0.5493151,0.7953901,-0.9431863,0.1811248,-0.8941436,-0.96407163,0.13302195,0.2960484,-0.34281743,0.84596086,0.029016614,-0.6289834,-0.43304014,0.9949117,-0.11147523,-0.8416705,0.72567093,0.98571134,0.7087066,0.53716433,0.42828393,0.94976807,0.07711148,0.69327796,-0.84707665,-0.93451214,0.08478725,-0.8836508,-0.5502976,0.5748172,-0.36842275,0.64183223,0.86601794,0.61600435,-0.63521886,0.7301054,0.091302276,0.08462584,-0.59216845,0.58204436,0.14235675,0.8882724,-0.74999106,0.6953026,-0.99819696,0.17009902,0.86527026,-0.7022847,-0.04935181,0.027851343,-0.75563264,-0.2699492,0.1363008,0.001840353,0.9107617,0.545972,0.7374301,-0.8967043,-0.24704707,0.14310348,-0.67076933,0.19753301,-0.051190853,-0.93351305,-0.26062346,0.102228165,-0.37036943,-0.08615625,0.0027656555,-0.18967402,0.448565,0.74705744,-0.6994077,0.80319405,-0.37140322,0.400885,-0.796095,-0.666793,-0.16225648,0.58594215,0.19000983,0.9530666,-0.69344115,0.5776484,-0.46094155,-0.87713325,-0.6032772,-0.5120853,-0.18593597,-0.4368627,0.44689894,-0.5997379,-0.6342026,0.11030364,0.33358312,-0.85565066,0.62393665,0.5627067,-0.11074185,-0.26656497,-0.35117662,0.66152537,0.09048188,-0.63054144,0.1506443,0.5791398,0.13535249,-0.97839427,-0.6539074,0.8261924,-0.27035117,-0.31177485,-0.29505622,-0.2921338,0.31786847,-0.54084,-0.9060699,0.8192899,-0.8888823,0.2234242,-0.8696908,0.47049212,0.628819,0.88204443,0.22139752,0.9236028,-0.23922253,-0.53215146,0.84889245,-0.37648344,0.52165985,-0.44298697,-0.32400215,-0.2261498,-0.6646495,0.7096263,-0.6368815,0.5007522,-0.856388,-0.72750247,0.55026436,0.68587077,0.58334696,0.21689701,-0.6329254,0.3817743,-0.39896965,0.64209056,-0.993528,-0.99811256,-0.4010725,0.3105209,-0.7161845,0.9380549,0.81728137,-0.8344301,0.37987697,0.29762578,-0.9759203,-0.64248943,-0.98277247,0.6806818,-0.32768977,-0.048282146,-0.65653825,0.8797965,-0.9163827,-0.66745114,0.7803817,-0.9849534,0.38150346,-0.9082396,-0.6733037,-0.28991818,-0.64706707,-0.25369465,0.20141697,-0.105169415,0.2889216,0.7211412,-0.41677904,0.9001322,-0.2764523,-0.6583195,-0.43357563,0.6476426,0.36387765,0.9643593,-0.028115392,-0.6741874,-0.9965124,0.41247904,-0.33919,-0.0020794868,0.20685601,-0.6002995,-0.08574283,-0.076027036,0.78073263,0.82082224,-0.7251656,0.35599422,0.54161954,-0.54360247,-0.354316,0.10872114,-0.53737295,0.20435357,0.5008217,0.5937588,0.92923605,0.4700365,0.2650454,-0.35718822,-0.37055302,-0.16563141,0.82952857,0.4333005,0.022351384,0.80080307,0.8904563,0.81925106,0.15916109,-0.9653889,0.87861323,0.47861683,0.9056535,-0.14963436,0.8241426,-0.04547274,-0.44128144,-0.8705914,0.52874315,-0.42252338,0.4598335,-0.6202413,-0.6586276,0.96059906,0.5174273,-0.5802034,-0.17319429,-0.599658,-0.16949606,-0.7678772,-0.53743863,0.9267187,-0.55401635,0.33413267,-0.4922682,0.1450957,0.6120167,0.51209855,-0.28823984,-0.23305237,-0.64519787,-0.6482018,-0.9452864,0.09276152,-0.34649634,0.4909432,0.23741353,0.100350976,-0.85614693,-0.17634904,0.74618185,0.28106987,0.7168821,-0.661126,0.20756698,0.8203734,0.12549067,-0.3533728,-0.64100814,0.9683716,0.41724718,0.58548,0.41526926,0.40949762,0.83147025,-0.55402017,-0.7444178,-0.9557557,-0.12803197,-0.18872821,0.7351973,-0.1710943,0.24218953,0.3977319],"bias":0.6880574},{"activation":0.05178773,"weights":[-0.58131075,-0.22451365,-0.38380122,0.86280966,0.78586435,0.09952903,-0.4308169,-0.40270233,-0.94486046,0.20624602,-0.66288006,0.39077258,0.07620609,-0.46405518,0.81658757,-0.06173885,-0.70739686,-0.9885844,0.70415735,0.009872556,0.99506986,0.7612649,0.7552924,0.89203393,-0.009856343,-0.93883073,-0.24546862,-0.8509718,0.8108965,-0.39499247,-0.4160167,-0.61389005,0.6682384,-0.34117103,-0.9953927,0.51599264,-0.60127616,0.5015532,0.3240453,0.66196036,-0.16396809,-0.08861005,-0.50989807,-0.8062097,-0.3094188,0.6263983,-0.1264981,-0.650254,-0.35485685,0.98364604,-0.16187775,-0.619099,0.74965274,-0.40575933,0.5847306,0.40666234,0.05627656,-0.5101111,0.8634628,0.51946187,-0.536983,-0.26652575,0.52888286,0.8908279,-0.95598674,0.49770296,-0.3492452,-0.06319046,0.6640705,0.467417,-0.95883477,-0.84162533,-0.33990312,-0.29893827,-0.81744945,-0.85532963,-0.0594424,0.88413763,-0.1489253,-0.6605599,0.6708995,-0.23342168,0.8023193,0.9496286,-0.67824554,0.22749782,0.6927383,-0.5434922,-0.48855293,0.49096632,-0.36067295,-0.05972135,-0.016959429,0.5212493,-0.10917723,0.034379244,-0.607082,-0.69885886,0.99106157,0.5973654,0.19123018,-0.5036768,-0.2416377,0.580323,0.587968,0.87211597,0.4098959,0.20414793,0.15218496,0.33945215,-0.04465866,0.3875395,-0.3843788,0.91730213,-0.71716046,0.44047105,-0.83977854,-0.5665133,0.6817957,-0.076408505,-0.9538716,-0.12625301,0.76268363,-0.31102228,0.40760612,-0.6727326,-0.41182435,0.647833,-0.08819342,0.8216946,-0.2417258,-0.600723,0.30162144,-0.51381326,-0.43908834,-0.835711,-0.14217126,0.53798616,-0.13168979,-0.52489114,0.57520723,0.5627488,0.9362235,-0.8985133,-0.16681933,0.74349,-0.2085607,0.49518406,-0.9791517,0.9719448,0.6251466,-0.12243092,0.909068,0.42816615,0.013257384,0.10011411,-0.7834294,0.9036802,0.25564408,-0.92702687,-0.4699974,0.14802408,0.34616387,0.18560576,-0.84340334,0.0903064,0.8571234,-0.42712104,0.12603283,-0.84589636,-0.67607963,-0.48060107,0.28803182,-0.9186698,-0.39250386,-0.7512263,0.18109155,0.6088673,0.09375203,0.93527687,0.08568144,-0.7593888,0.91568315,0.9780847,-0.8006424,-0.4630015,0.0027329922,-0.7376071,-0.96130574,0.3692423,0.7618965,0.8366076,-0.010739207,0.9509189,-0.29880464,-0.35576856,-0.47676277,-0.9453081,-0.56823075,0.68909776,-0.8152168,-0.52399516,-0.103854656,-0.9518583,-0.48464108,-0.42869282,0.8924799,0.3903073,-0.11534965,-0.9049723,-0.39071715,-0.7013365,-0.0356431,0.82620454,-0.1136415,-0.27383542,-0.83523285,-0.27141988,0.84530795,0.03091538,0.38804555,0.36468995,0.9965042,0.46000838,-0.39419866,-0.07913947,0.80319965,-0.94767773,-0.9331751,0.022881866,-0.5928011,0.8916768,-0.47071517,0.90271044,-0.68095756,-0.53120005,-0.34359348,0.42277145,0.43305683,-0.063848734,-0.44760442,0.18030727,-0.36881423,0.32141376,-0.56169426,-0.739171,-0.18332815,-0.6469245,0.5449743,0.7339077,-0.7860137,-0.9653237,-0.0816915,-0.7046639,-0.59468365,-0.38776815,0.17284524,0.8833772,-0.8871285,0.26496196,0.6894283,0.5861213,0.9051076,0.7077768,-0.69754076,0.8308785,0.11377978,-0.6811404,0.023974776,-0.50639665,0.2944764,0.7298387,0.840086,-0.78154314,-0.046352744,0.4633069,-0.08690107,-0.43174887,0.8182149,0.7331792,0.47203958,-0.58508897,-0.9021795,-0.2646618,0.4730488,-0.2592528,-0.9890809,0.79191625,-0.12473822,0.1525718,-0.08253288,-0.03414762,0.62171423,-0.40144396,-0.6989709,-0.22917378,0.094644785,-0.09726715,0.5131221,-0.9051254,-0.39623308,-0.62583613,0.10041082,-0.5210619,-0.2842554,0.22108352,0.5375235,-0.16988873,-0.1545136,0.85183656,0.57463443,-0.0863595,-0.6204233,-0.061802983,-0.2872107,-0.83531845,0.4281088,0.88670266,0.7875962,0.26197898,0.675135,0.67224777,-0.16397929,-0.7971797,0.6148993,0.12772894,0.8555708,-0.37420595,0.36011207,0.009187937,-0.44259584,-0.21338952,0.35653293,0.8224889,-0.5896076,-0.39164996,-0.55101216,0.34043837,-0.7337074,-0.85500884,0.3392657,0.5972208,-0.56998193,0.284086,0.3334061,-0.99389267,0.91276765,-0.97157335,0.040652156,-0.3550738,-0.33908737,-0.51300335,0.5852376,0.69032073,-0.6027229,0.29947686,0.26964176,0.17835724,0.78374565,0.87124395,0.27844787,0.44099545,0.040977955,-0.022943974,0.69499576,0.40328717,0.77002335,0.42329478,0.5750387,-0.9553857,0.6850052,0.31678545,-0.7280977,0.026630998,-0.94524086,0.21887195,-0.13025868,-0.14453042,0.42870855,-0.26003182,-0.8488728,-0.11438918,-0.11944103,-0.3730706,0.8660401,0.45456648,0.20267284,-0.71507275,-0.43856812,-0.8138752,0.28613424,-0.36364484,0.54860353,0.17358959,-0.710266,-0.9063529,0.036173463,-0.990129,0.040897727,-0.5035553,0.6063733,-0.612978,-0.07596552,0.63627875,-0.92845535,-0.8736404,-0.12842464,-0.79260063,-0.6515789,-0.44256175,-0.838379,0.34445286,0.90770507,-0.7409471,0.57691646,0.14861119,0.85006034,0.29041004,-0.38837636,0.56769717,-0.31002808,0.69451225,-0.22559237,-0.13001847,0.6175853,-0.2378875,0.936008,-0.24696898,-0.8624784,-0.70379317,-0.31335962,0.34335184,-0.41077805,0.02884829,0.35753393,-0.9462818,0.6538019,0.6939529,-0.26624477,0.2668568,0.1886816,-0.24146295,-0.8102995,-0.7092471,0.7347702,0.073729396,-0.4765966,-0.9676324,0.714568,0.066426516,0.16318512,0.4646889,-0.8730782,0.44600904,-0.18335295,-0.54642963,0.15013218,0.8171431,-0.8159125,0.06047654,0.3234868,0.80287766,0.80915475,0.092972755,0.021790266,-0.87385297,-0.55775356,0.21923685,0.32260287,0.22748911,0.17518055,-0.42516053,0.78534925,0.6330426,-0.052767277,0.25357175,-0.9997122,0.813203,-0.75339127,-0.45497668,0.039696813,-0.4571333,-0.7190342,0.69656754,0.9696454,-0.19632328,-0.12230611,0.902938,0.63446176,-0.5016184,-0.87534344,-0.7659359,0.027029157,-0.8417995,-0.78506505,-0.89023006,-0.16074634,0.64123464,-0.8965031,-0.45827234,-0.48565853,0.94032,-0.5142337,-0.58630466,-0.23280478,0.980356,-0.3212663,0.14454353,0.62836695,0.5994282,0.95673287,-0.15580273,0.65445375,0.34269714,0.18390787,-0.28036153,0.7745464,-0.59693944,-0.9773289,-0.13958907,-0.750574,0.32617533,-0.9138913,0.18996322,-0.58497024,0.8916309,-0.8221477,-0.11983073,0.1829232,-0.30940175,0.025455713,0.43288553,0.7849822,0.95671225,-0.29428327,0.4866916,-0.05390823,0.14463544,0.16611838,-0.4281844,-0.7275002,0.29107952,-0.25680196,0.7440282,-0.40420258,-0.2361269,0.4819038,0.5170679,-0.23015141,-0.69710517,0.96323645,-0.3489616,-0.0022263527,0.1750511,-0.7358513,-0.73258245,-0.49454653,-0.8082001,-0.3433299,0.84789443,0.32237625,-0.5284481,-0.56549656,-0.46318042,0.2193358,-0.28415167,0.95015085,-0.37947726,-0.0143043995,-0.81837547,-0.68712294,-0.61371684,-0.6595558,-0.5525812,0.19159472,0.9404243,0.14944386,0.6003109,-0.7287221,0.50241804,-0.8703364,0.49049413,-0.3294897,0.14248884,0.3698671,-0.044739366,0.43892515,-0.7800859,-0.3843639,-0.5108439,-0.31594372,-0.3190285,-0.21450436,-0.45961308,0.024020553,0.24946856,0.6478394,0.8074951,0.16453123,0.9269917,-0.9194937,-0.32358837,-0.77022195,-0.26639295,-0.6237916,-0.5293143,0.31772506,-0.6143341,-0.19169736,-0.17041719,0.12299597,0.22290301,0.9742029,-0.12339175,-0.9800112,-0.940289,-0.92884433,0.64334035,0.5501243,-0.15629399,-0.0039248466,-0.440652,0.5997461,-0.43624127,0.34779096,-0.6354543,-0.8054967,0.31634843,-0.5981002,0.3100629,-0.60539377,0.54404616,-0.09128904,0.35633576,0.6964905,-0.7870766,-0.015265822,-0.23205757,0.07123673,-0.41703057,0.63881755,0.7371974,-0.92636967,-0.77482915,-0.40632033,-0.9369719,0.3307072,-0.31435597,-0.20919263,-0.7464464,-0.9406171,-0.094260216,0.03930509,-0.5944303,0.08339667,0.4644177,-0.7478075,0.8762983,0.07364631,0.3687011,-0.8365778,-0.32461143,-0.23437071,0.14275062,0.7741052,0.7452961,-0.61744916,-0.9659225,0.47415996,-0.62630427,0.32812,0.6233505,0.33850217,0.73840904,0.9763136,0.037995458,-0.8142624,0.00073218346,-0.45358646,-0.7908741,-0.9400073,-0.59453,-0.75761807,-0.3844552,-0.21962833,0.2960049,-0.7102858,-0.41432178,0.8758141,-0.42631626,0.9709536,0.9450668,0.5100955,0.5264888,0.3318342,0.38212717,-0.56812906,-0.1711719,0.77705026,0.99703217,-0.07004666,-0.011625886,0.75855744,-0.25281084,-0.6249008,0.91209614,0.9506165,0.4445721,-0.10683811,-0.5960413,0.6141255,-0.8322934,-0.22029066,-0.95681524,0.32770276,-0.86047244,0.7084036,-0.3833655,-0.43530166,-0.9331132,-0.56023073,0.22989166,-0.5391185,-0.6657654,-0.106924176,0.7753134,-0.74014795,-0.26573813,-0.5240898,-0.25732005,0.046067715,0.7725742,-0.38855135,0.8156713,0.45482552,-0.59170663,-0.08154607,0.6327908,0.94478285,0.29146934,-0.504663,-0.8284607,0.13810217,0.97986364,0.5070797,-0.821046,-0.7783729,-0.12844336,-0.7045021,0.6815078,0.33299518,0.6145638,-0.2572292,0.78052795,0.68445086,-0.57135475,-0.19664407,0.03495586,0.33399224,-0.65801144,-0.76545846,0.82605314,-0.73457956,0.22452998,-0.68560624,0.3747579,-0.80176866,-0.89159,-0.56833315,-0.22990108,0.7831466,-0.12092435,0.01926601,-0.85550046,0.5871999,-0.20206738,-0.9689884,-0.467901,0.040852547,0.40965128,0.58477545,-0.49375618,-0.7796657,0.72585964],"bias":0.20055443},{"activation":0.0314428,"weights":[-0.13861656,-0.0846895,0.14925122,-0.44465077,-0.59041154,-0.3628353,0.75382364,0.39342725,-0.3626126,-0.28908706,0.5883293,0.7109643,0.37153566,-0.3853203,0.2670629,0.13891733,0.063535094,0.8550112,0.27711535,-0.83485985,-0.7695615,0.3814615,0.1011647,-0.769506,-0.9910948,0.9141097,0.97192013,-0.7492007,-0.046151996,-0.6745529,0.97907484,-0.65275824,0.22704148,-0.9579778,-0.5158601,0.8828101,-0.41335273,0.5881605,-0.097170234,-0.9279767,-0.42852676,0.5586678,-0.22224486,-0.7216042,0.21264982,-0.67371976,-0.9525368,-0.14928806,0.91253436,0.16536462,0.8994489,0.67437327,0.1959163,-0.34802818,-0.65292776,-0.29997563,0.46086824,-0.20864606,0.9994303,-0.44622457,0.081765056,0.46116376,0.8940704,-0.4830886,0.100046396,0.88575697,0.81243014,0.8737372,0.7911626,0.034639597,-0.7962595,0.7066289,-0.7148824,0.23564804,0.8875649,0.6775112,-0.6175839,-0.20528364,0.616444,-0.014741898,-0.72442496,-0.380468,0.43839228,-0.10128629,-0.4422834,0.17583585,-0.5465691,0.41792393,0.33959568,0.44160283,-0.6396283,0.7755228,0.5949919,-0.13170719,0.1232332,-0.6550056,-0.31557107,-0.08909118,0.5650507,0.18419409,0.36031878,0.7968439,-0.35108185,0.85502875,0.57483256,0.7932818,0.7213361,0.7276621,0.86150885,-0.3965478,-0.80906343,0.28238988,-0.24343538,0.21316564,0.83673,0.055790544,-0.8889551,0.32835126,-0.42909706,0.93589234,-0.5744182,0.016441345,-0.5865333,0.8484683,-0.22586405,-0.27011704,0.072157145,-0.17765152,0.712585,-0.7140477,-0.5391699,0.984959,0.37321794,0.18697143,-0.40547705,-0.4120797,-0.5451287,-0.076478004,-0.02856791,-0.30664957,0.5441977,0.9740598,-0.08762562,0.676288,-0.8243004,0.98781383,-0.12249243,-0.36961448,-0.8593036,0.014084935,-0.1786089,-0.5421798,0.13973689,-0.85098016,-0.76511085,0.34046566,-0.1902219,-0.20132804,0.93297315,0.38175988,-0.44905436,0.3346598,-0.2754016,0.7843728,0.028480172,-0.51596344,0.5514728,-0.8651483,0.051299214,-0.62313807,0.48442698,0.6776093,0.008480191,0.675305,-0.38101435,0.12441659,-0.92467546,0.88055015,-0.7376529,0.65032566,-0.10011399,0.8692297,0.6734805,-0.42166877,0.31409764,-0.09131539,-0.43709552,-0.5515368,0.6562288,-0.8704499,-0.08923507,0.43520975,0.02145207,-0.5513736,0.776065,-0.29412222,-0.21754336,0.9264138,0.2854699,-0.72730565,-0.027600288,-0.044272423,-0.07776523,-0.17488456,0.6686809,-0.60710585,0.33294082,0.80224097,-0.14062905,-0.86851346,0.11920524,-0.8651115,-0.4223324,0.27020276,-0.65584433,0.97895396,0.17071617,0.3150636,0.25432956,-0.13570964,-0.42908466,-0.67211366,0.10124707,-0.83957875,-0.7144524,-0.17903125,0.7859316,-0.64302146,0.41657686,0.32243478,0.7844863,-0.7760714,0.9099866,0.08519673,0.21965122,-0.09802246,0.071385145,-0.36306357,-0.80343425,-0.3808335,0.0643338,0.5829941,0.20239449,-0.5914985,-0.21292257,0.6620877,0.5097344,0.17836165,0.055714846,0.8501681,-0.13973916,0.6276455,-0.42957819,-0.627645,0.48216963,0.61235905,-0.4520328,0.7553679,-0.7475796,0.7095574,-0.2986678,-0.31366396,-0.39851618,-0.5874481,0.43688345,0.2775768,0.23529625,0.72225153,-0.36091006,-0.33687806,-0.10758197,0.25518847,0.9516798,0.001486063,-0.5892068,0.9112536,0.4753368,-0.5807892,-0.3932619,0.7335017,-0.65846264,0.2464714,0.037364244,0.08781421,-0.8595269,-0.64951944,-0.4827491,0.7613344,-0.5416502,-0.31130862,-0.9655452,-0.5572262,0.73581755,-0.33569658,-0.4913591,-0.44242597,0.38963687,-0.69355893,-0.4244604,0.3567258,-0.6539931,0.97747064,0.03605163,0.3699143,-0.9238558,0.38166654,-0.78810585,0.25296366,-0.26349938,0.18167484,0.57217777,-0.5014572,-0.4649074,-0.8533305,-0.5199306,-0.43628263,-0.3119346,0.02727902,0.4692682,0.49626303,-0.29756153,-0.020207763,0.235142,-0.55515516,-0.65453815,0.26738036,0.9615897,-0.1321975,-0.67811894,-0.98838437,-0.22149134,0.9551296,0.21130764,0.9346665,0.26775277,0.8075036,-0.5068947,0.16883814,0.09394789,0.47980535,-0.78555214,-0.2994939,0.19639039,-0.44393027,-0.8527974,-0.32045436,-0.15856135,-0.899729,0.95824075,-0.6344297,-0.4107728,0.10467398,0.72894454,-0.29556525,-0.7956512,-0.76676965,-0.03627801,0.4646082,0.6485126,0.24359655,-0.34655058,0.7372291,-0.21174014,-0.04349768,-0.7940446,-0.40374053,-0.66976774,-0.23786199,-0.028606892,0.22746217,0.52665377,-0.30146587,-0.39717114,-0.49746728,0.55891573,-0.26466906,-0.05561292,-0.7463827,0.7795898,-0.5041443,0.5584779,-0.61814857,0.47305405,-0.2655617,-0.15452409,0.25085652,-0.3843236,-0.84281456,0.42266726,-0.018445969,-0.9347118,0.22638917,-0.6140984,0.7645161,-0.7882328,-0.50036216,-0.9679947,0.37856078,-0.42938387,0.43514633,0.08689475,-0.8641349,-0.10884178,-0.82333875,-0.49238253,-0.15535247,0.6390369,0.9034983,-0.8987677,-0.781062,0.40596068,-0.93345654,0.50767565,-0.59404075,0.3098582,-0.8506199,0.83132136,0.053982735,-0.8213986,-0.73861635,-0.106458545,0.22627437,-0.27948642,-0.32716918,0.03248632,0.32038093,0.3557433,-0.95101845,-0.34399283,0.15981948,0.6249801,-0.2102673,-0.0915339,0.5036689,0.93407786,-0.6387476,0.85285413,0.042739272,-0.31202567,0.68046534,0.08616018,-0.14440382,0.8247802,0.56018376,0.24351406,0.66611385,0.62230384,-0.12486756,0.5486176,-0.3241564,0.024419427,0.049678683,-0.6793176,0.5481969,0.99130356,0.19163561,-0.06478846,0.2073586,-0.35398686,0.21114719,-0.40130734,-0.10503912,0.8500445,0.30120265,-0.88545847,0.13735032,-0.85852444,0.30660987,-0.32118082,-0.6397176,0.94294083,-0.22125196,-0.23816073,0.48847294,-0.52826726,0.26268303,0.2626232,0.057073712,0.2577442,-0.5340135,0.2729503,0.85113597,0.93256986,0.3390454,-0.65210605,0.80676234,0.089594245,0.23509932,0.4910506,-0.6234646,0.1985774,0.40939736,-0.039934635,0.7158464,-0.7052754,0.26821697,0.07590234,0.74960244,0.2646768,0.057784557,-0.11147392,-0.6279472,-0.23326397,0.3137455,0.2916615,0.36849582,0.53421676,-0.56884897,0.4412924,0.7360271,0.1345098,-0.4627688,-0.10665202,-0.621909,0.9896064,-0.62706625,0.07819033,-0.636616,0.5594572,0.63015306,0.24177647,0.5850271,-0.10018599,0.7216145,0.87796474,0.03484428,0.98028755,0.13718593,-0.82089865,-0.40208423,-0.23490036,-0.9114907,0.37359774,0.7109158,-0.6924677,0.033080816,-0.34443736,-0.00879848,0.13695252,-0.22173715,-0.7055086,0.637714,0.6040441,0.71746206,0.7700052,0.40097153,0.12172544,0.018477082,-0.3653897,0.67006123,-0.9504427,-0.2101351,0.80195296,0.063245416,0.76440656,-0.30819857,0.2319895,0.42267025,-0.6462499,-0.50753534,0.54214215,0.7686664,0.90042436,-0.516664,0.32113767,0.10641718,0.8792404,0.14561999,0.8401562,-0.3146386,0.21983695,0.16600215,0.45959783,0.62873197,0.4505043,0.53029954,0.27130246,-0.8925077,-0.9341804,-0.7251973,0.74451935,0.35084534,0.9647646,-0.87078655,-0.3321365,0.43794894,0.49560666,-0.60426235,-0.24483454,-0.38633156,-0.66495335,0.406703,-0.70351136,0.4319402,-0.39095914,-0.52420557,0.9830471,0.61563087,-0.63202596,0.9396446,-0.9928224,-0.7522174,-0.45464706,-0.16696453,0.45163524,0.88212824,0.81088793,0.5960355,0.7769792,-0.89184093,0.48682356,-0.28068495,-0.029740691,-0.49760115,0.9826783,0.3873725,0.31155992,-0.22196841,-0.8329278,-0.7068894,0.25396895,0.76908445,-0.04065597,0.05800271,0.48295546,-0.4257697,0.5531901,0.19683003,0.98019814,-0.71092427,-0.96262276,-0.825256,0.025696516,-0.42670763,0.22316885,-0.80146086,0.7414293,0.89198303,-0.3067379,-0.96988165,0.60246015,-0.35078478,0.2823056,-0.25659597,-0.67648435,-0.24707305,0.07823825,0.9360255,0.51205623,0.29918575,0.057952642,0.26237428,-0.2511443,0.7310014,0.7896291,0.2251352,0.82303834,0.73116815,-0.93914187,-0.6536069,-0.103936195,-0.6131818,0.5010073,-0.8339907,-0.9052566,-0.70083916,-0.89164186,0.77773666,0.45090783,-0.7899313,0.58083844,0.9478576,-0.07237697,0.7334763,0.1808505,-0.27842045,-0.02051711,0.66240954,0.17183948,-0.3071648,-0.1385454,-0.75530696,-0.53899825,-0.33509052,0.4978106,-0.7370769,-0.55441165,-0.1791172,-0.3356688,-0.20181298,0.4059317,0.67750895,-0.3459649,-0.23569286,0.4586779,-0.6694243,0.25673783,0.9632666,-0.42928803,-0.49234378,0.9299145,0.5704584,0.041544437,-0.5453508,-0.89752614,-0.439914,0.64764845,-0.035206556,-0.68254745,0.35669744,0.9502114,-0.009786606,-0.32715964,0.9770305,-0.50648546,0.9670286,-0.35319602,0.12427378,0.50354314,0.7626401,0.081145644,0.88017917,0.15305662,-0.15867817,0.3195907,0.5555583,0.7894559,0.46077526,0.38370502,0.494483,0.89297044,0.5692289,-0.20453,0.425022,0.060673952,-0.3132075,-0.8181646,0.9952686,-0.5951295,0.28157496,0.28908038,-0.5739119,-0.94897735,-0.63748896,0.9850874,-0.8953748,0.1068058,0.6227826,-0.96445596,0.7079749,-0.8246162,0.8787129,-0.6316074,-0.84857464,-0.0826242,-0.10699773,-0.70213366,-0.4023136,0.6499196,0.83893776,0.07561886,0.71693075,-0.7143251,-0.23124981,0.14483047,-0.58824885,0.20555687,-0.78049576,-0.20320141,-0.75264764,0.7960845,0.3323835,0.50983334,-0.956679,-0.8356049,-0.37767577,-0.475168,0.8901665,-0.2580446,0.97758377,-0.26907063,0.8727473,0.48409188,-0.9540843],"bias":0.78644663},{"activation":0.9953246,"weights":[0.11059511,-0.45213103,0.4807986,0.9361272,-0.65977514,-0.12296748,0.35759354,0.2822752,0.33987463,0.8491812,0.9798138,0.11640358,0.51912963,0.21138966,0.47653484,-0.7909709,-0.4255582,0.6434177,-0.14336061,0.6444963,-0.12363696,-0.39729214,-0.5922291,-0.30186296,-0.25479162,-0.28650427,0.009089708,-0.8961706,-0.10685086,0.8688197,0.051390886,0.0133475065,0.9350283,-0.42504323,-0.28357828,0.31388688,-0.3299415,0.2845595,-0.9737003,0.7919524,-0.474249,0.15687823,-0.56342864,-0.37619627,-0.60028076,-0.11859703,0.47715247,0.23890662,-0.8161932,-0.6387689,-0.302696,0.35032547,-0.16080022,-0.70415676,-0.09558797,-0.63636327,-0.72588944,-0.39512002,-0.63345766,0.5683782,-0.16569102,0.71502495,0.14443147,-0.29453862,-0.9202912,0.89812267,-0.80569243,-0.6869762,0.92149055,0.39314926,-0.47634566,-0.35928702,-0.6075326,-0.56628215,-0.19781077,0.94743764,-0.13556027,0.3505119,0.60074127,-0.052346945,-0.6730443,-0.28889918,-0.88233805,-0.95282483,0.86460936,-0.6235883,-0.051086187,0.8865353,-0.993032,-0.13005841,-0.086654186,-0.19943881,0.30843604,0.1530894,0.4527756,0.97975373,-0.16285491,0.42837358,0.5634526,-0.017710209,-0.8000783,0.47454607,0.8989885,0.012942791,-0.7644408,-0.03690684,-0.21753311,0.034304857,-0.026411891,-0.8505682,-0.53433466,0.48749495,-0.48082197,-0.9173337,0.4645542,-0.016556263,-0.032292366,0.24875951,-0.35274935,0.07325864,0.5648391,-0.26123095,-0.13327074,0.21265996,-0.40756285,0.05533862,0.15143311,0.5002662,0.39391983,-0.57649505,0.3010087,0.00751245,0.7922063,0.8376976,0.081278205,0.65742433,0.5133951,0.15701139,-0.422423,0.6311282,-0.67934394,0.18420649,0.20289314,-0.41899705,-0.34665394,-0.32587552,0.49117994,0.045348406,-0.5748712,-0.6083269,-0.78648496,0.3180313,-0.839967,-0.094417214,-0.6544852,-0.13454306,0.9140767,0.23020887,0.74115825,0.56290615,-0.7541683,-0.18609917,-0.07627118,-0.4094056,0.18393159,0.6463331,0.30736327,-0.8954946,-0.8874366,-0.6668999,-0.6735257,0.46417308,0.3843012,0.43384826,0.9048772,-0.23964083,-0.89118326,0.057611346,-0.39868808,-0.5515605,0.8490144,-0.48833406,0.50603676,0.17843926,-0.9480102,0.670033,-0.2689761,0.18462467,0.9333447,0.97206044,0.041282415,-0.0598464,-0.9475373,0.61994433,-0.4776318,-0.24014044,-0.61815166,0.28634298,0.42694354,-0.09707284,-0.21284497,-0.77980804,0.9969617,0.8761034,0.45346415,0.44192088,-0.31500018,0.9694532,-0.4167248,-0.37847662,0.09330106,-0.2207545,0.90734196,0.7845497,0.3195747,0.43143916,-0.28269613,0.68026626,0.21300292,0.802758,0.36456203,-0.77860653,-0.0046089888,0.43228376,0.9991125,-0.9832027,-0.11358392,0.8583251,-0.65253246,0.8279203,-0.032883883,-0.0642544,0.6264049,-0.9701952,-0.15095341,-0.15045929,-0.80631053,0.598788,-0.17877793,0.79197824,0.90389824,0.6609287,-0.26271892,0.10269892,0.6558765,-0.91347766,0.9086102,-0.55077314,-0.66957915,-0.7216363,0.24389386,-0.5077641,-0.087634325,0.4614128,0.582173,0.28924823,0.08608997,0.5230552,-0.56371033,0.3261031,-0.5951588,0.19602394,-0.20982337,-0.3397069,-0.26859927,0.61454666,-0.61472166,-0.33775532,0.26045036,0.36356044,-0.76327205,0.16656077,0.4797734,0.5373039,0.67903113,-0.5392071,-0.9234948,-0.69802165,0.47680187,0.8198973,-0.011612415,-0.71551955,0.6296625,-0.7648343,-0.3190483,0.03291881,-0.14411378,-0.0680902,0.98497665,-0.40313494,0.45192242,0.19663966,0.04623139,0.9819459,-0.18731332,0.0009801388,0.8176433,0.9499934,0.17886055,0.9703927,-0.015939832,-0.04113376,0.5670928,0.557237,-0.6828599,0.55520654,-0.6259022,-0.24056935,-0.42198503,-0.14537513,0.8506838,-0.24615896,0.58501005,0.04167521,0.7793149,-0.8747219,-0.55623615,0.50777066,-0.34178174,-0.48824537,-0.3320403,0.17758667,-0.43660438,0.9135369,-0.12554157,-0.8382189,0.9504137,0.39788878,-0.9805068,-0.52656937,0.9743973,-0.6318253,-0.6940645,-0.72200906,0.7567173,0.32276475,-0.8479258,0.9597428,0.42898762,-0.052850604,0.31277514,0.18084991,-0.009211779,0.6413572,-0.7509929,0.6318743,-0.35309136,0.7463244,0.20541632,0.5526372,-0.845772,0.5718006,0.4952438,-0.22611523,0.37515354,-0.51497877,0.1037786,-0.2658794,0.09269822,-0.07226884,0.38490176,-0.5361419,-0.34983814,-0.90051484,-0.26788557,-0.88254404,-0.23712254,0.7965418,-0.18054128,-0.586563,0.90776646,-0.5479579,0.7813175,0.306221,-0.9156449,-0.22260416,-0.5112585,0.4594127,0.6146759,0.2891966,0.6684581,0.8202373,-0.41398382,0.26768494,0.6538868,-0.27179205,0.91821826,-0.58547497,0.7435163,-0.78446364,-0.9669384,0.90190864,-0.15868986,0.24024487,-0.63249993,0.64525735,-0.39650798,0.3205248,0.6267129,0.27535892,0.26823556,-0.041895986,0.55358636,-0.0777303,0.11997175,-0.15845823,0.84009147,-0.8602177,0.24462628,-0.11215222,0.22563958,0.8722447,-0.1713568,0.88779306,-0.7910192,-0.9967432,-0.95795095,0.6030818,0.7999402,0.46503663,0.86107075,0.9258485,-0.49536645,0.3189175,-0.026684523,-0.053471804,-0.9890139,-0.8799901,0.46445286,0.60652936,0.036614656,0.6645448,0.35454643,0.7629659,0.8184967,0.8587673,0.04762554,-0.39030206,0.31102335,-0.20863533,0.639431,0.19790244,-0.1288333,0.18484676,0.9337746,0.09596479,0.5184125,-0.9177164,0.24590397,-0.120664,0.706825,-0.6601261,0.50839734,-0.98732424,0.97464025,-0.5208998,-0.8813933,0.28265703,-0.2527343,0.615271,-0.8635913,-0.07358575,-0.9046501,0.23771322,0.13081694,-0.13138092,0.6542319,-0.082865,0.3176018,-0.91713357,-0.8163346,0.65035367,-0.90170443,0.85769284,0.01821065,0.5022224,-0.3113761,0.90478015,0.46659863,-0.76735353,-0.31923223,0.37422872,-0.40282595,0.5286497,0.7312851,-0.6793995,-0.21786141,-0.92888033,-0.7514242,-0.71792984,-0.5357808,-0.99604,0.85593474,-0.15714717,-0.84822917,-0.5773083,-0.8114815,0.27924883,0.34500623,0.9610764,-0.68886757,0.55766606,0.23400223,0.5257499,0.9488549,0.003635168,0.13514411,-0.060635448,-0.95890665,-0.87421656,-0.88288057,0.5306761,0.9048737,-0.53839016,-0.53836906,0.97421014,-0.17602456,0.68910694,0.51530087,-0.16233087,0.094795585,0.55341184,0.563841,0.5225824,0.43752015,-0.34466624,0.69581735,-0.7590976,-0.3832699,0.98114836,-0.38076985,0.0606066,0.11824548,-0.5264462,0.08360255,-0.8568876,-0.44380677,-0.5084698,0.45306718,0.88795817,0.48854148,0.0073988438,0.8833183,-0.16666293,0.5598556,0.11504841,0.39950633,-0.48941386,0.96243703,-0.89049053,-0.5062138,-0.74934137,0.9329268,0.14147115,-0.5915899,0.041444898,0.43062878,0.7284039,0.46857095,0.7766504,-0.79718924,-0.74424636,0.43430316,0.10362053,0.5477568,-0.75636184,-0.21161044,-0.81352127,-0.715117,-0.5385126,-0.45154214,0.943902,0.19342148,-0.92330396,-0.019294977,-0.35636938,-0.30421996,0.89457905,0.67666304,0.35024464,0.9669229,0.7480664,-0.8288027,-0.9115052,-0.9834541,-0.17670739,-0.75501287,0.76585686,0.2780608,-0.16752613,0.21586359,0.10378218,-0.36392856,-0.86630356,-0.1775223,0.83835256,-0.33424997,-0.7609781,-0.17333627,-0.35036445,0.35532737,0.7337891,-0.27752185,-0.19788682,0.6353464,0.031622767,0.6428826,-0.21110189,-0.77968657,-0.408733,-0.6874478,-0.86401784,-0.61405146,0.51443255,-0.49061036,0.72727096,0.82017076,-0.9325193,-0.5346906,0.316373,0.6946373,-0.85962474,0.35808098,-0.00013017654,-0.23854017,0.3128785,-0.5211854,0.05932343,-0.7953845,0.40597653,-0.2938485,0.015386939,0.4074986,0.0110218525,0.17291701,0.06547725,0.97658503,-0.28845358,-0.72447264,-0.38473594,-0.53323436,-0.789541,0.12854469,0.07747686,-0.00699687,-0.48758745,0.27753198,0.81806386,0.46106505,0.73986185,-0.93206656,0.8347789,0.3676536,-0.76245403,-0.8772192,0.26009,-0.082077265,-0.73979676,0.6704204,0.47056353,-0.5801425,-0.21314955,-0.87601614,0.5401015,-0.6007345,0.22006917,-0.4116832,0.49189377,-0.38673007,0.44478178,0.28978062,-0.18527138,0.26640844,0.50492036,0.8267387,-0.12680507,-0.25692606,-0.29501307,-0.7362056,0.07612467,0.67941725,0.88952947,0.8315563,0.14322376,0.8935702,0.6317934,0.08163762,-0.88712096,0.8411151,0.98943865,-0.6633415,0.27374864,0.43862617,-0.119906425,-0.93497956,-0.26778913,0.598042,-0.75140655,-0.037049532,-0.7568449,-0.09454799,0.5264933,-0.8258481,0.30837655,0.3509513,-0.36479592,0.5845078,0.9232068,0.63824534,-0.6533729,0.69092727,0.95534575,0.7115108,0.5771375,0.9967991,-0.07831168,-0.5558002,0.66232395,0.49174786,0.19613612,-0.118938684,-0.68449235,0.43800986,0.60699654,0.4335413,-0.7506288,-0.70914316,0.19395971,0.4133675,0.8029425,0.36170053,0.64265144,-0.2730012,0.47678602,-0.8094287,-0.8527212,0.6034039,0.011034846,-0.4670906,0.5587721,0.34230566,-0.31471527,-0.8659053,-0.38825774,0.8458997,-0.5329993,-0.5879638,0.04785478,0.18664694,0.8001603,-0.9024527,0.3402244,0.554574,0.06616902,0.23746073,-0.8265339,-0.72391677,0.64519775,0.8796474,-0.68859076,0.9402348,-0.123031735,0.770733,-0.28314316,0.4980111,-0.18403935,-0.98380196,0.5152745,-0.66878307,-0.92522347,0.009051442,0.26964223,-0.46738183,-0.40895104,-0.3567568,-0.98650515,-0.4615345,-0.7295747,-0.2551849,-0.7497295,-0.4325794,0.748101,-0.33828568,0.374573],"bias":0.7335501},{"activation":0.38377023,"weights":[-0.3016219,0.39718008,0.33761406,-0.9411591,0.64104795,0.9341562,-0.26342797,-0.18917513,0.101801395,0.12606275,-0.11416757,-0.4053352,0.2176578,-0.51924896,0.4265927,-0.7344177,-0.5215211,0.6650703,-0.9454539,-0.95652413,0.34821177,-0.456285,0.7801838,-0.78754866,-0.1383332,-0.8671354,-0.27477264,-0.32301152,-0.6704669,-0.36693275,-0.49449515,-0.81275046,-0.96464074,-0.06952405,-0.5413234,-0.4934702,0.1419369,-0.23360181,0.34850907,-0.1316371,-0.4187206,-0.47899163,0.4552045,0.16801333,-0.3238994,0.71208036,-0.07283282,0.4593414,-0.8433714,0.772135,0.15729308,0.32484734,-0.65732765,-0.6683228,0.109665155,-0.38892865,0.82328975,-0.011108518,-0.12088001,-0.9361032,0.30167103,0.7981651,0.833907,0.009537101,-0.41109908,-0.8254553,-0.9184774,-0.6928505,-0.39856327,-0.568676,0.20072508,0.11134839,0.91695356,-0.8081969,0.3495716,0.7188771,0.8547509,0.22497988,0.075540066,-0.7888509,-0.41819942,0.67582536,0.36938906,0.46117842,0.7881719,0.33385265,0.9791368,-0.9452834,-0.4849577,0.024231315,-0.36480308,-0.6420454,-0.48463154,0.15661335,-0.5318674,0.33771503,0.12629128,-0.9054636,-0.39705074,-0.8907201,-0.55758595,-0.5703851,-0.06306636,0.62698126,-0.7924259,0.24440587,0.74334383,-0.56977844,-0.9507911,0.2746942,-0.9585055,-0.45272636,-0.84932816,0.65294087,0.6950109,0.56189084,0.22902548,0.34990788,-0.832502,0.60155594,-0.19834828,-0.11028612,0.05256796,0.47664833,-0.88663566,0.1899333,0.60556245,0.8066987,-0.58468544,0.7376404,0.35548627,-0.5558188,-0.59076166,-0.041327715,0.14869165,-0.3874092,0.77171147,-0.9226874,0.58465004,-0.7797955,-0.25419307,0.33825004,0.46104884,-0.9611391,0.00480628,0.5789207,0.98841643,-0.46874034,-0.08097148,-0.41196227,0.84346914,-0.68878746,-0.17035425,0.87037253,0.896683,0.36073315,-0.6761584,-0.094786644,0.36599588,0.43273306,0.6706177,0.116790295,-0.037501335,0.6223384,0.40176666,0.9299929,-0.10719907,0.18049967,-0.6909671,-0.57274616,-0.5261177,-0.6523186,-0.036546707,-0.11564422,-0.29458785,-0.3681581,-0.17805564,-0.37008083,-0.16402745,0.9115685,0.23952687,-0.7811539,-0.052300453,-0.5227933,0.9608228,0.63748145,-0.64426076,0.25395405,0.52266395,0.6275277,-0.58521295,-0.21525729,-0.7801759,0.2071364,0.30399024,0.0428226,0.48641264,0.592047,-0.19007218,0.8582485,0.09372163,-0.9912189,-0.33167994,-0.27954328,-0.9596931,-0.2356677,0.538111,0.6181117,-0.20877981,0.29749978,-0.47280574,0.45662308,0.27855062,0.666226,0.6909746,-0.6010364,-0.6291456,-0.52856565,-0.19916308,0.39051008,-0.84326184,0.48825407,-0.33611274,-0.594095,-0.18719268,0.94491506,-0.73324823,0.47121716,0.22066939,-0.88064945,0.78370094,0.015217304,0.5602871,-0.4058571,0.9915347,-0.25111532,0.2657342,-0.2665919,-0.8538649,-0.5058358,0.37090862,0.908532,0.92620814,0.15138006,0.6360475,0.026125073,0.87482643,-0.8273269,-0.49741077,-0.045007586,0.26592076,0.014002681,-0.31678677,0.079824805,0.68428206,-0.5139277,-0.22961318,-0.38538063,-0.33551097,-0.6859312,0.61830926,-0.31875396,-0.26932418,-0.20379746,-0.06856823,-0.005182028,0.07264209,-0.66071856,-0.78373635,-0.79732215,-0.94840324,0.78696394,0.75510967,-0.76799595,-0.11900473,0.93639696,-0.26822448,-0.047124267,-0.6658448,-0.08036733,0.945107,-0.6661782,-0.81904256,0.20855975,0.630594,-0.21186912,0.5223838,0.29575014,-0.3311727,-0.7644812,0.44799626,0.09717345,-0.8908204,0.039110303,0.20432019,-0.99036217,-0.4585911,0.8317548,-0.3625207,0.15968823,-0.7768104,0.0008176565,-0.9351517,-0.41886723,-0.35405135,-0.6108873,0.37088728,0.83234787,-0.71451473,0.89171743,-0.3629123,0.5400069,-0.7645693,0.7527385,0.55927,-0.0971781,-0.24455154,0.3480115,0.50885797,0.08331537,0.34229898,-0.40152454,0.6752789,-0.23679972,0.7556367,-0.010214567,0.22600424,0.95499086,0.6348051,-0.025525928,-0.767702,0.39895415,-0.0017826557,0.09578097,-0.1544851,0.4268515,0.8676871,-0.2847774,0.9312068,0.56788146,0.69328237,-0.21695948,0.5310849,0.4592532,-0.4445095,-0.0046032667,-0.14187133,0.06155002,0.7358401,-0.64083314,0.07282066,0.15809262,0.09128022,0.007888317,-0.5084518,-0.74236834,-0.52293885,0.1071409,0.20786166,-0.9426584,0.9939499,-0.45504904,-0.67436993,0.07730222,-0.82243574,-0.9862207,-0.6551901,0.038441062,0.73058176,-0.39597893,0.7460762,0.1132586,0.64478135,-0.088508844,0.8560116,0.21996582,-0.7000346,0.02809298,0.75022984,-0.9132941,-0.24167776,-0.90596414,-0.45508993,0.5221138,-0.70468974,0.027805924,-0.52316487,0.40449095,0.6293713,-0.18851149,0.8503212,-0.483662,0.18527865,-0.92599356,0.11395061,0.34433472,0.9987881,0.2566743,-0.75328434,0.0042723417,-0.23470962,0.967383,0.5419018,0.7141447,-0.9682417,0.8686712,-0.3968532,0.348606,0.039345503,-0.69210863,0.7643161,0.40148866,0.9801303,-0.60362804,0.2073276,-0.693398,0.063956976,0.28017914,0.38344252,-0.839551,-0.62767005,-0.3349601,0.93884313,0.16888368,0.27278924,-0.40452766,0.6683419,-0.047300935,0.52496624,-0.19918334,0.47932255,-0.018937945,-0.1300515,-0.032041192,-0.725188,-0.65013325,0.68474174,0.34233487,0.49266088,-0.8848363,-0.22395086,-0.55126715,-0.68682015,0.5102819,0.6840055,0.4517764,0.4636805,0.42254448,-0.5086199,-0.19136894,0.8977102,0.6802571,-0.24165046,0.42074525,0.33655858,-0.97401977,0.8580537,0.5502187,0.6470368,0.71373856,-0.94670033,0.21077037,-0.64540243,0.011687279,0.9465401,0.56711316,0.57036996,0.4943136,0.6014645,-0.62017024,0.9844445,0.5509765,-0.6145394,0.67788935,-0.33992183,0.40246904,0.4582796,-0.23800004,0.34626913,0.73656595,-0.9136529,0.6024891,-0.7104014,-0.26033485,-0.5903425,0.08802414,0.27990544,0.11022806,0.84963405,-0.29622996,-0.68509495,-0.4892516,0.9235431,0.67289174,-0.86829937,0.079372406,0.2762617,-0.7571697,-0.50107265,-0.27677548,-0.65722907,-0.33221078,0.5306535,0.7590078,0.48146284,0.61008596,0.9153116,-0.47831202,0.17995656,-0.035021186,-0.2987796,0.56227624,-0.7616997,0.018481612,0.97409284,-0.5339198,0.5757004,0.30690014,0.22202575,0.9365585,-0.6758127,-0.079395294,-0.95060074,-0.93266034,-0.23686361,0.7488115,0.27760732,0.8781104,-0.5538839,0.25178134,-0.2259463,-0.33057344,-0.57406294,-0.058586597,0.42072487,0.062190294,-0.5358801,0.49786317,0.9823146,0.8674642,0.73363936,0.58028185,-0.90737617,-0.20901883,-0.75478196,-0.33161795,0.34696782,0.0041667223,0.847695,0.9703454,-0.45871472,-0.4106735,-0.52575266,0.8695363,0.41127884,0.28228176,0.49837577,-0.0079813,0.4977789,0.38177836,-0.45765793,0.4632647,0.7724304,0.3548144,-0.366508,0.52157974,0.9287082,0.04100442,0.2934575,-0.19397473,-0.15105045,-0.21225393,0.5481801,-0.7707815,-0.14922571,0.27242756,0.20920229,0.86592877,-0.25777113,0.93615687,-0.21106625,-0.53331685,-0.17349076,-0.2328484,-0.9288573,-0.0028352737,-0.645154,-0.87628317,0.277166,0.9338292,-0.54514647,0.6069019,-0.6858467,-0.6691395,0.7274656,-0.98986447,-0.92285526,-0.6873876,-0.81723285,-0.56348133,-0.12094617,0.8359878,0.9854052,0.62551486,-0.09961748,0.86541355,0.9169415,-0.025060058,-0.42383838,0.46316242,-0.9724879,0.035762906,0.8997278,0.46605432,-0.7502569,0.24439478,-0.25818968,-0.37324893,-0.5918428,0.18649769,0.8289113,-0.046681046,0.06745827,-0.8060132,-0.7381754,-0.2885834,0.89074457,-0.05134976,-0.21719265,-0.18382514,0.1624757,-0.34952474,-0.25396442,-0.12471914,0.17923868,0.8204678,-0.6713035,0.4847076,0.81102335,0.98039067,-0.17671788,0.68251467,-0.8622441,0.4407797,0.51431775,-0.09827101,0.037337422,-0.034044266,-0.73648584,-0.11716533,0.85096633,0.9215915,0.5241548,-0.0066236258,-0.18044102,-0.01487124,0.66322994,0.39232874,-0.052660584,0.13603854,-0.36686122,-0.13324678,0.47793174,-0.5312476,0.20910811,-0.14307117,-0.5304885,-0.21060705,-0.14620996,-0.15472782,-0.44886494,-0.25309646,0.5203639,-0.69405234,0.25552154,0.5242747,-0.36191928,-0.2504692,0.74026036,0.109580755,-0.8828981,-0.032322288,0.15602314,-0.55638087,-0.7461479,0.7913282,-0.41962802,-0.4150982,-0.060497522,-0.14499879,-0.1161648,-0.63114786,0.89194477,-0.24899745,-0.8952807,0.04401326,-0.16774118,0.40290976,0.99814796,-0.76618457,0.43645394,-0.79689336,0.20156622,-0.93183327,0.672577,0.05000186,0.99729264,-0.124595046,0.44456255,-0.35695708,-0.6931386,-0.33953524,-0.5307926,0.78413093,0.6898384,0.68680644,0.24657702,-0.08192289,-0.9642345,-0.45673943,-0.77376485,-0.7231946,0.98591995,-0.7226453,0.6935308,-0.5200008,-0.45204818,-0.1691103,-0.9577153,-0.20964158,0.5666617,-0.0946933,0.77921796,-0.24301398,-0.28417623,-0.28181076,0.9452733,0.867674,-0.33117962,-0.543067,0.6319504,0.66309094,0.4419837,-0.21015596,-0.7149831,-0.8930547,0.5565822,0.14851844,0.5511875,0.42751646,-0.7881495,0.4812764,0.24461305,-0.4223876,0.86095285,-0.37116098,0.8458855,0.53459156,-0.60091317,-0.94254947,0.2815528,-0.41044462,-0.75069094,-0.96609366,0.9250909,-0.5453062,0.5180168,0.032735348,0.67973256,0.4504131,-0.7212602,0.10882747,0.37185836,-0.6633247,0.7154361,-0.2700491,-0.34899342,0.66045666,-0.03494215,-0.05370772,0.89192116,0.6249051,0.493927,0.53002656],"bias":0.72765386},{"activation":0.99968386,"weights":[0.45423782,0.006656766,0.31595945,0.48291862,-0.63368535,-0.49749768,0.19014227,0.5277729,-0.270028,0.0013625622,-0.37390685,0.09201944,-0.08394897,-0.27649117,-0.22973466,-0.564932,0.8073698,0.6049069,-0.048630238,-0.5022596,-0.6848556,0.29036856,0.32057858,-0.8082776,0.35473382,-0.8016355,0.14587641,0.593946,-0.7186943,-0.66427517,0.43558848,-0.7723701,-0.14079428,0.27136648,-0.58059347,-0.56067395,-0.91198385,0.109998584,0.115214705,-0.38713312,-0.80528677,0.06504321,0.502308,0.39263237,-0.92661035,-0.4884566,0.06376207,-0.91072285,0.4079057,-0.07593036,0.3380643,0.3052528,0.5690601,-0.12030172,-0.81103265,0.67399585,-0.6847563,-0.7441404,-0.63075066,-0.48194706,0.34686863,0.12541842,-0.494653,-0.9079337,0.47463965,-0.51956284,0.2290138,-0.47985268,-0.52606404,-0.043822527,0.39548802,-0.2886294,-0.12545002,-0.48817897,-0.10940981,0.776469,0.581571,0.7338439,-0.3033228,-0.84934986,0.54042387,0.57852566,0.73092973,0.55128014,0.10155797,0.8123028,0.4231224,-0.9720638,-0.6376325,0.7146299,-0.72315836,-0.47637415,-0.21869326,-0.97114277,-0.9476272,0.27380192,-0.75261986,0.17488325,0.4668604,-0.6646185,-0.7582357,0.97043097,-0.63059807,-0.929443,0.8090402,-0.69222105,-0.13852942,0.50750613,0.22091341,-0.46134675,0.44222128,0.10111177,0.07932508,-0.8901831,-0.57042396,-0.3236636,0.9391403,0.32534385,0.4135276,-0.9053167,0.7856736,0.23116398,0.99016047,-0.8396398,0.6882254,-0.8365685,-0.98184586,-0.9776614,-0.60418403,-0.17010331,0.23758805,0.8929874,0.014362097,-0.7457762,-0.76429343,-0.2542857,-0.34958744,0.1329602,-0.6125345,0.11021602,0.6801119,-0.04114306,0.82411385,0.32487786,-0.02884686,0.44646704,0.6758276,-0.3992319,-0.31134164,0.46993494,0.47732818,-0.061684012,0.9132,0.28520107,0.57026625,0.9092071,0.5402008,0.5426929,0.059411883,-0.6112387,-0.28050733,0.40415013,-0.9285282,0.3680172,0.9302157,0.049580336,0.4373623,0.29675913,0.33793616,0.8051665,-0.18002999,0.111445665,0.3297813,-0.32618463,-0.545123,-0.27396417,0.1820972,-0.14486623,-0.39114428,0.5541879,-0.14332926,0.26388848,0.6626059,0.21706522,0.115383744,-0.49052954,-0.70059323,0.442688,0.8905716,0.2990358,0.45738435,0.8522246,0.38091505,0.35857213,0.11061251,0.4824357,-0.9776896,-0.8864516,0.93343234,0.15026629,0.123386264,-0.7394049,0.28108108,0.8104677,-0.5059314,-0.04765582,-0.28078413,-0.5352416,0.46723068,-0.7927196,0.95453393,0.3265823,0.97720873,0.82027686,-0.44136274,-0.7661662,0.5679455,0.32515705,-0.9644432,0.46041954,-0.32964635,-0.740566,0.6676587,-0.16203058,-0.22808921,0.22750783,0.33117986,0.5106802,0.37263834,0.7981485,0.38047445,-0.87601745,0.25140727,0.8252795,-0.98535776,0.7991637,-0.12505913,-0.8447001,-0.2268616,-0.119424224,-0.35552144,-0.5747454,0.30848706,-0.32998025,-0.6233635,0.3542894,0.80676615,0.5456265,0.567328,-0.19514251,-0.3318218,-0.39925206,0.8687769,0.881727,-0.37910962,0.37702012,0.8277074,-0.17940855,-0.44479632,0.003980279,-0.70650554,0.71537745,0.36154985,0.27493,0.34367537,-0.9503255,0.608443,0.47189116,0.6017802,-0.011597037,0.48537993,-0.009103417,0.114361644,-0.24231696,-0.5102589,0.59280694,0.4829806,0.5514953,-0.54315066,0.7954612,-0.8613008,-0.1953007,0.7901802,0.056078672,-0.83454823,0.78351545,0.18332446,0.9272529,-0.91653955,-0.8366339,0.2721603,-0.91448736,-0.5502738,-0.16568923,-0.97810566,0.039685726,-0.6663493,-0.40983593,-0.03296554,-0.7455232,-0.87401783,-0.689466,-0.96076,0.81269693,0.2769624,-0.8900225,0.8565769,0.7242042,0.76981485,-0.08503735,0.5039164,-0.48164916,-0.056151867,-0.75193644,-0.34062588,-0.18655336,-0.55166566,0.4522816,-0.18943167,-0.8908019,-0.40673006,-0.23598266,0.87215614,0.7040545,0.050632358,-0.9586625,0.99849296,0.011674285,-0.9618325,0.5553868,0.93613636,0.7317909,-0.9286717,0.5062038,0.28074813,0.19737828,-0.627478,-0.5527843,-0.7889646,0.6329123,-0.30371583,-0.83763933,0.2033062,-0.7133653,0.39188564,-0.3977846,0.0783422,0.1783247,-0.935629,0.95569754,0.9179039,-0.98025644,-0.9680319,0.057816982,-0.4465847,0.7541609,0.8295649,-0.5802803,0.45500875,-0.24644673,0.7092601,0.06981027,-0.8236506,0.265154,0.002920866,0.9301233,-0.98367906,0.55497396,0.10099006,0.45302284,-0.0044406652,0.6905384,0.622404,0.28818834,-0.4907204,0.1451627,0.38507056,0.73130655,0.4440137,0.73548067,0.4239838,-0.38691688,0.3702159,-0.5516969,0.88873184,0.18742812,-0.086163044,0.1497153,0.16640675,0.96347344,-0.9976697,-0.3437662,-0.114788175,-0.059429526,0.08482802,-0.83636725,-0.8629087,-0.7355466,0.95555997,0.022717237,0.3849933,0.068540215,-0.67047524,-0.29602897,0.034463763,0.7035216,0.3577143,0.19095433,-0.5655346,-0.61228013,0.45987666,-0.042283297,-0.08017492,-0.609596,0.300462,0.2928232,0.35929823,-0.8694056,-0.5512066,-0.38270736,0.8042089,-0.75340366,0.7764679,0.8000021,0.17124271,-0.61619186,-0.010662913,0.5355817,-0.201882,-0.88509285,0.30873287,0.79309416,-0.54694855,-0.11390686,-0.27040982,-0.21765292,0.25647402,-0.005133152,0.7548225,0.2859217,0.6915252,0.13490665,0.15865362,-0.5077263,-0.018048525,-0.23766327,0.881987,-0.74090564,-0.14345384,-0.76017165,0.8592907,-0.1747626,-0.73958707,0.7817514,0.81407785,0.64843893,-0.28822398,0.99561274,0.39542043,-0.699649,-0.49313867,0.10316491,0.8835839,0.43784404,0.37231934,0.5867207,-0.8216109,-0.9140099,0.8991337,0.3539015,-0.72524035,0.38546646,-0.6033431,-0.13984358,0.38754022,0.87461984,-0.470088,0.3394369,-0.7530925,-0.91252506,-0.7801752,0.25560153,-0.314857,0.30649972,-0.19878876,-0.014513612,-0.21790326,0.65056753,-0.9508276,0.57963264,0.010660529,-0.37861037,0.9906541,0.11159885,0.57508457,0.6287652,0.99365306,-0.6429342,0.16200411,-0.40771234,-0.6837144,0.9092052,-0.8675939,0.8807149,0.13638246,-0.9756532,0.5763632,-0.7713373,-0.66764164,0.9180192,-0.8866439,-0.6685511,-0.656595,0.3244363,-0.7292979,-0.16758728,0.5469495,-0.910676,0.18124068,0.71251225,0.26558208,0.5965916,0.75399435,-0.2901901,0.55019116,0.7810565,0.53923595,-0.81917727,0.2719289,0.98180914,-0.3365234,-0.48504364,0.62608707,-0.35335338,0.3767197,-0.38952112,-0.13892281,-0.3627658,0.89649487,0.7167926,0.711874,-0.9580419,0.7871859,-0.45453954,0.0819633,-0.78274035,-0.28775787,-0.43072915,0.17166209,0.84264934,-0.289899,-0.40887284,-0.55921423,-0.36102045,-0.33358526,0.14928412,-0.85838604,0.51827085,0.7789755,0.9372356,-0.03237343,-0.6317383,-0.27313638,0.9483038,0.26896238,0.6853168,0.7841854,-0.22182989,-0.6392584,-0.85459983,-0.09302354,0.6898272,0.5006604,-0.92090476,-0.6339637,-0.96819186,-0.76186645,0.26768637,-0.10219669,0.68638146,-0.10808754,0.67139244,-0.19342816,0.1370579,-0.93857896,0.43854785,-0.5357058,0.23609817,0.7396985,-0.47104585,0.33495176,-0.64653325,0.7941799,-0.80729973,-0.8020376,-0.076254606,-0.659721,0.20791852,-0.2823707,0.018168569,0.34230745,-0.5589477,-0.62117946,0.7807094,-0.8193815,0.6420094,0.5413405,0.9170575,-0.45146477,0.214746,0.3716917,-0.74572074,0.12732494,-0.28310716,0.9991957,-0.57313323,0.33564556,-0.5803379,0.91314125,0.31283367,0.68585575,-0.16490257,0.6325773,0.7919421,0.9381956,0.30262768,0.22174954,-0.9176061,0.32400656,0.55907476,-0.62246907,0.46519852,-0.5940852,0.400378,0.31838095,0.38598025,0.99139833,-0.7748103,0.408378,-0.5203872,-0.71926737,0.6037787,0.78211725,0.46372426,0.9988711,-0.25956297,-0.37618864,-0.8455317,0.3851242,0.41149795,-0.64487433,0.59337795,-0.2173866,-0.40421999,-0.5012418,0.20501983,0.4567877,0.5637566,0.6728792,-0.097142935,0.6353842,0.5104829,-0.6887466,0.47452593,-0.67393756,-0.53946054,-0.42552662,0.1095804,0.55306613,-0.12348759,0.5527195,0.19262612,0.22150958,0.14917397,0.5054077,-0.7234465,0.0073592663,0.15859187,-0.0016176701,0.38013005,0.7046211,0.5001228,-0.55729127,0.34132314,-0.06754637,-0.7614733,0.029422998,0.48444295,0.9825479,-0.8372214,0.7721087,-0.1505779,0.95294297,-0.51072645,-0.36204112,-0.22073936,0.6655927,-0.21622813,-0.41546082,-0.023495555,0.55234706,-0.7210723,0.24633336,0.43515837,0.6338353,0.494179,0.7361462,0.9267453,0.82973623,-0.35201406,0.8252201,0.79971635,-0.3557408,-0.18573749,-0.29511023,-0.346882,0.17588985,0.6213646,-0.35987735,0.25736713,0.7450913,0.1701411,-0.8624685,0.042782784,-0.5231309,0.92848945,0.45868325,-0.1934396,-0.45501065,-0.32544124,0.7371614,0.5006503,-0.6389173,0.4477682,-0.087893724,0.97372496,0.5346602,0.79250896,-0.66148436,0.33110583,-0.8198807,0.26024616,-0.52109754,0.5308267,0.37618852,0.5000429,-0.96965325,-0.02959466,-0.28927636,0.021489382,-0.2184838,-0.7028599,-0.08818567,-0.2760315,0.66544926,-0.8046397,0.641328,-0.027909398,-0.86244226,-0.51651573,0.6632763,-0.037518024,0.8229126,-0.40163755,0.4893813,0.84477985,0.46241856,0.49297452,0.81126285,0.50451493,-0.6327318,-0.28397214,0.31504703,0.31082404,0.89548326,0.20654869,0.32168174,0.5410019,-0.25779676,-0.54421055,-0.0016936064,0.26596737,-0.57763386,0.22908211],"bias":0.59537685},{"activation":0.9756462,"weights":[0.34572673,0.8810319,0.18047214,0.3264451,0.45039082,0.24361968,0.13190186,-0.33374453,0.0056518316,0.9686384,0.46616554,-0.37382913,-0.42589343,-0.76407015,0.5269072,0.5695684,-0.5886853,-0.04715419,0.8602983,0.2645681,-0.04192102,-0.22654998,-0.75045896,0.029546022,-0.6759114,0.5972624,0.5372267,0.87837183,-0.5100001,0.013603449,-0.48434794,-0.73464334,-0.75039375,0.8437873,-0.56409514,0.35979152,0.18313992,0.7465712,0.23656929,-0.7941567,-0.5250714,0.90347373,0.6875595,-0.85797894,0.8680905,0.9086509,-0.34125137,0.8551078,0.65628815,-0.013440013,-0.911687,0.79921424,-0.50954664,-0.3214935,0.62442017,0.14282703,0.22800446,-0.67865026,0.7773198,0.7342316,0.71551883,-0.94966877,-0.9277452,-0.27913165,0.7315885,0.75592005,-0.6814045,-0.015237927,-0.95009136,-0.050343275,-0.29963756,-0.99039876,-0.052341223,-0.9378959,-0.63676643,0.11616337,-0.76809835,-0.09319627,-0.48963547,-0.72681785,-0.03430915,-0.43344247,-0.05559337,0.7049489,-0.2584647,0.8369131,0.89012897,-0.3258065,-0.7562351,-0.04505968,-0.53022254,0.9457724,-0.78322184,0.8705325,-0.12003243,-0.32027972,-0.7704724,-0.76346457,0.9856976,0.7802659,0.12350881,-0.19020641,0.7734772,0.16793036,-0.8636991,0.1758169,0.047032595,-0.14933896,-0.837376,-0.3528657,0.68593776,-0.31396568,-0.49158788,0.16650331,0.3116454,-0.5732193,0.10700369,0.04654348,-0.19880438,0.12624669,-0.803566,-0.4155103,0.62890065,0.7043469,0.78356886,-0.41435432,0.5259342,0.608863,-0.97803724,-0.37503898,-0.65660465,0.347641,-0.36599863,0.423661,-0.868999,-0.8450775,-0.91837394,0.43123817,-0.7864882,0.14480889,-0.45233262,-0.98425984,0.65035903,-0.7743293,-0.4237281,-0.34166074,-0.5098095,-0.8686855,0.20536387,0.9343977,0.7382282,0.25054646,-0.42956042,0.9551816,0.38292432,-0.5117674,0.39083064,-0.94080853,-0.6945255,-0.3742627,-0.69145393,-0.6811323,0.94615364,0.514655,-0.5225657,0.10128558,0.22752786,-0.49567068,-0.7169564,-0.82654834,0.6137128,-0.04386425,0.69172287,-0.16237378,-0.6535953,-0.9602947,0.7897339,0.70699465,0.6149483,-0.8890377,0.5601361,0.6185665,-0.32951272,-0.49405706,0.29815817,0.8543023,-0.51824474,-0.6055131,0.018937707,-0.83933663,-0.5049503,0.94287384,0.56410563,-0.29573977,-0.32488477,-0.63692474,0.54901135,-0.28445733,0.9363433,0.27364898,0.6861675,0.8752444,0.3205365,-0.83179414,-0.78030527,0.314474,0.9259559,0.6570662,0.2584858,0.37362838,-0.14302349,0.5127044,-0.9229115,-0.7213942,0.035601974,0.8968986,0.646502,-0.43401086,-0.93012583,-0.37351918,-0.39377117,-0.71329105,-0.22887385,-0.38441753,-0.5574615,0.5950706,-0.38253462,0.0043103695,0.44866395,-0.7907144,0.89262974,0.88848317,-0.99373937,-0.24119365,0.50697374,0.31422853,-0.8733226,-0.6367626,-0.22410119,-0.9312408,-0.9623077,0.44741094,0.16120481,-0.08049035,-0.8037058,-0.39327133,-0.14949453,0.7483181,0.99601376,0.6794208,0.122702,-0.17376363,0.89469945,0.1313554,-0.30845344,-0.70299363,-0.7703011,-0.98006034,-0.9750625,0.9041647,0.41722548,-0.07721794,-0.14626265,0.13136756,-0.6638497,0.046482325,-0.8546411,-0.1327405,0.98157966,-0.96071947,-0.17809689,0.6012852,0.79861176,-0.91424537,0.631884,0.18624496,-0.79782104,-0.067700386,0.6689745,0.79688,0.48721933,-0.6881573,-0.6159295,-0.1535523,-0.4039284,-0.87932324,0.8126246,0.1892519,0.007633209,0.31769097,-0.20942259,0.36169767,0.33158505,-0.5934888,-0.49233615,0.60009515,0.102053165,-0.0072079897,0.36889255,0.5249237,-0.11870372,0.9527366,-0.11898148,0.9899783,0.32485425,0.36109352,-0.8966131,-0.39538002,-0.9501332,-0.42404616,0.19965124,-0.49496543,0.62001526,-0.62611747,-0.70106494,-0.24134767,-0.68543017,0.6890131,0.68517816,0.1572994,-0.3707888,0.23467469,-0.52541804,-0.49036908,-0.39630115,-0.4444604,0.06021273,0.6704558,-0.16004074,0.61649,0.7111186,-0.1343745,0.46070445,0.2433021,-0.981781,0.307814,0.43181396,0.8901032,0.9091877,-0.16778862,0.49708176,0.42065024,-0.6086309,-0.033658385,-0.08628237,0.3590691,0.26615632,-0.80571413,-0.08964014,-0.4844191,0.8978572,0.029674888,0.08617723,0.6691246,0.06533384,-0.3922143,0.09327173,-0.7660967,0.18687308,-0.7810818,0.054329753,-0.1679231,0.4260801,0.41301382,-0.2634952,0.95996666,-0.35256624,0.70424366,0.8862854,-0.6276561,0.65999496,0.06255388,0.93257785,-0.010926485,-0.78096294,0.16108143,0.96531785,0.31605554,-0.62225425,-0.28033495,0.8542179,0.39937615,-0.86262786,0.2628168,0.036699653,-0.4022714,0.051939845,0.26251805,0.2623583,-0.8070407,0.016043305,0.3863119,0.6613817,0.9585037,0.8880092,0.3157904,0.30658042,0.40794218,0.42416668,-0.7954227,-0.31329048,0.89366627,0.23205018,0.4621532,-0.48048782,-0.7302934,-0.35933805,-0.9572154,0.96340334,-0.27416682,-0.561556,0.82686603,-0.19780993,-0.62421477,0.8121226,-0.2576233,-0.58362377,0.6184449,-0.3038808,-0.014870405,0.032612205,-0.504784,-0.60309553,0.15242219,-0.26035774,-0.7711941,0.88783085,-0.9002774,-0.4094913,-0.18418276,0.8043983,-0.08224583,-0.5124152,-0.3253851,0.2046082,0.7179613,0.8418102,-0.8468642,0.061815858,-0.90271246,0.9999206,-0.6344681,-0.117522,-0.10148108,-0.73639333,0.96848464,-0.04548478,-0.6314976,-0.8859978,0.73350763,0.48699975,-0.8713833,-0.7593001,-0.3386947,-0.7976115,-0.8756455,-0.05488348,0.053732514,0.7522336,0.37239885,0.21675086,0.6088283,-0.17779505,-0.6024709,0.7542571,-0.76985157,-0.0354594,-0.3531927,-0.29089892,0.72300553,0.3065827,0.72335947,0.2142427,0.7394124,-0.7151731,-0.16145718,-0.98826003,-0.10047817,-0.22794199,-0.5057039,-0.26107383,-0.89521945,-0.18514323,0.980059,0.123600006,-0.58520997,-0.9639318,0.61198556,0.70450747,-0.61614275,-0.41277683,0.0221169,-0.022384167,-0.7391497,-0.70390916,0.11541176,-0.79930437,0.31979668,0.9123421,-0.97630477,0.0704546,-0.6065085,0.92160785,-0.46300852,-0.3954674,0.05252409,0.6141499,-0.35702586,-0.66369724,0.77406216,-0.31626475,-0.5010159,0.5334624,0.41893995,0.21987855,-0.944101,-0.762699,0.8325337,0.49129486,0.8295895,-0.06492579,0.5933893,-0.27979195,0.9578768,-0.97905993,0.73582375,-0.36552727,0.3636042,0.57606316,-0.2944001,-0.7834374,-0.800182,0.94151866,0.19615138,-0.5136385,0.5109706,0.5288007,0.735221,0.084754825,-0.97491276,0.53283024,0.92301154,-0.3890779,0.84014,0.37680686,0.77916,-0.83432543,0.027829766,0.318617,-0.990661,-0.46523583,0.20624053,0.68729806,-0.8842615,0.47837865,-0.19935203,0.9875586,0.09112382,0.6083319,-0.26744294,0.14536631,-0.4815488,-0.42990184,0.9716854,-0.23115838,0.3752191,-0.1820575,-0.39031553,0.17496479,0.041956186,-0.5023514,-0.60414326,0.29077733,-0.27398765,-0.77491903,0.87484515,0.86788297,0.5820756,0.062064648,0.85831034,0.14079452,0.85203135,0.5839977,0.63335013,-0.15520573,-0.09293389,0.86073446,0.9541559,0.5979711,-0.43630195,-0.39752746,-0.9917507,0.61526406,-0.3065046,0.051123857,-0.49679983,0.057536602,-0.6279874,-0.94840133,-0.01175952,-0.48168576,-0.9640683,0.3126583,0.46080375,-0.9275638,0.062387466,0.7737869,0.37693858,0.36654842,-0.9509264,0.05613029,-0.41397142,-0.92717254,0.7344105,0.9326879,-0.9511832,-0.6048062,-0.17850208,0.77500796,-0.47404075,0.8546331,-0.13188517,-0.57186866,-0.33858907,0.22827196,-0.30232882,0.6790484,-0.88901436,0.20745003,0.394284,0.55002034,0.43867683,-0.7372966,0.045036197,-0.7412083,0.91560924,-0.36326385,-0.8255335,-0.91661334,-0.68450665,-0.04752922,-0.73779905,0.8062091,-0.54312646,0.0049358606,-0.9514475,0.32806873,-0.20178306,0.91872597,0.15817273,-0.8055078,0.940024,0.55913186,-0.3030131,0.83701,0.38438237,-0.43422866,-0.5561696,0.35189557,0.2258271,0.81640923,-0.74638844,-0.1541897,0.43280268,-0.64162683,0.9162632,0.75598776,-0.35365844,0.21536696,0.7758647,-0.33666515,0.5765737,-0.7371136,-0.6215831,0.575964,-0.26169932,0.66842663,0.80833423,-0.96552944,-0.74576294,-0.45264733,-0.7656597,0.8320135,-0.592963,0.85221183,-0.25473583,0.8730383,0.781734,-0.96493113,0.27735388,-0.38058162,0.11295712,0.7219831,-0.4377426,0.78273726,0.5167297,-0.11231232,0.14952374,0.02418232,-0.13357282,0.6594584,0.043854475,-0.44058025,-0.58136714,-0.44764936,0.14381683,-0.6326685,-0.14568973,-0.8670654,0.75503373,0.7950082,0.63590527,0.3136282,0.4890839,-0.44179118,-0.21088874,-0.7294432,0.89317155,-0.8437377,0.0071657896,0.6792867,0.6287435,0.4057163,-0.6368135,0.66148424,0.16790342,0.052778125,-0.011685967,-0.8594115,-0.69400096,-0.52070117,0.6020211,-0.6136329,0.7709118,-0.14592004,0.46830046,-0.16209614,0.07157993,-0.28189278,0.16703773,-0.24350524,-0.7287364,0.46465278,0.15978003,0.17019463,-0.037819624,0.7001791,-0.53794575,-0.5310205,0.7957183,-0.70948803,-0.0992744,-0.90420115,0.8931515,0.46904528,-0.37533712,0.3170104,0.3906597,-0.097376466,-0.63242877,0.40430903,-0.46510816,-0.7712202,0.1787808,-0.82525146,-0.018956184,0.81687284,0.9114795,0.40715325,-0.8203248,0.21351767,0.9355637,-0.99216485,0.52087927,0.66629386,0.7343545,-0.44156873,-0.022517085,-0.7249043,-0.8470385,-0.7604705,0.4567039,-0.12015152,0.0707171],"bias":0.99297327},{"activation":0.9996574,"weights":[0.33160853,0.86485744,0.408548,-0.98701656,-0.11538637,0.48512197,-0.25010478,-0.8236456,-0.59485424,-0.42751193,-0.7755935,-0.979851,0.029476762,-0.6680256,-0.88560796,0.15104425,0.14968431,-0.44212568,0.4279555,0.22586668,-0.3013004,0.19326198,-0.5814258,-0.28239107,-0.6164423,-0.6674434,-0.0857954,-0.5393245,0.41920626,-0.40883458,0.57636046,0.35139322,-0.42459178,0.4256618,0.28425932,0.536293,0.60839605,-0.19129348,0.6287898,-0.36296988,0.019764066,-0.9191977,-0.030738473,0.8655051,-0.115159035,-0.773988,-0.9673872,0.73135924,0.63294196,-0.6104435,-0.50761986,0.7926043,-0.75901973,-0.4696387,0.97257257,0.3290578,0.9424907,-0.71118295,0.32303965,-0.9734615,-0.8913418,0.29786754,0.2001375,-0.20116365,-0.72222006,0.8757415,-0.17840898,-0.92010677,-0.24940562,-0.28905547,0.8244275,0.0063232183,-0.21196842,-0.89768827,-0.8108499,0.43589675,0.4691267,-0.5182525,-0.7848605,-0.97052705,-0.12200105,-0.0043278933,0.21404028,-0.93949115,-0.123666406,-0.4038124,-0.23214817,-0.7518686,0.9823475,-0.94427407,0.22424173,-0.1490835,0.08863366,-0.9322212,0.15995145,0.22025347,-0.10931361,-0.3738762,-0.106556416,0.35204554,0.6620095,0.6678598,0.397537,-0.22629404,0.005746484,0.4556142,0.4287088,-0.444919,-0.9887397,-0.56827843,-0.3477621,0.9488379,0.05230558,0.9597113,0.70911026,-0.31229007,0.7602079,0.15227735,-0.937173,-0.81014514,-0.3772341,-0.05603814,-0.70598865,-0.62785435,-0.87372696,0.20059192,0.09527552,-0.35806477,-0.39374578,-0.9853338,0.21960926,-0.4189998,0.026606083,-0.28437686,0.056725025,-0.640663,-0.588804,0.9102254,-0.3872372,-0.6476188,-0.72192156,0.40568924,0.66685617,0.30187762,0.7574173,-0.43820584,0.38719738,-0.25079083,0.3035264,-0.31400585,0.9160991,0.7525438,-0.88773274,0.4586265,0.56197476,0.47482836,0.0024514198,0.32151365,-0.3778236,-0.65172815,-0.39507842,-0.029370666,0.36883307,0.741295,-0.26547205,0.13614166,-0.53001,0.14585054,-0.70005715,0.041933537,-0.19670308,-0.0055503845,0.14259839,0.18954957,0.97866416,-0.35227358,-0.04860878,-0.15166688,0.35189247,0.29020798,-0.25957334,0.16046464,-0.7097652,0.76067746,-0.13965571,-0.039410472,-0.03785491,-0.21935773,0.65012586,-0.80680776,-0.23071492,-0.7831509,0.054360867,0.13854003,0.78020644,0.949589,-0.98307717,-0.7501949,0.97573066,0.4974898,-0.7680447,0.77630746,-0.54851794,0.28226185,-0.9947878,-0.88536036,-0.44014776,0.75722027,0.77025735,-0.08107185,-0.39492524,0.9583677,-0.77386475,0.08817482,-0.026813388,-0.756575,0.5537641,0.54733586,0.7605443,0.8878559,-0.9541316,0.19353509,-0.21370327,-0.9300524,0.62221026,0.27358282,0.55403936,0.042779922,-0.7772614,-0.9595382,-0.32099605,0.78609383,0.99290144,-0.86271966,-0.52987945,0.5801052,-0.5464089,0.86783504,-0.6243684,0.18007696,0.063396454,0.058486223,0.8390976,0.85974836,-0.0006586313,0.64289963,-0.9876399,0.2540921,0.7353262,-0.8334564,0.04515302,-0.3409474,-0.92537045,0.51306105,-0.6388173,-0.040578365,0.9712764,0.6780275,0.066589,0.9649997,-0.07434714,-0.38469386,-0.114925385,-0.2536564,0.8405727,0.4726001,-0.579371,-0.9258126,-0.7005416,-0.79063153,-0.04613149,-0.11983502,0.3793708,-0.4581679,0.03569317,-0.22485304,-0.5220674,-0.9487618,-0.6233616,0.11764383,0.09926021,-0.892382,-0.61306787,-0.1701945,0.7102907,0.64356875,0.1739353,0.893612,-0.47050083,-0.5334686,-0.6000768,0.12399542,0.8500713,-0.26407254,-0.17610848,0.4593804,-0.022168517,-0.5086676,0.50831926,0.76593184,-0.18517673,-0.4855386,0.6656308,0.87580013,-0.68829703,0.33541143,-0.95280564,0.44670904,0.49322343,0.10008645,-0.9547925,-0.64488363,0.19964385,-0.03132236,0.9136435,0.53262484,-0.97800803,-0.76351166,0.7976178,0.39732802,-0.6709833,0.6629344,0.9097487,0.98200774,-0.43833387,0.26462758,0.48533583,-0.06775403,0.26431942,-0.84154844,0.039926767,0.55697775,0.9257755,-0.24408245,0.7494525,-0.763368,-0.62644696,0.42257822,-0.32489634,-0.7536675,-0.18457782,-0.270118,-0.79557085,-0.33710897,0.6120225,-0.4295565,0.28148842,0.8253274,0.5451962,0.65429056,0.95440626,0.11351669,0.13520765,-0.6782527,-0.6025758,-0.48290205,0.7503668,-0.6322366,-0.3911631,0.7507117,-0.77952623,0.3792436,0.5445874,-0.30245996,0.926108,-0.57326126,0.8852755,0.37574112,-0.55189145,0.47493136,-0.15751123,-0.58791625,0.5568694,0.019618511,0.2780944,-0.16313684,0.39566708,0.22021973,-0.1549995,-0.60183823,-0.057205796,0.3038578,-0.96601844,0.01912868,0.92466676,0.8041831,0.61616623,0.08400893,-0.058427334,-0.73983693,-0.052048802,0.2727462,0.1405009,0.3340596,0.899114,-0.9513309,0.7908466,0.86644876,0.46718323,0.82521355,-0.32562196,-0.8651713,0.058122754,-0.16233218,0.29966688,0.74056864,0.9923307,-0.08504856,-0.8177391,0.0064378977,-0.45299697,0.2797855,-0.5589224,-0.4878422,-0.65539765,-0.026337862,0.6404786,-0.7894789,-0.5694529,0.035275698,0.017051935,-0.82037425,-0.02262497,-0.8687223,0.6437175,-0.07137418,0.4753046,0.48127222,-0.24714363,-0.4511522,-0.51398027,-0.31257617,0.26842594,0.4910127,0.52036166,0.52423906,0.43296802,0.7878703,-0.47245455,-0.7382475,0.32767177,0.94671404,0.94444764,0.8062817,-0.032034874,-0.6032399,-0.014324307,0.14455009,-0.28150046,-0.098944426,0.8555057,0.9408897,0.62092674,0.18015122,0.60061944,-0.685132,0.7294415,-0.95671844,0.7307234,0.3887081,0.7824075,-0.6637877,0.39072418,-0.8187344,-0.054781914,-0.41575873,0.8820137,-0.44214332,0.45069575,-0.57185304,0.22582054,0.70876646,0.66208434,0.9221698,-0.9471563,-0.94190335,-0.16588986,0.20744991,-0.36315298,0.31654406,-0.036749482,-0.55094814,0.89741576,0.24787414,-0.59065783,0.606187,0.16100156,0.41912615,-0.3275658,0.90682375,0.40452576,-0.950299,0.40192568,-0.90495634,0.76654315,0.9322703,-0.719002,0.40976036,0.7502092,-0.6974219,0.7749307,0.81132853,0.5592139,0.5580783,-0.95763385,0.93752646,-0.4390751,0.42603648,-0.4316721,0.7250712,0.065045595,0.719715,0.59496903,-0.84040165,-0.3709749,0.683401,-0.4123093,0.9879178,0.626794,0.47990298,-0.95412326,-0.613845,0.25889766,-0.7883508,0.8940712,-0.043344498,-0.3401333,0.45499158,-0.59194577,-0.7409594,0.7629324,0.5551983,0.8877224,0.49908483,0.8960638,-0.06119597,0.45740855,0.31447756,0.92775226,-0.08621013,-0.32774055,-0.62540305,-0.30505252,-0.977054,-0.49234176,-0.8711332,-0.38873255,0.37673497,-0.55933833,0.11724663,0.5225171,0.53607726,0.8121996,0.2982844,-0.00914228,0.42575777,-0.60813653,0.71996284,-0.46359122,-0.011433125,-0.9435173,0.51885843,0.5888561,-0.18217301,-0.5489929,0.940112,-0.66395104,-0.41201198,-0.9665152,-0.17539692,0.0758369,0.8061526,0.97977114,-0.5414723,-0.74435616,-0.359357,-0.097589016,0.23510277,0.19976914,0.048622966,0.26389837,0.11420238,-0.7208903,-0.301005,-0.15069568,0.90039206,-0.70748305,0.8324914,-0.30721915,0.9919305,0.0018993616,-0.47826266,0.16426659,0.36445785,0.26650894,0.41820812,-0.92306936,0.325289,0.7653074,0.23391426,0.608853,-0.9050586,0.8625648,0.8153355,0.92762613,-0.9892955,0.23766291,-0.17142582,0.5908022,-0.75800335,-0.16198719,-0.32169402,-0.29015625,-0.121487856,-0.9963182,-0.93927705,0.6628727,-0.31180823,0.07333875,-0.42368567,0.5229944,-0.3443042,0.69035923,0.6945485,0.9386411,0.30162323,0.77555704,0.58691144,0.7754508,-0.6893544,-0.011534095,0.116465926,0.9314879,0.08127165,0.53370166,0.97063756,-0.78578293,-0.19823098,0.7660203,0.70099175,0.29145765,0.11660278,0.8019222,0.8590267,0.496513,-0.8883555,0.040434718,0.7957071,-0.19140375,-0.3194567,-0.4691131,-0.46126854,0.28190887,0.9138591,0.51098645,-0.56109786,-0.04798031,0.3960706,0.854874,-0.16086769,0.67068994,0.8162614,-0.86044514,0.46579003,0.16333985,0.34738076,-0.30180144,-0.7329786,-0.9647889,0.013643265,-0.14017916,0.49042583,0.09064996,0.097620964,-0.9612334,0.90415776,-0.36183667,0.7481549,-0.52194893,-0.9498787,-0.78709316,0.19232726,0.0049057007,-0.26711607,-0.78339493,0.6760335,0.44809008,0.1516571,0.17065382,-0.8121599,-0.6339085,0.9682522,-0.99159336,0.1574843,0.49807036,-0.4111526,-0.8117398,-0.06246841,-0.19925272,-0.911777,0.7688253,0.63479316,0.5960455,0.5988232,-0.1723721,0.6061951,-0.719659,-0.7380017,0.11743152,0.4372518,-0.8644942,-0.8335521,0.13707042,-0.3032478,-0.43409967,0.3891648,-0.4029578,-0.9216697,-0.7175422,0.2303083,0.0992744,-0.5691922,-0.24387729,0.39371085,-0.2924677,-0.5714463,-0.9281738,-0.7467861,-0.052932262,0.047971368,-0.97180104,0.69405603,-0.6893226,0.0065903664,0.9373623,-0.60838294,0.069693804,0.8256321,-0.3978263,0.056165934,0.05255544,0.42379367,0.12453425,-0.3559146,0.8108194,0.45706272,-0.2981459,0.1376605,0.88890564,0.35680008,-0.20226872,0.4538473,0.107133865,-0.595003,0.2914827,-0.59144175,-0.9351636,0.582533,-0.3465302,-0.07219195,-0.687335,-0.051673412,0.96701336,0.98118246,0.8323451,0.4736321,0.51075137,-0.62468934,0.6192267,-0.55955577,0.26710117,0.0017440319,0.5715673,-0.9314145,-0.7158599,0.7302754,0.72802114,0.25608456,-0.11934996,-0.21853304,0.32625115,0.10952842,0.06618929,0.12997448],"bias":0.0007916093},{"activation":0.22168359,"weights":[-0.6701993,-0.43719625,0.38542235,0.99046195,-0.8339231,0.41895688,0.33964086,0.36724544,-0.65301526,0.9237462,0.4065088,0.81917167,-0.15219891,0.7809603,-0.5499909,0.39080787,-0.31169927,0.9268801,0.19302428,0.33035183,0.39971828,0.26984096,0.10958612,0.9346386,0.9861474,0.02858293,0.85426724,-0.62795115,0.4137081,-0.8026445,-0.12259221,-0.8691108,-0.058148503,0.6891012,-0.0295465,0.44218445,0.9959533,-0.0061039925,0.598124,0.7425271,-0.45798135,0.06678891,-0.89519095,-0.99020267,-0.4253683,0.2042917,0.80124414,0.2191168,0.29919028,0.16814089,-0.00881052,-0.763932,0.552397,0.20145535,-0.8058363,-0.19442868,0.5522766,0.31635654,-0.43113685,-0.820652,0.58855784,-0.49544215,0.8463651,-0.16553056,-0.30438304,-0.71294093,-0.78981066,0.567528,-0.96141803,-0.037022352,0.64319193,-0.72525585,-0.55415285,0.6697787,0.5684978,0.7412784,0.8322294,-0.24244213,0.57472765,0.23845923,-0.56116056,-0.39554846,-0.5198376,0.06901348,-0.7552614,0.99051297,0.61000323,0.7320274,0.4388734,-0.70476186,-0.42304814,-0.3455876,-0.51955676,-0.16749167,0.14455843,0.9444046,0.44798398,0.23678732,-0.26139295,-0.96273494,-0.4195547,-0.9899832,-0.46838355,0.045214415,0.4561597,-0.6538693,0.048590064,0.0879823,0.3841784,0.48707938,-0.17099321,-0.1807288,-0.83106756,-0.21599197,0.2838118,0.65166104,-0.9899101,0.74691737,-0.20984316,0.3782823,-0.87575734,0.79326046,0.60863006,0.2781645,0.95773435,0.8378265,0.9445008,0.70852315,0.62629986,-0.36690354,0.83011353,0.9538995,-0.13843286,-0.76879156,-0.22096515,0.68037355,-0.044439554,0.6170733,-0.94860363,-0.82834005,-0.36609268,0.6223564,-0.32984114,-0.45440388,-0.75666153,0.20097303,-0.42387283,0.2149489,-0.388317,0.2494446,-0.4709177,-0.63720715,-0.9816303,0.53431785,-0.73801076,0.88535833,0.025209427,0.9068607,-0.70188797,-0.56270826,0.44317603,0.36110234,-0.47265458,-0.30447507,-0.63977635,-0.641029,-0.67454696,0.26540446,-0.94391274,-0.7244154,0.780697,0.10420513,-0.14203775,-0.9128902,0.51187444,-0.3676473,0.21917546,-0.20858157,-0.5152707,-0.8779943,0.18254364,0.3660096,0.40019512,-0.83891654,-0.97708845,0.46298957,-0.79055786,-0.61741304,0.016350389,0.089080215,-0.2564906,0.80348885,0.89787924,-0.86842096,0.7132437,-0.60186434,0.70367956,0.6394161,0.9374114,-0.30325246,-0.76263607,0.6631912,-0.84069407,-0.60660577,0.20482898,-0.84073687,-0.53378785,-0.21615207,-0.4779656,-0.45334768,0.73562515,-0.46397185,-0.71824026,-0.10640597,-0.5305221,0.037396073,-0.3469789,0.97137225,-0.5434829,0.7442583,0.16220713,0.76216245,0.23031378,-0.77999485,-0.6114576,-0.59897494,0.6921967,0.37440145,0.6589248,0.3370906,-0.15006185,-0.4403379,0.6275556,-0.124250054,0.9546732,0.3774284,0.27791512,0.7285464,-0.7482598,-0.6405642,-0.60249376,0.22057939,0.99692047,0.39254653,0.41987717,-0.93013525,-0.99191225,-0.96476984,0.041089773,0.5449532,-0.4756353,0.015241146,-0.34697223,-0.038006783,0.41432488,0.94189477,-0.98305476,-0.257514,0.0827049,0.09994972,-0.6184882,0.28594184,0.63996863,-0.020151973,0.95647585,0.639222,0.7850815,0.71590257,0.9563582,0.26798606,-0.2531016,-0.75444055,0.037314415,0.17847502,0.5273683,-0.91738284,-0.9821384,-0.9125012,-0.6975304,-0.9768013,-0.24093258,-0.1993643,0.76156163,0.7425126,-0.49403846,-0.15450323,0.8518286,0.20295978,0.59865487,0.53451157,-0.121088505,0.13235545,0.31086266,-0.8536923,-0.9296335,0.91897106,-0.704852,-0.34472048,-0.5144936,-0.9710101,0.75914896,0.47643566,-0.69326246,-0.107458234,-0.29926705,0.299361,0.50327957,-0.583959,-0.26702332,-0.93163157,0.53311276,0.2302146,-0.9144193,0.8992362,0.92666984,0.9141768,-0.8458915,0.5155051,0.07241011,-0.19706583,0.386101,-0.72221184,-0.85848486,0.7283735,-0.5608318,0.5704802,0.030896425,0.82797635,0.48917365,0.25236416,-0.75987303,0.34697056,0.3752563,-0.009474397,-0.63844,0.39261103,0.6701549,-0.38399184,-0.14737988,0.8931501,-0.97609496,-0.57997584,-0.58140385,-0.45460856,-0.5094547,0.19723928,0.98137033,-0.4702921,-0.91427314,0.8126128,-0.8599224,0.7782705,0.112377405,-0.33232832,0.29648054,0.0830009,0.89145374,0.06867504,0.138152,0.45922434,-0.397305,0.22752476,-0.3096534,0.24983132,0.60293615,0.86996853,0.037641644,-0.81564283,-0.6018976,-0.5623404,-0.93787324,-0.87099326,-0.22940254,0.36805892,0.3267262,0.19915748,-0.8768394,0.7147814,-0.80565727,0.65093064,-0.98587847,0.57194424,0.57920384,-0.68120277,-0.32054794,0.86507666,-0.83150566,-0.5535691,0.93868244,0.9482057,0.81229377,-0.58516717,-0.52541673,0.9158946,-0.15386772,0.8611491,-0.42849433,-0.684499,-0.95461035,0.7902709,-0.5182246,0.23374069,0.55223036,0.85234606,0.6066431,0.90550494,0.8418883,0.8877144,0.06194496,-0.5620136,0.9419025,0.118720055,-0.35905206,0.8054832,-0.20194411,0.58715177,0.6314409,0.46962333,0.546,0.70780456,-0.5054382,-0.116950154,-0.67990494,-0.58076334,-0.835567,-0.9293047,-0.54926634,0.39458513,0.6156856,-0.77035964,-0.45357955,0.44343507,-0.017191887,0.14008725,-0.87313604,-0.47521663,0.7261113,-0.7548454,-0.046504498,0.80805874,-0.3925923,0.16286194,-0.9363482,-0.998703,0.3604914,-0.120601535,0.97522795,0.6594492,0.99051833,0.42885506,0.042075396,-0.20682073,-0.04194534,-0.6654881,0.18143225,-0.26662934,-0.4503808,-0.7174361,0.8188294,0.23537314,0.22512531,-0.48330295,0.15829837,0.46044433,0.6380292,-0.005192399,0.46464694,0.7832941,0.08743131,-0.4697007,0.051411748,-0.4126618,0.47010183,-0.32420993,-0.14115655,0.6086761,0.346012,0.88739705,0.13536549,0.47001028,0.65251744,-0.8120706,-0.028982043,-0.37072444,-0.46340024,-0.08537042,0.6210002,-0.24998963,0.8670418,0.9845879,-0.66960204,-0.63256156,-0.30986083,-0.07089245,-0.6611147,-0.052330732,0.42280877,-0.041063547,-0.079708815,-0.3006301,0.29973817,-0.64541674,-0.09216511,0.8978424,0.3611256,-0.8637905,-0.09034622,0.901762,-0.36702192,0.96909034,-0.9459611,-0.5641161,-0.2501707,-0.34704268,-0.004798293,0.52766013,0.8949132,-0.12303209,-0.8312715,-0.6813711,-0.9631994,-0.44846022,-0.75581455,0.7566292,0.83550036,0.23693776,-0.39541078,-0.9296346,-0.83968115,0.5915897,0.43558025,-0.75183153,-0.5913949,0.9204806,-0.9474467,0.5229733,0.8287853,-0.6858505,-0.35833585,-0.6265023,0.73910785,-0.9613347,0.66300905,-0.6170331,0.21423554,0.7920598,-0.03483081,-0.59469545,-0.1258955,0.8209419,-0.46328628,-0.0513705,0.11356473,-0.40211654,0.63234603,0.72940886,0.52936006,-0.3352008,0.1917361,0.25750697,0.9407065,0.3651551,-0.1425556,-0.37002683,0.282876,0.032343864,0.6184913,0.30581844,0.24568796,-0.13769126,-0.30229652,-0.7584529,0.7457204,0.8220316,-0.2269013,-0.15988159,0.5957967,-0.21692955,-0.13894737,0.5948825,0.4660201,-0.0625447,-0.2593037,0.2445705,0.45468485,0.5269679,-0.55008376,0.53639555,0.007573843,0.6515484,-0.50298285,-0.5479871,0.40185773,0.22086453,0.9126276,0.42589676,0.036314487,-0.9745457,-0.87602115,0.5906795,0.36413658,0.38621128,-0.32251787,0.2410661,0.26554632,-0.76888454,0.23863709,-0.6662297,-0.41555285,0.5729619,0.49465322,-0.63051605,0.8071406,0.34309518,-0.3947209,-0.7467319,-0.8555993,0.41238534,-0.75091255,0.9193289,0.6573281,0.6967367,-0.4180274,0.91938245,0.14928126,-0.46165586,-0.6129978,0.30563796,-0.39394867,0.20038295,-0.52494526,-0.4894184,-0.30996275,-0.8708502,-0.46751988,0.41873813,-0.660877,-0.30428624,0.22047651,-0.47769427,0.9758365,-0.64628136,-0.64513886,-0.11414611,-0.5463724,0.29621887,-0.20743966,0.66444886,-0.8975446,-0.1662072,-0.6013024,0.58986783,-0.0487355,0.04762721,0.58952475,-0.88802946,-0.070158005,-0.6798314,0.19654071,-0.20045614,-0.35845172,0.81829524,0.58564365,-0.31440854,-0.49801302,0.65054727,-0.97030246,0.42239022,-0.53605235,0.6802926,-0.80452704,0.75608695,-0.301041,-0.66621375,-0.15761006,0.8207332,0.24705458,0.45806658,-0.5183103,0.05795145,0.026477575,-0.11706829,-0.517732,-0.29646778,-0.12286341,-0.32913232,-0.26914084,-0.76179266,-0.6504353,0.99569976,-0.90896523,0.77083457,-0.056581616,0.021660805,0.857551,-0.7024567,0.461406,-0.86221826,-0.18241167,-0.55374384,0.8186619,0.656338,-0.98102415,-0.47733974,0.9919977,0.4274751,-0.34673953,0.17485976,-0.6026925,0.5552751,-0.3956113,0.32769537,-0.16434515,-0.8705298,-0.8517165,0.57567966,-0.21941459,-0.94196117,0.01104176,0.23757708,-0.2616005,-0.39486575,0.41544545,0.45712674,0.8850056,0.053575397,0.39758182,-0.8093612,0.32474697,-0.8440026,-0.07584095,0.86218727,0.65285754,-0.40635896,0.5339508,-0.14413786,-0.39850247,-0.51969314,0.6146662,-0.18799174,0.48181117,0.8200822,0.7616092,0.8847704,0.6771376,-0.04062164,-0.8015125,-0.17454207,-0.890211,0.71150935,-0.6960398,0.8266095,0.1936611,-0.15008307,0.82374287,0.7086526,-0.9183055,0.37145293,-0.3833921,-0.4751426,0.22065043,0.60826266,0.949816,0.094301224,-0.41078877,0.5987297,-0.5187104,-0.40537298,0.89633965,-0.6414578,-0.7933508,-0.542349,0.17038226,-0.26245046,-0.6407497,-0.5802282,0.48451638,0.63109636,-0.04356885,-0.43683028,0.57932127,0.11261845,-0.5654886,0.8634125],"bias":0.19094867},{"activation":0.0010397894,"weights":[0.9827751,0.46598506,-0.2614832,-0.99629545,0.0590688,-0.20238793,0.49526095,-0.90316665,-0.36049974,0.40489638,-0.86659014,0.17206657,0.8936229,-0.7581657,0.6294006,0.55861425,-0.15710723,-0.9586741,0.12047982,0.46310318,-0.6420934,-0.9063612,-0.8062396,0.08325696,-0.51515055,-0.8877269,-0.85677195,0.5198277,-0.18468583,-0.9247967,-0.9436114,-0.9058453,-0.90310884,0.7787205,-0.84704375,-0.69936514,0.51269555,0.75271857,0.38498306,0.2565061,0.955955,-0.8965205,0.0073632,-0.33894527,-0.19402921,0.47197485,-0.6541215,-0.10764754,-0.40503216,0.5775647,0.87638295,-0.861791,0.18131924,0.24986184,0.20504451,-0.018512964,0.66444826,-0.39677203,-0.7824911,0.79374635,-0.27136946,0.01800108,0.3391881,-0.94447005,0.5512626,-0.16599393,-0.45277643,0.7260634,0.022131443,0.89509594,0.24960661,0.6524484,0.06588006,-0.73151946,-0.8220204,-0.80375624,0.3122648,0.10169864,-0.42515743,0.5385213,-0.9895266,0.8953426,0.52857673,0.022651553,-0.38870263,-0.25703835,0.76245177,-0.11492276,0.48466158,-0.13012254,0.6577883,-0.12793505,-0.12210858,0.21899986,0.5458962,0.20101392,-0.1462394,0.5906143,0.6370486,0.20904183,0.88453436,-0.030576944,0.6127006,-0.7525461,-0.5326437,0.5085708,-0.15607882,-0.327729,-0.5368961,0.6132734,0.39600277,-0.063137054,-0.7056674,0.26329744,0.73673594,-0.32700765,0.27756345,0.3591051,-0.37017083,0.6505518,-0.13766468,0.9959624,-0.41694045,0.25761807,-0.9081572,-0.57290995,0.16047156,-0.08830404,0.015075684,0.11749387,-0.5469283,-0.07245278,0.82973766,0.6085577,-0.4826063,0.17028677,-0.45249748,0.52290106,-0.32900286,-0.7075306,0.26938057,0.52051747,-0.97668016,-0.09288037,0.05130589,-0.39788103,-0.8102678,0.41024637,0.20310795,-0.5490552,-0.0630815,0.7674724,0.31185722,0.325382,-0.3744086,0.96066535,-0.80252206,0.84085166,-0.7109529,0.09981918,0.30045044,0.87778807,0.77717674,0.71973205,-0.794021,0.053622365,-0.93816626,-0.99407053,0.22173774,-0.21859717,0.73187006,-0.975569,-0.49202287,-0.24300754,0.41093242,-0.6103183,-0.75748456,0.4813323,-0.3286543,0.20833015,-0.04427862,-0.12080908,0.20451736,0.10891831,0.34605575,-0.79071057,0.009093881,-0.50193727,0.07952762,-0.48983943,0.56087637,-0.24515116,-0.302765,0.040583253,-0.49239647,-0.7874429,-0.600152,-0.24687505,0.8080213,-0.44168818,-0.12588167,-0.38716388,-0.6781087,0.14039838,0.4551996,0.5049441,-0.7117194,0.0804342,-0.6139605,-0.9742956,-0.587551,-0.9087573,0.32890785,-0.92991257,-0.9989077,-0.69542074,0.5554608,0.25978673,0.02155602,0.20165765,-0.41530657,-0.6767825,-0.5078491,0.7350193,0.637583,0.37099552,-0.7470349,-0.15747833,-0.4429505,-0.9458767,-0.78371346,0.6585512,0.003440261,-0.8290174,-0.33719647,0.36784053,-0.39705002,0.71500945,-0.7436038,0.6497543,0.48711622,0.8179966,-0.61158967,-0.397447,0.8341199,-0.0016573668,0.78192353,0.6724334,-0.70394444,0.06503463,-0.40132046,-0.17301714,-0.98701227,-0.70062697,0.95010877,0.93482566,0.5478786,0.5445012,0.4529916,0.5431863,0.83476484,-0.32946718,0.7607833,-0.76463306,0.95456123,-0.67244065,0.72773707,-0.14137256,0.28696203,-0.33943427,0.21589589,0.13687885,0.277995,0.63559866,-0.1465497,-0.55464363,-0.6926861,0.44185078,-0.89333093,-0.047604084,-0.77599823,0.80346525,0.7626804,-0.84429383,0.122924685,-0.26221633,-0.07900846,-0.5592469,-0.16172886,-0.78068364,0.41480732,0.40575874,-0.7812574,-0.8612509,0.8974353,0.64566815,0.9205785,-0.955824,-0.06108427,-0.48037362,-0.6340964,-0.8232852,0.4928447,-0.2577839,-0.9156501,-0.8237649,-0.16911662,0.7453878,-0.6581737,0.2856084,-0.9828887,0.35286033,0.3117298,0.40052283,-0.109894514,0.055772066,-0.321962,-0.9144641,0.6338837,-0.3442514,-0.37937617,-0.5497676,-0.48276675,-0.8995638,0.018824697,0.59025455,-0.29172826,0.45578778,0.48017454,-0.006618738,-0.08628023,0.9730753,-0.5907699,0.8742597,-0.40996122,-0.79894507,0.43602133,0.28997207,0.6732986,0.59016013,0.82665825,0.6773511,-0.990347,0.14811802,-0.16968322,0.71298385,0.39308512,-0.62429523,-0.6658281,0.6538726,-0.69859016,-0.90037143,-0.9363563,0.87000024,0.45428848,-0.29569066,0.28747213,0.92873096,0.0033394098,-0.20710528,-0.9708389,-0.56360793,-0.76758575,-0.4455998,0.74107516,0.46201336,-0.38215005,-0.7374649,0.3341323,0.701684,0.50584805,-0.35197186,0.41694617,-0.50559413,0.97047853,-0.9349214,-0.029054523,-0.8990351,-0.2333529,-0.6792743,0.47065187,0.82050717,-0.45654154,0.8624432,-0.7749063,-0.36276948,-0.310547,0.4827633,-0.42346907,0.5616863,-0.048147798,0.5508703,0.9661715,0.45160353,0.74760723,0.4822142,-0.9960246,-0.63660824,-0.21048522,-0.2983005,0.9762869,-0.25047922,0.19182158,-0.4597565,0.92612386,-0.62654555,0.6793282,-0.6981493,0.1767633,-0.85217845,0.8884342,-0.2886181,-0.2825873,-0.8836974,-0.42087078,-0.8540093,-0.82054245,0.2346189,-0.5975913,-0.21025443,0.43898642,-0.029622912,0.6541337,-0.077008486,-0.8267691,0.58349574,-0.7209306,0.9885975,-0.5960256,0.90553975,-0.08825636,-0.3032658,0.59222305,-0.7883402,0.4675392,0.90294147,-0.1636461,0.16494286,-0.010803103,0.94103074,0.61761653,-0.37014842,0.2453531,0.18561697,-0.07994914,0.55598426,-0.3628471,-0.39907527,-0.9529674,0.06455457,0.4204594,-0.4769318,0.26999378,-0.3796208,0.05092609,-0.94613636,-0.99824977,0.9189974,0.30857718,0.994943,0.77278924,-0.8266555,-0.7888907,-0.19427669,-0.5927992,0.88494706,0.49866354,-0.07678461,0.32625592,0.33956337,0.6874827,-0.15218496,0.6163794,0.40852833,-0.47385752,-0.99120057,-0.4507588,0.8633671,0.47098112,0.63986754,-0.5590069,-0.6048844,0.409768,0.17472517,-0.06340873,0.108505726,-0.3120464,-0.31480885,0.53080094,-0.01771295,-0.9346349,-0.22206569,0.8493329,0.64930665,0.07271302,0.140414,-0.607558,0.65669537,0.5198628,0.2936778,0.3491019,0.32426643,-0.5540911,0.51127946,-0.42580545,0.63498425,-0.7166159,0.43373215,-0.68994784,0.062051177,-0.45622218,-0.44073355,-0.29933405,-0.07949138,0.4350083,0.5390012,-0.4300475,-0.7134732,-0.07465756,-0.6451863,0.52222955,0.29647374,0.21603978,0.53529656,-0.9197445,0.91997886,0.8144014,-0.5530977,-0.6189202,0.13667071,-0.598732,0.63176477,0.73684597,-0.061209917,0.71080875,0.077941895,-0.28915632,-0.4117787,0.060528874,0.67030156,0.44494963,0.354591,-0.11206746,-0.06831825,0.95690227,0.5305542,0.03574109,-0.6230979,-0.5264238,-0.77912974,-0.25507665,-0.36391783,0.7306347,-0.2026645,0.27892876,-0.9786682,-0.90802276,-0.044141054,0.68029964,-0.012974381,0.042202592,0.062610626,-0.5625526,0.70034266,-0.10780966,-0.72092235,-0.38544798,0.9029038,-0.055554032,-0.3984933,0.93039405,0.40576684,-0.773517,-0.9799694,-0.1674906,0.44583774,0.7619556,0.4014399,0.4817748,0.9164095,0.3365711,0.7947831,0.24638438,0.0014197826,-0.8965863,-0.6131033,0.40774858,0.7810296,0.38739955,0.5896194,-0.35886014,-0.13964546,-0.0062696934,-0.24980569,0.13420165,-0.7811135,0.5041479,0.86966264,-0.25413966,-0.2526704,-0.8373599,-0.45882523,-0.7999151,-0.35665953,0.555617,-0.8157556,0.73177683,-0.23036647,0.20840871,-0.2677722,0.14070666,-0.016105175,-0.85305476,-0.42971063,-0.09990835,-0.2978357,0.67293596,-0.24000609,-0.32694817,0.03932917,-0.9534904,0.03415847,-0.062081575,-0.8761941,0.36870146,0.87047243,-0.47160983,-0.08806682,0.32457137,0.29554307,-0.856014,0.8920628,-0.34438717,-0.9593605,-0.00048851967,-0.13420689,0.8818363,-0.8240093,-0.20784724,-0.2858622,-0.85361135,-0.49122906,-0.71254003,-0.6369692,0.7604828,-0.6518376,0.414518,0.47150135,0.46686542,0.17160988,0.70236886,-0.18041432,-0.42834032,-0.9504852,-0.92864203,0.68194354,0.5794902,-0.67235446,-0.23299038,0.50821114,0.44790685,-0.075797796,-0.47208285,0.40144992,0.46443427,-0.57706964,-0.29135728,-0.24312246,-0.14933288,0.13099778,0.757048,-0.35305023,-0.74507356,0.016176343,0.53894985,-0.47029305,-0.74785984,0.8946835,-0.0045695305,0.6868315,0.78574836,0.491459,-0.7740902,0.68782556,-0.65399444,-0.15667677,-0.24132085,-0.5052471,0.7687217,0.018223047,0.82105803,-0.68198156,0.091517925,-0.24874675,0.72448754,0.9301516,-0.15926278,0.3284608,-0.17717063,-0.73986065,0.97972715,0.7805598,-0.38632226,0.0069032907,-0.26283228,-0.14278209,0.93392587,0.9997759,-0.17110717,-0.6731844,-0.31828642,-0.12470925,-0.15188015,0.421829,0.13746023,-0.22170639,-0.26681614,-0.7194458,-0.43231094,