{"learning_rate":0.1,"input_layer":{"activations":[0.0,0.0,0.0,0.0,0.0,0.0,0.0,0.0,0.0,0.0,0.0,0.0,0.0,0.0,0.0,0.0,0.0,0.0,0.0,0.0,0.0,0.0,0.0,0.0,0.0,0.0,0.0,0.0,0.0,0.0,0.0,0.0,0.0,0.0,0.0,0.0,0.0,0.0,0.0,0.0,0.0,0.0,0.0,0.0,0.0,0.0,0.0,0.0,0.0,0.0,0.0,0.0,0.0,0.0,0.0,0.0,0.0,0.0,0.0,0.0,0.0,0.0,0.0,0.0,0.0,0.0,0.0,0.0,0.0,0.0,0.0,0.0,0.0,0.0,0.0,0.0,0.0,0.0,0.0,0.0,0.0,0.0,0.0,0.0,0.0,0.0,0.0,0.0,0.0,0.0,0.0,0.0,0.0,0.0,0.0,0.0,0.0,0.0,0.0,0.0,0.0,0.0,0.0,0.0,0.0,0.0,0.0,0.0,0.0,0.0,0.0,0.0,0.0,0.0,0.0,0.0,0.0,0.0,0.0,0.0,0.0,0.0,0.0,0.0,0.0,0.0,0.0,0.0,0.0,0.0,0.0,0.0,0.0,0.0,0.0,0.0,0.0,0.0,0.0,0.0,0.0,0.0,0.0,0.0,0.0,0.0,0.0,0.0,0.0,0.0,0.0,0.40234375,0.7890625,0.9921875,0.87109375,0.109375,0.0,0.0,0.36328125,0.1953125,0.0,0.0,0.0,0.0,0.0,0.0,0.0,0.0,0.0,0.0,0.0,0.0,0.0,0.0,0.0,0.0,0.0,0.14453125,0.83984375,0.98046875,0.98828125,0.98828125,0.98828125,0.671875,0.0,0.15234375,0.9375,0.4765625,0.0,0.0,0.0,0.0,0.0,0.0,0.0,0.0,0.0,0.0,0.0,0.0,0.0,0.0,0.0,0.0,0.05078125,0.74609375,0.98828125,0.87890625,0.46875,0.21875,0.98828125,0.68359375,0.0,0.2421875,0.98828125,0.359375,0.0,0.0,0.0,0.0,0.0,0.0,0.0,0.0,0.0,0.0,0.0,0.0,0.0,0.0,0.0,0.0,0.51171875,0.98828125,0.67578125,0.0546875,0.0,0.03515625,0.98828125,0.68359375,0.0,0.359375,0.98828125,0.16796875,0.0,0.0,0.0,0.0,0.0,0.0,0.0,0.0,0.0,0.0,0.0,0.0,0.0,0.0,0.0,0.0,0.546875,0.98828125,0.21484375,0.0,0.0,0.09375,0.98828125,0.68359375,0.05078125,0.72265625,0.953125,0.11328125,0.0,0.0,0.0,0.0,0.0,0.0,0.0,0.0,0.0,0.0,0.0,0.0,0.0,0.0,0.0,0.0,0.546875,0.98828125,0.3359375,0.0,0.0,0.37890625,0.94140625,0.23828125,0.32421875,0.98828125,0.78125,0.0,0.0,0.0,0.0,0.0,0.0,0.0,0.0,0.0,0.0,0.0,0.0,0.0,0.0,0.0,0.0,0.0,0.51171875,0.98828125,0.890625,0.6328125,0.1796875,0.37890625,0.609375,0.140625,0.90234375,0.98828125,0.4765625,0.0,0.0,0.0,0.0,0.0,0.0,0.0,0.0,0.0,0.0,0.0,0.0,0.0,0.0,0.0,0.0,0.0,0.05078125,0.70703125,0.9765625,0.98828125,0.97265625,0.81640625,0.14453125,0.4765625,0.98828125,0.6640625,0.02734375,0.0,0.0,0.0,0.0,0.0,0.0,0.0,0.0,0.0,0.0,0.0,0.0,0.0,0.0,0.0,0.0,0.0,0.0,0.0,0.390625,0.76953125,0.98828125,0.98828125,0.98828125,0.9921875,0.8828125,0.13671875,0.0,0.0,0.0,0.0,0.0,0.0,0.0,0.0,0.0,0.0,0.0,0.0,0.0,0.0,0.0,0.0,0.0,0.0,0.0,0.0,0.0,0.03515625,0.5625,0.89453125,0.98828125,0.9921875,0.71484375,0.0,0.0,0.0,0.0,0.0,0.0,0.0,0.0,0.0,0.0,0.0,0.0,0.0,0.0,0.0,0.0,0.0,0.0,0.0,0.0,0.0,0.0,0.0,0.0,0.6015625,0.9921875,0.99609375,0.9921875,0.6328125,0.0,0.0,0.0,0.0,0.0,0.0,0.0,0.0,0.0,0.0,0.0,0.0,0.0,0.0,0.0,0.0,0.0,0.0,0.0,0.0,0.0,0.0,0.2578125,0.88671875,0.98828125,0.703125,0.77734375,0.98046875,0.51953125,0.0,0.0,0.0,0.0,0.0,0.0,0.0,0.0,0.0,0.0,0.0,0.0,0.0,0.0,0.0,0.0,0.0,0.0,0.0,0.0,0.0,0.4140625,0.98828125,0.66796875,0.0234375,0.01953125,0.3515625,0.8671875,0.64453125,0.0,0.0,0.0,0.0,0.0,0.0,0.0,0.0,0.0,0.0,0.0,0.0,0.0,0.0,0.0,0.0,0.0,0.0,0.0,0.0,0.71484375,0.98046875,0.27734375,0.0,0.0,0.0,0.48046875,0.96875,0.22265625,0.0,0.0,0.0,0.0,0.0,0.0,0.0,0.0,0.0,0.0,0.0,0.0,0.0,0.0,0.0,0.0,0.0,0.0,0.08984375,0.95703125,0.65625,0.0,0.0,0.0,0.0,0.1015625,0.859375,0.8046875,0.0,0.0,0.0,0.0,0.0,0.0,0.0,0.0,0.0,0.0,0.0,0.0,0.0,0.0,0.0,0.0,0.0,0.0,0.10546875,0.98828125,0.77734375,0.0,0.0,0.0,0.0,0.0,0.46875,0.96484375,0.2890625,0.0,0.0,0.0,0.0,0.0,0.0,0.0,0.0,0.0,0.0,0.0,0.0,0.0,0.0,0.0,0.0,0.0,0.05859375,0.8828125,0.96875,0.2109375,0.0,0.0,0.0,0.0,0.36328125,0.98828125,0.203125,0.0,0.0,0.0,0.0,0.0,0.0,0.0,0.0,0.0,0.0,0.0,0.0,0.0,0.0,0.0,0.0,0.0,0.0,0.609375,0.98828125,0.98828125,0.52734375,0.29296875,0.4140625,0.484375,0.95703125,0.8828125,0.05078125,0.0,0.0,0.0,0.0,0.0,0.0,0.0,0.0,0.0,0.0,0.0,0.0,0.0,0.0,0.0,0.0,0.0,0.0,0.28125,0.96484375,0.98828125,0.9921875,0.98828125,0.98828125,0.98828125,0.98828125,0.70703125,0.0,0.0,0.0,0.0,0.0,0.0,0.0,0.0,0.0,0.0,0.0,0.0,0.0,0.0,0.0,0.0,0.0,0.0,0.0,0.0,0.25,0.76171875,0.9921875,0.98828125,0.98828125,0.91796875,0.47265625,0.0546875,0.0,0.0,0.0,0.0,0.0,0.0,0.0,0.0,0.0,0.0,0.0,0.0,0.0,0.0,0.0,0.0,0.0,0.0,0.0,0.0,0.0,0.0,0.0,0.0,0.0,0.0,0.0,0.0,0.0,0.0,0.0,0.0,0.0,0.0,0.0,0.0,0.0,0.0,0.0,0.0,0.0,0.0,0.0,0.0,0.0,0.0,0.0,0.0,0.0,0.0,0.0,0.0,0.0,0.0,0.0,0.0,0.0,0.0,0.0,0.0,0.0,0.0,0.0,0.0,0.0,0.0,0.0,0.0,0.0,0.0,0.0,0.0,0.0,0.0,0.0,0.0,0.0,0.0,0.0,0.0,0.0,0.0,0.0,0.0,0.0,0.0,0.0,0.0,0.0,0.0,0.0]},"activation_layers":[{"neurons":[{"activation":0.000008334245,"weights":[-0.9832685,0.2764132,-0.12833428,-0.5494362,-0.4400518,0.9407693,0.5086267,0.52100277,0.18159068,0.8978033,0.07129371,0.93208015,-0.82612157,0.1006577,0.2993096,-0.6748749,0.14915836,-0.028878927,0.073495865,0.64663184,0.7565944,-0.4740125,0.07738674,0.78398085,-0.37599325,-0.36362433,0.38189673,0.08219898,-0.8946601,0.7928169,-0.9751049,0.9212501,0.5834143,-0.87485874,0.80360186,-0.47929573,-0.8775617,-0.32327497,-0.5156405,-0.25382614,-0.06754458,0.65942955,0.506722,0.081763506,0.7339344,0.38036442,0.6666205,0.9754081,-0.31136382,0.5134877,0.8524047,0.44853187,-0.5503906,0.3210448,0.78526866,-0.84782434,0.04361689,-0.4450128,-0.055196166,-0.9892949,0.24250543,0.3268888,0.0325135,0.6945174,0.6488321,0.23013091,-0.084678054,-0.10426235,0.4986291,-0.21570969,-0.6673788,0.60776126,-0.008904219,0.87939835,0.4426366,-0.84445226,0.08371699,0.55270505,0.14663804,0.71945214,-0.65010285,0.056869864,0.72637105,-0.50259554,-0.10242903,-0.89357746,-0.7362721,0.057831645,0.27290452,-0.9001626,-0.62834203,0.660588,0.7758477,0.3707713,0.9708499,0.64778626,0.43325925,0.55942667,0.16791034,-0.7618265,-0.25388265,0.8991349,-0.010144353,-0.6677984,0.21440184,0.10408437,-0.17718232,0.18258166,-0.26704824,-0.30495012,0.14488828,0.5153022,-0.5995015,-0.22811997,-0.027676463,0.97100437,-0.18123543,-0.060994625,0.23903191,0.8062818,-0.029243588,-0.45308876,0.31596518,-0.16047919,0.13643539,0.08551204,0.58324206,-0.6321614,-0.65505445,0.46923196,0.35412407,0.94695187,-0.78163075,-0.42716098,-0.47915852,0.19524693,0.5620483,-0.44184244,-0.56234455,0.48222065,0.08539641,-0.24962628,0.73881495,-0.68161964,0.5907266,0.45440996,-0.72622406,-0.63930917,-0.99112487,0.49361217,0.17756021,-0.11460221,-0.3891194,-0.57739913,-0.14044726,-0.2972486,0.23094952,-0.9026656,-0.4536302,0.60556257,-0.82930315,-0.42139256,-0.26785755,-0.42177653,-0.060863495,0.025003672,-0.19121099,-0.67488325,-0.4322703,-0.5404587,0.1107043,0.24523365,-0.32584107,0.63177514,0.7741823,0.50044334,0.6526804,-0.21216524,-0.4917543,0.08419645,-0.93423903,-0.13782048,-0.03754866,0.5761963,-0.86083937,-0.026763558,-0.79631436,-0.80882084,-0.79475784,0.41048276,0.33605146,-0.5551505,0.5544009,0.1498394,-0.25865364,-0.6317314,0.87459075,0.15568638,-0.70395184,-0.44707918,-0.54954934,0.51961946,0.3948573,0.18645847,-0.3379116,-0.707499,-0.7349763,-0.06000173,0.88801503,-0.52820885,-0.60235715,0.5361116,-0.71747506,-0.25113392,0.5429801,-0.036755085,0.66540766,-0.190822,-0.53999484,0.3506782,-0.015934348,-0.9119127,0.2623626,0.9904039,-0.31260204,-0.655931,0.114264965,-0.756896,-0.42114532,-0.9852395,0.87819123,0.7699623,0.33335912,0.21013176,0.44011366,-0.6774006,0.6235355,0.8666613,0.22032964,0.4591744,-0.73366606,-0.81773436,-0.62974155,-0.9669219,-0.7805902,-0.6304469,0.7793741,0.27904773,0.15807521,-0.5055871,0.2787683,0.63733625,0.75315225,0.4180578,-0.7401248,-0.35619938,-0.97840464,0.416075,-0.07850611,-0.8935373,0.14503169,0.6107874,-0.34496224,0.44195974,-0.08514345,0.08694005,-0.521616,0.32224822,0.6059905,0.86165786,-0.9175503,-0.22420478,-0.48002064,0.18686843,-0.23448598,-0.6521989,0.61221933,-0.04850316,-0.33349538,0.30522907,0.776502,0.33113897,0.12402141,0.7446519,0.13160336,-0.84549487,-0.27801573,-0.39934266,0.14502215,-0.53252196,-0.9890772,0.45356524,0.0023105145,-0.7867917,-0.8998451,-0.24737728,0.7370672,-0.09959662,-0.92584527,0.8345394,-0.9294077,0.67787385,0.35992038,0.8132274,0.765313,0.8036592,0.23687744,-0.40765357,0.3270718,-0.95136297,-0.6824819,0.2554897,0.24224162,-0.25758827,0.29805136,0.09557891,0.81299853,0.584759,-0.9853388,-0.82289505,0.66635764,-0.4183997,-0.045319796,0.49170876,-0.038274646,-0.89342487,-0.9119252,0.7601825,-0.431139,0.848336,-0.93296814,0.41131532,0.8691716,0.16080868,0.5219172,0.069043994,0.47364128,0.81222403,-0.09451556,0.8069767,-0.74334276,0.24072433,-0.9720566,-0.010669708,0.3276881,0.6928568,0.925622,0.08973646,-0.69320667,0.990399,0.4951508,-0.73713267,0.738096,0.5021025,0.652449,-0.29843783,-0.3223275,0.47088683,-0.40608728,-0.6278782,-0.23804164,0.4010228,-0.21442509,0.9785334,-0.5709598,-0.21189117,0.13241565,0.106490016,0.5954212,0.7882862,0.33647776,0.7196969,-0.32017088,0.7968576,-0.91490245,0.8084521,-0.8949481,0.7485676,-0.9613389,-0.6592777,0.2083292,-0.666958,0.71502423,-0.015826702,0.0767051,0.7611897,-0.94767785,-0.043810725,-0.20760846,-0.5158427,-0.3081795,-0.82339215,0.09438527,-0.19622302,0.20666528,0.19912529,0.5341867,0.015239239,-0.16691554,0.35158396,0.839265,-0.5250648,0.42097175,0.5779408,-0.5139482,0.47143233,-0.7399602,-0.77858424,-0.96654403,-0.4252243,-0.6212369,0.2889769,-0.026610136,0.63492763,-0.11353016,-0.004949689,-0.2010622,0.98705184,0.23514521,-0.9239166,0.28706932,0.75674,0.36286294,0.41184616,0.71933365,-0.4168303,0.11503911,-0.46772492,-0.0236516,0.8434231,-0.8104652,-0.8646023,0.3437611,-0.054148674,-0.16824055,0.74550307,-0.99782276,-0.024866462,-0.97947824,-0.047932863,0.24737513,-0.24182498,0.5065795,0.8906375,-0.014452219,0.25169766,0.7301972,-0.04282689,-0.03287828,0.04119897,0.43082428,0.8908316,-0.41668224,0.10459411,0.659032,0.51592326,0.16183221,-0.9754665,-0.89932406,-0.83436775,-0.89369905,-0.31889963,0.463686,0.5099821,0.74154055,-0.17387247,0.974319,-0.79028773,0.30561447,0.6769289,-0.6760012,-0.09998906,-0.52905357,0.5416591,0.7495258,0.60014176,0.31711066,-0.81409466,0.7366735,0.20539641,0.088109255,0.9297421,0.9391141,-0.6689075,-0.76137364,0.4780681,-0.100109816,0.4983604,-0.81471026,-0.30296862,-0.7233772,0.6648443,-0.3645146,-0.09990084,0.22221637,0.20003378,0.40602767,-0.48319805,-0.14534605,-0.87193,0.34166706,-0.22047818,-0.29753876,-0.7319169,0.26844323,0.0074647665,-0.116659045,0.90430164,0.14372909,-0.87778807,0.6550902,0.7047523,-0.061347008,0.8277613,0.6728941,0.003774166,-0.43540728,-0.84421563,0.6751143,0.168553,0.870473,-0.80330956,0.79094124,0.96747017,0.1844604,-0.20585418,-0.850515,-0.8573351,-0.84119093,-0.7353927,0.3235824,-0.2843902,0.24366474,-0.5526314,-0.7277198,-0.28636634,0.5344347,0.71728086,0.2796806,-0.12591624,0.62535954,0.49519062,-0.050875783,0.29574215,0.8965429,-0.49407864,0.47060943,-0.43774116,-0.78272474,0.46043324,-0.6623856,0.7249546,0.47092533,0.03569162,-0.10825527,-0.16636515,0.86262643,-0.48983705,0.5438584,-0.28660262,0.44138026,0.60189533,-0.84288037,-0.8681328,-0.49700463,0.35046196,-0.020285726,0.056133866,0.30144823,0.23219562,0.11910105,0.016128778,0.62568545,-0.97535133,0.37722814,0.049056172,-0.6763929,-0.4802524,-0.675944,-0.77242994,-0.68506324,0.34234214,-0.24999166,0.980502,0.17032778,0.9391259,0.36718476,-0.0992744,0.33271003,-0.665946,0.38446712,-0.3650558,0.493029,-0.94494283,-0.8764303,-0.7847885,0.07552278,0.88032436,0.71940076,0.9811913,0.88576627,0.5739138,-0.023196459,-0.78311646,-0.9849248,0.34463656,-0.09976792,0.93153036,-0.76608443,0.285192,0.78442156,0.15592706,-0.20650852,-0.13905859,0.36379337,-0.728729,-0.4170668,-0.92273355,0.16597164,-0.48752618,-0.31304884,-0.7900475,0.88503945,-0.3690765,-0.27428234,0.686591,-0.012706041,-0.9508985,0.39314198,0.38493383,-0.48512042,-0.7821729,-0.10493922,0.9994302,-0.35213888,0.22548187,-0.49420524,0.028235078,0.012429595,0.8738133,0.37637115,0.8154403,0.5504935,-0.9685836,0.2394383,0.59812677,0.43588114,0.8182218,0.87253904,0.4170537,0.6044152,-0.035544753,0.58514225,-0.6775061,0.32936382,0.3281232,0.5758283,-0.34621394,-0.7428111,-0.5820612,-0.5227239,0.97863877,-0.69978774,0.14849281,-0.42970228,-0.1451124,0.39574707,-0.7798853,-0.39638817,-0.9928576,-0.27841592,-0.04975736,-0.8833544,0.0085635185,-0.586112,-0.7073567,-0.99713635,0.06564176,0.15476024,-0.2734338,0.18359935,0.7851989,-0.5326799,0.11002529,0.12096989,-0.43054938,-0.905388,-0.010892272,-0.6251476,-0.34235716,-0.6494874,0.3127824,-0.45220673,0.019904852,-0.3454765,0.49171877,0.025261283,0.8696867,0.49097228,0.71067965,0.0095222,0.7460481,-0.8577951,0.73071575,-0.9011724,0.09449053,-0.47962093,-0.9706321,-0.8821868,-0.89220977,0.03397417,-0.47923934,0.86124873,-0.5329368,-0.26409554,0.723698,-0.44147015,-0.3687271,-0.95237625,0.7986388,-0.86221015,0.5110719,0.04509151,0.7657392,-0.2925781,0.076958776,0.0048879385,0.6699306,-0.816689,-0.12058711,0.4098028,0.17875612,0.32302773,-0.82866347,0.13462615,-0.8419131,-0.53546596,0.80859697,0.15956557,-0.5660355,-0.4884293,-0.6727296,-0.6071969,0.5917152,0.12480092,-0.25024486,0.17699206,0.20501983,0.57414424,-0.7782911,-0.70644176,0.43513238,0.79687774,-0.085558295,-0.47123218,-0.10608041,-0.89260256,0.85038257,-0.42356527,0.52216923,-0.7358422,-0.36843896,0.1580751,0.7992157,0.21756792,-0.7726457,0.57249725,0.25350332,-0.851797,-0.33326757,0.055261016,-0.3370818,-0.05680728,0.03714645,-0.45239484,-0.6541325,-0.38962495,-0.26186955,-0.24222136,0.1562463,-0.96761096,-0.7422428,0.4793303,0.584198],"bias":0.15017098},{"activation":0.19105795,"weights":[0.96447825,0.24244678,0.34974408,-0.34078276,0.9061239,0.7718774,-0.9924201,0.7364178,0.57932377,0.7095667,0.51370955,0.25246572,0.54963386,0.47794032,-0.60330117,0.08606148,0.10485542,-0.84364986,0.55039,0.47153485,-0.7839211,0.07250905,0.8407618,0.5077146,0.25660622,0.32961524,-0.04915428,-0.62022054,0.35623646,0.5368408,-0.039775133,0.70668364,-0.33636844,-0.07338297,0.40855753,0.8253356,0.16842699,-0.5673574,0.389341,0.56188524,-0.11745465,-0.7664113,0.32741976,0.01413393,0.4614042,0.97697544,-0.802009,-0.2657287,0.122852564,0.6412419,-0.9769919,0.21334684,-0.63976717,-0.17478383,-0.8500531,-0.9151199,-0.70924973,-0.0054872036,0.17597663,-0.63635194,0.0659796,0.24679852,0.5094265,0.8215332,-0.65481114,-0.27455688,-0.72996664,0.16466868,0.09466112,-0.5341008,-0.29906833,-0.5884371,-0.0137912035,0.9325806,0.8559716,0.09759629,0.0323776,-0.66515434,0.39295304,0.92374,0.9642458,-0.6440146,-0.70148075,-0.34485388,-0.4635936,0.96417093,0.27617633,-0.8055943,0.2183106,-0.041558027,0.79819584,0.5072026,-0.8212675,-0.1472305,-0.88489616,0.845876,0.7421007,0.81358004,-0.21000266,-0.6561135,-0.45958078,-0.8264915,-0.23993886,0.5959209,-0.22366548,-0.9462533,-0.8537848,0.11999953,0.4727186,-0.7439648,0.69648445,0.31642902,0.6133796,0.5101861,-0.39154541,0.5528176,-0.70657015,0.10385811,0.84558845,-0.9255239,0.31919634,-0.90497816,-0.92072344,-0.02162683,0.2549106,-0.6475111,0.37630332,-0.06580365,-0.7828773,-0.22963059,-0.36830556,-0.55337596,-0.32590425,0.353644,0.31829202,0.5225735,-0.19506514,-0.5559124,0.92479503,0.40376198,-0.10519314,-0.14780498,0.16666043,-0.3290187,0.70489097,0.5660255,-0.5091548,0.89115286,0.8760469,0.54895544,-0.8715513,0.25768507,-0.25159025,-0.21551359,0.33647406,0.26002157,0.14845288,-0.09020424,-0.688499,0.5582355,0.12510574,-0.49658346,-0.7025806,-0.7178967,-0.04757595,0.22852838,-0.7208476,-0.284325,0.76511526,0.28141952,-0.3299086,-0.6132401,0.026987314,-0.9349619,0.84132695,0.18006873,0.7652825,-0.07231629,-0.24329972,-0.4079702,-0.9467211,0.94750047,0.8325435,-0.619825,-0.7005683,-0.8190545,-0.07745707,-0.4344561,0.4580356,-0.27190804,0.78257155,0.6321286,0.034914494,-0.11462271,-0.27360225,0.8233875,-0.46259558,0.7372719,-0.98577094,-0.6990298,-0.35679018,0.36596262,0.7071415,0.735309,0.55683005,0.6442927,0.8166647,-0.21824408,-0.71566474,-0.8088739,-0.8164034,-0.46714222,0.61592185,-0.7400075,-0.2316829,0.78292215,0.6245372,-0.6742053,0.593987,0.06954527,-0.5709654,0.8322352,0.46261,0.4324429,0.6400527,0.9456084,-0.8950845,0.4709909,0.74966455,0.3920002,0.46905065,0.79031265,0.73449266,-0.9988265,0.25068688,0.74631965,0.81658363,-0.8433697,0.24469078,0.7581793,-0.5397459,0.8490684,0.50631523,0.03061223,-0.812448,-0.19279492,-0.23162699,0.31202435,0.9587045,-0.25895917,0.845783,-0.85460556,-0.018349528,0.7244096,-0.917176,0.55207944,0.6033883,0.826246,0.2294097,0.18866313,-0.04964626,-0.2557677,0.2608143,0.32201552,0.19987392,-0.7915462,0.34127426,-0.94807875,-0.38094056,-0.35015845,-0.4017694,-0.5437342,0.35351586,0.7430935,0.080166936,0.83198595,0.064685345,0.7502028,-0.25437355,0.91798663,-0.90472734,0.5046203,-0.6444715,-0.20040119,0.09507263,-0.49419594,0.8931676,-0.76326084,0.20205045,-0.2428664,0.62335193,0.58088386,-0.689741,-0.9807023,-0.7362199,0.09773016,-0.8720306,0.09561491,-0.47388804,-0.6379858,-0.4525895,0.27883506,0.5326493,0.92746854,0.83422565,0.14036381,-0.035098076,-0.5710813,0.7935723,0.08504665,0.7731545,-0.3399837,-0.2596097,0.33756137,0.048177242,0.56767607,-0.18136847,-0.30527663,0.34040546,0.4301877,-0.34322214,0.5337918,0.108122826,-0.8758694,0.13592505,0.19014585,-0.5677875,0.12384379,-0.90218365,-0.6128626,-0.112902045,-0.36495054,0.103238344,-0.9548942,0.6629939,-0.76685035,0.14760995,-0.7585676,0.98642933,0.2928449,0.5550765,-0.42724812,0.8772743,-0.07580364,-0.8946645,-0.56124866,-0.61510324,0.17680514,-0.81971,-0.78396595,-0.43931866,0.7792362,-0.9870182,0.2772436,-0.36063993,0.10092449,-0.74021506,0.053326845,-0.40471685,-0.5215317,0.19891453,-0.39823735,-0.91305375,0.3423909,0.42084515,0.08160913,-0.2038989,-0.547729,0.3834418,-0.8773457,-0.1116488,-0.055075645,-0.18155587,0.2885958,0.42812896,0.75855625,0.20132399,0.4974494,0.8656703,-0.3502152,-0.6243199,0.77985525,-0.025378466,0.7054429,0.39365518,0.000003695488,0.8751457,0.8471465,0.10297799,-0.96948946,0.20285976,-0.8412503,-0.7290995,-0.8419732,0.21534085,0.27565122,0.7618729,-0.8508924,0.12194216,-0.3394884,-0.26602852,-0.31306982,0.08191788,0.8661059,-0.29215705,-0.9934341,0.39241552,0.53099036,-0.87887204,0.8419168,-0.7859882,-0.13880861,0.44707716,0.2634169,0.05485022,0.3976282,-0.959514,0.74577296,0.059824586,-0.70764506,0.5043433,0.3879012,-0.57975006,-0.2228849,-0.25424302,0.83449674,0.17357838,-0.50714445,0.7857548,0.60563064,0.32235467,-0.8331518,-0.17343354,0.9428569,-0.616981,0.5983292,0.28567564,-0.33027244,0.29044545,0.59814477,-0.7958534,0.6791626,-0.24535525,0.48863018,-0.9381043,0.6205796,0.11168945,-0.3299049,0.015763998,0.6038184,-0.019816995,-0.040682316,0.81269157,0.653957,-0.29477286,0.9577254,-0.9363235,-0.58441937,-0.43758357,-0.93315065,0.30629647,-0.46166754,0.9304868,0.5554967,-0.12993479,0.34980035,0.03364277,-0.13364851,-0.98830485,-0.6693697,0.2813866,-0.62141144,-0.06890273,0.081104636,0.84601724,-0.96909857,-0.932178,0.30111384,0.966915,-0.94381416,-0.28445995,-0.3276739,-0.22977829,0.91673934,0.6713555,-0.85073924,-0.11749649,-0.67765284,0.010186672,-0.74214494,-0.3501506,0.9714985,-0.45012105,0.94804287,-0.004465699,0.82625866,0.79934585,-0.752725,0.5113363,0.5769594,0.98254883,-0.119493484,0.1724006,-0.2704965,-0.007639289,-0.13422775,0.97597075,-0.21613824,0.4149195,-0.24410689,0.40491664,-0.45213163,-0.30576313,-0.20647132,0.6053815,0.5253936,0.17986012,0.3911786,0.6055702,0.16440439,-0.5043366,0.5713062,-0.9733256,-0.6018815,-0.30487764,-0.8221086,-0.5610298,0.17077541,-0.68827343,-0.37957716,0.19385326,0.6435648,0.66964376,0.69421923,-0.21411681,0.73021805,-0.11013174,-0.63632834,-0.3556918,0.30074918,-0.36784005,0.04105723,0.45904005,-0.4896692,-0.4437034,0.05324328,0.12400794,0.22431874,-0.05774057,0.8668072,0.07947993,-0.10778582,0.7789811,-0.7149626,-0.7364119,0.8567091,0.0033020973,0.97606754,0.67359376,-0.122152686,0.37630284,-0.7994319,-0.21955836,-0.6632612,-0.35932493,-0.24819672,-0.010636091,-0.39910734,-0.77194023,0.23110259,0.1599952,0.01763761,-0.5647644,-0.4979689,-0.38427413,-0.29080307,0.98152983,0.69472945,0.5714774,-0.12686813,0.74272823,-0.008277774,-0.5906942,-0.99676156,-0.47920322,-0.12189555,0.37424827,0.3565998,-0.4921341,-0.09831238,-0.09892905,-0.9054564,0.021834135,-0.3992654,-0.30583286,0.8916012,-0.41573274,0.27118242,-0.1886766,-0.9525626,0.36230016,0.91942286,0.33610225,0.87097585,-0.7364564,-0.73832965,-0.40489233,-0.6754793,0.34785736,-0.9549178,-0.2151761,-0.18920505,-0.4534092,0.03278768,-0.7997265,-0.9749898,0.8925153,0.28322113,0.4600066,-0.1005944,0.46733892,0.023958325,0.6046269,-0.42283726,0.20968163,-0.124150515,-0.17523146,-0.057681322,-0.39383543,-0.82779133,-0.5072824,0.05445838,-0.69736207,0.8178947,-0.5581521,0.3929336,0.8865197,-0.675177,-0.6266588,0.08274472,-0.98741055,-0.8453243,0.4775871,0.1719557,0.53901994,0.16275787,0.40794718,0.3432001,-0.23377848,-0.067640185,0.8504267,-0.20644379,0.93483245,0.2839861,-0.2527151,-0.021115303,0.9168873,0.02668643,-0.0741446,0.18592465,-0.5842173,-0.06929183,0.32499492,0.6824075,-0.05998671,0.55391765,-0.5767987,-0.11001003,0.054543376,0.19583952,0.6147326,-0.4196787,0.7146883,-0.7215477,0.78947663,-0.16213834,-0.41086674,-0.4064027,-0.39604735,-0.9186275,-0.03105867,0.4024012,0.29406226,-0.06746316,0.09025288,-0.9867066,-0.85102224,0.90771604,0.7250016,-0.18484282,-0.7624049,0.8517138,0.14016283,0.85156035,0.9428973,0.35964155,0.07260454,-0.94658303,-0.7450056,-0.45593643,0.008718252,-0.14013588,0.56508005,0.22446549,0.52714765,0.8355167,-0.7790234,0.71084666,0.98679566,-0.7961279,-0.35929358,-0.9527564,0.030139923,-0.25864565,-0.38800228,-0.9387051,-0.21186793,-0.0058579445,0.8834423,-0.04016471,-0.2443558,-0.9847956,0.47550273,0.7364409,0.19351661,0.06017387,0.06322348,-0.5847992,-0.279454,-0.9811709,0.4806174,-0.8649663,-0.69436383,-0.1038506,-0.21356034,0.85659266,0.9107075,0.8169341,0.77812207,0.5473639,0.9027375,-0.5145327,-0.048906922,0.5131657,-0.62650335,0.026673079,0.5897629,0.35823536,0.7629125,-0.028476,0.7062838,-0.48662102,0.09358084,0.6179732,0.1513319,0.84593916,0.5758277,-0.6068697,-0.5765077,-0.30379403,-0.73735106,0.7521962,-0.92763376,-0.42695546,-0.32115018,-0.011365414,0.5302769,0.009101152,-0.9192424,-0.37309837,0.08635306,-0.96279013,-0.20973706,-0.77448654,0.92518914,-0.3931203,-0.9615357,-0.7456423,0.6458708,0.9916636,0.52503085,0.06619179,0.30055344,0.4747634],"bias":0.67114013},{"activation":0.9960936,"weights":[-0.23894083,-0.9740169,0.06350362,-0.39460003,0.60257506,0.94320095,-0.7360016,0.57003784,-0.52197134,-0.89014316,0.84321,0.3765967,0.14062464,0.78030634,-0.5810516,-0.3276806,0.9802289,0.30991125,-0.713732,-0.5181502,0.81688964,-0.65107274,0.56207466,-0.02896893,-0.5410124,-0.027025104,-0.44154584,0.8178587,0.3134327,-0.28556895,0.8593625,-0.5324844,-0.9292003,-0.38616323,-0.47222042,-0.68870854,0.922112,-0.75974,-0.44511068,-0.8927771,0.3395127,-0.5451238,-0.96995795,0.36661148,0.53438246,-0.67055666,0.5738903,-0.8671104,-0.9674611,-0.12913609,0.3544531,-0.74503756,0.2450484,-0.96197295,0.16855693,0.11049831,-0.6990706,0.6818199,-0.2785921,-0.20375276,-0.2533915,0.99033,0.95048106,0.2450329,0.004274845,0.9485645,-0.74714506,0.071158886,-0.12239885,-0.600878,-0.65031517,-0.26619554,-0.78605294,-0.9672868,0.017961025,0.4787451,0.18329334,0.2595533,-0.6903355,0.10786545,-0.0724417,0.35103405,0.3821181,-0.11955845,-0.47642326,-0.49189532,0.28470528,-0.13737023,0.9431038,-0.94804394,0.8074446,0.5899519,-0.19801831,0.8675386,0.6796392,0.31455636,0.88987184,-0.3781941,0.7189919,0.9728706,0.39647102,0.92397225,-0.7518461,0.37309694,0.77971613,0.5852549,0.0481658,0.65949965,-0.8436551,0.8479973,-0.6813215,0.8870101,0.79261804,0.84193754,0.6430744,0.63846886,0.75788665,-0.64068127,0.5591109,0.07675707,0.8681816,-0.054767013,-0.08038938,0.12037182,0.87366104,0.91747487,-0.21010447,-0.4228623,-0.33628154,0.5090035,-0.05358088,0.90706193,0.77310574,-0.9204291,0.26911092,0.8507329,-0.61050665,-0.2846589,0.7435868,0.1851188,-0.7853863,-0.95047057,0.67519975,0.54406106,0.8043355,0.7579373,0.7422432,0.5321646,-0.49813592,0.27921975,-0.17929828,0.3166412,-0.6517935,0.79080486,0.6688558,-0.8662996,0.38830197,-0.44502735,-0.33360088,-0.824072,-0.35320485,0.32666326,-0.056597948,-0.4264151,0.6433066,-0.3222524,-0.21107602,-0.86907554,-0.8104632,-0.044698596,0.3480624,-0.7434398,-0.8872932,0.70416963,0.56677866,-0.7485597,0.5163348,0.7997148,0.8531226,0.10494876,-0.7313038,-0.67719257,-0.26938534,-0.5930841,-0.072122335,0.20657384,-0.7621254,0.09280908,0.24913311,-0.10871589,-0.021620393,0.31320977,0.9502475,-0.5542575,0.736325,0.5767443,0.82696605,0.4305266,0.36686528,0.29706442,0.01566267,0.85262346,-0.41032004,0.5177871,-0.95619667,0.65701354,-0.42511046,0.8632064,-0.6460538,-0.22670567,-0.44947398,-0.8490207,0.41870296,-0.89780784,-0.84315896,0.31571984,-0.88880074,-0.52135,0.6351026,0.039233208,0.18812251,0.47091186,-0.31848156,-0.16658819,0.4104023,0.35310948,0.13817275,0.27694285,-0.2095654,-0.9997877,0.9263294,-0.24103057,-0.9025166,-0.6927314,-0.6277745,0.08294082,0.17054904,-0.6985235,0.39081705,0.9206654,-0.14796829,0.06499052,-0.08275032,-0.6634972,0.4796399,-0.106745005,0.5214665,0.91037655,-0.52748835,0.087313175,-0.086159825,-0.7118162,-0.82757807,0.018122673,-0.73976254,-0.95580506,-0.514097,-0.41123927,-0.2845738,0.33437324,0.40516484,0.47063804,0.22765088,0.7646911,-0.6428559,0.9117588,0.05122757,0.5892612,0.31686425,-0.9730866,0.8803487,0.73681545,-0.65431166,0.32320642,0.15181637,0.7857474,0.8589448,0.10101247,-0.3185252,-0.849203,0.5591965,-0.8495767,-0.121451974,-0.44808888,-0.96860385,-0.14718568,-0.81065214,-0.4741286,0.96937644,0.66842926,0.5795038,0.7099736,0.6075456,0.99824,-0.25493205,-0.41994822,0.118403316,-0.26673293,0.55488884,0.38982916,-0.49676,0.4854809,0.40377903,0.11018121,0.09063053,0.30998242,0.37901187,-0.3997252,-0.23664069,-0.46401703,0.5318645,0.7850853,-0.35668576,-0.8152852,0.31079638,-0.0721755,0.8384595,-0.7111466,0.19677734,0.3107674,-0.835477,0.8499732,-0.5166191,0.50461566,0.8018123,-0.28739905,0.6476264,0.4632728,0.89338744,0.9712472,0.23057258,-0.9896276,-0.9386494,-0.57688403,-0.4997517,0.50862205,-0.09131265,0.6743139,0.94407415,0.31183553,-0.6071398,-0.15279281,0.20467019,-0.15121722,-0.8025336,0.26674592,-0.17308187,0.771976,-0.52728236,0.27290893,-0.49355173,0.04764974,-0.03406465,0.71536016,0.5344744,0.22806263,0.7380446,-0.5381148,-0.8928782,0.24144614,0.055153966,-0.7961602,-0.4776497,0.70929503,-0.07941401,0.5288801,0.98642576,-0.071149945,-0.015195608,0.30738854,-0.66768813,-0.18522382,0.55966365,0.23278987,-0.84812593,0.87321043,0.627079,-0.5057236,0.86355877,0.6622213,-0.05594015,0.21963847,0.30727875,0.13272607,-0.61056006,0.72467697,0.29246688,0.49852812,-0.45502877,-0.98501945,0.7156937,0.80452967,-0.512635,-0.28334105,0.31562328,-0.25909185,0.76534474,0.35233486,0.128667,0.77902806,0.46284735,0.738274,-0.9621562,0.39470994,0.043807864,0.028888702,0.5453017,0.68276167,-0.9705876,-0.1816163,-0.6703737,-0.95236945,-0.032130122,-0.8121022,-0.5130551,-0.35937035,-0.70387256,-0.8938421,-0.85850847,-0.52572465,0.8180152,0.8744483,-0.68055546,0.040296078,0.5677252,-0.9462886,0.64140344,0.953529,0.7010472,-0.25206184,-0.12237871,0.70562553,-0.060756564,-0.06232512,0.83676755,-0.8698958,0.44135904,0.0020051003,0.7125031,-0.047556758,-0.7993367,-0.6725235,0.050388575,0.68079066,0.8171201,-0.34863746,-0.8266516,0.8948842,0.3070488,-0.4293537,0.89261067,-0.68678105,-0.5651368,0.45104134,-0.6614841,0.96808183,-0.046004534,0.8422024,0.052409768,-0.8914865,0.9509733,0.6981455,0.5401968,0.6871171,0.43300486,-0.16978812,-0.71329236,-0.4209664,0.038370132,-0.47401762,0.77854884,0.8888322,0.7633964,0.41017652,0.4787413,-0.21762371,-0.24133086,-0.90372396,-0.57691157,0.8167677,-0.758314,-0.19049668,-0.11886358,0.060792923,-0.8210677,0.3850652,-0.77593076,0.4703046,-0.1398058,-0.20303154,-0.62705874,0.11492908,-0.61395335,-0.8080572,-0.28686833,0.844309,0.67520535,-0.08751202,-0.90204203,0.82444096,-0.41818023,0.06770027,-0.41254282,-0.53122723,0.43750918,0.70096004,-0.08727062,0.6111523,-0.14669156,0.7138736,0.104471445,0.4515711,-0.68826926,-0.26812828,0.060591817,-0.81517017,0.85338604,-0.25598705,0.30633342,-0.46112537,0.81769145,0.26925433,0.49831045,-0.6976856,0.6217191,-0.8544009,-0.98935056,-0.3929323,0.5026051,-0.6775253,0.8948828,-0.1617415,-0.40726137,0.22478092,-0.16844451,-0.07235873,-0.9006487,0.8480662,0.9285332,0.25212538,-0.8761523,0.5277618,0.37690318,-0.97132504,-0.75877523,-0.74869895,-0.1241647,0.5630748,-0.19240606,-0.5265186,-0.6842433,-0.13215828,0.98370135,-0.35144067,0.9864732,-0.38194823,-0.6828859,0.08947241,0.14451909,-0.38439953,0.70598197,-0.38542783,-0.80128336,0.9013574,0.5339483,-0.4997834,-0.39971113,0.12820673,0.0029910803,-0.3839699,-0.98764646,0.8379352,0.2542187,0.60606086,-0.5245817,-0.51531684,0.21286857,-0.14329994,-0.8437958,0.2437532,-0.83119607,-0.16935503,0.64590836,0.43173158,0.77653337,0.52118015,-0.27256966,-0.477736,0.44021678,0.8847257,0.8183409,-0.01439631,0.70381975,-0.45693862,-0.78208923,-0.46022427,0.88821805,-0.4903252,0.8960366,-0.8345581,-0.1553663,0.73309207,-0.7558559,-0.40538263,-0.12715304,-0.6727582,0.1776098,0.7722831,-0.6989211,0.26382232,-0.31035197,-0.8794917,-0.2783214,0.38547683,-0.2179308,0.22452235,-0.42103243,-0.6667857,0.15914285,-0.35351324,0.28985965,-0.37502658,0.92398334,0.8342377,0.695557,0.37454176,-0.4487102,0.25187886,0.110737324,0.3703226,-0.6625143,0.7739775,0.99452984,-0.7741064,0.9158987,0.6936288,0.56821656,0.84993327,0.49741352,0.29176974,-0.26020014,0.9429121,0.13407457,0.36353517,-0.54773295,0.3870014,-0.39835,0.7856052,0.40426075,-0.17511928,-0.9448074,-0.25686586,-0.72147906,-0.40301692,0.21899533,-0.66004825,-0.897627,0.53727114,-0.47419715,0.55483615,-0.8988004,-0.8570844,0.015506148,0.890116,-0.73498225,-0.505811,0.82814455,0.24067712,-0.6017295,0.769887,0.102336645,-0.94961417,-0.6591393,-0.07871473,0.96960497,0.84473634,-0.62401366,0.47887564,-0.66331303,0.82961404,-0.6167402,0.2298162,0.8840326,-0.7215779,0.15842867,-0.6914035,0.11046982,-0.45490694,-0.58541536,0.55063236,0.12311983,0.033480406,-0.38330805,-0.26873326,0.3267616,0.15289307,-0.16387546,-0.83803284,-0.2952323,0.8587955,-0.46190596,0.9290818,-0.66225195,0.06934273,0.9156399,0.38716066,0.44131446,0.9937806,-0.80212605,-0.4514346,0.7570852,-0.2688688,0.13018882,-0.9462491,-0.4053775,0.21263075,0.3661089,0.56137884,0.19128382,-0.90745544,-0.4840076,-0.36591113,0.8498695,0.7574705,0.8155235,-0.022218347,-0.27663004,-0.042834044,0.8069519,0.96192765,0.44952953,0.8382802,-0.6594864,0.4802822,-0.19645262,-0.607684,0.17257476,-0.99355686,0.07277775,0.13585782,0.3724327,-0.61916685,-0.9921442,0.8235085,0.19288754,-0.984928,-0.39897013,-0.77497554,0.45699286,-0.3627727,-0.013917685,0.17342925,-0.12198746,0.39470184,-0.22492135,0.93076575,0.2163893,0.72583044,-0.10493243,0.59397924,0.9990567,-0.040239334,-0.30514872,-0.5192189,0.074852824,0.99318874,0.99736273,-0.65818036,0.82121193,0.22290218,-0.87876284,-0.04866147,-0.093464494,0.54976547,0.8016753,0.51372504,-0.070583224,-0.85857105,-0.5856223,-0.9879199,-0.9252722,-0.53483546,0.5604905,0.7892251],"bias":0.4295463},{"activation":0.000040325955,"weights":[-0.57308567,0.8978106,-0.5416597,0.69721234,0.99079597,0.483171,-0.1524055,0.6696973,-0.9595525,-0.22624588,0.1871469,0.31754088,-0.90887964,0.22063625,0.9155396,0.3151027,0.9613236,-0.8525356,0.49291503,-0.43668497,-0.5430249,0.7160562,0.40106392,0.64615345,0.18490279,-0.56300676,-0.85549796,-0.6146612,0.92103314,-0.15038562,-0.03088212,0.007468581,0.34858048,-0.8725585,-0.775182,-0.8328097,-0.3546598,0.51828814,0.6303419,-0.7795553,-0.15294015,0.29784858,-0.5412601,0.26785147,0.44898355,-0.6471772,0.02675569,0.46511745,0.94805443,-0.7224759,0.14233291,0.32799613,-0.5135441,-0.74082935,0.24531698,0.008661389,-0.34313738,0.7248963,-0.0071468353,-0.5702841,0.3396293,-0.17864943,-0.34191334,0.8693489,-0.8586974,0.26657152,0.7731191,-0.7472031,-0.14277816,-0.76304615,-0.039902687,0.58839667,0.1562128,-0.30861914,-0.84920657,-0.2485658,0.3336476,0.0030829906,-0.3816234,0.77347064,0.8955505,-0.7248521,0.115336895,0.41335976,-0.5349214,-0.10031426,-0.59834707,0.95160663,0.1948731,0.23171139,0.9095938,0.44602418,-0.5974077,-0.88501287,0.95095956,0.26745856,-0.24999762,-0.3149792,0.2966838,-0.5502653,0.19958115,-0.28502178,-0.38332844,-0.4541154,-0.18056548,-0.566748,0.4538629,-0.64697695,0.32792306,-0.761747,0.53338575,0.77978146,0.86652577,-0.2757814,-0.43115938,0.74612,-0.07382405,-0.66550076,-0.8683059,-0.9427277,0.990582,-0.5615413,-0.51377237,-0.9275807,-0.9285078,0.4397025,0.9549866,-0.729866,-0.9888965,0.29814816,-0.67473304,0.3800726,0.48105836,-0.51698864,-0.46655655,-0.74754524,-0.5357337,0.7556845,0.30425036,0.29646993,0.314021,0.94387376,-0.5386931,0.6285697,-0.29150248,0.94900775,-0.34975553,-0.7949542,-0.5033035,-0.3040539,0.051439047,-0.04193425,-0.37641287,-0.5087241,-0.18580866,-0.778792,0.84316754,0.53485084,-0.008038759,0.22520268,0.43358552,0.67420447,-0.5114564,0.5177431,0.37839735,0.80593896,-0.95617974,0.18468964,0.42761445,-0.44473064,0.71936417,-0.60756934,0.5548638,-0.8536812,-0.2998172,-0.9783808,-0.864239,0.37671566,0.08177805,0.13902676,-0.59986925,0.063667536,0.9981494,-0.42609918,-0.87407243,0.64228785,0.5605421,-0.096435905,0.81383216,0.6912528,0.19083536,-0.876037,0.50145555,0.643818,-0.8558848,-0.5773448,0.7620101,-0.66932976,-0.1917001,0.56010556,-0.57490504,-0.7127464,-0.85730207,-0.39440763,-0.34558523,-0.80398,-0.7647829,-0.27390623,-0.7525281,-0.626011,-0.68040144,0.20698607,-0.6888385,0.19056177,-0.98338103,-0.85147893,-0.5104048,0.29381168,0.048021436,-0.5486375,-0.4927919,-0.27954698,-0.41464674,-0.718418,0.70667684,0.9757894,0.8272772,-0.23839176,-0.28672934,0.8869369,0.06958103,-0.65196216,-0.6525214,-0.057675242,-0.2063359,-0.741415,-0.85866904,-0.61163664,0.0146176815,-0.67469895,0.7693198,-0.6603395,0.17857802,-0.8181001,-0.18983293,0.4617957,0.96899366,-0.8741394,-0.7626023,0.10755515,0.022429943,-0.42468762,-0.22605741,-0.23877156,0.31717515,0.66664314,-0.6908835,0.05025053,0.08923268,-0.95320094,-0.45992815,-0.64509714,-0.9350072,-0.67405283,0.17498446,-0.17040193,-0.072891355,0.3437928,-0.99652445,-0.8995851,-0.21683455,0.43598008,0.24585176,-0.38546407,0.4979365,-0.79924965,-0.1554929,0.30498576,0.17357075,0.95479894,0.929773,0.008639932,-0.18906152,0.8266045,0.897467,-0.98262775,-0.6870576,-0.5834223,-0.82153285,0.88140094,-0.8580388,0.56090677,-0.42539394,0.016878843,0.26083267,0.3759632,0.6443695,0.21306586,-0.74560857,-0.6068127,-0.18845367,-0.22696054,-0.23154306,-0.57893455,-0.24901843,0.12681186,0.8918297,0.5914904,0.77670753,0.94855654,-0.91093516,0.1243583,0.22516894,0.1524024,0.35826933,-0.24129057,0.34585845,0.22683334,-0.31853068,-0.6297003,0.4903475,0.8186207,0.14915168,0.16383278,0.39435256,-0.5540099,0.919912,-0.6949605,-0.7311046,0.2313509,0.25427127,0.3696468,-0.06564331,0.017588139,-0.4462459,0.6939266,0.44284117,-0.5193511,-0.7581887,-0.43719947,-0.17667222,0.1290015,0.94203186,-0.3800776,0.119368315,-0.9934156,0.1986103,-0.31670344,0.21197617,-0.74319863,-0.8526757,-0.07944524,0.9482616,0.4439273,-0.25444114,0.7304089,-0.42966783,0.90463555,0.47578788,0.702438,0.44041514,0.45864248,0.99975383,0.13824952,-0.4726144,-0.49027586,0.80749595,-0.910831,0.7226294,-0.86655056,-0.53503144,0.069407344,0.34521604,0.19925582,0.48374355,-0.8571007,-0.5080445,0.71480155,0.9431616,-0.57352924,-0.24490261,0.8376912,-0.5325167,-0.45221066,-0.8264612,-0.5599761,-0.39549708,-0.16457367,-0.051579952,0.9146718,0.5680915,-0.6002042,-0.79651344,-0.17184806,0.19504964,-0.39154673,0.34348178,-0.54053974,0.7880329,-0.78214204,-0.3037125,-0.21207464,-0.30575883,0.3099134,-0.8270972,-0.13403308,0.6172844,-0.599615,-0.9886501,0.445503,-0.75491476,0.65243363,0.26170826,-0.8099184,0.7974782,-0.039864898,0.05270338,0.30450463,-0.8351356,-0.8287848,0.64758265,0.03989899,0.71500766,0.4103446,0.6892389,0.6254715,0.5820116,-0.6796241,0.3850665,-0.13582897,-0.47092474,0.12930381,0.69472396,-0.965657,-0.90179896,-0.8631849,0.23006141,-0.20661211,0.06345034,0.21582294,0.4581654,-0.392079,-0.97501206,-0.7966342,-0.55418956,-0.43299973,0.3777095,-0.8631264,-0.725155,-0.055619955,-0.86428666,-0.8124031,0.7774484,0.90689373,-0.15842247,-0.03206086,-0.80112386,-0.9469056,-0.3735559,0.7756947,0.14107227,-0.9869194,-0.9226574,-0.59402,0.34336162,0.37381756,-0.7510232,-0.66349506,0.01872778,0.024386406,0.38663137,-0.37833655,0.14272642,-0.55713975,0.22981453,-0.5712675,-0.7476647,-0.20837438,0.5744959,-0.7252332,0.41296208,0.73506165,-0.7202647,-0.5894394,0.51315033,-0.66409016,0.54690194,0.86092675,0.96998274,0.11882782,-0.99147415,0.8793303,0.61880803,0.2514212,0.5682466,0.82150495,-0.14510763,0.5585909,-0.15094733,0.93859386,0.7364775,0.9836341,-0.27501976,-0.66183805,0.93797576,-0.8481908,-0.5992187,-0.15949702,-0.9851595,0.77615654,-0.5142176,-0.024147987,-0.4742998,-0.6087824,-0.065187335,-0.15812838,0.4772668,0.93347704,-0.5118996,0.70721126,-0.96957064,0.47886968,-0.15086007,0.18464231,0.67576396,-0.33553064,0.26393414,-0.61707926,-0.510581,0.9521631,-0.5737227,-0.108893394,-0.023133874,0.2575786,-0.08470404,-0.66209424,-0.5984459,0.8496686,-0.38064122,0.60620034,-0.6322963,-0.96071696,0.65748084,-0.95449567,0.75228226,-0.9297464,-0.14923382,-0.7426938,-0.6059661,0.09817588,-0.36922908,-0.1971147,-0.18793035,-0.22067106,0.8874519,-0.100035906,-0.3713187,-0.19843674,0.020381927,-0.097931504,-0.61280453,-0.14048636,0.15827668,-0.18327618,-0.4895829,0.7770382,-0.0613693,0.32034683,0.017082214,-0.39808846,-0.793324,-0.87653625,0.88683295,-0.98351943,-0.94165015,0.1309377,-0.745942,0.9982047,-0.6220782,-0.29045928,-0.8228047,0.62112355,-0.8659457,0.9672202,-0.14273047,0.741843,0.8358991,0.34336376,-0.23749638,0.95344555,-0.39042938,-0.33736563,0.9634166,-0.06952405,-0.014229178,-0.67462325,-0.1708647,-0.709713,0.6581627,0.8323537,-0.33846748,0.65699005,-0.5043433,0.44776285,0.8201008,0.93479073,-0.008468509,-0.24557889,0.8396455,0.055585742,-0.5950041,0.08681464,-0.9808662,0.6801355,0.59220076,0.88043773,0.7679589,-0.86594224,-0.9790242,0.019523382,0.83905864,-0.936991,0.6766007,-0.3528942,-0.15107596,0.55935264,-0.18500185,-0.88017476,0.33669758,0.1481458,0.4884441,0.556759,-0.03843522,-0.024277091,-0.9481956,0.023299456,-0.8462658,0.6406876,-0.41213393,-0.68137753,-0.36484444,-0.2246517,-0.26196957,0.3910098,0.452793,-0.07811594,-0.81643236,0.68688965,0.23968816,0.75395834,-0.18584573,-0.5101712,0.30824256,-0.9655044,0.37864196,0.39283633,0.6634326,-0.19700146,-0.60619366,0.09009552,-0.8724687,0.55273473,0.10060263,0.6150272,-0.20230901,0.5967815,-0.4360988,0.71695364,-0.9041847,-0.87355626,-0.42200458,0.29521596,0.10101676,0.8558519,-0.67725515,-0.67637074,0.012912273,0.73150325,0.9034686,-0.24328125,-0.91095245,-0.24092436,-0.6995053,0.3243413,0.7868167,-0.4325279,0.17913628,0.45794022,-0.5481719,-0.2503574,-0.7869487,0.036309004,0.7548847,-0.14449883,-0.40345705,0.3749019,0.21455598,-0.3400141,0.02115345,-0.7424071,0.77185154,0.88246095,0.49327707,-0.8055059,-0.5246799,0.5188942,-0.41267896,-0.55239177,0.08269358,0.81846213,0.45429993,-0.15426946,-0.6856439,0.41157174,0.9593568,0.531314,0.49198985,-0.29374897,0.49655724,-0.6614729,0.87861896,0.5001751,-0.32313418,0.48861277,0.74689496,-0.5450797,0.46889114,-0.85726917,-0.4977981,0.8261386,-0.6197288,0.12217319,0.54965115,-0.109806895,0.4560511,-0.5114846,-0.6014118,0.12397301,0.54198205,-0.3129989,0.7641727,0.11478996,-0.13066316,0.8176521,0.7050178,-0.96845376,0.554307,0.9022963,0.5142455,-0.6839714,-0.88423824,-0.7194309,0.53126526,-0.038229585,-0.35992813,-0.28095937,0.13570702,0.7126144,0.018104792,-0.44382,-0.6579325,0.1075418,-0.85155416,0.49583185,0.9398545,-0.018094182,0.31778514,0.41360474,-0.14926565,-0.09290719,-0.005292177,-0.65154207,-0.37230456,-0.025307178,0.5818634,0.83169496,0.35211217,-0.1987462,-0.28532863,-0.27664936,0.5159502,0.6990057,0.8983846,0.60574675],"bias":0.5414973},{"activation":0.4870178,"weights":[-0.925014,0.48178136,0.8603108,0.17255461,-0.78793776,0.38433456,0.087878704,0.68268514,0.42993414,-0.9641061,-0.6561755,-0.8438964,0.27273977,-0.17608595,-0.3462335,-0.014226794,-0.031912804,-0.09922886,-0.10232282,0.81588686,-0.7351316,0.6539438,-0.71318734,-0.9204439,-0.96145177,-0.13118756,0.74087286,0.7531431,-0.8466027,0.69771445,0.37658072,0.008419752,-0.3913015,0.7710506,-0.060396075,-0.3198979,-0.8114759,0.94672453,-0.94682837,0.8188659,0.9582505,-0.31388736,-0.39531136,0.7925762,-0.6179917,0.83624244,0.36612976,-0.3783785,0.6343714,0.5426446,-0.03311324,-0.94920135,-0.13843429,0.60418177,0.5817753,-0.2808907,0.2273711,0.9243189,-0.8362415,-0.60005593,0.6427752,-0.5929545,0.7842735,-0.81006074,0.41519332,0.937181,-0.933174,0.06009507,-0.593359,-0.33729482,0.7469324,0.7514039,0.09454167,0.16652703,-0.3080777,-0.3616451,0.5324305,-0.75360966,-0.77132213,-0.7805407,-0.1266706,-0.8085649,-0.6360284,-0.37915158,0.33167124,-0.30890846,-0.7139479,0.120738745,0.62169135,0.20629716,-0.7087889,-0.1847471,-0.085264325,-0.046171427,0.22863865,0.16194558,0.16347694,-0.7963532,0.45664883,-0.54047656,-0.1066308,-0.7810234,0.66719425,0.18277478,-0.93596303,0.51244974,0.77030015,0.8586621,-0.17866933,-0.49654818,-0.35256708,0.3617618,-0.5918946,0.87725985,0.91206586,0.6492398,-0.8733345,-0.77416897,0.8920133,-0.24941158,0.24265134,0.77584505,0.6487074,0.22454357,-0.4885882,0.19087303,-0.20394707,-0.45522475,0.1551063,0.27716172,0.6937481,0.4918357,0.9001348,-0.0007581711,-0.2464261,-0.35252678,-0.7393483,0.8786322,0.2032398,0.6467655,0.046900272,-0.21535802,0.9375874,0.42464352,0.23985434,-0.28629363,-0.4416808,0.9779347,-0.9067271,-0.13211703,0.74640477,0.3153237,-0.68792117,0.09111452,0.020126343,0.7123383,-0.8074883,-0.5550715,-0.43115497,0.18394494,0.050948977,0.49568713,0.3609724,-0.6518016,0.6278486,-0.37367678,0.56832576,0.094663024,-0.5015956,-0.8956125,-0.40785015,-0.5098287,0.4066993,-0.80277216,0.6379914,0.50955975,-0.908937,0.051394343,0.62164044,-0.6257045,0.6921617,0.7353265,-0.42856443,0.76891387,-0.9650128,0.17343104,-0.4860294,-0.7180103,-0.21211994,-0.8175032,-0.6156497,-0.080497265,0.704878,0.3435092,-0.6783159,0.4387921,-0.6223241,-0.9761627,0.97320056,-0.9236816,-0.01421082,-0.1809603,0.27333426,0.9608002,0.2089138,-0.3474015,-0.21419287,0.19846737,0.29472005,0.5837103,-0.49065995,0.2876233,-0.80762553,-0.45274556,0.68331444,0.15678763,0.82454383,-0.16274643,-0.28068972,-0.6495832,0.13390243,-0.5732647,-0.050590158,0.18997657,0.9070047,-0.6776141,0.63108623,-0.62249315,-0.84575784,0.96182156,0.5648596,0.18989134,0.5674403,0.059877396,-0.36789083,-0.68735635,0.26025796,-0.22106111,0.27701247,-0.2870612,0.34421682,0.62012625,-0.90016806,-0.6349901,-0.30519056,0.5973091,-0.84547913,-0.46026576,0.4274652,0.8087871,0.3814695,0.4513377,0.33980572,-0.28905225,-0.31203592,-0.34872293,0.54423213,-0.033732653,0.6184671,-0.6078856,0.68779755,-0.9408133,-0.85672414,0.72028005,0.109521866,-0.59505117,0.92698944,-0.4683199,-0.42775297,-0.4978838,-0.7092302,0.7949232,0.6779939,0.3316096,0.45870554,-0.89797556,-0.9091724,-0.7428907,0.3777002,0.68861234,0.70726216,0.97841585,-0.76260555,-0.56818914,-0.2242496,0.17070365,-0.8645551,0.48807955,0.3658644,-0.42680907,-0.4772246,0.49948275,0.19054806,0.25694144,0.99594295,0.502228,0.8447913,-0.81759024,0.45629334,-0.05346918,-0.44619918,0.68740046,0.092471,0.5666257,0.56370175,-0.5155544,-0.8205255,-0.8705188,0.039182067,-0.32167983,-0.15255189,-0.035410523,-0.9372617,0.5722815,0.7376207,0.34863734,0.5765432,0.2483716,0.16438055,-0.9165653,0.6255053,-0.1295675,0.237319,-0.027901411,0.6188774,-0.8919375,-0.96697843,-0.58488,-0.9489002,0.902567,-0.5996946,-0.8601496,-0.030095339,0.35378063,-0.7488972,0.4150139,0.9197149,-0.6630025,0.8617718,0.31470954,-0.5570544,-0.9293281,0.024410844,-0.9950526,-0.03016007,-0.69967735,0.13533735,0.9574758,-0.9690584,0.008439064,0.1381067,0.58410215,0.8735529,0.59651995,-0.9505513,0.22860289,-0.31110144,-0.82589865,-0.41361117,-0.97623634,0.038196325,0.16693842,-0.6088027,0.27776885,-0.43647647,0.6940836,0.40056002,-0.5516211,0.23226261,0.27117467,-0.95446897,0.4606229,-0.26287067,0.91159594,0.9690298,-0.029853463,0.62711024,0.15473878,-0.9206524,0.92196,-0.8398701,-0.4487257,-0.62766194,-0.3514191,-0.10230029,0.35221636,-0.54349554,-0.30596745,0.83531225,0.37821043,-0.3545506,-0.1763215,-0.40781868,0.41011763,-0.40615225,-0.40592825,0.71214974,0.27305937,-0.53122747,-0.23748279,-0.624568,-0.6895337,-0.16736686,-0.9521016,-0.1294117,-0.057397723,-0.7110046,-0.14826822,-0.89420366,-0.7886754,-0.1469903,-0.7226902,0.89723873,-0.45831537,-0.6414871,-0.6568178,-0.32231784,-0.41588736,0.22918963,-0.7411865,0.32470322,-0.47183096,-0.03967333,-0.11835992,0.6650405,-0.83967125,0.17031384,-0.9685621,-0.9747827,0.3380654,-0.82647157,-0.9203106,-0.42787826,0.51334095,0.733551,-0.12525475,0.8616419,-0.021255136,0.59461284,-0.084275246,-0.33630192,-0.1922903,-0.7704824,0.8586546,0.9595034,0.6871078,0.12322867,0.85540926,-0.8425728,-0.2267896,0.9524121,-0.7100123,0.34773278,-0.85237825,-0.4165913,0.27562296,0.72268033,0.48649037,0.6322994,-0.650653,-0.67642355,-0.54377437,-0.4878763,-0.17644358,-0.043197036,-0.8547474,0.50769925,-0.13592148,0.89519405,0.08759022,-0.5665395,-0.5703715,-0.89869297,-0.33621764,0.96502507,0.55133545,0.5328238,-0.76581764,0.09282935,0.5218555,-0.49335146,-0.8201282,0.8054328,0.38498187,0.5439435,0.43247843,0.03639424,0.7868562,0.17055154,-0.3216616,0.3289734,0.5116532,-0.5549208,-0.90081847,-0.19789016,0.5399656,0.6591245,0.6685374,-0.1946125,-0.018823147,0.007904649,-0.86854815,0.4420383,0.021447659,-0.87809396,-0.631619,0.8844739,0.5112388,0.7519996,-0.6172056,-0.62709975,0.34353018,0.23651564,0.07074642,0.4742639,-0.9532943,0.35749984,-0.058974504,-0.11459684,-0.18421805,-0.3870027,-0.37871802,0.28702724,-0.5460708,0.9620205,0.16079712,-0.26000595,0.5071796,0.37896526,0.8164276,-0.6828307,0.39191222,0.9763143,0.32559705,-0.03754878,0.9344969,-0.6422185,0.37961853,0.35200536,0.45630312,-0.35167134,-0.743461,-0.1995287,-0.23858428,0.4268272,-0.06644523,-0.6153672,-0.6870589,-0.32568812,0.86801696,0.07503629,0.23304963,0.25850093,0.5429473,0.4665848,-0.39446998,-0.11007035,0.15467858,-0.2425121,0.29215527,0.059153676,0.42571723,0.65808547,-0.53558636,0.0855124,0.33093548,-0.3544538,0.6752417,-0.9505192,0.35176814,0.21436751,-0.724524,-0.41648555,0.62905145,0.68666816,-0.24233711,-0.7717471,-0.83012474,-0.7211194,0.078668594,-0.5387268,-0.2560302,-0.63012576,-0.59297264,0.9577719,-0.5175408,0.10010004,-0.9179237,0.24558222,-0.6772287,0.3469875,-0.46307003,-0.17177343,0.55224645,0.59588444,0.49257493,0.69005597,0.32017267,0.2531562,0.18026721,-0.13121414,0.27835,-0.1106596,0.06851697,-0.67543924,0.4045298,-0.5729798,-0.67150104,-0.57130694,-0.1889782,-0.11804867,-0.9476,0.869575,-0.7260586,-0.59613943,-0.49808073,0.48673952,0.89840174,-0.31209886,0.57943964,0.33892572,0.48882616,0.26137018,0.3622321,0.017917752,0.69482565,-0.815171,0.8417858,-0.75496435,0.76609933,-0.8937565,0.8685943,0.59316576,0.028809786,-0.8013501,0.0016665459,-0.2599597,0.9603169,-0.2636745,-0.46624756,0.9073869,0.57696104,0.40085745,0.84696746,0.17742157,-0.02134788,0.5911437,0.29434,0.1639539,-0.37965,-0.87763965,-0.11830747,0.29825425,0.5091256,0.5345106,0.35956824,0.022384882,0.58011293,0.60833716,-0.81549704,0.50121045,-0.16147316,-0.1942805,0.8946017,-0.15033484,-0.29804432,0.2229408,-0.566272,0.14243162,0.48636246,0.69233406,-0.24324739,0.5109688,0.16889763,0.28697908,-0.21318579,-0.21959496,0.7401334,0.4900782,0.77743757,-0.046791673,0.58662534,0.9740478,-0.34786463,0.08619928,0.82684195,-0.5655575,0.9159403,-0.22444606,0.87744915,-0.65166056,0.19853747,0.8096342,-0.12871706,0.3353213,0.94507957,-0.049921393,-0.89220846,-0.116271734,0.5026108,0.4297601,0.569512,-0.078475714,0.42020917,0.01257813,-0.24559343,0.85735214,0.16904819,0.9966669,0.16504407,-0.3286773,-0.95445025,-0.37135148,0.9829508,0.8165604,-0.55131173,-0.42061198,0.4823103,0.8143033,0.62719,-0.5734364,-0.7104145,-0.8472271,-0.35491395,0.5518874,-0.7469678,0.13769794,-0.7982627,0.39995325,0.45947003,0.84186745,-0.86283493,-0.2753098,-0.15233588,0.27252162,0.24358952,-0.7650038,-0.49281955,-0.5660695,-0.4978311,-0.32866836,-0.35968733,-0.17287147,0.024133801,-0.6317394,0.5783539,-0.9406011,-0.14260817,0.36416054,0.8611287,-0.3950405,0.25575435,-0.16098022,-0.84561336,-0.9263307,-0.8639746,0.14458227,-0.07816279,0.30342615,-0.53559935,-0.94738936,-0.062075973,0.27611923,0.82691133,-0.2503966,0.57429874,0.820001,-0.117213726,-0.5739299,-0.17143524,-0.66653347,-0.84996605,0.5757421,0.4068284,0.7773117,0.35607946,0.4029373,-0.11626482,0.3276869,0.92679346,0.7587179,-0.61955345,-0.5057068,0.22585583],"bias":0.31556106},{"activation":0.99779046,"weights":[0.2171166,0.9075813,-0.8828205,0.8985518,0.4646386,-0.1831187,-0.19917977,-0.3406484,0.10071564,-0.08928037,0.66773,0.041385293,-0.17846262,0.33516264,-0.04590404,0.91326797,0.6818017,0.6166167,-0.9498414,-0.5612861,0.37559283,0.27415204,0.4823879,0.1924417,0.28016925,0.59667957,-0.7986549,0.9105047,0.9631692,-0.5498866,-0.5429479,0.021288157,-0.17796266,0.66188264,-0.04491794,0.42059743,0.0848124,0.9325496,0.51944065,-0.68193805,-0.82544494,0.9595188,0.1019783,-0.9379842,-0.24248457,-0.25486612,-0.6933557,-0.7983506,0.8571569,0.62202716,0.948586,-0.35184407,0.12048304,-0.26794398,-0.3606335,0.5762321,-0.18204606,0.289932,0.75385773,-0.29477477,0.23802412,0.8733605,-0.3911469,0.38755953,0.7703433,0.120479584,0.9018825,0.4144919,-0.21049213,0.08509958,0.322474,-0.035298347,0.6534306,0.10018349,0.65797675,-0.011185765,0.5847529,0.24384654,0.9247018,0.75214756,-0.0945065,-0.54420865,-0.048980117,0.9174348,0.094834924,0.2012608,0.6370758,-0.6828536,0.1536771,-0.57255316,-0.25326288,-0.5590043,0.021936893,0.27504528,-0.8320241,0.787186,-0.03354001,0.31310606,0.4261905,0.50259304,-0.47304678,-0.93421197,-0.30420792,-0.5352452,-0.41712594,0.79170644,-0.6082871,0.5477756,-0.8442695,-0.1322931,0.041072607,0.66828346,-0.9124036,0.9277371,-0.79784787,0.8272859,0.112686634,-0.53765607,-0.27727485,0.5136869,-0.9902991,-0.3045107,0.6237923,-0.95021486,-0.8099996,0.95803964,-0.9916247,0.67554665,-0.7449323,-0.59954846,-0.59896827,-0.27740943,-0.020793676,-0.44654965,0.39458215,-0.4581703,-0.612651,0.6363132,-0.8055334,0.47236967,0.5711396,-0.43395388,-0.36014533,0.009642959,0.005473733,-0.27870154,0.17921364,0.11753762,-0.77083373,0.6286546,0.3503064,-0.96499205,0.5112102,0.5729245,0.80455494,0.3277564,0.58399427,0.37204015,-0.6538987,0.83008313,-0.6334406,0.69466686,-0.9018134,0.25553632,0.660177,-0.27356398,0.37557626,0.7363658,0.19917226,0.5364132,0.9639673,-0.70296323,0.106218934,0.5759171,-0.36611724,0.32587194,-0.5759977,-0.5052581,-0.010330558,0.3344648,-0.33385682,0.06670761,0.9588052,-0.6264324,0.26580632,0.4914528,-0.29119313,0.12934697,0.4315083,0.59309363,0.94463193,0.7528757,0.6973685,-0.45108414,0.3573327,0.4534539,0.6441709,-0.21231246,-0.2915752,0.016050816,-0.036059022,-0.40507984,-0.9886292,0.16796005,-0.7587831,-0.25153697,-0.700914,0.6532495,0.95946264,-0.6695148,0.44744217,0.7768332,0.5993264,0.00012457371,-0.80302835,-0.41250956,-0.80147445,-0.49565315,-0.58301973,-0.29519784,-0.17709279,0.93174064,-0.3552984,-0.44658864,-0.11599636,-0.8376881,-0.96919227,-0.4452951,-0.35802615,-0.90025675,-0.056340814,-0.9736154,0.43168592,-0.9235109,0.10536063,0.7138083,0.5918256,0.4309038,-0.5344833,-0.69958925,-0.5504079,-0.58670175,-0.71563435,0.52380586,0.18855643,-0.8429055,0.7044108,-0.029693723,-0.8817574,0.7297039,-0.93484366,-0.7450874,0.34285855,-0.008483052,-0.12827086,0.49245632,0.8801962,-0.8569107,-0.41436863,0.1166805,-0.38094056,0.98734605,0.6342536,0.9864677,-0.65410304,0.53274286,0.63757575,0.60036373,0.854048,0.5619259,-0.51637805,0.25030684,0.13034523,-0.1075294,-0.9973111,-0.35837042,-0.16614401,0.78969574,0.6894336,-0.9743644,-0.35338545,0.74346304,0.7405826,-0.5152899,0.7885051,-0.003296733,0.09586215,-0.097141504,0.4846611,0.25999653,-0.0077935457,0.54239964,0.05292189,0.07659042,-0.134714,-0.13220668,0.38322198,0.46569586,-0.008926392,-0.9165729,-0.10654104,-0.52992153,-0.26198387,-0.14610732,-0.7241849,0.90728366,-0.38473582,-0.9285364,0.51991117,-0.1578238,-0.9008707,0.06640577,0.24779212,0.6338248,0.90797627,-0.5086633,0.35073602,-0.34755564,0.19933748,0.7483448,-0.8209007,-0.76033735,0.3733368,-0.8395922,0.7177149,0.34007478,0.34432733,-0.38487208,-0.27263725,-0.01033628,0.20487452,0.10773432,-0.79612756,0.39241552,0.8574647,-0.56714237,0.984771,-0.36422396,0.68380237,0.3442906,-0.80387294,0.19741797,0.798579,0.23533607,-0.9171467,-0.80833066,-0.18303764,0.08215737,-0.3256806,-0.3879546,0.662109,0.29312932,-0.2254467,-0.34544277,-0.009758949,-0.7531376,0.5138749,-0.8321785,-0.8680023,0.90317583,0.8445542,-0.21886265,0.36487067,0.2507292,0.7734666,0.24379182,-0.87314343,-0.6393391,-0.48266292,-0.07373321,-0.57478154,0.87271285,-0.7434882,-0.60896003,0.020420313,-0.20122278,0.8855994,0.26544058,0.52649546,-0.41748428,0.2525797,0.7610799,0.80200493,-0.9207846,0.779966,0.1140182,0.82540107,-0.98429215,0.07968581,0.14533758,0.13179243,0.30754483,0.90244687,-0.49477708,-0.5991256,0.64582455,-0.6275523,-0.38146186,-0.16649592,0.048620343,0.15446305,0.88367355,0.4407103,-0.12923682,-0.11132145,-0.6988101,-0.8050083,0.7619221,0.8945857,-0.4295591,-0.8658173,0.80183256,0.676859,-0.7794399,0.029696822,-0.88890505,-0.2953509,0.50006187,0.27048695,-0.2781391,-0.671836,-0.80746007,-0.08161914,0.38902235,-0.8383117,0.5232682,0.9698739,-0.09039092,-0.52621055,0.60695374,-0.40932882,-0.38366234,0.23323917,-0.37429452,0.915506,0.62861454,-0.01421237,0.42431736,0.3992777,0.23612404,0.6372807,-0.75761473,0.2455939,0.52385783,0.7969557,-0.4699787,0.7686547,-0.83339095,0.64409506,-0.26822567,-0.9455986,0.7114315,-0.7115313,-0.7368866,-0.6574874,0.89428234,0.7395222,0.8270352,0.8602414,-0.093307495,0.09545171,0.300215,0.35953438,-0.52093434,0.9749954,0.002447486,-0.036574364,-0.6829182,-0.5760056,0.13369536,0.3113302,-0.8024359,-0.50388634,0.9670603,0.81892467,0.35172033,0.2806071,0.4796275,0.2782923,-0.78894496,-0.75874984,0.20496166,-0.7037983,0.20472014,-0.83097935,0.66470504,0.9430653,-0.84236336,-0.2007227,0.54837656,-0.91458654,-0.32012308,0.70906484,-0.8988353,0.06887472,-0.48834527,0.10655391,-0.70322895,0.5045681,0.18799734,0.50166523,0.8572068,0.9587655,0.6251613,0.6901977,-0.8234323,-0.43688202,0.23134208,-0.48335707,0.44918835,0.53838515,-0.37631512,-0.7817172,0.6361635,0.19752312,0.8515214,0.9352367,0.8088627,0.84168684,0.2348262,-0.0800941,0.122666955,-0.25913894,0.35499012,0.87620544,0.021893024,0.8521813,0.9058548,-0.6604428,-0.8278855,-0.0337373,0.09046447,-0.8007158,-0.2400999,0.72193336,0.20643735,0.512056,-0.88221693,0.14591634,0.8527812,0.06607652,0.7693387,-0.73806953,0.07829034,0.56967926,-0.20774758,-0.23873019,0.5169915,-0.50251865,0.7844522,0.7717,0.7127925,0.7002963,0.21584141,-0.7417667,-0.5924176,-0.95521426,0.40775704,-0.59076416,0.5451294,0.9845259,-0.36973727,-0.1942594,0.90080297,-0.5441878,0.44720817,-0.31165957,-0.03140986,0.2667178,-0.71422184,0.0043514967,0.006606698,0.92912686,-0.63289034,0.26376188,-0.7931466,0.15939164,0.71346056,0.19396782,0.22143519,-0.080290675,0.90560603,0.45129836,-0.91585064,0.74345136,-0.3807739,0.21892929,0.30212355,0.2776791,-0.9330628,-0.5506022,0.84689426,0.27972472,0.5377996,-0.82820463,0.9718987,-0.10587597,0.67211413,0.69031453,0.5182394,-0.00032746792,0.29688084,0.47506595,0.1729728,-0.40618908,0.7426398,-0.58584285,-0.6057848,0.15895152,0.18603885,-0.49488974,0.37495065,-0.9839035,0.279729,-0.8531374,0.5392499,-0.73668885,-0.21253514,-0.41093373,0.7814493,0.11702311,0.32421303,0.84872484,0.29365826,0.75802493,0.42877662,-0.6858307,-0.13630044,-0.58070207,-0.81866825,-0.3754083,-0.4194125,-0.40188277,0.34784627,0.7901864,0.7320889,-0.14177668,0.723117,-0.9875475,-0.022596836,-0.97806907,-0.4620278,-0.3334918,-0.33196783,0.49297094,0.1486957,0.5193846,-0.5013933,-0.3271011,0.23906863,0.036334515,-0.8993046,-0.8556955,-0.15982378,0.6811254,0.07310188,-0.83144283,0.26674902,-0.98545694,-0.18427956,0.2638619,-0.55393267,-0.41295886,-0.3818667,-0.26683235,0.5328661,0.74021244,0.10307479,-0.27245688,-0.19352376,-0.07865262,0.78287303,0.7098851,-0.96278167,-0.56830895,0.846213,0.08415973,-0.05911219,0.89605093,-0.528538,-0.42571306,-0.33013785,-0.009682775,0.08587217,-0.5731164,0.696399,-0.49740016,-0.7808025,-0.8485702,-0.15807533,0.24349546,0.6952213,0.060607195,-0.20171344,-0.30588603,0.7584157,-0.9450755,0.36872184,-0.23452151,0.097738385,0.025771499,-0.64189696,0.3383851,-0.099987626,0.04836166,-0.96494985,0.12798357,0.9661027,-0.22380567,-0.053940177,0.40754604,0.84255505,-0.28914,-0.17261589,0.14315534,0.26432395,-0.8789116,-0.32814062,0.7021179,0.36555052,0.96849525,-0.2662418,-0.8229127,0.7938236,-0.87390816,-0.75998986,-0.34516072,-0.058955908,-0.76822424,-0.21140063,-0.3243271,-0.67600083,0.110750556,-0.8543283,-0.64919496,0.48249757,0.49319553,0.2680925,-0.9359093,0.4255259,-0.1640631,0.24479246,0.18758833,-0.3070761,0.3510437,0.2933067,-0.096514225,0.0032383204,-0.14063776,-0.0931797,0.805362,0.29268837,-0.9624187,0.9315486,-0.00027310848,0.6836841,0.564577,-0.5824168,-0.8768461,0.73968315,0.32713068,0.6122483,-0.29141843,0.43218362,-0.5649717,-0.83482313,0.21524417,-0.76828194,-0.84173286,-0.01996839,-0.5730649,0.9149616,0.46286476,0.14103794,-0.9623579,0.49325883,0.11962867,0.17847478,-0.5903065,-0.94253564,-0.024882555,-0.09617114,-0.69957733,-0.39665592],"bias":0.6782191},{"activation":0.82591444,"weights":[0.30868042,0.396127,-0.25732362,0.1543653,0.6761608,-0.13980842,-0.17416549,-0.7335341,0.9146631,0.9918158,-0.56231534,-0.47843635,0.17174113,-0.5074451,0.7946366,-0.6679387,-0.4705478,-0.44036174,-0.75302815,0.81058335,-0.41060615,0.5663905,-0.1046375,-0.7491189,-0.14165354,-0.5957644,-0.37249267,-0.40992486,-0.5302596,0.39957047,-0.72984743,0.08709395,0.38597023,-0.10871601,0.7922046,0.12659287,0.99298465,-0.88444185,0.09544444,0.73813415,-0.56113744,0.9044547,0.5033833,-0.0033414364,-0.3793025,-0.79627347,0.109033704,0.06649029,-0.89637256,-0.8565165,0.8128098,-0.28271437,-0.47895122,-0.24765313,-0.65117455,-0.5656599,-0.69421065,-0.7305472,-0.18723571,0.010330319,0.6638528,-0.8831941,-0.63095355,0.9244431,0.51002574,-0.42315638,0.14248526,-0.123257875,0.36374485,-0.9002528,0.065172434,-0.07484305,0.26028168,0.06472111,-0.6813946,-0.24833393,-0.63765585,-0.3428898,0.15138721,-0.9217857,-0.96785283,0.9143927,0.25082684,-0.6221248,-0.13229263,0.82557535,0.55051386,-0.11990464,-0.21019816,0.8854598,-0.38807583,0.23308194,-0.5485425,0.93438506,0.18453634,-0.31073916,-0.4829713,-0.817485,-0.5764576,-0.82884777,-0.14396596,0.41377544,-0.11541879,-0.5047066,-0.25281775,-0.03963399,0.9379815,0.69265294,-0.9834739,0.07420409,-0.5638186,0.7276279,-0.9996233,0.9830389,-0.0023651123,-0.9921342,-0.7516962,-0.6678455,0.4562279,0.9095924,0.81943166,-0.80238116,-0.3429376,0.2758484,0.9412583,-0.80270255,-0.83454883,-0.00840199,0.44144607,0.5743774,0.86374223,-0.30882347,0.626161,0.60398996,0.70762455,-0.111017466,-0.92704225,0.0854826,0.86378455,-0.81426144,-0.15358663,0.6885519,0.52177894,0.78836477,0.060179353,-0.3099954,0.34864593,0.031160355,0.4784087,0.8087013,-0.3475008,-0.7981361,-0.6382327,0.6393305,-0.9755199,-0.7974491,-0.61947966,0.89617395,-0.48458433,0.32624614,-0.59688246,-0.6841693,0.36367714,0.3751434,0.059942484,0.5555656,0.9332863,0.4153489,0.15311074,0.23678458,-0.18559384,0.35588777,-0.8314924,-0.36349714,-0.66510475,-0.7964401,0.5215062,0.83024096,-0.79586244,-0.6076151,-0.34444964,-0.14213264,-0.9088348,0.59337914,-0.5599842,-0.01224494,0.9146905,-0.8035333,0.14061952,0.37939155,0.13248074,0.48741078,-0.7956035,0.70817375,0.74399066,0.33338642,0.0855453,-0.7684313,-0.4196205,0.20023525,0.762609,0.9792613,-0.8488436,0.73637676,0.78190374,0.18198836,-0.24303293,-0.6794276,-0.07376337,0.7355467,-0.7994752,-0.4684769,-0.31736565,0.5124855,-0.26370728,0.7354785,0.2581253,-0.605034,-0.68830967,-0.50827205,0.5212227,-0.87642574,-0.37845767,0.67270434,-0.8185719,-0.89228237,0.43578637,-0.11404133,-0.40567267,0.7688812,-0.51739514,0.964856,0.5261899,-0.4278146,0.23819995,-0.67594016,-0.19748402,0.8947097,-0.98664594,0.97500074,0.40040672,-0.06755507,-0.70971084,-0.6487794,0.8291112,-0.40480006,0.83896136,-0.3543471,0.1250993,0.0046088696,-0.3697945,-0.7362484,-0.2175641,-0.24164963,-0.77564466,-0.32027352,-0.1288122,-0.7663567,-0.60219383,0.8644924,-0.7815529,-0.3523879,0.7183162,-0.2633232,0.6674707,0.18858445,-0.18045497,0.64797115,0.2041738,0.5114429,-0.9269204,-0.51655686,-0.25160205,0.49560106,-0.8729212,0.3365307,0.991176,-0.9538698,0.87678075,0.5685587,-0.14102423,-0.91552913,-0.33802807,-0.81437314,-0.25807965,-0.8723998,-0.9495305,0.3009838,0.861164,0.9647056,-0.40877414,0.22950912,0.4152392,0.36806738,0.32045186,-0.8758004,0.18234801,0.7711824,0.119776726,0.5598378,0.965873,-0.28346753,-0.35476613,-0.96165884,-0.9280118,-0.99943995,0.57942,-0.26024568,-0.8498814,-0.80348396,0.6789055,-0.8442615,-0.057869315,0.991158,-0.4074458,0.78745794,-0.90795434,-0.07097077,0.7919911,-0.6750314,-0.8264184,-0.88044345,-0.8315574,-0.8891289,0.72062945,-0.90084255,-0.4494815,-0.47147703,-0.9131609,0.15462112,-0.8424485,-0.3076793,-0.19214165,0.9742435,0.5672574,0.29173577,0.7771075,0.091481805,-0.96473134,0.84965503,0.8830447,-0.6369294,0.13575244,-0.9780432,0.3287748,-0.09023118,-0.9769126,-0.19752038,0.83023727,-0.5054138,0.68854535,-0.040708184,0.24551582,0.5295063,0.40599263,0.9991317,0.5415828,-0.6152539,-0.5667056,0.14353704,-0.66182745,-0.2230798,-0.9494376,0.47222972,-0.7685127,0.6551734,0.9691212,0.7620331,-0.897792,-0.19640172,0.7794033,-0.9886968,0.97969806,-0.072649956,0.9884151,0.097991705,-0.116898894,-0.2658596,0.3524568,0.91797805,0.43640172,0.5848,-0.57619464,-0.39671397,-0.71876466,0.66809034,0.9776125,0.12447822,0.11902428,0.6524056,-0.19622576,-0.49652827,-0.75532985,0.55633676,0.4753605,-0.036583185,-0.7364197,0.60757923,0.8367163,-0.34374654,-0.42027664,-0.61189854,-0.45082533,0.81630325,0.97645533,0.6018398,-0.7527839,-0.42336035,0.27063298,0.28068173,-0.07063258,-0.82744396,0.52356756,0.44419324,0.3031144,0.64046466,-0.7500702,0.8365226,-0.69069624,0.68395793,0.19922721,-0.49741018,-0.9532399,-0.12464106,0.18096781,0.54647243,0.3844831,-0.57373524,-0.6060903,-0.99344707,-0.32591045,-0.9965193,0.2806902,-0.7225374,-0.93449724,-0.35041678,0.073432565,0.3471681,0.7025149,-0.32919967,0.27382505,0.112813234,0.6241634,-0.4242071,0.81666493,-0.90520155,-0.8401196,0.68365026,0.16885495,-0.41108525,-0.5984734,-0.7516713,0.97884965,-0.10782349,0.15685177,0.7949294,-0.37516654,-0.3717265,-0.36566818,0.97984254,-0.8032155,0.10570347,0.31747937,0.29082525,-0.4061725,0.08159876,-0.022271395,-0.21755946,-0.6848475,0.839591,-0.32733214,0.30148304,0.55598664,0.94991434,0.43747783,-0.67355573,-0.32605994,0.72032785,-0.06864214,0.47625244,-0.7321509,-0.6962302,0.57990646,0.22489429,0.68429327,0.03240788,-0.59322107,0.67846096,0.66150236,-0.05430138,0.8931011,-0.3443681,-0.87513864,0.6492797,0.29794896,0.38424647,-0.9636111,-0.56866825,-0.7865813,-0.8042115,0.6443689,-0.9350828,-0.64541733,0.5373484,-0.92564607,-0.8673103,-0.5162498,-0.7477572,-0.75561917,0.08173394,0.8622625,-0.9959693,-0.57082903,-0.54174566,0.37528646,0.098881245,-0.8109062,0.32043266,0.6676191,0.66292083,-0.64360714,-0.48103154,0.3164295,0.58631575,0.3807373,-0.9547831,0.6817211,0.486238,-0.54651606,0.6789503,-0.5614313,-0.017959118,0.9961804,-0.5298811,0.59079015,0.7978395,-0.12507558,0.19790518,0.36891782,-0.6479579,-0.23610103,-0.25600493,-0.0016056299,-0.30631483,0.2826376,0.8764796,0.22607613,-0.3785138,0.38741183,-0.053974748,-0.79160404,0.27527785,-0.807758,0.8117188,0.6568128,0.9756737,0.3982041,0.35604656,0.07825303,-0.8028443,-0.6847434,0.028646708,0.23067844,0.6680062,0.6000979,-0.15533113,0.09733844,0.32719672,0.5254309,-0.41450632,0.9974992,0.6529926,0.9118905,0.8009269,-0.54552627,0.8940159,-0.73123705,0.1721524,0.28508317,0.9236591,0.17118502,0.35111296,0.9831892,0.4972366,-0.930277,0.07558501,0.18499732,0.12950265,0.4125303,-0.28670752,-0.6279421,-0.4965917,-0.8025415,0.25360894,-0.80176103,-0.535377,0.20846307,-0.75190794,0.075231194,-0.42290866,0.093417406,0.16426337,0.80916727,-0.22691107,-0.16885543,-0.36581933,0.3448912,-0.35759377,0.8460225,0.46664178,-0.8569828,0.47809064,-0.65740204,-0.08558428,-0.91927814,0.5499712,0.58945704,-0.032435775,0.32931697,-0.81855464,-0.5818696,-0.69640684,0.25006366,-0.85700595,0.027837038,0.77811027,-0.69076073,-0.026101947,0.66962373,-0.19548678,-0.39782584,0.030107856,-0.13807714,0.8354492,0.24653721,0.6986269,-0.13753712,0.49203277,-0.5232183,0.024669647,-0.031786084,0.5049244,-0.02551639,0.19126475,-0.44599915,-0.84276474,-0.29836512,-0.31595182,0.12113094,0.29162705,0.5960281,-0.18062389,0.12963629,0.3333491,0.4248712,-0.4744841,0.26046813,-0.60786116,-0.19817889,0.9612647,-0.5243131,0.36155963,0.81915855,0.50184536,-0.5422963,0.2868774,0.91600907,-0.49964845,0.7349082,0.22721338,-0.8423972,0.7050526,0.7844455,-0.26221883,0.32841718,0.77585983,-0.099090695,0.09350681,-0.9013543,0.690714,0.022007823,0.9347327,0.20125484,0.054484606,0.15686965,0.16166317,-0.7278191,-0.8247485,0.16804361,-0.26444697,-0.5909592,0.55558324,0.6705011,-0.66647565,0.63626933,-0.4949708,-0.09399772,0.4517095,-0.5801147,0.982854,0.89582384,0.35656393,0.8540747,-0.48632002,-0.12654138,0.4512285,0.11000383,-0.96068454,0.5246581,-0.31137776,-0.34137475,-0.4927646,-0.2922287,0.9905565,-0.54536295,-0.71648335,-0.90229857,-0.31366503,-0.69182134,0.251732,0.7353622,0.057673454,0.051216125,0.80389655,-0.9770354,0.023139238,-0.12785542,0.70933366,-0.04197347,-0.8791052,-0.7582239,0.25822198,0.73608494,-0.44330359,-0.4747764,0.4908142,0.3391745,0.038104534,0.97125626,0.13310051,-0.23776722,0.5599538,-0.43665588,-0.48376215,0.687382,-0.26866114,-0.4768337,0.5239011,-0.0483073,0.748106,-0.909513,-0.17551208,0.84080374,-0.82972205,0.5731125,-0.90113485,-0.7427876,-0.44792175,0.27343118,-0.22821343,-0.6381196,0.039479494,0.747849,-0.7301121,-0.7746339,0.79358304,-0.5733789,0.032411218,-0.54441583,-0.7698331,-0.40799153,-0.7004833,0.38755536,-0.6692058,-0.6755111,0.43686044,-0.37802148,-0.9982505,0.97276604,0.68465805,0.37033474,-0.54826474,0.7137649,0.7050904],"bias":0.5972768},{"activation":0.8812278,"weights":[0.7923342,-0.51928854,-0.6185328,-0.18039644,0.42984986,0.104462504,-0.124289155,0.18420696,-0.877115,-0.069539666,0.57731104,0.016923308,-0.5449327,0.7935871,-0.12830794,0.37530768,0.06885171,0.0528028,0.5763807,0.03684759,0.48800838,-0.5342845,0.05013013,0.26410794,-0.8067391,-0.69112504,-0.6710255,0.957842,0.73244584,-0.6398958,-0.76510155,0.047946453,0.5121609,-0.73098075,-0.9892138,0.39673603,0.3452809,0.17374384,0.74199915,0.6480253,0.46376264,0.5146421,-0.7728127,-0.7653384,-0.15321541,-0.782671,0.9533744,0.27466714,0.4992206,-0.8928703,-0.11401808,-0.53770137,-0.04273665,-0.7266277,0.31459308,0.3098179,0.13295937,0.64570296,0.5171883,0.049224377,-0.16190434,-0.15417767,-0.7986169,-0.4355129,0.3832749,-0.17562807,-0.301826,0.37810194,0.24152958,-0.85338724,0.8556968,-0.032606244,0.4112283,-0.21595347,-0.23794472,-0.51663136,0.17519176,-0.51766765,0.037387967,-0.8380232,0.65572715,-0.3516624,0.38355398,0.50188315,-0.012856603,0.8906003,0.093159914,0.6244092,-0.10557616,0.97976017,0.6757653,0.6679493,-0.046937585,0.9055946,0.19507825,-0.049367785,0.5868752,0.66775954,-0.50491,0.36098015,-0.53237,-0.6173574,-0.27539492,-0.7645992,-0.5960877,0.43828213,0.9855956,0.8044584,0.42258918,-0.94291925,0.9655907,-0.18533587,-0.26917386,0.25381112,0.73872566,0.9322195,-0.7356905,0.18918562,0.66427183,-0.33534288,0.8228649,0.104506135,-0.5215256,0.6698061,-0.95884776,0.81427014,0.17750525,-0.33106732,0.6270131,0.39782047,0.5831295,-0.27289093,-0.04816091,-0.31655383,0.67401385,0.2254268,0.45764208,-0.6179236,0.8608105,-0.37350202,-0.38666558,0.9600078,-0.19448245,0.1377753,-0.12201977,-0.3277769,0.86109626,-0.92192066,0.59513915,0.5636661,0.86877334,0.6516018,-0.13960195,0.6038786,-0.058759928,0.954227,0.7052895,-0.6124023,-0.72297204,-0.16527128,-0.84505355,-0.9721943,0.7292414,-0.91987944,0.5284045,-0.31713462,0.13667524,-0.9779463,0.29386353,-0.034319878,-0.9033462,0.10482478,-0.72447073,-0.38736093,0.7675022,-0.10859442,-0.89868486,-0.699852,-0.1631298,0.60339344,-0.7004336,-0.44484103,-0.29416537,0.065817595,0.2531643,0.47551954,-0.10037637,0.43181908,-0.9137583,-0.27107978,0.505334,0.48951936,0.498222,0.010006309,0.61479795,-0.096606016,0.46860647,-0.9794657,-0.60051274,0.5319805,0.88164234,0.4192406,-0.24287045,0.5083451,-0.23706913,0.7950368,0.4262625,-0.34614706,-0.6220418,-0.94610953,0.030536175,-0.2262032,0.017609954,0.39352298,-0.7807015,0.734933,-0.3620001,0.5996126,0.9552953,-0.25655663,-0.6728481,0.42103624,0.06696308,-0.9246566,-0.04629755,0.95478714,-0.5735575,0.1940521,0.8584707,0.35240793,0.28067338,0.28045106,-0.78950346,-0.007801652,-0.6887611,0.99675846,-0.34920812,-0.25639474,0.62097096,0.11957657,0.20874834,0.664063,0.017598152,-0.50598466,-0.13650596,0.5073093,0.48573995,0.8193461,0.65382063,0.47542357,0.4688481,-0.77821684,-0.67447495,-0.20835114,0.43607855,0.45218205,0.18247151,0.27386737,-0.88281655,-0.66134024,-0.335315,0.40460753,0.882846,-0.52484834,0.81760025,-0.34939456,0.60982907,0.6404716,0.26843154,-0.14421952,-0.93446946,0.44798005,-0.118315816,-0.40497267,0.7062398,-0.47578657,0.78452575,0.7329439,-0.0341506,0.35746932,-0.38329017,0.15083039,-0.5304253,-0.0032619238,-0.78730404,0.15052819,0.50971377,-0.962957,0.93318295,-0.68359137,0.074640274,-0.016451359,0.5122508,0.4260509,-0.37157404,0.23351836,-0.59785867,-0.63792586,0.14514649,0.92578447,0.43932092,-0.35541368,0.44149697,0.6156491,0.09533322,-0.13911724,0.091925144,0.568959,0.92331624,-0.43418324,-0.20573342,-0.95733607,0.29654455,-0.5770688,-0.005762577,-0.44248557,-0.84909415,0.32849908,-0.37413526,-0.7469008,-0.60004866,0.4692526,0.3597468,-0.20307744,0.4263457,0.681574,0.9748955,-0.09163928,-0.193784,0.3242978,-0.7631725,0.7774513,0.03025949,-0.500124,-0.66151273,-0.34941113,0.9519086,0.9023894,-0.74675643,0.8288262,-0.08700788,-0.5666199,-0.38803458,0.6233727,0.5986024,0.067943454,-0.5002798,-0.7439635,-0.24580216,-0.7346575,-0.27704668,-0.4257939,-0.11742973,-0.6211597,0.18131077,-0.08517218,0.9839748,0.79278016,0.9261751,-0.54710245,-0.52805316,-0.22062922,0.68730474,0.46201503,0.2052058,-0.22100937,-0.80694985,-0.21182632,-0.9157913,-0.64730036,-0.34247637,-0.70020115,0.09128249,-0.6750243,0.97878265,0.80809975,-0.02362132,-0.38449192,0.9593022,-0.07736611,0.58545804,-0.2372812,0.3790853,-0.124991655,-0.85749006,-0.75507045,-0.8922031,-0.5910727,0.86387575,0.53957963,0.6439066,0.65739274,0.4352076,-0.9252908,-0.598739,-0.642781,-0.7811371,-0.98280036,0.10332847,-0.24978411,0.7096187,0.94467413,0.8317419,0.4805255,-0.4958781,0.68341506,0.4361415,-0.8188102,-0.7093208,0.23823571,-0.22063136,0.2728629,0.13894963,-0.17911172,-0.8288615,-0.073075294,-0.42819655,0.16205645,-0.43585873,0.67960274,0.6539018,0.62339926,0.124759555,0.72047055,-0.29996526,0.5341841,-0.19365966,0.0393008,-0.31110573,-0.8959503,0.25882947,-0.8249587,0.7702577,0.8153093,0.38217068,-0.6107682,-0.010161161,0.032964826,0.2770642,0.3278271,0.5963198,-0.5807868,0.045808792,0.27775848,-0.33574128,0.92502725,0.59867215,0.40747678,-0.86126614,-0.4789257,-0.402745,-0.15534449,-0.3998897,-0.91989875,-0.73692596,-0.7420074,-0.5425329,-0.79847324,-0.012619376,-0.454324,0.31649423,0.6796485,0.21911013,0.3463652,-0.73600876,0.5608969,0.23948836,0.007951736,-0.83318806,0.92445207,0.64349174,-0.1013881,-0.9706373,-0.49108744,0.81628776,-0.77500975,0.21838772,0.3924458,-0.5064038,0.3058684,-0.013476968,-0.97083807,0.30203032,-0.2767371,-0.9053397,-0.93523693,0.016557455,0.19081092,0.38393092,0.9792123,0.9828918,-0.98774385,0.5665728,-0.5371437,0.21038055,-0.15544748,-0.60806155,-0.88330793,-0.4553132,0.86921287,-0.8907639,0.64755,-0.1602987,0.24952912,0.3578024,0.073545575,0.0256809,0.074469686,0.2610942,0.603057,-0.6547562,0.22666752,-0.98571825,0.06205368,0.6114154,0.83453655,-0.8969773,0.08909118,0.5452236,0.5407561,0.60323393,0.7378055,0.8771957,-0.31495404,0.606825,0.74246323,0.16343737,-0.07813442,0.49210727,-0.79880726,-0.51242876,-0.097240806,0.69718146,0.29864,0.40628064,-0.2432574,0.6399729,-0.9588702,-0.36934638,0.69870377,-0.27225995,-0.5191088,-0.54825795,0.9093056,0.1977433,-0.02004242,0.11049163,0.5743954,-0.022015572,0.19922447,0.27709305,0.30567265,-0.2868874,0.7143079,-0.48798263,-0.57673657,0.7269026,-0.85565937,0.54516363,0.85614145,-0.5390245,-0.5403863,0.6615776,0.93851423,0.26259816,0.9705951,0.6202487,0.82337415,0.4517895,-0.40251493,0.11497009,0.7877294,0.31012475,0.63631845,-0.39927626,-0.29014957,-0.95704997,0.8181759,-0.42739058,0.23978293,-0.33952963,-0.23369884,-0.6184443,0.9101341,-0.28901398,-0.32840157,0.31816053,0.85623574,0.32349026,-0.97324884,0.29554927,0.55270815,-0.026847959,-0.9732404,0.2977476,-0.38243997,0.2425015,0.8206947,0.8869264,-0.85329616,0.9736922,0.6794417,0.97357893,-0.09704387,0.7039213,0.7135763,0.77794135,0.5985013,0.23076737,-0.3232665,0.30460405,-0.33827448,0.041662693,0.79411554,0.91142106,0.88566315,0.010537863,0.15045941,0.1966002,-0.4902438,0.7212753,0.008059263,-0.13555789,-0.21566248,0.13740933,-0.8246628,-0.9481785,0.540208,-0.66503346,-0.44144988,0.6513138,-0.5576117,-0.61023843,-0.064489484,-0.9550564,-0.19207513,0.66813326,0.3428744,0.21720874,0.3193928,0.52888274,-0.2970183,-0.68809354,-0.1413765,0.20956933,-0.21550274,0.85662377,0.85869277,-0.97958314,-0.06001985,0.013798475,-0.80832005,-0.6626115,0.25994003,-0.83649886,0.740867,0.20918107,-0.77160156,-0.17611527,-0.39973783,-0.5400479,0.21318936,-0.51627123,0.6960043,0.56153834,0.6957849,-0.59176946,0.29477763,0.285375,-0.9650469,-0.8915367,0.18931317,0.83709,-0.58450055,0.26572216,0.21567619,0.39273274,0.61165583,-0.38319433,-0.7066293,0.19258964,0.2916416,0.9042574,0.3890798,-0.22040296,0.5580138,-0.88093245,-0.19609082,-0.94241154,0.8287455,0.004508853,-0.24734879,-0.82702446,0.7903882,0.25026977,0.6721324,0.82560873,-0.70041037,-0.14458072,0.5981145,0.16070807,-0.81438375,0.56734335,0.6981796,0.3230629,-0.64589393,0.097741485,-0.5130801,0.08133304,0.9707539,-0.7388592,-0.86461353,-0.15363944,-0.41644728,-0.5770552,0.6263763,0.58778286,0.29629636,-0.44297552,-0.02366972,0.5164187,-0.33056867,0.9096968,-0.28972244,-0.6999762,0.8547579,-0.5782683,0.629845,-0.45504534,0.08330345,0.5056938,-0.39463568,-0.67409766,0.91997623,-0.54770434,-0.47621942,-0.24369085,-0.34704125,-0.44684875,0.13570964,0.580088,-0.5788375,0.0005429983,-0.31074822,0.18231082,-0.95973134,-0.40927458,-0.5161178,-0.9297626,0.33737302,-0.26708794,-0.15467072,0.6608752,0.44645774,0.38458776,-0.8533001,-0.33510518,0.491351,0.97165215,0.7576201,-0.21283758,-0.9295237,-0.08187437,0.43025327,0.14024436,-0.5086148,0.10676348,-0.6906717,0.14597368,-0.09554541,-0.77076375,0.89905703,0.5696577,0.13029993,-0.15177333,-0.8577293,-0.0014358759,0.46267903,0.3551054,-0.14966679,-0.89648986,-0.28181028,-0.20868254,0.048633218],"bias":0.33690488},{"activation":0.7495117,"weights":[-0.8374921,-0.3896637,0.9060434,0.69967127,0.82147133,-0.9468026,0.7671257,-0.53147876,0.29962635,-0.23411441,0.99802744,-0.18182611,-0.58676326,0.75570846,0.8145405,0.6930164,-0.8665341,0.63510597,-0.63987315,0.63239396,0.8337133,0.7841573,-0.29196906,-0.6207849,0.45913923,0.40467608,-0.5129342,-0.31269467,-0.060208082,0.33129454,-0.67983794,-0.25344086,0.22214925,0.6670189,0.80384433,0.23483479,0.75110364,0.5758791,0.9841449,-0.10161781,-0.39131987,-0.075965166,0.25464523,0.30404496,-0.50293696,-0.6096393,-0.23937583,0.6954502,0.3516165,-0.054644704,-0.96624875,0.4605838,0.58022046,0.022883534,-0.8795849,-0.3358947,-0.03764105,-0.53176486,-0.30608737,-0.74093866,-0.51819444,0.42599523,-0.63612556,-0.42744625,-0.0763427,-0.5934135,0.12756228,-0.77350295,-0.22013187,-0.6043626,-0.16664493,-0.18553627,0.6631962,0.61616397,-0.37451732,0.9770422,-0.51811254,-0.46066976,0.21608806,-0.8892331,-0.5043317,-0.5691775,-0.026504993,0.604357,-0.9996308,0.61065114,0.54327667,0.73794806,0.09519553,0.89690137,-0.05004227,0.91900766,-0.5344045,-0.4361019,-0.75897026,-0.26865506,-0.58282375,0.3250128,-0.28896785,-0.7511591,0.32405925,-0.88567555,0.8336507,-0.863201,0.9906502,0.63696885,0.13314426,-0.47484183,-0.11424148,-0.798815,-0.44116247,0.6652942,0.5513568,-0.8026068,-0.047942877,-0.023014307,-0.5257019,0.6960143,-0.7533853,0.44511175,0.44610548,-0.94120264,-0.98370266,-0.9992516,-0.8139459,-0.25682998,-0.6326809,0.38295174,-0.04069686,-0.028756142,0.41981435,-0.32842028,-0.17857206,-0.35693645,0.38881648,0.4681914,0.12537837,0.40302515,-0.58961654,-0.24631321,-0.28448057,-0.8054632,0.9621842,-0.9226259,-0.7957506,-0.5573236,-0.7847172,-0.45186317,-0.8163718,-0.12875104,-0.18573332,-0.926878,-0.25811136,0.37465513,0.61198723,0.9017228,0.044143558,0.3562039,0.65518975,0.37393963,-0.15675569,0.7252848,0.34848583,0.34573722,-0.18277371,-0.87617075,-0.41154695,-0.49346817,0.72695804,-0.809909,-0.5079931,-0.9108641,-0.8877417,-0.72426903,-0.34394443,0.22553349,0.19522,0.9390876,-0.95249426,0.86475205,0.31870258,-0.5830735,-0.4239769,-0.4113847,-0.07874954,-0.8547151,-0.69305706,-0.7744862,0.7805141,0.8520446,0.4992782,-0.46126866,0.7998258,-0.88761985,-0.49036133,-0.9461279,0.71098375,-0.047766805,-0.6356739,-0.3252548,0.65343976,-0.58022285,0.9363266,0.6348059,0.45356786,0.10114944,0.47846246,0.2595055,0.09315634,0.13444602,0.018189669,0.17899239,-0.52798057,0.9629754,-0.7106328,-0.4244064,0.39485478,-0.8713381,-0.65022445,-0.2522534,-0.5177629,0.9031894,0.93336785,-0.05440104,-0.15157759,-0.84491,-0.607126,0.074587464,0.36686254,-0.24057984,-0.43452,-0.38854277,-0.48015404,-0.67005134,-0.32138956,0.18628192,0.18347621,-0.76734555,-0.43595886,0.41136658,0.88131666,0.031990886,0.46684122,0.9968635,-0.99320805,0.31744206,-0.4351821,-0.2063812,0.33372152,-0.8790951,0.46314,0.34322286,-0.755015,0.0058505535,-0.97788537,0.53173816,-0.52292955,-0.94854057,0.87575185,-0.8801912,0.20051074,-0.9744184,0.32230747,0.7562171,0.66285264,-0.27099752,-0.024544716,-0.7553576,-0.8377737,-0.5376874,0.049117208,0.60617876,-0.06989944,-0.1875894,-0.45579326,-0.588058,-0.9654238,-0.6090152,-0.5491946,0.70404863,0.99974597,0.19850099,-0.46818554,-0.8477504,0.7820717,-0.78607893,0.36028326,-0.5380695,0.8971232,0.08907795,0.22674644,-0.5724256,0.7239256,-0.34058654,0.06766617,0.19065034,-0.9430549,-0.22067475,0.5343592,-0.41756773,-0.13559878,-0.59565294,0.93397164,0.55675757,-0.5774791,-0.49179924,-0.17032588,0.011392236,0.31765366,0.51673794,0.71713495,0.2781917,-0.117014885,0.9121586,-0.14045131,0.87556994,-0.629248,0.89964736,-0.9962102,0.2605797,-0.85760283,-0.47585428,0.6156566,-0.54753995,0.83000886,-0.44508815,-0.9746604,0.21662366,-0.6110791,-0.56854784,-0.0747025,-0.29511416,-0.11302662,-0.9551228,0.5828152,-0.9281242,-0.27371383,-0.48911512,-0.16049409,0.10453212,-0.7573072,0.108721614,-0.37183368,-0.2206465,-0.13079166,-0.16999626,0.88926077,0.7241187,-0.6443715,-0.98301923,-0.31212318,-0.91188204,-0.8989506,-0.7019124,0.74983585,-0.08677328,0.24585819,-0.35994267,0.741577,0.5143956,0.64578974,0.9557506,0.17078304,0.37783813,-0.8562046,-0.547763,0.6749052,0.52274597,-0.65804183,-0.6146494,-0.9383911,-0.0722518,0.9670868,-0.74158645,0.12604785,0.55202436,-0.41363037,0.47176147,-0.005290389,-0.7418283,0.043590784,0.28760803,-0.4787842,0.16967547,0.33254611,-0.11948967,-0.7586523,0.22509444,0.6539898,-0.4939084,-0.31657255,0.99772584,0.5503633,-0.8332939,0.78751314,0.23238826,0.7474034,-0.3578298,0.6012169,-0.52136195,-0.7944181,0.8753047,0.2588266,-0.57188654,0.8763981,-0.3126893,-0.62009394,0.083370924,0.96585727,-0.71659505,0.6098144,0.8239546,-0.54533696,0.97834444,-0.56906426,-0.13375592,-0.5322701,-0.47112262,0.37133121,0.49446607,0.8029622,0.8420348,0.8925806,-0.08219075,-0.5987419,0.43497133,-0.3444699,-0.087133646,0.78410566,0.94548774,0.6768558,0.15130055,0.2627349,0.908787,0.6445569,0.33020353,0.8665786,0.10462654,0.3991289,0.5670446,0.6295538,-0.73526394,0.12336755,-0.09000528,0.5767306,-0.28836,-0.70404804,-0.7769568,-0.9764713,-0.9139354,0.88280857,-0.9603683,-0.6810999,0.24869645,-0.577232,0.8523644,-0.9771235,-0.8379905,0.5535009,-0.73887825,-0.94837034,-0.8642515,0.6733408,0.374143,0.50412333,-0.19161701,-0.9597111,0.65556633,0.9622097,-0.24582422,-0.746858,0.91897297,0.3661512,0.8742882,0.57741344,-0.1331886,-0.45053458,0.41415358,-0.8688787,-0.38369465,0.59533477,0.44042695,-0.24011254,0.23145509,0.64887094,-0.35867226,-0.45903742,-0.23473144,-0.7305428,0.2799269,0.9260496,-0.6351073,0.33636308,0.9627079,0.43941975,0.2551154,0.4994036,0.4602356,-0.5779004,0.54896665,0.5607835,-0.31512344,-0.59640825,-0.97238064,0.8684205,-0.8434099,-0.2587793,0.7971101,0.32742298,0.5903468,0.22166371,-0.42452204,0.7642783,-0.25966918,0.49394774,-0.7349136,-0.47149634,-0.8532438,-0.6786417,-0.5702323,-0.4536271,-0.024008155,0.34801304,0.12326872,-0.6600785,-0.91353106,-0.5554241,-0.63123894,0.5262228,-0.47940004,-0.75283206,0.92554617,-0.7159914,-0.23700678,0.029284,0.56455183,-0.52825165,-0.7032037,0.2191087,0.3255564,0.08149254,-0.09239888,-0.6322478,-0.85661197,0.85689604,0.034748197,0.32875156,0.6943655,-0.38433516,-0.5257584,-0.044042945,-0.5812354,0.78438365,-0.098813534,0.025200725,-0.60617876,-0.58895576,0.62733126,0.6823286,-0.14485574,-0.54780185,-0.03526318,0.96597266,-0.18647909,-0.39870918,-0.23899603,0.85745525,0.5476304,0.9883429,0.35944188,-0.28774965,-0.10196543,0.061042547,0.8797287,-0.7440418,-0.93219864,-0.4499688,-0.5115305,-0.7174492,-0.6898906,0.2621914,-0.22858524,-0.8613454,0.7976283,0.052467108,-0.118389845,0.013153434,0.24213517,0.00013720989,0.78912985,0.40915215,-0.25702643,-0.5274079,-0.23125589,-0.51407075,0.52205026,0.18276191,0.9990891,0.42456412,0.6619028,0.09744716,-0.24796581,-0.21224701,-0.7231082,0.07978737,0.58372176,0.5637839,-0.19393909,0.056889296,0.9414805,-0.13186347,0.22796524,-0.5676938,0.44422972,-0.4404794,0.69673145,0.4266243,0.55052686,0.030541778,-0.52610147,-0.21720958,0.21977985,0.7177012,-0.98210466,0.5853008,0.75888026,-0.6039051,-0.6291201,-0.8465526,0.4470905,-0.2932589,0.6459509,0.9447832,-0.3614273,-0.03320265,0.37603533,0.16356027,0.13831043,-0.1953243,0.031372666,0.76887405,0.61201537,0.6544843,0.67379177,0.9247389,0.9989246,0.17215359,-0.896979,0.3315531,-0.36017323,-0.6413349,0.7271911,0.97279656,0.7375115,0.545431,0.27954304,0.24362266,0.085730195,-0.25765574,0.07847178,-0.32105482,0.02918458,0.29301155,0.021132112,0.13668549,0.26554203,-0.020111322,-0.02251172,-0.43543816,-0.32459486,0.03450215,0.2867117,0.7877717,-0.23038924,0.23448718,-0.96125257,-0.37355518,-0.18603313,0.94778204,-0.23534429,-0.43763173,-0.83392966,-0.75532806,-0.04028237,-0.72625506,-0.07414794,0.41391897,-0.81143284,-0.6999674,0.79201496,0.46536398,0.34446084,-0.859015,-0.41086853,0.97937334,0.5034791,0.25895727,-0.3877175,-0.18652189,-0.46683288,-0.10002625,0.48692727,-0.9863286,-0.02984941,-0.37509942,-0.44376874,0.3240317,0.116291165,0.8333957,0.58498406,-0.6868329,-0.95318484,-0.6492238,-0.19470692,-0.12353051,0.94315255,0.5225568,0.9667728,0.08524299,0.37761736,0.8231299,-0.81863284,0.87806034,0.45055544,0.9943918,0.29861283,0.4932102,0.72280097,0.32674778,-0.5898752,0.7495991,0.6074325,-0.94996333,-0.61667097,0.9147507,0.49604,0.14965641,-0.9439088,0.5872084,0.07956636,-0.2005328,0.13790834,-0.6796249,-0.59559584,0.4027208,-0.62473476,-0.93491864,-0.60872865,-0.6513641,0.8239839,-0.2752428,-0.4318905,0.8848189,-0.8316698,0.20680761,-0.06746149,-0.6549574,0.21214652,-0.45602667,0.8801304,-0.7197969,0.66569316,0.82866824,0.7464038,0.064062834,-0.6193352,-0.11659658,-0.82493234,-0.39411736,-0.761214,-0.19309473,-0.54334855,0.456599,-0.52143407,-0.2770877,-0.5725498,0.9729364,-0.8224021,-0.11942315,-0.46890867,0.5487182,-0.06184089,0.09633815,-0.36914873],"bias":0.9533265},{"activation":0.0016169947,"weights":[-0.04794848,0.6449678,0.84951127,-0.6327809,0.9991981,0.03816247,0.63722444,0.3766551,0.67676985,0.7468498,0.93588126,-0.19457102,-0.35193324,0.0062553883,-0.23495018,-0.78002524,0.6086395,0.3256513,0.5920268,0.98922515,-0.5763147,-0.56197953,-0.9858725,-0.8377383,-0.5763266,0.053521395,0.60970306,0.94007623,-0.117703915,-0.7560533,-0.23202896,-0.11513424,-0.3593768,-0.7672492,-0.9271718,-0.94171417,0.37248492,0.5306032,0.35326648,0.39590943,0.31076384,-0.40876698,-0.6029167,0.34233165,-0.94591475,-0.3335755,0.07623291,0.7679223,0.5176413,-0.013030887,-0.53865063,-0.69253016,0.3542955,0.6689261,-0.46310484,-0.02214992,0.2130512,-0.5967809,-0.474131,0.93728316,-0.6552427,-0.10111427,0.92003417,-0.9474138,0.8797982,-0.36114,-0.682189,-0.5062686,0.6378192,-0.6795801,-0.2403562,-0.9337919,0.3120675,0.9150071,0.25953472,-0.42081118,0.4201306,-0.88461256,-0.017924666,0.77355766,0.9677913,0.6209122,0.69884825,-0.9628117,-0.46138513,0.77912784,-0.926129,0.78083324,0.17270291,-0.34099877,-0.60792565,-0.0017602444,0.15067363,0.6847719,-0.36671853,-0.36196303,0.6233133,-0.067824125,0.34532845,-0.26081347,0.7957375,0.7482058,-0.21209073,0.4317274,-0.9586508,0.626526,0.16362417,0.020983696,0.0936265,-0.6356853,0.19270515,-0.96304214,-0.83668315,0.52172554,0.7925066,-0.41846478,0.8541608,-0.15550935,-0.47795534,-0.3692696,-0.36796403,-0.91000915,-0.021344066,-0.45268166,-0.8778813,-0.27299178,0.91969585,0.70644367,-0.057203174,0.9900254,-0.5750514,0.5120281,0.5625874,0.29742527,-0.62196743,-0.2586124,0.15879488,0.7985518,-0.775741,-0.10088503,-0.6562228,-0.17740381,0.83748984,0.7080958,-0.07495797,0.9143722,-0.09472191,0.6628941,0.24353242,-0.6409198,-0.89895177,0.5335691,-0.97207546,0.25078154,-0.97150207,-0.752391,0.4808315,0.42005634,0.4547968,-0.9194925,-0.34692967,0.008152962,0.5920398,-0.30526936,-0.8690139,0.54330266,0.014839768,-0.78444064,-0.8171178,-0.8372191,0.032209158,0.10055554,-0.051790237,-0.70797694,0.16559505,0.21478903,0.15535939,-0.5129404,-0.5361799,-0.85332584,0.5244223,0.13658118,-0.4509313,-0.6739299,0.9643117,0.86050487,-0.9810077,0.59509444,-0.38328385,-0.050120354,-0.52073574,-0.15876758,0.36751032,-0.41298068,0.32045758,0.53605235,-0.5215317,0.6194483,-0.73166573,0.31413674,-0.9492805,-0.32801008,-0.5358205,-0.10971022,-0.06649351,-0.5946562,0.8219718,-0.4468149,0.9153973,-0.64253736,0.37563562,-0.8612902,-0.59835505,-0.3730111,0.404585,0.91775274,-0.55337393,-0.7623086,0.8004211,0.60354674,0.23743594,0.29568172,-0.8910575,-0.7927271,-0.479802,-0.06810105,-0.21516037,-0.14221787,0.2114085,-0.29342222,-0.9314796,0.9702548,-0.79025483,0.54593706,0.054445148,-0.5660806,-0.9759569,0.37573063,-0.9306115,0.696187,0.8390808,0.79592836,0.95903933,-0.65330315,0.5039636,-0.78047574,0.89871395,-0.3720485,0.5491822,-0.020689726,0.48663664,0.4931438,0.6599897,-0.15024316,-0.41787052,0.07561302,-0.61150384,0.5880302,0.45793486,-0.026043534,0.8502921,-0.3548541,0.0783025,-0.67631495,0.16208744,0.72245204,-0.57276285,0.35519493,0.79637647,-0.22978806,-0.57865524,0.8902974,-0.06704497,-0.20922494,-0.5879613,0.20920193,-0.55153954,0.34603,-0.11646211,-0.13929832,-0.9087732,-0.093309164,0.6008322,-0.4756645,0.21404171,0.2970109,-0.90424514,0.46841347,0.17757702,-0.6856979,0.12790751,-0.08487642,-0.26662934,0.39892602,-0.23326969,0.8113692,0.16183221,-0.5190407,-0.12008202,0.83580375,-0.86406994,0.52383626,-0.64021635,-0.043268442,0.24699104,0.3035152,-0.3613274,-0.8343288,0.4235134,-0.51397395,-0.680702,0.57571685,0.583442,0.8184345,0.5778568,0.64418936,0.5512532,-0.9794663,-0.35239267,-0.98660815,-0.7793791,0.71361566,-0.75351727,0.3082868,-0.0966022,0.4962679,0.8795618,0.95185566,0.57394016,-0.034424186,-0.84605765,0.3069675,-0.74436665,-0.7986318,-0.20920599,0.589743,0.3824829,0.08247745,-0.029824972,-0.59485734,-0.2556268,-0.05078721,-0.23619664,-0.9931153,0.4100877,0.4776491,-0.16225386,0.47277963,0.24242163,0.70146143,0.45770442,-0.38527906,-0.7092602,0.3613814,0.97675467,0.93881595,0.40033388,0.2004354,0.017072916,0.06527257,0.78278744,-0.1405003,-0.88256204,-0.8647213,0.61599565,-0.31487238,0.5742365,0.18239415,0.9115639,-0.22028446,0.15024364,0.88778925,0.37404978,0.74725616,0.2555554,-0.41297936,-0.08983648,0.22177899,-0.6544106,-0.68409204,-0.11219275,0.7160394,0.2724172,0.6633673,-0.6924901,-0.9642906,0.19234681,-0.25244963,-0.149755,0.94689775,0.27915967,-0.82903373,-0.40641534,0.72211385,-0.9321809,0.7445148,0.6241671,-0.58256555,-0.6149018,0.56094074,-0.76545167,-0.39173448,0.9809154,0.0648433,0.522506,0.9905517,-0.16446042,-0.04283452,0.47084987,-0.26473022,0.930392,0.32293665,-0.032644987,0.042824626,-0.48633647,-0.7509526,0.9388652,-0.25264156,-0.7054204,-0.07953966,0.2967012,0.31153607,0.36315477,-0.8195026,0.38865948,-0.76101935,0.9514705,0.7689687,0.73406076,0.7831713,-0.03726411,0.73203635,-0.036479354,0.5165942,0.53390336,-0.7334672,0.9120699,0.6331184,0.036714554,0.6787455,0.86678374,0.7613287,-0.69049096,-0.57957816,0.81622374,0.11532009,-0.07616091,0.9321332,-0.8826585,-0.68244004,0.6371312,0.06253135,-0.29592693,-0.74365556,-0.38052642,-0.9020597,-0.33568227,-0.9753382,0.072312355,0.044169903,0.38363457,0.82781696,-0.38112724,-0.9188384,-0.118641734,0.20299041,-0.2582965,-0.5859405,-0.6848221,-0.067385554,-0.367625,0.73985016,-0.26273167,0.107539415,-0.66242373,-0.68451524,-0.7943238,0.16082716,0.93345606,-0.64310527,0.5226201,0.9596604,-0.5428543,0.056809902,-0.24888134,-0.50225234,-0.004917145,-0.9084567,-0.37298834,-0.4707898,-0.1829344,0.68001866,-0.92574906,0.48465085,0.34984148,-0.6154226,-0.5568298,0.8746371,0.9515965,-0.6731777,0.9808209,0.595574,-0.5170946,-0.1520468,-0.1770171,0.64904654,-0.58408284,-0.5235573,0.353572,-0.47163475,-0.03775215,0.6680914,0.48757374,0.7166431,-0.74603224,0.35595798,-0.66367745,0.2035687,-0.9108213,-0.7156826,-0.39700162,0.037249327,-0.50564516,-0.6122241,-0.81650865,0.89812016,0.13163173,-0.50712216,-0.66879034,-0.34937108,-0.8519672,0.20193267,0.8666117,0.28143156,0.77310133,-0.68341887,0.19310379,0.38361096,0.19665611,-0.8101609,-0.8755543,-0.16280138,0.91528785,0.7195933,0.9504801,0.9405818,-0.62698174,0.8503065,-0.8781071,0.15273917,-0.6590109,-0.59465194,-0.22080183,0.18220735,0.8808093,-0.61068046,0.5078063,0.47969127,-0.71242607,-0.56406426,-0.28438866,-0.3970344,0.4192654,-0.57152355,-0.62441707,0.78784704,0.6207932,0.28561735,0.47193897,0.84572756,-0.8195671,-0.18845546,-0.30086648,0.05966711,-0.82044554,0.96452403,0.17280555,-0.14382303,0.18225682,-0.5580981,0.77263224,0.5222161,-0.7501378,0.83547974,-0.20516574,0.11754334,-0.007095933,0.24966228,0.12774527,0.2574197,0.80641496,-0.14511383,-0.39720452,0.011379123,0.6848532,-0.56305087,-0.44408298,-0.68278813,-0.8107544,-0.03721702,0.3651694,0.15898502,-0.21924388,-0.965695,-0.6777184,0.41171205,-0.29889166,-0.16891193,-0.94903994,0.5744717,0.7644309,0.478567,0.16462529,-0.15551579,-0.26758075,0.97003996,0.87538755,-0.57307076,0.96950257,0.24087381,-0.062310338,0.27464902,0.4196067,0.6733726,0.09382594,-0.5280796,-0.04366064,0.25220466,0.29265344,-0.005357623,-0.91066515,-0.70462847,-0.8827939,0.3750832,0.1459626,-0.46061373,0.54931736,0.47641993,-0.61531174,0.43758285,-0.9341022,0.2981063,0.0072904825,0.8500855,0.46331906,-0.9197191,-0.28490996,-0.74519277,0.6704297,0.19651031,-0.34437132,-0.14813662,0.28748906,0.4704106,0.043307662,-0.26651084,0.10686135,-0.6200613,0.15198219,-0.655926,0.76686406,-0.8454187,-0.78897095,-0.9333955,-0.43351996,0.44167376,-0.5956048,-0.5011511,0.91944695,-0.46327174,-0.8164872,0.9133277,0.7047025,-0.58793235,0.66555333,0.46190178,0.1880033,-0.6936103,-0.048398495,0.95820665,-0.35612214,-0.65742874,-0.15645194,0.9603832,-0.37438774,-0.6842077,0.07720196,0.16681361,0.8316591,0.044144392,0.26861572,0.5348489,0.37607944,-0.46453238,-0.900074,0.8171034,-0.5635148,-0.19707394,-0.09280586,0.70035243,-0.67356944,-0.36884952,0.5110903,0.98412323,-0.81995666,0.3196361,-0.7115153,-0.9289849,-0.55166256,-0.7461436,0.49041831,-0.37123024,-0.39819252,-0.19045782,0.31368077,0.20358288,0.9197489,-0.6789726,-0.168921,0.81983316,0.00004684925,-0.7707342,0.89000297,-0.29627335,0.9259236,0.7077769,-0.452299,-0.8622699,0.8965832,0.02227354,0.6023923,0.23866224,0.83877635,0.29648876,-0.5876256,0.7339884,0.33884895,0.7207205,0.6593181,0.28008926,-0.9279884,0.9283178,0.5557864,0.43207765,-0.086808205,-0.616802,-0.9659351,0.15426552,-0.71246755,-0.88353777,-0.64021885,0.21747327,-0.72655034,-0.26100647,0.986655,0.27823305,0.31928873,-0.5605525,-0.97506773,-0.89884484,-0.07621467,-0.5985012,-0.9607878,-0.20609891,0.88430583,0.3715955,-0.005015254,-0.99313724,0.9454886,-0.1246264,0.84409463,0.13291073,-0.35458565,-0.38164198,0.45321095,-0.6019597,-0.11076534,0.051302433,0.5389106,-0.15331542,0.59327805,0.027553678,0.4869926,0.6855316],"bias":0.39374983},{"activation":0.9766545,"weights":[0.9430276,0.7757784,0.4137832,0.9435848,-0.21840811,-0.44892716,0.97267413,-0.6041199,0.20763803,0.06831801,0.9629791,-0.62880886,-0.37059355,-0.8940182,-0.6107019,-0.26965725,-0.08397293,0.1404742,-0.42745817,-0.30073,0.54367495,0.9143735,-0.98146164,-0.99716103,-0.9788486,-0.89890504,-0.7893708,-0.9218241,0.35383105,0.7916683,0.30095053,-0.678208,-0.1012907,-0.859182,-0.53335917,0.73106813,0.011326432,0.659402,-0.2931633,0.5516219,0.36753845,0.50661254,-0.096732855,-0.832898,0.23492754,0.99996793,0.10122657,0.6163198,0.93326914,-0.48137212,0.2705294,-0.8576025,0.105290055,-0.48740208,0.931319,0.47104144,-0.6163813,-0.8102858,0.8030747,-0.7259891,-0.7018372,-0.050471425,0.10357511,0.06461394,-0.32477343,0.19987833,0.09833658,-0.5312308,0.5582454,-0.44859648,0.059663177,-0.75116456,-0.37689352,-0.40083802,-0.26929522,0.46935546,0.83091986,-0.41943097,0.7010355,0.7750648,0.2284869,-0.5011159,0.1168443,-0.23558271,-0.5549098,0.8383738,0.3893484,0.34827185,0.7745993,0.3043902,0.11658728,0.9956367,-0.92366564,0.6683353,-0.46010458,-0.77921736,-0.3851545,0.24609101,-0.023902297,0.8600508,-0.20494854,-0.9848412,-0.16011834,-0.35921776,0.825793,0.15852404,0.44405615,0.27777612,-0.92572725,0.49514675,0.88368,-0.7068367,0.4642676,-0.60973835,0.11778414,-0.9041734,-0.76031005,0.8945894,-0.59925747,-0.3356552,-0.14716017,-0.026869059,-0.3466767,-0.017344356,0.46092212,0.45830107,0.99465406,-0.775838,-0.41178286,-0.094578505,-0.3880968,-0.04774487,0.33327782,0.6346402,-0.03110683,-0.22552478,0.99949086,-0.46915352,0.49283624,0.19969547,-0.043180108,-0.598562,-0.42801988,0.44481206,-0.2190876,-0.54133844,-0.22378993,-0.6952529,0.77084315,-0.8139018,-0.29032648,0.037508965,-0.5904869,-0.51732385,0.06323147,0.52996504,0.85993433,-0.46962583,-0.2560836,0.14709985,0.52240443,-0.12279928,0.6916677,0.49806416,0.20526195,0.12799048,-0.802153,0.80867195,-0.20396912,0.5663862,0.16663885,-0.8500192,-0.5748557,-0.6382837,0.8329176,0.59401,0.5069134,0.4972614,-0.09080982,0.502632,0.13875449,0.49249196,0.5334419,0.78451383,-0.5301783,0.031806827,0.7349858,0.9123864,-0.4246279,0.39128685,-0.77947485,0.2494576,0.25839448,-0.31876957,-0.06899202,0.46342397,0.11278355,-0.6389687,0.6871474,0.721962,-0.6551453,-0.4401492,-0.44930363,-0.14979267,0.8335545,0.538592,-0.24895859,0.5201874,0.7565979,-0.76846933,-0.7471776,0.98831654,0.2268194,0.73511446,0.6899848,-0.656324,-0.7156235,-0.63920665,0.70456564,0.18196392,-0.36376,0.87153375,-0.30573702,-0.4202727,0.2747004,-0.5401279,-0.025542855,-0.52425826,0.68971777,-0.5253037,-0.533625,-0.057724357,0.46600282,0.24902582,-0.53918135,0.2864672,-0.42544496,-0.23564112,0.7148242,-0.832422,-0.80334044,-0.28503275,-0.62388766,-0.05801058,0.9494705,-0.5770657,0.82369494,-0.018814087,0.43884635,-0.6754997,-0.66127336,-0.81624293,-0.51206636,0.4503665,0.3619144,0.8528732,-0.83284783,-0.33752465,-0.5924605,0.44112682,-0.28787398,0.4427122,0.8873049,-0.1337105,-0.52704394,-0.85765207,0.16478777,-0.1779424,0.54411244,0.7797091,-0.35601676,0.070775986,-0.9634676,-0.20081067,0.16095376,0.6592754,0.32104862,-0.6994325,-0.5961168,0.34717488,0.45643234,-0.07111311,0.39433706,-0.4915173,-0.3220855,-0.06326568,-0.5522425,0.021002412,0.8990773,-0.003506422,0.8439752,-0.30124962,-0.81133795,0.38216043,0.88533056,-0.06173432,-0.5270623,-0.54336846,-0.2802031,0.5138649,-0.21797156,0.8589498,-0.31291807,-0.4776361,-0.5595578,-0.35239637,0.78198564,-0.1984322,-0.87220395,0.29499817,0.26250565,-0.90439343,-0.18160808,-0.2936157,-0.7004397,0.4118173,0.83125055,0.34491134,-0.90036297,0.5023639,-0.97218657,-0.7482457,-0.2286762,0.52297235,-0.67446566,0.018577814,-0.86481655,-0.73760045,0.32688296,-0.17966413,0.27411997,0.34619737,-0.2343415,-0.5003536,0.90432787,-0.22622919,0.6830667,-0.8718885,0.9032409,-0.77318585,0.82197046,-0.7218447,-0.16139877,0.08567929,0.8093283,-0.2739774,0.24759686,-0.4327798,-0.89835286,-0.9710064,-0.6817347,0.8550534,-0.043988585,0.22503173,0.02566731,0.3017528,0.82423174,-0.8178413,-0.23476887,0.8090279,0.95482457,-0.32458985,0.5556768,0.3093897,0.46425068,-0.063840985,0.36192977,0.7442045,-0.21854305,-0.76516175,0.8849493,0.8011818,-0.09887314,0.10434568,-0.41016197,-0.8509325,0.25110662,-0.2528181,0.39871454,0.4111631,0.29065168,-0.498235,0.034875154,0.6215285,-0.4958986,0.030491471,0.81076026,0.5693356,0.7773423,0.88119316,-0.36163592,-0.4130833,0.5287987,0.17898428,0.86202693,-0.38346827,-0.7690406,0.08210385,0.0673753,0.0059120655,0.030980468,-0.9384643,-0.08095944,-0.11004996,0.29796243,0.38915646,-0.3155018,-0.77504313,-0.27714872,-0.31863773,-0.679845,0.95245326,-0.6847638,-0.6881397,0.038744807,0.10766542,0.15592682,-0.021843791,0.62760663,0.06400132,-0.88217795,0.46820533,0.91786623,-0.6729448,-0.8931595,0.8302735,-0.6945925,0.8146403,-0.6424842,-0.21288776,0.6416073,0.42888832,-0.3440354,0.029349208,0.78351784,0.8059124,-0.18313944,0.3490739,0.87456644,0.04651344,-0.29851103,0.81440127,-0.3609923,-0.5484415,-0.5140765,0.23898852,-0.79270923,0.7431301,0.42167902,-0.13030672,0.27515793,0.744643,0.43197024,-0.41161764,-0.39542556,-0.41581237,0.38352203,0.3853258,0.8590965,0.8067535,0.014328837,0.1704998,-0.7967534,0.59911096,-0.96136963,0.99579465,-0.09755385,0.21046281,0.7282913,-0.24584758,-0.28202343,-0.2144376,-0.5604961,0.6084136,-0.045960665,-0.42508936,-0.4251132,0.39994264,-0.6233735,-0.69558394,0.9772968,-0.7788409,-0.75771093,0.96610487,0.9678433,0.5636436,-0.71032643,-0.799219,0.1863817,-0.5777513,0.65684736,0.38075483,-0.93073153,0.46464992,-0.54516244,0.9731889,-0.23489213,-0.38080108,-0.74634266,-0.5661924,-0.49998343,-0.039527416,-0.30620635,0.25982964,-0.6778711,-0.7661146,0.34091008,0.97138333,-0.29961658,-0.37550235,-0.01669538,-0.67869437,-0.002947688,-0.27583647,-0.80003333,-0.7099433,-0.95676446,-0.46879244,0.95450747,0.4219681,-0.57249975,0.2545066,-0.99565434,-0.10530579,0.9838581,0.6580101,-0.80729437,0.8523812,0.35266972,0.18674743,-0.044792414,0.89721656,-0.6742296,0.26096392,-0.14455056,0.8805107,0.19600654,0.88532317,0.61696017,-0.32115102,-0.36055183,0.16296446,0.7548722,-0.9583001,-0.29261756,-0.9771881,-0.44826066,0.27766442,-0.37459028,-0.23394334,0.66765296,-0.83347046,-0.9723904,-0.23832715,0.32176912,0.9554546,0.83337367,0.8733535,0.11811042,0.26125813,-0.9768027,-0.18888938,0.42883086,0.93725884,-0.39107203,-0.45215046,0.68913853,0.33510363,-0.3115195,0.1115458,-0.18227804,-0.066108584,-0.44786036,0.92481875,0.1489693,-0.34337807,0.7817087,0.22745693,0.02066183,0.9031658,0.13063395,-0.04002011,-0.5908699,-0.54317915,-0.9180796,-0.34208643,-0.73800826,0.6923082,0.30849993,-0.5899211,0.60745394,0.35908723,0.13262904,0.3617015,-0.96727633,0.55740905,-0.98022354,-0.38869774,0.76807857,0.09260392,0.0139449835,0.80034614,0.7330681,0.25539362,-0.21363413,-0.11538851,-0.79023063,0.5170865,0.6506201,0.4100982,0.6228452,0.9341625,0.47400272,0.5123991,-0.9025351,-0.86663115,-0.05997336,0.35690308,0.98307145,-0.5998472,0.8605405,0.90845764,-0.3119905,0.6665826,0.9050956,0.4415431,-0.21077621,-0.27281392,0.6770158,0.46868718,-0.93922734,0.18905783,-0.4205706,0.84408617,0.31186593,-0.56839275,0.08256006,0.79957235,-0.14494908,-0.5610887,0.31877732,0.3730055,0.28448057,-0.49979162,0.24763477,-0.556551,-0.75274324,0.7353902,0.42688465,-0.4769565,-0.5481924,-0.9404706,0.56957996,-0.746102,0.7835914,0.35950267,0.8921982,-0.43725634,-0.12016499,-0.63181996,0.7076626,0.10645211,0.9532013,-0.3617729,0.641768,-0.5134711,0.41690433,0.49736977,0.00087571144,0.4502145,0.59308624,-0.48984218,0.4212302,-0.14522266,0.68338466,-0.42820168,-0.5883604,0.7197858,0.37096572,0.7331486,-0.6743641,0.78999126,-0.8286216,0.9860586,0.5722631,0.5913398,0.58840406,-0.94040155,-0.32716048,0.6943203,-0.46009672,0.8313502,0.94553816,-0.6992332,-0.6663214,-0.3377583,0.31616426,-0.8882891,0.6695653,-0.79218054,-0.5385643,-0.32094538,-0.6538415,-0.6068616,0.90485716,-0.8558973,0.7801577,-0.801522,-0.9922464,-0.9040855,0.4794582,-0.7419008,0.2545619,0.50676095,0.29616272,-0.22753024,-0.0050963163,-0.9072665,0.8408432,-0.30751836,-0.25464308,-0.5366192,-0.5724951,0.4024241,