{"learning_rate":0.1,"input_layer":{"activations":[0.0,0.0,0.0,0.0,0.0,0.0,0.0,0.0,0.0,0.0,0.0,0.0,0.0,0.0,0.0,0.0,0.0,0.0,0.0,0.0,0.0,0.0,0.0,0.0,0.0,0.0,0.0,0.0,0.0,0.0,0.0,0.0,0.0,0.0,0.0,0.0,0.0,0.0,0.0,0.0,0.0,0.0,0.0,0.0,0.0,0.0,0.0,0.0,0.0,0.0,0.0,0.0,0.0,0.0,0.0,0.0,0.0,0.0,0.0,0.0,0.0,0.0,0.0,0.0,0.0,0.0,0.0,0.0,0.0,0.0,0.0,0.0,0.0,0.0,0.0,0.0,0.0,0.0,0.0,0.0,0.0,0.0,0.0,0.0,0.0,0.0,0.0,0.0,0.0,0.0,0.0,0.0,0.0,0.0,0.0,0.0,0.0,0.0,0.0,0.0,0.0,0.0,0.0,0.0,0.0,0.0,0.0,0.0,0.0,0.0,0.0,0.0,0.0,0.0,0.0,0.0,0.0,0.0,0.0,0.0,0.0,0.0,0.0,0.0,0.0,0.0,0.0,0.0,0.0,0.0,0.0,0.0,0.0,0.0,0.0,0.0,0.0,0.0,0.0,0.0,0.0,0.0,0.0,0.0,0.0,0.0,0.0,0.0,0.0,0.0,0.0,0.40234375,0.7890625,0.9921875,0.87109375,0.109375,0.0,0.0,0.36328125,0.1953125,0.0,0.0,0.0,0.0,0.0,0.0,0.0,0.0,0.0,0.0,0.0,0.0,0.0,0.0,0.0,0.0,0.0,0.14453125,0.83984375,0.98046875,0.98828125,0.98828125,0.98828125,0.671875,0.0,0.15234375,0.9375,0.4765625,0.0,0.0,0.0,0.0,0.0,0.0,0.0,0.0,0.0,0.0,0.0,0.0,0.0,0.0,0.0,0.0,0.05078125,0.74609375,0.98828125,0.87890625,0.46875,0.21875,0.98828125,0.68359375,0.0,0.2421875,0.98828125,0.359375,0.0,0.0,0.0,0.0,0.0,0.0,0.0,0.0,0.0,0.0,0.0,0.0,0.0,0.0,0.0,0.0,0.51171875,0.98828125,0.67578125,0.0546875,0.0,0.03515625,0.98828125,0.68359375,0.0,0.359375,0.98828125,0.16796875,0.0,0.0,0.0,0.0,0.0,0.0,0.0,0.0,0.0,0.0,0.0,0.0,0.0,0.0,0.0,0.0,0.546875,0.98828125,0.21484375,0.0,0.0,0.09375,0.98828125,0.68359375,0.05078125,0.72265625,0.953125,0.11328125,0.0,0.0,0.0,0.0,0.0,0.0,0.0,0.0,0.0,0.0,0.0,0.0,0.0,0.0,0.0,0.0,0.546875,0.98828125,0.3359375,0.0,0.0,0.37890625,0.94140625,0.23828125,0.32421875,0.98828125,0.78125,0.0,0.0,0.0,0.0,0.0,0.0,0.0,0.0,0.0,0.0,0.0,0.0,0.0,0.0,0.0,0.0,0.0,0.51171875,0.98828125,0.890625,0.6328125,0.1796875,0.37890625,0.609375,0.140625,0.90234375,0.98828125,0.4765625,0.0,0.0,0.0,0.0,0.0,0.0,0.0,0.0,0.0,0.0,0.0,0.0,0.0,0.0,0.0,0.0,0.0,0.05078125,0.70703125,0.9765625,0.98828125,0.97265625,0.81640625,0.14453125,0.4765625,0.98828125,0.6640625,0.02734375,0.0,0.0,0.0,0.0,0.0,0.0,0.0,0.0,0.0,0.0,0.0,0.0,0.0,0.0,0.0,0.0,0.0,0.0,0.0,0.390625,0.76953125,0.98828125,0.98828125,0.98828125,0.9921875,0.8828125,0.13671875,0.0,0.0,0.0,0.0,0.0,0.0,0.0,0.0,0.0,0.0,0.0,0.0,0.0,0.0,0.0,0.0,0.0,0.0,0.0,0.0,0.0,0.03515625,0.5625,0.89453125,0.98828125,0.9921875,0.71484375,0.0,0.0,0.0,0.0,0.0,0.0,0.0,0.0,0.0,0.0,0.0,0.0,0.0,0.0,0.0,0.0,0.0,0.0,0.0,0.0,0.0,0.0,0.0,0.0,0.6015625,0.9921875,0.99609375,0.9921875,0.6328125,0.0,0.0,0.0,0.0,0.0,0.0,0.0,0.0,0.0,0.0,0.0,0.0,0.0,0.0,0.0,0.0,0.0,0.0,0.0,0.0,0.0,0.0,0.2578125,0.88671875,0.98828125,0.703125,0.77734375,0.98046875,0.51953125,0.0,0.0,0.0,0.0,0.0,0.0,0.0,0.0,0.0,0.0,0.0,0.0,0.0,0.0,0.0,0.0,0.0,0.0,0.0,0.0,0.0,0.4140625,0.98828125,0.66796875,0.0234375,0.01953125,0.3515625,0.8671875,0.64453125,0.0,0.0,0.0,0.0,0.0,0.0,0.0,0.0,0.0,0.0,0.0,0.0,0.0,0.0,0.0,0.0,0.0,0.0,0.0,0.0,0.71484375,0.98046875,0.27734375,0.0,0.0,0.0,0.48046875,0.96875,0.22265625,0.0,0.0,0.0,0.0,0.0,0.0,0.0,0.0,0.0,0.0,0.0,0.0,0.0,0.0,0.0,0.0,0.0,0.0,0.08984375,0.95703125,0.65625,0.0,0.0,0.0,0.0,0.1015625,0.859375,0.8046875,0.0,0.0,0.0,0.0,0.0,0.0,0.0,0.0,0.0,0.0,0.0,0.0,0.0,0.0,0.0,0.0,0.0,0.0,0.10546875,0.98828125,0.77734375,0.0,0.0,0.0,0.0,0.0,0.46875,0.96484375,0.2890625,0.0,0.0,0.0,0.0,0.0,0.0,0.0,0.0,0.0,0.0,0.0,0.0,0.0,0.0,0.0,0.0,0.0,0.05859375,0.8828125,0.96875,0.2109375,0.0,0.0,0.0,0.0,0.36328125,0.98828125,0.203125,0.0,0.0,0.0,0.0,0.0,0.0,0.0,0.0,0.0,0.0,0.0,0.0,0.0,0.0,0.0,0.0,0.0,0.0,0.609375,0.98828125,0.98828125,0.52734375,0.29296875,0.4140625,0.484375,0.95703125,0.8828125,0.05078125,0.0,0.0,0.0,0.0,0.0,0.0,0.0,0.0,0.0,0.0,0.0,0.0,0.0,0.0,0.0,0.0,0.0,0.0,0.28125,0.96484375,0.98828125,0.9921875,0.98828125,0.98828125,0.98828125,0.98828125,0.70703125,0.0,0.0,0.0,0.0,0.0,0.0,0.0,0.0,0.0,0.0,0.0,0.0,0.0,0.0,0.0,0.0,0.0,0.0,0.0,0.0,0.25,0.76171875,0.9921875,0.98828125,0.98828125,0.91796875,0.47265625,0.0546875,0.0,0.0,0.0,0.0,0.0,0.0,0.0,0.0,0.0,0.0,0.0,0.0,0.0,0.0,0.0,0.0,0.0,0.0,0.0,0.0,0.0,0.0,0.0,0.0,0.0,0.0,0.0,0.0,0.0,0.0,0.0,0.0,0.0,0.0,0.0,0.0,0.0,0.0,0.0,0.0,0.0,0.0,0.0,0.0,0.0,0.0,0.0,0.0,0.0,0.0,0.0,0.0,0.0,0.0,0.0,0.0,0.0,0.0,0.0,0.0,0.0,0.0,0.0,0.0,0.0,0.0,0.0,0.0,0.0,0.0,0.0,0.0,0.0,0.0,0.0,0.0,0.0,0.0,0.0,0.0,0.0,0.0,0.0,0.0,0.0,0.0,0.0,0.0,0.0,0.0,0.0]},"activation_layers":[{"neurons":[{"activation":0.0,"weights":[0.12073898,0.99247456,0.7916306,-0.34185743,0.13881159,0.13764381,-0.18233955,0.9839785,-0.64292455,-0.31525266,-0.42761695,-0.8635583,0.92513204,0.035718072,0.95049304,-0.8460065,0.10756338,0.8772806,0.30273283,-0.7299595,-0.88325965,0.9816257,-0.7413422,0.76104593,0.3790772,0.53564966,-0.8164246,-0.13558185,-0.6675141,0.3798262,-0.43924165,-0.914572,-0.3759154,0.73152125,0.19374616,-0.922418,-0.2722034,-0.23256803,0.4065071,0.32545546,0.08997701,0.6372752,0.74669784,-0.413466,-0.5320892,0.9765934,-0.7638621,-0.88624036,-0.34842354,1.0036671,-0.34922972,0.4822189,-0.8799057,0.2833228,0.6810061,0.28325593,-0.77230656,0.07300961,0.7985537,0.34985864,0.044337194,-0.89580715,1.6398213,1.5556388,-0.039752815,0.93334854,1.7061125,1.5613757,1.1277099,0.7032257,-0.2240671,-0.8171745,-0.7299033,-0.86297673,1.5801711,2.0133204,2.7633512,0.8110669,-1.0266656,0.23677613,0.89397544,-0.17572875,-0.26909363,-0.3980894,0.41926694,-0.6988478,0.34842777,0.76406217,-0.42929518,0.27635175,1.7209245,0.99398375,1.8280168,2.71458,3.2578964,1.785726,-0.5090111,-0.29545176,0.45878026,-1.6142317,-0.63485366,2.2246783,3.1230361,3.484212,3.9062793,1.1279271,0.04372684,0.5322801,-0.40183842,0.8371784,-0.7521486,0.8208511,0.72039866,0.5295907,-0.43315622,-0.35791364,0.30645669,0.08972638,0.35921702,0.7239607,2.6185968,0.7309675,0.57463104,1.7153268,-0.4319466,0.7232865,2.0647702,0.61094385,1.7528332,2.9349828,4.2426715,2.8574426,1.4303576,-0.1404527,-1.8146169,-0.95503753,0.4821402,0.29979417,-0.055048343,0.32071897,0.8954654,0.29697847,0.90129817,-0.12476694,0.29919526,1.6490916,1.2501255,2.2559268,2.9860728,0.36053088,-0.31402045,-0.75516284,-1.0147365,-0.24477193,1.750467,5.976314,2.7721133,1.2522535,1.6384305,0.5229994,-0.69150376,-1.5969211,-3.360571,0.29566848,0.30618018,-0.60938317,1.0440705,0.9492945,0.2465949,-0.31198227,0.49278337,-0.5991114,-0.47346744,1.0836289,3.768701,3.7287385,2.6719172,-1.4673263,-0.8468515,-1.5948632,-2.545277,-1.4850878,1.4087117,3.7718308,2.9347768,-1.6381624,-4.0599313,-2.151465,-0.2672529,-1.904876,-1.2867192,-0.47303715,-0.029819274,-0.964918,-0.7942023,-0.20660938,-0.9414366,-0.36234358,-0.6293735,-1.177132,-0.14222436,0.0732853,2.8912005,3.6389296,0.04058671,-1.5976946,-0.6864295,2.706059,0.95167553,0.7566521,0.75262046,1.8642999,-0.65497357,-5.874089,-7.479932,-2.3198075,-2.4992142,-0.8965406,-0.9516068,-1.6340724,-2.3372843,-0.91202724,-0.58560574,0.7361464,-0.16140977,-0.24519649,0.18959114,0.6315321,-0.5232552,-1.0344863,0.7542572,-0.11685607,-1.5141711,-2.545912,-2.724522,0.5052166,0.60333574,4.0400114,1.7449447,-2.4161322,-3.696625,-7.274644,-6.5482903,-3.379188,-2.2179952,-2.96024,-3.3446705,-3.364184,-2.7252975,-2.4718986,-0.060579415,0.38184088,-0.50454634,-0.43331125,0.009486723,0.08815819,-0.15668425,0.06885928,-0.38779032,-1.8912698,-2.3170216,-2.3821797,-0.64535564,0.082468905,0.87531984,4.3941464,-0.28354684,-5.392722,-7.5741363,-5.2073445,-5.2823486,-2.3367126,-2.2422466,-4.2017374,-4.676599,-2.7429225,-2.135486,-0.48386896,-0.26541483,-0.2713124,0.46568167,-0.79520744,0.44692773,-0.1332698,0.36070088,0.079999365,1.2733713,-0.31263238,-1.6646639,0.521217,0.15484804,-0.6403203,1.5873895,-0.27094468,-3.2057164,-7.7400002,-6.7357426,-3.0693195,-2.2720387,-2.034887,-1.771304,-4.0632377,-2.6069255,-1.0823436,-1.8832103,-0.798868,-0.3719806,0.7524322,0.36467722,-0.33350477,0.16959792,0.70217544,-0.67545086,1.1367246,-0.20330559,-0.46889576,-2.0219164,0.46993822,0.3879459,-0.13801885,0.58857447,0.06528645,-5.0058236,-9.08134,-4.6654325,-3.1916208,-0.616955,-3.094674,-0.87414455,-0.12758711,2.4553087,0.6734849,-0.21687725,-0.48204926,0.08645333,-0.04345499,0.91809845,-0.32984588,-0.09191567,-0.5041663,-1.0898421,0.013583583,0.009071213,-0.2662397,-1.0051267,0.7177993,1.1115177,-1.7183168,1.2847918,-7.3964763,-12.083714,-12.102651,-8.450067,-3.9266818,-3.787637,-4.4173,-1.5972759,0.86756414,1.8122985,1.9802846,1.6146382,-0.72688794,-0.8025714,0.9638318,0.19545531,-0.13676766,-0.07952479,0.36168563,0.52137643,0.12366773,-0.62993246,-0.34243706,0.741483,0.15860786,-1.008698,1.5206852,1.4636586,-7.5023694,-8.463187,-7.4757986,-5.7387357,-5.664969,-5.1650476,-2.0687122,-0.1757295,1.6372217,2.2597556,2.0499935,1.3155837,0.6577224,-0.2514499,-0.26666752,0.30469537,-0.079312965,0.20838222,-0.36491638,-1.153105,-0.546499,-0.5793551,1.9699425,0.76796174,1.7753625,3.179267,2.9693613,-3.2485955,-7.5463314,-4.558813,-6.354104,-5.0049663,-5.3108616,-4.4886026,-2.1092975,1.5088866,3.462791,2.6976738,3.722743,0.8751573,-0.89568084,-0.5151175,-0.76178485,0.4067545,0.035094466,-0.5701253,0.84772265,-2.0006595,-1.037675,0.7817104,0.22615676,2.5660205,3.3125749,6.3785114,2.632113,-0.9696791,-3.93961,-3.6368117,-4.2080584,-2.7890513,-2.7907217,1.6698253,-0.10235634,1.7313113,4.8086824,3.0977576,3.4377215,2.9321125,0.29920575,0.027546342,-0.93268,0.44890928,-0.90940046,0.3882421,0.8258798,-0.3591614,0.93343794,1.2229878,0.97883683,3.4842145,8.426416,9.405989,5.7246766,2.6935158,-0.054647308,-3.9717367,-5.2328105,-4.0969462,-3.5221765,2.0111198,2.404488,0.33110586,0.6111269,3.8628507,1.2643068,1.8958169,0.36509013,0.79324454,0.392379,0.33286393,0.12207644,0.67446387,-0.55399585,-1.3087182,0.6993676,-0.25130108,-0.33809984,6.4898243,11.076098,12.123878,9.063772,5.6262584,2.0191247,-3.8436668,-4.9632173,-3.2712476,1.2300572,2.4686022,4.2201304,1.9048053,2.0401118,3.1907172,1.6015503,0.5216228,2.2315464,-0.8590149,-0.57295763,-0.68658507,0.90337735,0.30657688,-0.21211174,-1.8345375,-0.01671893,-0.96178186,-0.3726966,5.878448,9.126201,7.8769283,6.45803,5.418372,1.9928592,-1.6403563,0.010240362,3.6992455,0.9903115,3.598301,4.195464,1.9509331,1.9625797,1.842908,1.5574503,0.89496243,0.72336674,-0.17481995,0.4387305,-0.47669446,-0.33247927,0.27844295,-1.5364811,-1.9212401,-1.4429563,-1.3220881,0.5713981,2.347995,5.64443,6.470687,5.2287645,5.437253,-0.25819582,-0.058835715,5.301444,3.776152,2.0010164,3.561673,1.0169667,1.3750975,2.2197645,3.9246216,0.45219702,1.8108736,-0.002513408,0.021746974,0.4697844,-0.5509312,0.8944082,-0.10639629,-0.42815226,-1.2403506,-2.1438901,-3.8504744,-1.7757262,0.3033359,0.10690193,1.081981,5.046313,4.1917486,2.5024245,5.9682293,6.3041043,4.224475,1.1094502,0.47575623,1.2836185,3.1116364,6.0645924,4.099865,3.308824,1.9024284,2.4743218,-0.760146,0.05003417,0.22957408,-0.2068388,-1.2744246,-1.5174915,-0.6722972,-1.8647147,-3.709434,-1.1960144,-0.36436278,-1.2285337,0.052790567,1.6085653,-0.08846411,-0.010001316,2.402067,4.738534,2.918072,-0.048446268,1.3115388,0.9930284,3.6920502,2.4511886,1.8690932,3.4159963,2.97405,-0.016594965,-0.3235241,0.11512065,-0.9160645,-0.8279711,-0.40481234,0.23228876,-1.6740115,-2.3565245,-0.7401731,-2.8515174,-2.1891818,-3.0507076,-3.854712,-1.3090447,-4.3631983,-4.065336,-1.5220826,-1.4582353,-1.4800637,-1.2004161,-0.7099785,1.2240137,1.7951906,1.2216972,0.31859475,0.14579272,1.1463449,-0.36612314,0.77978605,0.29360652,-0.11765444,0.030692577,-0.08643825,-0.529419,-0.098647304,-0.16470638,-0.1710863,-0.8284293,-0.41658962,-0.81511915,-2.4993114,-4.1358614,-4.389279,-5.814814,-4.069866,-5.4545126,-2.4709308,-3.5899918,-1.7721403,-1.3409896,-1.4812162,0.0402632,0.84222364,0.55383,-0.34264347,0.539734,-0.2462691,0.64535594,0.93729424,0.6807313,0.66921127,-0.7091644,-0.47755316,-1.2716297,0.0840576,-1.070013,-1.3671482,-0.32129627,-2.9974146,-2.3344653,-1.4053229,-2.038093,-2.5670805,0.65315104,-1.4635521,-3.289354,-3.2353063,-0.81630194,-0.86315525,0.26773253,-0.23831686,0.9273248,0.31593847,-0.13686249,-0.6619871,-0.6109512,0.49873614,-0.024103165,0.24403465,-0.65327585,-0.99003446,-0.98871917,0.17570639,-1.5635206,-0.8908634,-0.32697755,-0.47959182,-2.4726205,-2.2349465,-3.2845988,-1.4767869,-1.2656991,-0.17873064,-0.47200203,0.12813267,-0.92210394,-1.1283219,-0.66841376,-0.65036833,-0.4023778,0.9068951,0.5612313,0.7381254,0.48316002,-0.7171184,0.8997158,0.5699358,-0.053876366,0.65682036,-0.88926756,0.61884385,0.19978473,0.050404213,0.7472287,1.0124284,-2.0409012,-0.6567813,-0.78263366,-0.33845013,-0.3260313,0.78444254,-0.51076436,-0.6259928,-0.08546396,0.5316167,-0.052037966,-0.581972,0.1616181,0.33452606,-0.25925624,0.13000476,0.40099812,-0.47070312,0.26720226,-0.16525698,-0.56453526,-0.5010919,-0.22955216,-0.5924629,0.28095278,0.43674028,0.13942759,-1.0413296,0.16118658,0.45548776,-0.7382653,-0.2218407,-0.401996,-0.090632856,-0.36009157,0.2803884,0.781592,-0.5663582,-0.74852157,0.553013,-0.4214152,-0.55432343,-0.3527745,-0.056863785,-0.50049746],"bias":-7.6565123},{"activation":4.3940735e-27,"weights":[-0.40469515,0.81999266,0.47111285,-0.41695392,0.6650951,0.34917378,0.42465663,-0.7828227,0.3856305,-0.26531303,0.6173922,0.8956616,-0.90902454,0.7880597,0.5146375,-0.23584165,-0.29219687,-0.4341278,0.15859354,-0.15125632,-0.5581007,-0.36948633,0.8410866,-0.065211296,-0.9863186,0.72609055,0.7788012,0.6164683,-0.5199326,-0.3333938,-0.9401709,-0.6154518,0.9559233,0.85560673,-0.17471075,0.14980446,0.37015966,-0.2664167,0.63795346,-0.3701235,0.7571858,-0.20302719,-0.53232336,0.8079691,0.053079363,0.652478,-0.70347655,0.07254536,0.044546008,-0.55648965,0.1484854,0.24800994,-0.5642071,0.44797623,-0.43480217,0.19596028,0.10274243,-0.62563217,-0.10566044,-0.9924188,-0.31243634,-0.14088438,-0.55496395,-0.5437124,0.18024889,0.6843131,-0.47019282,1.2835014,0.41011885,-0.0061155143,0.64147335,-0.17919199,-0.05228731,0.13030058,-0.5115588,0.1094296,0.19698413,0.7412466,-0.14445662,0.7512823,-0.7311553,0.6796148,-0.42987514,0.71026886,0.18769765,-0.7445898,-0.51110566,-0.7038064,-0.22961439,-0.49351394,0.49898994,-0.26881582,-0.59356254,1.0024552,0.47555134,0.6346998,-0.16051263,0.7952678,0.18326618,0.1061672,-0.6518472,-1.1759572,-0.6693059,-0.41137797,0.09186684,-0.32344675,0.6224194,0.9928549,-0.7711379,0.7670805,-0.89993584,0.012298942,-0.13498485,0.6981952,-0.35209528,0.9830585,-0.7081651,-0.027867284,0.27564144,-0.7625091,-0.3982895,-0.802746,-0.7395762,0.4801477,0.44284123,-0.5684293,-0.9822654,-1.0757738,0.027517892,-0.08492381,-0.043286186,0.17122795,-0.28418788,0.3500344,-0.71656674,-0.16936623,0.77341527,0.23425311,0.7298464,-0.8985583,0.06940687,-0.35187447,0.5092507,-0.11649456,-0.95605135,-0.6143224,-0.35082448,-1.2985792,-1.8299215,-0.44314215,0.27837566,0.4478252,-0.64747083,-1.654846,-1.374588,-0.6839819,-1.519587,-0.37696487,-1.0199493,-1.2307302,0.2582426,-1.0105817,0.1591609,-0.23472957,0.8821595,-0.1884176,0.29167274,0.29696232,0.119403005,-0.16960175,-0.093817234,0.51764995,-0.529439,-0.7916982,0.13296025,-1.716036,-1.7578188,-0.402716,0.23829378,-0.6395791,-0.90714085,-0.15035804,-0.7879155,-0.8153521,-1.573641,-1.9290977,-0.8686466,-0.6761934,-1.3769853,-0.23252198,0.17732438,0.25951478,-0.25292006,0.028166262,-0.057479993,0.1625599,-0.19301388,0.9744454,-0.13175821,-0.5478208,0.047522295,-0.28390267,-1.3541617,0.3595921,-0.81038296,0.058170967,0.21032369,1.0932506,-1.2291474,-0.027355898,0.32561058,-0.4777865,-1.4438229,-1.263865,-1.7071607,-0.16543204,-0.048464417,-1.4716663,0.027328383,0.3564829,0.9739442,0.92335564,0.8640906,0.35391492,-0.13995922,-0.58764726,0.3109119,-0.087547675,-0.9569911,-1.3212283,0.7864171,1.1215601,1.1704881,1.3949479,0.12857908,0.22918898,-1.3872846,-1.2465547,-0.590606,-0.65687084,-0.8085152,-1.0390767,0.120836094,-1.2620925,-0.49720663,-0.25035685,-0.03854062,-0.97097623,1.2181867,-0.13692592,-0.4531897,0.6433052,-0.9012428,-0.9289198,-0.05765805,-0.93827593,-0.32538798,0.44422305,-0.32363206,0.21680485,1.634488,1.9070212,1.4716727,-0.4464728,-0.23063289,0.020813065,0.51162726,-0.6774717,-1.0183967,-1.9037461,-0.22719829,-0.106316276,-1.5810591,-1.5374773,-1.0141673,-1.0387576,-0.59135985,0.61444616,-0.9034391,0.9945385,0.2531518,-0.22696826,1.0308985,0.2998801,-0.13288878,-0.6166435,1.0049617,0.90586627,2.1596005,0.9425582,0.7127096,-0.2047446,0.07082952,-0.6406187,-1.8078839,-1.8763663,-0.8705458,-1.0681765,-0.21518742,-0.6218427,-0.6310818,-1.0609773,-1.4055188,0.23197033,-0.32188046,0.7352177,-0.9343207,-0.018409733,0.7005912,-0.96832216,-0.5288837,0.47371837,-0.44108745,0.9100416,2.3666418,2.4031055,2.2010608,2.000809,0.12881736,-0.083399445,0.20103115,-1.1239486,-3.9179597,-3.1325867,-2.0975373,-0.084463485,-0.2192979,0.3994815,-0.042503458,-0.17424181,0.82606775,0.29595858,0.8074052,0.26539993,-0.10256189,0.8293575,-0.10564285,0.8758233,-0.04446544,-0.77300185,0.09214841,1.8297982,2.488756,1.5349854,0.060729507,-0.8913121,-1.5756888,-1.1319398,-0.95510817,-2.6184757,-2.9795895,-2.7627094,-1.7205133,0.23913874,0.3835188,0.21099547,0.33844486,1.3994899,0.004355165,-0.778688,0.2798225,-0.36373043,0.22019812,-0.9387429,-0.8666352,-0.43323988,0.0006114863,0.64081246,-0.03919417,1.0576003,1.280636,0.99849087,-0.32698044,-0.10530149,0.07165617,-0.49545237,-1.3391126,-1.671774,-3.357181,-1.9017162,-0.47996625,1.5238895,-0.4254186,0.22729328,0.64715564,1.1219627,0.61142623,0.13985568,0.14018866,0.02044058,0.4015958,0.65792036,0.9384558,0.68545955,-0.8421339,0.13102813,0.02722011,1.2507205,0.7912917,0.36258468,0.73038346,0.46732768,-1.1116059,-1.4174765,-0.38817984,-1.3494656,-1.7838725,0.54961044,0.46130052,-0.2529754,-0.6182732,-0.7783841,0.9610594,-0.26080284,0.6227065,0.75253165,-0.13012233,-0.42873847,0.3778758,-0.8456773,-0.23955722,0.3703895,0.20117533,0.63659066,-0.8314865,-0.48230085,0.5900305,0.8464418,0.4313451,-0.42341882,0.35485327,-1.6159147,-2.4422514,-2.6094797,-1.0778382,-0.15264086,0.6612156,-0.97801816,-1.6680316,-0.6267608,-0.5751993,0.58442396,0.8726449,0.00783929,0.8396266,0.15059362,0.82620543,-0.62851256,-0.64278555,0.78552055,-0.017791264,-0.056871243,-1.028036,0.67675465,0.9860599,0.7558822,-0.000049113725,0.10478465,0.64788586,-0.24834673,-1.5190904,-1.6887522,-0.34785286,-0.3827729,-0.7007362,-2.3692012,-2.8488786,-1.4881421,-0.6246683,0.112036645,0.023956511,0.77564275,0.86622536,0.84633976,0.12008733,0.5700809,0.3803525,0.101989776,0.07755761,-0.46947968,0.19831789,0.44955298,1.3780434,0.35713887,-0.15571387,0.33007124,-1.0437088,-0.33166006,-1.7687148,0.082185596,0.84810096,0.74920464,0.51310533,0.026807884,-1.8122252,-0.51007503,-0.31028113,-0.20879975,1.2223517,1.6536146,0.61894673,0.94334066,0.9707395,0.7883028,-0.12506385,0.64674854,0.22570233,0.4693998,-0.4988414,-1.0132568,0.45168734,1.3001338,0.0015267609,0.5186183,-1.424744,-1.075342,-0.48000398,0.27045026,0.99439335,1.0885507,-0.14307818,0.4780523,0.34119225,0.5382891,0.426553,0.871941,1.4782906,1.3565629,0.42280772,0.9287606,-0.111155026,-0.8072708,-0.18871689,0.28677124,0.8318835,0.13628863,-0.08403722,-0.30271253,1.0123084,0.7901553,-0.6255788,-0.49411353,-0.13782099,-0.20135419,0.33556777,1.0850955,-0.025220847,-0.036790982,-0.90352845,0.22410022,-0.34499013,-0.15129435,-0.037413374,1.7235398,0.27072018,0.30019316,0.3235405,-0.671367,-0.58400935,0.42503244,0.20307517,-0.25937742,0.70285225,-0.6371568,-0.7220618,-0.07828392,-0.74442416,-0.33089474,-0.89465415,-0.79194194,-0.56334317,-0.49513504,0.65668505,0.5706014,0.18270968,-0.02273339,-0.8031981,0.4210904,-0.22776125,0.8609596,0.79468215,0.96178263,-0.29829845,-0.028176669,-0.042211223,-0.7302475,0.6611696,-0.76638925,0.38358903,0.77259374,-0.3458195,-0.2528929,-0.60404974,-0.47728822,-0.103011765,0.34794003,-0.8448189,-1.469366,-1.8528936,-1.1410267,-2.0250056,-2.543822,-2.069921,-1.4411639,-0.7781402,-0.005212793,-0.87344164,-0.14578156,0.22473036,0.69590235,-0.43759128,0.7997933,-0.52086693,-0.10555675,0.02323257,-0.7638562,0.21964812,-0.3817315,-0.4708893,-0.9596467,-0.30883217,-0.13475111,-0.46378002,-1.0662241,-0.6693861,-1.4585643,-1.8248665,-1.215366,-1.8582902,-1.9835926,-2.0855381,-1.7951237,-1.4004273,-1.2574366,-0.91521734,-1.2154958,0.4517778,-0.6292554,-0.41726923,0.38060367,0.9402781,0.22723532,-0.77483135,-0.8580323,-0.035888314,0.36934245,-0.59392,-0.92567587,-0.4521913,-0.5696068,-1.1505312,0.15883559,-0.9937122,0.21515188,-1.4531405,-1.6579043,-0.4422623,-2.1455572,-1.8533133,-1.8191521,-0.57559544,-0.35629702,-0.5199725,-0.41161644,1.0749294,0.3669648,-0.67823327,-0.5870285,-0.48846313,-0.31322947,0.9917331,-0.61698556,0.48040342,-0.7181729,-0.15164255,0.74917156,-0.27824703,0.3204035,0.09001703,-1.0922182,-0.8332455,0.13198231,-0.38925222,-0.28626925,-0.2601068,0.5060333,-1.1161168,-1.2672769,-1.1106381,-0.11701908,-0.21093969,1.0317498,-0.4618858,0.502648,0.020780273,-0.21096343,0.43594152,0.6022722,0.555373,-0.7325674,-0.95491505,-0.669122,0.97654206,0.4412059,-0.92326313,0.005190491,-0.09304746,0.740911,-0.010615732,0.75469965,-0.3477548,1.1739721,0.68028295,1.031094,-0.3312832,0.2048995,0.6416331,0.8095278,1.3860961,0.17573915,1.363224,1.1487551,-0.014602522,0.5303635,0.51125365,-0.9029589,-0.814018,-0.45459402,-0.5438447,0.72964954,0.110037565,0.76503193,0.5975287,0.79196286,-0.7713756,0.16374801,-0.66803324,0.39084682,0.656378,0.9000305,-0.26108822,1.3270439,0.15265948,-0.51850015,0.5032295,-0.95921737,0.7869186,-0.1878996,0.2702302,0.8598982,-0.43822712,-0.100081734,-0.03953564,-0.69648194,0.20523405,-0.41672277,-0.36455536,-0.40188396,-0.55168307,-0.017083049,0.45827472,0.3733011,0.33947957,-0.6790973,0.21835886,0.8153158,0.97525,-0.5421092,-0.06613372,-0.4467908,-0.05894437,0.19190894,0.49974975,-0.78100425,0.76561475,-0.24807124,0.13364491,-0.36327732,-0.8772076,-0.4670813,-0.61475813,-0.28984213,0.44404984,-0.8355855],"bias":1.1442261},{"activation":1.0,"weights":[0.74623823,0.5429902,0.96549535,0.5407506,-0.7945106,-0.0555768,-0.33410954,0.2433064,-0.6868502,0.6144421,-0.68615294,-0.7280164,-0.50896674,-0.93190163,-0.05063726,0.8557329,-0.5504532,-0.77678835,0.89258814,-0.086137295,-0.24745917,-0.98696566,0.0098416805,0.39050555,-0.1317606,-0.062439084,0.33788025,-0.17583895,0.24161685,0.68698,-0.32912648,-0.18729985,0.14123404,-0.64897656,0.79912853,0.0925713,-0.6314934,-0.72140837,-0.9673345,-0.17891861,0.50178933,-0.21260643,-0.704156,0.96984816,-0.531015,0.61523277,-0.77993006,0.53646696,-0.1368072,0.80750144,-0.38453072,-0.5324103,-0.2872846,0.2666006,-0.84291124,-0.83277607,0.3530773,0.75101936,-0.97017336,-0.96379626,-0.7819932,0.4165769,0.7749285,-0.27687734,-0.55935836,0.32311592,0.75659573,-0.39213383,-0.9462429,-0.7752727,0.3696293,-0.7165233,0.7307906,-0.9291977,-0.9537342,-0.8321563,-0.74541116,0.25294062,-0.14890966,0.60392535,0.37022448,0.22754885,0.23110402,-0.79601,0.78818214,-0.13455653,0.7051631,0.21626318,0.4254216,0.07242815,0.33939245,0.30402583,0.917678,0.33942878,0.20753092,0.22593835,-0.68809366,1.3074523,0.1367299,0.70250046,0.44621664,0.73268443,0.75629485,-0.66859573,-0.90173227,-0.2018483,0.7007624,-0.009103687,0.3824456,-0.45525035,0.7797952,0.46473444,0.9781499,0.32804227,-0.80177534,0.26813877,-0.5816403,-0.25046054,-0.0041446816,0.21966892,0.19603243,0.5022748,0.024677848,0.6003407,0.9191862,0.0936537,0.38391706,0.7161494,0.3536853,-0.23042233,0.25769398,1.1009289,-0.06959499,-0.2081584,1.0121597,0.21771623,0.54130447,-0.7383389,0.41247222,0.5956023,0.15678585,-0.6521106,0.43097597,0.019882256,0.10761688,0.91368866,-0.17854774,0.99223423,0.016432479,0.18042175,0.03788717,0.9818635,0.86639094,-0.5574924,0.40315548,0.048115335,-0.23842858,0.9450926,-0.12916349,-0.10703215,0.27230963,-0.25911957,0.050221507,0.45399264,0.9849849,0.5250913,-0.7212998,0.74084044,0.958575,-0.03382956,-0.47684085,0.18996896,0.10736044,-0.1955176,0.8874452,0.0034573374,0.079357356,1.1572397,0.89007515,-0.20200475,0.9210691,0.4750859,-0.3053494,-1.0563155,-0.6009686,0.25852162,0.46004882,0.9104281,1.1674563,-0.50686055,-0.37504265,0.28320628,0.77878404,-0.6365768,-0.36201927,-0.6796834,-0.10750618,-0.13501064,-0.99442786,0.39291114,0.5174369,0.22569974,0.68217295,0.6145017,0.8122014,0.4198676,-0.34394482,0.24564146,1.1318955,0.550698,-0.1491451,0.21575752,-0.07042295,0.19510338,0.13755229,-0.07973704,0.52315855,0.0047995867,0.34091908,-0.7424236,1.0982593,-1.052859,0.5342175,-0.84802794,0.7668116,0.3190505,0.6063585,0.9275778,0.46636856,-0.5472707,-0.21612294,-0.81474817,-0.090607256,1.0748082,0.22753951,0.20818633,0.50572175,0.6435265,0.51814014,0.42173222,-0.35643786,0.38621184,-0.94775337,0.47264594,-0.6905279,0.77620906,0.32055882,0.8417346,0.8865448,-0.8831007,0.12795134,-0.9228598,0.54046464,-0.52005726,-0.43269584,0.060674638,-0.18762922,0.8817186,-0.87434745,-0.5517553,0.80664593,-0.027630359,0.4731562,1.3617787,1.3578128,-0.061374467,-0.31452897,1.4901106,-0.07831428,-0.8229396,-1.12313,0.15189803,-1.0054487,0.21270683,0.24136278,0.3670387,-1.050236,-0.48435253,-0.55694807,0.83542573,0.05485357,-0.08930308,-0.94413066,0.8733609,0.31467962,-0.43693691,0.39714977,-0.4963676,0.8266947,-0.0781973,0.33755437,1.4590825,0.13756442,1.1358267,0.83001095,-0.36237672,-0.13610542,-0.5389699,0.99054354,-0.5015226,-0.52792704,-0.22804499,1.0347435,-0.6061343,-0.14313845,-0.10396415,-0.75417477,0.07949308,0.6092302,-0.6360091,0.0024375953,-0.78985673,0.13091294,0.00832452,-0.06453474,0.69676393,0.82439417,-0.16051354,1.5028162,0.515585,0.6515989,-0.42113775,0.37951282,1.3865726,-0.14944713,-0.61681545,0.5356624,0.18864343,0.51829094,1.0459028,-0.26608056,0.46866027,0.15829042,0.33925205,0.7635399,-0.42429593,-0.4218978,0.60741544,0.2898614,0.02235987,-0.5583295,0.20809825,0.07349195,-0.017766537,1.1735163,0.6173879,0.44827247,1.5572119,0.9337459,0.05726359,-0.25236347,0.026182652,1.2172987,-0.5552355,-0.5800062,0.45745426,-0.6600398,0.40573823,0.6922747,0.31538847,-0.56461793,-0.43499026,-0.6431839,0.76949257,0.38602948,-0.98265916,0.33945894,-0.909388,-0.55423844,-0.44323188,0.21758078,-0.1804572,1.1069542,1.384944,1.1165812,1.1332523,-0.4339134,0.9008133,0.20624635,1.2356538,0.70207953,-0.26368323,-0.5450664,0.8914575,1.0234568,-0.098438725,0.47669077,-0.13137098,0.7155094,-0.28803504,-0.86326957,0.109730825,-0.8968803,-0.52126884,0.13900255,-0.4831693,-0.22994693,-0.4927255,1.1703991,0.7972793,1.5361012,-0.26844677,0.5618099,0.14040837,-0.34201217,-0.31568846,0.16751023,0.22170514,0.2560898,-0.41306835,0.0956811,0.07766312,-0.092904486,1.8723664,0.5453394,-0.49957398,0.07254434,-0.85508496,0.6822237,0.7067292,0.49426755,0.7368096,0.288187,-0.80896235,0.67425746,1.0918703,0.30666444,0.23321821,-0.11867962,-0.4636287,-0.028433083,-0.91323733,0.22843593,-0.78445816,1.1307923,0.2853347,1.1913415,-0.13332382,0.9926959,0.58304393,2.0252964,0.5754294,1.2243367,0.794542,-0.60150224,-0.5946861,0.08879431,-0.53388214,0.4491849,-0.8995674,0.38754982,-0.117151044,0.49101323,0.6577619,0.6322893,0.76377666,0.82240766,0.22174193,0.59387356,-0.91177136,-0.47374463,-1.1914864,-0.3676466,0.15798256,-0.3960896,0.50114816,0.58731747,1.7996798,1.6807978,0.7775071,0.5623816,-0.0022695595,-0.5497658,0.49937218,-0.6741414,0.6592689,0.5664998,-0.4143073,-0.78803515,0.9372313,0.48135057,-0.13583057,1.0967137,1.2529093,-0.554114,-0.7477231,0.38180596,0.35779133,0.37576348,-0.6012123,0.2692513,-0.35757455,0.3899417,-0.40662333,-0.074454516,1.6151929,-0.12853207,-0.14779739,1.5923296,-0.29637012,0.7889978,0.33584037,-0.6761926,0.3401387,-0.53906125,-0.229215,0.7491803,0.3117937,-0.96679777,1.2442402,0.9284946,1.0839217,0.25724843,0.03603442,0.04516402,-0.30879313,-0.13356195,-0.27603087,1.0190902,-0.32218525,0.31744304,-0.42669407,1.5115681,-0.018229222,1.6345779,1.5639976,1.2044038,0.17895831,-0.27604198,-0.7027012,0.55068445,-0.13336961,-0.8334242,-0.07063168,-0.27155292,0.16142017,0.022461342,-0.074625686,0.7087524,-0.41962627,0.05036427,1.3280178,1.2723975,-0.3778545,-0.5807115,0.8801877,1.0845572,0.6578305,0.16662613,0.17804004,1.0513954,0.9949323,-0.0010933299,0.6181552,0.8877348,-0.85899794,0.16391192,-0.693676,-0.19057149,-0.2744658,-0.39227617,0.7703924,-0.50895685,-0.83460724,0.81517667,1.0351088,0.56800175,0.3060455,1.3735852,0.17485467,1.1366311,0.8461612,1.4268851,-0.14536487,1.5969256,0.25406155,-0.018100621,1.0155208,0.6860109,1.8970443,0.9151672,0.4016029,0.75144047,0.34493354,-0.2634042,-0.4732436,0.0051743365,0.36111984,0.87197137,0.15049058,0.526483,0.7345495,0.4763795,-1.0846877,0.050613306,-0.47413027,0.7388148,-0.3815597,1.0266544,0.31457785,0.07540074,1.0425284,1.2848039,0.19952977,1.4768397,0.80400556,1.0199419,0.83729243,0.26191992,0.87348676,-0.8585931,-1.062995,-0.23598343,-0.64546716,0.7106742,-0.9910339,-0.08286998,0.30330914,-0.6941092,0.2636977,-0.64390016,-0.6788691,0.1682898,-0.75628066,-0.19032316,-0.5308986,0.28637314,1.2155926,1.5744599,1.5746633,0.97993034,1.4317883,0.1956269,0.34121475,0.19222869,0.8261272,-0.43037212,-0.13841401,-0.7550671,-0.8775899,-0.52557135,0.0073346663,-0.36892402,-0.39328194,-0.32451522,0.84267664,0.2684503,0.73172617,0.5871032,0.16047907,-0.140605,0.6883609,-0.6614492,0.5465227,0.433272,-1.1457314,-0.93518823,0.06384165,-0.44208837,-0.48622036,-0.7273114,-0.010481361,-0.43014425,-0.80356985,-0.47201034,-0.9613587,0.58168817,-0.20474455,-0.7210918,-0.19569792,-0.4078742,0.33755374,-0.1070683,-0.56878924,-0.2362272,-0.19380587,-0.8314134,0.3815726,-0.4004864,0.9060106,0.3135697,-0.33863002,0.4307634,0.4619059,0.49603787,0.75733495,-0.81857973,0.46649405,0.012301658,0.6562968,0.29651943,0.8007859,0.5369656,0.92245454,-0.019875998,0.9802188,0.5885389,-0.21500954,0.71001357,-0.37668622,-0.2726971,0.82443285,0.72118944,0.9836371,-0.62245345,-0.5556514,0.5087571,0.6079148,-0.57176465,0.13376325,0.27638698,-0.6066342,-0.35497525,-0.41789934,0.47577268,0.06901699,0.29561445,0.32139176,-0.9932835,-0.43451318,0.91700983,-0.71942043,0.1656201,0.5979622,-0.16492468,-0.8224838,0.06886104,0.7679508,-0.2964822,-0.9074657,0.8794677,-0.29754093,-0.4384508,0.025283292,-0.6072041,0.96595246,0.17098904,-0.037083365,-0.84296215,0.11018447,-0.0240205,0.21238285,0.25271723,-0.39173,0.40826496,-0.5970006,-0.005429999,0.795875,-0.10314153,-0.33896124,-0.6461723,-0.12340339,0.31456196,-0.8862524,0.4387008,-0.9247738,-0.3588531,-0.8625312,-0.5593693,0.645246,-0.9378495,-0.85282415,0.37066513,0.84560436,-0.73513085,0.31781235,-0.41216415,-0.42860943,0.9292429,-0.17976649,-0.8098665,-0.7967166,0.5654115,-0.5104586,0.45863384,-0.73108315,0.8202398,-0.9864228,0.89166456,-0.06048435,-0.39733088,-0.7454243,0.20805562,-0.58428204],"bias":1.1352453},{"activation":1.0,"weights":[0.6502062,-0.4426391,0.980163,0.763989,-0.6615585,-0.5607636,-0.32039988,-0.5923872,-0.15316665,-0.9957019,-0.5782163,-0.24548817,0.78829527,0.730244,0.6707836,-0.26084816,0.46806157,-0.8196956,-0.47975385,0.951293,-0.32686245,0.72440803,0.74688756,-0.41396153,0.028054714,0.895509,0.022361398,0.8287318,0.77345467,-0.7893958,0.5041938,0.4916134,-0.35265243,-0.8012376,-0.2036879,0.7289217,0.94421273,-0.83015287,0.4970497,0.30014014,0.6694593,-0.68747014,-0.88793796,0.15821177,0.6907065,-0.3560453,-0.8089417,0.53792554,-0.67987686,0.047516994,-0.8725977,0.69097996,0.62091947,0.21564424,0.5454649,-0.43084764,0.24131095,0.3262025,0.14531243,0.31324816,0.15545578,0.78270924,-0.9848311,-0.81320715,1.1059734,1.2702998,1.2793046,0.24946196,1.111621,0.5992602,-0.47539774,0.6092345,-0.5229632,0.2104936,0.65542674,0.9147549,0.3223976,0.91333616,0.8215511,-0.9594534,-0.30098075,0.486746,-0.83066523,-0.08939314,-0.06760037,0.42919278,0.18241064,0.3757298,0.5882944,0.68450326,-0.22099493,0.5708747,1.5069808,2.2895982,0.81070906,1.5955558,1.8950306,0.074536175,0.4834169,-0.30699652,1.4632233,1.5341631,0.4682269,0.10780228,-0.8330761,0.70449585,1.3545309,1.9476217,1.7012162,0.7389136,0.7328314,0.16475832,0.11323488,-0.55610454,-0.35022134,-0.5003334,-0.026825633,-1.0015304,-0.017112851,-0.24733223,0.17444056,0.49956468,1.3306594,0.33560792,0.34075823,0.3080592,0.108657606,1.267935,0.75356317,0.6216099,0.9840392,-0.9790122,1.7939768,0.7155036,0.9211513,1.2497479,1.3358039,2.1796799,0.27274495,0.08654094,0.35712433,-0.019984841,0.08336444,0.6269355,0.49920708,-0.3982548,-0.4966697,0.5242464,0.3657891,0.07317812,0.0577198,-0.032031164,-2.23835,-0.56211597,-0.25207973,-0.59326017,1.0965846,2.786008,0.5335572,-0.05189794,2.5122592,0.85035926,-0.23692372,-0.97212297,-0.25876725,1.939812,0.25692242,0.8798521,0.47373617,-0.06760967,-0.6973166,-0.26311326,0.650981,-0.74519295,-0.045510557,1.3607036,-0.68159676,1.249963,-1.2266047,-1.3504272,-1.836083,-0.86974543,-0.99862534,2.7325583,5.3373966,2.5195107,2.2268777,0.95560324,-0.5992161,-1.1654348,-0.8650939,-1.2084495,-1.2438548,0.64306974,-1.0302639,-0.45845282,0.5072346,-0.4570448,0.12923577,0.47169295,-1.3245875,-1.8024588,-0.71197265,-0.37951896,-0.11966047,-0.88641757,-0.06184464,-0.60144717,-0.5278587,-0.120336376,0.109969825,4.6327143,5.677008,4.5631814,3.8037,-1.4191141,-2.2607713,-2.5148635,-1.53062,0.1286722,0.09737066,-0.9752055,-0.74194384,0.7554575,-0.97322226,0.92867845,0.82062966,3.2002342,3.499384,2.416688,1.339695,0.99336314,0.4538586,1.9612579,1.5216641,-0.52373874,-2.7272923,-1.1515856,-0.65711194,2.3483875,4.6683517,4.0713944,2.0253248,-2.3105204,-4.0515666,-1.2207518,0.3491082,-0.18444036,0.58299637,0.6641088,-0.5452371,0.47940412,0.1742066,-0.356927,0.82597613,4.048705,3.3544624,4.4814243,3.4447558,5.5128727,5.5075626,6.0415297,6.503908,3.336655,0.40548134,0.9397533,6.5613995,3.9567199,5.5106745,4.5883646,0.037540913,-1.1948628,-2.1411319,-1.0893438,0.4083394,2.4528677,0.9358625,0.079476476,0.6475884,-0.10973348,-0.946164,0.82533014,0.72482026,-1.0941899,1.0963719,1.2486178,5.0664635,2.700169,2.9443133,2.5599208,4.062913,2.2797036,1.6064243,2.2382038,6.175773,4.649493,6.1696787,6.4085727,4.1825356,4.1239033,2.079059,-1.0672636,2.3403323,0.93053913,0.285302,-0.46149287,-0.946477,0.17686825,0.16970803,0.64706516,0.39439297,-0.36391664,-0.78291225,0.2126171,-0.75958323,1.059108,2.7978153,2.9470594,2.2255092,0.10063152,-1.4759586,2.0678685,2.0913649,0.736683,-0.05553484,1.6655188,1.197706,6.328864,5.4268336,2.0229943,1.2741387,1.1920242,1.005716,-0.34240195,0.33091816,-0.07710303,0.87815523,-0.58474404,-1.2349063,-0.4902381,0.026366727,0.56118906,1.5645394,1.8808447,3.8776848,2.729237,4.469513,1.7671411,2.9784918,3.2525163,2.8608687,1.867938,0.65920633,1.9515276,2.3352878,8.172926,4.964652,0.9689188,2.435098,0.8524045,0.17055118,0.4589311,-0.7622513,0.24069835,-0.8526006,0.30622503,-0.2791442,0.7757146,0.3415807,0.23986591,1.4394456,2.4670188,3.2030823,6.464489,7.3243747,5.83536,6.6307755,5.152542,3.4623363,5.4653983,4.674919,2.9126875,7.1684837,9.297677,2.8756967,2.2278004,1.2568413,0.61493355,0.8475792,0.6157777,0.22784334,-0.8168098,-0.019244788,0.33857474,-0.35239163,0.7872553,-0.8557967,0.60764533,0.6352026,2.5324705,3.5118928,6.8199067,10.52746,11.464224,9.59264,7.3603683,5.5429525,7.827436,6.5883965,2.7904556,7.069109,8.239535,2.6969576,1.3316215,0.8430647,0.94623554,0.46473193,-0.34619334,0.9299383,-0.36244053,-0.50377285,-0.8250148,0.7194207,-0.20737806,0.21763703,-0.18146,1.766399,2.5369623,4.573253,7.6346226,10.24627,12.290128,8.161517,4.53945,3.467796,6.087849,5.873395,5.3276334,8.810153,4.219083,1.209104,0.808831,1.5814306,1.5716103,0.88988096,-0.04796815,-0.5383113,-0.12282096,-0.017188812,0.60384476,-0.59598315,0.67525446,0.3533254,1.1132853,1.9015172,2.9772687,5.04862,7.958682,10.427537,9.043906,1.8858256,-1.9779587,2.2004106,3.8433368,1.6915768,4.1958294,7.4049983,2.7418218,0.5233902,0.7974816,1.9228164,1.4359343,0.38713217,0.14743084,-0.681134,0.5368043,0.6641036,0.7500951,-0.63947964,-1.1182258,-0.946148,0.5269336,1.9047059,4.6314154,6.7694244,6.3628826,7.698279,3.4007733,-2.360766,-0.6127481,2.4059522,2.65646,-2.5786405,4.222126,4.1067305,1.4308393,0.9517129,0.7631286,1.0524349,0.6231009,-0.10648323,-0.64724845,-0.52791345,-0.29395172,-0.025383698,-0.8172951,0.3771084,-1.0779332,-1.6559253,-0.07718193,1.7665403,7.2848277,7.147568,6.4695654,1.2561092,1.3660778,0.22071937,0.95058376,3.303306,1.6070374,2.0008783,4.497216,2.8675237,3.2604673,1.7308266,-1.3335885,-1.8815345,-0.18230933,0.62474734,-0.22460736,0.09081875,0.18894029,0.35892212,0.6175671,0.62272006,0.17235956,-1.3559858,-0.2679599,1.451869,4.3924727,3.353693,0.48155314,-0.18798147,0.7433848,3.9437282,2.1020072,2.9062717,2.5890038,6.0922236,7.199048,5.753263,5.103322,2.4516776,0.6145758,0.9066237,-0.5879641,0.27443653,-0.1343309,-0.85052025,-0.04634684,0.29202116,0.46001926,0.5267431,-1.5270648,-1.1750059,0.62746894,0.9686096,2.5293922,1.799159,2.1513643,0.62767816,2.5014148,4.0443225,4.772226,4.3601103,4.9705505,7.737299,6.3844223,3.3129911,1.9215893,0.7389492,-0.06093744,0.944442,1.0434977,-0.16755004,0.072705224,0.8033831,0.41359654,0.88287795,0.58697313,0.500595,-1.4394009,0.049411427,0.4136139,0.60452557,-1.2199715,0.7947687,1.734902,0.88296336,1.2713164,1.5146325,1.8406483,3.354201,5.354125,5.196393,1.3850303,1.5011166,1.2052373,1.0615239,0.8921469,-0.92032045,0.6705204,-0.32188717,0.00719616,0.02084862,-0.87683374,0.7506628,0.30278566,-0.057505626,-0.39171624,-0.7039663,-0.68296665,-1.1881812,-0.9703738,-1.6944779,-2.6115465,-1.4083235,-2.6178463,-2.0467467,0.7371288,-0.015480578,3.6982017,2.7676919,-0.116755456,0.091351934,1.4550943,1.2172456,0.69820124,-0.0639782,-0.6754201,0.5456269,-0.6833504,0.9642126,0.616711,0.36768472,0.20453572,0.19593662,0.2996657,-1.0810512,-0.17804384,-0.5054012,-3.8138943,-3.068052,-2.573061,-2.4728935,-0.8252237,-1.2198511,0.7719606,1.7016666,3.2456713,0.939227,-2.2563648,-0.9774285,0.35441816,0.47724614,-0.32753718,0.14111474,0.32515875,-0.5598446,0.44683307,-0.686418,-0.7746098,-0.5044439,-0.86567926,0.09781663,0.20866567,-0.47104517,-1.130702,-1.5843165,-0.26654515,-1.2746925,-1.5907544,-1.168042,-1.4928327,0.1312232,0.62360436,2.507497,4.3687277,2.3438163,-0.41725788,-0.60223866,0.7949303,1.0488523,1.0505174,0.68942386,0.5937481,-0.30055088,0.060144406,0.35239756,0.39536357,-0.29141188,0.01590693,-0.64715064,-0.6666016,0.052874204,-0.37326658,0.17962088,-0.7312761,-1.0300266,-0.3156684,-0.37685034,0.351031,-0.22970113,-0.5324491,-0.46931362,5.2604513,1.8688645,0.71724474,-0.2986391,0.16304916,-0.52103615,0.51649284,0.12954499,-0.4381999,0.17067009,0.22818589,-0.30548227,0.3371457,0.16109264,0.07402313,-0.23885691,-0.18094236,0.8314589,-0.20137045,-0.8983824,-0.26507136,-0.34476322,-0.9729876,0.22006667,-0.05366367,-0.7140006,-1.1440846,1.2595932,5.980004,4.92831,2.7497144,-0.12400229,0.22865523,-1.3666929,0.081185035,-0.76868254,0.6713394,-0.10032496,-0.4964534,-0.722813,-0.25054526,-0.38050604,0.41343474,-0.96014,-0.3547578,0.53093904,0.23232418,-0.8719231,0.079825446,-0.35778868,-0.31237248,-0.8603259,-0.90852296,0.5061793,0.07161315,1.7587919,6.73274,1.5168784,0.5130947,0.6295087,0.20523375,0.11228674,0.42524263,0.7129765,-0.06943977,0.41316462,-0.61598885,-0.17549348,0.2144202],"bias":10.889883},{"activation":1.0,"weights":[0.07499313,0.74906313,0.7449665,0.2509874,0.24669766,-0.07778704,0.298571,-0.0005443096,-0.7230308,-0.4253112,-0.7241628,0.6442716,0.17785403,-0.8404254,-0.7577005,0.480264,-0.38494623,-0.91283095,-0.6281111,-0.2803663,-0.61724675,0.96145713,-0.3997532,0.05410683,0.6567347,-0.006700635,0.00021398067,-0.4638872,0.39642394,-0.05896163,-0.43178582,0.116784334,0.23145366,-0.34431285,0.048669513,0.5283405,0.7288897,0.44967324,-0.26278514,-0.7089594,-0.044247687,-0.05068393,0.81318456,0.2809774,-0.7505908,-0.69159603,0.43109167,-1.4474992,-0.7231914,0.71828437,0.5961057,0.3889116,0.06630051,-0.3191352,0.01254046,0.5775467,0.59718704,-0.13207972,-0.3549616,-0.39340344,0.4551648,0.11129705,0.35326794,0.07804707,-0.11280532,0.5932476,-0.35352358,0.44541773,0.30459815,1.6257968,1.5592583,0.37100247,0.103748195,0.14542082,-0.42908394,-0.884972,1.4033448,1.0211012,0.59066725,0.87011886,-0.016901756,-0.55012053,-0.61467826,0.1457063,0.69068706,0.87111557,0.6328585,-0.6831911,-0.17769645,-0.559749,-0.17296743,-0.09498609,-0.1922065,-0.47419667,-0.445499,0.0737102,-0.020281428,1.1644623,-0.32211334,-1.0084773,-0.12690105,-2.246625,-3.194788,-2.2209148,-1.9277662,1.1658593,-0.14477377,-0.8919294,0.6712006,-0.6735433,0.9294929,-0.13072538,-0.45515478,0.9310076,0.16344583,-0.922455,0.090562075,-0.7710365,0.56919396,0.52719426,-1.2894272,0.26771462,-0.09492195,0.93279785,2.4051192,2.1379907,2.187805,2.5104833,-0.58312094,-0.8311621,-0.15305276,-1.279133,-0.017671842,1.4992689,-0.2534041,0.610923,-0.11804334,-0.11737473,0.45296356,0.33781958,-0.33557904,0.8514949,-0.1003505,0.96695083,-0.1396101,0.2350182,0.50132,-0.13932982,0.124978945,-0.074557394,-2.5360408,0.8542005,-0.25783303,-0.3551449,-0.52407,-2.983195,-5.4686303,-1.8065022,-0.90711486,-0.49001548,-0.35971606,0.16885461,1.7476143,0.09128834,0.518446,0.61627793,-0.73443925,0.6794158,0.28347766,0.93886656,-0.26031026,0.2011303,0.062896304,-0.79407376,-0.59993595,-0.20418301,-1.263363,-1.7951837,-1.8980436,0.016591668,0.89316154,3.1959007,1.9713438,-1.9409032,-1.1751888,-0.55613416,-1.3031449,3.643957,1.3528605,0.23143174,-0.49979332,-0.20119922,-0.4655374,-0.064325795,0.07102807,-0.18174745,-0.9602771,0.97721726,0.86562216,-0.7254632,0.24583884,0.9021449,0.88615376,0.6317673,1.2059116,1.0891395,1.4411774,5.6010256,8.284672,7.690225,7.6966867,4.5939884,4.6564374,6.1880713,5.767757,5.0772195,2.706738,1.2860463,0.86315036,-0.42395344,0.4739257,0.9220251,0.5154007,0.22048049,0.062184468,0.76134026,0.07051026,0.31776336,0.75741553,0.60842496,1.0784601,1.468791,0.68787616,5.0175276,4.4962883,6.5772357,7.1867967,6.1523256,5.495039,6.6898985,7.930601,10.504539,10.158094,8.798374,5.102544,2.4447484,1.3633407,-1.071685,-0.40426558,0.10548174,-0.44056326,-0.11479597,-0.07120919,0.60978615,-0.46204197,1.3053324,0.02781349,1.0970367,1.3702449,2.3902874,3.8420193,5.3092904,5.9289556,4.7135158,3.0635736,5.20364,7.505045,8.794303,7.4165087,9.507711,8.045512,6.3673897,4.0721793,1.3716834,1.5961602,-0.090679936,-0.18508016,0.84241754,0.5198312,-0.012953623,-0.10815173,1.025807,0.39398402,-0.44244328,0.1249484,1.0115526,0.76207966,3.586812,4.4739122,2.2271628,-0.018762708,2.2866626,2.9341054,3.8408015,7.980183,9.332125,6.7640524,7.285626,7.2023387,3.2774289,1.260935,2.7685573,1.0900972,2.1651728,0.034312736,0.72437024,0.38461792,-0.5586599,-0.87385964,-0.59572774,-0.8278732,1.1957929,-0.21253613,1.2557056,3.9864483,4.5120983,1.2076176,-0.06524044,0.26228142,1.0722474,1.9768262,4.666383,8.416332,7.5670576,4.6758823,4.0375137,6.343646,5.781476,1.816994,1.034017,1.6887939,2.7683473,-0.30261204,0.03692495,0.9151539,-0.7237787,0.19132352,0.32235634,0.51417315,-0.45677552,0.8080159,1.9094695,4.365141,3.9467654,0.13072509,0.626287,1.5427842,-0.04119849,-0.6556227,4.1823645,9.081151,5.9872465,3.596717,3.9649484,3.3752973,5.299922,2.7278583,2.5673342,2.3266494,0.49018073,1.3273746,-0.27309018,-0.08623891,-0.807396,-0.47781754,-0.08527306,0.4428432,-0.34502095,0.22213027,3.1787562,3.5263417,0.22953735,0.60506237,0.85904324,1.0791674,-1.8308796,-2.734431,3.153193,7.6338654,6.758337,4.4061284,2.862021,1.7604402,2.2962823,2.6235907,1.2987877,0.12012278,0.2184329,1.8458719,0.38607654,0.5685052,0.45755863,0.4639963,0.855213,0.14427078,-0.3792411,0.41586983,1.0046517,1.0488681,-0.85795504,0.62619257,1.591892,1.8532493,-2.6553166,-2.937414,1.0192279,8.088168,4.3562355,1.7477374,0.4202367,-1.4220753,-1.7738464,0.5596845,-1.2543888,0.44971788,1.5451804,2.8543751,-0.4190558,0.2890492,0.88594484,0.1961363,-0.9341694,-0.7340975,0.7958806,-1.1453636,0.14285962,-0.007234911,-0.74050343,-0.6586721,1.8039937,1.2962072,-2.241104,0.29998797,2.960244,6.130583,5.255004,1.6616508,1.4000665,-1.4896972,-2.8159802,-0.8957713,-0.14668638,1.182243,1.3694282,1.0864074,-0.2195487,-0.8045091,-0.70352894,-0.34397548,0.39468637,-0.16216479,-0.76248217,-1.0841951,1.4492339,0.8872564,-1.469338,1.628328,-0.02002481,0.67092496,-0.04457429,2.5654442,3.790127,2.8648622,6.7030325,4.4555674,5.7196198,1.723766,-0.06508577,-2.55899,0.4844128,2.0823154,0.43185207,-0.08819184,0.31618834,-0.3742244,-0.19794862,0.16322064,-0.7267003,0.92411005,0.29482493,-0.33616012,2.396491,1.9417597,-1.7388866,0.7008555,1.5778702,1.7045956,1.7708832,4.8266773,7.003204,5.3361435,6.4479117,6.1875305,6.2805924,-0.18887691,-2.1569986,0.18084514,-0.24030893,2.1468825,1.2514119,0.35538015,-0.96112573,0.47625607,0.11474114,-0.6464152,-0.5133962,-0.6235947,0.53792816,0.4259271,0.57147294,2.7638228,-0.9687782,-0.8022885,0.02944386,5.20604,3.396699,5.6698585,7.4409432,7.4868155,8.523743,3.1064308,0.119911306,-5.6518536,-2.6154888,-0.62961525,-1.5982842,0.8588084,-0.6570822,-0.5584697,-0.29642978,0.8955321,-0.8283021,0.8856057,0.62702847,-0.040942363,0.33377007,-0.44092032,-1.2431766,1.2020494,-0.88922566,-1.4029168,-0.66180587,1.411337,2.0535288,4.344004,5.2293167,8.04243,4.7223806,0.1672157,-0.31185994,-2.757822,-1.7419583,-2.91483,-2.535378,-1.7869192,-0.6742512,-0.5665445,0.35720056,0.05961842,-0.12643611,-0.43232024,0.02832705,0.3728901,-1.8429838,-1.3407129,-2.18753,-0.8774568,0.4829124,3.5411415,4.508673,3.648262,5.237641,4.9201665,8.177669,9.042916,6.453471,2.7060888,0.49189234,-2.8690453,-2.8147507,-3.2912164,-1.3242275,-1.212576,-0.97082186,-0.4176187,0.12686,-0.4246174,0.12161124,-0.7860771,0.08439591,-0.85470843,-1.4982806,1.860088,1.103638,-0.1471631,0.5908469,4.3587804,6.6471233,4.101643,3.242175,1.3117228,5.93396,9.071215,5.8688016,0.58263725,-4.006582,-3.7696733,-1.1232976,-2.083599,-0.18400154,-0.8903297,0.09162409,-0.4649331,0.43739644,-0.6865454,-0.8494643,-0.9229111,-0.03893039,-0.23456897,2.0876455,1.6079541,1.3122114,0.73656255,0.8504887,3.1294937,3.3556123,1.0795616,-0.9897671,-2.6512215,-0.4148604,2.8878956,2.5100758,-1.433132,-2.8971372,-2.8759232,-0.83755594,-1.1637725,-0.5979538,-0.5973425,-0.38247,-0.31763375,1.0203824,-0.6568401,0.21868789,0.3766545,0.44476056,0.32243833,0.25163278,1.0266933,0.46003726,2.0632782,2.9105918,3.5186193,2.453007,0.9421189,0.4612376,-0.32740763,1.7243409,0.77871996,1.123821,-0.038279474,0.08188537,0.7828342,-1.1396916,0.91995686,-0.3861786,0.4352452,-0.8584111,0.663293,-0.16025451,0.77801967,-0.99179935,-0.92026365,0.9398682,0.048674,-0.88832086,0.65072143,-0.59858686,-1.5567256,-0.47372755,0.32411465,0.21136715,-0.4012817,-0.35125947,1.6744546,1.1895062,0.89551854,0.7256553,1.5375429,0.92344564,1.2958102,0.76350605,1.6704832,0.7915408,-0.4431641,-0.24919333,-0.6722604,0.25604272,0.64025474,-0.700312,0.70759666,0.47707355,0.7197268,0.96523964,0.793935,0.15775976,0.36791313,1.552168,1.0091985,1.2303647,3.0000885,3.7266486,4.5848517,4.1613317,2.8458111,2.6137884,2.5619156,0.8583713,-0.37673056,0.4851762,0.514663,0.76763934,0.6791493,-0.071932554,0.8750067,-0.5629132,-0.4828873,-0.54468584,-0.95954514,0.37431574,0.025492668,-0.36260146,0.6201261,-0.0809068,0.8100715,0.5420709,0.5452483,0.40872207,1.3307893,1.2938584,1.0390602,1.4175196,1.4166288,0.552303,0.41870496,1.8542941,-0.022211498,-0.4664938,0.46620187,-0.20314677,-0.78242534,0.6291654,0.4674436,-0.94445217,0.1459651,-0.081573725,0.5964134,-0.43494081,0.027634382,0.17196691,-0.62578475,0.9013282,0.9576305,-0.4843338,-0.3376597,-0.9271454,-0.09990616,0.9703314,-0.43490985,0.251348,0.6759274,0.177215,-0.2716682,-0.9051253,-0.01075498,-0.3206176,-0.28776643,0.258947,0.14580111,-0.8850637,-0.09225941,-0.2590779,0.2350707,0.7598829],"bias":12.500196},{"activation":1.0,"weights":[-0.02322638,-0.5742116,0.5774696,0.0023661852,0.5111426,0.58369076,0.6038641,0.38775647,0.5887388,0.7098856,0.19628537,-0.43583763,-0.05426965,-0.15237103,-0.6450676,-0.93074024,0.283347,0.73209965,-0.07578564,-0.14742887,-0.6698103,0.67426836,-0.70703447,0.7479718,-0.74577916,-0.040340185,-0.11790204,-0.22733712,0.031080365,0.3057686,0.042508483,-0.9306812,-0.44591075,-0.5771307,0.40980944,0.872308,0.85589623,-0.8993419,0.6175347,0.6844602,0.9125877,-0.09477013,-0.9395202,0.58516645,-0.4892152,0.6883504,-0.24211991,-0.63400954,-0.62489384,-0.018270418,0.3798067,0.1363673,0.49473715,0.107666135,-0.98099494,-0.8865427,-0.4389366,-0.31391537,-0.09718776,-0.8654554,0.8927189,0.10478337,0.5247097,-0.6515971,-0.2105014,0.32433394,-1.0744451,-0.49226257,-0.31259564,-1.6261618,-0.9469864,-0.45802015,-0.39373553,0.28905058,0.5009378,-0.109200306,-1.0310725,-0.98447853,0.6462973,0.48545995,0.29936367,-0.11152183,0.47437656,0.7986789,-0.6694199,0.0016818047,-0.20921339,-0.17232701,-0.9422541,-0.109547876,-0.18112013,0.75727046,-0.4672754,0.28224605,-1.0933356,-2.005271,-1.5683066,-0.558394,-0.091388814,-0.31388673,-1.2754549,-1.8392223,-2.5752645,-2.0619342,-0.7955751,-0.9830505,-0.62157434,0.15816955,-0.13571718,0.7459411,0.77374804,0.81596744,-0.23914671,-0.6705776,-0.7090026,-0.23981117,0.23431955,-0.5315344,-0.76084954,0.7051029,-0.60081404,-0.45450214,-0.70437604,-1.499446,0.55610085,0.3521288,0.09233441,-0.94190276,-1.0346799,-0.991705,-1.4158983,-0.24913329,-0.24795376,-0.48628783,1.6207495,0.830684,0.70212144,0.76418334,0.7615366,0.68679744,0.3451581,-0.26689768,-0.15143105,0.5488927,-1.03916,0.3637936,-0.2067402,0.5557273,1.096797,0.53596085,-0.7762534,1.3665276,0.18633614,0.36281756,0.2194422,-0.1929056,-0.17878568,-1.3510623,-2.2091508,-2.0193489,-0.3689263,0.8102217,-0.14590004,0.50597835,-0.29457942,-0.9161891,0.7989803,0.584467,-0.48550296,0.85317093,-0.8656189,0.47848356,-0.26299584,-1.3664724,0.20266081,-1.1194619,0.80208445,0.004418901,-0.04593916,-0.72159636,-0.47505292,-0.703351,-0.9767011,-0.89834946,-1.5062331,0.0049095317,-0.8557725,-0.3613816,0.0676087,-0.88136595,0.47841474,0.058859836,0.25353953,0.1908676,-0.13665281,-0.83942765,-0.18701616,-0.973861,-0.40710226,0.0023394888,0.7288956,-0.70581514,0.20814785,0.03906203,2.4258385,0.20328689,0.5250152,-0.22147267,-0.884111,-1.0824472,-1.7681874,-0.43709585,0.15810136,1.4601833,0.36920607,-0.7176327,0.5440719,0.13756369,0.19043921,-0.092105456,-0.7178376,-1.1952966,-0.64473176,-0.5661824,-0.035348203,0.23836495,1.0696921,0.4124007,0.6337679,0.8667586,-0.07531059,1.4350692,2.5370257,0.6681669,1.3707199,0.33645967,-1.1211377,-1.2431103,-1.6739385,1.201886,1.5290911,2.16091,0.4176875,0.79951066,-0.080613345,0.53548247,-0.28325903,0.08571662,0.2021093,-1.3013407,0.02431597,0.33289495,-0.4434121,0.47051832,-0.04589983,0.48969394,0.13307671,0.90361077,2.4397163,1.7344915,2.5569263,1.6442968,1.4852853,0.6132665,-0.28360382,0.51819175,1.0390617,1.8464404,1.0409696,0.9677944,0.8199951,1.2342285,1.4708102,0.6153928,0.87885785,1.1319357,-0.50638884,-0.05126999,-1.0881423,0.95790285,-0.5804069,-0.89742035,-0.52858543,-0.8751195,1.1793488,0.5448207,2.5575204,3.2578976,3.0278625,3.7021794,3.3362947,1.030835,1.1157554,1.628219,4.024529,1.3192629,0.6150841,0.64262617,1.0804343,3.160125,1.592145,0.6135857,1.0841647,0.070805706,-1.1113061,0.0566881,0.44049463,0.6447807,0.5512451,-0.037443418,0.83551806,-0.05518942,0.26427937,0.5215892,2.6715317,2.0880501,2.9365497,3.6952858,2.9643,3.5403523,2.3358085,2.7383072,2.7835777,2.4369776,0.8757076,0.94746023,1.2531053,1.7358874,1.3510429,0.42554525,-0.4576802,-0.84890765,-0.35812196,0.456156,-0.19119807,0.05645456,0.7793461,0.84994656,0.9639463,0.31032765,0.965643,2.2752514,4.8789744,3.3823993,2.799801,2.9889522,1.9503936,0.49321726,-0.6048813,2.1199932,3.075544,0.43481845,-1.3269411,-0.8309896,-1.5222982,-0.28585702,-0.012456275,-1.2014879,-0.08913882,-1.6600467,-1.5433522,0.063001215,-1.0976424,-0.58608276,-0.65440404,0.5014346,-0.41091794,-0.123236954,0.7267566,3.4040248,3.1091447,2.7295392,3.0506825,2.922592,0.42828605,0.27351716,-0.31016642,1.0318362,-0.67752063,-2.1489408,-2.446192,-1.370326,-1.446786,0.079387106,0.5315097,0.47780883,-1.1816813,-0.88421065,-1.5707524,-1.0035148,-0.11713361,-0.97365785,0.17078775,0.7383175,-0.39600515,-0.47505397,0.4200873,2.713546,2.3107474,2.1968205,2.9255133,2.2514143,1.5565562,0.023736205,-1.5768044,0.3114448,0.43356252,-1.8327516,-0.1854997,-1.0766072,-0.43778265,1.3831675,2.0973313,-0.23829366,0.5735657,-0.7782333,-1.5175657,-0.28042328,0.8103259,-0.67577004,-0.2273871,-0.6520512,0.9261452,0.69335496,1.7663469,1.2893695,1.3066857,1.4014982,0.5476616,-0.3384925,-0.14531767,-0.71785194,-1.5236346,-0.1809204,-1.2567954,-1.1576314,0.15634575,1.064223,2.2875144,1.4736878,2.055494,2.7539432,0.29845506,2.1475518,-0.40941685,-0.95410675,-0.567695,-0.31018156,0.72691226,-0.33770403,-0.10217543,1.213794,1.0662699,0.8265029,0.8960105,-0.9641285,-1.9571462,-1.5918149,-2.6543117,-3.7765326,-1.1611202,-0.6044121,-2.7203894,-0.67050576,-1.0993079,1.0021565,0.41502982,1.524768,1.5076474,-0.31648508,2.1098864,2.533432,1.0863018,-0.907914,0.6583167,-0.6372983,-0.76641786,0.12548977,0.7425935,-0.2812196,0.32205188,1.0873362,-0.5419119,-0.83008164,-2.6291103,-4.2558002,-3.4655647,-3.7754543,-3.1368487,-3.5285819,-3.6781986,-2.081636,-0.771538,-1.175478,-0.93862456,0.9071158,0.04024439,-0.7842371,1.026965,1.8901657,1.0241026,-0.047758494,0.9176869,0.49240598,0.20357141,0.10005737,-0.6940501,-0.61257434,0.39929202,0.09807353,-0.5633916,-2.7799766,-4.7841725,-4.0208397,-3.516637,-4.5958095,-3.512803,-3.8112986,-4.677687,-3.749043,-3.1375256,-2.706263,-1.3191049,-0.63192403,-1.0322157,-1.982774,-0.27170226,1.1938252,-0.25495344,-0.6060723,0.5265337,-0.61865807,0.7258617,0.6748552,-0.7007471,0.039482675,-0.6199163,-0.35713688,-1.432279,-2.07778,-3.448898,-3.675825,-5.4196024,-3.3910742,-2.0934048,-2.5097315,-2.207224,-3.2704659,-3.1162033,-2.8869317,-1.9788018,-1.6578481,-2.069217,0.6674645,0.48180336,0.7038906,-0.7819683,-0.19845247,-0.73278666,-0.42451817,-0.07627213,-0.22084312,-0.96724373,-0.30064294,-0.47272646,-0.6505019,-1.7404901,-1.2226868,-1.4272034,-2.6012912,-3.2343261,-2.566561,-2.586021,-0.69153696,-1.0629395,-1.4564891,-1.941518,-2.2542858,-1.1401397,-0.48111004,1.2626479,1.021936,1.2341402,0.36434543,0.13312934,-0.3195057,0.65731156,0.8754431,-0.23300192,0.9876715,0.2743312,0.5888561,-1.961548,-2.2846475,-2.8748837,-2.6351807,-1.0221112,-1.5945008,-2.1377456,-1.829372,-0.9988406,-0.09631338,-1.5481337,0.04678906,0.8766449,-0.28765202,2.07878,2.3530858,3.1896775,0.294628,-0.3905615,-0.9300682,-0.05492225,-0.89853555,0.033516638,0.52825034,0.14336683,0.4136783,0.043557245,-0.35771874,-0.419887,-0.3513331,-1.5949035,-1.1878315,-1.579247,-2.0735579,-0.16565041,0.76446015,1.0541888,1.0485904,2.9336977,3.1930726,2.8339143,3.2400568,1.6810278,0.45621336,0.4713501,-0.41784552,-0.68154484,0.4112787,0.16504231,-0.24127205,-0.7120292,0.8709867,0.54796886,0.47010946,-0.63423663,0.16688329,-0.9879508,-0.39421907,-0.9713448,-0.92595184,-0.8129918,-1.49061,-0.7779666,0.6488205,2.28865,2.1338723,2.5963738,2.518713,1.4092706,0.67951435,0.41953522,0.29933372,-0.12057883,1.4155887,0.16174203,0.6034563,-0.4506662,-0.0780709,0.73729575,0.6486316,0.45503843,0.12554419,0.905537,-0.08292037,0.695176,0.2359549,0.55466324,-0.47626314,0.5090866,0.5069324,-0.2913693,-0.790363,-1.485516,0.25976193,1.2593606,0.12832743,1.1459639,0.72296387,0.3078043,0.17740242,1.6901889,0.107111916,1.0117469,-0.209676,-0.9725919,-0.71250194,0.2895045,0.671983,-0.15460777,0.94039786,-0.31601265,0.82003105,0.10520273,-0.090063766,0.040807348,0.06326778,1.0287312,0.4657305,0.8652961,1.0495701,-0.14398132,0.20236385,1.5261296,1.6003842,0.32603514,0.9444229,-0.004074369,-0.37999803,0.15359461,-0.22822376,-0.35234305,0.44373143,0.7235775,-0.46670213,0.96881574,0.9221885,-0.9481034,0.9274608,0.14345407,-0.83894813,-0.68128866,0.17995793,0.6202953,-0.106910855,0.64955246,0.44909614,0.7103982,-0.6297412,-0.43664837,-0.4880322,1.467357,0.5253079,0.38332692,-0.15259667,0.8432635,0.11587738,-0.38483894,0.3867116,-0.084690176,0.6046285,0.5830815,0.05150662,0.18449938,-0.9716356,0.91329885,-0.5794325,0.043946862,-0.0148922205,0.19971535,-0.46463147,-0.9752391,-0.37855735,-0.5137705,-0.29708767,-0.5832951,0.77763784,-0.37021238,-0.6377633,0.20528454,-0.8028514,-0.49651366,0.9632261,-0.603312,0.43119252,0.5479257,0.28638014,0.30066213,-0.5999579,-0.1328814,0.8991194,-0.18280113,-0.523695],"bias":1.6266196},{"activation":1.5388033e-27,"weights":[-0.99157166,-0.8064668,-0.95077896,0.4293902,0.08136594,0.14954984,-0.8487475,-0.7288859,0.3051406,0.31753254,0.03643024,0.74498224,0.7802903,-0.5745323,-0.86265284,-0.38601387,-0.65398335,0.066506505,0.35810483,-0.03823459,-0.22015798,-0.970492,-0.27972603,0.21634448,-0.24248517,-0.6095824,-0.88935685,-0.20120382,-0.12413347,0.37798882,-0.17327797,0.35277557,-0.56078815,-0.27474475,-0.09567401,-0.0015603536,0.08448127,-0.8527118,0.5098084,0.48209488,0.30184627,-0.7433703,-0.73737174,0.72955465,-0.91883916,-0.54878485,0.3822725,-0.7961923,0.76753527,-0.20762497,-0.8066504,0.22278382,-0.14400649,-0.8320626,0.07359004,0.32475245,0.27172065,0.8204577,-0.3340826,-0.8455353,0.5887921,-0.18777737,-0.8920787,0.78078157,0.7024555,0.46661264,0.0026867138,-1.0136853,1.6316931,2.0495508,1.6339607,1.1548946,2.4280639,1.7746952,2.796931,1.6094397,1.3964647,0.84864646,-0.2875275,-0.26733243,-0.9599472,0.8869044,-0.83690464,0.0991056,-0.1311388,-0.024735212,0.50868624,0.79357004,0.046137188,-0.86030525,-0.7425648,-0.17051674,-0.3057127,0.12833679,-0.30754283,-0.16376835,-1.5082432,-1.1098478,-1.2200053,1.269214,5.05612,5.723268,5.9575186,5.4575505,2.5719082,-0.25288966,-0.4465905,0.3472792,0.14437488,0.9074702,0.18935089,0.31620467,0.14955342,-0.16355836,0.4016238,0.692273,0.80872506,0.30379742,-1.1193244,-0.14118484,-0.6179759,-0.35925812,0.44802102,0.6749473,-2.3449397,-2.946955,-2.2223938,-2.9724722,1.4472396,2.3175533,1.7380389,0.21575958,-1.2560651,-0.9753408,-0.7767497,-0.7411745,-1.0170767,0.47903737,0.52594584,-0.35478988,-0.0787946,-0.8179538,-0.15574649,-0.3549246,-0.7041657,-1.0261735,-1.0124035,0.32149377,-0.21829097,-1.9242622,-0.4337019,-2.0231547,-2.1892064,-4.5924025,-3.373708,-5.508955,-5.0224624,-2.8315468,-1.7747624,-0.68166035,-2.6640606,-2.6068106,-1.853508,-2.4705484,-2.153514,-0.6475584,-0.66443545,0.22783357,0.59144115,-0.7577285,-0.18874714,-0.87817204,0.7760827,-0.4181513,-1.0684755,-0.53765285,-1.5752498,-2.1975274,-0.99902207,-2.1168773,-2.893019,-2.7457123,-1.4219292,-3.8848479,-4.0660677,-2.5276737,-2.2445788,-2.8579524,-4.967077,-5.3475,-3.327587,-1.7922926,-0.19830799,-0.5672798,-0.7619689,-0.36242005,-0.99654204,0.71208954,-0.35673136,-0.601691,-0.12188562,-0.44556257,-1.4921066,-1.5321246,-1.6284508,-1.7385371,-1.3188854,-2.4683356,-3.4280663,-0.67309725,-0.028256984,-0.98072183,-2.44964,-1.6062183,-4.04861,-4.2082977,-6.3575096,-6.3577757,-5.08696,-2.1683993,-0.9063248,-1.084483,-0.79107606,0.119399175,-0.9223605,-0.912086,-0.3094087,0.24102646,-0.1781295,-0.3801369,-0.6670765,-2.3143795,-2.1354291,-1.5440356,-2.8749828,-4.0087423,-3.1365585,1.4205422,1.4347883,-1.529258,-3.4674995,-4.09798,-5.439681,-5.2505074,-5.2578173,-4.3224044,-4.6363235,-3.2686594,-1.9300519,-1.0672705,-0.60423636,-0.6774699,0.46893188,-0.1928008,0.3711405,-0.75270134,-1.2193274,0.52708536,-0.32563353,-3.0129063,-2.865675,-1.822378,-2.9043713,-3.3767095,1.7389437,2.2433236,1.9236743,-1.5957205,-4.68552,-5.142711,-6.0555353,-3.639689,-5.639208,-4.9594083,-4.050577,-3.1418812,-1.5420835,-0.8382478,0.15223484,-0.15374792,0.17476061,-0.66993797,-0.7953834,0.6384422,-0.7672279,-0.87376744,-0.52153265,-1.6968899,-0.6749055,-2.1153984,-3.2223423,-1.1966207,3.1135335,3.2255194,2.1967657,-2.6862793,-5.4721155,-5.292787,-3.5467694,-2.9862962,-3.452685,-1.0238317,-0.53476655,-0.12987399,-1.6647007,-0.19867192,0.2624946,-0.8570417,0.16065684,0.16098593,-0.7196499,-0.6705323,-0.45713252,0.62624913,-1.4835656,-0.5211773,-2.2276716,-2.35712,-1.1993232,3.072435,3.5733957,3.0614855,1.5481892,-2.5540779,-1.1699898,-1.6575475,-0.12654796,-0.3071047,1.2046427,1.8101532,0.54802144,0.28370455,0.23090088,-0.48867515,-0.34209532,0.5972842,-0.90571636,-0.7300569,0.0038162714,0.9592036,0.7505287,0.6238114,-0.8433134,2.2199752,1.8109225,0.362457,0.31550908,4.138982,2.362066,3.420421,3.0946665,1.0345862,3.7113492,2.6449394,0.10621554,-1.4704255,-0.33576447,0.95316267,0.5766157,-0.05391034,0.7713214,-0.018401867,-1.5908719,0.28609252,0.18936123,0.08847317,0.37460858,-0.48326978,0.2653592,-1.6431984,-0.10609845,1.8884408,2.6694515,3.0563798,1.5782374,1.723823,1.8580991,1.0527399,2.352587,4.33827,5.692041,5.126861,1.9819442,1.322228,1.042259,2.6639807,0.91156065,0.79816717,1.9815679,0.2259384,-0.098387726,0.44962722,-0.9019101,-0.061822332,-0.059655823,0.024859484,-1.1984754,-1.353183,1.002205,1.1983867,3.319645,5.3989263,1.7076446,2.6678472,2.973708,-1.0972165,0.5150339,1.9449036,3.3959196,3.268502,2.6010234,0.54075587,0.8988357,2.545919,3.9565938,2.5153177,1.6885729,0.6004069,-0.23781815,-0.6694459,-0.8993643,0.25125855,-0.6951347,-0.9933098,-0.037020475,-1.8035191,0.22844549,2.2992532,2.9954545,3.8767145,2.9569778,2.688058,1.6514472,1.1731454,2.2044702,3.2029505,0.041917972,-0.83431494,-1.3287579,1.190317,1.2840477,2.0461662,5.280905,3.0463378,0.039311655,0.09624157,-0.15581596,0.63517475,-0.47252354,0.17579313,-0.9715686,0.4038416,0.093793385,-2.089703,-0.45979986,1.4330134,1.5326527,1.6423992,-0.3757643,-0.60510796,-1.578233,0.2243066,2.6655529,2.4059258,-1.7178582,-2.9892979,-1.4948783,2.889179,3.5815744,2.6155238,5.0930767,2.8874345,0.38452402,-0.03788331,0.62323713,-0.075313374,0.07505453,-0.28055328,1.0242792,0.6436237,-0.5769551,-2.0637267,-1.8309429,0.093335524,1.8173859,-0.6716163,-1.0801127,-2.93158,-0.65941626,1.7603819,3.5310428,0.2926814,-1.3260088,-0.6385002,0.95100963,0.31158966,0.9210869,2.2356732,2.8986409,1.3320056,-0.49068484,-0.44193238,0.5664342,-0.23895876,0.1145879,-0.5722539,-0.10297994,-0.050319754,-1.3165361,-1.6077358,-2.6963625,-2.720115,-1.6986134,-1.7716976,-1.0769407,-0.13077378,-0.4134295,0.4942258,1.292653,1.0506966,3.5662017,1.0484233,0.29578018,-1.4156717,-2.7765858,1.2097908,1.2935095,-1.2322829,-3.1948361,-1.028841,-1.0030878,-1.1579958,0.23364787,0.099125765,0.67589325,-1.0435364,-0.28986895,-2.339158,-2.6818657,-2.993928,-3.24569,0.4283703,4.125831,3.1086867,1.0987618,2.429847,3.772744,4.5000706,2.7063587,1.1102057,-0.9415589,-2.3324103,-1.0015662,0.012490561,-2.359891,-2.1192667,-0.95132226,-0.7389054,-0.34732038,-0.5739535,-0.40853024,-0.014421048,0.6852592,0.4095143,-1.0883223,-0.75968397,-2.8152041,-2.3308718,-3.394841,1.1301712,4.5866966,4.1768174,3.4126663,3.8144002,4.124934,3.0488617,1.8622321,-2.1411037,-2.2046723,-2.7461193,-0.97243494,-2.848913,-3.507883,-2.218702,-1.8595896,0.6094396,0.3249584,-0.59369135,0.68872684,0.643252,-0.9174554,-1.1030867,-0.9135655,-0.24844031,-2.9668982,-3.9357703,-5.242532,-1.9289097,0.84241056,2.975005,2.5873759,4.2745376,4.199109,2.5228515,3.0075898,-0.009385311,-2.0025804,-3.2483346,-4.062447,-4.4181924,-2.3776066,-2.4073193,-0.2052184,-0.043197818,0.22313656,0.9459127,-0.81945086,0.5500139,-0.19203496,0.14553061,-0.124318704,0.0046395846,-1.2222867,-3.8926353,-3.317691,-4.73998,-3.338868,-2.9765687,-1.7067386,0.3202531,0.25879171,0.11874457,-0.09080839,-1.955633,-5.3626766,-3.8441823,-3.4016254,-3.0397687,-0.767737,-1.3685973,0.26987663,-0.49841788,-0.72965074,-0.23341212,0.30778933,0.9386209,-0.12157079,-0.909851,-0.6142299,-0.4508964,0.10155672,0.045000374,-0.6699638,-1.4941026,-3.2117646,-4.3721757,-4.0683293,-2.8427536,-3.2326274,-2.5585425,-3.2146866,-2.508544,-1.9094474,-1.2897495,-1.0958401,-1.0978882,0.03154484,0.47029406,-0.81791806,0.49108636,0.78538233,-0.613047,-0.3734373,-0.18941438,-0.8610311,0.78929204,0.7265334,-0.10540608,-0.7877753,0.32231998,-1.1520591,-1.3077699,-1.194105,-1.0439858,0.12412513,-0.42686746,-0.007665827,0.22967441,-0.7173265,-0.5139063,0.48127598,0.4667266,-0.92681277,0.8337921,-0.69142395,0.82935923,-0.26916352,0.4548301,-0.6912886,0.4208851,0.33343744,0.37424994,-0.5547527,0.80134577,-0.9737787,-0.8598237,-0.64177734,0.9486987,-0.58630604,-0.0851311,0.67237484,0.5060687,-0.74287796,-0.29667464,-0.44405368,-0.6750579,0.20912725,-0.3061949,-0.30404416,-1.0311553,-0.89271045,-0.64098614,-0.8476471,-0.86824834,-0.17227863,-0.7546952,-0.6618142,0.005423069,-0.8273165,-0.8160436,0.53200483,-0.038645163,0.27709842,-0.5579563,0.38364112,-0.48997545,-0.29941928,0.65287787,0.60009396,0.26588458,-0.056631878,0.6199171,-0.932341,-0.13608249,0.7053305,0.49357164,-0.8167097,0.038872533,-0.27235124,-0.5551654,0.23697992,-0.46775255,-0.5870379,0.44671595,0.03634858,0.3304217,-0.16723895,-0.8957746,-0.35713685,0.752447,-0.2140381,0.18552917,0.85892403,0.91127986,0.7976827,0.69441366,0.3450854,0.34678006,0.48639375,-0.077947274,-0.7292905,0.5157692,0.758334,0.39491865,0.26531786,0.7999848,-0.9316457,-0.36892933,0.20642152,-0.4080523,0.59707415,0.9806411,-0.1069572,-0.01621449],"bias":-3.388114},{"activation":1.0,"weights":[0.49518025,0.45336318,0.5453013,0.4585997,-0.45295417,-0.5524504,-0.7754674,0.5792687,-0.038285017,0.35844958,0.1940825,0.03142321,-0.55471057,-0.853115,0.13592523,0.71658903,-0.01812172,0.67025197,-0.0962069,0.73712564,0.53756225,0.48958075,0.2633983,-0.21299827,0.7864094,0.31841326,0.587193,-0.69617987,0.37019503,0.54701924,-0.2756642,-0.8441582,-0.17210722,0.5890471,-0.6838899,-0.9193262,-0.77014965,0.8028422,0.3547596,-0.26358768,0.71002644,0.35488138,0.9800785,-0.6326646,-0.82409,-0.2170057,-0.658084,0.9136712,0.5442164,-0.8733019,-0.80919677,0.93873,0.50185096,-0.9651729,0.1281209,-0.8696687,0.89614487,-0.78099954,-0.12624955,-0.27975368,0.42799997,-0.96312326,0.71422607,-0.3622928,0.059470184,-0.21301165,0.012972165,0.86338747,0.2586359,-0.30868134,0.07237692,0.38473377,-0.13091683,0.64483863,-0.93045807,-0.044230904,-0.24128234,0.5323051,0.19211912,-0.9632246,-0.7868436,0.0011329608,0.09903264,-0.44536126,0.2723812,-0.692693,0.84980977,-0.33814862,-0.54262894,-0.6381759,-0.24921696,-0.07944864,0.6543876,0.6715578,-0.44754118,0.014264044,1.0443785,-0.12827726,0.28301358,-0.08376474,-0.19453105,0.9718357,1.3698146,0.94054484,1.4282845,1.3653905,0.31238928,0.17720295,-0.061223257,-0.28647447,-0.024306374,0.5273609,-0.38011372,-0.9427023,-0.06359362,-0.04394343,-0.40080371,0.11007699,0.7914649,-0.06574666,0.14948943,0.04048411,0.3858762,1.4271379,0.77612346,-0.11976595,0.4701513,1.0230637,0.763705,1.0149432,0.76506805,0.786025,1.5963249,1.1673645,0.40705153,-0.039504774,-0.05060026,0.3084608,0.43950376,0.6337138,0.44480395,0.38945293,-0.0016031488,-0.07635276,0.4501323,0.8860733,0.43980473,-0.18758525,0.79433364,1.2017835,0.58681864,1.4647455,0.19297944,0.5577661,-0.7524341,1.6835663,2.2086227,0.8296108,0.6357528,0.9370174,-0.41021138,1.6374124,-0.6280384,0.41269523,-0.33642784,0.111917846,-0.38843846,0.9057509,-0.73757696,0.16824175,0.9420015,0.2013551,-0.24553941,0.06097299,0.48194638,-0.41595948,-0.28558683,1.3241562,-0.083164014,1.5689033,-0.26528314,0.45884266,0.053152293,1.5311325,1.7601285,2.0471547,1.5542072,1.6430862,-0.5543304,0.23743214,-0.83983266,0.22794521,-0.17145991,-0.33154267,-0.04114767,-0.13718344,-0.4312365,-0.6406353,0.19483584,-0.1199857,0.6276113,1.1238016,-0.30086192,-0.43539363,0.68211126,0.07249506,1.2504268,-0.24088466,0.69353247,1.2399464,0.64917195,1.3734381,2.034609,1.4489524,1.4635756,0.94109666,0.7538602,-1.0681554,-0.9220748,-0.76201445,-0.64271206,0.33727098,0.7660831,0.80200225,0.17304605,-0.33949342,0.04221801,-0.41558215,-0.2949231,0.007161165,0.8017467,0.9593992,-0.06554954,1.2648764,1.2902465,1.6033028,1.7654711,0.35085994,0.9581471,0.67552,1.4279385,1.126196,0.143655,0.7417027,0.6960919,-0.44885415,-0.901072,-0.0036474606,-0.049985014,0.6410187,-0.9809118,-0.24311553,0.2214755,-0.8490581,-0.5429878,-0.32256263,0.06443847,0.37316513,1.1385705,-0.00015907834,0.20204248,1.442594,0.21471441,0.6801038,1.2424784,1.3429488,0.11965857,1.476111,-0.006507635,1.8225305,0.30628282,0.8791689,0.69539213,0.67103237,-0.29920554,0.023213668,-0.1664757,-0.8235789,0.28532037,-0.11005456,-0.89385235,0.49099326,0.72138,0.7352731,0.8856464,0.14012258,0.08379919,0.91038203,0.7383104,1.5258147,1.4867234,1.3731605,0.68213546,0.4498355,0.31999457,0.8557385,0.8383451,0.7549399,1.7087256,0.70473015,0.39877307,1.2296586,1.2833835,-0.32998365,-0.8609646,-0.3284928,-0.046876088,-0.5907598,0.32125396,0.4878193,-0.11820014,-0.5355792,0.33344918,-0.73958594,0.5886836,0.6151529,1.6184388,1.6053122,0.910607,0.4478058,1.1941255,0.9076384,0.6694932,1.5803998,2.5779338,3.2310083,1.0095356,-0.2242539,0.2926727,-0.7924697,1.1474432,-0.7466914,-1.022097,0.80233234,-0.40390188,0.3984416,0.22383976,-0.7426449,0.8248407,-0.7389203,0.9123934,-0.31778836,0.8152987,1.1759198,1.0046648,1.1275407,-0.1078766,1.2429949,1.3284812,1.0750961,0.99520785,2.2000043,1.9032171,2.958298,2.5582662,0.66144055,-1.0312278,-0.96932125,0.1990127,-0.24120247,-0.83843225,0.08823795,-0.1524259,-0.4354237,0.39231774,-0.38724706,-0.21482518,-0.3844558,-0.16711463,-0.1948427,1.3849567,1.5761771,0.3120871,1.927345,0.13409473,0.5562156,0.2260407,0.33808497,0.86136717,1.7168956,2.5761437,2.335563,2.1119792,-0.2861744,0.8803732,-1.4443963,-0.08212948,0.3286271,0.4799737,-1.0039718,0.18562233,0.22328258,0.8785148,0.09771075,0.019046172,0.8515627,0.31173274,0.39260948,1.5107929,0.97104067,0.07693152,0.024699653,1.412835,-0.057405397,0.8480777,0.8504195,1.450369,1.4536287,1.8069512,2.2223842,0.58992314,1.1836166,0.43694064,0.5873013,0.4798326,0.2895723,-0.09813461,-0.7773894,-0.84151757,0.63820136,0.91320276,0.64963627,0.19095822,0.64971703,0.39175814,2.0546765,-0.060716182,0.095435396,-0.15601978,1.2577001,0.6987486,0.417188,0.24341278,0.75991637,1.2916776,1.976714,1.231375,2.376174,2.6453178,0.50469464,0.89816207,-1.0271665,-0.5530623,1.1933563,-0.0245338,-0.31565568,0.15789832,0.5768236,-0.20491505,-0.63605344,0.8398307,-0.2237989,1.4636631,1.2490981,1.0316025,0.10897773,-0.12953053,-0.5314408,-0.4617466,0.56320876,0.8038002,0.3415613,1.7095122,-0.10775795,2.7857625,2.157789,1.7257537,1.3263894,0.4773523,-0.5374795,0.3860311,2.0027766,0.668008,-0.2071187,-0.6995397,0.74005646,0.07183063,-0.43727067,0.32287204,0.09228915,1.4351268,0.22751722,0.0030303826,0.21460514,-0.21300724,0.09012807,-0.17381898,0.73343855,0.48046187,1.2647967,0.77172834,1.376207,1.5064479,0.48828283,0.2353803,0.5384983,1.2085392,0.8084355,0.62772477,1.3877733,-0.68011117,-0.81898886,-0.90526044,0.17684323,-0.20468454,-0.2517885,0.13547695,-0.14875565,1.6042693,1.1506132,1.0434154,0.53578,-0.69690067,0.1538182,0.40724885,1.3314283,1.0369067,0.61498547,0.5115318,1.5097928,1.5778816,1.5554583,0.8324101,0.06835698,0.18209088,1.7813811,1.1550325,0.392431,0.67209506,0.5856321,-0.67106736,-0.8039282,0.7705245,0.9138666,-0.86812764,-0.4979053,1.0087396,1.1055465,-0.38477954,1.0991827,1.2738692,0.5151117,0.77929175,1.5920949,2.2783463,0.51852685,0.46267945,0.9879263,1.1377556,0.8838553,1.6737629,0.70553714,0.49143085,1.909298,0.090899855,-0.46299517,0.80442524,-0.3984907,0.12012362,0.04417043,-0.52920735,0.077346,-0.87801856,0.6979961,0.2893408,-0.29551506,0.6403477,0.21282786,0.87267286,-0.1633415,0.59719473,-0.08205127,2.4062057,1.5613216,1.2011411,0.1565316,1.3919903,0.14355512,0.511531,0.48654142,0.57863283,1.2684953,-0.6107323,0.25864008,-0.34155148,-0.7951842,0.70611197,-0.42844126,0.7746986,-0.116148025,-0.09510542,0.7736892,-0.5757504,0.8301413,0.20233154,1.5050218,1.2241857,1.2031726,1.2355967,1.0277797,1.6307586,0.84508497,-0.10632046,0.8270987,1.1329111,1.3184099,1.3272005,1.3468161,0.7184604,0.7627059,0.8227527,-0.07905746,0.3919727,0.5606825,0.58776194,-0.6168858,-0.45811036,-0.016150862,-0.6824566,0.8313633,0.38149384,1.4266002,1.6223778,-0.14716375,0.12894362,0.528516,0.14431557,1.2331,1.3208319,1.3472725,0.39512268,0.530483,1.9798169,1.7536519,1.8243308,0.33167577,1.2193267,-0.34427464,0.040846992,0.07166392,-0.2901308,-0.5627429,-0.15681547,-0.5807863,-0.49044418,-0.06313288,0.7654377,-0.26544127,0.06034772,0.98199344,-0.26446933,0.6327679,1.0301746,0.103290975,0.78412044,0.01946938,-0.12717676,-0.20869517,0.9359847,0.3057443,0.88208634,1.3452915,1.3524848,-0.89569974,0.33505428,-0.7201879,1.0205901,0.61173606,-0.27016637,0.41737258,0.7972386,0.16143954,-0.8571445,-0.20595634,-0.010826537,-0.67616695,1.0397271,0.32178208,-0.14181586,-0.45819694,-0.3341412,-0.9328397,0.44470045,-0.045529954,0.031201838,-0.5929736,0.17614149,-0.97334105,0.20788395,-0.48098937,-0.5663078,0.21692634,-0.7027759,-0.81799364,-0.46370274,-0.91168743,-0.99255455,0.54953307,0.1456988,-0.45112455,-0.115710855,-0.96895003,-0.21314968,0.94761896,0.2956081,-0.41805136,1.0822773,0.17987195,0.18352367,1.2457314,0.20043632,1.0714614,0.61139005,-0.0067072283,0.5660506,0.6341745,0.44587073,-0.529702,0.4676281,0.85520715,0.08992354,0.4726828,-0.07699505,0.8680115,-0.13777103,-0.4189374,-0.7982948,-0.3898759,0.5284964,-0.7205334,0.05606079,0.7937553,-0.5027892,-0.08009158,0.82661575,0.21420003,0.6975887,-0.16353224,0.8986593,-0.94598347,0.09305299,0.66245794,-0.48643696,0.69144356,-0.5895715,0.30062976,-0.46239245,0.19695623,-0.23286705,-0.91236913,-0.5580481,0.23445237,0.032426238,-0.52917325,-0.80562973,-0.30211806,-0.18619347,0.14699173,-0.07322407,0.24129295,0.23489444,-0.15617009,-0.7085872,-0.27754307,-0.3616388,-0.16247177,0.8039886,0.42328835,-0.13388315,-0.6123361,-0.38789907,0.8398131,0.24297523,-0.6460125,0.002512856,-0.9107161,-0.493891,-0.8339259,-0.020611297,-0.9128364,-0.3660239,0.33769107,-0.44297993,-0.26514113],"bias":3.4134152},{"activation":1.0,"weights":[0.63583636,0.5004821,-0.88584375,0.8414061,-0.5387602,-0.8109492,0.5514715,0.86090326,0.765434,-0.985119,-0.3962828,-0.67982733,-0.72604954,0.55684334,0.90542954,0.289836,-0.6973022,-0.13824677,-0.80254483,-0.91529644,-0.14802456,0.15039027,-0.36752617,0.3054285,-0.6796794,0.6746907,-0.5074097,0.7216246,0.5018858,0.57193303,-0.4544865,0.7314584,-0.29514694,-0.22350442,0.5575593,0.20705166,0.019085128,0.69662154,0.8052196,0.9175214,-0.27415362,0.14677116,-0.114926256,-0.09289286,-0.022550523,-0.14582282,-0.10141494,-0.8058436,0.32098404,0.5109599,-0.6147767,0.853842,-0.3020171,0.4195987,-0.6025493,0.13014197,0.088582516,-0.4027121,0.6944654,-0.83317363,0.98106873,-0.08645087,0.0010068552,0.82832944,-0.1959235,-0.96471775,-0.5708616,-0.544667,-0.3142087,-0.40038443,0.33806798,-0.3519799,0.63917345,-0.14921042,-0.65728426,-0.3390548,0.5709288,-0.51906097,0.46412122,0.66504335,0.5829697,-0.7968088,-0.00018835068,-0.028412342,-0.8233204,0.705246,-0.7531088,-0.32875168,0.21372613,0.9443832,-0.7679617,-0.27117008,0.25803846,1.2589234,0.8232078,-0.04613679,0.09370726,0.95141405,0.47133562,0.22119384,1.3617887,-0.20738241,0.33127928,0.5085543,-0.46183982,0.5362032,0.4515513,0.51303345,0.36992022,0.52829075,-0.269237,-0.79301167,0.16793096,-0.34054494,0.9271747,0.8637299,0.13292213,0.44603744,0.7801685,0.075261265,1.185477,1.096789,0.29363117,0.47349405,0.27011847,0.38807857,1.3184797,0.9408371,0.09110583,0.60879546,-0.13644096,-0.13430037,-1.135878,-1.5496979,-0.19589317,-1.1538823,-0.14308028,-0.1419974,0.49082977,0.6069233,-0.1648575,-0.916507,-0.071373224,-0.6444612,0.6218316,0.54365224,-0.33379728,0.21422586,-0.38833973,-1.1555685,-0.29602963,0.9110176,-0.0074673733,0.99741507,1.1440924,0.6886279,1.3594763,0.9785832,1.436757,-0.65757465,-0.8325003,-1.0269314,-0.36758512,-0.24093986,-1.2851055,-0.5479838,0.6211373,-0.31116053,-0.670879,0.56675744,0.47381958,-0.7375455,0.6605488,-0.730778,-0.21476144,0.8949296,0.5587793,-0.50819725,-0.2783679,0.6062073,0.36996388,1.1624316,0.549919,1.514219,0.94213665,0.56043345,1.2071654,-0.8439581,-0.115413174,-0.55006176,0.14745894,0.66257477,0.30595842,0.2560824,-0.89947194,-0.93067575,-0.9634971,0.49255678,-0.87943083,0.11074149,-0.7000161,-0.39732838,-1.2097874,-0.6882489,-0.45269534,0.93838125,-0.1662112,1.0958985,0.39815724,-0.26570508,0.02696189,0.15901807,-0.353016,-1.1053703,-0.6948344,-0.5508081,-0.12556115,-0.23906715,0.110091165,0.7835383,0.9254241,0.632517,0.08911807,0.58840245,-0.037418697,0.64783746,0.10225074,-0.835444,-0.35324886,-0.5463477,-0.75208354,-0.41479614,0.55259067,-1.0736501,-0.081380524,-0.2656606,-0.08777326,1.4527587,0.02182078,-1.2850555,-2.358203,-0.52627856,-2.3194966,-0.6279977,-1.3311986,-1.3069564,1.051826,2.002574,1.0600792,0.78623086,-0.007117791,-0.2164853,-0.6646396,0.56850487,-0.7076677,0.3981855,-0.7704249,0.14295605,-0.05597097,0.48097828,0.52844995,1.1040286,0.43307036,2.46859,2.4696758,3.039341,-0.8598349,-2.9254644,-2.2766025,-0.7407119,-1.5940623,-1.5447334,-1.2315197,0.5312975,2.2780776,1.359902,0.12108673,-0.45174268,0.7160369,-0.80558044,-0.3625496,0.13471512,0.30002007,0.51237637,-0.84785366,-0.4282267,-0.25858173,0.30537653,2.1884902,1.9205881,3.3120775,4.295516,4.1429014,2.9892325,-2.2758527,-4.2350264,-2.5747375,-1.5374558,0.5341039,-1.1054664,0.18909924,0.8665367,1.5434732,0.51095444,0.6555915,-0.42104492,0.031285957,0.32758433,-0.31418464,-0.70430905,0.36996004,-0.6018063,-0.16879995,-0.60056496,2.1943796,3.0975497,3.0083053,2.1843302,2.8782513,4.283545,3.930327,-0.10297997,-2.90664,-2.4827042,-1.5752655,0.28354794,0.43032694,0.06365569,0.17722674,2.5576282,0.95591944,0.5354788,1.1704427,0.48453632,-0.9951083,0.013533132,-0.22962283,0.41107368,-0.9785327,-1.0161445,0.22186643,1.1909239,1.2429849,0.93833536,1.7164145,1.4319258,2.6702273,2.0970135,1.4863005,-1.5134413,-3.1144636,-1.9304425,-1.312988,-0.97943944,0.1426573,1.6679233,1.401511,1.9929087,0.315033,-0.005063877,0.7979548,-0.20324637,0.8339806,-0.24569827,-0.15009665,-0.358173,0.7326963,-0.2856851,0.068016715,0.16147108,1.9739369,1.3322985,0.9692373,1.2048503,0.90022767,0.058234222,-1.061352,-1.5846441,-2.5529838,-1.205086,0.26383302,-0.6834851,-0.4510736,0.38828152,0.18563333,1.2447807,1.189856,1.22579,0.8932458,-0.12987494,-0.84305143,0.5460087,-0.74206907,0.5191039,0.5066147,-0.25084558,-0.44667438,0.07516759,-0.07300826,1.3213458,1.1073934,0.803654,0.5297246,0.08832794,-0.6816764,0.84268624,-0.23150629,-0.25206035,-0.7025768,0.43874255,-1.3260694,-0.48524544,0.07494676,-0.14344244,1.3979175,-0.19231328,-0.3022195,0.2830579,-0.622934,0.7544676,0.44831032,-0.4868102,-0.48112088,-0.5953114,-0.96896815,1.098294,1.0801443,1.4755931,0.7997543,0.80749464,-0.07162925,-0.07785164,0.48650697,-1.9836104,-1.9011832,-0.26695803,0.57074034,-0.6074206,-2.8397226,-1.6408972,-1.5358664,-0.5260848,0.7159929,1.0636214,0.5222704,-0.8922218,-0.37963068,-0.66201603,-0.30975544,0.98970175,0.54725444,0.18872048,0.66460043,-0.60268676,1.0255723,0.35366225,1.6647474,1.0693312,0.6983939,1.4181999,0.030342592,-0.73373103,-1.4764102,0.5175376,0.82040703,0.7974017,-2.595358,-1.0109441,-1.2110164,0.012418252,1.0515435,0.984406,0.14399247,-0.54178166,0.025823483,-0.5763508,0.86642754,0.37388808,-0.17891365,0.072318,-0.23243514,0.8184579,0.7549136,0.9817114,2.87151,3.876269,2.3989253,2.8173416,1.4289824,1.6062276,0.5523428,0.96167654,1.18719,0.09409518,-0.06127785,-0.6064306,-1.157396,0.2131563,0.68300277,-0.35388213,-0.084176406,-0.06872632,0.83103573,0.6626749,-0.5991153,-0.2787844,-0.5940195,-0.8667201,0.28921127,0.54723704,-0.36533853,1.531112,2.1587322,2.9435396,3.6182356,3.7060158,1.0298126,0.5795033,0.38299826,0.16138624,1.8373191,-0.11120436,0.029919952,0.3610931,1.555531,-0.5237961,-0.13720508,0.3589774,0.9394817,0.13696894,0.9220137,-0.6163569,0.4956471,0.12327481,-0.4146016,-1.0257161,0.3844137,0.6703479,0.82616746,0.8753358,0.63036627,2.017544,3.7830765,1.9263282,1.4057561,0.0028353715,0.54430735,0.38691762,0.1474812,0.40172875,1.0156723,-0.056681067,1.0403714,0.39234254,1.6102611,0.85914046,0.60306585,0.009592928,0.0568344,0.3202422,-0.09956789,0.8841553,0.6160951,-1.2503679,-0.37093744,0.060387213,-0.65168476,-0.33304,0.24265519,0.53783697,1.8760303,1.801938,1.1533858,1.4206663,0.47222432,0.34877825,1.224774,1.2082942,-0.4080492,0.25103092,0.22674382,1.9334625,0.9293809,2.0342376,-0.025206717,-0.4765266,0.006353263,-0.4423385,0.9083873,-0.8269641,0.51143044,-0.87245136,0.5746911,-0.35593948,-0.3021926,-1.6446581,-2.5784204,-0.8980338,-0.5471825,0.8251591,-0.38460675,0.32591137,0.99492,1.5431048,0.7863994,-0.46206108,0.4035868,-0.5499705,0.79522276,0.59737533,2.17045,1.6644047,0.75317603,0.78209543,0.8019035,-0.75857604,0.4967889,0.58918434,0.21318865,-1.1643325,0.020799987,-1.0932254,-0.31410375,-0.442305,-0.6396847,-0.6060223,-0.1334878,-0.3472252,1.1367365,0.24850641,1.6645243,0.25758046,-0.44623455,-0.6431896,-0.08891592,1.4927639,0.4623581,0.7927482,1.6092885,-0.328801,1.3608273,-0.2291102,-0.2066709,-0.33158398,-0.6634984,0.99587286,-0.5037447,0.100606434,-1.2210045,-0.8873623,-0.8489183,-0.95106465,-0.9701245,-1.336759,-1.3460084,-0.87888736,0.43724713,0.42420003,0.7485278,0.29504552,-0.2784976,1.7248551,1.0111471,1.6768066,0.5980793,1.581903,0.5191146,0.45854884,0.124491416,1.0093437,0.44261768,-0.3940966,0.5098407,-0.6236198,0.16263318,-0.5655948,-0.28954527,-0.26581016,-1.6611214,0.002582171,-1.2722708,-0.23763667,-1.1787449,-0.3566067,0.33638003,1.1305823,0.16214174,0.22691512,-0.28801715,0.8999451,0.6451059,1.3221941,0.5201296,-0.5380158,-0.62408096,-0.3361931,-0.03238034,-0.10357667,-0.6649269,0.17422056,0.47087777,-0.99109185,0.9002715,0.005137544,-0.28339943,0.087414086,0.5580233,-0.520233,-0.96472144,-0.63551277,0.66011727,-1.2890656,-0.15654786,0.057424694,-0.6958,0.5945743,1.0532191,1.2533082,0.36454317,1.1384267,0.64080936,-0.5246426,0.54876226,0.9669476,0.42210048,-0.26389676,0.5362582,-0.7785578,-0.15498316,-0.9765656,-0.5504322,0.74276406,-0.62355924,-0.44325352,-0.6498727,-0.52959585,0.69222254,0.688796,0.14165373,0.47943443,0.6796526,-0.6161481,1.0730683,-0.5456865,0.31347233,0.32354164,-0.10176966,0.31894985,-0.4666278,0.9454596,-0.15722692,-0.9916221,-0.9025961,-0.39450753,0.77930903,-0.9280796,0.59311116,0.75545037,0.69592774,-0.94800425,0.640084,0.35739967,0.37092063,-0.03940791,-0.5020752,-0.52992433,-0.22615112,-0.41382763,-0.23349422,0.7567922,-0.6078507,0.20323654,-0.50459343,0.016704809,-0.17450894,0.561026,-0.40894696,-0.92205495,0.8637362,-0.0378021,-0.57341516,0.33551455,0.70577073,0.50560963],"bias":0.97745323},{"activation":1.0,"weights":[0.61359215,0.006631851,0.98554504,0.29166162,0.57821405,0.39020503,0.4355513,0.9556103,-0.7882701,-0.13810372,-0.3728255,0.85698116,-0.029213028,-0.6586446,-0.03694034,-0.33760887,0.4189329,0.1937238,-0.9631233,-0.7444322,-0.93692803,0.7270322,0.962332,-0.010222316,0.51371276,0.75215673,-0.67567945,0.64643526,0.2818632,0.86285794,-0.38945615,0.105315685,0.14906168,-0.20978159,-0.36254573,0.88456076,-0.10975849,-0.50381196,0.7514646,0.6571098,0.6256403,-0.6404046,-0.8408574,0.3467107,0.21616974,-0.40825456,-0.93164384,0.48708925,0.12370581,-0.9693307,0.06922816,0.32351965,-0.043780208,-0.8713162,-0.0418396,-0.041317225,-0.6113925,0.42511237,-0.046304584,-0.50122476,0.8423633,0.2593983,-0.7961384,0.15378365,-0.3754962,0.00072519964,-0.14087725,-0.056575753,0.6158749,-0.5115627,0.4663652,0.28297925,-0.351718,0.27470827,-0.7094265,0.3284413,-0.17959304,0.042771105,-0.38157248,0.89730734,-0.21408494,-0.9000609,0.15585732,-0.43163383,0.241884,0.8072523,-0.74046016,0.10388405,0.30598,0.5015805,-0.062235042,0.91485727,-0.48860216,0.19428775,1.0183446,0.08847569,-0.61126727,0.109032795,-1.0490625,0.7283984,0.29972196,-0.69005865,1.1603249,1.05434,-0.49241486,0.40408838,0.15696259,0.4830752,-0.90320885,-0.99014693,-0.2467407,0.405944,-0.5326656,0.41399097,-0.15109041,-0.87564063,-0.26922277,-0.19091322,-0.28940994,-0.054447487,0.43294707,-0.81552786,0.38867617,0.39662158,0.26022857,-0.7396572,0.35198718,-0.48272046,-0.56240165,-0.53352284,-0.82813996,-0.24944317,-0.05045267,0.72342426,1.3154566,-0.5312012,0.6900129,-0.20403472,-0.40171573,-0.8486216,-0.12965798,0.731091,-0.8140646,-0.65538126,0.64820385,0.7361258,0.3288776,-0.3282281,-1.048472,0.18183692,-0.3797109,-1.1746119,-1.4253142,0.5063567,1.0174977,0.36577174,-0.29657486,0.13519454,0.27671587,0.37748408,1.3560928,0.22737063,1.3836908,0.39756685,0.62509596,0.90682864,0.38394064,-0.11048626,-0.9606122,0.7784266,-0.28666335,0.29205683,-0.13551429,-0.92205703,0.55919397,-0.1948493,0.9548264,-0.54824185,0.42107067,0.29754415,-0.1853891,0.95718247,-0.84357345,-0.09278023,-0.1015428,0.9552955,0.88186926,1.1133777,-0.15840064,-0.13044976,0.02532222,0.020349747,-0.5160049,-0.66023314,0.75675154,0.27926135,-0.19648233,-0.117156945,-0.8808459,0.0074374937,-1.0138165,0.6945576,0.5194815,-0.36835185,0.5881257,0.30105698,-0.44599625,0.6412993,0.16651213,1.0815448,0.1142865,-1.0311834,0.13812844,-0.8625399,-0.7039904,-0.94482654,-0.12808613,-1.0840393,0.78079724,0.36186913,0.8889469,0.5335819,-0.2544221,0.8987802,-0.46049392,0.49115217,-0.26359475,0.10542007,-0.3638189,-0.7487253,0.91900164,0.1966823,0.64603484,0.52596945,-1.060187,-1.3590441,-0.5966705,-1.0456113,-0.23873089,-0.78972644,-1.6147147,-2.1535938,-1.8735456,-1.5985156,-1.5877831,-0.6806247,0.019831523,-0.27048492,-0.36785996,-0.07549063,0.20444673,-0.11991812,-0.79477286,-0.35780138,-1.002929,-0.032026168,-0.8257233,0.01750564,0.39515507,0.17144963,0.39455736,0.043582227,0.32099912,-0.0009318492,-1.247721,-0.54496104,-0.7316662,-3.08792,-2.2317293,-2.584593,-3.0068626,-2.125534,-2.623664,-0.655199,-0.7888234,0.062663235,0.8711902,-0.94971687,-0.95817935,0.7493234,0.8593261,0.46337363,-0.025623892,-0.63409114,-0.66283476,-0.89931136,-0.29576024,1.2243336,2.1019583,0.5252291,0.16866434,0.2487033,-0.036351174,-0.3213254,-1.6766534,-1.6060677,-2.116786,-2.4158292,-1.2703377,-2.5129423,-0.8637413,-0.40648168,-0.00865355,-0.08616317,-0.7119632,0.80743575,0.98232305,-0.8689539,-0.12280095,-0.67399424,-0.48373646,-1.0050358,-0.027133137,0.28962606,1.1695482,1.6073248,-0.027671864,0.43431094,0.33109924,1.8974941,1.0346652,0.92716634,0.56042194,1.092362,-1.6254253,-1.5347964,-1.1456577,-1.3811303,0.03303617,-0.47727087,1.0091628,1.4147732,0.11393772,-0.13468456,0.7002625,-0.3563818,0.21749985,-0.15890709,0.49431333,-0.5787572,-0.6121085,0.344235,-0.23744035,0.48030508,2.1599994,1.7075615,1.5285943,2.5350611,0.5928491,2.6321616,3.1752965,2.1702938,0.25969604,-0.61955696,0.16359995,-0.43731907,0.99234056,1.5147935,1.1112604,0.78982186,1.0576295,0.31949133,0.544159,-0.22049214,0.24865663,0.69350946,0.29623705,-0.7163238,0.19015378,1.0543411,-0.16290434,0.7505055,0.9757524,-0.074817665,1.3436236,1.0510638,2.2411182,2.154982,3.3482726,2.2237027,0.83154553,-0.88501734,-0.80004185,0.5090797,0.5998292,1.2273322,1.3210108,0.26102307,-0.13598274,-0.20056015,-0.09113615,-0.17045085,0.21484673,0.19807278,-0.6958409,0.26358634,0.0013875893,0.19014426,0.19518195,2.020118,1.2611792,1.1960979,1.4680998,2.0492966,3.6398654,3.63444,3.9484434,2.5792983,0.043140523,-0.18659073,0.15276442,-0.5514923,0.72692895,0.21384563,0.71093714,0.8213887,1.3441913,-0.50833625,0.5002245,0.4310634,0.76604784,0.86424935,-0.53691494,-0.130937,0.31812066,0.61840785,0.8642843,1.4464296,1.7380786,2.3287845,1.7565696,2.450236,3.8110635,4.2573814,3.526608,0.6044944,0.49654248,-1.4676834,-0.9942167,-0.9112851,0.27310666,1.089586,0.59104156,1.030241,1.4319012,0.21446157,-0.5006908,0.6321662,-0.003979017,-0.5263224,0.32780847,0.8225866,1.1631924,0.83302003,0.25116405,0.81433237,1.9424111,1.0055184,2.4617739,3.36551,2.9275386,2.9865284,1.7775298,0.78126764,-0.16577515,-0.004168889,-0.8759833,-0.32270598,1.2072971,0.17574775,1.2060423,0.66456467,0.06017846,-0.10648274,-0.14339265,0.19447728,0.03648138,-0.284441,0.3181737,0.39496294,0.7790105,0.8356826,0.94710964,1.2604672,1.1062738,1.4127179,3.7887337,3.4661593,2.8593457,2.932331,1.7240953,0.3935007,-1.1167505,-1.242609,-0.34194013,-0.15353487,1.4971147,-0.032595366,0.3835668,0.40485498,0.6494227,-0.5379163,0.2756272,0.7767278,-0.80375105,0.79713887,0.5526335,0.7283872,0.013927722,-0.69547564,0.94325924,0.24916624,1.4994911,2.3277335,2.2779238,1.820231,1.0179653,1.7717521,0.1027807,0.5211022,-0.37855747,-1.0212554,0.39045578,0.70347935,0.6214233,-0.36533755,-0.012411144,-0.47830543,0.44554147,0.17841314,-0.8926678,0.76211447,-0.55236876,0.14321348,-0.8679403,-0.09161036,-0.94009507,-0.8329954,-1.1205202,0.82164997,1.8371743,0.8764496,0.92989945,0.45722753,0.27343398,0.041398417,0.639004,1.3060769,-0.119664125,0.049147166,0.56175476,0.33890703,0.8052588,0.41942742,0.4798475,0.8496644,0.81112456,-0.02969981,0.9772074,-0.98845905,-0.67267895,0.644085,-1.0083375,-1.1868026,-0.48759213,-2.2357805,-2.0319903,0.120860904,-0.2249845,0.2846424,0.0045785583,1.3211044,1.0482702,2.2739303,1.4571717,1.4255598,1.2698745,0.48561564,0.53054345,2.1107693,1.6279116,-0.75715494,0.3205798,-0.64122546,0.18816602,0.42628375,-0.39230528,-0.7145284,0.90676373,0.66080827,-1.0656452,-0.60426694,-1.3705323,-1.9821059,-1.5391933,-0.35552424,-1.0532984,0.64332885,0.53064436,0.26476067,1.2107468,0.9307304,0.8909625,0.8635865,1.6807157,0.11245917,0.035833046,0.4309561,1.0098752,0.37284297,-0.07079439,-0.1683338,-0.08799903,-0.9251141,-0.2591875,0.91018724,0.18266626,-0.3407714,0.38631254,-1.2179697,-0.14525658,-1.5297408,-1.8850192,-0.8161769,-1.0644594,-0.06946384,0.10861404,-0.9523786,-0.009304082,0.4016114,0.063138194,0.03321259,0.07880963,-0.71535665,-0.23237208,-0.63752246,0.6390272,-0.2939813,0.239939,0.14623503,0.13413818,-0.6189798,0.29880682,-0.45650864,0.09978187,0.34831035,-0.8825227,-0.0021054083,-0.002008085,-0.64204687,-1.3002584,-0.9422998,-0.5463402,0.38008308,0.009312282,-0.5258867,-1.6875604,0.43000838,-1.24168,-0.95359236,-0.30789945,0.75445193,0.97725505,0.63111275,1.1176805,-0.029829405,-0.04289369,-0.7428476,-0.90952295,0.99845946,-0.4469326,-0.8686992,-0.9478804,0.80656993,0.32906485,0.23921062,-0.3451574,-0.5291325,-0.2993228,-1.198778,-0.7072871,-1.091289,-0.784014,-0.79607075,-0.9132584,0.171488,-0.08924089,-0.76199687,0.32733884,-0.40424508,-0.1300382,0.057458207,0.41910687,0.6109898,-0.32266697,0.849759,-0.28820112,0.92394644,-0.59430397,-0.72412324,-0.3429582,-0.12139523,0.48557925,0.43604806,-0.1843604,-0.23250459,-1.1610038,-0.28217524,-1.3079703,-1.6152886,-1.4809358,-0.72286665,0.25486246,0.03843258,-0.65767753,-2.1186373,-0.28369188,-0.87548566,0.16540448,-0.6705613,-0.019497748,0.6018629,0.6583529,-0.6623914,0.043819644,-0.43632448,0.5591998,0.27705336,0.52204704,0.26201332,-0.38761318,0.59417206,-0.52017754,-1.0223485,-0.29772016,0.5604709,-0.9727701,-1.0143722,-1.2057985,-0.2445013,-0.9820182,-0.7686327,-0.029820021,-1.4936345,-0.03920156,-0.5357434,-0.23212992,0.7218439,0.07181975,-0.5765696,0.83213365,-0.19775984,-0.13090052,-0.103714466,-0.3844484,0.70733595,-0.061139345,0.26530528,-0.6551392,-0.90193546,0.6703509,0.6985771,0.22243792,0.9306918,-0.5904969,0.2667027,0.62849045,-0.37627074,-0.91699463,0.35029083,-0.4733878,0.64265454,0.35734114,-0.96553564,-0.42868257,-0.24580993,0.1731782,0.9320861,-0.6320919,0.50828534,0.368837,0.83829653,-0.8275646,0.7348223],"bias":1.6981785},{"activation":1.0,"weights":[-0.50336254,0.47340548,-0.7847316,-0.8760576,0.764027,0.98670614,0.094668984,-0.17003775,-0.33177888,0.47668576,0.75913346,-0.2708676,-0.99997103,-0.06573029,0.24555908,0.22658932,-0.7492157,-0.14397681,0.14203525,-0.002286315,0.42788303,0.41388822,-0.69993484,-0.30334353,-0.99414027,0.6502546,0.89141524,-0.2550354,-0.29907596,0.3245405,0.12584043,0.4251821,0.55155885,-0.2554885,-0.85252357,0.28511178,0.66079295,0.39223805,0.26148295,-0.6825068,-0.36978355,-0.5672069,-0.31159607,0.4361752,-0.8650152,-0.7838263,-0.85894984,0.19002871,0.39436397,-0.94739527,-0.54958045,0.4519288,0.034398556,0.7651546,-0.24235511,0.24921894,0.17111123,-0.14638126,0.2556255,-0.42733145,0.927736,-0.76289743,0.64256555,0.93752295,-0.5188077,0.6231935,0.77012163,-0.28499174,0.9005512,0.743248,0.68835664,0.3896043,0.43152326,0.7109409,0.2266361,0.42725846,0.3453666,0.65160936,0.19433063,-0.77903473,-0.3208015,0.72785056,-0.60930467,-0.08529723,-0.20108974,-0.4872887,0.281165,-0.33905435,-0.8651333,0.16498052,0.9761881,-0.944765,-0.9163267,0.41797915,0.24125305,0.4551673,0.6191827,0.7489298,0.38750285,-0.4866045,-0.60780144,-1.122235,-0.47900796,0.6791452,0.48795792,0.8962857,-0.894639,0.68902767,-0.28937143,-0.47992453,0.52946156,-0.10143137,-0.15658832,-0.72202647,0.16725917,-0.4219128,0.097879626,0.37233272,0.47286272,0.7486472,-0.5320495,-0.124756545,-0.3378156,1.0251145,1.0745423,0.50917363,0.45617726,0.8930663,-0.6297876,0.32940766,0.43546423,-0.0065724812,-0.5732491,-0.58213896,0.9388264,-0.78217906,0.38749394,-0.7339358,0.49601385,0.95421386,-0.62881494,0.64388096,-0.07908666,-0.51653546,-0.59189856,-0.7013833,0.07305204,0.8598779,-0.8243951,-0.7536589,-0.34535483,0.10310008,-0.6441535,-0.32740697,0.7814297,0.7279102,0.49068838,0.9236248,-0.8972725,-0.2149301,-0.5203158,0.68831825,0.07425798,0.88681036,0.9832052,0.8411306,-0.019765332,-0.8403103,-0.34200072,0.057671063,0.8757868,-0.5767656,0.21779004,0.3238198,-0.37807432,0.64133036,-0.80189735,0.9137108,0.9256459,0.048335172,0.0011607166,-0.31197003,0.1604465,-0.30796465,1.4413979,-0.5535799,-0.65652525,0.38570166,0.74995965,1.0294564,0.56671226,0.13350454,0.114871636,0.8264734,-0.53312653,0.9675025,0.043651458,-0.21833666,-0.6427294,0.66219276,-0.2498002,-0.22398849,-0.46241885,1.008046,0.7932151,-0.06937731,0.37059134,-0.43688634,0.18455705,1.3610176,0.09169418,0.8066582,0.58948493,0.92344,0.17589138,-0.7499832,-0.7330481,0.12761027,-0.5527769,0.61229545,0.6931638,0.93667585,0.6944892,-0.08486994,-0.9548514,-0.20688175,0.8901886,0.06849908,-0.6311699,0.56655,-0.34348735,-0.8406334,0.68782413,-0.6710605,-0.8141136,-0.49927703,0.41163135,-0.3732006,0.9695157,-0.6488584,0.9045047,0.37761423,0.64049554,0.20638922,0.3366891,-0.7667958,-0.051531002,-0.23191023,0.51332474,0.22977047,0.5010436,0.83135724,0.941473,-0.014082909,-0.13397087,0.4428019,0.060093716,-0.14282125,-0.31740075,0.86051035,0.659578,-0.99608564,-0.4804465,0.62581354,0.6321855,0.45985356,0.9790198,0.15657489,0.0013185595,0.2808328,0.8691573,-0.6644856,0.40426722,-0.09912218,0.8035017,0.54904,0.24592714,0.5987675,0.7298424,-0.05649196,-0.63011026,0.05406646,0.7888435,0.45810238,-0.77487653,0.07704672,0.22703773,0.5586954,-0.24925606,0.06405022,0.54970515,0.76554376,0.020128887,1.0986553,0.4851358,-0.4045855,1.0584166,-0.578084,1.1987119,1.0314903,0.27020994,0.30294195,0.560049,0.38177326,-0.31560272,-0.78802663,0.19497293,0.022628235,-0.15150665,0.6818024,0.7728062,-0.42335176,0.015344765,0.73882574,0.54882145,0.21687163,0.5626899,-0.06736929,0.9656224,-0.37009645,-0.61573684,-0.47834775,1.3427926,-0.17972656,0.53448975,0.7783523,-0.7546135,0.017840363,0.69258535,0.06181196,0.29296443,-0.0055105663,-0.037335806,0.78456587,0.0037176847,0.7511911,0.04858291,-0.4066736,0.8478035,0.55658394,-0.7866696,0.43751726,-0.16529948,-1.0622153,0.47746995,0.6393292,1.0266883,0.54985046,0.76859236,0.20162675,-0.42819926,1.0473393,0.6325562,0.23097762,0.6638203,0.7713174,0.055208635,-0.6745739,0.90562,-0.29947916,-0.865605,-0.07788147,-0.2122577,0.74988383,0.9002666,-0.40306145,-0.98305464,0.9858108,-0.22434507,-0.95657176,-0.35171974,-0.22635005,-0.4935938,1.2729436,1.4128546,-0.1519519,0.31631404,0.60894763,-0.24344304,0.68513346,0.252537,0.5912017,-0.8310584,-0.09088334,-0.5799705,0.96019495,0.8772695,0.90689063,-0.5984024,-0.70095813,0.9610454,0.2859959,0.45289028,0.876896,-0.63380134,0.19895422,0.06632888,-0.60265243,-0.7944226,-0.6161602,0.70964605,0.2998366,0.5342539,0.019458823,-0.15971193,1.4827735,1.1601515,-0.26144627,-0.47095233,0.97573084,0.29085684,0.3994153,0.57534474,0.74775237,-0.8119881,-0.9473155,0.43168765,0.27562827,0.72552586,0.54269344,-0.04400312,0.057514463,-0.27404228,0.5572387,0.6986625,0.3143928,-1.0611824,-0.17825398,1.0783955,-0.57757527,0.62437034,0.01959617,1.1359938,1.2849714,-0.48910964,-0.7315791,-0.5344655,0.0018097768,0.7889432,-0.099396236,-0.574772,0.5553144,-0.22522213,0.20704241,-0.77646863,0.9570109,-0.008282959,0.57854307,-0.8549219,-0.7815355,-0.8783331,-0.44794446,-0.6091832,-0.62722296,-0.59793484,0.2912743,0.44477117,1.2101374,1.1991894,0.054378565,0.8671189,-0.08167995,-0.6812658,0.6585055,1.3317517,-0.31234264,0.3991179,-0.51292723,0.17565468,0.31158593,1.0501797,-0.76045936,0.57121825,0.9800083,0.6335152,0.8517981,-0.09412956,0.25909543,-0.43476257,-0.41892222,-0.4032441,0.83172166,-0.7575399,-0.86781096,0.19210124,-0.66767776,0.4992623,0.32735634,0.18190944,0.066606425,0.2507104,0.9268902,0.31048796,-0.08871007,-0.33238754,0.69206136,-0.291862,0.7538587,-0.9360561,0.06320511,0.82491606,0.937917,-0.61154336,-0.013500306,-0.55213845,0.49136615,-0.7595974,-0.6970131,-0.078662455,-0.93639004,0.7116453,-1.228639,-0.75978947,0.6840935,0.89571697,-0.3685699,0.7021202,-0.5242935,-0.12375568,0.27623627,-0.18314663,0.2591274,0.8502721,1.0113245,0.6288921,-0.3577707,1.0145903,-0.77371323,-0.8787862,0.91287935,0.6671846,-0.34781644,0.4079473,-0.101722814,-0.24816027,-0.65270925,0.8014142,0.273499,-0.42388278,-0.15901949,0.8939159,0.011080585,0.5148756,-0.9860894,-0.02924969,-0.49169737,-0.0782457,1.0072477,-0.8174699,0.19064718,0.40284643,-0.28679276,-0.29931107,0.9872402,0.96866333,0.61529267,0.84691507,-0.8380778,0.33955035,-0.07391129,0.050999165,0.36408365,-0.5995327,0.20591153,-0.92058,-0.8617748,0.54769546,0.27292874,0.5601431,-0.34010983,0.9651155,0.40434828,0.038319387,0.7572622,0.7377692,0.094139315,0.4857703,0.52386624,0.27794817,-0.20559552,0.2332943,0.5624837,-0.03163788,-0.14732465,0.14931539,0.76475036,0.5035614,-0.6054096,0.68616927,0.9170495,0.8087962,0.81649214,0.77616405,-0.05877184,0.32813454,0.819442,-0.012982059,-0.29214448,-0.68647164,0.46583825,-0.258981,0.86421615,0.19284509,0.21409877,0.33575734,0.89555895,0.35096255,0.27290502,-0.11440915,0.19552241,0.7325589,0.757437,-0.67045784,-0.31786722,-0.857571,0.92880106,-0.23309791,-0.90481853,-0.32764265,0.9868876,-0.97170633,0.54647046,0.48194206,-0.94425505,-0.3585958,1.0549263,0.34429806,0.45504254,-0.24533594,1.008976,0.20518315,-0.18328868,-0.67583513,-0.6310634,1.099539,-0.7890129,0.005560444,-0.24242117,0.9322538,0.055540297,-0.1933537,0.64764494,-0.99554265,0.6766484,0.010009646,-0.82879543,0.46614143,-0.49996513,0.5210106,-0.55927,0.11267003,-0.06688052,0.3340464,-0.45206335,0.73079306,1.35508,0.073129095,-0.5238324,-0.4487595,0.9698893,1.0792434,-0.12417282,1.0274482,0.9431015,0.48799154,-0.20835575,-0.5963466,0.8510947,-0.46380156,-0.7895905,0.030015105,0.95467496,-0.94864273,0.78969336,-0.5809091,-0.31554618,0.8403196,0.98323655,0.6835759,0.8547079,0.9587091,0.4773031,0.14259714,0.5874994,-0.11435523,-0.4856552,-0.6949143,0.21922018,0.52058154,0.2532633,0.31228167,0.76725435,0.013404314,-0.42831832,-0.86695635,-0.4133605,-0.48259798,-0.89108837,-0.97066915,0.049718738,0.019082665,0.8655622,-0.3269659,0.09341187,-0.28924978,-0.78639084,0.7530803,0.64498127,-0.31857306,-0.63568145,0.1856768,0.24885511,0.4074716,-0.86737615,-0.78259355,-0.759734,0.2568986,-0.797049,-0.5575126,-0.5838316,0.14954503,-0.52120125,-0.86458457,0.7499556,-0.8318311,0.5295304,-0.42178738,-0.17928004,-0.51035285,-0.74678636,-0.25156796,0.61630976,-0.7157573,0.45556083,-0.3070361,-0.53073627,-0.09187768,-0.6916078,-0.64446455,0.30385122,0.11655716,0.96078384,-0.7178977,0.20205967,-0.25809032,0.19552065,-0.37858403,0.19426793,-0.02932773,0.5669874,-0.8436598,0.118756734,0.24032307,-0.784852,-0.38170826,-0.7498281,-0.44859958,-0.784878,-0.96936953,-0.6739836,0.5933511,0.36805236,0.20678166,0.38618758,0.7793591,0.6321109,-0.33119977,-0.97406656,-0.5413801,-0.15069845,-0.21068978,0.5885675,0.6387269,-0.7282667,-0.01944806,0.53455627,0.8338706,0.772215,0.025128776,0.49028373,0.6585257,-0.3945142,0.57844687,-0.9492477],"bias":1.2125478},{"activation":1.0,"weights":[-0.90137374,0.70794046,0.6030965,-0.13144648,-0.3696277,0.14345741,0.15436327,-0.21157324,0.8309274,0.09235239,-0.109156966,-0.48361385,-0.3975075,-0.82253176,0.4247908,-0.15773553,-0.6573626,-0.03898084,0.44436145,-0.7459129,0.6270621,0.6669272,-0.32454085,-0.5278398,0.48153698,0.36963272,0.96744704,0.7144489,0.8047985,0.057661295,0.7686534,0.73864484,-0.45469534,-0.6756038,0.83636427,0.019097202,0.86983126,-0.6456939,0.79034644,0.23997119,0.022906456,-0.8751789,0.49789414,-1.3240699,-0.53562975,-0.34511083,0.4326791,-0.78860676,-0.85872203,-0.15440871,0.3751783,0.5596981,0.44618845,-0.9686408,-0.48250413,-0.44866633,0.71018946,0.40993714,-0.517874,-0.37355247,-0.051519334,-0.34211922,-0.14583701,0.8760464,-0.28768447,0.71057564,0.13201159,1.1862481,0.01008888,0.09104212,-0.9123385,0.3577127,-0.032630444,-0.77870786,-2.2113574,-1.5979295,-0.28440207,-0.2693746,-0.3850864,0.04989776,0.15731594,0.4255715,-0.19469297,-0.35695243,-0.22207808,0.8784598,0.98124945,-0.74490964,0.30347398,0.1715756,-0.678716,-0.5866039,0.15621063,-0.42221215,-1.3306352,-1.2130837,-2.0070176,-0.19976604,-1.0913159,-0.3844259,-2.2040987,-3.0028386,-3.3155823,-2.5465586,-1.626795,-0.39310724,-1.0506538,-0.102704465,-0.222027,0.32203287,-0.0856942,0.36506736,0.8271682,-0.24499989,0.9539934,0.8973876,-0.9364546,0.3608262,0.897174,-0.68725497,-0.20259312,0.45148113,-1.5193031,-1.8630629,-2.0213516,-2.0402565,-0.13268003,-0.5826981,